{"UUID": "10dbb96c-2e90-405d-9078-bebd5966bf5f", "BM25": {"terms": ["lt", "image", "gt", "open", "access", "edited", "and", "reviewed", "by", "kristy", "a", "nielson", "marquette", "university", "united", "states", "correspondence", "simone", "varrasi", "unit", "ic", "ut", "received", "04", "august", "2025", "accepted", "11", "published", "19", "citation", "s", "castellano", "magistro", "d", "editorial", "the", "challenges", "of", "cognitive", "frailty", "risk", "factors", "neuropsychological", "profiles", "psychometric", "assessment", "for", "healthy", "aging", "front", "neurosci", "17", "16979406", "doi", "10", "3389", "fnagi", "copyright", "this", "is", "an", "open-access", "article", "distributed", "under", "terms", "creative", "commons", "attribution", "license", "cc", "use", "distribution", "or", "reproduction", "in", "other", "forums", "permitted", "provided", "original", "author", "owner", "are", "credited", "that", "publication", "journal", "cited", "accordance", "with", "academic", "practice", "no", "which", "does", "not", "comply", "these", "1", "sabrina", "daniele", "2", "department", "educational", "sciences", "catania", "italy", "school", "health", "southampton", "kingdom", "keywords", "cf", "quality", "life", "cognition"], "weights": [3.4869098611660063, 3.2985048972898268, 3.430451902888115, 5.336857513025076, 2.9230042626019266, 4.284796343885175, 0.39613433172581936, 3.3314492199213808, 1.2978226646933004, 6.499667500618236, 0.2825314995661344, 6.499667500618236, 6.499667500618236, 4.570741295612103, 5.31617526196253, 3.46726231509107, 3.9467336590725055, 7.598604509920384, 12.684512719789808, 4.158649469737934, 6.499667500618236, 6.499667500618236, 3.126360572377152, 3.410650495025071, 7.107741736894935, 4.288238991212033, 4.755679473536447, 2.00048149376229, 2.874180071810407, 2.3021009282409888, 4.219686865595332, 1.3139565019299118, 10.108158360918189, 10.948195788354075, 1.801626484548309, 5.609782498304181, 0.5255937914030521, 4.253059259152893, 0.3300916392528915, 1.0858470499591832, 6.730213448587258, 2.622091839939491, 3.177898400768319, 3.6550040899088754, 4.303666629968644, 6.162903901888955, 2.6776325140041135, 0.6267150589676106, 4.329671124120517, 3.7211235197590975, 2.7689403985158476, 3.1060206627698563, 2.424295244974026, 9.348595122311004, 1.4761636544709302, 1.123598536391555, 2.7689403985158476, 4.511099704274251, 5.609782498304181, 1.3982777348725057, 1.7495336376746071, 1.1948314932197068, 4.101204645911684, 2.5992928703053053, 3.813397648258129, 2.7270934062458205, 4.866595202358908, 3.357142290838239, 3.7727134137230314, 3.900235330840941, 3.7336569917331017, 3.813397648258129, 3.3895499076882865, 4.4107052910465, 1.4345385010812366, 5.676661926284131, 0.3898140328332166, 1.9376765409686236, 4.219686865595332, 5.746886686526246, 2.6113458671956, 4.024228572317242, 2.424295244974026, 4.284796343885175, 1.1751364090603331, 4.284796343885175, 0.9236128482145453, 2.9569652641118953, 2.6739493838585244, 3.855851308466139, 3.7727134137230314, 0.6418243108934422, 3.558855722063745, 2.874180071810407, 2.0676062303663576, 1.4137485475395488, 3.3314492199213808, 1.3651846287697746, 4.284796343885175, 1.3891646498986099, 1.5377239778445324, 6.499667500618236, 6.499667500618236, 1.3222707695759872, 3.7727134137230314, 3.9467336590725055, 5.214006390932412, 8.631292477336435, 4.429695878100337, 3.855851308466139, 2.254577193423229, 9.348595122311004, 4.928404895728238, 3.4968488322361244, 4.8062105789952, 2.02678019766866, 2.424295244974026, 2.3947087278289714], "k1": 1.5, "b": 0.75, "avgdl": 198.29391602399315, "N": 1167}, "SpladeV3": {"model_id": "naver/splade-v3", "tokens": ["simone", "southampton", "marquette", "sabrina", "frail", "##ania", "##llan", "##ras", "var", "cf", "copyright", "reproduction", "cognitive", "##bution", "citation", "mag", "correspondence", "aging", "commons", "##metric", "healthy", "##ist", "risk", "editorial", "##ro", "cat", "##ty", "caste", "doi", "journal", "##gi", "profiles", "distribution", "challenges", "accepted", "lt", "permitted", "comply", "gt", "citing", "cognition", "##psy", "published", "access", "license", "##els", "italy", "wisconsin", "##5", "open", "##words", "cited", "cc", "original", "credited", "age", "university", "factors", "psycho", "permit", "assessment", "life", "challenge", "brittle", "profile", "forums", "##sc", "key", "quality", "author", "elderly", "kris", "daniel", "distributed", "italian", "##na", "journals", "licensed", "kingdom", "forum", "academic", "sciences", "factor", "owner", "##logical", "ut", "challenging", "assess", "##cho", "##i", "alzheimer", "michigan", "uk", "##6", "fragile", "practice", "risks", "publishing", "intelligence", "august", "##uro", "202", "health", "review", "##ra", "received", "f", "##word", "article", "ne", "educational", "citations", "##rata", "she", "britain", "syndrome", "universities", "1697", "brain", "date", "clinic", "creative", "&", "provided", "decline", "stable", "ic", "department", "unit", "dementia", "psychological", "patient", "psychology", "disease", "authors", "2020", "ni", "image", "prevalence", "front", "according", "copy", "##el", "accept", "##tri", "institute", "school", "nadia", "##o", "accordance", "practices", "attributed", "10", "hospital", "terms", "least", "allowed", "reproduce", "frame", "publication", "loyola", "##ara", "science", "@", "##hora", "reviewed", "domain", "##gar", "permission", "senior", "font", "338", "vaccine", "assessments", "milan", "photo", "updated", "depression", "due", "originally", "use", "no", "articles", "authorship", "wessex", "gonzaga", "acceptable", "tired", "edited", "submitted", "##logy", "research", "copies", "conform", "nerve", "204", "scientists", "dangerous", "references", "challenged", "acceptance", "brains", "replication", "schools", "replica", "##enia", "cfa", "chair", "psychiatrist", "index", "wolverine", "characteristics", "17", "houghton", "weak", "stiff", "education", "##9", "assignment", "problems", "clinical", "keys", "declining", "scholarship", "editing", "of", "admitted", "cite", "reference", "united", "nursing", "maria", "obesity", "onset", "academics", "##ske", "bianca", "proposed", "minimal", "mental", "catalan", "mentally", "older", "##ity", "written", "compliance", "approved", "motorola", "scale", "assessed", "credit", "##genic", "##dara", "images", "##ri", "report", "her", "dissertation", "email", "study", "vida", "college", "council", "scientist", "magazine", "##ris", "madonna", "rights", "owned", "committee", "conservative", "##40", "slowly", "degree", "##hampton", "criteria", "care", "scholarly", "england", "##f", "lobe", "test", "65", "cast", "manuscript", "deficiency", "mentioned", "paper", "for", "site", "website", "supplement", "##ists", "words", "adhere", "##ros", "theory", "##plication", "scientific", "dose", "diagnosis", "aged", "issued", "gideon", "lifetime", "37", "andrea", "propagation", "revision", "far", "fra", "venice", "associated", "kingdoms", "patent"], "weights": [2.6707987785339355, 2.6684303283691406, 2.6229259967803955, 2.37872052192688, 2.3245813846588135, 2.2518768310546875, 2.2386252880096436, 2.140259027481079, 2.105347156524658, 2.068697452545166, 2.062807321548462, 2.035587787628174, 1.9875487089157104, 1.9864413738250732, 1.9718191623687744, 1.9264521598815918, 1.9160621166229248, 1.903714895248413, 1.9019733667373657, 1.8894621133804321, 1.8375186920166016, 1.7897850275039673, 1.7890338897705078, 1.7618610858917236, 1.744706630706787, 1.7335025072097778, 1.7184280157089233, 1.7050094604492188, 1.7000207901000977, 1.6819466352462769, 1.6796343326568604, 1.6425666809082031, 1.6418101787567139, 1.641634225845337, 1.6382439136505127, 1.625175952911377, 1.6148145198822021, 1.612870216369629, 1.6033475399017334, 1.602110505104065, 1.5853151082992554, 1.5844770669937134, 1.5688467025756836, 1.5346461534500122, 1.5276738405227661, 1.4852147102355957, 1.4839982986450195, 1.48374605178833, 1.480499029159546, 1.4707950353622437, 1.4682722091674805, 1.467726707458496, 1.460088849067688, 1.4474027156829834, 1.4424355030059814, 1.430126428604126, 1.4202860593795776, 1.4046282768249512, 1.3956407308578491, 1.374464988708496, 1.3682336807250977, 1.3676797151565552, 1.3672605752944946, 1.3533036708831787, 1.3443543910980225, 1.3417165279388428, 1.3269823789596558, 1.3209424018859863, 1.320235013961792, 1.3185958862304688, 1.3165254592895508, 1.3110404014587402, 1.2707403898239136, 1.2652379274368286, 1.213486671447754, 1.2075988054275513, 1.1920188665390015, 1.174048662185669, 1.156622290611267, 1.154256820678711, 1.1480181217193604, 1.1371089220046997, 1.1201096773147583, 1.1186652183532715, 1.117577314376831, 1.1161797046661377, 1.1130622625350952, 1.1120009422302246, 1.107315182685852, 1.0945074558258057, 1.068865418434143, 1.0615832805633545, 1.0612401962280273, 1.0600717067718506, 1.0564918518066406, 1.056422472000122, 1.0558080673217773, 1.0544028282165527, 1.0514658689498901, 1.0511306524276733, 1.0340993404388428, 1.030871868133545, 1.0300652980804443, 1.0277297496795654, 1.0241109132766724, 1.0056517124176025, 1.0052177906036377, 1.00429368019104, 1.0034754276275635, 1.0018196105957031, 1.0002379417419434, 0.9964655041694641, 0.9864509105682373, 0.9838451147079468, 0.9650535583496094, 0.9641157388687134, 0.9582394957542419, 0.947461724281311, 0.9391053915023804, 0.9267182350158691, 0.9267066717147827, 0.9097390174865723, 0.9044650793075562, 0.8998642563819885, 0.896770179271698, 0.8953126668930054, 0.8924984931945801, 0.8885358572006226, 0.8821724057197571, 0.880103349685669, 0.8657407164573669, 0.8342901468276978, 0.8338435888290405, 0.8296918869018555, 0.8279955983161926, 0.8193747997283936, 0.811699628829956, 0.8102938532829285, 0.7980315685272217, 0.7868439555168152, 0.7867597937583923, 0.7859138250350952, 0.7787880897521973, 0.776497483253479, 0.765833854675293, 0.7658243179321289, 0.7436497807502747, 0.7374106049537659, 0.7371118068695068, 0.7353535890579224, 0.7350522875785828, 0.7321528792381287, 0.7287063598632812, 0.7145998477935791, 0.7060968279838562, 0.6994359493255615, 0.693909227848053, 0.6897197365760803, 0.6879733800888062, 0.6729583740234375, 0.6683768630027771, 0.6660051941871643, 0.6544811725616455, 0.6508978009223938, 0.6495402455329895, 0.645263135433197, 0.6393692493438721, 0.6370866894721985, 0.62673020362854, 0.620126485824585, 0.6128054261207581, 0.6120291948318481, 0.5987057089805603, 0.5912752151489258, 0.5904799103736877, 0.580619752407074, 0.5723756551742554, 0.5637548565864563, 0.5619697570800781, 0.560907781124115, 0.5426210761070251, 0.5230916142463684, 0.5213251113891602, 0.5160399675369263, 0.5154093503952026, 0.5141704082489014, 0.5138238668441772, 0.5023269653320312, 0.5011872053146362, 0.5005515813827515, 0.4915662109851837, 0.48489999771118164, 0.4801115393638611, 0.4778989255428314, 0.454271137714386, 0.4523717761039734, 0.4519101083278656, 0.4492354989051819, 0.4424220323562622, 0.4317097067832947, 0.4302847683429718, 0.41708531975746155, 0.4121682941913605, 0.4116438329219818, 0.4106263220310211, 0.40998807549476624, 0.3982093334197998, 0.3980388641357422, 0.3942854702472687, 0.3746224641799927, 0.3735683262348175, 0.36828532814979553, 0.3679182231426239, 0.3648548424243927, 0.3616984188556671, 0.34946221113204956, 0.3478412628173828, 0.3440142273902893, 0.3428678512573242, 0.3410625159740448, 0.3271508812904358, 0.32458892464637756, 0.3219192326068878, 0.31983843445777893, 0.31959405541419983, 0.3139339089393616, 0.31183144450187683, 0.30830615758895874, 0.3044077157974243, 0.3022703230381012, 0.29823431372642517, 0.2974720895290375, 0.2909999489784241, 0.282252699136734, 0.28133445978164673, 0.2781849205493927, 0.27739277482032776, 0.2745043635368347, 0.26597467064857483, 0.25567665696144104, 0.24306784570217133, 0.23852397501468658, 0.23148013651371002, 0.21041254699230194, 0.20986945927143097, 0.20072880387306213, 0.19500194489955902, 0.18453046679496765, 0.18101903796195984, 0.17469100654125214, 0.17361824214458466, 0.16182328760623932, 0.1593576967716217, 0.15874609351158142, 0.15335604548454285, 0.15314215421676636, 0.15123160183429718, 0.14309412240982056, 0.14168600738048553, 0.1406923532485962, 0.14065922796726227, 0.1367151290178299, 0.13552477955818176, 0.13517604768276215, 0.13463807106018066, 0.1341930478811264, 0.1319456249475479, 0.12850868701934814, 0.12682491540908813, 0.12181149423122406, 0.12156318873167038, 0.11466289311647415, 0.11405730992555618, 0.11389511078596115, 0.10761041939258575, 0.10604481399059296, 0.10218126326799393, 0.09913845360279083, 0.09820182621479034, 0.09641146659851074, 0.09624399989843369, 0.09305530786514282, 0.09143320471048355, 0.09109708666801453, 0.08983003348112106, 0.08916851878166199, 0.0838182121515274, 0.081915482878685, 0.08044169843196869, 0.07934965938329697, 0.0758175477385521, 0.06032237410545349, 0.059379078447818756, 0.058672986924648285, 0.05686896666884422, 0.055456556379795074, 0.05115080252289772, 0.04756008833646774, 0.039324305951595306, 0.038645341992378235, 0.03599078208208084, 0.03547735512256622, 0.02987689897418022, 0.02779277414083481, 0.02147461101412773, 0.018910521641373634, 0.018303846940398216, 0.01724175177514553, 0.017080554738640785, 0.01585080847144127, 0.011490976437926292, 0.009699537418782711, 0.004118095152080059, 0.0025940092746168375, 0.002163482131436467]}, "Qwen3-4B": {"model_id": "Qwen/Qwen3-Embedding-4B", "vector": [-0.00017569451301824301, 0.03819722309708595, -0.02169783227145672, -0.0016668906901031733, -0.0007522197556681931, 0.03797120600938797, -0.012205029837787151, 0.03864926099777222, 0.00020218112331349403, 0.009888334199786186, 0.029156461358070374, 0.06554552912712097, 0.011583478190004826, 0.0009888334898278117, -0.015369297005236149, -0.019889678806066513, 0.04113547131419182, 0.018081525340676308, 0.030738594010472298, -0.003559800563380122, -0.0008405084372498095, 0.012148525565862656, 0.03458091989159584, 0.02893044240772724, -0.037519168108701706, -0.02655724249780178, -0.01559531595557928, -0.05401856079697609, 0.01819453574717045, -0.02395802177488804, 0.022601908072829247, -0.016499392688274384, 0.016951430588960648, -0.019776668399572372, 0.004831157624721527, -0.0038140718825161457, -0.008532220497727394, 0.0010594644118100405, 0.03299878537654877, 0.01327862124890089, -0.0037575671449303627, 0.06102515012025833, 0.011018429882824421, 0.014917259104549885, -0.002486209850758314, -0.018759584054350853, 0.004802905488759279, -0.042039547115564346, -0.01316561084240675, -0.002330821705982089, 0.014691240154206753, 0.004068343434482813, -0.02893044240772724, -0.006328534334897995, 0.025653164833784103, 0.013617649674415588, 0.03096461296081543, 0.004068343434482813, 0.030512575060129166, 0.03322480618953705, 0.005848243832588196, 0.007402124814689159, 0.003672810038551688, -0.02407103218138218, -0.009662315249443054, -0.015143278054893017, 0.0030653837602585554, -0.020002689212560654, 0.010453382506966591, 0.0006957149598747492, 0.003729314776137471, 0.029608499258756638, 0.00598950544372201, 0.0, -0.01084891613572836, -0.017855506390333176, -0.004831157624721527, 0.0022884432692080736, -0.020002689212560654, 0.006639310624450445, -0.01378716342151165, -0.014239202253520489, 0.009040762670338154, 0.03299878537654877, 0.008871248923242092, 0.014182697050273418, -0.011639982461929321, 0.008419211022555828, 0.01943764090538025, -0.0010100227082148194, 0.009436296299099922, -0.014295706525444984, -0.014691240154206753, -0.0363890714943409, -0.005141933914273977, -0.0033902861177921295, -0.004520381335169077, -0.01616036333143711, -0.016612403094768524, 0.0024155788123607635, -0.007289115339517593, -0.017516478896141052, 0.03096461296081543, 0.014578230679035187, -0.002825238509103656, -0.014126192778348923, -0.00034256017534062266, 0.0012642942601814866, 0.006752320099622011, 0.007034843787550926, 0.013561144471168518, -0.02859141305088997, 0.004661643411964178, 0.024523070082068443, -0.010566391982138157, 0.006639310624450445, 0.04520381614565849, -0.007147853262722492, -0.006469795946031809, -0.025992194190621376, 0.0021330551244318485, 0.016386382281780243, -0.015369297005236149, -0.00779765797778964, 0.013391630724072456, -0.027913356199860573, -0.015256287530064583, 0.004492129199206829, 0.02395802177488804, 0.020906765013933182, -0.0263312216848135, -0.011074935086071491, 0.007289115339517593, 0.01316561084240675, -0.009605810977518559, 0.006130767520517111, 0.009888334199786186, 0.0035456742625683546, -0.018872592598199844, 0.012713572941720486, -0.00389882898889482, 0.007684648502618074, 0.011752991937100887, 0.017516478896141052, -0.004718148149549961, -0.03548499569296837, -0.006780572235584259, -0.011809497140347958, 0.007091348525136709, -0.017742497846484184, 0.005763486493378878, 0.0018787835724651814, 0.011300954036414623, 0.014013182371854782, 0.014691240154206753, 0.022714916616678238, 0.016612403094768524, -0.005254943389445543, 0.02418404072523117, 0.01740346848964691, 0.012996097095310688, 0.02542714588344097, -0.014013182371854782, -0.0300605371594429, 0.004237857647240162, 0.023845013231039047, -0.005367953330278397, 0.014917259104549885, 0.0010947799310088158, 0.009888334199786186, 0.013335125520825386, 0.007006591185927391, -0.009662315249443054, -0.027009280398488045, 0.008814743719995022, -0.014804249629378319, -0.018646573647856712, -0.018985603004693985, -0.007006591185927391, 0.025088118389248848, 0.006950086448341608, 0.030512575060129166, 0.00037610987783409655, 0.009662315249443054, -0.023845013231039047, 0.010792410932481289, 0.004379119724035263, -0.006017758045345545, 0.01141396351158619, -0.009379792027175426, 0.01378716342151165, 0.02768733724951744, 0.018985603004693985, 0.0038140718825161457, -0.004124848172068596, 0.0028393645770847797, -0.025879183784127235, -0.003842324251309037, 0.03910129889845848, -0.0026839766651391983, -0.003037131391465664, 0.01853356510400772, 0.023392975330352783, 0.002825238509103656, -0.007119601126760244, -0.013052601367235184, 0.010340373031795025, -0.004294362384825945, 0.004040090832859278, -0.01616036333143711, 0.008136686868965626, -0.0275743268430233, -0.006526300683617592, -0.0413614921271801, 9.137880988419056e-05, 0.012374544516205788, 0.002994752721861005, -0.00346091715618968, 0.022036859765648842, 0.0005191375967115164, -0.015708325430750847, 0.005480962805449963, -0.0023590740747749805, 0.02316695638000965, 0.008080181665718555, 0.0005897685186937451, 0.002330821705982089, 0.0019776669796556234, -0.022375889122486115, 0.018081525340676308, -0.010622896254062653, 0.014239202253520489, 0.0008369769202545285, -0.0020341717172414064, -0.013335125520825386, 0.011752991937100887, -0.035032957792282104, -0.004915914963930845, -0.009549305774271488, 0.003672810038551688, -0.02429705113172531, -0.009605810977518559, -0.016612403094768524, 0.0025003361515700817, -0.009323286823928356, -0.019211621955037117, 0.016386382281780243, -0.011639982461929321, -0.02644423209130764, -0.0009393917862325907, -0.00630028173327446, -0.006074262782931328, -0.0025568408891558647, -0.012431049719452858, -0.03910129889845848, -0.0021471811924129725, -0.00042025421862490475, -0.02282792702317238, -0.0053962054662406445, -0.0026981027331203222, -0.004463876597583294, -0.0325467474758625, 0.0013419883325695992, -0.0010029596742242575, 0.01265706866979599, 0.031642671674489975, 0.022375889122486115, -0.014069687575101852, -0.004068343434482813, -0.003616305300965905, 0.04836808145046234, -9.800046245800331e-05, 0.008984258398413658, 0.023279964923858643, 0.04814206436276436, 0.002980626653879881, 0.019211621955037117, -0.003672810038551688, 0.0008334453450515866, -0.0052831959910690784, -0.005311448127031326, 0.03186868876218796, -0.008419211022555828, 0.018646573647856712, -0.024410059675574303, -0.006865329574793577, -0.006356786470860243, 0.00983182992786169, -0.014239202253520489, 0.025879183784127235, -8.608148345956579e-05, 0.00045203816262073815, -0.008419211022555828, -0.01616036333143711, 0.018872592598199844, -0.01616036333143711, -0.015143278054893017, -0.002429705113172531, 0.024749089032411575, 0.00044674082892015576, -0.007063096389174461, 0.0053962054662406445, 0.010001344606280327, 0.03435489907860756, -0.02395802177488804, -0.013617649674415588, 0.002881743246689439, -0.009379792027175426, 0.009888334199786186, 0.012544059194624424, 0.01260056346654892, 0.0015821335837244987, -0.013617649674415588, 0.006893581710755825, 0.002881743246689439, -0.025879183784127235, -0.003927081357687712, -0.002980626653879881, -0.0037010624073445797, 0.012826582416892052, 0.012374544516205788, -0.03435489907860756, -0.017742497846484184, -0.011866001412272453, 0.027235299348831177, 0.013674153946340084, 0.01966365985572338, 0.006187272258102894, 0.04158750921487808, -0.006667562760412693, 0.005480962805449963, 0.02520112693309784, -0.012770078144967556, -0.014804249629378319, -0.004661643411964178, -0.0054527102038264275, 0.004350867122411728, 0.006498048547655344, 0.036163050681352615, -0.004548633936792612, -0.014352211728692055, 0.00661105802282691, 0.004407371859997511, -0.012544059194624424, -0.01616036333143711, -0.0053962054662406445, 0.03119063191115856, -0.007289115339517593, 0.003573926631361246, -0.03571101278066635, -0.04972419887781143, 0.010622896254062653, -0.00661105802282691, -0.0005332637811079621, -0.008927753195166588, 0.012148525565862656, 0.0006462733144871891, -0.014126192778348923, 0.02068074606359005, -0.003983586095273495, -0.006752320099622011, -0.005593972280621529, 0.008080181665718555, 0.025766175240278244, -0.034128881990909576, -0.030738594010472298, 0.020906765013933182, 0.006554553285241127, 0.021471813321113586, -0.010679401457309723, -0.008419211022555828, -0.008532220497727394, 0.01265706866979599, -0.0016033228021115065, -0.022262878715991974, 0.018759584054350853, 0.01740346848964691, 0.007515134289860725, -0.021358802914619446, -0.009323286823928356, -0.02056773565709591, 0.0300605371594429, -0.028365394100546837, 0.007684648502618074, -0.02531413733959198, 0.010227363556623459, -0.011244448833167553, -0.021019773557782173, 0.00983182992786169, -0.004435624461621046, 0.00983182992786169, 0.0263312216848135, -0.01604735478758812, -0.03525897487998009, -0.010057848878204823, 0.0015821335837244987, 0.00017569451301824301, 0.02768733724951744, 0.0288174320012331, 0.005763486493378878, 0.011809497140347958, -0.016838422045111656, -0.012770078144967556, 0.007289115339517593, -0.0052266912534832954, -0.0036021790001541376, -0.03096461296081543, -0.016386382281780243, -0.007741153240203857, -0.001737521612085402, -0.01932463049888611, -0.00802367739379406, 0.00779765797778964, 0.010566391982138157, 0.02893044240772724, 0.004802905488759279, 0.021584821864962578, -0.040909454226493835, 0.011074935086071491, 0.005028924439102411, -0.01830754615366459, 0.002005919348448515, -0.030512575060129166, -0.00173045857809484, 0.003037131391465664, 0.00389882898889482, 0.023618994280695915, -0.005819991230964661, 0.027913356199860573, -0.003672810038551688, -0.018985603004693985, 0.0025003361515700817, -0.005113681778311729, -0.018759584054350853, 0.01717744953930378, -0.002542714588344097, 0.02294093556702137, 0.016612403094768524, 0.02181084081530571, -0.00463339127600193, 0.0027546074707061052, -0.0036445576697587967, 0.024749089032411575, 0.012318039312958717, 0.004605138674378395, -0.015369297005236149, -0.04610789194703102, 0.021245792508125305, 0.029156461358070374, -0.029382480308413506, 0.009718820452690125, -0.022149870172142982, 0.004237857647240162, -0.016838422045111656, -0.020115697756409645, 0.0002701634366530925, 0.05040225386619568, -0.0020341717172414064, -0.01260056346654892, 0.0014549978077411652, -0.005311448127031326, 0.005763486493378878, 0.02056773565709591, 0.016838422045111656, -0.02181084081530571, 0.025766175240278244, -0.007628143765032291, 0.008927753195166588, 0.005254943389445543, 0.05492263659834862, -0.022601908072829247, 0.01265706866979599, 0.024862099438905716, 0.011300954036414623, -0.004548633936792612, 0.0013631775509566069, 0.029156461358070374, 0.01943764090538025, 0.004746400751173496, 0.005650477018207312, 0.02418404072523117, -0.023392975330352783, 0.009605810977518559, -0.027913356199860573, 0.00011300954065518454, 0.033902861177921295, -0.0037575671449303627, 0.01327862124890089, 0.0012501680757850409, -0.018872592598199844, -0.007458629552274942, 0.03232072666287422, -0.020341716706752777, -0.01830754615366459, -0.031416650861501694, 0.01322211604565382, 0.012713572941720486, -0.008249696344137192, 0.023845013231039047, 0.009097267873585224, -0.009097267873585224, -0.03548499569296837, -0.02418404072523117, 0.010622896254062653, 0.002938247984275222, -0.02305394597351551, 0.04023139551281929, -0.011809497140347958, 0.016838422045111656, -0.01943764090538025, 0.0388752818107605, 0.006102514918893576, 0.013730659149587154, -0.004350867122411728, 0.004718148149549961, -0.0052831959910690784, 0.0017022062093019485, -0.0003690467856358737, -0.015143278054893017, -0.026218213140964508, 0.01141396351158619, 0.003672810038551688, 0.02983451820909977, -0.026105202734470367, 0.01740346848964691, 0.01503026857972145, -0.002274316968396306, 0.054470598697662354, -0.01729045994579792, -0.010001344606280327, 0.01819453574717045, -0.011244448833167553, 0.031642671674489975, 0.002217812230810523, -0.012996097095310688, -0.0016951430588960648, 0.014182697050273418, 0.01084891613572836, 0.026105202734470367, 0.01616036333143711, -0.011809497140347958, -0.010622896254062653, 0.0055092149414122105, 0.03480693697929382, 0.028252385556697845, 0.0033196553122252226, 0.022036859765648842, 0.0388752818107605, 0.022488897666335106, 0.0008828870486468077, -0.007176105864346027, -0.017742497846484184, 0.008362705819308758, -0.013956678099930286, 0.009605810977518559, -0.0022460645996034145, -0.05311448499560356, -0.00017569451301824301, -0.01830754615366459, -0.04520381614565849, -0.0007098411442711949, -0.025766175240278244, 0.008249696344137192, 0.002443831181153655, 0.021019773557782173, -0.03661509230732918, -0.029156461358070374, 0.01717744953930378, -0.008532220497727394, -0.010227363556623459, -0.00025250567705370486, 0.02859141305088997, 0.009040762670338154, -0.0035456742625683546, -0.0017022062093019485, 0.007515134289860725, 0.01260056346654892, 0.01955064944922924, -0.01084891613572836, 0.021132783964276314, 0.006328534334897995, 0.03435489907860756, 0.016838422045111656, -0.03774518519639969, 0.007204358000308275, 0.002528588520362973, -0.028478404507040977, 0.029156461358070374, -0.002938247984275222, -0.018081525340676308, -0.009549305774271488, 0.00194941449444741, -0.0003478574799373746, 0.010453382506966591, -0.003785819513723254, -0.0013419883325695992, -0.024636078625917435, -0.014239202253520489, 0.004181352909654379, -0.03322480618953705, 0.05786088481545448, -0.012374544516205788, -0.02282792702317238, 0.01966365985572338, 0.018759584054350853, -0.002980626653879881, 0.046559929847717285, -0.001779900281690061, -0.011866001412272453, 0.034128881990909576, 8.608148345956579e-05, 0.02282792702317238, -0.020228708162903786, 0.0005085429293103516, 0.006413291208446026, -0.03548499569296837, -0.013900172896683216, -0.02169783227145672, -0.011639982461929321, 0.00030724468524567783, -0.012826582416892052, -0.00021012710931245238, -0.010566391982138157, 0.006328534334897995, -0.01740346848964691, 0.0008440400124527514, -0.004153100773692131, -0.001568007399328053, -0.008419211022555828, 0.0026274716947227716, -0.03593703359365463, 0.01932463049888611, 0.004407371859997511, 0.011583478190004826, -0.0027404814027249813, 0.007854162715375423, -0.0052266912534832954, 0.006272029597312212, -0.03322480618953705, 0.024636078625917435, 0.010961925610899925, 0.021471813321113586, -0.009662315249443054, 0.013335125520825386, 0.002175433561205864, 0.03096461296081543, 0.024410059675574303, -0.016499392688274384, 0.009153773076832294, -0.006130767520517111, 0.00018628916586749256, 0.02169783227145672, -0.006639310624450445, 0.015708325430750847, 0.016612403094768524, 0.00030194735154509544, 0.008362705819308758, -0.029156461358070374, -0.007910667918622494, -0.010453382506966591, 0.03932731971144676, -0.005254943389445543, -0.004605138674378395, 0.02746131829917431, -0.006385039072483778, 0.020228708162903786, 0.001892909756861627, -0.006356786470860243, -0.0025003361515700817, 0.00542445806786418, -0.04294362664222717, 0.012487553991377354, 0.03797120600938797, 0.017968516796827316, -0.0012501680757850409, 0.037293147295713425, 0.01197901088744402, 0.004661643411964178, 0.009323286823928356, 0.002429705113172531, -0.02893044240772724, 0.03186868876218796, 0.005254943389445543, 0.03209470957517624, 0.0275743268430233, -0.03119063191115856, 0.017629487439990044, -0.013391630724072456, -0.03435489907860756, 0.02859141305088997, -0.001462060958147049, 0.013900172896683216, 0.007345620077103376, -0.01446522120386362, 0.023618994280695915, -0.004831157624721527, 0.001568007399328053, 0.03119063191115856, -0.012318039312958717, -0.01322211604565382, -0.0055657196789979935, -0.00040259648812934756, -0.009436296299099922, -0.03593703359365463, -0.0363890714943409, 0.0028393645770847797, 0.0413614921271801, -0.006187272258102894, -0.012431049719452858, 0.018759584054350853, -0.001963540678843856, 0.021132783964276314, -0.007458629552274942, -0.01084891613572836, -0.004379119724035263, -0.016612403094768524, 0.011866001412272453, 0.0016457013553008437, -0.001412619254551828, 0.006017758045345545, -0.014804249629378319, -0.01943764090538025, 0.01627337373793125, 0.013956678099930286, 0.00389882898889482, 0.010679401457309723, 0.010735906660556793, -0.014917259104549885, -0.022714916616678238, 0.014691240154206753, 0.03119063191115856, -0.004294362384825945, -0.011018429882824421, 0.024749089032411575, -0.012826582416892052, 0.007147853262722492, -0.0030230050906538963, -0.0007945983088575304, -0.02181084081530571, 0.021358802914619446, -0.015256287530064583, -0.024410059675574303, 0.004096595570445061, -0.0035032955929636955, 0.023279964923858643, 0.028252385556697845, -0.034128881990909576, -0.020115697756409645, 0.03910129889845848, -0.06102515012025833, 0.004605138674378395, 0.021358802914619446, 0.03525897487998009, -0.009379792027175426, -0.03684110939502716, -0.012996097095310688, 0.010453382506966591, 0.00779765797778964, -0.012826582416892052, 0.006724067497998476, -0.009888334199786186, 0.00864522997289896, 0.013335125520825386, 0.007684648502618074, -0.01197901088744402, 0.0005721108173020184, 0.0035315481945872307, -0.012939591892063618, 0.011470467783510685, -0.00039200184983201325, -0.01729045994579792, -0.0025003361515700817, 0.01830754615366459, -0.0017092692432925105, 0.042039547115564346, 0.04000537842512131, -0.02305394597351551, 0.009323286823928356, 0.032772764563560486, 0.018985603004693985, -0.021584821864962578, -0.008814743719995022, 0.005254943389445543, 0.005763486493378878, -0.02429705113172531, -0.013335125520825386, -0.011018429882824421, 0.007571639027446508, 0.008871248923242092, 0.016838422045111656, 0.014126192778348923, 0.016838422045111656, -0.03435489907860756, 0.010622896254062653, 0.010566391982138157, 0.03119063191115856, -0.004237857647240162, 0.05311448499560356, -0.006808824837207794, -0.030286556109786034, -0.010283867828547955, 0.0263312216848135, 0.012261535041034222, 0.03910129889845848, -0.02305394597351551, -0.003249024273827672, -0.0026981027331203222, 0.007063096389174461, 0.0026133456267416477, -0.015708325430750847, -0.01446522120386362, -0.02316695638000965, -0.040683433413505554, 0.025992194190621376, -0.007289115339517593, -0.009153773076832294, 0.013335125520825386, -0.007289115339517593, -0.0014549978077411652, 0.020341716706752777, 0.004548633936792612, 0.011131439357995987, 0.025540156289935112, -0.010453382506966591, -0.00030724468524567783, -0.019211621955037117, -0.006752320099622011, 0.020228708162903786, 0.03706713020801544, -0.023618994280695915, 0.0013419883325695992, 0.007515134289860725, -0.01616036333143711, 0.034128881990909576, 0.0027546074707061052, 0.005480962805449963, -0.013900172896683216, 0.012770078144967556, 0.04294362664222717, 0.0020341717172414064, -0.02768733724951744, -0.01955064944922924, -0.00432261498644948, -0.02520112693309784, 0.008306201547384262, 0.01616036333143711, 0.03684110939502716, -0.016386382281780243, 0.01955064944922924, 0.012487553991377354, 0.02520112693309784, 0.021132783964276314, -0.03119063191115856, 0.014917259104549885, 0.03910129889845848, 0.005650477018207312, -0.0057352338917553425, -0.047690026462078094, 0.007571639027446508, -0.002175433561205864, 0.02429705113172531, -0.027913356199860573, -0.007571639027446508, -0.04113547131419182, 0.008136686868965626, 0.010170858353376389, -0.0012713572941720486, -0.027122288942337036, -0.0013773037353530526, -0.02893044240772724, 0.01446522120386362, -0.01616036333143711, 0.026670251041650772, 0.03119063191115856, 0.03661509230732918, 0.010509886778891087, 0.007091348525136709, -0.02870442345738411, -0.03525897487998009, 0.005367953330278397, 0.04814206436276436, -0.02983451820909977, 0.01943764090538025, -0.015821335837244987, 0.004548633936792612, -0.013956678099930286, 0.012092020362615585, 0.039779357612133026, -0.02859141305088997, -0.003616305300965905, 0.010679401457309723, 0.010792410932481289, -0.01740346848964691, 0.012431049719452858, -0.02418404072523117, -0.012996097095310688, -0.034128881990909576, -0.004802905488759279, -0.010905420407652855, 0.003037131391465664, -0.009662315249443054, -0.021019773557782173, 0.005367953330278397, -0.012883087620139122, 0.017064440995454788, 0.003955333959311247, -0.013052601367235184, 0.007204358000308275, 0.01842055469751358, -0.03910129889845848, -0.02893044240772724, -0.0004555697087198496, -0.0022601906675845385, -0.001356114516966045, -0.010509886778891087, 0.017629487439990044, -0.0014338084729388356, -0.008814743719995022, 0.003616305300965905, -0.014804249629378319, 0.013504640199244022, 0.016499392688274384, -0.015143278054893017, 0.008080181665718555, -0.00018540627206675708, -0.025992194190621376, -0.0008299138280563056, 0.015708325430750847, 0.010114354081451893, -0.029156461358070374, 0.0056787291541695595, 0.02870442345738411, -0.0018505312036722898, 0.0288174320012331, -0.026670251041650772, -0.008984258398413658, 0.012713572941720486, 0.05085429176688194, 0.02859141305088997, -0.01384366862475872, -3.3108262869063765e-05, 0.02859141305088997, 0.020115697756409645, 0.0057352338917553425, 0.017629487439990044, -0.017742497846484184, 0.0038140718825161457, -0.003517421893775463, -0.046559929847717285, 0.011752991937100887, -0.011696487665176392, -0.036163050681352615, -0.009379792027175426, -0.005057177040725946, -0.004040090832859278, -0.005876495968550444, -0.006017758045345545, 0.0036021790001541376, 0.026105202734470367, -0.004209605511277914, -0.0027263551019132137, 0.001836405019275844, 0.002274316968396306, -0.012713572941720486, -0.011131439357995987, -0.0463339127600193, -0.01717744953930378, 0.023279964923858643, -0.012826582416892052, 0.020115697756409645, -0.00983182992786169, -0.006695815362036228, -0.004124848172068596, 0.022601908072829247, -0.00630028173327446, -0.029608499258756638, 0.009153773076832294, 0.014126192778348923, 0.011244448833167553, -0.004181352909654379, 0.026670251041650772, -0.014917259104549885, -0.006526300683617592, 0.014691240154206753, -0.00796717219054699, -0.007402124814689159, 0.025653164833784103, -0.016725411638617516, 0.004096595570445061, 0.01440871600061655, -0.008080181665718555, -0.028365394100546837, 0.009662315249443054, 0.010453382506966591, -0.022601908072829247, 0.005933000706136227, -0.01729045994579792, 0.005537467543035746, -0.007628143765032291, -0.0053962054662406445, 0.006695815362036228, 0.01197901088744402, 0.03910129889845848, -0.03119063191115856, 0.015369297005236149, -0.01260056346654892, 0.006469795946031809, 0.013730659149587154, 0.0056787291541695595, 0.029382480308413506, -0.017855506390333176, -0.007628143765032291, -0.0031218884978443384, -0.031642671674489975, -0.027122288942337036, -0.027235299348831177, -0.00040965958032757044, -0.008871248923242092, -0.00977532472461462, 0.010792410932481289, 0.014069687575101852, -0.03345082327723503, 0.023392975330352783, 0.011131439357995987, -0.014578230679035187, -0.005706981755793095, -0.02893044240772724, -0.006017758045345545, -0.01384366862475872, -0.015143278054893017, -0.013448134995996952, 0.021245792508125305, 0.009662315249443054, 0.0038140718825161457, -0.003955333959311247, 0.026218213140964508, 0.0033196553122252226, -0.01265706866979599, -0.01327862124890089, -0.024862099438905716, 0.005480962805449963, 0.004294362384825945, -0.003672810038551688, -0.014917259104549885, -0.004831157624721527, 0.0011018429649993777, 0.009153773076832294, 0.03684110939502716, -0.007063096389174461, -0.017064440995454788, 0.008080181665718555, 0.01322211604565382, 0.01853356510400772, -0.0020341717172414064, -0.04113547131419182, -0.011300954036414623, 0.004463876597583294, -0.010679401457309723, -0.007063096389174461, -0.02316695638000965, 0.006385039072483778, -0.020115697756409645, 0.018081525340676308, 0.013561144471168518, 0.011583478190004826, 0.01260056346654892, -0.00692183431237936, 0.006724067497998476, 0.022036859765648842, -0.013956678099930286, 0.011866001412272453, 0.009662315249443054, -0.027348307892680168, -0.028365394100546837, -0.0008334453450515866, -0.02418404072523117, -0.005367953330278397, 0.014126192778348923, 0.023279964923858643, 0.0007486881804652512, 0.015143278054893017, -0.031642671674489975, -0.01627337373793125, -0.013391630724072456, -0.0001650998747209087, 0.0288174320012331, 0.031416650861501694, -0.0031783932354301214, -0.017968516796827316, 0.05740884691476822, -0.007854162715375423, 0.009944839403033257, -0.010792410932481289, -0.011187944561243057, -0.02294093556702137, -0.01446522120386362, -0.00864522997289896, 0.015256287530064583, -0.027122288942337036, 0.0007204358116723597, -0.007204358000308275, -0.025653164833784103, -0.02294093556702137, -0.01729045994579792, -0.04339566454291344, 0.022262878715991974, -0.026670251041650772, -0.0020482977852225304, -0.013617649674415588, 0.02983451820909977, 0.010961925610899925, 0.013730659149587154, -0.02407103218138218, 0.0056787291541695595, -0.007289115339517593, -0.00032843396184034646, 0.010453382506966591, 0.03684110939502716, 0.0013278620317578316, -0.01604735478758812, -0.019211621955037117, -0.006187272258102894, -0.008814743719995022, -0.01084891613572836, -0.006808824837207794, 0.00926678255200386, -0.003418538486585021, -0.023505983874201775, 0.029608499258756638, -0.0027546074707061052, -0.01593434438109398, 0.0300605371594429, 0.008306201547384262, -0.027009280398488045, -0.01559531595557928, 0.0019776669796556234, -0.014013182371854782, 0.007091348525136709, 0.0288174320012331, -0.021358802914619446, 0.0018081526504829526, 0.029382480308413506, 0.0003354970831423998, -0.0020341717172414064, -0.011187944561243057, 0.00723261060193181, -0.024749089032411575, 0.020454727113246918, 0.02056773565709591, 0.02418404072523117, -0.017742497846484184, 0.008984258398413658, 0.004068343434482813, 0.00018187472596764565, 0.017968516796827316, -0.025088118389248848, -0.03480693697929382, -0.01378716342151165, -0.012826582416892052, -0.012148525565862656, 0.004859410226345062, -0.011526972986757755, 0.010057848878204823, 0.03932731971144676, -0.009662315249443054, 0.017742497846484184, -0.01717744953930378, 0.013335125520825386, -0.02983451820909977, -0.004859410226345062, -0.040909454226493835, -0.005028924439102411, -0.013561144471168518, -0.006695815362036228, -0.03345082327723503, 0.020341716706752777, 0.03322480618953705, -0.008249696344137192, 0.021245792508125305, -0.0051701865158975124, -0.017516478896141052, -0.02983451820909977, 0.021584821864962578, -0.015369297005236149, -0.014691240154206753, -0.022375889122486115, 0.00723261060193181, 0.02429705113172531, -0.0275743268430233, -0.001243104925379157, 0.004972419701516628, -0.006780572235584259, 0.01384366862475872, 0.025766175240278244, 0.020341716706752777, -0.014126192778348923, 0.026783261448144913, 0.00630028173327446, -0.02893044240772724, -0.014182697050273418, 0.008419211022555828, -0.0022460645996034145, 0.051080312579870224, -0.00802367739379406, 0.00401183869689703, 0.001568007399328053, -0.0005014798371121287, 0.03367684409022331, -0.010622896254062653, 0.03864926099777222, 0.03435489907860756, -0.0023590740747749805, -0.031642671674489975, 0.045429833233356476, -0.02282792702317238, 0.016612403094768524, 0.0028111122082918882, -0.0027969861403107643, -0.006808824837207794, 0.018872592598199844, -0.007289115339517593, 0.039779357612133026, -0.027800345793366432, -0.013335125520825386, -0.0012148525565862656, -0.05424457788467407, 0.026105202734470367, -0.0014832501765340567, 0.01322211604565382, 0.00630028173327446, 0.01740346848964691, -0.016499392688274384, 0.06554552912712097, 0.03096461296081543, -0.010566391982138157, -0.004153100773692131, -0.006130767520517111, 0.02893044240772724, -0.0022884432692080736, -0.006243776995688677, -0.02644423209130764, -0.004153100773692131, -0.025879183784127235, -0.016838422045111656, 0.03322480618953705, 0.007289115339517593, -0.003672810038551688, 0.016386382281780243, 0.008136686868965626, -0.023505983874201775, -0.00401183869689703, 0.03322480618953705, -0.0027828598394989967, -0.007204358000308275, -0.003729314776137471, -0.01260056346654892, 0.005593972280621529, -0.016838422045111656, -0.010905420407652855, 0.02520112693309784, 0.010679401457309723, 0.005311448127031326, 0.0001871720451163128, -0.008871248923242092, 0.007458629552274942, 0.0006144893704913557, -0.006243776995688677, 0.005311448127031326, -0.03480693697929382, -0.0263312216848135, 0.015256287530064583, 0.012826582416892052, -0.009662315249443054, -0.005961253307759762, 0.023845013231039047, -0.0027404814027249813, -0.008249696344137192, -0.017516478896141052, 0.006554553285241127, 0.033902861177921295, 0.04226556792855263, 0.03232072666287422, -0.00011477531370474026, 0.005706981755793095, -0.020002689212560654, 0.015256287530064583, -0.01830754615366459, 0.017516478896141052, 0.032772764563560486, -0.0263312216848135, 0.000815787585452199, 0.002980626653879881, -0.03819722309708595, -0.025540156289935112, 0.020115697756409645, 0.023505983874201775, -0.009153773076832294, 0.019098611548542976, -0.017968516796827316, 0.00389882898889482, 0.011583478190004826, 0.03571101278066635, -0.01141396351158619, 0.013900172896683216, 0.012092020362615585, 0.0008334453450515866, 0.01604735478758812, -0.0011583478190004826, 0.0054527102038264275, -0.01593434438109398, -0.004831157624721527, 0.023392975330352783, 0.019889678806066513, 0.016951430588960648, -0.011526972986757755, 0.03299878537654877, 0.0363890714943409, 0.018985603004693985, -0.006441543810069561, 0.002980626653879881, -0.017742497846484184, 0.018646573647856712, 0.02893044240772724, -0.02395802177488804, 0.00463339127600193, -0.010340373031795025, -0.05288846418261528, -0.007176105864346027, -0.04226556792855263, 0.01260056346654892, 0.019889678806066513, 0.03525897487998009, 0.02068074606359005, 0.022149870172142982, -0.0013631775509566069, -0.007204358000308275, 0.02079375460743904, 0.02079375460743904, 0.028252385556697845, 0.003729314776137471, -0.01559531595557928, -0.025766175240278244, 0.02407103218138218, -0.009718820452690125, 0.00432261498644948, 0.015821335837244987, -0.008927753195166588, -0.0300605371594429, -0.023618994280695915, -0.011018429882824421, 0.004294362384825945, -0.011696487665176392, -0.001836405019275844, 0.010679401457309723, 0.022714916616678238, 0.030512575060129166, -0.002175433561205864, -0.01740346848964691, 0.014917259104549885, -0.002980626653879881, 0.004463876597583294, -0.018646573647856712, 0.015369297005236149, 0.02893044240772724, -0.0016668906901031733, 0.026783261448144913, -0.039553336799144745, -0.00432261498644948, 0.005480962805449963, 0.014917259104549885, -0.0037010624073445797, -0.0009252656018361449, 0.05062827467918396, 0.0032914027106016874, 0.03797120600938797, -0.006780572235584259, 0.0035315481945872307, 0.021245792508125305, 0.025088118389248848, 0.024749089032411575, 0.017855506390333176, 0.00598950544372201, 0.01717744953930378, 0.0016386383213102818, 0.05401856079697609, -0.04045741632580757, -0.023392975330352783, 0.018759584054350853, 0.022375889122486115, 0.0027828598394989967, 0.023279964923858643, 0.003136014798656106, 0.004915914963930845, 0.0037575671449303627, -0.01316561084240675, -0.0032914027106016874, -0.029156461358070374, 0.03684110939502716, 0.012996097095310688, -0.007628143765032291, 0.009662315249443054, 0.02181084081530571, 0.03345082327723503, 0.010340373031795025, 0.03661509230732918, 0.007402124814689159, -0.008080181665718555, 0.01503026857972145, -0.00921027734875679, 0.02893044240772724, -0.004266110248863697, 0.022036859765648842, -0.026218213140964508, -0.03797120600938797, -0.01943764090538025, 0.017855506390333176, 0.0005191375967115164, -0.009153773076832294, 0.023845013231039047, 0.03345082327723503, 0.009492801502346992, 0.007571639027446508, -0.02395802177488804, 0.013504640199244022, -0.01717744953930378, 0.011074935086071491, 0.00024014526570681483, -0.01616036333143711, 0.01616036333143711, -0.04045741632580757, -0.024410059675574303, -0.01327862124890089, -0.011526972986757755, -0.005113681778311729, -0.033902861177921295, 0.007571639027446508, 0.0026415979955345392, -0.015482306480407715, 0.04610789194703102, 0.012544059194624424, -0.009040762670338154, -0.001737521612085402, 0.02746131829917431, 0.02305394597351551, 0.004944167099893093, 0.0005862370016984642, 0.009153773076832294, 0.02079375460743904, -0.00858872476965189, -0.029608499258756638, -0.005254943389445543, -0.02056773565709591, 0.020002689212560654, -0.00086522928904742, -0.01141396351158619, -0.037293147295713425, 0.008532220497727394, 0.01503026857972145, -0.017742497846484184, 0.006102514918893576, -0.021132783964276314, -0.006667562760412693, -0.009718820452690125, 0.01717744953930378, 0.05379253998398781, 0.006724067497998476, -0.03661509230732918, -0.012374544516205788, 0.028139375150203705, -0.012148525565862656, 0.013617649674415588, -0.004661643411964178, 0.04746400564908981, -0.05831292271614075, -0.014804249629378319, -0.03593703359365463, 0.020341716706752777, 0.02192385122179985, -0.01559531595557928, -0.021132783964276314, 0.010622896254062653, 0.06599757075309753, -0.0003831729700323194, 0.03186868876218796, -0.005000672303140163, -0.019211621955037117, -0.03322480618953705, 0.0035456742625683546, 0.017629487439990044, 0.04452575743198395, -0.03480693697929382, -0.01729045994579792, -0.018985603004693985, -0.01627337373793125, -0.03119063191115856, 0.019889678806066513, -0.005933000706136227, 0.019776668399572372, -0.022601908072829247, -0.008193191140890121, 0.024410059675574303, 0.017064440995454788, 0.007345620077103376, -0.007458629552274942, 0.019776668399572372, 0.03367684409022331, 0.003573926631361246, -0.006893581710755825, -0.026218213140964508, 0.029156461358070374, 0.0018222788348793983, -0.0055092149414122105, 0.01717744953930378, 0.003051257459446788, -0.03186868876218796, -0.007854162715375423, -0.01966365985572338, -0.01729045994579792, -0.013391630724072456, -0.01084891613572836, 0.01203551609069109, 0.023279964923858643, -0.005254943389445543, 0.0013207989977672696, -0.007515134289860725, 0.02531413733959198, 0.011131439357995987, 0.013391630724072456, -0.01446522120386362, -0.004237857647240162, 0.031416650861501694, -0.00926678255200386, 0.0055657196789979935, -0.017855506390333176, 0.014804249629378319, 0.014578230679035187, -0.014917259104549885, 0.02983451820909977, 0.028478404507040977, -0.0363890714943409, 0.007628143765032291, -0.0009252656018361449, -0.038423243910074234, 0.0020765503868460655, 0.01316561084240675, -0.01604735478758812, 0.022601908072829247, -0.013674153946340084, 0.045429833233356476, 0.002118928823620081, -0.02282792702317238, -0.0005650476668961346, 0.016499392688274384, -0.027800345793366432, -0.0053962054662406445, 0.03480693697929382, 0.012883087620139122, -0.0024720835499465466, 0.021019773557782173, -0.021132783964276314, 0.024749089032411575, 0.008249696344137192, -0.0015891966177150607, 0.003983586095273495, 0.0300605371594429, -0.020228708162903786, 0.01943764090538025, -0.027122288942337036, -0.02655724249780178, -0.003347907681018114, -0.006865329574793577, 0.001737521612085402, -0.02395802177488804, -0.011639982461929321, -0.01819453574717045, 0.021132783964276314, 0.003842324251309037, -0.015369297005236149, -0.003785819513723254, 0.024749089032411575, -0.015256287530064583, 0.0019211621256545186, -0.003517421893775463, -0.01853356510400772, 0.021132783964276314, 0.0025709669571369886, -0.009436296299099922, 0.0038705766201019287, -0.020906765013933182, -0.026783261448144913, -0.014352211728692055, 0.01932463049888611, -0.007910667918622494, -0.018759584054350853, -0.017516478896141052, -0.02294093556702137, 0.0035315481945872307, 0.012092020362615585, 0.01729045994579792, -0.003362033748999238, -0.022149870172142982, -0.004689896013587713, -0.006102514918893576, -0.007345620077103376, -0.008193191140890121, 0.01729045994579792, -0.01604735478758812, -0.0008899501408450305, 0.0038140718825161457, 0.01084891613572836, 0.009436296299099922, 0.035032957792282104, -0.05175836756825447, -0.02520112693309784, -0.01378716342151165, -0.027348307892680168, 0.030286556109786034, 0.021245792508125305, -0.009718820452690125, 0.017855506390333176, -0.024410059675574303, 0.01853356510400772, -0.01322211604565382, -0.039553336799144745, 0.04023139551281929, 0.025088118389248848, -0.000815787585452199, -0.004944167099893093, 0.006526300683617592, -0.04023139551281929, 0.02395802177488804, 0.011300954036414623, -0.025653164833784103, -0.0288174320012331, -0.0056787291541695595, -0.004915914963930845, 0.030512575060129166, -0.006385039072483778, 0.029156461358070374, 0.0014338084729388356, -0.0009464548784308136, -0.011244448833167553, 0.007345620077103376, -0.040909454226493835, -0.0027263551019132137, -0.023505983874201775, -0.006017758045345545, 0.004661643411964178, 0.003037131391465664, -0.014069687575101852, 0.015369297005236149, 0.01503026857972145, -0.002231938298791647, 0.010566391982138157, -0.025879183784127235, 0.012487553991377354, -0.006272029597312212, 0.04294362664222717, -0.006724067497998476, 0.012544059194624424, -0.0009111394174396992, -0.021358802914619446, 0.024749089032411575, -0.0027404814027249813, 0.02169783227145672, 0.013617649674415588, -0.00389882898889482, 0.0036445576697587967, -0.0438477024435997, 0.024636078625917435, -8.740581688471138e-05, -0.014578230679035187, 0.019776668399572372, -0.013391630724072456, -0.0024579574819654226, -0.018985603004693985, -0.04249158501625061, 0.005593972280621529, -0.019889678806066513, -0.007854162715375423, -0.00802367739379406, 0.004802905488759279, 0.038423243910074234, 0.04000537842512131, -0.03571101278066635, -0.019098611548542976, -0.00921027734875679, 0.0021471811924129725, -0.04814206436276436, 0.02859141305088997, 0.010340373031795025, 0.016386382281780243, -0.02305394597351551, 0.034128881990909576, -0.0010100227082148194, 0.019776668399572372, 0.011187944561243057, 0.022601908072829247, 0.010227363556623459, 0.013391630724072456, -0.006102514918893576, -0.009662315249443054, -0.004831157624721527, -0.020341716706752777, 0.00032666820334270597, 0.011866001412272453, -0.01955064944922924, -0.002316695638000965, 0.020115697756409645, -0.027800345793366432, -0.008814743719995022, -0.0007416250882670283, -0.006469795946031809, -0.024523070082068443, 0.021132783964276314, 0.007628143765032291, -0.004548633936792612, -0.016725411638617516, 0.012939591892063618, 0.02181084081530571, 0.01503026857972145, 0.024749089032411575, 0.04045741632580757, 0.0051701865158975124, -0.019776668399572372, -0.021245792508125305, -0.017968516796827316, -0.022375889122486115, 0.02056773565709591, 0.0034467908553779125, 0.005254943389445543, -0.018081525340676308, 0.002062424086034298, -0.009549305774271488, -0.004209605511277914, -0.011018429882824421, 0.00488766236230731, 0.02282792702317238, -0.006102514918893576, -0.0015115025453269482, -0.026105202734470367, -0.008871248923242092, -0.0388752818107605, -0.005311448127031326, -0.03706713020801544, 0.012770078144967556, 0.020906765013933182, 0.04859410226345062, -0.010792410932481289, 0.00692183431237936, -0.002980626653879881, -0.002768733771517873, 0.01265706866979599, 0.00432261498644948, 0.02859141305088997, 0.04023139551281929, -0.00796717219054699, 0.0014055561041459441, 0.0012077894061803818, 0.024410059675574303, -0.003263150341808796, -0.008814743719995022, -0.003192519536241889, 0.013504640199244022, -0.02870442345738411, 0.0005721108173020184, -0.009718820452690125, -0.004463876597583294, -0.025540156289935112, -0.015143278054893017, 0.002231938298791647, 0.041813530027866364, 0.0017092692432925105, 0.00977532472461462, 0.030286556109786034, -0.016499392688274384, -0.00040965958032757044, 0.019211621955037117, 0.024862099438905716, -0.0054527102038264275, 0.008814743719995022, -0.01853356510400772, -0.0009464548784308136, -0.01842055469751358, -0.003672810038551688, 0.021245792508125305, -0.008419211022555828, -0.0017728371312841773, 0.017629487439990044, 0.007741153240203857, -0.028478404507040977, 0.0004944167449139059, -0.018646573647856712, -0.030512575060129166, -0.02169783227145672, -0.01265706866979599, -0.002274316968396306, -0.021584821864962578, 0.013052601367235184, 0.004237857647240162, -0.010114354081451893, -0.01853356510400772, 0.03910129889845848, -0.011300954036414623, 0.015708325430750847, -0.023618994280695915, -0.0388752818107605, 0.004831157624721527, -0.02542714588344097, -0.0025144622195512056, -0.011244448833167553, -0.00796717219054699, 0.017968516796827316, -0.020115697756409645, -0.0008475715294480324, 0.012713572941720486, -0.009153773076832294, -0.02644423209130764, 0.03096461296081543, 0.021019773557782173, -0.0438477024435997, -0.02418404072523117, 0.023392975330352783, -0.01853356510400772, 0.020906765013933182, -0.014295706525444984, 0.04497779533267021, 0.018759584054350853, -0.005593972280621529, 0.023279964923858643, 0.0027828598394989967, -0.04859410226345062, -0.03480693697929382, -0.003418538486585021, 0.00630028173327446, 0.023279964923858643, -0.04226556792855263, -0.01593434438109398, 0.007741153240203857, 0.01593434438109398, -0.026218213140964508, 0.007741153240203857, -0.009549305774271488, 0.00598950544372201, -0.0021471811924129725, 0.0015962597681209445, 0.016838422045111656, -0.0013278620317578316, 0.04339566454291344, 0.015369297005236149, 0.01265706866979599, -0.029608499258756638, -0.006243776995688677, 0.007402124814689159, -0.02893044240772724, -0.01842055469751358, -0.00802367739379406, 0.010057848878204823, 8.828870340948924e-05, 0.007910667918622494, 0.007684648502618074, 0.00519843865185976, 0.018759584054350853, 0.0021471811924129725, 0.010735906660556793, -0.021132783964276314, -0.029608499258756638, -0.01830754615366459, -0.008080181665718555, 0.009492801502346992, 0.015256287530064583, 0.00692183431237936, 0.0033761600498110056, -0.030512575060129166, -0.003672810038551688, 0.0038705766201019287, 0.01717744953930378, 0.03525897487998009, -0.0054527102038264275, 0.011074935086071491, -0.01503026857972145, 0.014239202253520489, 0.00043614619062282145, -0.0263312216848135, -0.01384366862475872, 0.04610789194703102, 0.022375889122486115, 0.007515134289860725, 0.004576886538416147, -0.0026133456267416477, 0.022714916616678238, -0.006837076973170042, 0.024749089032411575, 0.012883087620139122, -0.02655724249780178, 0.003051257459446788, 0.002825238509103656, 0.01616036333143711, 0.02983451820909977, 0.0006780572584830225, -0.016612403094768524, 0.010961925610899925, -0.023732002824544907, -0.011300954036414623, 0.024975107982754707, 0.021019773557782173, -0.007741153240203857, 0.02644423209130764, -0.010227363556623459, -0.005480962805449963, 0.022262878715991974, -0.0037575671449303627, -0.004576886538416147, 0.012374544516205788, -0.007006591185927391, 0.015256287530064583, 0.011583478190004826, -0.05605272948741913, 0.0012289787409827113, -0.003136014798656106, 0.024975107982754707, -0.007571639027446508, 0.03209470957517624, -0.0055092149414122105, 0.0031077624298632145, 0.03525897487998009, -0.02531413733959198, -0.008701734244823456, -0.01593434438109398, 0.0022036859299987555, 0.011357458308339119, -0.01260056346654892, -0.01446522120386362, -0.03661509230732918, -0.017516478896141052, -0.014295706525444984, -0.011922506615519524, 0.013956678099930286, 0.009662315249443054, -0.024636078625917435, -0.002104802755638957, 0.04045741632580757, 0.003037131391465664, -0.01740346848964691, -0.007515134289860725, -0.007091348525136709, 0.048820119351148605, -0.022149870172142982, 0.030738594010472298, -0.022488897666335106, 0.025766175240278244, -0.0027404814027249813, -0.0006603994988836348, -0.010679401457309723, -0.03480693697929382, -0.003192519536241889, -0.0008369769202545285, 0.014691240154206753, -0.01446522120386362, 0.008362705819308758, 0.008249696344137192, 0.014691240154206753, 0.006526300683617592, -0.010001344606280327, -0.007034843787550926, 0.007741153240203857, 0.026218213140964508, -0.01842055469751358, -0.03684110939502716, -0.01378716342151165, 0.02655724249780178, 0.017855506390333176, -0.005763486493378878, -0.018985603004693985, -0.003955333959311247, -0.008532220497727394, 0.04249158501625061, 0.021019773557782173, 0.003842324251309037, -0.04588187113404274, 0.011809497140347958, 0.003842324251309037, -0.02655724249780178, 0.02983451820909977, 0.0052831959910690784, -0.00983182992786169, 0.009436296299099922, -0.022262878715991974, -0.017968516796827316, 0.011300954036414623, -0.013448134995996952, 0.01943764090538025, 0.006243776995688677, 0.03864926099777222, 0.01446522120386362, -0.039779357612133026, -0.013561144471168518, 0.0363890714943409, 0.010961925610899925, -0.02644423209130764, 0.012883087620139122, -0.004802905488759279, 0.018759584054350853, 0.02893044240772724, -0.002528588520362973, -0.023732002824544907, -0.03299878537654877, 0.04859410226345062, -0.007741153240203857, 0.03299878537654877, -0.016612403094768524, -0.022375889122486115, 0.05718282610177994, 0.0013914299197494984, 0.016725411638617516, -0.014691240154206753, -0.03435489907860756, -0.014182697050273418, 0.00021012710931245238, -0.052436426281929016, 0.02294093556702137, -0.018759584054350853, 0.01943764090538025, 0.0010453382274135947, -0.021019773557782173, -0.006978339049965143, 0.012487553991377354, 0.0010594644118100405, -0.004661643411964178, -0.017516478896141052, 0.0055657196789979935, -0.015821335837244987, -0.017742497846484184, 0.013391630724072456, 0.006978339049965143, -0.0027404814027249813, -0.04294362664222717, -0.014182697050273418, -0.007571639027446508, 0.005367953330278397, -0.0026274716947227716, 0.03096461296081543, 0.016386382281780243, -0.004096595570445061, -0.006837076973170042, 0.0300605371594429, -0.018646573647856712, -0.011018429882824421, -0.003418538486585021, 0.044073719531297684, -0.004576886538416147, -0.008249696344137192, -0.022488897666335106, -0.024749089032411575, -0.012826582416892052, -0.025992194190621376, -0.015143278054893017, -0.002104802755638957, 0.005028924439102411, -0.03684110939502716, -0.020115697756409645, 0.04791604354977608, 0.011922506615519524, -0.03684110939502716, 0.014691240154206753, 0.01446522120386362, -0.013730659149587154, -0.02056773565709591, 0.02859141305088997, -0.0028393645770847797, -0.01203551609069109, -0.031642671674489975, -0.03322480618953705, 0.017516478896141052, 0.0030653837602585554, -0.00463339127600193, 0.020002689212560654, 0.004237857647240162, -0.0035456742625683546, 0.01932463049888611, -0.0014408716233447194, 0.020115697756409645, 0.016838422045111656, 0.006328534334897995, -0.019889678806066513, -0.012261535041034222, -0.00977532472461462, -0.006752320099622011, -0.02068074606359005, -0.030512575060129166, -0.016386382281780243, -0.0035032955929636955, 0.015256287530064583, -0.015821335837244987, 0.032772764563560486, -0.013052601367235184, 0.007458629552274942, -0.007628143765032291, 0.014352211728692055, -0.03480693697929382, -0.0003478574799373746, -0.03458091989159584, 0.021132783964276314, 0.004096595570445061, -0.013504640199244022, 0.018646573647856712, -0.027122288942337036, -0.00173045857809484, 0.02520112693309784, 0.017968516796827316, 0.019098611548542976, -0.03096461296081543, -0.001193663221783936, 0.02056773565709591, 0.006808824837207794, -0.020115697756409645, 0.0003213708696421236, -0.02429705113172531, 0.00432261498644948, -0.03797120600938797, -0.003842324251309037, -0.007345620077103376, 0.009436296299099922, -0.0006003631860949099, -0.022601908072829247, -0.0263312216848135, -0.013448134995996952, -0.01593434438109398, -0.009549305774271488, 0.004153100773692131, 0.011752991937100887, 0.045429833233356476, 0.01717744953930378, -0.009436296299099922, 0.046785950660705566, -0.022601908072829247, 0.012205029837787151, 0.014295706525444984, 0.02192385122179985, 0.003362033748999238, -0.01717744953930378, -0.01604735478758812, 0.008080181665718555, -0.00194941449444741, 0.006865329574793577, 0.02294093556702137, 0.006582805421203375, 0.005113681778311729, 0.06780572235584259, 0.02870442345738411, -0.028139375150203705, 0.040909454226493835, 0.016499392688274384, -0.005848243832588196, -0.01384366862475872, -0.005791739095002413, 0.008306201547384262, 0.011639982461929321, -0.03548499569296837, -0.004576886538416147, 0.0002542714646551758, -0.009097267873585224, 0.0013773037353530526, 0.012544059194624424, 0.029608499258756638, -0.010961925610899925, -0.01260056346654892, -0.02859141305088997, 0.0034326647873967886, 0.022036859765648842, 0.004605138674378395, -0.009436296299099922, 0.04271760582923889, 0.00802367739379406, 0.019211621955037117, -0.0015468180645257235, 0.0023449480067938566, -0.010961925610899925, 0.04520381614565849, -0.009718820452690125, 0.039553336799144745, 0.011300954036414623, 0.009379792027175426, 0.05627875030040741, -0.012318039312958717, -0.021358802914619446, -0.011809497140347958, -0.012996097095310688, 0.05379253998398781, -0.014691240154206753, -0.0056787291541695595, 0.007402124814689159, 0.02893044240772724, 0.005876495968550444, 0.002373200375586748, -0.035032957792282104, 0.020115697756409645, 0.011357458308339119, 0.028026364743709564, -0.03435489907860756, 0.021584821864962578, -0.013052601367235184, 0.01265706866979599, 0.009605810977518559, 0.007741153240203857, 0.020228708162903786, 0.03593703359365463, 0.0009676441550254822, -0.003263150341808796, 0.0019352883100509644, 0.008871248923242092, 0.0, 0.009040762670338154, 0.024975107982754707, -0.02181084081530571, 0.011809497140347958, 0.0012784204445779324, -0.03299878537654877, -0.043169643729925156, -0.0010735905962064862, -0.00519843865185976, 0.022375889122486115, 0.010792410932481289, -0.005904748570173979, 0.017064440995454788, 0.03548499569296837, 0.009549305774271488, 0.024749089032411575, -0.008419211022555828, -0.028478404507040977, 0.0034326647873967886, -0.01819453574717045, 0.009605810977518559, -0.006413291208446026, 0.030286556109786034, -0.015256287530064583, -0.013730659149587154, 0.004576886538416147, 0.03480693697929382, 0.021132783964276314, 0.0028111122082918882, 0.02294093556702137, 0.020906765013933182, -0.005706981755793095, 0.02429705113172531, -0.007034843787550926, -0.004689896013587713, -0.027235299348831177, 0.04045741632580757, -0.013900172896683216, -0.010057848878204823, -0.027348307892680168, -0.01503026857972145, -0.027009280398488045, 0.019098611548542976, 0.01503026857972145, 0.009662315249443054, 0.009436296299099922, 0.015821335837244987, -0.018759584054350853, -0.00779765797778964, -0.037519168108701706, 0.006752320099622011, 0.02316695638000965, -0.026896269991993904, 0.031416650861501694, 0.03458091989159584, -0.001892909756861627, -0.0300605371594429, -0.031642671674489975, 0.027348307892680168, 0.019098611548542976, 0.004124848172068596, -0.008758239448070526, 0.0011583478190004826, 0.0031218884978443384, -0.006074262782931328, 0.006808824837207794, -0.03525897487998009, 0.002062424086034298, 0.02893044240772724, -0.012939591892063618, 0.027348307892680168, 0.018872592598199844, 0.019098611548542976, 0.01853356510400772, 0.000974707247223705, -0.01322211604565382, 0.012883087620139122, -0.010679401457309723, -0.004040090832859278, 0.006554553285241127, 0.015821335837244987, 0.01819453574717045, 0.021358802914619446, 0.001624512136913836, -0.02282792702317238, -0.012431049719452858, -0.046785950660705566, 0.009718820452690125, 0.014352211728692055, 0.019211621955037117, 0.023505983874201775, 0.0010100227082148194, 0.00692183431237936, 0.04836808145046234, 0.021019773557782173, 0.018759584054350853, 0.000593300093896687, 0.04339566454291344, 0.004435624461621046, -0.00661105802282691, -0.02316695638000965, 0.006159019656479359, -0.014804249629378319, -0.009944839403033257, -0.01943764090538025, -0.004463876597583294, -0.010227363556623459, -0.02746131829917431, -0.01932463049888611, -0.00802367739379406, 0.004266110248863697, -0.02181084081530571, 0.03525897487998009, 0.02056773565709591, -0.006328534334897995, -0.022601908072829247, -0.032772764563560486, 0.008136686868965626, 0.016725411638617516, -0.026783261448144913, 0.01627337373793125, 0.009888334199786186, -0.014691240154206753, 0.004492129199206829, -0.031642671674489975, -0.025653164833784103, -0.018985603004693985, 0.00864522997289896, -0.0009252656018361449, -0.027348307892680168, 0.02068074606359005, -0.006159019656479359, 0.001892909756861627, 0.003136014798656106, -0.021019773557782173, -0.027235299348831177, -0.020341716706752777, -0.00921027734875679, 0.02169783227145672, 0.011244448833167553, 0.003573926631361246, 0.0388752818107605, -0.03797120600938797, 0.01717744953930378, 0.015821335837244987, 0.014069687575101852, 0.014691240154206753, -0.004435624461621046, 0.008136686868965626, 0.007458629552274942, -0.0037010624073445797, 0.0017445847624912858, -0.021245792508125305, -0.03119063191115856, -0.016499392688274384, -0.02282792702317238, 0.005904748570173979, 0.009436296299099922, 0.01384366862475872, -0.011074935086071491, -0.002175433561205864, -0.0034326647873967886, 0.00630028173327446, -0.0001386132644256577, 0.04023139551281929, 0.0016880800249055028, 0.03548499569296837, 0.007063096389174461, 0.00194941449444741, 0.044299740344285965, -0.045429833233356476, 0.0363890714943409, 0.0029523742850869894, -0.012996097095310688, -0.012431049719452858, -0.027009280398488045, 0.005876495968550444, 0.020115697756409645, 0.004181352909654379, -0.008758239448070526, -0.012261535041034222, -0.008249696344137192, 0.02395802177488804, -0.019211621955037117, 0.00779765797778964, -0.008362705819308758, -0.005057177040725946, -0.01717744953930378, 0.029608499258756638, -0.0032772766426205635, -0.010227363556623459, 0.020115697756409645, -0.024862099438905716, -0.012544059194624424, -0.01503026857972145, -0.009379792027175426, 0.0037010624073445797, -0.02542714588344097, -0.003362033748999238, -0.01830754615366459, 0.020115697756409645, 0.00926678255200386, -0.006102514918893576, 0.008871248923242092, 0.009944839403033257, 0.021132783964276314, 0.002274316968396306, -0.030738594010472298, 0.02520112693309784, -0.031416650861501694, -0.011866001412272453, -0.01717744953930378, -0.02520112693309784, 0.02294093556702137, 0.015821335837244987, 0.01842055469751358, 0.00779765797778964, -0.03548499569296837, 0.020115697756409645, 0.0022036859299987555, -0.006865329574793577, -0.0053962054662406445, -0.03322480618953705, 0.02983451820909977, -0.016951430588960648, 0.016838422045111656, 0.025088118389248848, -0.007204358000308275, 0.010453382506966591, 0.03932731971144676, 0.04339566454291344, -0.02531413733959198, 0.026218213140964508, -0.007515134289860725, -0.005763486493378878, 0.004576886538416147, -0.027122288942337036, 0.012770078144967556, 0.017516478896141052, -0.004435624461621046, -0.03684110939502716, 0.003404412418603897, 0.013617649674415588, -0.00926678255200386, 0.016838422045111656, 0.03435489907860756, 0.006102514918893576, 0.013335125520825386, -0.0038705766201019287, -0.0006639310158789158, -0.014239202253520489, 0.008701734244823456, 0.002217812230810523, -0.018872592598199844, -0.02282792702317238, -0.02305394597351551, -1.4567635844286997e-05, -0.03299878537654877, -0.023618994280695915, 0.030286556109786034, -0.008984258398413658, -0.013900172896683216, -0.014126192778348923, 0.011583478190004826, 0.01378716342151165, -0.0002648661029525101, -0.010905420407652855, 0.006837076973170042, 0.014352211728692055, 0.006724067497998476, 0.017968516796827316, 0.0056222244165837765, -0.012374544516205788, -0.02407103218138218, 0.03186868876218796, -0.006017758045345545, -0.02056773565709591, 0.01966365985572338, -0.016386382281780243, 0.019098611548542976, -0.0020482977852225304, 0.026670251041650772, -0.021358802914619446, 0.0020482977852225304, -0.04339566454291344, 0.025992194190621376, 0.020906765013933182, -0.0003831729700323194, -0.044073719531297684, 0.031416650861501694, 0.011809497140347958, 0.047690026462078094, 0.00796717219054699, -0.027235299348831177, 0.012431049719452858, -0.009549305774271488, -0.06418941915035248, 0.020002689212560654, -0.008532220497727394, -0.008814743719995022, 0.010679401457309723, 0.00864522997289896, -0.018872592598199844, 0.040909454226493835, -0.0017092692432925105, -0.021584821864962578, -0.006102514918893576, -0.004463876597583294, 0.021132783964276314, -0.014804249629378319, -0.04746400564908981, -0.017064440995454788, 0.01265706866979599, 0.00983182992786169, 0.012770078144967556, 0.004209605511277914, 0.02893044240772724, -0.02983451820909977, -0.009040762670338154, -0.002980626653879881, -0.011696487665176392, -0.02192385122179985, -0.007628143765032291, 0.028365394100546837, -0.014126192778348923, -0.00692183431237936, 0.01446522120386362, -0.0325467474758625, -0.0005262006889097393, -0.002924121916294098, 0.05153235048055649, 0.052662443369627, -0.020002689212560654, 0.021245792508125305, -0.02169783227145672, 0.00020482979016378522, 0.002980626653879881, -0.01853356510400772, -0.027122288942337036, 0.04452575743198395, 0.013617649674415588, 0.00598950544372201, -0.007571639027446508, 0.002118928823620081, 0.003785819513723254, 0.003136014798656106, -0.016951430588960648, 0.00796717219054699]}}
{"UUID": "a834a12d-6ece-4327-8e23-9d57836f9e33", "BM25": {"terms": ["editorial", "on", "the", "research", "topic", "open", "challenges", "of", "cognitive", "frailty", "risk", "factors", "neuropsychological", "profiles", "and", "psychometric", "assessment", "for", "healthy", "aging", "cf", "defined", "as", "co-occurrence", "physical", "mild", "impairment", "in", "absence", "dementia", "has", "emerged", "a", "critical", "concept", "populations", "grow", "older", "worldwide", "there", "is", "increasing", "recognition", "that", "age-related", "decline", "rarely", "confined", "to", "single", "domain", "rather", "it", "involves", "complex", "overlapping", "deteriorations", "health", "function", "psychosocial", "wellbeing", "functional", "capacity", "captures", "this", "intersection", "offering", "holistic", "lens", "through", "which", "understand", "vulnerability", "later", "life", "however", "despite", "its", "growing", "prominence", "remains", "contested", "evolving", "construct", "key", "persist", "regarding", "operational", "definition", "selection", "appropriate", "sensitive", "tools", "identification", "intervention", "strategies", "are", "both", "scalable", "person-centered", "existing", "approaches", "often", "rely", "screening", "instruments", "or", "models", "developed", "isolation", "may", "not", "fully", "reflect", "multidimensional", "nature", "moreover", "variation", "criteria", "used", "diagnose", "across", "studies", "made", "difficult", "build", "coherent", "body", "evidence", "translate", "findings", "into", "practical", "guidance", "clinicians", "policymakers", "recognizing", "these", "gaps", "was", "conceived", "bring", "together", "new", "methodological", "advancements", "interdisciplinary", "perspectives", "can", "move", "field", "forward", "includes", "contributions", "from", "epidemiology", "neuropsychology", "gerontology", "digital", "rehabilitation", "sciences", "theoretical", "insights", "applied", "specific", "areas", "addressed", "include", "modifiable", "development", "ecological", "assessments", "role", "biomarkers", "brain", "imaging", "evaluation", "technologyenhanced", "interventions", "articles", "shared", "commitment", "redefining", "only", "clinical", "condition", "but", "dynamic", "potentially", "reversible", "state", "doing", "so", "they", "support", "broader", "vision", "one", "prioritizes", "early", "detection", "personalized", "care", "integration", "social", "domains"], "weights": [3.070339019962691, 0.8527579446447351, 0.5506047916296981, 2.4375055853360386, 5.995403125457707, 2.49419102783309, 3.560878032832563, 0.3362227783932622, 1.3202645884197761, 7.7403986212999465, 2.195348962706376, 2.6606985504649505, 2.0004521884338384, 2.35547734460267, 0.4207551186560655, 3.3730727228676156, 2.2418504464982614, 0.5247177973174117, 3.6250213918582923, 2.9543998486659837, 7.0289564969248, 2.752785538766609, 1.409628409049542, 4.118101987397831, 3.298413711350403, 1.3698460571672497, 1.008382071467042, 0.46239701892491336, 2.4611301733356683, 0.794343035161739, 2.2486462455565066, 3.2737675176462977, 0.5786428735578482, 1.9916182250259498, 3.228545865841357, 2.262608913646229, 4.465473506656764, 1.4351199698964605, 3.698057814151075, 1.9742492065877426, 1.1437742059767244, 2.7768045671536985, 2.969951354907838, 1.5129840032522748, 3.621139036905231, 1.4925668320668084, 3.989713179582016, 4.465473506656764, 0.7798574171554048, 2.6028724390738116, 2.9392054008194846, 2.3415033895501822, 2.0954973686879343, 3.2737675176462977, 2.3697100912578253, 3.2737675176462977, 5.116661188654158, 2.2924399002953244, 1.2505364613164192, 3.228545865841357, 3.5512230083790923, 2.311643634256529, 2.969951354907838, 3.8797335478387502, 1.4217600002638582, 4.272326718902625, 4.938809971500949, 4.465473506656764, 4.724068017590283, 1.515857897951202, 1.7024840325253214, 3.487140376774876, 3.698057814151075, 3.1858378593017145, 1.9084510690150762, 1.7022777600040775, 2.275208316389971, 2.269272563444525, 3.1069433833977618, 4.724068017590283, 2.4774828403511266, 5.116661188654158, 4.272326718902625, 2.8811743465824233, 2.0848896692872527, 3.8797335478387502, 2.4451182117917147, 4.272326718902625, 3.32181731010266, 2.384211396089824, 2.9392054008194846, 2.8811743465824233, 2.2025356624021493, 3.8956342565651156, 1.6060840827363443, 2.0004521884338384, 0.9250896072824492, 2.416885609185337, 3.8797335478387502, 3.8797335478387502, 2.827219119490399, 2.146819508574156, 2.00938887464801, 3.4279922491510924, 2.2141805269187826, 3.228545865841357, 1.2010687659146704, 1.7393233096480267, 2.6028724390738116, 3.32181731010266, 1.2339723211332891, 1.6440017116017809, 2.969951354907838, 4.140814057424431, 3.7835398705710173, 2.4774828403511266, 2.398991589196592, 3.487140376774876, 1.8478445987245644, 1.5697271386530316, 3.8797335478387502, 1.6222080242250936, 1.107350287324885, 2.642805907023343, 3.32181731010266, 4.724068017590283, 3.8797335478387502, 2.752785538766609, 1.6962734610679393, 3.8797335478387502, 2.385843014669821, 1.7022777600040775, 2.6635786946611084, 3.487140376774876, 2.6849285773924514, 4.272326718902625, 3.487140376774876, 1.0935766865167285, 3.32181731010266, 1.1045757487347752, 4.118101987397831, 3.8797335478387502, 4.407424637539039, 2.2260045502111585, 2.909642280908068, 3.989713179582016, 3.487140376774876, 2.642805907023343, 1.3777084925396412, 3.621139036905231, 3.0353990780872175, 4.118101987397831, 2.8811743465824233, 2.5112705386003342, 0.8264491483333923, 3.5512230083790923, 3.228545865841357, 3.5512230083790923, 2.6849285773924514, 2.094870931067952, 2.853723344399543, 3.1069433833977618, 2.6225798356489043, 2.5649118170136624, 1.9243800610723079, 2.9392054008194846, 3.487140376774876, 2.3142953675636857, 3.4279922491510924, 2.027580170183358, 3.487140376774876, 2.275208316389971, 1.9324700974021658, 2.136145082052209, 1.1740962310068093, 1.862554068876027, 2.250212735959469, 5.116661188654158, 1.430873846638438, 2.6028724390738116, 2.853723344399543, 4.272326718902625, 4.724068017590283, 1.7984714372718105, 0.9914637012356933, 2.528738253116083, 1.544772142599936, 2.8811743465824233, 2.5112705386003342, 4.118101987397831, 2.3277789827926902, 5.116661188654158, 2.827219119490399, 1.8775505711186895, 1.7205773472621302, 2.7068885386275596, 3.621139036905231, 1.8192442249095762, 5.116661188654158, 1.6222080242250936, 2.3697100912578253, 2.853723344399543, 1.5253756215062926, 2.6849285773924514, 2.0848896692872527, 2.2260045502111585], "k1": 1.5, "b": 0.75, "avgdl": 198.29391602399315, "N": 1167}, "SpladeV3": {"model_id": "naver/splade-v3", "tokens": ["frail", "cf", "cognitive", "##ty", "aging", "editorial", "##psy", "cognition", "physical", "healthy", "research", "##metric", "dementia", "scala", "vulnerability", "decline", "##cho", "brittle", "risk", "challenges", "topic", "##mark", "coherent", "profiles", "deterioration", "age", "contested", "##iable", "##dim", "factors", "c", "##ron", "elderly", "gaps", "mild", "##ional", "critical", "criteria", "impairment", "researcher", "construct", "isolation", "declining", "open", "##ide", "psycho", "fragile", "##makers", "vulnerable", "absence", "##tology", "topics", "occurrence", "assessment", "imaging", "evidence", "digital", "challenging", "frame", "interventions", "multi", "instruments", "challenge", "detection", "centered", "brain", "rev", "profile", "stable", "##iti", "ge", "practical", "integration", "reflect", "##f", "overlapping", "domains", "rehabilitation", "prior", "functional", "ne", "factor", "##bei", "developed", "lc", "dynamic", "vision", "clinical", "domain", "identification", "approaches", "health", "alzheimer", "bio", "absent", "mod", "occurring", "##uro", "emerge", "related", "gap", "screening", "strategies", "models", "variation", "##logical", "addressed", "##ible", "clinic", "##ity", "integrated", "operational", "##listic", "isolated", "rely", "applied", "assess", "f", "emerged", "##ef", "rehab", "deteriorating", "definition", "interdisciplinary", "co", "articles", "insights", "complex", "findings", "mental", "ep", "##mi", "##gno", "senior", "##ology", "##if", "##ble", "risks", "theoretical", "brains", "prominence", "populations", "weak", "confined", "##ens", "existing", "concepts", "social", "evaluation", "potentially", "##ians", "contributions", "sciences", "defined", "instrument", "syndrome", "fi", "scan", "##ced", "crumbling", "cubic", "problems", "capacities", "##so", "paint", "##ining", "perspectives", "forward", "commitment", "operation", "dia", "ecological", "guidance", "life", "##logy", "advancement", "conceived", "cy", "intervention", "disease", "assessments", "fc", "diagnosis", "selection", "psychological", "fatigue", "cm", "early", "acronym", "insight", "mc", "advances", "depend", "concept", "studies", "fully", "included", "strategy", "contribution", "##ility", "translate", "##ological", "include", "##ers", "##ian", "scanning", "tired", "##se", "approach", "psychology", "detect", "variations", "patient", "onset", "incident", "model", "support", "disabled", "conservative", "develop", "condition", "mechanical", "older", "prevalence", "mentally", "study", "perception", "##marks", "technologies", "identify", "sensitive", "researchers", "exhaustion", "function", "person", "theory", "cb", "##ized", "physiological", "weakness", "proposed", "deficiency", "used", "modulation", "broader", "care", "chair", "roles", "diagnosed", "functioning", "evolving", "##ety", "article", "bf", "appropriate", "limp", "disadvantage", "conclusions", "together", "translation", "##cial", "areas", "demise", "sensitivity", "technology", "methods", "ck", "tech", "deteriorated", "overlap", "policies", "red", "collapse", "difficult", "nerve", "occur", "stiff", "state", "##maker", "cfa", "persistent", "method", "##han", "b", "screen", "therapy", "degradation", "deficit", "evolve", "tools", "weakening", "without", "##ncy", "illness", "conditions", "assessed", "physically", "policy", "concluded", "functions", "identified", "characteristics", "understand", "possibly", "development", "field", "contest", "rf", "worldwide", "emergence", "cw", "population", "e", "perspective", "involved", "developmental", "impaired", "cl", "dynamics", "specific", "reflection", "detector", "disorder", "scientists", "##olo", "comprehensive", "relevant", "disputed", "lenses", "supporting", "caring", "##ili", "results", "image", "science", "facility", "theories", "##ties", "ci", "competence", "micro", "biological", "challenged", "society", "address", "depression", "dysfunction", "adaptive", "proof", "emerging", "##ps", "supported", "well", "##logist", "resolved", "appeared", "v", "##spar", "nature", "no", "capacity", "skilled", "intelligence", "moreover", "retirement", "premature", "genetic", "persons", "defining", "q", "dispute", "robust", "build", "evaluate", "cad", "later", "#", "n", "psychiatric", "failure", "personal", "graceful", "cr", "role", "deprivation", "techniques", "sb", "##c", "across", "penetration", "memory", "societies", "occurrences", "ho", "characterized", "slowly", "hc", "issues", "biomedical", "because", "delicate", "##grade", "ce", "temporary", "madness", "key", "useful"], "weights": [2.894502878189087, 2.6838324069976807, 2.550200939178467, 2.1684951782226562, 2.1138556003570557, 2.0344746112823486, 1.9584144353866577, 1.955409288406372, 1.9525247812271118, 1.9299894571304321, 1.8790860176086426, 1.8593719005584717, 1.831383228302002, 1.7876559495925903, 1.7692080736160278, 1.7632070779800415, 1.7464563846588135, 1.745434284210205, 1.6841825246810913, 1.6624524593353271, 1.6500294208526611, 1.6368807554244995, 1.6188066005706787, 1.5987379550933838, 1.5913406610488892, 1.578611969947815, 1.5706353187561035, 1.5312052965164185, 1.5202666521072388, 1.5197879076004028, 1.5192112922668457, 1.5153149366378784, 1.5140197277069092, 1.5006394386291504, 1.4897129535675049, 1.4854168891906738, 1.4762818813323975, 1.4715386629104614, 1.4542945623397827, 1.4165079593658447, 1.39790940284729, 1.3971562385559082, 1.383851408958435, 1.383347511291504, 1.3783291578292847, 1.3365018367767334, 1.32254159450531, 1.3058055639266968, 1.3033326864242554, 1.2946736812591553, 1.2850003242492676, 1.2817462682724, 1.2816064357757568, 1.2775310277938843, 1.2640409469604492, 1.2620434761047363, 1.2591358423233032, 1.2572729587554932, 1.2565499544143677, 1.252304196357727, 1.2492371797561646, 1.2491697072982788, 1.2439868450164795, 1.2401058673858643, 1.2355817556381226, 1.226431131362915, 1.2223572731018066, 1.2156187295913696, 1.2151750326156616, 1.2079590559005737, 1.2039645910263062, 1.203431487083435, 1.2002393007278442, 1.180437684059143, 1.1796504259109497, 1.1703463792800903, 1.1701573133468628, 1.1655356884002686, 1.1613527536392212, 1.1565327644348145, 1.1486725807189941, 1.1190515756607056, 1.1190309524536133, 1.1169697046279907, 1.116041898727417, 1.1154032945632935, 1.1145052909851074, 1.1122074127197266, 1.1101813316345215, 1.1019270420074463, 1.100785255432129, 1.0998659133911133, 1.0941150188446045, 1.0852409601211548, 1.0747674703598022, 1.073866844177246, 1.0735827684402466, 1.0713346004486084, 1.071045160293579, 1.069464921951294, 1.0677850246429443, 1.0670863389968872, 1.064530849456787, 1.0620012283325195, 1.0614784955978394, 1.0481382608413696, 1.0447372198104858, 1.0234330892562866, 1.0220766067504883, 1.0216343402862549, 1.0214669704437256, 1.0175873041152954, 1.0090022087097168, 1.007712483406067, 1.0075523853302002, 1.0059549808502197, 1.0034489631652832, 1.0000442266464233, 0.9941047430038452, 0.9832504987716675, 0.9825845956802368, 0.9806479215621948, 0.9759036302566528, 0.9727727174758911, 0.9641145467758179, 0.9616662263870239, 0.9554909467697144, 0.9509248733520508, 0.9471560716629028, 0.9362819194793701, 0.9340870380401611, 0.9334818124771118, 0.9315232038497925, 0.9301924705505371, 0.91213059425354, 0.9118342399597168, 0.9103791117668152, 0.9063920974731445, 0.9002174735069275, 0.8990986347198486, 0.8989046812057495, 0.8949573040008545, 0.8875879049301147, 0.8860454559326172, 0.8856527805328369, 0.8846752643585205, 0.8835625648498535, 0.8687160015106201, 0.8664417862892151, 0.8659341335296631, 0.8577616810798645, 0.848159909248352, 0.8455308079719543, 0.8431540727615356, 0.8419877290725708, 0.8389670252799988, 0.8388416767120361, 0.833680272102356, 0.8333649635314941, 0.8323894739151001, 0.829472005367279, 0.8254885673522949, 0.8113129734992981, 0.8104003667831421, 0.8079599142074585, 0.8051165342330933, 0.793287992477417, 0.7928733825683594, 0.7905505895614624, 0.778499960899353, 0.7723552584648132, 0.7655306458473206, 0.7599626779556274, 0.7556068301200867, 0.7446148991584778, 0.7410116195678711, 0.7364010214805603, 0.7352102398872375, 0.734215497970581, 0.7290961742401123, 0.72693932056427, 0.7256453633308411, 0.7251902222633362, 0.7220244407653809, 0.7207268476486206, 0.7034599184989929, 0.6987945437431335, 0.6976358294487, 0.6930893659591675, 0.6901960372924805, 0.6872415542602539, 0.6864198446273804, 0.6705906391143799, 0.6698907613754272, 0.6594381332397461, 0.6589358448982239, 0.6547195315361023, 0.6544086933135986, 0.6531081199645996, 0.6473175287246704, 0.6456058025360107, 0.6414806842803955, 0.6413415670394897, 0.6396794319152832, 0.6383342146873474, 0.6369220018386841, 0.6288596391677856, 0.6282078623771667, 0.6251685619354248, 0.6220714449882507, 0.6175348162651062, 0.6157174110412598, 0.6117143630981445, 0.6113011837005615, 0.6025533080101013, 0.6023308038711548, 0.6005079746246338, 0.6001049280166626, 0.5818166732788086, 0.5788555145263672, 0.5777203440666199, 0.5775430202484131, 0.5701363682746887, 0.5676087141036987, 0.5675315260887146, 0.5588335990905762, 0.5570343732833862, 0.5517300963401794, 0.5497294664382935, 0.5472780466079712, 0.5462632775306702, 0.5413694977760315, 0.5394967198371887, 0.5343165397644043, 0.5299874544143677, 0.5295888185501099, 0.5261580348014832, 0.5170899629592896, 0.5159067511558533, 0.5155328512191772, 0.5152102112770081, 0.5152060389518738, 0.5145497918128967, 0.5121575593948364, 0.5109092593193054, 0.506988525390625, 0.5053383111953735, 0.5032024383544922, 0.5023316740989685, 0.4978789985179901, 0.49761074781417847, 0.49591779708862305, 0.49439936876296997, 0.4864858388900757, 0.4851607084274292, 0.481672465801239, 0.471211314201355, 0.4711208641529083, 0.4638655185699463, 0.4607675075531006, 0.4585213363170624, 0.45531296730041504, 0.45199161767959595, 0.4498019814491272, 0.4434633255004883, 0.44119083881378174, 0.4378092586994171, 0.43531379103660583, 0.43150007724761963, 0.4296133816242218, 0.4275699257850647, 0.4228265583515167, 0.4199540317058563, 0.41358181834220886, 0.4073570668697357, 0.40105196833610535, 0.39817795157432556, 0.39648357033729553, 0.3916000723838806, 0.3915744125843048, 0.3864726126194, 0.37926095724105835, 0.37881186604499817, 0.3786777853965759, 0.37831297516822815, 0.37395384907722473, 0.3705865740776062, 0.3699493706226349, 0.36813437938690186, 0.36514201760292053, 0.35917219519615173, 0.3591212332248688, 0.3531792461872101, 0.34922510385513306, 0.3420923948287964, 0.34107592701911926, 0.3390905261039734, 0.335681289434433, 0.33536866307258606, 0.3336685001850128, 0.33067187666893005, 0.3235046863555908, 0.3178170323371887, 0.3165490925312042, 0.3152303099632263, 0.30257129669189453, 0.29853928089141846, 0.29573050141334534, 0.2928813099861145, 0.2896643579006195, 0.2869652807712555, 0.28501978516578674, 0.27725985646247864, 0.2738472819328308, 0.27008533477783203, 0.2689683437347412, 0.25957027077674866, 0.2546706199645996, 0.24120718240737915, 0.23861606419086456, 0.23775650560855865, 0.2366621494293213, 0.2362249791622162, 0.2355668693780899, 0.2345159649848938, 0.23387911915779114, 0.23304302990436554, 0.23154278099536896, 0.2311597764492035, 0.230698361992836, 0.2283012419939041, 0.22801144421100616, 0.22359699010849, 0.20991402864456177, 0.20941440761089325, 0.20591619610786438, 0.20184148848056793, 0.193623885512352, 0.19293366372585297, 0.18797540664672852, 0.1847844272851944, 0.18281380832195282, 0.18113946914672852, 0.17623651027679443, 0.17564411461353302, 0.17491023242473602, 0.17367073893547058, 0.17302605509757996, 0.17196568846702576, 0.16583260893821716, 0.16420598328113556, 0.16380779445171356, 0.16084614396095276, 0.15833263099193573, 0.15191376209259033, 0.14801721274852753, 0.14668415486812592, 0.1400090456008911, 0.13883529603481293, 0.13863468170166016, 0.13530601561069489, 0.13083995878696442, 0.1240127831697464, 0.12269357591867447, 0.11136800795793533, 0.10652484744787216, 0.10163003951311111, 0.09640339016914368, 0.09586021304130554, 0.09402796626091003, 0.09283692389726639, 0.0908811092376709, 0.08851578831672668, 0.08454059809446335, 0.08029738068580627, 0.07470650970935822, 0.07459305226802826, 0.0703178122639656, 0.06968661397695541, 0.06300877779722214, 0.06138144060969353, 0.060270436108112335, 0.060132041573524475, 0.0566323921084404, 0.0533466599881649, 0.045137397944927216, 0.0433671697974205, 0.04008037596940994, 0.03938446193933487, 0.03753598406910896, 0.03686581552028656, 0.03378675878047943, 0.03144853934645653, 0.030599722638726234, 0.02746799774467945, 0.025765065103769302, 0.02554231323301792, 0.024553097784519196, 0.023103415966033936, 0.017926787957549095, 0.01646636240184307, 0.015698835253715515, 0.012214534915983677, 0.00929141417145729, 0.007400228176265955, 0.006079484708607197, 0.00031832754029892385]}, "Qwen3-4B": {"model_id": "Qwen/Qwen3-Embedding-4B", "vector": [-0.000252246274612844, 0.061827175319194794, -0.024272890761494637, -0.018319163471460342, -0.0006476110429503024, 0.04167609661817551, -0.012250940315425396, 0.008529860526323318, -0.0018319162772968411, 0.026219302788376808, 0.029539650306105614, 0.057705365121364594, 0.010476271621882915, 0.029539650306105614, 0.00029339283355511725, 0.012136445380747318, 0.017059721052646637, 0.03068459779024124, 0.016601741313934326, -0.002003658562898636, -0.0048660277388989925, 0.02770773507654667, 0.025990312919020653, 0.04671386629343033, -0.03549337759613991, -0.017059721052646637, -0.008587107993662357, -0.051064666360616684, 0.027478745207190514, -0.03320348262786865, 0.03182954713702202, -0.058163341134786606, -0.03022661991417408, -0.017746688798069954, 0.00044724519830197096, -0.008930591866374016, -0.0022469598334282637, 0.0051522646099328995, 0.006841062568128109, 0.005781985819339752, 0.0030484232120215893, 0.040760137140750885, -0.0013739372370764613, 0.011907456442713737, -0.029539650306105614, 0.0023757664021104574, -0.0003971537225879729, -0.028394702821969986, -0.019120626151561737, 0.009102334268391132, 0.009159581735730171, 0.0037497037556022406, -0.032516513019800186, -0.002662003505975008, 0.005238135810941458, 0.010018291883170605, -0.003635208820924163, 0.004808780271559954, 0.020380068570375443, 0.03389045223593712, 0.0007978854118846357, -0.007327665109187365, 0.005066393408924341, -0.013395887799561024, -0.0087588494643569, -0.014884320087730885, 0.016601741313934326, -0.02312794327735901, 0.013453135266900063, 0.009617560543119907, 0.0087588494643569, 0.03274550288915634, 0.006497578229755163, -0.0019320992287248373, 0.0044366721995174885, -0.010419024154543877, 0.004035940393805504, 0.017174215987324715, -0.01946411095559597, 0.008014634251594543, 0.012308187782764435, 0.004751532804220915, 0.010419024154543877, 0.036180347204208374, 0.021639510989189148, 0.00042577742715366185, -0.0087588494643569, 0.01104874536395073, 0.007270417641848326, -0.012766166590154171, 0.0068124388344585896, -0.032058537006378174, -0.019235121086239815, -0.04648487642407417, -0.0018605400109663606, -0.002347142668440938, -0.0063830832950770855, -0.013739372603595257, -0.01797567866742611, 0.000558161991648376, -0.00767114944756031, -0.00035421818029135466, 0.026906270533800125, 0.020838048309087753, -0.01024728175252676, -0.010819755494594574, 0.02003658376634121, 0.001051920698955655, -0.0053812540136277676, 0.009331324137747288, 0.030913587659597397, -0.012937908992171288, -0.01889163628220558, 0.010590766556560993, -0.01946411095559597, -0.0004114655894227326, 0.04785881191492081, -0.01534229889512062, 0.0001869484840426594, -0.026448292657732964, -0.006239965092390776, 0.015227803960442543, -0.01740320585668087, -0.006955557037144899, 0.011334981769323349, -0.02873818762600422, -0.004465295933187008, -0.001059076632373035, 0.020609058439731598, 0.04969073086977005, -0.028967177495360374, 0.00047586887376382947, -0.02198299579322338, 0.001338157569989562, 0.026219302788376808, 0.0010948561830446124, 0.022440975531935692, 0.0013166898861527443, -0.018204668536782265, 0.0070986757054924965, -0.004093187861144543, 0.000994673348031938, 0.01694522611796856, 0.005724738352000713, 0.004722909070551395, -0.02862369269132614, -0.004579790867865086, -0.029539650306105614, 0.005781985819339752, -0.01648724637925625, 0.00996104534715414, -0.009903797879815102, 0.002619067905470729, 0.004007317125797272, 0.026448292657732964, 0.020151078701019287, -0.0023757664021104574, 0.0011950391344726086, 0.008358118124306202, 0.02106703817844391, 0.02301344834268093, 0.02759324014186859, 0.020609058439731598, -0.020380068570375443, 0.009732055477797985, 0.028852682560682297, -0.01683073118329048, 0.01786118373274803, 0.002390078268945217, 0.011334981769323349, 0.011506724171340466, -0.01024728175252676, 0.009617560543119907, -0.03068459779024124, 0.0, -0.008014634251594543, -0.023242438212037086, -0.010934250429272652, -0.005724738352000713, 0.027364250272512436, 0.010075539350509644, 0.009674808010458946, -0.006154093891382217, 0.012594424188137054, -0.0329744927585125, 0.004694285336881876, 0.005724738352000713, 0.014197351410984993, 0.0009052242967300117, -0.0033203482162207365, 0.021296028047800064, -0.005180888343602419, 0.009903797879815102, 0.010934250429272652, -0.01534229889512062, 0.010762508027255535, -0.02095254324376583, 0.006354459561407566, 0.013510382734239101, 0.007041428238153458, 0.001946411095559597, 0.025875817984342575, 0.03366146236658096, 0.006325835827738047, -0.0006547669763676822, -0.00015385235019493848, 0.00256182043813169, -0.01580027863383293, -0.005953728221356869, -0.018204668536782265, 0.006955557037144899, -0.011449476704001427, -0.006612073164433241, -0.03595135733485222, 0.0018462281441316009, 0.01282341405749321, 0.00950306560844183, -0.0019320992287248373, 0.015685783699154854, 0.014884320087730885, -0.011621219106018543, -0.0005617399583570659, 0.0009088022052310407, 0.03228752315044403, 0.02461637556552887, 0.005209512077271938, 0.012594424188137054, -0.00498052267357707, -0.020265573635697365, 0.0016959537751972675, -0.008873344399034977, 0.010075539350509644, 0.020838048309087753, -0.01648724637925625, 0.007041428238153458, -0.009159581735730171, -0.049919720739126205, -0.007842891849577427, -0.0014598083216696978, 0.0033775956835597754, -0.040760137140750885, -0.00767114944756031, -0.005324007011950016, 0.006697943899780512, -0.008129128254950047, -0.005295383278280497, 0.020723553374409676, -0.011678466573357582, -0.018204668536782265, 0.0017102656420320272, 0.015456793829798698, 0.0008265091455541551, -0.004608414601534605, -0.012308187782764435, -0.015571288764476776, -0.006125470157712698, 0.0038069509901106358, 0.005839233286678791, -0.012880661524832249, 0.013853867538273335, -0.0014383405214175582, 0.0041504353284835815, 0.006068222690373659, -0.0008086193120107055, 0.009789302945137024, 0.014769825153052807, 0.016029268503189087, -0.02312794327735901, -0.023242438212037086, -0.02152501605451107, 0.003835574723780155, 0.0019177873618900776, 0.0034920903854072094, 0.024387385696172714, 0.04373700171709061, -0.00755665497854352, 0.017288710922002792, -0.014769825153052807, -0.001166415517218411, -0.0020465939305722713, 0.0005080705159343779, 0.03068459779024124, 0.022669963538646698, 0.010132786817848682, -0.029997630044817924, -0.02198299579322338, 0.003892822191119194, 0.007213170640170574, -0.02415839582681656, 0.015227803960442543, 0.0004239884437993169, 0.009274076670408249, -0.002733562607318163, -0.015571288764476776, 0.01992209069430828, -0.06823888421058655, -0.02713526040315628, -0.00038641985156573355, 0.006640696432441473, -0.013338640332221985, -0.008186375722289085, 0.022898953408002853, 0.010762508027255535, 0.040760137140750885, -0.0024187020026147366, -0.01591477356851101, 0.003978693392127752, 0.0010304528987035155, -0.0036638325545936823, 0.01648724637925625, 0.002619067905470729, 0.01207919791340828, 0.0015313675394281745, 0.00678381510078907, 0.010304529219865799, -0.01694522611796856, -0.004951898939907551, 0.0046370383352041245, -0.0011020121164619923, 0.01694522611796856, 0.01253717765212059, -0.049003761261701584, -0.028051218017935753, -0.014998815022408962, 0.02152501605451107, 0.01637275144457817, 0.018319163471460342, 0.009846550412476063, 0.038699232041835785, -0.026906270533800125, -0.010075539350509644, 0.020838048309087753, 0.0035922734532505274, -0.014540835283696651, -0.00603959895670414, -0.0020895295310765505, 0.008987839333713055, 0.011392229236662388, 0.02919616550207138, -0.015456793829798698, 0.010361776687204838, 0.0015313675394281745, 0.009102334268391132, 0.02610480785369873, -0.01786118373274803, -0.021868500858545303, 0.05083567649126053, 0.0029625522438436747, 0.006268588826060295, -0.04671386629343033, -0.04007316753268242, 0.020151078701019287, 1.0398451195214875e-05, -0.009789302945137024, 0.007785644382238388, 0.02862369269132614, 0.0013166898861527443, -0.010762508027255535, 0.025990312919020653, -0.01580027863383293, -0.014540835283696651, -0.00996104534715414, 0.020151078701019287, 0.020151078701019287, -0.03778327256441116, -0.0329744927585125, 0.00678381510078907, 0.011678466573357582, 0.029081670567393303, -0.018319163471460342, -0.012708919122815132, 0.0032058535143733025, 0.008644355461001396, -0.018777141347527504, -0.03686731681227684, 0.011506724171340466, 0.03343247249722481, -0.006669320166110992, -0.028967177495360374, -0.013624877668917179, -0.03160055726766586, 0.01511330995708704, -0.02152501605451107, 0.007842891849577427, 0.00039357575587928295, 0.011449476704001427, -0.008930591866374016, -0.013853867538273335, 0.016601741313934326, -0.005495748948305845, 0.015456793829798698, 0.007957386784255505, -0.0010232969652861357, -0.021868500858545303, -0.015456793829798698, 0.02759324014186859, -0.0011592595838010311, 0.023471428081393242, 0.011105992831289768, 0.02759324014186859, 0.0021467769984155893, 0.00188916374463588, 0.0034920903854072094, 0.0038641984574496746, -0.02759324014186859, -0.01024728175252676, -0.020265573635697365, -0.008300870656967163, -0.0020322820637375116, 0.00437942473217845, -0.012937908992171288, -0.007842891849577427, 0.011392229236662388, -0.02518884837627411, 0.02003658376634121, -0.0009517377475276589, 0.010533519089221954, -0.026219302788376808, 0.04213407635688782, -0.0017031097086146474, -0.008071880787611008, 0.012708919122815132, -0.011449476704001427, 0.01511330995708704, -0.015571288764476776, -0.000779995636548847, 0.007384912576526403, -0.016143761575222015, 0.03137156739830971, 0.012136445380747318, -0.017174215987324715, 0.0011306358501315117, 0.01900613121688366, -0.006898310035467148, -0.005839233286678791, -0.006898310035467148, 0.011163240298628807, 0.015685783699154854, 0.002189712366089225, -0.002390078268945217, -0.00498052267357707, 0.0010948561830446124, 0.01797567866742611, 0.011277735233306885, -0.007012804504483938, -0.006526201963424683, 