{"UUID": "ba907ae1-8d7e-4450-987a-6b5be9312ecd", "BM25": {"terms": ["lt", "image", "gt", "open", "access", "edited", "and", "reviewed", "by", "wendy", "moyle", "griffith", "university", "australia", "correspondence", "panagiotis", "alexopoulos", "glyph", "these", "authors", "have", "contributed", "equally", "to", "this", "work", "received", "10", "july", "2025", "accepted", "22", "august", "published", "09", "september", "citation", "p", "lawler", "k", "ogbguu", "c", "sanchez", "aa", "maharani", "a", "editorial", "neurocognitive", "disorders", "in", "the", "community", "global", "perspective", "front", "dement", "4", "1663449", "doi", "3389", "frdem"], "weights": [4.451515184497399, 4.210990596560663, 4.3794389139408345, 4.534725195045328, 4.183562194698997, 6.132632861884996, 0.33946959752081884, 4.768150764725938, 1.291448000666991, 9.302676558362352, 9.302676558362352, 9.302676558362352, 3.8837566231925997, 6.3400209321413294, 5.6487792166078, 8.588897170833727, 11.019020007547045, 7.487181466707155, 1.988247771611122, 3.9228446368878407, 2.2920044965747217, 6.232482856034804, 6.723493010531088, 0.5995446821994161, 1.3914096541880094, 4.06896477742343, 4.474616771838693, 2.0631628744046187, 6.87890918781907, 4.667094908976266, 4.7323204587146686, 3.386336799793638, 6.039444646125267, 4.113682365444027, 5.238305228014757, 5.51870346850618, 6.039444646125267, 2.2858489563529303, 8.588897170833727, 2.738910786070398, 8.118742707544909, 2.39437009845417, 8.588897170833727, 7.253755897026544, 8.588897170833727, 0.5187871663011666, 5.582228287963886, 5.6487792166078, 3.1282068452601157, 0.33122479132275606, 0.35107755130972895, 4.804924080977556, 3.8457323620314683, 5.343812336655295, 3.963057638613941, 4.921433650957411, 1.7223647636957315, 11.934754495422991, 2.1127654643021407, 3.963057638613941, 8.588897170833727], "k1": 1.5, "b": 0.75, "avgdl": 198.29391602399315, "N": 1167}, "SpladeV3": {"model_id": "naver/splade-v3", "tokens": ["griffith", "##oulos", "##agi", "##gni", "wendy", "correspondence", "##yle", "##rani", "##de", "sanchez", "lt", "citation", "gt", "australia", "disorders", "##gu", "editorial", "global", "fr", "dem", "disorder", "alex", "##ent", "##tive", "published", "community", "access", "&", "##ph", "doi", "front", "university", "pan", "##ot", "##ly", "##co", "australian", "accepted", "authors", "communities", "mo", "g", "2020", "##op", "review", "author", "date", "ne", "maha", "##phs", "##ler", "citing", "reviewed", "received", "##uro", "alzheimer", "##5", "brain", "perspective", "edited", "open", "##poulos", "prevalence", "##is", "september", "law", "og", "equally", "disabled", "dementia", "mental", "universities", "clinic", "journal", "cognitive", "cognition", "image", "##phic", "jul", "citations", "july", "perspectives", "psychiatric", "institute", "international", "##hos", "revision", "nerve", "disease", "202", "pmid", "diseases", "patient", "338", "contributed", "psychiatrist", "submitted", "hospital", "scientist", "greek", "publishing", "editing", "dissertation", "font", "##d", "psychology", "theory", "research", "diagnosis", "autism", "dimitri", "who", "contribution", "parkinson", "seizure", "college", "syndrome", "photo", "anxiety", "greece", "number", "august", "deadline", "contribute", "updated", "professor", "lieutenant", "developed", "learning", "##raj", "rehearsal", "##gt", "##ative", "##m", "##gn", "paper", "vaccine", "cited", "clinical", "brains", "mn", "##otype", "discovered", "nc", "saturday", "location", "copyright", "personality", "editor", "contact", "images", "onset", "illness", "+", "schizophrenia", "blanco", "semantic", "code", "release", "committee", "cortex", "book", "##ente", "nm", "population", "pts", "world", "view", "letter", "##gl", "picture", "award", "depression", "novel", "written", "photograph", "edit", "cn", "database", "epidemic", "button", "cite", "latest", "faculty", "##gno", "garcia", "##entation", "invented", "references", "##gen", "pediatric", "cooper", "researcher", "##gra", "mentally", "revised", "md", "taxonomy", "theories", "scholarship", "##grave", "forensic", "dave", "##u", "##path", "##ant", "p", "researchers", "f", "wales", "ramirez", "204", "uk", "mani", "developmental", "##ytic", "reference", "##yles", "critical", "genus", "proposed", "diagnosed", "director", "above", "work", "contributions", "genetic", "##hetic", "psychiatry", "##sso", "papers"], "weights": [2.5515003204345703, 2.513206720352173, 2.215116262435913, 2.1980600357055664, 2.167970657348633, 2.0937671661376953, 2.066333055496216, 2.0550754070281982, 2.0339090824127197, 2.0298986434936523, 1.925499439239502, 1.906036376953125, 1.8678258657455444, 1.852149248123169, 1.815535545349121, 1.814103603363037, 1.8128471374511719, 1.7827644348144531, 1.7425707578659058, 1.7119852304458618, 1.704545497894287, 1.682318925857544, 1.6766304969787598, 1.6214970350265503, 1.6124718189239502, 1.6024168729782104, 1.5890344381332397, 1.5804355144500732, 1.5764168500900269, 1.5278061628341675, 1.4950997829437256, 1.494265079498291, 1.4566236734390259, 1.446791410446167, 1.4246398210525513, 1.4211806058883667, 1.417245864868164, 1.406477689743042, 1.4026374816894531, 1.3955327272415161, 1.380321741104126, 1.372172474861145, 1.3441990613937378, 1.3429580926895142, 1.3394383192062378, 1.331124186515808, 1.3121562004089355, 1.3000160455703735, 1.2884806394577026, 1.2701622247695923, 1.2510002851486206, 1.2216957807540894, 1.2203335762023926, 1.1971547603607178, 1.1931736469268799, 1.1728211641311646, 1.1699087619781494, 1.1553828716278076, 1.137556552886963, 1.1279785633087158, 1.115867018699646, 1.0918238162994385, 1.085823655128479, 1.084750771522522, 1.0813672542572021, 1.0771484375, 1.0716066360473633, 1.0552281141281128, 1.050851821899414, 1.0484228134155273, 1.0137338638305664, 0.9874147772789001, 0.9649427533149719, 0.9515221118927002, 0.9493568539619446, 0.9409362077713013, 0.9405602216720581, 0.902316153049469, 0.8997167348861694, 0.8816034197807312, 0.8406955003738403, 0.838739812374115, 0.8316197991371155, 0.8210281133651733, 0.8205487728118896, 0.8195301294326782, 0.8137996196746826, 0.8055070042610168, 0.7801883220672607, 0.7660913467407227, 0.7656547427177429, 0.7612481117248535, 0.7388525009155273, 0.7306437492370605, 0.7101475596427917, 0.7069730162620544, 0.7044476270675659, 0.7041723728179932, 0.6893080472946167, 0.6746789216995239, 0.6638983488082886, 0.6481652855873108, 0.6349457502365112, 0.6344935297966003, 0.6342577934265137, 0.6159583926200867, 0.6119866371154785, 0.6115701198577881, 0.6107576489448547, 0.6070353388786316, 0.6039519309997559, 0.5977633595466614, 0.5910826921463013, 0.5802111625671387, 0.5762489438056946, 0.5681625604629517, 0.5669028162956238, 0.5641449689865112, 0.5543976426124573, 0.5493271350860596, 0.544704020023346, 0.5263548493385315, 0.5058181881904602, 0.49780452251434326, 0.4853539764881134, 0.47863608598709106, 0.45949554443359375, 0.4552196264266968, 0.452862948179245, 0.4522267282009125, 0.44676801562309265, 0.43849074840545654, 0.43097418546676636, 0.42525073885917664, 0.42394039034843445, 0.41797715425491333, 0.41728436946868896, 0.4144695997238159, 0.41414499282836914, 0.41367077827453613, 0.40800294280052185, 0.3872688412666321, 0.3801957368850708, 0.3801329731941223, 0.37654218077659607, 0.3763675391674042, 0.3740054965019226, 0.37238210439682007, 0.37167513370513916, 0.3671815097332001, 0.35792097449302673, 0.34578052163124084, 0.3348912298679352, 0.32441723346710205, 0.3227634131908417, 0.317429780960083, 0.3160493075847626, 0.3126770257949829, 0.29146072268486023, 0.2839333713054657, 0.27501991391181946, 0.2736594080924988, 0.2570047080516815, 0.2525143623352051, 0.24994982779026031, 0.24394334852695465, 0.24323605000972748, 0.2375260293483734, 0.23568573594093323, 0.23481091856956482, 0.23077666759490967, 0.22104693949222565, 0.2183944433927536, 0.21782933175563812, 0.20244084298610687, 0.19876804947853088, 0.1940608024597168, 0.1871909648180008, 0.1860625445842743, 0.1849742978811264, 0.18201537430286407, 0.17895758152008057, 0.1783188134431839, 0.17351603507995605, 0.17101262509822845, 0.16620340943336487, 0.165660560131073, 0.16070044040679932, 0.15906517207622528, 0.15698830783367157, 0.14821185171604156, 0.1467638909816742, 0.14628539979457855, 0.142634779214859, 0.14131401479244232, 0.1381806582212448, 0.1380625218153, 0.13309335708618164, 0.12619782984256744, 0.12170133739709854, 0.11820251494646072, 0.11793447285890579, 0.11274933815002441, 0.10357008874416351, 0.10325802862644196, 0.09847253561019897, 0.09529218077659607, 0.09499798715114594, 0.09160822629928589, 0.08255832642316818, 0.07702197879552841, 0.07655923068523407, 0.07487032562494278, 0.07110562920570374, 0.07102561742067337, 0.06473474949598312, 0.05543728917837143, 0.05193660408258438, 0.05101526528596878, 0.048193495720624924, 0.04795004427433014, 0.044841986149549484, 0.04413147643208504, 0.04159287363290787, 0.04052579775452614, 0.03639302775263786, 0.031193295493721962, 0.02432500757277012, 0.018834339454770088, 0.004976802039891481, 0.0001173844575532712]}, "Qwen3-4B": {"model_id": "Qwen/Qwen3-Embedding-4B", "vector": [-0.0004236470558680594, 0.07073064148426056, -0.032300326973199844, 0.007014121860265732, -0.0015914393588900566, 0.04479607194662094, 0.00984334759414196, -0.015560740604996681, -0.007515130564570427, 0.009784405119717121, 0.04738952964544296, 0.060828350484371185, 0.009902289137244225, 0.0007699324632994831, -0.012259977869689465, -0.02440207079052925, 0.03135725110769272, -0.027349179610610008, 0.004568020347505808, -0.0012083151377737522, -0.0024461012799292803, 0.0683729499578476, 0.03324339911341667, 0.014853434637188911, -0.024048417806625366, -0.03819454461336136, -0.023341111838817596, -0.06177142634987831, 0.029588984325528145, 0.011670555919408798, 0.029588984325528145, -0.032300326973199844, 0.023458994925022125, -0.006601526401937008, 0.0037575652822852135, -0.010314884595572948, -0.003227085340768099, -0.0015546005452051759, 0.02782071754336357, 0.026759758591651917, 0.007603543810546398, 0.05116182938218117, 0.0011051662731915712, 0.031593017280101776, 0.012967283837497234, -0.010963249020278454, 0.00680782413110137, -0.02593456767499447, -0.028292255476117134, 0.0009578107274137437, 0.012201035395264626, 0.012790457345545292, -0.07073064148426056, -0.0024018946569412947, 0.04691798985004425, -0.027349179610610008, 0.05163336545228958, 0.005275326780974865, 0.018507851287722588, 0.015030261129140854, 0.011493728496134281, 0.011081133037805557, 0.003300763200968504, -0.02110130712389946, -0.00783931277692318, -0.0170932374894619, 0.010609596036374569, 0.0011567407054826617, 0.0028439611196517944, 0.001142005086876452, -0.037958774715662, 0.02640610560774803, -0.01626804657280445, -0.0011714762076735497, -0.00954863615334034, -0.022162266075611115, 0.001024120720103383, -0.0002965529274661094, -0.008428734727203846, -0.0014809228014200926, 0.001643013791181147, -0.006542583927512169, -0.0061594597063958645, 0.014146127738058567, 0.009430752135813236, 0.0017977370880544186, 0.014676607213914394, 0.00984334759414196, 0.03182878717780113, 0.0031681430991739035, 0.0170932374894619, -0.02852802537381649, -0.024755723774433136, -0.008016139268875122, -0.010138058103621006, -0.017211122438311577, -0.010079115629196167, -0.014205070212483406, -0.015796508640050888, 0.0033597054425626993, -0.022280151024460793, -0.01909727230668068, 0.030885713174939156, 0.011729497462511063, 0.024991491809487343, -0.01567862555384636, 0.012259977869689465, -0.025463029742240906, -0.008075081743299961, -0.011493728496134281, 0.010197000578045845, -0.01626804657280445, -0.01638593152165413, 0.019568810239434242, 0.0016798527212813497, -0.010609596036374569, 0.019215157255530357, 0.020040348172187805, 0.01827208139002323, -0.02935321442782879, 0.0013114638859406114, 0.024166300892829895, -0.014205070212483406, -0.0020335058216005564, 0.010314884595572948, -0.059413738548755646, 0.0030502588488161564, 0.009018156677484512, 0.01361564826220274, 0.01261363085359335, 0.0002210332459071651, -0.0027113412506878376, 0.027702834457159042, -0.00984334759414196, -0.01567862555384636, 0.008664503693580627, 0.0018051048973575234, -0.009666521102190018, -0.006896237377077341, 0.003624945180490613, -0.00391965638846159, 0.007603543810546398, 0.011670555919408798, -0.021454960107803345, 0.0036396807990968227, -0.027584949508309364, 0.005157442297786474, -0.02593456767499447, 0.011670555919408798, -0.011965266428887844, 0.01055065356194973, -0.0012156828306615353, 0.0008620296721346676, 0.012377861887216568, 0.021572845056653023, 0.013733532279729843, -0.005127971526235342, -0.012201035395264626, 0.011257960461080074, -0.002961845602840185, -0.013497763313353062, 0.01909727230668068, -0.03324339911341667, -0.010491711087524891, 0.004715376067906618, 0.010904306545853615, 0.012790457345545292, 0.004568020347505808, -0.021337077021598816, 0.005393211264163256, -0.020040348172187805, 0.002490307902917266, -0.01780054345726967, -0.020629769191145897, 0.002151390304788947, -0.01968669518828392, -0.010432769544422626, -0.017329007387161255, -0.018979387357831, 0.03135725110769272, -0.009253925643861294, 0.008016139268875122, 0.01261363085359335, 0.013674589805305004, -0.008016139268875122, -0.01756477542221546, 0.01161161344498396, -0.020276116207242012, -0.0002873432240448892, -0.019568810239434242, 0.009902289137244225, 0.02852802537381649, 0.00015564424393232912, -0.00474484683945775, -0.019568810239434242, -0.002991316607221961, -0.005157442297786474, 0.008310849778354168, 0.0037575652822852135, 0.011140075512230396, 0.012259977869689465, -0.005186913534998894, 0.01432295423001051, -0.00854661874473095, -0.008723445236682892, -0.013085167855024338, -0.0007846680236980319, -0.009194983169436455, 0.014264012686908245, -0.016857469454407692, 0.016032278537750244, -0.0017387948464602232, -0.01626804657280445, -0.056112974882125854, -0.004568020347505808, 0.002372423419728875, -0.013674589805305004, -0.011022191494703293, 0.02782071754336357, 0.002475572284311056, -0.008251908235251904, 0.0026376633904874325, -0.02039400115609169, 0.009371809661388397, 0.00878238771110773, 0.006689939647912979, 0.026170335710048676, 0.010668538510799408, -0.029117446392774582, -0.0013851416297256947, 0.008016139268875122, 0.0031534077133983374, -0.007780370302498341, -0.0004254890081938356, -0.011257960461080074, 0.006395228672772646, -0.015030261129140854, 0.005334269255399704, 0.013144110329449177, 0.0017682659672573209, -0.020865539088845253, -0.007780370302498341, -0.01697535254061222, -0.0008067713351920247, -0.005687922239303589, 0.009077099151909351, 0.014735549688339233, -0.0325360931456089, -0.026995526626706123, -0.01968669518828392, -0.004361722618341446, 0.00022471713600680232, 0.009253925643861294, 0.014028243720531464, -0.062242962419986725, 0.006306815426796675, 0.004597491584718227, -0.007014121860265732, 0.0008288747048936784, 0.007043592631816864, 0.002284010173752904, -0.0022987457923591137, -0.004125954117625952, -0.0005673186969943345, 0.012436804361641407, 0.009784405119717121, 0.03583685681223869, -0.01638593152165413, -0.015030261129140854, -0.0037428296636790037, 0.0325360931456089, -0.008369792252779007, 0.0019156214548274875, 0.020865539088845253, 0.05847066268324852, 0.008134023286402225, 0.0019892991986125708, 0.001547232735902071, 0.010432769544422626, 0.0061594597063958645, -0.018979387357831, 0.028056487441062927, -0.016739584505558014, 0.022751688957214355, -0.03654416278004646, -0.025463029742240906, 0.012436804361641407, -0.00580580672249198, -0.016503816470503807, 0.007338303606957197, 0.00766248581930995, 0.026759758591651917, -0.008723445236682892, -0.019922463223338127, 0.04432453215122223, -0.03135725110769272, -0.007898254320025444, 0.0002928690519183874, 0.013438821770250797, 0.007102535106241703, -0.024755723774433136, 0.0034481186885386705, -0.007367774844169617, 0.03583685681223869, 0.00474484683945775, 0.007544601336121559, 0.016857469454407692, -0.007544601336121559, -0.015796508640050888, -0.04833260178565979, 0.002785018878057599, 0.006306815426796675, -0.0010093852179124951, -0.0009504429763182998, 0.011670555919408798, -0.013379879295825958, -0.014499780721962452, 0.011906323954463005, -0.014205070212483406, 0.001451451680622995, 0.01838996633887291, -0.04220261424779892, -0.01756477542221546, -0.003020787611603737, 0.0721452534198761, 0.0216907300055027, 0.016032278537750244, 0.008369792252779007, 0.010727480053901672, -0.003020787611603737, -0.012318919412791729, 0.021337077021598816, -0.011140075512230396, -0.028999561443924904, 0.009077099151909351, 0.014264012686908245, 0.0013188316952437162, 0.02251592092216015, 0.026052452623844147, -0.0059531619772315025, -0.0022103325463831425, 0.006748881656676531, 0.009018156677484512, -0.02510937675833702, -0.008251908235251904, -0.02310534194111824, 0.019568810239434242, 0.01055065356194973, -0.003713358659297228, -0.01567862555384636, -0.0006557319429703057, -0.00013077800394967198, -0.02369476482272148, 0.014853434637188911, 0.013733532279729843, 0.010432769544422626, -0.0009799140971153975, 0.006483641918748617, 0.004391193855553865, -0.01567862555384636, 0.000722041935659945, -0.015030261129140854, 0.016032278537750244, 0.01055065356194973, -0.006188930943608284, -0.03465801477432251, 0.0052458555437624454, 0.007249890360981226, 0.027584949508309364, -0.020158231258392334, 0.004538549575954676, -0.014853434637188911, 0.013379879295825958, -0.01361564826220274, -0.022162266075611115, 0.013203052803874016, 0.02381264790892601, 0.007780370302498341, -0.0034775896929204464, 0.010314884595572948, -0.0070730638690292835, 0.03512955084443092, -0.0153249716386199, 0.014912376180291176, -0.00878238771110773, 0.022280151024460793, -0.0094896936789155, -0.007308832835406065, 0.00783931277692318, 0.0, 0.02039400115609169, 0.018625734373927116, -0.013144110329449177, -0.018743619322776794, -0.032300326973199844, 0.01638593152165413, 0.0025050435215234756, 0.026877643540501595, 0.024284185841679573, -0.016621699556708336, -0.015030261129140854, 0.0027702832594513893, -0.0060121044516563416, -0.012436804361641407, 0.0019892991986125708, -0.03654416278004646, -0.03607262670993805, 0.001746162655763328, 0.00783931277692318, 0.04031646251678467, -0.03182878717780113, 0.026170335710048676, -0.0032565565779805183, 0.023458994925022125, -0.03135725110769272, -0.026052452623844147, -0.020747654139995575, -0.020158231258392334, 0.027467064559459686, 0.008959214203059673, -0.022869573906064034, -0.017211122438311577, 0.003433383069932461, -0.0009357074159197509, -0.00477431807667017, 0.00031865626806393266, 0.028174370527267456, -0.004538549575954676, 0.04078800231218338, -0.030885713174939156, 0.02451995573937893, 0.026995526626706123, 0.02852802537381649, 0.0005931058549322188, 0.014499780721962452, 0.007426717318594456, -0.005599508993327618, -0.007957196794450283, 0.014205070212483406, -0.014440839178860188, 0.004509078338742256, -0.005628980230540037, 0.01361564826220274, 0.037723008543252945, -0.01909727230668068, -0.023341111838817596, -0.04573914781212807, 0.014735549688339233, 0.05328374728560448, 0.0015251294244080782, -0.015030261129140854, 0.009253925643861294, -0.009725462645292282, -0.014146127738058567, -0.02852802537381649, 0.0015030261129140854, 0.0341864749789238, 0.011434786953032017, -0.0341864749789238, 0.014676607213914394, -0.029706869274377823, 0.012731514871120453, -0.007161477115005255, 0.011670555919408798, -0.01055065356194973, 0.021337077021598816, -0.024873608723282814, -0.0012525217607617378, 0.005717393476516008, 0.0341864749789238, 0.018036313354969025, -0.01827208139002323, 0.01638593152165413, 0.0009209718555212021, -0.0004641698324121535, 0.0, 0.009194983169436455, -0.0031092010904103518, -0.019450925290584564, -0.008075081743299961, 0.018979387357831, -0.003801771905273199, -0.021219192072749138, 0.013203052803874016, 0.02935321442782879, 0.013792474754154682, -0.012142092920839787, 0.02994263730943203, 0.026877643540501595, 0.007898254320025444, -0.009961231611669064, -0.016621699556708336, -0.027584949508309364, -0.0325360931456089, -0.01567862555384636, 0.001650381600484252, 0.003831242909654975, -0.01768266037106514, 0.00666046841070056, 0.002490307902917266, -0.018979387357831, -0.012436804361641407, -0.022162266075611115, -0.0008951846393756568, -0.008310849778354168, -0.013792474754154682, 0.025463029742240906, 6.0784142988268286e-05, 0.0004346987116150558, 0.007249890360981226, 0.03866608440876007, 0.014676607213914394, -0.0024018946569412947, -0.003403912065550685, -0.011316902004182339, -0.006572055164724588, -0.018154198303818703, -0.021337077021598816, 0.004008069634437561, -0.027702834457159042, 0.006719410885125399, -0.004479607101529837, -0.010314884595572948, -0.020747654139995575, -0.016503816470503807, 0.00577633548527956, -0.007338303606957197, 0.04361722618341446, -0.019922463223338127, 0.006100517697632313, 0.017446890473365784, 0.00848767627030611, 0.02652399055659771, -0.010138058103621006, -0.038430314511060715, -0.0006704675033688545, 0.018036313354969025, 0.04008069634437561, 0.040552232414484024, 0.0012525217607617378, -0.00391965638846159, 0.0007257258403114974, 0.0001372248079860583, 0.0433814600110054, 0.014853434637188911, 0.03512955084443092, 0.025580914691090584, 0.014440839178860188, 0.026877643540501595, -0.00783931277692318, -0.012318919412791729, -0.027467064559459686, -0.006630997639149427, -0.030885713174939156, 0.019922463223338127, -0.024048417806625366, -0.043145690113306046, 0.013497763313353062, 0.0031828787177801132, -0.02852802537381649, -0.010963249020278454, -0.02369476482272148, 0.025463029742240906, 0.014853434637188911, 0.007308832835406065, 0.0008362424559891224, 0.007397246081382036, 0.020040348172187805, -0.015796508640050888, -0.011493728496134281, -0.0004218051035422832, -0.018507851287722588, 0.019450925290584564, 0.01968669518828392, 0.02310534194111824, -0.0033597054425626993, -0.009371809661388397, -0.015207087621092796, -0.008310849778354168, 0.023576879873871803, 0.0033154988195747137, 0.02251592092216015, 0.044560302048921585, -0.032300326973199844, -0.0153249716386199, -0.01432295423001051, 0.00474484683945775, 0.030885713174939156, 0.009253925643861294, -0.0341864749789238, -0.014028243720531464, -0.03890185058116913, -0.02251592092216015, 0.029706869274377823, -0.001959828194230795, -0.007043592631816864, 0.003492325311526656, -0.02793860249221325, -0.03465801477432251, -0.03866608440876007, 0.039137620478868484, -0.0341864749789238, -0.013026226311922073, 0.016503816470503807, 0.026877643540501595, -0.028999561443924904, 0.06271450221538544, 0.015207087621092796, -0.008016139268875122, -0.005422682501375675, 0.016739584505558014, 0.029117446392774582, -0.030060522258281708, 0.03135725110769272, -0.02994263730943203, -0.00580580672249198, -0.004450135864317417, 0.007102535106241703, -0.011729497462511063, 0.001974563580006361, -0.014971318654716015, 0.00580580672249198, -0.0038607141468673944, 0.022987456992268562, -0.008134023286402225, -0.012259977869689465, -0.02110130712389946, -0.019922463223338127, 0.014264012686908245, 0.0032418209593743086, -0.058942198753356934, 0.054698359221220016, -0.0013040961930528283, 0.012377861887216568, -0.007780370302498341, -0.0016577494097873569, -0.04479607194662094, 0.014440839178860188, -0.02935321442782879, 0.016857469454407692, -0.019333042204380035, 0.007397246081382036, 0.011493728496134281, 0.005452153272926807, -0.0007662486168555915, 0.0396091565489769, 0.031593017280101776, -0.013438821770250797, 0.008016139268875122, -0.0016798527212813497, -0.017329007387161255, 0.005157442297786474, -0.027467064559459686, 0.025580914691090584, 0.02251592092216015, 0.009194983169436455, 0.007898254320025444, -0.0271134115755558, 0.009312867186963558, 0.00477431807667017, 0.020276116207242012, 0.004302780609577894, -0.017446890473365784, 0.0271134115755558, 0.01838996633887291, 0.017446890473365784, 0.013674589805305004, -0.0008693974232301116, -0.004656433593481779, -1.4102382010605652e-05, -0.026288220658898354, 0.01697535254061222, 0.03654416278004646, 0.01332093682140112, -0.040552232414484024, 0.043852996081113815, 0.0023282167967408895, 0.007190948352217674, -0.02110130712389946, 0.0034775896929204464, -0.041023772209882736, 0.02793860249221325, 0.02923533134162426, 0.0061594597063958645, 0.02793860249221325, -0.016621699556708336, 0.01626804657280445, -0.0018124725902453065, -0.02251592092216015, 0.013851417228579521, -0.00477431807667017, -0.0007551969029009342, 0.029706869274377823, 0.005069029051810503, 0.03347916901111603, 0.02451995573937893, -0.0020335058216005564, 0.019450925290584564, -0.034422244876623154, -0.024637838825583458, 0.00854661874473095, -0.010609596036374569, -0.008664503693580627, -0.019333042204380035, 0.004656433593481779, -0.014735549688339233, 0.05281221121549606, -0.014440839178860188, -0.005393211264163256, 0.002563985763117671, -0.020983422175049782, -0.00029471100424416363, -0.015207087621092796, 0.011257960461080074, 0.02322322688996792, -0.008251908235251904, -0.03512955084443092, 0.004685904830694199, 0.011081133037805557, -0.016739584505558014, 0.02251592092216015, -0.013733532279729843, 0.0071320063434541225, 0.017446890473365784, 0.013851417228579521, 0.020865539088845253, -0.04361722618341446, 0.00666046841070056, -0.0325360931456089, 0.014087185263633728, 0.01756477542221546, 0.011965266428887844, -0.010079115629196167, 0.0153249716386199, 0.011375844478607178, 0.04149530827999115, -0.04149530827999115, 0.00878238771110773, -0.033007632941007614, -0.003949127160012722, 0.00492167379707098, -0.010963249020278454, -0.0306499432772398, -0.0017682659672573209, -0.002578721148893237, 0.004951144568622112, -0.04668222367763519, -0.03206455707550049, 0.029588984325528145, -0.03206455707550049, 0.01756477542221546, 0.018861504271626472, 0.02852802537381649, -0.012495745904743671, -0.041966844350099564, 0.0094896936789155, 0.00783931277692318, 0.004626962821930647, 0.00677835289388895, 0.01638593152165413, -0.03395070508122444, 0.022633804008364677, -0.01909727230668068, -0.0022398035507649183, -0.036308396607637405, -0.013733532279729843, 0.016857469454407692, -0.011906323954463005, -0.006866766139864922, 0.013497763313353062, -0.05092605948448181, -0.0004236470558680594, -0.014971318654716015, -0.000722041935659945, 0.048568371683359146, -0.0007662486168555915, -0.024284185841679573, -0.031593017280101776, 0.018861504271626472, 0.007603543810546398, 0.0035365319345146418, -0.017329007387161255, 0.016032278537750244, -0.010786422528326511, 0.0012083151377737522, -0.02994263730943203, -0.03748723864555359, -0.018743619322776794, 0.0006852030637674034, 0.015914393588900566, 0.010314884595572948, -0.011199017986655235, -0.048568371683359146, 0.010020174086093903, -0.01626804657280445, 0.011257960461080074, 0.02864590846002102, 0.04691798985004425, -0.005127971526235342, 0.014264012686908245, 0.00677835289388895, -0.0094896936789155, 0.02652399055659771, 0.05446259304881096, -0.01756477542221546, -0.025580914691090584, -0.0031681430991739035, -0.009607578627765179, -0.014205070212483406, -0.005687922239303589, 0.005010087043046951, -0.043145690113306046, -0.025698799639940262, 0.04220261424779892, -0.0013777739368379116, 0.007485659327358007, 0.001864047022536397, 0.012142092920839787, 0.0019450925756245852, 0.02110130712389946, 0.014264012686908245, 0.02251592092216015, 0.0012156828306615353, 0.0010093852179124951, -0.018625734373927116, -0.017446890473365784, 0.009371809661388397, 0.00680782413110137, 0.030178405344486237, -0.025698799639940262, -0.004509078338742256, -0.01968669518828392, -0.0008620296721346676, 0.012790457345545292, -0.005334269255399704, 0.0004936408950015903, -0.008016139268875122, 0.001746162655763328, -0.005481624510139227, -0.003197614336386323, -0.025580914691090584, -0.024637838825583458, 0.020276116207242012, -0.02864590846002102, -0.006542583927512169, 0.00580580672249198, 0.013379879295825958, -0.03465801477432251, 0.02723129652440548, -0.004420665092766285, 0.019568810239434242, 0.02039400115609169, 0.0017830015858635306, 0.0017093237256631255, -0.0023429524153470993, 0.018507851287722588, 0.021572845056653023, -0.00592369120568037, 0.01697535254061222, -0.004125954117625952, 0.022280151024460793, -0.014735549688339233, 0.007898254320025444, -0.038430314511060715, 0.008369792252779007, 0.016150163486599922, 0.018625734373927116, -0.0050395578145980835, -0.008428734727203846, -0.021926498040556908, 0.037958774715662, -0.023576879873871803, 0.030414175242185593, 0.005982633214443922, 0.024284185841679573, 0.008605561219155788, -0.022751688957214355, -0.023458994925022125, -0.062242962419986725, 0.022280151024460793, 0.011199017986655235, -0.011906323954463005, 0.029471099376678467, -0.01261363085359335, -5.756074097007513e-05, -0.016503816470503807, 0.006925708614289761, 0.02440207079052925, -0.028292255476117134, -0.007898254320025444, -0.001856679329648614, 0.002077712444588542, 0.004008069634437561, 0.02251592092216015, -0.021337077021598816, -0.015560740604996681, -0.014028243720531464, -0.019333042204380035, 0.0027113412506878376, 0.006837294902652502, -0.006454170681536198, 0.003610209794715047, -0.002284010173752904, 0.048568371683359146, 0.028881678357720375, 0.0031534077133983374, 0.009371809661388397, -0.012318919412791729, 0.03677993267774582, -0.037958774715662, -0.013910358771681786, -0.02723129652440548, -0.01184738241136074, 0.017211122438311577, -0.020158231258392334, -0.0030355232302099466, -0.028174370527267456, 0.004420665092766285, 0.0029176389798521996, 0.012436804361641407, -0.002593456767499447, 0.009312867186963558, 0.00848767627030611, -3.937154542654753e-05, -0.0011125339660793543, -0.0325360931456089, 0.025698799639940262, -0.013674589805305004, -0.012731514871120453, -0.0014882904943078756, 0.025345144793391228, 0.01626804657280445, 0.004479607101529837, 0.004155424889177084, -0.028174370527267456, 0.009607578627765179, 0.03277186304330826, 0.01638593152165413, 0.041023772209882736, -0.03135725110769272, 0.00878238771110773, 0.02581668272614479, -0.0031828787177801132, 0.003831242909654975, 0.02664187364280224, -0.030885713174939156, -0.000436540663940832, -0.0016135426703840494, -0.037015702575445175, 0.006041575223207474, 0.02369476482272148, -0.03277186304330826, -0.02664187364280224, -0.0019892991986125708, -0.004332251846790314, -0.03489378094673157, -0.012083150446414948, -0.016739584505558014, 0.01768266037106514, -0.004862731322646141, 0.00677835289388895, 0.002475572284311056, -0.012908341363072395, -0.0014809228014200926, 0.0325360931456089, 0.008016139268875122, -0.009018156677484512, 0.01756477542221546, 0.004214367363601923, 0.0013114638859406114, 0.0035660031717270613, -0.017329007387161255, 0.00666046841070056, 0.02039400115609169, 0.006866766139864922, 0.011670555919408798, 0.0010977984638884664, 0.05328374728560448, 0.008723445236682892, -0.00492167379707098, 0.01768266037106514, -0.023341111838817596, -0.01838996633887291, -0.02593456767499447, -0.028410140424966812, -0.0032565565779805183, 0.01968669518828392, 0.002062977058812976, 0.011316902004182339, 0.01567862555384636, -0.025698799639940262, -0.0396091565489769, 0.0050985002890229225, 0.00034075957955792546, -0.019333042204380035, -0.007544601336121559, -0.00954863615334034, -0.001134637393988669, 0.005835277959704399, 0.027467064559459686, -0.008251908235251904, 0.03135725110769272, 0.01184738241136074, -0.018743619322776794, -0.005422682501375675, -0.004273309372365475, 0.012377861887216568, 0.01980457827448845, 0.03206455707550049, 0.01968669518828392, -0.024755723774433136, 0.014794492162764072, -0.003389176446944475, -0.015442856587469578, -0.037723008543252945, -0.026759758591651917, 0.01184738241136074, 0.015796508640050888, 0.0015767038566991687, 0.027702834457159042, -0.015796508640050888, -0.041023772209882736, 0.01161161344498396, -0.00878238771110773, 0.006247872952371836, -0.0038901851512491703, -0.003492325311526656, -0.00783931277692318, -0.01567862555384636, 0.011670555919408798, 0.005511095747351646, 0.02864590846002102, -0.0020335058216005564, 0.009136040695011616, -0.005481624510139227, -0.004626962821930647, -0.021572845056653023, 0.0008141391444951296, -0.0017682659672573209, -0.00474484683945775, -0.014205070212483406, 0.013851417228579521, -0.02369476482272148, -0.00477431807667017, -0.020629769191145897, 0.013261995278298855, 0.024755723774433136, 0.0017682659672573209, -0.0019008859526365995, -0.0271134115755558, 0.016857469454407692, -0.014028243720531464, 0.03135725110769272, 0.006630997639149427, -0.04715375974774361, 0.0008546618628315628, 0.004715376067906618, -0.015442856587469578, -0.008723445236682892, -0.023341111838817596, -0.004597491584718227, -0.011729497462511063, 0.00011788439587689936, 0.00783931277692318, 0.036308396607637405, 0.005982633214443922, -0.013851417228579521, -0.012672572396695614, 0.0009651785367168486, 0.00666046841070056, -0.010786422528326511, 0.020865539088845253, -0.010609596036374569, -0.019922463223338127, -0.01432295423001051, -0.02782071754336357, -0.003492325311526656, -0.01184738241136074, -0.02369476482272148, 0.015914393588900566, 0.005363740026950836, -0.03347916901111603, -0.0036396807990968227, -0.011316902004182339, 0.01084536500275135, 0.025463029742240906, 0.0450318418443203, 0.0028734321240335703, -0.03937339037656784, 0.04550337791442871, 0.02039400115609169, -0.028763793408870697, 0.0014367160620167851, -0.041023772209882736, -0.005275326780974865, -0.014794492162764072, -0.008369792252779007, 0.013910358771681786, -0.015914393588900566, -0.013261995278298855, -0.0094896936789155, -0.02994263730943203, -0.030178405344486237, -0.01638593152165413, -0.03937339037656784, -0.003595474176108837, 0.007898254320025444, -0.00022195422207005322, 0.013144110329449177, 0.003713358659297228, -0.0038607141468673944, 0.004833260551095009, 0.0006520480965264142, 0.001856679329648614, 0.0017387948464602232, -0.020865539088845253, -0.020629769191145897, 0.020158231258392334, -0.0216907300055027, 0.024755723774433136, -0.021219192072749138, 0.022044382989406586, -0.0153249716386199, 0.01768266037106514, -0.013379879295825958, -0.012672572396695614, 0.006100517697632313, -0.00580580672249198, 0.0341864749789238, -0.016621699556708336, -0.0028439611196517944, 0.02982475236058235, 0.009194983169436455, -0.016857469454407692, 0.001864047022536397, 0.010197000578045845, -0.0064246999099850655, 0.010727480053901672, 0.039137620478868484, -0.016503816470503807, 0.0006262608803808689, 0.007780370302498341, 0.007780370302498341, -0.014146127738058567, 0.005422682501375675, -0.007308832835406065, -0.009902289137244225, 0.0153249716386199, -0.008251908235251904, 0.01184738241136074, -0.03489378094673157, 0.01055065356194973, 0.009784405119717121, -0.007721428293734789, 0.010138058103621006, -0.012259977869689465, -0.023576879873871803, -0.018625734373927116, -0.010020174086093903, -0.003507060930132866, -0.01567862555384636, -0.0031681430991739035, 0.039137620478868484, 0.003433383069932461, -0.02852802537381649, -0.019922463223338127, -0.02982475236058235, 0.0026523990090936422, -0.027467064559459686, 0.00011880537203978747, -0.04809683561325073, -0.020747654139995575, 2.7974519980489276e-05, 0.014735549688339233, 0.007249890360981226, 0.025345144793391228, 0.03677993267774582, 0.003949127160012722, 0.00288816774263978, 0.021926498040556908, -0.011906323954463005, -0.012731514871120453, 0.00984334759414196, -0.01768266037106514, -0.015796508640050888, -0.014558723196387291, -0.01255468837916851, 0.010786422528326511, 0.012201035395264626, -0.0005562669830396771, -0.004067011643201113, -0.007102535106241703, -0.021454960107803345, 0.020511886104941368, 0.05564143508672714, -0.02864590846002102, 0.039844926446676254, 0.0002210332459071651, -0.010963249020278454, -0.028763793408870697, -0.003123936476185918, -0.010668538510799408, 0.018154198303818703, -0.010786422528326511, -0.009136040695011616, 0.007367774844169617, -0.010314884595572948, 0.02369476482272148, -0.024284185841679573, 0.03277186304330826, 0.05210490524768829, 0.008959214203059673, 0.009018156677484512, 0.029471099376678467, -0.022869573906064034, 0.02581668272614479, 0.00854661874473095, -0.028174370527267456, 0.003197614336386323, -0.0020187704358249903, -0.01567862555384636, 0.006454170681536198, -0.02664187364280224, -0.017329007387161255, -0.016739584505558014, -0.028174370527267456, 0.030414175242185593, 0.006129988934844732, 0.029588984325528145, -0.014205070212483406, 0.020629769191145897, -0.007220419589430094, 0.0216907300055027, 0.017918428406119347, 0.0016061749774962664, 0.020983422175049782, -0.019215157255530357, 0.021337077021598816, 0.006277344189584255, -0.03536532074213028, -0.002372423419728875, 0.002475572284311056, 0.0024313656613230705, 0.023576879873871803, 0.029471099376678467, -0.0006483641918748617, 0.01255468837916851, 0.030414175242185593, 0.007957196794450283, -0.020158231258392334, -0.013438821770250797, 0.013910358771681786, -0.004538549575954676, -0.0001491974398959428, -0.050690289586782455, -0.027349179610610008, -0.006748881656676531, 0.011965266428887844, -0.002372423419728875, 0.033007632941007614, -0.006572055164724588, 0.033714938908815384, -0.014264012686908245, 0.0059531619772315025, -0.0032123499549925327, 0.014146127738058567, 0.0018124725902453065, 0.012849399819970131, -0.04008069634437561, -0.02381264790892601, 0.009784405119717121, 0.00878238771110773, -0.015089202672243118, -0.005393211264163256, 0.033007632941007614, 0.004538549575954676, -0.03583685681223869, -0.0170932374894619, -0.009077099151909351, 0.007721428293734789, 0.021926498040556908, 0.02923533134162426, 0.013497763313353062, -0.017329007387161255, -0.0034481186885386705, 0.020983422175049782, -0.021926498040556908, 0.0022250679321587086, 0.006689939647912979, 0.007544601336121559, 0.003801771905273199, 0.0036691518034785986, -0.027584949508309364, -0.000880449078977108, -0.012142092920839787, -0.007780370302498341, -0.01461766567081213, 0.009725462645292282, -0.0008915007929317653, -0.02110130712389946, 0.022869573906064034, 0.025698799639940262, -0.002269274787977338, 0.026995526626706123, 0.0034481186885386705, -0.016032278537750244, 0.00878238771110773, -0.0004825892683584243, 0.009194983169436455, -0.008016139268875122, 0.012201035395264626, -0.01332093682140112, 0.01361564826220274, 0.007014121860265732, -0.01567862555384636, 0.03536532074213028, 0.014853434637188911, -0.0032123499549925327, -0.0053047980181872845, 0.030885713174939156, -0.014146127738058567, 0.0028734321240335703, -0.006630997639149427, -0.006071046460419893, 0.04951144754886627, 0.0052458555437624454, -0.0216907300055027, -0.01155267097055912, -0.011022191494703293, -0.016503816470503807, -0.0032418209593743086, 0.04621068388223648, 0.027584949508309364, 0.020629769191145897, 0.011906323954463005, -0.02039400115609169, 0.025463029742240906, 0.009784405119717121, 0.033714938908815384, 0.0005783703527413309, -0.015089202672243118, -0.03347916901111603, -0.006129988934844732, 0.011965266428887844, 0.01567862555384636, 0.018743619322776794, -0.003831242909654975, -0.008192965760827065, -0.013733532279729843, 5.9402686019893736e-05, -0.0021955969277769327, -0.009607578627765179, 0.012967283837497234, -0.004509078338742256, 0.021926498040556908, 0.01626804657280445, -0.001753530465066433, -0.009077099151909351, 0.0008215068955905735, 0.0020187704358249903, 0.019215157255530357, -0.03135725110769272, 0.04621068388223648, 0.016503816470503807, 0.00677835289388895, 0.03560108691453934, -0.0035807385575026274, 0.0005820541991852224, 0.011788439936935902, 0.010138058103621006, 0.007515130564570427, 8.012455509742722e-05, 0.05776335671544075, 0.010432769544422626, 0.012790457345545292, 0.004715376067906618, 0.0027408122550696135, 0.023458994925022125, 0.013851417228579521, 0.03725146874785423, 0.019215157255530357, -0.02994263730943203, -0.014028243720531464, -0.0025050435215234756, 0.0341864749789238, -0.0010093852179124951, -0.025580914691090584, 0.01155267097055912, 0.0010683273430913687, 0.025580914691090584, 0.02310534194111824, -0.016739584505558014, 0.01756477542221546, 0.026995526626706123, -0.022869573906064034, -0.029117446392774582, 0.03489378094673157, 0.02652399055659771, 0.005511095747351646, -0.00848767627030611, -0.002961845602840185, 0.00474484683945775, 0.013792474754154682, 0.005717393476516008, 0.02440207079052925, -0.009312867186963558, 0.022162266075611115, -0.009253925643861294, -0.005452153272926807, 0.009607578627765179, -0.018036313354969025, 0.037723008543252945, -0.0153249716386199, -0.039137620478868484, 0.007161477115005255, -0.011493728496134281, -0.008959214203059673, -0.01567862555384636, 0.014735549688339233, -0.009430752135813236, 0.02652399055659771, 0.0008583457674831152, 0.024755723774433136, -0.004243838135153055, 0.006719410885125399, -0.00878238771110773, -0.011906323954463005, 0.010079115629196167, -0.008016139268875122, -0.026052452623844147, -0.023576879873871803, -0.013969301246106625, -0.041023772209882736, 0.0007846680236980319, -0.014794492162764072, 0.006925708614289761, 0.004479607101529837, 0.011316902004182339, 0.024755723774433136, 0.0306499432772398, 0.010138058103621006, -0.0039785983972251415, 0.024637838825583458, 0.0016945882234722376, 0.008664503693580627, -0.008428734727203846, 0.020629769191145897, 0.012318919412791729, -0.006100517697632313, 0.005334269255399704, -0.01155267097055912, -0.009312867186963558, 0.02310534194111824, 0.0010167529108002782, -0.013910358771681786, -0.023930532857775688, -0.001142005086876452, -0.0031828787177801132, -0.0064246999099850655, 0.02982475236058235, -0.0252272617071867, -0.0070730638690292835, -0.02723129652440548, 0.023458994925022125, 0.05234067142009735, -0.0153249716386199, -0.032300326973199844, 0.015030261129140854, 0.012436804361641407, 0.0012083151377737522, 0.02664187364280224, -0.015914393588900566, 0.03395070508122444, -0.04008069634437561, -0.019333042204380035, 0.018036313354969025, 0.026995526626706123, 0.0010830629616975784, -0.01980457827448845, -0.020511886104941368, 0.02640610560774803, 0.05446259304881096, 0.03395070508122444, 0.010020174086093903, 0.004243838135153055, -0.013203052803874016, -0.011257960461080074, -0.011199017986655235, 0.014853434637188911, 0.037723008543252945, -0.02852802537381649, -0.012142092920839787, -0.02310534194111824, -0.027349179610610008, -0.008075081743299961, 0.003286027582362294, -0.016150163486599922, 0.005334269255399704, -0.00783931277692318, -0.006247872952371836, 0.03395070508122444, 0.015089202672243118, 0.006454170681536198, -0.022987456992268562, 0.015796508640050888, 0.01184738241136074, 0.008959214203059673, 0.009784405119717121, -0.01968669518828392, 0.002961845602840185, 0.0025345145259052515, 0.02581668272614479, 0.021337077021598816, 0.001031488529406488, -0.02381264790892601, 0.0023134814109653234, -0.014087185263633728, -0.022633804008364677, -0.018625734373927116, -0.014028243720531464, 0.0052458555437624454, 0.00766248581930995, -0.020040348172187805, -0.01567862555384636, -0.004214367363601923, 0.01361564826220274, 0.01756477542221546, 0.0094896936789155, -0.0031828787177801132, 0.0216907300055027, 0.0306499432772398, 7.091483712429181e-05, -0.0059531619772315025, -0.00766248581930995, 0.005717393476516008, 0.037958774715662, 0.013379879295825958, -0.0009578107274137437, -0.003227085340768099, -0.027702834457159042, 0.015796508640050888, -0.004391193855553865, -0.019922463223338127, 0.013438821770250797, 0.015914393588900566, -0.002696605632081628, 0.008369792252779007, -0.013203052803874016, 0.01161161344498396, 0.026877643540501595, -0.03866608440876007, -0.003389176446944475, -0.012142092920839787, 0.005835277959704399, -0.01697535254061222, 0.028410140424966812, 0.003300763200968504, 0.027584949508309364, 0.0028734321240335703, -0.015560740604996681, 0.042438384145498276, 0.026759758591651917, -0.014912376180291176, 0.00015011841605883092, 0.012908341363072395, -0.020747654139995575, 0.021337077021598816, -0.027584949508309364, 0.009784405119717121, -0.020629769191145897, -0.0015398649265989661, -0.009018156677484512, -0.020629769191145897, 0.011316902004182339, 0.007603543810546398, -0.0031092010904103518, 0.009253925643861294, -0.013497763313353062, -0.018861504271626472, 0.015560740604996681, 0.001532497233711183, 0.02923533134162426, -0.002593456767499447, -0.013851417228579521, 0.011257960461080074, 0.026995526626706123, -0.007898254320025444, 0.011257960461080074, -0.01697535254061222, -0.017446890473365784, -0.008369792252779007, 0.005363740026950836, -0.006247872952371836, -0.017918428406119347, -0.008369792252779007, -0.006188930943608284, -0.007161477115005255, 0.012495745904743671, 0.014087185263633728, 0.011375844478607178, -0.030885713174939156, -0.006689939647912979, -0.024991491809487343, 0.0035512675531208515, -0.041966844350099564, 0.031121481209993362, -0.02510937675833702, -0.012377861887216568, 0.015796508640050888, 0.010138058103621006, 0.014735549688339233, -0.03677993267774582, -0.036308396607637405, -0.043145690113306046, -0.03937339037656784, -0.022987456992268562, 0.011434786953032017, -0.009371809661388397, -0.008723445236682892, 0.027584949508309364, -0.012083150446414948, 0.010786422528326511, 0.01697535254061222, -0.04691798985004425, 0.012318919412791729, 0.002593456767499447, -0.013969301246106625, -0.01332093682140112, 0.0010535918409004807, -0.043145690113306046, 0.03489378094673157, -0.008310849778354168, -0.014440839178860188, -0.009961231611669064, -0.0039785983972251415, 0.015207087621092796, 0.008428734727203846, -0.009725462645292282, 0.03654416278004646, -0.0032565565779805183, 0.004096482880413532, -0.0306499432772398, -0.009430752135813236, -0.05234067142009735, -0.010079115629196167, -0.0030797298531979322, 0.002961845602840185, 0.013497763313353062, -0.014499780721962452, -0.008664503693580627, 0.017329007387161255, 0.02251592092216015, 0.01756477542221546, 0.026288220658898354, 0.0024461012799292803, 0.020747654139995575, -0.0252272617071867, 0.005363740026950836, 0.010255943052470684, 0.014028243720531464, -0.006513113155961037, -0.007014121860265732, 0.0007957196794450283, -0.024284185841679573, -0.03654416278004646, -0.014087185263633728, 0.016621699556708336, -0.009607578627765179, -0.020511886104941368, 0.02322322688996792, -0.012495745904743671, -0.02310534194111824, 0.0450318418443203, -0.015030261129140854, 0.02239803597331047, -0.038430314511060715, -0.041966844350099564, 0.018036313354969025, -0.025580914691090584, 0.0002145864418707788, -0.04951144754886627, -0.003507060930132866, 0.010373827069997787, 0.045974913984537125, -0.03135725110769272, -0.01968669518828392, 0.010314884595572948, 0.03583685681223869, -0.03347916901111603, 0.00766248581930995, 0.0038901851512491703, -0.00766248581930995, -0.038430314511060715, 0.02381264790892601, -0.0004899570485576987, 0.00783931277692318, 0.04267415404319763, -0.012318919412791729, 0.006041575223207474, 0.03277186304330826, -0.003610209794715047, 0.0015103938058018684, 0.0341864749789238, -0.005628980230540037, -0.02581668272614479, 0.011729497462511063, -0.011493728496134281, -0.008075081743299961, -0.01361564826220274, -0.022869573906064034, -0.00166511710267514, -0.01055065356194973, -0.021572845056653023, -0.028292255476117134, -0.011729497462511063, -0.028174370527267456, -0.026877643540501595, 0.005363740026950836, -0.0008030874887481332, 0.03206455707550049, 0.01838996633887291, 0.022751688957214355, 0.056820280849933624, -0.01768266037106514, 0.022044382989406586, -0.006100517697632313, 0.00477431807667017, -0.0021366546861827374, 0.01968669518828392, 0.006306815426796675, -0.00017406367987859994, -0.0023134814109653234, 0.0010020174086093903, -0.01432295423001051, 0.023930532857775688, -0.01626804657280445, 0.00766248581930995, 0.015796508640050888, 0.0033449698239564896, 0.010963249020278454, -0.023930532857775688, 0.024166300892829895, -0.048568371683359146, -0.015207087621092796, -0.022044382989406586, -0.022633804008364677, 0.02440207079052925, 0.03324339911341667, -0.009018156677484512, -0.01361564826220274, 0.0010756951523944736, -0.03725146874785423, 0.011493728496134281, 0.018507851287722588, 0.006896237377077341, 0.022044382989406586, -0.010963249020278454, 0.01697535254061222, 0.000873081327881664, 0.015560740604996681, -0.0020924480631947517, 0.003123936476185918, -0.008664503693580627, -0.03489378094673157, -0.05281221121549606, 0.00492167379707098, -0.00884133018553257, 0.005746864248067141, -0.0011493728961795568, -0.010491711087524891, 0.010373827069997787, 0.02652399055659771, 0.016503816470503807, 0.027349179610610008, 0.02451995573937893, -0.011965266428887844, 0.011081133037805557, 0.004568020347505808, 0.019450925290584564, 0.006984650623053312, -0.019450925290584564, -0.01261363085359335, -0.016032278537750244, -0.01838996633887291, -0.001532497233711183, 0.0063657574355602264, 0.005982633214443922, 0.0012967283837497234, 0.014440839178860188, -0.005599508993327618, -0.018154198303818703, 0.0007036225288175046, -0.014971318654716015, -0.020747654139995575, -0.003418647451326251, -0.012849399819970131, -0.026052452623844147, -0.015030261129140854, -0.005599508993327618, 0.02310534194111824, 0.0024313656613230705, -0.029471099376678467, 0.026995526626706123, 0.006837294902652502, 0.031593017280101776, -0.00677835289388895, -0.01968669518828392, 0.018154198303818703, -0.01909727230668068, -0.022162266075611115, -0.0063657574355602264, -5.9863170463358983e-05, -0.0022250679321587086, -0.012024208903312683, 0.03465801477432251, 0.015796508640050888, -0.0153249716386199, -0.034422244876623154, 0.0010167529108002782, -0.009902289137244225, -0.021219192072749138, -0.029588984325528145, 0.004656433593481779, -0.0040375408716499805, 0.0153249716386199, 0.014853434637188911, 0.012436804361641407, 0.012495745904743671, -0.01756477542221546, 0.03819454461336136, -0.00878238771110773, -0.011375844478607178, -0.03866608440876007, 0.007515130564570427, -0.005216384772211313, 0.014676607213914394, -0.014853434637188911, -0.00984334759414196, 0.018154198303818703, 0.01255468837916851, -0.022633804008364677, 0.024637838825583458, 0.0009357074159197509, -0.001959828194230795, 0.009961231611669064, -0.006719410885125399, -0.00580580672249198, -0.004833260551095009, 0.015442856587469578, 0.016739584505558014, 0.017211122438311577, -0.025698799639940262, -0.022044382989406586, -0.007014121860265732, -0.01255468837916851, 0.00047890536370687187, -0.024048417806625366, 0.0014956583036109805, -0.0027260766364634037, -0.03489378094673157, -0.011022191494703293, -0.007898254320025444, -0.0062184021808207035, 0.005835277959704399, 0.01626804657280445, 0.011316902004182339, -0.02640610560774803, -0.010609596036374569, -0.0023134814109653234, 0.007515130564570427, -0.018507851287722588, -0.0006446802872233093, -0.0024166302755475044, -0.054698359221220016, -0.007249890360981226, -0.015796508640050888, 0.03512955084443092, -0.00017406367987859994, 0.04031646251678467, 0.026052452623844147, -0.009253925643861294, -0.006542583927512169, -0.0006004736642353237, -0.011022191494703293, 0.004273309372365475, -0.0011788440169766545, 0.02640610560774803, 0.008251908235251904, 0.0031681430991739035, -0.004833260551095009, -0.0050395578145980835, -0.03182878717780113, 0.014440839178860188, 0.018154198303818703, -0.008723445236682892, -0.0060121044516563416, 0.012672572396695614, 0.0071320063434541225, 0.04149530827999115, 0.01909727230668068, -0.011257960461080074, 0.0015030261129140854, -0.016621699556708336, 0.020865539088845253, 0.003197614336386323, 0.04974721744656563, -0.00878238771110773, 0.033714938908815384, -0.028292255476117134, 0.010727480053901672, 0.02652399055659771, 0.00954863615334034, -0.018154198303818703, -0.01909727230668068, 0.029471099376678467, -0.004420665092766285, -0.005127971526235342, -0.02864590846002102, 0.016503816470503807, 0.002755547873675823, 0.0170932374894619, 0.004509078338742256, 0.0488041415810585, 0.00477431807667017, -0.013085167855024338, 0.013026226311922073, -0.005540566518902779, -0.02652399055659771, -0.018507851287722588, 0.018036313354969025, -0.0026523990090936422, -0.012142092920839787, 0.00984334759414196, -0.004685904830694199, -0.006100517697632313, 0.009077099151909351, -0.000722041935659945, 0.02581668272614479, 0.008664503693580627, -0.03277186304330826, 0.0022398035507649183, 0.04833260178565979, 0.015030261129140854, -0.01980457827448845, 0.008664503693580627, -0.017211122438311577, 0.04644645377993584, -0.019333042204380035, -0.004656433593481779, -0.006601526401937008, 0.04479607194662094, -0.007603543810546398, -0.0015251294244080782, 0.01084536500275135, -0.0019892991986125708, -0.00677835289388895, 0.026170335710048676, 0.014971318654716015, -0.010904306545853615, 0.017211122438311577, 0.037015702575445175, -0.0070730638690292835, -0.022987456992268562, -0.002799754496663809, -0.016739584505558014, 0.018625734373927116, 0.016621699556708336, -0.01968669518828392, 0.0036838874220848083, -0.0015177616151049733, 0.03937339037656784, -0.020629769191145897, -0.00477431807667017, -0.00492167379707098, 0.008664503693580627, -0.01838996633887291, 0.042438384145498276, -0.0041848961263895035, 0.005452153272926807, -0.0008546618628315628, 0.029588984325528145, 0.005157442297786474, -0.030885713174939156, 0.0018861503340303898, 0.006395228672772646, -0.04361722618341446, -0.0038607141468673944, -0.04432453215122223, -0.02451995573937893, 0.012201035395264626, -0.007603543810546398, 0.018154198303818703, 0.008428734727203846, 0.03206455707550049, -0.00878238771110773, -0.004155424889177084, -0.0059531619772315025, 0.020040348172187805, 0.008664503693580627, 0.0020040348172187805, 0.002578721148893237, 0.005717393476516008, 0.01909727230668068, 0.01626804657280445, -0.01361564826220274, -0.006188930943608284, -0.0433814600110054, 0.06601526588201523, -0.00766248581930995, 0.006719410885125399, -0.015089202672243118, -0.01968669518828392, 0.01780054345726967, 0.015442856587469578, -0.02369476482272148, -0.012967283837497234, 0.012967283837497234, -0.005628980230540037, -0.012259977869689465, -0.037723008543252945, 0.007249890360981226, -0.01838996633887291, 0.009607578627765179, -0.005452153272926807, -0.00027813349151983857, 0.00391965638846159, 0.0006409964407794178, 0.00984334759414196, 0.008369792252779007, -0.02793860249221325, 0.020511886104941368, -0.012024208903312683, 0.006188930943608284, 0.018154198303818703, -0.0032123499549925327, 0.01980457827448845, -0.01461766567081213, -0.014735549688339233, 0.02039400115609169, 0.012083150446414948, 0.02310534194111824, 0.022044382989406586, 0.023341111838817596, -0.008664503693580627, -0.010314884595572948, -0.007014121860265732, -0.0153249716386199, 0.013497763313353062, -0.00783931277692318, 0.03324339911341667, 0.011434786953032017, 0.004980615805834532, -0.04031646251678467, 0.0020187704358249903, -0.006925708614289761, -0.021454960107803345, 0.016503816470503807, 0.010197000578045845, -0.019922463223338127, 0.007603543810546398, -0.041731078177690506, 0.03937339037656784, 0.020276116207242012, -0.026877643540501595, 0.013261995278298855, 0.014381896704435349, -0.001429348369129002, -0.003064994467422366, 0.03182878717780113, 0.012790457345545292, 0.006866766139864922, -0.004332251846790314, -0.0396091565489769, 0.004833260551095009, -0.010668538510799408, 0.007426717318594456, 0.01838996633887291, 0.00580580672249198, -0.028056487441062927, 0.01255468837916851, 0.005511095747351646, -0.005157442297786474, 0.016739584505558014, -0.012495745904743671, 0.007102535106241703, -0.016503816470503807, 0.0036396807990968227, -0.01780054345726967, -0.016503816470503807, -0.05729181692004204, -0.01780054345726967, 0.021219192072749138, 0.022633804008364677, 0.007161477115005255, 0.02593456767499447, -0.0036544164177030325, 0.0028144901152700186, -0.013792474754154682, -0.004243838135153055, -0.03347916901111603, -0.0010683273430913687, 4.4897376938024536e-05, -0.00025418822770006955, -0.001974563580006361, -0.0005746864480897784, -0.006748881656676531, -0.0034481186885386705, -0.013144110329449177, -0.004125954117625952, 0.030885713174939156, 0.004155424889177084, -0.026759758591651917, -0.00984334759414196, -0.019450925290584564, 0.006748881656676531, -0.0216907300055027, -0.0019156214548274875, -0.002681870013475418, -0.0061594597063958645, -0.015442856587469578, 0.014381896704435349, 0.00848767627030611, 0.002785018878057599, 0.027584949508309364, 0.010373827069997787, -0.0019008859526365995, -0.007544601336121559, -0.0010683273430913687, -0.002681870013475418, 0.006955179385840893, -0.0007478291518054903, 0.011788439936935902, 0.014971318654716015, -0.03866608440876007, 0.012495745904743671, -0.011788439936935902, 0.02180861309170723, -0.005186913534998894, 0.03607262670993805, 0.004302780609577894, 0.023341111838817596, -0.005658451002091169, -0.01055065356194973, 0.010138058103621006, 0.018979387357831, 0.0019156214548274875, 0.0050985002890229225, 0.004951144568622112, 0.03583685681223869, 0.0024018946569412947, 0.009136040695011616, 0.019215157255530357, -0.02451995573937893, 0.014440839178860188, -0.016739584505558014, -0.012024208903312683, -0.007367774844169617, 0.033714938908815384, -0.014028243720531464, -0.003507060930132866, 0.006100517697632313, -0.018154198303818703, -0.0032418209593743086, -0.008310849778354168, 0.03748723864555359, -0.022751688957214355, 0.0014367160620167851, -0.037958774715662, -0.0021219190675765276, -0.028763793408870697, 0.007220419589430094, -0.004803789313882589, 0.050690289586782455, -0.009725462645292282, 0.0170932374894619, -0.0094896936789155, -0.027584949508309364, -0.026170335710048676, 0.0252272617071867, 0.01909727230668068, 0.03206455707550049, 0.010963249020278454, 0.024873608723282814, 0.03536532074213028, -0.0053047980181872845, -0.011022191494703293, -0.0025492501445114613, 0.02039400115609169, 0.060828350484371185, 0.0022250679321587086, -0.00492167379707098, -0.013497763313353062, 0.05705605074763298, 0.015089202672243118, -0.0021366546861827374, -0.02864590846002102, -0.0017756337765604258, -0.01909727230668068, 0.002696605632081628, -0.037015702575445175, 0.008251908235251904, -0.00783931277692318, -0.004626962821930647, 0.027584949508309364, 0.009371809661388397, 0.0010904306545853615, 0.044560302048921585, -0.00984334759414196, -0.0007736163679510355, -0.0018345759017392993, -0.010314884595572948, -0.004008069634437561, 0.020040348172187805, -0.005511095747351646, 0.022633804008364677, 0.004361722618341446, 0.0030502588488161564, -0.024048417806625366, -0.01567862555384636, -0.02593456767499447, -0.016621699556708336, -0.011434786953032017, -0.0040375408716499805, 0.02793860249221325, 0.007426717318594456, 0.018743619322776794, 0.05328374728560448, 0.012436804361641407, -0.009902289137244225, -0.027349179610610008, 0.01909727230668068, -0.014028243720531464, -0.019568810239434242, -0.011493728496134281, 0.033007632941007614, -0.020865539088845253, -0.002858696738258004, 0.02451995573937893, -0.003403912065550685, 0.022280151024460793, -0.04078800231218338, 0.04008069634437561, -0.022280151024460793, 0.016032278537750244, -0.029117446392774582, -0.022633804008364677, -0.015207087621092796, -0.0017756337765604258, 0.021337077021598816, -0.009430752135813236, -0.033714938908815384, -0.010314884595572948, -0.0033154988195747137, -0.044560302048921585, 0.011493728496134281, 0.00029471100424416363, 0.030885713174939156, -0.010668538510799408, -0.01626804657280445, -0.009784405119717121, 0.01361564826220274, -0.00492167379707098, 0.004538549575954676, 0.05634874105453491, -0.03277186304330826, 0.060828350484371185, 0.008192965760827065, 0.013085167855024338, -0.027349179610610008, 0.004332251846790314, -0.024166300892829895, 0.02039400115609169, -0.005186913534998894, 0.00884133018553257, 0.016739584505558014, -0.002254539169371128, 0.007603543810546398, 0.020511886104941368, -0.03395070508122444, -0.0020040348172187805, 0.007603543810546398, -0.014499780721962452, 0.017211122438311577, 0.030414175242185593, 0.028410140424966812, 0.007397246081382036, -0.010609596036374569, -0.012377861887216568, 0.013261995278298855, -0.002372423419728875, 0.00954863615334034, 0.00019156215421389788, 0.021926498040556908, 0.0135567057877779, 0.014853434637188911, -0.01332093682140112, -0.0064246999099850655, -0.010609596036374569, -0.01909727230668068, 0.007544601336121559, 0.018625734373927116, 0.008192965760827065, -0.0094896936789155, 0.006719410885125399, -0.0061594597063958645, 0.03583685681223869, -0.010786422528326511, -0.00848767627030611, -0.02994263730943203, 0.037958774715662, 0.02652399055659771, 0.0064246999099850655, -0.0034481186885386705, -0.013379879295825958, -0.04833260178565979, 0.013026226311922073, -0.021219192072749138, 0.004214367363601923, 0.010491711087524891, -0.033714938908815384, 0.0004144373524468392, -0.028763793408870697, -0.025580914691090584, -0.009371809661388397, 0.0306499432772398, 0.006306815426796675, -0.0010830629616975784, -0.02180861309170723, -0.01980457827448845, 0.0271134115755558, -0.006041575223207474, -0.02664187364280224, -0.001031488529406488, 0.01697535254061222, -7.644066499779001e-05, 0.032300326973199844, -0.03536532074213028, -0.005422682501375675, -0.02251592092216015, 0.025698799639940262, -0.0034481186885386705, -0.021454960107803345, -0.0008988685440272093, -0.0003683887480292469, -0.02251592092216015, -0.008428734727203846, 0.006630997639149427, -0.016739584505558014, -0.020747654139995575, 0.009666521102190018, 0.003286027582362294, 0.020865539088845253, -0.006572055164724588, 0.02440207079052925, -0.03465801477432251, 0.0016356459818780422, 0.019333042204380035, 0.01261363085359335, 0.01461766567081213, -0.01980457827448845, -0.0325360931456089, 0.02322322688996792, -0.020276116207242012, -0.024284185841679573, -0.022280151024460793, -0.020747654139995575, -0.015442856587469578, 0.00884133018553257, 0.018036313354969025, -0.007957196794450283, 0.017918428406119347, -0.011670555919408798, -0.03937339037656784, 0.02864590846002102, 0.018861504271626472, 0.0019450925756245852, -0.0035365319345146418, -0.007721428293734789, 0.01827208139002323, 0.0022103325463831425, 0.043145690113306046, 0.03324339911341667, -0.029706869274377823, 0.03182878717780113, 0.007957196794450283, -0.006395228672772646, -0.005422682501375675, -0.017211122438311577, 0.01638593152165413, 0.029117446392774582, 0.018625734373927116, 0.0019008859526365995, -0.012083150446414948, -0.02440207079052925, 0.022987456992268562, -0.023576879873871803, -0.008134023286402225, -0.008369792252779007, -0.014028243720531464, -0.01909727230668068, 0.004568020347505808, 0.007220419589430094, 0.01461766567081213, -0.010432769544422626, -0.03324339911341667, -0.0035365319345146418, -0.028056487441062927, 0.012790457345545292, 0.009784405119717121, -0.00012248926213942468, -0.00391965638846159, -0.017211122438311577, 0.020747654139995575, 0.028999561443924904, -0.015560740604996681, 0.025463029742240906, 0.0024018946569412947, 0.012318919412791729, -0.007338303606957197, -0.008192965760827065, 0.023341111838817596, -0.0035512675531208515, -0.011965266428887844, 0.01567862555384636, -0.02864590846002102, -0.003020787611603737, -0.010197000578045845, 0.020276116207242012, 0.005540566518902779, -0.028410140424966812, 0.013674589805305004, -0.008251908235251904, 0.0015103938058018684, 0.012024208903312683, -0.007308832835406065, 0.027702834457159042, -0.006513113155961037, 0.018154198303818703, 0.018979387357831, -0.005511095747351646, -0.01968669518828392, 0.002180861309170723, 0.032300326973199844, -0.013497763313353062, 0.012024208903312683, -0.007308832835406065, -0.014264012686908245, 0.018507851287722588, -0.0071320063434541225, 0.04668222367763519, 0.01255468837916851, 0.018154198303818703, -0.004951144568622112, 0.003713358659297228, 0.004951144568622112, -0.019333042204380035, 0.001142005086876452, -0.018625734373927116, 0.018979387357831, 0.018036313354969025, -0.00023761074407957494, 0.0016209104796871543, -0.024873608723282814, -0.005069029051810503, -0.008075081743299961, 0.00954863615334034, -0.016503816470503807, 0.01261363085359335, -0.010020174086093903, 0.006336286198347807, 0.0014735549921169877, 0.004361722618341446, 0.009666521102190018, -0.021454960107803345, 0.020747654139995575, 0.003064994467422366, 0.00878238771110773, -0.0028144901152700186, 0.004302780609577894, -0.0008988685440272093, 0.03583685681223869, -0.003521796315908432, 0.0170932374894619, -0.010314884595572948, -0.022987456992268562, -0.02110130712389946, 0.0029176389798521996, -0.012024208903312683, -0.019568810239434242, 0.012967283837497234, -0.023930532857775688, 0.007898254320025444, -0.003433383069932461, 0.006100517697632313, -0.0016945882234722376, 0.0002072186762234196, -0.06177142634987831, 0.024284185841679573, 0.014735549688339233, -0.02510937675833702, -0.034422244876623154, 0.009430752135813236, 0.03819454461336136, 0.03489378094673157, -0.005275326780974865, -0.007544601336121559, 0.024284185841679573, -0.013085167855024338, -0.02994263730943203, 0.013792474754154682, -0.018036313354969025, 0.04267415404319763, -0.01332093682140112, -0.009607578627765179, -0.01697535254061222, 0.011788439936935902, -0.006837294902652502, 0.008016139268875122, 0.01780054345726967, 0.022280151024460793, 0.019333042204380035, -0.01768266037106514, -0.014499780721962452, -0.020865539088845253, -0.008075081743299961, 0.015442856587469578, 0.01838996633887291, 0.013379879295825958, 0.001230418449267745, -0.012495745904743671, -0.000825190800242126, -0.014499780721962452, -0.020276116207242012, -0.0011493728961795568, -0.006542583927512169, 0.007338303606957197, -0.017211122438311577, 0.01432295423001051, -0.011906323954463005, -0.018743619322776794, 0.0034628543071448803, -0.009077099151909351, 0.03890185058116913, 0.020158231258392334, -0.00884133018553257, 0.02310534194111824, -0.026170335710048676, 0.015560740604996681, -0.005422682501375675, 0.001643013791181147, -0.004685904830694199, 0.01768266037106514, 0.004862731322646141, 0.004803789313882589, 0.002578721148893237, 0.01432295423001051, 0.019450925290584564, 0.026877643540501595, -0.02180861309170723, 0.022869573906064034]}}
{"UUID": "7260c728-3f32-411c-a1c6-c7456d9d49cb", "BM25": {"terms": ["copyright", "2025", "alexopoulos", "lawler", "ogbguu", "sanchez", "and", "maharani", "this", "is", "an", "open-access", "article", "distributed", "under", "the", "terms", "of", "creative", "commons", "attribution", "license", "cc", "by", "use", "distribution", "or", "reproduction", "in", "other", "forums", "permitted", "provided", "original", "author", "s", "owner", "are", "credited", "that", "publication", "journal", "cited", "accordance", "with", "accepted", "academic", "practice", "no", "which", "does", "not", "comply", "these", "panagiotis", "1", "2", "3", "4", "katherine", "5", "6", "chukwuuanugo", "7", "8", "arianna", "almirall", "9", "asri", "10", "mental", "health", "services", "faculty", "medicine", "school", "sciences", "university", "patras", "greece", "global", "brain", "institute", "trinity", "college", "dublin", "ireland", "department", "psychiatry", "psychotherapy", "klinikum", "rechts", "der", "isar", "technical", "munich", "germany", "dementia", "day", "care", "centre", "wicking", "research", "education", "tasmania", "hobart", "tas", "australia", "allied", "human", "sport", "la", "trobe", "melbourne", "vic", "nnamdi", "azikite", "teaching", "hospital", "nnewi", "nigeria", "california", "san", "francisco", "ca", "united", "states", "public", "primary", "group", "division", "nursing", "midwifery", "social", "work", "manchester", "science", "mahsc", "kingdom", "keywords", "collaborative", "equity", "prevention"], "weights": [5.172948055251758, 1.8884649125180464, 7.959172686007693, 7.959172686007693, 7.523489211402801, 7.959172686007693, 0.3991231807642938, 7.959172686007693, 1.2893936781857656, 1.659782962124328, 1.069274022895911, 3.6702343513195395, 2.326149218436229, 3.4126712154757284, 2.4405199844972474, 0.49618767921276613, 4.487632844116551, 0.35337823626550613, 3.0043609187814737, 3.376262236153834, 3.490383661725425, 3.3413100125992337, 3.4126712154757284, 0.8074999389070476, 3.125605245560832, 4.06724313545221, 1.322830814134993, 5.234619574069076, 0.3657031869823782, 1.7340580674262238, 3.776266005491443, 5.299375923719849, 2.336935640242126, 3.7108614056516425, 2.1695410139345417, 0.946096463918548, 3.834533530389058, 1.0516485736255556, 3.834533530389058, 0.8265560720595414, 2.6462360269733876, 2.392960539560115, 3.4506636824427237, 3.376262236153834, 0.5918453740146242, 2.958964262848418, 4.7201705088912815, 2.572150219802462, 1.8503342473430722, 1.2651864345467956, 2.9813677741784743, 1.2217257983941479, 3.834533530389058, 1.2431859070429943, 5.370354777850267, 1.4426124049709859, 1.4527399422966387, 1.2193053844889832, 1.596083677553036, 5.370354777850267, 1.8656785058769652, 2.141223335152863, 5.816657541511517, 2.249946506263185, 2.476609689742308, 5.816657541511517, 5.816657541511517, 2.644697180466337, 5.816657541511517, 1.4902477339635825, 3.9925191089261496, 3.38406202492926, 5.9617877071811565, 4.301155560303005, 5.076110289548511, 7.19517092005116, 4.807991081329363, 5.6370356792242875, 11.35829175114519, 7.523489211402801, 3.5637692901387363, 2.3568441501565727, 4.290566186907497, 8.620618887080521, 5.8751805299489925, 12.128636414938308, 7.523489211402801, 5.003813580739207, 2.6309077554078315, 3.834533530389058, 5.816657541511517, 5.816657541511517, 3.776266005491443, 5.816657541511517, 4.2039789387120505, 7.959172686007693, 3.834533530389058, 1.594539430582418, 3.8969664461039732, 2.569973153940277, 6.571658795225732, 5.816657541511517, 1.7365308054352804, 2.693903615129995, 5.816657541511517, 5.816657541511517, 5.816657541511517, 5.8751805299489925, 5.370354777850267, 2.8354144464726074, 5.076382662684561, 3.776266005491443, 5.370354777850267, 5.076382662684561, 5.816657541511517, 5.816657541511517, 5.816657541511517, 4.856811993807745, 3.27533988934418, 5.816657541511517, 5.076382662684561, 4.681488200709201, 7.523489211402801, 7.959172686007693, 3.4126712154757284, 4.902204049989429, 3.10290910905132, 2.7978306273470297, 2.326149218436229, 2.108964050205964, 4.856811993807745, 2.9371208984002015, 5.816657541511517, 2.3701176941264217, 2.5441897834735867, 9.482946779116986, 2.9158103524280343, 5.816657541511517, 4.410509230146495, 3.129386561638313, 3.964206466485245, 4.535534873003334, 3.077210519069081], "k1": 1.5, "b": 0.75, "avgdl": 198.29391602399315, "N": 1167}, "SpladeV3": {"model_id": "naver/splade-v3", "tokens": ["dementia", "copyright", "##oulos", "reproduction", "##rani", "sanchez", "trinity", "##agi", "##ras", "##bution", "commons", "dublin", "munich", "manchester", "##lini", "##gu", "pat", "hobart", "ireland", "global", "institute", "university", "##hs", "comply", "greece", "##cking", "##obe", "nigeria", "aria", "tasmania", "##mir", "brain", "distributed", "##ku", "##ug", "alzheimer", "cc", "equity", "forums", "maha", "##nam", "license", "distribution", "allied", "##wu", "##wife", "institutes", "access", "alex", "journal", "##ri", "health", "##di", "irish", "##ler", "permitted", "department", "az", "##therapy", "as", "paint", "original", "citation", "credited", "##iki", "school", "psycho", "##uan", "faculty", "australia", "og", "isa", "##wi", "citing", "college", "psychiatry", "brains", "##words", "katherine", "mental", "primary", "##ot", "##ht", "licensed", "author", "##ra", "accepted", "medicine", "article", "wi", "forum", "germany", "psychiatrist", "universities", "greek", "california", "##nna", "clinic", "law", "collaborative", "nigerian", "francisco", "kingdom", "creative", "melbourne", "sciences", "ma", "open", "hospital", "key", "research", "cited", "permit", "science", "terms", "nursing", "schools", "journals", "hospitals", "pan", "psychiatric", "services", "authors", "published", "k", "day", "chu", "##all", "sport", "copy", "owner", "australian", "mentally", "academic", "publishing", "britain", "uk", "##wives", "care", "reproduce", "human", "mid", "technical", "social", "articles", "german", "ta", "der", "vic", "therapy", "copies", "9", "tr", "teaching", "under", "prevention", "of", "education", "permission", "centre", "international", "##tri", "by", "researcher", "replication", "service", "bavaria", "##m", "attributed", "al", "provided", "san", "##gar", "divisions", "group", "educational", "psychological", "colleges", "originally", "division", "domain", "allowed", "england", "##word", "wales", "no", "##c", "##op", "drilling", "##pus", "##te", "tech", "med", "public", "##is", "##poulos", "##has", "psychology", "202", "copying", "##ck", "use", "##u", "hs", "invented", "publication", "##k", "##rata", "written", "website", "academics", "conform", "therapist", "magazine", "sports", "scholarship", "g", "##ne", "site", "6", "assignment", "practice", "authorship", "replica", "nurse", "}", "la", "scientists", "teacher", "collaboration", "10", "8", "disease", "spanish", "sage", "##ega", "", "##na", "##lers", "location", "humans", "canada", "##plication", "compliance", "groups", "who", "mandela", "##raj", "pregnancy", "cyprus", "united", "rec", "center", "creativity", "kingdoms", "professor", "scientific", "this", "##rana", "healthcare", "schizophrenia", "term", "accept", "##5", "scientist", "equality", "doctor", "nhs", "departments", "##titles", "nine", "other", "prevent", "##uro", "munchen", "professors", "kate", "museum", "degree", "licence", "sf", "cite", "lawyer", "healthy", "medical", "bbc", "council", "due", "##i", "study", "association", "caring", "n", "scholarly", "owned", "##b", "doctors", "phd", "mind", "cure", "vaccine", "publisher", "harvard", "benin", "belfast", "illness", "##hos", "adobe", "##ara", "work", "malaysia", "u", "she", "countries", "campos", "karlsruhe", "used", "centers", "ca", "committee", "researchers", "catherine", "keys", "facility", "rights", "##kus", "##ry", "7", "##cens", "danish", "2020", "practices", "ash", "head", "discovered", "wrote", "katharine", "founded", "free", "propagation", "hopkins", "translation", "coma", "reference", "dimitri", "5", "theory", "according", "prevalence", "institution", "therapeutic", "anxiety", "taught", "spain", "hitler", "academia", "netherlands", "welfare", "##o", "##ota", "ghana", "sweden", "india", "accordance", "compatible", "prevented", "practitioner", "valid", "##ste", "workshop", "zealand", "funding", "personality", "consensus", "##care", "societies", "cas", "dissemination", "not", "publications", "handball", "argentina", "nurses", "##hat", "europe", "restricted", "africa", "##r", "##opa"], "weights": [2.432572603225708, 2.374138355255127, 2.2669601440429688, 2.2064120769500732, 2.192154884338379, 2.1691720485687256, 2.145918130874634, 2.1456737518310547, 2.1430020332336426, 2.124973773956299, 2.0944225788116455, 2.0277276039123535, 2.018418073654175, 1.978803277015686, 1.9771844148635864, 1.9647271633148193, 1.942896842956543, 1.911576271057129, 1.885209321975708, 1.8666801452636719, 1.8646751642227173, 1.8072748184204102, 1.7746400833129883, 1.7714966535568237, 1.7674871683120728, 1.7619301080703735, 1.7456934452056885, 1.7409039735794067, 1.7251590490341187, 1.712721347808838, 1.7104018926620483, 1.6964483261108398, 1.6870046854019165, 1.6850188970565796, 1.6825954914093018, 1.6769267320632935, 1.6617882251739502, 1.6539900302886963, 1.644193172454834, 1.6370309591293335, 1.6347949504852295, 1.6320579051971436, 1.623358130455017, 1.6217187643051147, 1.6207524538040161, 1.6171687841415405, 1.6142001152038574, 1.6113865375518799, 1.6094050407409668, 1.6070797443389893, 1.6065319776535034, 1.5906071662902832, 1.550269603729248, 1.5460076332092285, 1.5312609672546387, 1.5065885782241821, 1.503053069114685, 1.4951591491699219, 1.4871366024017334, 1.4866355657577515, 1.479364037513733, 1.4727061986923218, 1.4725228548049927, 1.4640024900436401, 1.4589840173721313, 1.456866979598999, 1.4568500518798828, 1.4563261270523071, 1.448798656463623, 1.448134422302246, 1.4465726613998413, 1.4461711645126343, 1.4455997943878174, 1.4291969537734985, 1.4164327383041382, 1.4121425151824951, 1.4107635021209717, 1.4047895669937134, 1.3873419761657715, 1.3813533782958984, 1.380732536315918, 1.3790030479431152, 1.377498984336853, 1.3699904680252075, 1.369334101676941, 1.3585394620895386, 1.345420241355896, 1.3429584503173828, 1.3415144681930542, 1.3304387331008911, 1.3297936916351318, 1.3296043872833252, 1.3282299041748047, 1.32382333278656, 1.3064892292022705, 1.3019053936004639, 1.2981836795806885, 1.2802248001098633, 1.2771375179290771, 1.2719594240188599, 1.2645978927612305, 1.2396026849746704, 1.2348649501800537, 1.2295571565628052, 1.228704571723938, 1.2278916835784912, 1.225558876991272, 1.2238308191299438, 1.2142009735107422, 1.2028783559799194, 1.1966862678527832, 1.1658520698547363, 1.1650769710540771, 1.1593940258026123, 1.1562585830688477, 1.1556241512298584, 1.146714210510254, 1.1432493925094604, 1.1332645416259766, 1.1325935125350952, 1.1290347576141357, 1.1280553340911865, 1.1247633695602417, 1.1216144561767578, 1.120723843574524, 1.1199219226837158, 1.1179728507995605, 1.1176600456237793, 1.1158573627471924, 1.1155860424041748, 1.110595941543579, 1.1060553789138794, 1.0964586734771729, 1.0917983055114746, 1.0916839838027954, 1.0780478715896606, 1.0679807662963867, 1.067960500717163, 1.060601830482483, 1.0572936534881592, 1.0501763820648193, 1.0458602905273438, 1.025589942932129, 1.0177398920059204, 1.0170602798461914, 1.0141873359680176, 1.0132168531417847, 1.0090196132659912, 1.0016608238220215, 1.000603437423706, 0.9987363815307617, 0.9953322410583496, 0.9919766783714294, 0.9917389154434204, 0.9888570308685303, 0.9826388955116272, 0.9765803813934326, 0.9715741872787476, 0.9501069784164429, 0.9368070960044861, 0.9246375560760498, 0.9208974242210388, 0.9158482551574707, 0.9144501686096191, 0.8933789134025574, 0.8891462087631226, 0.8783609867095947, 0.8777903318405151, 0.8630555272102356, 0.8493455648422241, 0.8440964818000793, 0.832161009311676, 0.7998815178871155, 0.7908647060394287, 0.7834414839744568, 0.7720065116882324, 0.7712926864624023, 0.7669259905815125, 0.7591631412506104, 0.7525438666343689, 0.7444616556167603, 0.7408669590950012, 0.7342239618301392, 0.7286112308502197, 0.7262373566627502, 0.718528151512146, 0.7168447971343994, 0.709006667137146, 0.706058919429779, 0.7038779854774475, 0.7021580338478088, 0.6985812187194824, 0.671133816242218, 0.6575966477394104, 0.6483895778656006, 0.6436556577682495, 0.6368526816368103, 0.6333909034729004, 0.6276298761367798, 0.6253830790519714, 0.6216047406196594, 0.6163753867149353, 0.6157076954841614, 0.6104799509048462, 0.6089909672737122, 0.6089037656784058, 0.605162501335144, 0.5943974256515503, 0.5933598279953003, 0.5912952423095703, 0.5885112285614014, 0.5863913297653198, 0.5834723711013794, 0.582442581653595, 0.5799952149391174, 0.5786994099617004, 0.5763067603111267, 0.5726205706596375, 0.568708598613739, 0.5680201053619385, 0.560842752456665, 0.557251513004303, 0.5566515922546387, 0.5536277294158936, 0.5500257611274719, 0.550004243850708, 0.5334749221801758, 0.5259885191917419, 0.5218632221221924, 0.5138902068138123, 0.5105427503585815, 0.5096853971481323, 0.5070628523826599, 0.5046818852424622, 0.5004420876502991, 0.497158408164978, 0.4971034526824951, 0.49411317706108093, 0.4847570061683655, 0.4770028293132782, 0.47509199380874634, 0.4738929271697998, 0.4700928330421448, 0.46695050597190857, 0.46321409940719604, 0.4589715898036957, 0.4532090425491333, 0.4528268575668335, 0.4510383605957031, 0.45007604360580444, 0.45003876090049744, 0.4470610022544861, 0.4386247992515564, 0.43733784556388855, 0.4355331361293793, 0.43134579062461853, 0.43063974380493164, 0.4295138418674469, 0.42608678340911865, 0.42212703824043274, 0.41893020272254944, 0.41283857822418213, 0.41240525245666504, 0.4107607901096344, 0.41010206937789917, 0.4087303876876831, 0.4016035199165344, 0.39588427543640137, 0.39555373787879944, 0.3941617012023926, 0.3924206793308258, 0.39124834537506104, 0.38729414343833923, 0.38093745708465576, 0.3745304346084595, 0.37426573038101196, 0.3682359755039215, 0.359516978263855, 0.3505150079727173, 0.346444308757782, 0.3452155292034149, 0.32730820775032043, 0.3228735625743866, 0.3168427646160126, 0.316620796918869, 0.3156084418296814, 0.30927222967147827, 0.30570805072784424, 0.3054635524749756, 0.3019837439060211, 0.29704591631889343, 0.29477134346961975, 0.29240912199020386, 0.2921527922153473, 0.29066306352615356, 0.2898573875427246, 0.28894534707069397, 0.28857555985450745, 0.28696107864379883, 0.27929210662841797, 0.2680557072162628, 0.26311424374580383, 0.2607748806476593, 0.25532296299934387, 0.25131627917289734, 0.24697621166706085, 0.24583695828914642, 0.24438412487506866, 0.24203650653362274, 0.2407405972480774, 0.23996898531913757, 0.23863869905471802, 0.23647050559520721, 0.23383571207523346, 0.23205988109111786, 0.2217159867286682, 0.21760021150112152, 0.21465975046157837, 0.212802454829216, 0.2101110965013504, 0.20898160338401794, 0.20679503679275513, 0.20436185598373413, 0.20327290892601013, 0.1982550173997879, 0.19346237182617188, 0.19287817180156708, 0.18884135782718658, 0.18831034004688263, 0.18657048046588898, 0.1824953854084015, 0.17760641872882843, 0.1740318089723587, 0.17373600602149963, 0.16999441385269165, 0.16187834739685059, 0.15658234059810638, 0.15578287839889526, 0.15247493982315063, 0.1491018533706665, 0.14138922095298767, 0.14077028632164001, 0.13768218457698822, 0.13396944105625153, 0.1333949863910675, 0.1274021565914154, 0.12051542848348618, 0.11602580547332764, 0.11081244796514511, 0.11029259115457535, 0.10800153017044067, 0.1072264090180397, 0.10691221058368683, 0.10553929954767227, 0.099150650203228, 0.08828668296337128, 0.08802163600921631, 0.0865892544388771, 0.08606772869825363, 0.08225257694721222, 0.08109830319881439, 0.07941699028015137, 0.07567468285560608, 0.07134659588336945, 0.06560344249010086, 0.06456782668828964, 0.06115773692727089, 0.05794563144445419, 0.04732796922326088, 0.045436907559633255, 0.0414443202316761, 0.04056570306420326, 0.038822006434202194, 0.03877194970846176, 0.036401115357875824, 0.03530746325850487, 0.031395334750413895, 0.030001545324921608, 0.024783648550510406, 0.0231022946536541, 0.022947296500205994, 0.018457766622304916, 0.01832129992544651, 0.016978388652205467, 0.014517578296363354, 0.010787762701511383, 0.0015351158799603581, 0.0006906389025971293, 0.00018770720635075122]}, "Qwen3-4B": {"model_id": "Qwen/Qwen3-Embedding-4B", "vector": [-0.0006785366567783058, 0.03484207019209862, -0.025374114513397217, 0.014706887304782867, -0.002824606141075492, 0.0752386674284935, -0.016537358984351158, 0.020703257992863655, -0.01066722720861435, 0.011045945808291435, 0.03092864714562893, 0.037114378064870834, 0.00694316579028964, -2.6258776415488683e-05, -0.01054098829627037, -0.02411172166466713, 0.031433604657649994, -0.03913420811295509, -0.00577545166015625, 0.0004063330125063658, -0.0016647818265482783, 0.037871815264225006, 0.0717039704322815, -0.0028403860051184893, 0.000631196890026331, -0.059332508593797684, -0.017547274008393288, -0.03761933371424675, 0.04494122043251991, -0.0045761773362755775, 0.015716802328824997, -0.027646424248814583, 0.023480525240302086, 0.017547274008393288, 0.002950845519080758, 0.004670856986194849, -0.004449937958270311, -0.006532887928187847, 0.04544617608189583, -0.004891776014119387, 0.010856586508452892, 0.036104463040828705, -0.023354284465312958, 0.030171211808919907, -0.004197459202259779, -0.005333613604307175, 0.006501328200101852, -0.037114378064870834, -0.021586934104561806, -0.008331798948347569, 0.014201929792761803, 0.001956710359081626, -0.034084632992744446, -0.02196565270423889, 0.04620361328125, -0.020703257992863655, 0.016663597896695137, 0.003455803031101823, -0.0003609657287597656, -0.00820556003600359, 0.0035031428560614586, 0.009404833428561687, 0.006848486140370369, -0.029540015384554863, -0.006532887928187847, -0.01843095012009144, -0.021839411929249763, -0.0479709655046463, 0.004102780018001795, 0.00921547506004572, -0.012750177644193172, 0.006627567578107119, -0.014643767848610878, -0.012371459044516087, -0.0025090076960623264, -0.019693342968821526, -0.004986455664038658, -0.0016411119140684605, -0.00017653788381721824, 0.002777266316115856, 0.0016647818265482783, 0.003866080893203616, -0.0010572548490017653, 0.00173579144757241, 0.023859241977334023, 0.0023354284930974245, -0.021839411929249763, 0.000804776034783572, 0.047718483954668045, -0.012750177644193172, 0.010225390084087849, -0.061099860817193985, -0.01641112007200718, -0.006532887928187847, 0.002998185344040394, -0.0058701313100755215, -0.008584277704358101, -0.02032453939318657, -0.008458038792014122, 0.0031559844501316547, -0.022723088040947914, -0.029035057872533798, 0.03736685588955879, -0.014201929792761803, 0.02108197659254074, -0.005365173798054457, -0.00624884944409132, -0.027393944561481476, 0.003408463206142187, 0.007448123302310705, 0.013444493524730206, -0.01161402277648449, -0.013255135156214237, 0.019693342968821526, 0.008584277704358101, -0.026762748137116432, -0.011045945808291435, -0.013065775856375694, 0.019819581881165504, 0.00024458879488520324, -0.003913420718163252, 0.02322804555296898, -0.01641112007200718, -0.020955737680196762, -0.00027220367337577045, -0.035094548016786575, -0.0038503010291606188, 0.003755621612071991, 0.04494122043251991, 0.032317280769348145, 0.0026668068021535873, -0.029287535697221756, 0.004008100368082523, -0.008331798948347569, 0.008521158248186111, 0.023480525240302086, 0.006627567578107119, -0.015779921784996986, -0.0115509033203125, 0.0004536727792583406, -0.00820556003600359, 0.014328169636428356, 0.01394945103675127, -0.00820556003600359, -0.012876416556537151, -0.038881730288267136, 0.0032980036921799183, -0.016916077584028244, 0.014580648392438889, -0.010919705964624882, 0.017673512920737267, 0.007069405168294907, 0.010982826352119446, 0.013318254612386227, 0.021713173016905785, 0.008331798948347569, -0.00624884944409132, 0.005270494148135185, 0.004891776014119387, 0.006091049872338772, -0.0009467953350394964, 0.013192014768719673, -0.03686190024018288, -0.031307365745306015, -0.008142439648509026, 0.0077006020583212376, 0.019693342968821526, 0.008962996304035187, -0.01394945103675127, -0.008584277704358101, -0.0004102779785171151, -0.0017279015155509114, -0.019819581881165504, -0.018683427944779396, 0.015527443960309029, -0.019062146544456482, -0.004481498152017593, -0.028403859585523605, -0.028277620673179626, 0.04721352830529213, -0.010919705964624882, -0.009531073272228241, 0.028151381760835648, 0.006596007384359837, -0.0031559844501316547, 0.0024616678711026907, 0.007290324196219444, 0.005964810494333506, 0.011298424564301968, -0.0056807720102369785, -0.010856586508452892, -0.016663597896695137, 0.006406648550182581, 0.007132525090128183, -0.00820556003600359, -0.014517528936266899, -0.000978355179540813, 0.014075690880417824, 0.027141466736793518, 0.011235305108129978, 0.009720432572066784, 0.010225390084087849, -0.0010967046255245805, -0.03092864714562893, -0.01843095012009144, -0.01256081834435463, 0.006532887928187847, -0.025374114513397217, 0.0052389344200491905, -0.013570733368396759, 0.004797096364200115, -0.0012860636925324798, -0.012245220132172108, -0.027141466736793518, -0.010856586508452892, 0.008142439648509026, -0.01918838545680046, -0.012055860832333565, 0.03181232511997223, 0.010477868840098381, 0.008899875916540623, 0.0058385711163282394, -0.02411172166466713, 0.011866501532495022, -0.0022723088040947914, 0.005996370688080788, 0.015969282016158104, 0.0009625752572901547, -0.02019830048084259, -0.0007140414672903717, -0.02512163668870926, 0.008710517548024654, 0.012055860832333565, 0.007574362680315971, 0.005049575120210648, -0.013255135156214237, -0.02209189161658287, -0.0011361544020473957, 0.022849326953291893, 0.010162269696593285, -0.002477447735145688, -0.01394945103675127, -0.016537358984351158, -0.026636509224772453, 0.011803382076323032, -0.010477868840098381, 0.005491413176059723, -0.03660941869020462, -0.027141466736793518, -0.016537358984351158, -0.019062146544456482, -0.0003155984450131655, 0.0115509033203125, -0.005459852982312441, -0.04317386820912361, 0.007069405168294907, -0.008458038792014122, 0.012371459044516087, -0.004229019396007061, 0.014517528936266899, 0.009026115760207176, -0.018052231520414352, -0.0010335849365219474, -0.008079320192337036, 0.0026983667630702257, 0.02979249320924282, 0.026257790625095367, -0.013002656400203705, -0.002982405247166753, -0.015779921784996986, 0.005018015392124653, -0.018935907632112503, 0.01830470934510231, 0.024616679176688194, 0.026636509224772453, -0.007795281708240509, 0.0056807720102369785, 0.006154169794172049, 0.017673512920737267, -0.002319648629054427, -0.029035057872533798, 0.01817847043275833, -0.03357967361807823, 0.02512163668870926, -0.04696105048060417, -0.019945822656154633, 0.010856586508452892, -0.007100964896380901, -0.024869157001376152, 0.009404833428561687, 0.005554532632231712, 0.008016200736165047, -0.01394945103675127, -0.013002656400203705, 0.04923335835337639, -0.026257790625095367, -0.0007219314575195312, 0.0067853666841983795, 0.013696972280740738, -0.001909370650537312, 0.0017831312725320458, 0.003345343517139554, -0.008458038792014122, 0.023606764152646065, 0.013381374068558216, 0.007321883924305439, -0.003282223828136921, 0.0026668068021535873, 0.004702416714280844, 0.0014596427790820599, 0.010225390084087849, 0.013696972280740738, 0.009783552028238773, 0.014833127148449421, 0.010036030784249306, -0.028151381760835648, -0.0002130289503838867, -0.0004359203448984772, -0.015527443960309029, -0.01843095012009144, -0.001388633158057928, -0.037114378064870834, -0.02196565270423889, -0.0034242430701851845, 0.038881730288267136, 0.029287535697221756, 0.019693342968821526, -0.015590563416481018, -0.013381374068558216, -0.00965731218457222, -0.01729479432106018, 0.02108197659254074, -0.0067853666841983795, -0.026762748137116432, -0.0013334034010767937, -0.023733003064990044, 0.0031402045860886574, 0.038881730288267136, 0.028151381760835648, -0.011109065264463425, -0.013192014768719673, 0.0007219314575195312, 0.01161402277648449, 0.012434578500688076, 4.85725722683128e-05, -0.003250664100050926, 0.016663597896695137, 0.009026115760207176, -0.017673512920737267, -0.012182099744677544, -0.0007771611562930048, -0.001262393780052662, 0.0016884517390280962, -0.007290324196219444, 0.021586934104561806, 0.015653682872653008, 0.00482865609228611, -0.00460773753002286, 0.005365173798054457, -0.01249769888818264, -0.002430108143016696, -0.015969282016158104, 0.04746600612998009, -0.021713173016905785, 0.016916077584028244, -0.015779921784996986, -0.0007219314575195312, 0.014770007692277431, -0.0005996370455250144, -0.024616679176688194, 0.0013649632455781102, -0.009972911328077316, 0.01817847043275833, -0.01161402277648449, -0.030297450721263885, -0.006343528628349304, 0.006659127306193113, -0.003345343517139554, -0.010162269696593285, 0.009026115760207176, -0.019062146544456482, 0.029413774609565735, -0.028277620673179626, 0.011866501532495022, -0.01350761391222477, 0.0056807720102369785, -0.0035031428560614586, -0.0023827683180570602, -0.019693342968821526, -0.012434578500688076, 0.020955737680196762, -0.0072272042743861675, -0.009341713972389698, -0.007069405168294907, -0.02499539777636528, 0.02423796057701111, -0.002319648629054427, 0.028151381760835648, 0.022344369441270828, -0.007763721980154514, -0.015590563416481018, -0.015716802328824997, -0.024490440264344215, -0.003234884003177285, -0.007195644546300173, -0.01350761391222477, -0.023354284465312958, -0.000694316579028964, 0.022849326953291893, 0.02499539777636528, -0.026510270312428474, 0.007826841436326504, -0.0018541408935561776, 0.02019830048084259, -0.026384029537439346, -0.002587907249107957, -0.009026115760207176, -0.03660941869020462, 0.04039660096168518, 0.007669042330235243, -0.030044972896575928, 0.00646976800635457, -0.005712331738322973, -0.008836756460368633, -0.012118980288505554, 0.010793467052280903, 0.024742918089032173, 0.015843041241168976, 0.027520185336470604, -0.01843095012009144, -0.007321883924305439, 0.02890881709754467, 0.039891645312309265, 0.006753806956112385, 0.013570733368396759, 4.660008198698051e-05, -0.0067853666841983795, -0.006848486140370369, -0.0012860636925324798, -0.029287535697221756, -0.008710517548024654, 0.011803382076323032, -0.0016174420015886426, 0.04039660096168518, 0.024742918089032173, 0.0030770848970860243, -0.023101806640625, 0.024364199489355087, 0.020703257992863655, -0.00015977172006387264, -0.02196565270423889, 0.01066722720861435, -0.01489624660462141, 0.00036491069477051497, -0.02032453939318657, -0.01161402277648449, 0.02322804555296898, -0.003944980446249247, -0.023733003064990044, 0.04367882385849953, -0.029035057872533798, -0.012750177644193172, 0.016663597896695137, 0.012055860832333565, -0.025374114513397217, 0.025752833113074303, -0.01628487929701805, -0.015022486448287964, 0.010982826352119446, 0.03092864714562893, -0.001325513469055295, -0.004860216286033392, 0.0033137837890535593, 0.007953081279993057, -0.01249769888818264, -0.005428293254226446, 0.01489624660462141, 0.004102780018001795, -0.024742918089032173, 0.0002080977283185348, 0.010856586508452892, -0.000347158289514482, -0.014580648392438889, -0.016916077584028244, 0.03357967361807823, 0.028151381760835648, -0.0019251505145803094, 0.04140651598572731, 0.016916077584028244, 0.00460773753002286, -0.00530205387622118, -0.0026668068021535873, -0.0033926833420991898, -0.02423796057701111, -0.010793467052280903, -0.012308339588344097, 0.00044381030602380633, -0.009089235216379166, 0.012308339588344097, 0.02688898704946041, -0.020577019080519676, -0.010793467052280903, -0.03534702584147453, -0.0042921388521790504, -0.009404833428561687, -0.04923335835337639, -0.000879730680026114, -0.014075690880417824, 0.013002656400203705, 0.0013570733135566115, 0.004260579124093056, 0.01843095012009144, 0.009089235216379166, -0.011045945808291435, -0.010982826352119446, 0.002130289562046528, -0.010982826352119446, -0.03837677091360092, 0.013002656400203705, -0.007637482602149248, 0.014391289092600346, -0.01628487929701805, 0.002714146627113223, -0.03282224014401436, -0.010793467052280903, 0.025247875601053238, -0.004386818502098322, 0.018557189032435417, -0.021713173016905785, -0.013065775856375694, 0.039891645312309265, 0.0022880886681377888, 0.018052231520414352, -0.005964810494333506, 0.002540567424148321, 0.000532572390511632, 0.003802961204200983, 0.03357967361807823, 0.02411172166466713, 0.021713173016905785, -0.024364199489355087, -0.01350761391222477, 0.0037082817871123552, 0.025374114513397217, 0.042921390384435654, -0.015211844816803932, 0.005712331738322973, 0.014643767848610878, 0.00959419272840023, -0.009720432572066784, 0.017042316496372223, -0.006596007384359837, 0.025752833113074303, -0.005807011388242245, 0.020450780168175697, 0.01350761391222477, -0.034337110817432404, 0.004260579124093056, 0.0007258764235302806, -0.032191041857004166, 0.02032453939318657, -0.015843041241168976, 0.01918838545680046, 0.027646424248814583, 0.02587907202541828, -0.02613155171275139, 0.020450780168175697, -0.008584277704358101, -0.018683427944779396, -0.01641112007200718, -0.002430108143016696, 0.017925992608070374, -0.019062146544456482, -0.011045945808291435, 0.027267705649137497, -0.015843041241168976, -0.01729479432106018, 0.005586092360317707, -0.019693342968821526, 0.017925992608070374, 0.007164084818214178, 0.024869157001376152, 0.008773637004196644, -0.00965731218457222, 0.0016568918945267797, -0.0013491833815351129, -0.019567104056477547, 0.019440865144133568, -0.007321883924305439, -0.02777266316115856, -0.027520185336470604, -0.015716802328824997, -0.0034400231670588255, 0.011740262620151043, 0.017925992608070374, -0.017799751833081245, -0.012687057256698608, -0.01830470934510231, -0.008331798948347569, -0.006154169794172049, 0.027393944561481476, -0.007574362680315971, -0.029161296784877777, 0.009089235216379166, -0.009152354672551155, -0.004481498152017593, 0.04544617608189583, 0.020703257992863655, -0.013255135156214237, 0.011235305108129978, 0.005491413176059723, 0.020703257992863655, -0.033074717968702316, 0.01830470934510231, 0.002193409251049161, -0.007006285712122917, 0.023480525240302086, -0.010288509540259838, -0.03484207019209862, 0.0213344544172287, 0.016789836809039116, -0.0004970675799995661, 0.010288509540259838, 0.020829496905207634, 0.039891645312309265, -0.027646424248814583, -0.027141466736793518, -0.037871815264225006, 0.01742103509604931, 0.013255135156214237, -0.014012571424245834, 0.05024327337741852, 0.012434578500688076, -0.009278594516217709, -0.020829496905207634, -0.026510270312428474, -0.03938668593764305, 0.01918838545680046, -0.02398548275232315, 0.00959419272840023, 0.019693342968821526, 0.0015543223125860095, -0.010477868840098381, -0.0017042316030710936, 0.011866501532495022, 0.020577019080519676, 0.020577019080519676, 0.0013728532940149307, -0.0026194672100245953, 0.0037240616511553526, -0.031054887920618057, -0.007195644546300173, -0.0325697585940361, 0.0014359729830175638, 0.022470610216259956, -0.01054098829627037, 0.020577019080519676, -0.027646424248814583, -0.024364199489355087, -0.012623937800526619, 0.006406648550182581, -0.011677142232656479, -0.022723088040947914, 0.045698653906583786, 0.008268679492175579, 0.016158640384674072, -0.010351628996431828, -0.01388633158057928, 0.01350761391222477, -0.02221813052892685, -0.04746600612998009, 0.02688898704946041, 0.02600531280040741, 0.010225390084087849, -0.009278594516217709, 0.028403859585523605, 0.012434578500688076, 0.03168608248233795, 0.025374114513397217, -0.0017200115835294127, -0.045698653906583786, 0.03660941869020462, 0.010793467052280903, -0.004797096364200115, 0.013633852824568748, -0.03080240823328495, 0.003992320504039526, -0.018935907632112503, -0.0444362610578537, 0.023606764152646065, 0.012434578500688076, -0.006564447656273842, 0.00921547506004572, -0.000879730680026114, 0.03357967361807823, 0.021839411929249763, -0.021460695192217827, 0.017673512920737267, -0.029413774609565735, -0.023606764152646065, -0.004323698580265045, 0.02512163668870926, -0.010919705964624882, -0.013444493524730206, 0.020450780168175697, -0.015590563416481018, 0.05377797409892082, -0.008836756460368633, 0.008773637004196644, -0.012687057256698608, -0.05100071057677269, -0.011172184720635414, 0.001151934382505715, -0.014770007692277431, -0.0074165635742247105, -0.04696105048060417, -0.020450780168175697, -0.0007613812340423465, 0.015085605904459953, -0.03837677091360092, 0.006438208278268576, 0.0036136021371930838, -0.002540567424148321, -0.008331798948347569, 0.013318254612386227, 0.027393944561481476, -0.010793467052280903, -0.020577019080519676, -0.01249769888818264, 0.0021776293870061636, 0.03193856403231621, 0.0077006020583212376, -0.015653682872653008, 0.019567104056477547, -0.00460773753002286, 0.007984641008079052, -0.029666254296898842, 0.022470610216259956, -0.02322804555296898, 0.018052231520414352, -0.02297556772828102, -0.012118980288505554, -0.021713173016905785, -0.022596849128603935, 0.0072272042743861675, 0.009846671484410763, -0.027646424248814583, -0.014643767848610878, 0.02613155171275139, -0.04898088052868843, 0.03862924873828888, 0.03938668593764305, 0.026510270312428474, -0.004797096364200115, -0.038881730288267136, 0.0032033242750912905, -0.013255135156214237, -0.007100964896380901, -0.014580648392438889, -0.0042921388521790504, -0.04923335835337639, 0.010982826352119446, -0.006532887928187847, -0.010162269696593285, -0.017799751833081245, 0.010856586508452892, -0.0014912026235833764, -0.008079320192337036, -0.009846671484410763, -0.0021618492901325226, 