{"UUID": "6f15ecbd-569a-452f-b477-0f96e55fff5c", "BM25": {"terms": ["original", "communication", "lt", "image", "gt", "apraxic", "deficits", "predict", "general", "cognitive", "impairment", "in", "patients", "with", "biomarker-verified", "alzheimer", "s", "pathology", "claudia", "c", "schmidt", "1", "michella", "m", "bardakan", "elena", "jaeger", "2", "nils", "richter", "3", "g", "rard", "n", "bischof", "kathrin", "giehl", "4", "oezguer", "a", "onur", "frank", "jessen", "5", "gereon", "r", "fink", "alexander", "drzezga", "6", "peter", "h", "weiss", "received", "28", "january", "2025", "revised", "8", "september", "accepted", "14", "the", "author", "abstract", "apraxia", "represents", "core", "feature", "of", "disease", "ad", "neurodegenerative", "disorder", "characterised", "by", "accumulation", "amyloid", "plaques", "and", "tau", "deposition", "however", "systematic", "descriptions", "remain", "scarce", "here", "we", "comprehensively", "investigate", "profiles", "their", "link", "frequency", "patterns", "using", "battery", "standardised", "tests", "demographic", "variables", "scores", "were", "related", "to", "hierarchical", "regression", "analysis", "found", "67", "63", "more", "impaired", "imitating", "finger", "gestures", "than", "hand", "89", "vs", "80", "0", "p", "keywords", "limb", "gesture", "imitation", "pantomime", "mini-mental", "state", "examination", "mmse"], "weights": [2.713697439903947, 3.1376268753709224, 2.351362054460376, 2.2243130911750777, 2.3132902068782455, 7.908202282529912, 4.53479148243293, 3.3350999136002804, 3.8957197558234946, 1.0672601836606452, 2.120716729919339, 0.4653930475245708, 3.0468276037799655, 0.8973767001867912, 8.531229688176609, 2.7837004858056247, 1.5158596283521975, 4.9663686337721265, 5.501815126006714, 1.622588878533009, 4.661619167312449, 1.8358652793981491, 5.820423934151123, 1.4465790455393366, 5.820423934151123, 5.820423934151123, 5.073826050233739, 1.7726444015944047, 5.820423934151123, 5.820423934151123, 1.6695469803768146, 1.4654424113859421, 5.820423934151123, 2.2713745872600652, 5.263843068436288, 5.820423934151123, 5.263843068436288, 1.693099381469118, 5.820423934151123, 0.5130980127584185, 5.501815126006714, 5.501815126006714, 4.15589130696418, 1.364342785039442, 5.820423934151123, 1.7221058904400661, 5.073826050233739, 5.263843068436288, 6.304129647264469, 1.5658445971647772, 5.501815126006714, 1.8676563413470302, 4.915640925230083, 3.032306248048356, 2.401210913761491, 4.3753864924284604, 3.8323046241734064, 4.461528547178534, 1.8111076216587547, 5.424932990959587, 3.206943885125377, 2.1123115119772584, 0.4061059441294375, 2.351362054460376, 3.421241968350354, 7.274619011247014, 3.256145063381416, 3.6986743043249546, 3.206943885125377, 0.30980214078898166, 1.526172081575787, 2.9386344167347764, 2.3040067045685184, 2.7877124176818646, 7.980793932962449, 0.8751734597917084, 4.033539471405559, 2.868007076615212, 4.915640925230083, 0.3357468865733593, 3.3350999136002804, 4.296431642209596, 2.097340296542743, 2.097340296542743, 5.073826050233739, 3.1832699107799285, 4.7801373553229425, 4.461528547178534, 3.0861314257550676, 5.501815126006714, 3.659214025920779, 2.90213364029196, 1.5243977338877686, 3.7398507764947624, 3.6986743043249546, 2.685638804774504, 2.4274074903567833, 3.451790090133816, 5.820423934151123, 2.3416996272421153, 3.6986743043249546, 2.884916626874837, 2.2243130911750777, 2.4128392626372315, 2.453830542123661, 0.4062924667111567, 4.556298539989881, 3.925203205703017, 1.7894010057999552, 2.6061311759929575, 3.1376268753709224, 3.032306248048356, 1.75257209962391, 2.80323587437483, 4.556298539989881, 4.033539471405559, 6.232295124104174, 2.0397158486490463, 3.6986743043249546, 3.421241968350354, 3.6986743043249546, 2.955746617448068, 1.7787314883983345, 1.5490475332026212, 3.3916486332885563, 4.033539471405559, 5.073826050233739, 4.033539471405559, 5.073826050233739, 3.421241968350354, 2.868007076615212, 3.1156047281360006, 2.685638804774504], "k1": 1.5, "b": 0.75, "avgdl": 198.29391602399315, "N": 1167}, "SpladeV3": {"model_id": "naver/splade-v3", "tokens": ["alzheimer", "deficit", "apr", "##ax", "claudia", "##aka", "richter", "pathology", "impairment", "##mark", "deposition", "##loid", "jesse", "regression", "predict", "verified", "cognitive", "schmidt", "gestures", "bard", "gesture", "michel", "bio", "##itating", "ata", "gerard", "bis", "systematic", "imitation", "##hri", "general", "jae", "comprehensive", "##gue", "##eh", "kat", "elena", "nils", "cognition", "##5", "profiles", "##cho", "dementia", "disease", "mimic", "standard", "tau", "##erative", "##ez", "frequency", "demographic", "##itate", "plaques", "patients", "alexander", "##ia", "abstract", "finger", "investigate", "β", "accumulation", "battery", "profile", "##ic", "202", "core", "hierarchical", "scarce", "impaired", "hierarchy", "prediction", "path", "patterns", "limb", "fin", "gi", "accepted", "gt", "amy", "plaque", "score", "prevalence", "frequencies", "link", "beta", "mm", "scores", "##gen", "##se", "revised", "describe", "disabled", "variables", "204", "related", "found", "patient", "frank", "author", "description", "##ze", "%", "mentally", "population", "state", "##tom", "original", "hand", "brain", "pan", "diseases", "mini", "loss", "syndrome", "##ga", "verification", "deficiency", "##ur", "##uro", "ge", "##la", "demographics", "##f", "variable", "linked", "fingers", "confirmed", "testing", "feature", "forecast", "disorder", "authors", "pattern", "##ised", "test", "mental", "characterised", "##ger", "##de", "im", "inhibitor", "weiss", "features", "genetic", "als", "##itated", "analyze", "intelligence", "batteries", "predicted", "jakob", "gene", "communications", "gesturing", "aging", "lt", "##ime", "##n", "##marks", "hands", "suggest", "image", "fredrik", "revision", "##words", "ne", "no", "memory", "##oke", "cancer", "chronological", "correlation", "described", "disorders", "theresa", "tests", "examination", "63", "elderly", "dysfunction", "effect", "lesions", "associated", "mocking", "##ology", "accumulated", "distorted", "##s", "ad", "pathogen", "##er", "s", "mutation", "##otype", "generalized", "with", "tree", "dr", "diagnosis", "mark", "september", "algorithm", "parkinson", "decline", "characterized", "nerve", "def", "images", "thorough", "key", "april", "##z", "erik", "damage", "formation", "##genic", "investigation", "communication", "##ized", "psychiatric", "schneider", "marker", "pal", "standardized", "67", "defect", "##re", "descriptions", "were", "##path", "tracey", "similar", "risk", "chromosome", "mean", "tumor", "gunnar", "intensity", "af", "cores", "gp", "recognised", "pyramid", "gestured", "kate", "biological", "damaged", "affect", "investigated", "depression", "##eis", "##ciation", "##gua", "biotechnology", "sven", "percent", "analysis", "##k", "scale", "accelerated", "brains", "antigen", "proportional", "exam", "represent", "inherited", "schizophrenia", "##gia", "abnormal", "enzyme", "scan", "onset", "ja", "accept", "relate", "german", "psychological", "au", "results", "model", "##ega", "##eration", "published", "photo", "characteristic", "julia", "however", "les", "o", "simulate", "psychology", "association", "rev", "accumulate", "anxiety", "autism", "ax", "sweden", "links", "altered", "by", "##abi", "am", "jens", "api", "##type", "deposit", "kata", "scored", "norwegian", "random"], "weights": [2.5594913959503174, 2.4951817989349365, 2.47255802154541, 2.3923115730285645, 2.3906238079071045, 2.2281734943389893, 2.115126132965088, 2.0992908477783203, 2.0683672428131104, 2.0360777378082275, 2.0329670906066895, 2.0126490592956543, 1.999862551689148, 1.9919320344924927, 1.9592894315719604, 1.9440606832504272, 1.9170295000076294, 1.9104015827178955, 1.9086767435073853, 1.901630163192749, 1.8741074800491333, 1.8709272146224976, 1.8665165901184082, 1.8604350090026855, 1.8545868396759033, 1.8458658456802368, 1.8269201517105103, 1.8253520727157593, 1.7943077087402344, 1.776795506477356, 1.7321559190750122, 1.7081007957458496, 1.6990175247192383, 1.6859664916992188, 1.6852062940597534, 1.6756547689437866, 1.6710578203201294, 1.6602307558059692, 1.6340521574020386, 1.6317898035049438, 1.6055521965026855, 1.594269037246704, 1.5857127904891968, 1.5776433944702148, 1.5677506923675537, 1.5667271614074707, 1.558936357498169, 1.531916618347168, 1.528551697731018, 1.5221450328826904, 1.5076537132263184, 1.4807623624801636, 1.4686552286148071, 1.4615461826324463, 1.4358643293380737, 1.4110438823699951, 1.3990050554275513, 1.3792345523834229, 1.3458143472671509, 1.3433067798614502, 1.3398258686065674, 1.3375986814498901, 1.3334076404571533, 1.3324170112609863, 1.329434871673584, 1.3280091285705566, 1.3216464519500732, 1.3116028308868408, 1.31035578250885, 1.3087825775146484, 1.3031973838806152, 1.3000720739364624, 1.2956217527389526, 1.2926697731018066, 1.2904764413833618, 1.2890552282333374, 1.2858798503875732, 1.285596251487732, 1.2809029817581177, 1.2804694175720215, 1.263114094734192, 1.253101110458374, 1.252879023551941, 1.2498699426651, 1.2145200967788696, 1.2133817672729492, 1.2131580114364624, 1.212547779083252, 1.2009397745132446, 1.1963497400283813, 1.195302128791809, 1.192385196685791, 1.1850370168685913, 1.1837583780288696, 1.163779616355896, 1.1566863059997559, 1.1552975177764893, 1.1511975526809692, 1.150396466255188, 1.1488332748413086, 1.1450812816619873, 1.1396349668502808, 1.124686360359192, 1.118051528930664, 1.1133198738098145, 1.1097663640975952, 1.1004647016525269, 1.095422625541687, 1.0908277034759521, 1.0816586017608643, 1.0808396339416504, 1.074642539024353, 1.0716612339019775, 1.0629994869232178, 1.0557098388671875, 1.0453102588653564, 1.0295535326004028, 0.9995566606521606, 0.9904942512512207, 0.982339084148407, 0.9710411429405212, 0.96376633644104, 0.9623644351959229, 0.9534714221954346, 0.9490194320678711, 0.9133089780807495, 0.912785530090332, 0.9114910960197449, 0.9063047170639038, 0.9054914116859436, 0.8917968273162842, 0.881584882736206, 0.8578568696975708, 0.8578245043754578, 0.8537902235984802, 0.85005784034729, 0.8461031317710876, 0.8443513512611389, 0.828923225402832, 0.8194721937179565, 0.8159936666488647, 0.815886378288269, 0.8031690120697021, 0.8001011610031128, 0.7957189083099365, 0.7939465045928955, 0.7864194512367249, 0.7822719216346741, 0.7790498733520508, 0.7624596953392029, 0.7611779570579529, 0.7544351816177368, 0.749883234500885, 0.7367423176765442, 0.7073304057121277, 0.6999591588973999, 0.6965019702911377, 0.693886935710907, 0.6913636922836304, 0.6904788613319397, 0.6867452263832092, 0.6823392510414124, 0.6810252666473389, 0.6748130917549133, 0.673733651638031, 0.6725963950157166, 0.6473832130432129, 0.6381954550743103, 0.6341333389282227, 0.6231071352958679, 0.6149241924285889, 0.6133657097816467, 0.6121832728385925, 0.609139084815979, 0.5916056632995605, 0.58984375, 0.5859137177467346, 0.5802484154701233, 0.5794551968574524, 0.5776119828224182, 0.5730819702148438, 0.5725348591804504, 0.570051372051239, 0.5631236433982849, 0.5543569922447205, 0.535102903842926, 0.5324755907058716, 0.5289950966835022, 0.5188793540000916, 0.5174963474273682, 0.5135316252708435, 0.5068493485450745, 0.5058231353759766, 0.49912548065185547, 0.4970460534095764, 0.49217045307159424, 0.4786321222782135, 0.4756461977958679, 0.46837174892425537, 0.4676967263221741, 0.4653364419937134, 0.46383965015411377, 0.46040862798690796, 0.4582875669002533, 0.45672476291656494, 0.444410502910614, 0.43991437554359436, 0.4363839030265808, 0.432637095451355, 0.43059611320495605, 0.4262121021747589, 0.42601677775382996, 0.41621944308280945, 0.41453105211257935, 0.4106598496437073, 0.40357235074043274, 0.40172770619392395, 0.39764168858528137, 0.39627805352211, 0.3838825821876526, 0.3823314309120178, 0.3793734908103943, 0.36200785636901855, 0.34728243947029114, 0.3321089446544647, 0.3277858793735504, 0.32714441418647766, 0.32688549160957336, 0.3260934352874756, 0.32436272501945496, 0.31143760681152344, 0.3091607987880707, 0.30385151505470276, 0.2871096432209015, 0.2866337299346924, 0.2858034074306488, 0.285116583108902, 0.2850435674190521, 0.28434672951698303, 0.27277514338493347, 0.2706452012062073, 0.26933979988098145, 0.2661190330982208, 0.26208236813545227, 0.260626882314682, 0.2605188488960266, 0.2535404562950134, 0.23940883576869965, 0.2289332002401352, 0.22683386504650116, 0.22607028484344482, 0.22312815487384796, 0.22195588052272797, 0.21479839086532593, 0.21419481933116913, 0.21249553561210632, 0.21168404817581177, 0.21051916480064392, 0.19881534576416016, 0.19195109605789185, 0.1823173463344574, 0.18121211230754852, 0.17847482860088348, 0.17759239673614502, 0.16137604415416718, 0.16064420342445374, 0.153448224067688, 0.15098349750041962, 0.1501465141773224, 0.14584028720855713, 0.1423530876636505, 0.14033207297325134, 0.1369324028491974, 0.13526581227779388, 0.13430044054985046, 0.13234354555606842, 0.12397458404302597, 0.12210550904273987, 0.11737818270921707, 0.11239036917686462, 0.1077747568488121, 0.1065533310174942, 0.09149862825870514, 0.0901879295706749, 0.09001325815916061, 0.08603651076555252, 0.07675685733556747, 0.07584229856729507, 0.07490631937980652, 0.07013984769582748, 0.06991766393184662, 0.06795540452003479, 0.061057090759277344, 0.051746491342782974, 0.050748080015182495, 0.05022340640425682, 0.04747282713651657, 0.04325664043426514, 0.04248499125242233, 0.040249839425086975, 0.03554054722189903, 0.035186368972063065, 0.028105594217777252, 0.027086874470114708, 0.025597596541047096, 0.023093704134225845, 0.02304271049797535, 0.020321588963270187, 0.019525978714227676, 0.014331300742924213, 0.0027986904606223106]}, "Qwen3-4B": {"model_id": "Qwen/Qwen3-Embedding-4B", "vector": [-0.00043694465421140194, -0.037365276366472244, -0.005771387834101915, -0.028797442093491554, -0.0017849653959274292, 0.04902704805135727, -0.03331935405731201, -0.015350702218711376, -0.0036591789685189724, 0.016897672787308693, 0.022014573216438293, 0.07520654052495956, 0.004373165313154459, -0.015945689752697945, -0.038079261779785156, -0.0345093309879303, 0.018325643613934517, -0.013149244710803032, -0.01618368551135063, 0.0027815711218863726, -0.006068882066756487, 0.019515620544552803, 0.002722072182223201, 0.028083454817533493, -0.041649192571640015, -0.00490865483880043, -0.015707695856690407, -0.02748846635222435, 0.04117320105433464, -0.032129377126693726, 0.01963461935520172, 0.033795345574617386, -0.01880163513123989, -0.01332774106413126, 0.0022312067449092865, -0.01618368551135063, -0.03355734795331955, 0.007794348523020744, 0.03522331640124321, 0.005533392541110516, -0.018444642424583435, 0.03189137950539589, -0.002067584777250886, 0.019872615113854408, 0.020229607820510864, -0.005920134950429201, -0.0003198063059244305, -0.014755713753402233, -0.0036145548801869154, -0.028916439041495323, 0.009162821806967258, 0.005592891480773687, -0.033795345574617386, -0.019515620544552803, -0.009162821806967258, -0.018682638183236122, 0.07282658666372299, -0.003718677908182144, -0.03760327026247978, 0.004581410903483629, 0.019277626648545265, 0.03498532250523567, 0.002766696270555258, 0.012197263538837433, -0.003138564061373472, -0.01892063207924366, -0.012137764133512974, -0.033795345574617386, 0.0014205349143594503, -0.0008478585514239967, 0.017492661252617836, -0.007258858997374773, 0.0008032344048842788, -0.0050276522524654865, -0.019872615113854408, -0.03093940019607544, -0.011066785082221031, -0.004819406662136316, -0.005860636476427317, 0.018325643613934517, 0.0013907855609431863, -0.01975361630320549, -0.003138564061373472, 0.03093940019607544, 0.014755713753402233, -0.0003737271181307733, 0.005295397248119116, 0.0024692020379006863, 0.0037038030568510294, -0.000989168300293386, 0.015707695856690407, -0.026179492473602295, -0.02475151978433132, 0.020229607820510864, -0.01808764971792698, 0.007853847928345203, 0.014755713753402233, -0.015707695856690407, -0.005295397248119116, -4.787797661265358e-05, -0.014398721046745777, -0.0049384040758013725, 0.03284336254000664, 0.02582249976694584, 0.021657580509781837, -0.02475151978433132, -0.018682638183236122, -0.0074671050533652306, -0.0035253067035228014, 0.010352798737585545, 0.015826692804694176, -0.006812617648392916, -0.0023799538612365723, 0.03427133336663246, 0.013089746236801147, -0.008032344281673431, 0.01796865090727806, 0.005354896187782288, 0.0033914342056959867, -0.010352798737585545, -0.005265648011118174, 0.027607465162873268, 0.002543575596064329, -0.003079065354540944, 0.0028856939170509577, 0.0068721165880560875, 0.002097334247082472, -0.00666387053206563, -0.0017998401308432221, 0.001918837777338922, -0.007526603993028402, -0.02058660052716732, 0.005533392541110516, -0.005414395127445459, -0.04045921564102173, 0.016897672787308693, -0.0016064688097685575, -0.01546970009803772, -0.026179492473602295, -0.010055304504930973, -0.014874711632728577, -0.00044438199256546795, 0.014815212227404118, -0.0428391695022583, 0.006544873118400574, -0.002141958335414529, -0.0021568331867456436, -0.043315161019563675, 0.005473893601447344, -0.021181588992476463, 0.022966554388403893, 0.008865327574312687, 0.017849653959274292, 0.025941496714949608, 0.009222321212291718, -0.0007511729490943253, 0.0027071975637227297, 0.0008441398967988789, 0.01796865090727806, 0.002409703331068158, 0.008567833341658115, 0.006217629183083773, -0.0017552159260958433, -0.020824596285820007, -0.02141958475112915, 0.02403753437101841, -0.007407606113702059, 0.010650292970240116, 0.004819406662136316, 0.0029303182382136583, -0.02308555133640766, 0.0022758308332413435, -0.008270339109003544, -0.02391853556036949, 0.00645562494173646, 0.014874711632728577, 0.009579313918948174, -0.01642168127000332, -0.02748846635222435, 0.009341319091618061, -0.005087151192128658, 0.012613755650818348, -0.005116900894790888, -0.0048491558991372585, -0.00898432545363903, 0.005235898308455944, -0.014041727408766747, -0.014517717994749546, 0.008567833341658115, 0.007348107639700174, 0.005801137536764145, -0.016540678218007088, 0.001338724046945572, 0.002617949154227972, 0.0008813266758807003, -0.019039630889892578, -0.017373662441968918, 0.0068721165880560875, 0.03355734795331955, -0.0008590145735070109, -0.004402914550155401, -0.00047599076060578227, 0.00904382485896349, -0.01368473470211029, -0.022847557440400124, 0.0001543251273687929, 0.001948587130755186, -0.006277128122746944, -0.0006953927804715931, -0.013922729529440403, 0.01975361630320549, -0.008686831220984459, -0.006812617648392916, -0.031177394092082977, -0.014696215279400349, -0.003049315884709358, -0.01796865090727806, -0.01713566668331623, 0.017373662441968918, 0.002528700977563858, 0.003049315884709358, -0.003183188149705529, -0.03189137950539589, 0.013744233176112175, 0.0008181091398000717, 0.0002863381814677268, 0.010709792375564575, 0.002543575596064329, 0.004581410903483629, 0.01808764971792698, 0.029511427506804466, 0.018563639372587204, -0.008329838514328003, 0.0041649192571640015, -0.013149244710803032, -0.01725466549396515, -0.015826692804694176, 0.014517717994749546, -0.001963461982086301, -0.0046706595458090305, -0.009757810272276402, -0.022133570164442062, -0.016540678218007088, -0.001279225223697722, -0.025584504008293152, 0.0009036387200467288, -0.0017477786168456078, -0.02046760357916355, -0.0009333881316706538, -0.00514665013179183, -0.01725466549396515, 0.008032344281673431, -0.007348107639700174, 0.007348107639700174, -0.021062592044472694, -0.017611658200621605, -0.0017849653959274292, -0.021895574405789375, 0.005414395127445459, -0.006009383592754602, -0.004997903015464544, 0.010531296022236347, 0.001204851665534079, 0.011423778720200062, 0.004700408782809973, 0.0005578016862273216, -0.021657580509781837, -0.0066043720580637455, 0.008329838514328003, 0.008567833341658115, 0.017611658200621605, -0.004968153778463602, 0.009995806030929089, 0.02070559747517109, 0.006991114467382431, 0.017016669735312462, -0.0005057401722297072, -0.0035401813220232725, 0.012018767185509205, -0.011066785082221031, -0.03093940019607544, 0.0326053686439991, 0.01618368551135063, -0.0018519015284255147, -0.024513524025678635, -0.01112628448754549, 0.020824596285820007, 0.012792252004146576, -0.017492661252617836, -0.009757810272276402, 0.009162821806967258, -0.02736946940422058, 0.00642587523907423, -0.022728558629751205, 0.003837675554677844, -0.012137764133512974, -0.02249056287109852, -0.0022609562147408724, 0.009995806030929089, 0.006753119174391031, -0.02820245362818241, -0.008746330626308918, 0.022133570164442062, 0.00821084063500166, 0.003123689442873001, 0.02475151978433132, 0.014339221641421318, 0.007229109760373831, 0.005979633890092373, -0.031177394092082977, 0.015588697046041489, -0.004551661666482687, 0.0015915940748527646, 0.004283916670829058, -0.0068721165880560875, -0.018325643613934517, -0.008627332746982574, -0.0006879554130136967, -0.025346508249640465, -0.012792252004146576, 0.02070559747517109, -0.03784126415848732, 0.009519815444946289, -0.020110609009861946, 0.03855525329709053, 0.014339221641421318, 0.029035435989499092, 0.00666387053206563, 0.05426294729113579, -0.011721272952854633, 0.004997903015464544, 0.010471796616911888, -0.039983224123716354, -0.017492661252617836, 0.027012476697564125, 0.005741638597100973, -0.008686831220984459, 0.029749423265457153, 0.003956673201173544, 0.0006098631420172751, 0.00618787994608283, 4.811039616470225e-05, 0.022609561681747437, -0.0069613647647202015, -0.0035550559405237436, -0.0015097832074388862, 0.01963461935520172, -0.004521912429481745, -0.004789656959474087, -0.014874711632728577, -0.04117320105433464, -0.007050613407045603, 0.009281819686293602, -0.00035141504486091435, 0.020824596285820007, 0.022014573216438293, 0.03236737102270126, -0.014577217400074005, 0.015826692804694176, 0.008627332746982574, -0.010412298142910004, 0.018206646665930748, -0.015588697046041489, 0.020943593233823776, -0.027131473645567894, -0.008389336988329887, 0.029392430558800697, 0.03093940019607544, 0.011185782961547375, -0.033795345574617386, -0.01207826565951109, -0.03855525329709053, 0.013625235296785831, -0.03784126415848732, -0.0006061444873921573, 0.005206149071455002, 0.013863231055438519, -0.00618787994608283, 0.001933712512254715, 0.029749423265457153, 0.009341319091618061, 0.04640910029411316, -0.0020824596285820007, 0.005949884653091431, -0.004016172140836716, 0.000959418888669461, -0.027607465162873268, -0.05759488418698311, -0.0022312067449092865, 0.0016957171028479934, 0.029630424454808235, 0.008924826979637146, 0.0034360582940280437, -0.00642587523907423, -0.029630424454808235, 0.003897174261510372, -0.007615852169692516, 0.01285175047814846, 0.03784126415848732, -0.006991114467382431, -0.005711889360100031, 0.013149244710803032, 0.012673254124820232, 0.003257561707869172, -0.0036145548801869154, -0.04545711725950241, -0.00773485004901886, 0.0031088145915418863, -0.004551661666482687, 0.00490865483880043, -0.015112706460058689, 0.029511427506804466, 0.02998741716146469, 0.016064688563346863, -0.011423778720200062, -0.004551661666482687, 0.019396623596549034, -7.204938447102904e-05, 0.04783707112073898, 0.016540678218007088, -0.02915443480014801, 0.00821084063500166, -0.017373662441968918, 0.002766696270555258, 0.019991612061858177, -0.007169610820710659, -0.0075563532300293446, 0.005235898308455944, 0.018563639372587204, -0.0041649192571640015, -0.015112706460058689, -0.0016957171028479934, 0.004045921377837658, -0.010828790254890919, 0.002677448093891144, 0.003138564061373472, 0.007407606113702059, -0.0034360582940280437, -0.005325146485120058, 0.01546970009803772, 0.02570350095629692, 0.008448836393654346, -0.004878905136138201, -0.007348107639700174, 0.012970748357474804, -0.011185782961547375, 0.004581410903483629, 0.002692322712391615, 0.020110609009861946, 0.0036889284383505583, -0.025227511301636696, -0.006515123415738344, -0.012792252004146576, -0.005325146485120058, -0.038079261779785156, -0.030463408678770065, -0.009519815444946289, 0.014993708580732346, -0.025346508249640465, -0.02403753437101841, -0.0549769327044487, -0.004611160606145859, 0.03688928484916687, 0.01963461935520172, -0.03189137950539589, -0.00011806801921920851, -0.008448836393654346, -0.011840269900858402, 0.029511427506804466, 0.019158627837896347, 0.00904382485896349, 0.029868420213460922, -0.002543575596064329, 0.007080362644046545, 0.003897174261510372, -0.03784126415848732, -0.02820245362818241, 0.03688928484916687, 0.022728558629751205, -0.008389336988329887, 0.006396126002073288, 0.01285175047814846, 0.014696215279400349, 0.008686831220984459, 0.012137764133512974, 0.026774480938911438, -0.03165338560938835, 0.01112628448754549, 0.008270339109003544, -0.019991612061858177, -0.00981730967760086, 0.03093940019607544, -0.02998741716146469, -0.019872615113854408, -0.011304780840873718, 0.015826692804694176, 0.027250470593571663, -0.022609561681747437, 0.0017477786168456078, 0.004402914550155401, -0.007110111881047487, -0.032129377126693726, -0.0066043720580637455, -0.0066043720580637455, -0.00410542031750083, -0.004700408782809973, -0.002484076889231801, -0.022133570164442062, 0.0011825395049527287, -0.0014577216934412718, 0.013030246831476688, 0.02927343174815178, 0.007675351109355688, -0.006306877825409174, -0.021181588992476463, -0.05926084890961647, -0.019991612061858177, 0.0020378355402499437, -0.010947787202894688, -0.009341319091618061, -0.015945689752697945, 0.010888288728892803, 0.0037038030568510294, -0.04379114881157875, 0.01963461935520172, 0.00773485004901886, 0.006396126002073288, 0.04498112574219704, -0.011007286608219147, -0.02237156592309475, 0.022609561681747437, -0.018206646665930748, 0.019872615113854408, -0.029392430558800697, -0.03355734795331955, 0.0016957171028479934, -0.004135169554501772, -0.000414632580941543, 0.01546970009803772, -0.008924826979637146, 0.011185782961547375, 0.017373662441968918, 0.004581410903483629, 0.04712308570742607, 0.01975361630320549, -0.005473893601447344, 0.020110609009861946, 0.0008181091398000717, -0.0066043720580637455, 0.022847557440400124, 0.021062592044472694, 0.0014651591191068292, 0.0033021860290318727, -0.005682139657437801, 0.04141119495034218, -0.025108512490987778, -0.02249056287109852, -0.028559446334838867, 0.008567833341658115, 0.009519815444946289, -0.023561542853713036, -0.030701404437422752, -0.00898432545363903, -0.0069613647647202015, 0.0015469699865207076, -0.009162821806967258, -0.03498532250523567, 0.044267140328884125, -0.01546970009803772, -0.02058660052716732, -0.006991114467382431, 0.003123689442873001, -0.01808764971792698, 0.01416072528809309, 0.005830886773765087, 0.03093940019607544, -0.004135169554501772, 0.003926923964172602, -0.03760327026247978, 0.023799538612365723, 0.012316261418163776, 0.017016669735312462, -0.010114803910255432, -0.0466470941901207, 0.0043434156104922295, -0.018325643613934517, -0.010174302384257317, 0.018682638183236122, 0.02237156592309475, -0.021181588992476463, -0.012732752598822117, 0.013625235296785831, -0.018563639372587204, 0.008389336988329887, 0.0011602274607867002, 0.005801137536764145, 0.02998741716146469, -0.022728558629751205, -0.02665548212826252, 0.0008887639851309359, 0.01725466549396515, -0.019396623596549034, -0.007853847928345203, 0.01618368551135063, 0.014874711632728577, 0.007794348523020744, 0.038079261779785156, 0.039745230227708817, 0.0007734849932603538, -0.015112706460058689, -0.0007772036478854716, 0.009162821806967258, -0.019991612061858177, 0.00012829438492190093, 0.018682638183236122, 0.003123689442873001, -0.0067828684113919735, 0.012435258366167545, -0.018682638183236122, -0.00645562494173646, -0.008567833341658115, -0.013863231055438519, -0.039983224123716354, 0.005801137536764145, 0.001323849312029779, -0.011007286608219147, -0.019515620544552803, -0.002617949154227972, 0.033081356436014175, 0.015172205865383148, -0.021300585940480232, 0.021062592044472694, 0.0003142282657790929, 0.011066785082221031, 0.009698311798274517, -0.003361684735864401, -0.027250470593571663, 0.045933108776807785, -0.005563142243772745, 0.015053207986056805, -0.011780771426856518, -0.028797442093491554, 0.0030344410333782434, -0.01808764971792698, 0.019158627837896347, 0.0017626533517614007, -0.015707695856690407, -0.006366376299411058, -0.01332774106413126, -0.016778673976659775, 0.005682139657437801, -0.010531296022236347, -0.013446738943457603, 0.026060493662953377, -0.0014577216934412718, 0.026179492473602295, 0.0021568331867456436, -0.037365276366472244, 0.010828790254890919, -0.0014279723400250077, 0.00538464542478323, -0.02237156592309475, -0.00538464542478323, 0.014517717994749546, -0.017016669735312462, 0.012792252004146576, 0.008329838514328003, 0.019515620544552803, 0.011661773547530174, 0.02844044752418995, -0.026774480938911438, 0.004730158019810915, 0.017730655148625374, 0.021657580509781837, 0.004700408782809973, 0.058070871978998184, 0.018444642424583435, 0.01546970009803772, 0.009936307556927204, 0.008746330626308918, -0.004402914550155401, 0.012970748357474804, 0.009162821806967258, -0.0072886087000370026, 0.03688928484916687, -0.014458219520747662, 0.000494584150146693, 0.010828790254890919, -0.029035435989499092, 0.027607465162873268, 0.0067828684113919735, 0.006306877825409174, 0.004045921377837658, 0.028083454817533493, 0.039031241089105606, 0.019277626648545265, 0.008032344281673431, 0.0029451928567141294, -0.04141119495034218, -0.03593730181455612, -0.028916439041495323, -0.0035996802616864443, 0.0023502043914049864, -0.0008738893084228039, 0.009281819686293602, -0.026179492473602295, 0.02748846635222435, -0.007586102932691574, 0.020110609009861946, 0.0035699307918548584, -0.03189137950539589, 0.010352798737585545, 0.016778673976659775, -0.01630268432199955, -0.00562264071777463, -0.026774480938911438, -0.015707695856690407, -0.008508334867656231, 0.006931615527719259, 0.01112628448754549, -0.008567833341658115, -0.04188718646764755, 0.03522331640124321, 0.02570350095629692, 0.013387240469455719, -0.009400817565619946, -0.027012476697564125, 0.02665548212826252, 0.0027071975637227297, 0.016659677028656006, 0.011364279314875603, 0.0023055803030729294, 0.004373165313154459, 0.02570350095629692, -0.005206149071455002, 0.013744233176112175, -0.0010189177701249719, -0.005473893601447344, 0.007169610820710659, 0.0036889284383505583, 0.03331935405731201, 0.016778673976659775, -0.021300585940480232, 0.010412298142910004, -0.015826692804694176, 0.019991612061858177, -0.024275528267025948, -0.025346508249640465, 0.025941496714949608, -0.033081356436014175, 0.021895574405789375, 0.023561542853713036, 0.0048491558991372585, 0.0075563532300293446, -0.03355734795331955, -0.0037038030568510294, 0.008508334867656231, -0.006217629183083773, -0.008091842755675316, -0.0024692020379006863, -0.02070559747517109, -0.004492162726819515, -0.012792252004146576, -0.02403753437101841, -0.016778673976659775, -0.007050613407045603, 0.016778673976659775, -0.007794348523020744, 0.006544873118400574, 0.002008086070418358, -0.02927343174815178, 0.03284336254000664, 0.013744233176112175, -0.025227511301636696, 0.033795345574617386, -0.013387240469455719, -0.01796865090727806, 0.02225256897509098, 0.04402914643287659, 0.03427133336663246, -0.06378275901079178, 0.008627332746982574, -0.0069613647647202015, -0.010055304504930973, -0.03165338560938835, -0.02403753437101841, -0.002498951507732272, -0.0018147147493436933, -0.0027071975637227297, 0.02046760357916355, 0.014993708580732346, 0.011007286608219147, -0.015053207986056805, -0.00022776902187615633, 0.009698311798274517, 0.011304780840873718, 0.024632522836327553, 0.04355315491557121, -0.015350702218711376, -0.00821084063500166, 0.010471796616911888, -0.018206646665930748, 0.021300585940480232, 0.04569511488080025, -0.0073778568767011166, -0.029868420213460922, 0.003242687089368701, 0.0005503643187694252, -0.040697209537029266, 0.005354896187782288, -0.012197263538837433, 0.004194668494164944, -0.05402495339512825, -0.0034806823823601007, -0.012732752598822117, -0.018563639372587204, 0.004611160606145859, -0.007972844876348972, 0.002008086070418358, 0.04188718646764755, 0.034747324883937836, -0.011185782961547375, 0.020943593233823776, 0.0029303182382136583, 0.002543575596064329, -0.04022121801972389, 0.008686831220984459, 0.018325643613934517, 0.029868420213460922, -0.026774480938911438, 0.01630268432199955, 0.05331096425652504, -0.030463408678770065, 0.01416072528809309, -0.008924826979637146, -0.02332354709506035, -0.006306877825409174, 0.01546970009803772, 0.04569511488080025, 0.005860636476427317, -0.03617529943585396, 0.019158627837896347, 0.020824596285820007, -0.04402914643287659, -0.029749423265457153, 0.024513524025678635, -0.007139861583709717, -0.027012476697564125, -0.006098631769418716, -0.006812617648392916, 0.00898432545363903, 0.017373662441968918, -0.020110609009861946, 0.01963461935520172, -0.00016362182213924825, 0.012316261418163776, 0.0036145548801869154, -0.03760327026247978, 0.019872615113854408, 0.009162821806967258, 0.012673254124820232, -0.011661773547530174, 0.0069613647647202015, -0.040697209537029266, -0.0005168961943127215, -0.01642168127000332, 0.018206646665930748, 0.02820245362818241, -0.013149244710803032, -0.014339221641421318, 0.027845459058880806, 0.00898432545363903, 0.022609561681747437, 0.013506238348782063, -0.013625235296785831, -0.02403753437101841, -0.019158627837896347, 0.0005094588850624859, -0.030344411730766296, 0.00821084063500166, 0.023442545905709267, 0.02403753437101841, -0.007675351109355688, 0.00037930512917228043, -0.034033339470624924, -0.0047599077224731445, -0.013446738943457603, -0.003897174261510372, -0.0017552159260958433, 0.024275528267025948, -0.011959267780184746, 0.06021283194422722, -0.001978336600586772, -0.012494757771492004, -0.015231704339385033, 0.023799538612365723, -0.007794348523020744, -0.021657580509781837, 0.022609561681747437, 0.003793051466345787, 0.0010263550793752074, -0.03189137950539589, -0.01880163513123989, -0.005682139657437801, 0.01892063207924366, -0.012435258366167545, 0.021895574405789375, 0.006128381006419659, 0.004551661666482687, -0.034033339470624924, -0.011780771426856518, 0.012732752598822117, -0.005265648011118174, -0.008270339109003544, -0.000989168300293386, -0.009222321212291718, -0.0011230406817048788, 0.00322781247086823, -0.03165338560938835, -0.01725466549396515, 0.005206149071455002, -0.008686831220984459, -0.039745230227708817, -0.017492661252617836, 0.0073778568767011166, 0.016540678218007088, 0.006842367351055145, -0.0006135818548500538, -0.0004406633379403502, -0.01963461935520172, -0.0029005687683820724, -0.0021865826565772295, -0.011185782961547375, 0.008091842755675316, -0.0012420384446159005, -0.009579313918948174, 0.019277626648545265, 0.014339221641421318, 0.028916439041495323, -0.00981730967760086, -0.009579313918948174, 0.0014800337376073003, 0.014755713753402233, 0.02582249976694584, 0.01892063207924366, 0.009281819686293602, -0.0044326637871563435, -0.006634121295064688, -0.02391853556036949, -0.016540678218007088, 0.019515620544552803, -0.007080362644046545, 0.003317060647532344, 0.010709792375564575, -0.016540678218007088, -0.02582249976694584, -0.01975361630320549, 0.024632522836327553, 0.014279723167419434, 0.007675351109355688, -0.008865327574312687, -0.007615852169692516, -0.026893477886915207, 0.005265648011118174, -0.013506238348782063, -0.010055304504930973, 0.018206646665930748, -0.018325643613934517, 0.010055304504930973, 0.02736946940422058, -0.01713566668331623, 0.017373662441968918, 0.01463671587407589, -0.013268242590129375, 0.033795345574617386, 0.010471796616911888, -0.023680539801716805, 0.030344411730766296, 0.01237575989216566, 0.010055304504930973, 0.004224418196827173, -0.036651287227869034, 0.03712727874517441, 0.005206149071455002, 0.010471796616911888, 0.008746330626308918, 0.023680539801716805, -0.013149244710803032, -0.02582249976694584, 0.017492661252617836, -0.021181588992476463, -0.014101226814091206, -0.020348604768514633, -0.01332774106413126, 0.014458219520747662, -0.008032344281673431, 0.006098631769418716, 0.01642168127000332, -0.005711889360100031, -0.03165338560938835, -0.025108512490987778, 0.026298489421606064, 0.009936307556927204, -0.005235898308455944, 0.011364279314875603, 0.0016808423679322004, 0.05426294729113579, -0.0005615203408524394, 0.007348107639700174, 0.019396623596549034, -0.02153858169913292, -0.011304780840873718, 0.013922729529440403, 0.028559446334838867, -0.01963461935520172, -0.026298489421606064, 0.01630268432199955, 0.005682139657437801, 0.021300585940480232, -0.003257561707869172, -0.006277128122746944, -0.03331935405731201, 0.004462413489818573, 0.014517717994749546, 0.01154277566820383, -0.013625235296785831, 0.024275528267025948, -0.01112628448754549, -0.00946031603962183, 0.01124528143554926, -0.004194668494164944, -0.02046760357916355, 0.038079261779785156, -0.0011081659467890859, 0.013149244710803032, -0.06425875425338745, -0.002454327419400215, 0.005116900894790888, 0.01892063207924366, -0.009103323332965374, -0.007913346402347088, 0.019515620544552803, 0.0012346010189503431, 0.0010635418584570289, -0.034747324883937836, 0.018444642424583435, 0.03331935405731201, 0.011185782961547375, 0.006812617648392916, -0.006991114467382431, -0.002409703331068158, -0.004045921377837658, -0.0015618447214365005, 0.022966554388403893, -0.01291124988347292, -0.0007102674571797252, -0.01463671587407589, 0.027726462110877037, 0.011066785082221031, -0.01713566668331623, 0.021657580509781837, -0.024632522836327553, -0.012732752598822117, -0.011899769306182861, 0.01880163513123989, -0.0023799538612365723, 0.0033914342056959867, -0.008805829100310802, -0.025584504008293152, 0.01618368551135063, -0.00946031603962183, 0.027845459058880806, 0.0012420384446159005, -0.0428391695022583, 0.024513524025678635, -0.03284336254000664, 0.0017180291470140219, -0.015588697046041489, -0.019039630889892578, 0.002811320358887315, -0.011483277194201946, 0.009103323332965374, -0.052834976464509964, -0.008389336988329887, -0.006901866290718317, 0.01892063207924366, 0.03926923871040344, 0.009103323332965374, -0.02748846635222435, 0.01207826565951109, 0.019039630889892578, 0.0008069531177170575, -0.000342118350090459, 0.00904382485896349, -0.011780771426856518, -0.01642168127000332, -0.004581410903483629, 0.0006321752443909645, -0.011304780840873718, -0.019158627837896347, -0.011423778720200062, -0.01368473470211029, -0.02915443480014801, -0.024275528267025948, -0.0006098631420172751, -0.030701404437422752, 0.016659677028656006, 0.014220223762094975, 0.0014205349143594503, -0.003956673201173544, 0.006574622355401516, 0.03093940019607544, -0.0447431318461895, 0.020348604768514633, 0.009876808151602745, -0.002558450447395444, 0.0028261952102184296, 0.027250470593571663, -0.010233801789581776, -0.0034955572336912155, -0.014993708580732346, 0.01725466549396515, -0.0409352071583271, -0.00946031603962183, 0.0035699307918548584, 0.001859338954091072, 0.030701404437422752, -0.00904382485896349, -0.02046760357916355, 0.006336627062410116, 0.02665548212826252, 0.03950723260641098, 0.02403753437101841, -0.019515620544552803, 0.01892063207924366, -0.020943593233823776, -0.005533392541110516, 0.04878905415534973, 0.031415391713380814, 0.001323849312029779, -9.715045598568395e-05, 0.02046760357916355, -0.007437355816364288, -0.002097334247082472, -0.0007437355816364288, 0.0002733228320721537, -0.02046760357916355, 0.032129377126693726, 0.02927343174815178, 0.032129377126693726, -0.039983224123716354, 0.012732752598822117, 0.00821084063500166, -0.006753119174391031, -0.006812617648392916, -0.003138564061373472, 0.004224418196827173, -0.019277626648545265, -0.01207826565951109, 0.01416072528809309, 0.00946031603962183, -0.007169610820710659, 0.035699307918548584, 0.01076929084956646, -0.016064688563346863, 0.005354896187782288, -0.038317255675792694, -0.01285175047814846, -0.02225256897509098, 0.022609561681747437, -0.027845459058880806, -0.005682139657437801, -0.0015172205166891217, 0.02046760357916355, -0.015350702218711376, -0.007913346402347088, 0.03010641597211361, -0.0075563532300293446, 0.02748846635222435, -0.03688928484916687, -0.006217629183083773, -0.026298489421606064, 0.005979633890092373, 0.0023948284797370434, -0.008448836393654346, 0.008448836393654346, -0.004373165313154459, 0.02237156592309475, -0.009757810272276402, -0.039031241089105606, 0.005295397248119116, -0.014339221641421318, -0.025108512490987778, -0.008329838514328003, 0.05592891573905945, -0.011483277194201946, 0.019039630889892578, -0.03498532250523567, -0.034747324883937836, -0.0033021860290318727, -0.020348604768514633, -0.005682139657437801, -0.011483277194201946, 0.0028261952102184296, 0.0022609562147408724, 0.020229607820510864, -0.009400817565619946, 0.04307716339826584, 0.012970748357474804, 0.015707695856690407, 0.010233801789581776, 0.017016669735312462, -0.01618368551135063, -0.010947787202894688, -0.036413293331861496, 0.02998741716146469, -0.016064688563346863, -0.034747324883937836, 0.00981730967760086, -0.02915443480014801, 0.004402914550155401, 0.012554256245493889, -0.03331935405731201, -0.021181588992476463, -0.014696215279400349, -0.04045921564102173, 0.02665548212826252, -0.009698311798274517, -0.000989168300293386, -0.006842367351055145, -0.016540678218007088, -0.024275528267025948, 0.014041727408766747, 0.008329838514328003, 0.01725466549396515, 0.02653648518025875, -0.009698311798274517, -0.022133570164442062, -0.014934210106730461, -0.028916439041495323, -0.015231704339385033, 0.013565736822783947, 0.0010561045492067933, 0.011483277194201946, 0.005116900894790888, 0.017492661252617836, 0.022966554388403893, -0.0008478585514239967, 0.027131473645567894, 0.008746330626308918, -0.02415653131902218, 0.031177394092082977, 0.0016213435446843505, 0.010947787202894688, -0.00490865483880043, -0.011185782961547375, -0.0035253067035228014, -0.01880163513123989, -0.001918837777338922, 0.005057401955127716, -0.032129377126693726, 0.004730158019810915, -0.014220223762094975, 0.023680539801716805, -0.025227511301636696, 0.008151342160999775, 0.009698311798274517, -0.0017775279702618718, -0.027250470593571663, -0.03593730181455612, 0.02249056287109852, -0.002097334247082472, 0.030225412920117378, -0.019872615113854408, -0.009222321212291718, 0.021300585940480232, -0.03165338560938835, -0.01463671587407589, 0.002141958335414529, -0.012494757771492004, 0.011066785082221031, -0.007853847928345203, 0.014041727408766747, -0.02058660052716732, -0.00012085703201591969, 0.024275528267025948, -0.012732752598822117, 0.004819406662136316, -0.014339221641421318, -0.03427133336663246, -0.03712727874517441, -0.02153858169913292, -0.04950303956866264, -0.0006879554130136967, -0.003093939973041415, -0.006366376299411058, 0.01546970009803772, -0.0002956348762381822, 0.026179492473602295, -0.011483277194201946, -0.010352798737585545, 0.016897672787308693, 0.022728558629751205, 0.01285175047814846, 0.01618368551135063, 0.0048491558991372585, 0.06473474204540253, -0.031177394092082977, 0.03522331640124321, 0.021895574405789375, 0.002677448093891144, 0.006039132829755545, -0.00410542031750083, 0.015588697046041489, -0.02498951554298401, 0.03760327026247978, -0.013446738943457603, -0.0043434156104922295, -0.03712727874517441, 0.009936307556927204, -0.04498112574219704, 0.02415653131902218, 0.013208744116127491, 0.035699307918548584, -0.0042541674338281155, 0.005830886773765087, -0.031415391713380814, -0.004640909843146801, -0.025227511301636696, 0.0005057401722297072, 0.03712727874517441, 0.014220223762094975, 0.014874711632728577, 0.007020863704383373, 0.0036145548801869154, -0.019158627837896347, 0.04045921564102173, 0.02582249976694584, -0.004224418196827173, -0.01154277566820383, -0.0011974142398685217, -0.0073778568767011166, 0.008924826979637146, 0.03165338560938835, 0.01160227507352829, 0.039745230227708817, -0.005503643304109573, -0.021895574405789375, 0.005206149071455002, -0.018563639372587204, -0.0017105918377637863, -0.013625235296785831, 0.02249056287109852, 0.02415653131902218, 0.030344411730766296, 0.008627332746982574, -0.013387240469455719, -0.03760327026247978, 0.009698311798274517, -0.008567833341658115, 0.028678443282842636, -0.018563639372587204, -0.006277128122746944, 0.018325643613934517, 0.008865327574312687, 0.029749423265457153, -0.008032344281673431, 0.007913346402347088, 0.023799538612365723, 0.027012476697564125, 0.0014354096492752433, 0.029630424454808235, 0.0345093309879303, 0.01725466549396515, 0.007407606113702059, -0.010471796616911888, -0.0071993605233728886, -0.016064688563346863, 0.02153858169913292, 0.03331935405731201, 0.0004481006762944162, -0.01618368551135063, -0.013744233176112175, 0.010650292970240116, 0.033795345574617386, 0.02320455014705658, -0.02237156592309475, 0.021181588992476463, 0.005592891480773687, -0.0024394525680691004, 0.030225412920117378, -0.0074671050533652306, -0.02249056287109852, 0.01285175047814846, -0.006158130709081888, -0.006217629183083773, 0.03593730181455612, 0.013863231055438519, 0.005325146485120058, 0.0036145548801869154, -0.004968153778463602, -0.016540678218007088, 0.010233801789581776, 0.008508334867656231, -0.006396126002073288, -0.007586102932691574, -0.0014800337376073003, 0.006098631769418716, -0.0023502043914049864, 0.007258858997374773, -0.0034806823823601007, 0.011780771426856518, -0.007318357937037945, -0.010828790254890919, -0.02046760357916355, -0.0050276522524654865, 0.005176399368792772, 0.0033468101173639297, 0.045933108776807785, -0.021300585940480232, 0.02927343174815178, -0.013506238348782063, -0.02046760357916355, 0.013149244710803032, 0.01963461935520172, -0.028083454817533493, -0.009103323332965374, 0.02153858169913292, -0.032129377126693726, -0.01796865090727806, -0.021657580509781837, -0.031415391713380814, -0.006336627062410116, -0.007913346402347088, 0.0041649192571640015, 0.014577217400074005, 0.0048491558991372585, 0.0005987071199342608, -0.005949884653091431, 0.030463408678770065, -0.01076929084956646, -0.02070559747517109, -0.007437355816364288, -0.03926923871040344, 0.033081356436014175, 0.00010598231892799959, 0.025227511301636696, 0.008865327574312687, -0.008746330626308918, -0.0011527901515364647, 0.006247378885746002, -0.020229607820510864, 0.013625235296785831, -0.00010551748709985986, -0.030463408678770065, 0.02570350095629692, 0.025227511301636696, 0.017373662441968918, -0.016659677028656006, 0.02046760357916355, -0.025584504008293152, 0.007318357937037945, -0.01618368551135063, 0.015350702218711376, 0.031415391713380814, 0.0006991114350967109, -0.02736946940422058, 0.002097334247082472, 0.013625235296785831, 0.01291124988347292, 0.009162821806967258, 0.010471796616911888, 0.027964457869529724, -0.002811320358887315, 0.011899769306182861, -0.015707695856690407, 0.020824596285820007, -0.009519815444946289, -0.005235898308455944, -0.029630424454808235, 0.007853847928345203, 0.02570350095629692, 0.022014573216438293, 0.023799538612365723, -0.034033339470624924, 0.006396126002073288, -0.05093101039528847, -0.030463408678770065, 0.0020824596285820007, 0.025584504008293152, -0.036413293331861496, -0.011721272952854633, -0.013922729529440403, -0.0409352071583271, -0.017611658200621605, 0.030701404437422752, -0.020348604768514633, -0.01796865090727806, -0.01207826565951109, -0.007169610820710659, 0.012137764133512974, 0.004640909843146801, -0.008270339109003544, -0.008746330626308918, 0.008448836393654346, 0.017016669735312462, -0.0033468101173639297, -0.014458219520747662, -0.013268242590129375, -0.001338724046945572, 0.0028261952102184296, 0.011483277194201946, 0.013803732581436634, -0.027726462110877037, 0.00904382485896349, 5.275874354992993e-05, -0.02153858169913292, -0.006931615527719259, -0.0002156833215849474, 0.005949884653091431, -0.008686831220984459, 0.012970748357474804, -0.014101226814091206, 0.02487051673233509, 0.020943593233823776, 0.017611658200621605, 0.00538464542478323, 0.04307716339826584, -0.03355734795331955, -0.03546131029725075, 0.02487051673233509, 0.0022609562147408724, 0.002022960688918829, -0.017016669735312462, 0.02058660052716732, 0.04617110267281532, 0.013744233176112175, -0.038317255675792694, 0.004819406662136316, -0.021062592044472694, 0.014934210106730461, 0.017611658200621605, -0.04688509181141853, 0.002141958335414529, 0.008805829100310802, 0.004462413489818573, -0.016540678218007088, -0.013922729529440403, 0.014339221641421318, 0.014934210106730461, 0.007407606113702059, -0.01713566668331623, -0.006901866290718317, 0.014041727408766747, -0.03546131029725075, 0.008627332746982574, -0.022609561681747437, -0.005949884653091431, 0.0042541674338281155, 0.0010784165933728218, 0.022609561681747437, 0.0001729185169097036, -0.015112706460058689, -0.005057401955127716, 0.006842367351055145, -0.003317060647532344, 0.03427133336663246, -0.022609561681747437, -0.0012346010189503431, -0.017730655148625374, 0.0011230406817048788, -0.01725466549396515, -0.03165338560938835, 0.008270339109003544, -0.008448836393654346, 0.022847557440400124, 0.016897672787308693, -0.004878905136138201, -0.002543575596064329, 0.004968153778463602, -0.0028559446800500154, 0.03855525329709053, 0.009222321212291718, -0.0034658077638596296, -0.01880163513123989, 0.0028708192985504866, 0.027131473645567894, 0.027607465162873268, -0.009103323332965374, -0.01076929084956646, 0.02070559747517109, 0.03879324719309807, 0.001918837777338922, -0.021300585940480232, 0.032129377126693726, -0.02415653131902218, -0.0036443043500185013, -0.011364279314875603, -0.014398721046745777, 0.0006024258327670395, 0.003123689442873001, 0.027845459058880806, 0.002811320358887315, 0.04950303956866264, -0.0024245779495686293, -0.0006135818548500538, -0.0035550559405237436, 0.004313666373491287, -0.02487051673233509, -0.008567833341658115, 0.022847557440400124, -0.013149244710803032, -0.008329838514328003, -0.03784126415848732, -0.025584504008293152, -0.024275528267025948, 0.013149244710803032, 0.015350702218711376, 0.02332354709506035, 0.034747324883937836, 0.001279225223697722, 0.013625235296785831, 0.024394527077674866, -0.0011230406817048788, 0.027250470593571663, 0.039983224123716354, -0.04141119495034218, -0.003406308824196458, -0.014755713753402233, -0.001294099842198193, 0.02487051673233509, 0.01880163513123989, -0.03355734795331955, -0.0011527901515364647, -0.022133570164442062, -0.00562264071777463, 0.04807506874203682, 0.027012476697564125, -0.016897672787308693, -0.02391853556036949, -0.03546131029725075, -0.01618368551135063, -0.02070559747517109, -0.0530729703605175, 0.013149244710803032, -0.02153858169913292, 0.011899769306182861, 0.03546131029725075, 0.01880163513123989, -0.015350702218711376, 0.0022312067449092865, 0.02320455014705658, -0.008924826979637146, -0.02915443480014801, -0.00386742502450943, -0.003168313531205058, -0.02475151978433132, 0.03427133336663246, -0.012792252004146576, 0.014101226814091206, 0.01029330026358366, -0.03522331640124321, 0.0009073573746718466, -0.036651287227869034, 0.04117320105433464, -0.00645562494173646, 0.001599031500518322, 0.015231704339385033, -0.025108512490987778, -0.009341319091618061, 0.002736946800723672, 0.0023502043914049864, 0.001524657942354679, 0.0048491558991372585, 0.0030195664148777723, 0.01076929084956646, 0.005444144364446402, 0.022966554388403893, -0.01630268432199955, -0.003331935266032815, 0.019991612061858177, 0.008270339109003544, 0.02058660052716732, 0.01416072528809309, -0.04212518408894539, -0.049265045672655106, -0.014398721046745777, 0.03712727874517441, -0.052120987325906754, 0.011840269900858402, -0.025584504008293152, 0.01076929084956646, 0.015945689752697945, 0.03093940019607544, -0.01124528143554926, -0.01725466549396515, 0.0028261952102184296, 0.021181588992476463, 0.003079065354540944, 0.028083454817533493, -0.04450513795018196, 0.033081356436014175, 0.02070559747517109, -0.008151342160999775, -0.018682638183236122, -0.006515123415738344, 0.002543575596064329, -0.02570350095629692, 0.012435258366167545, -0.04188718646764755, 0.005503643304109573, 0.028083454817533493, -0.01725466549396515, -0.012435258366167545, 0.007853847928345203, -0.026298489421606064, -0.005741638597100973, -0.018563639372587204, 0.011423778720200062, 0.010233801789581776, 0.018444642424583435, 0.027726462110877037, 0.030701404437422752, 0.0011527901515364647, 0.01642168127000332, 0.033795345574617386, 0.001978336600586772, 0.01880163513123989, 2.6379371774964966e-05, 0.032129377126693726, 0.005801137536764145, 0.009162821806967258, 0.01160227507352829, 0.027726462110877037, -0.00821084063500166, 0.006485374178737402, 0.015231704339385033, 0.030701404437422752, -0.0005615203408524394, -0.02058660052716732, -0.012494757771492004, 0.026179492473602295, 0.001948587130755186, -0.024275528267025948, -0.02141958475112915, 0.007348107639700174, 0.052834976464509964, 0.052834976464509964, 0.01546970009803772, 0.014755713753402233, 0.0011379154166206717, -0.006336627062410116, 0.0042541674338281155, 0.0007214234792627394, -0.0013015372678637505, 0.01112628448754549, 0.008567833341658115, 0.030701404437422752, -0.02736946940422058, -0.03593730181455612, -0.03236737102270126, 5.159665670362301e-05, -0.01808764971792698, -0.009698311798274517, -0.038317255675792694, -0.004521912429481745, -0.04045921564102173, -0.02844044752418995, -0.02225256897509098, -0.009162821806967258, 0.009579313918948174, 0.03165338560938835, -0.006991114467382431, 0.0345093309879303, 0.00514665013179183, -0.003986422438174486, -0.005920134950429201, -0.0042541674338281155, -0.006544873118400574, -0.02225256897509098, 0.014398721046745777, 0.007853847928345203, -0.012256762012839317, -0.008865327574312687, -0.011007286608219147, -0.0010709791677072644, -0.00773485004901886, 0.00981730967760086, 0.0007809223607182503, 0.026179492473602295, -0.012970748357474804, -0.016540678218007088, 0.0028708192985504866, -0.006396126002073288, -0.019991612061858177, -0.005503643304109573, -0.019872615113854408, 0.02237156592309475, -0.015231704339385033, 0.01076929084956646, -0.005682139657437801, -0.016659677028656006, -0.0016659676330164075, 0.015350702218711376, -0.003926923964172602, 0.024513524025678635, -0.009281819686293602, -0.005414395127445459, 0.005295397248119116, 0.0011156033724546432, -0.014398721046745777, 0.005801137536764145, 0.005890385713428259, -0.010174302384257317, 0.018563639372587204, 0.009400817565619946, -0.006098631769418716, 0.005176399368792772, -0.025465505197644234, -0.01630268432199955, -0.04783707112073898, -0.015231704339385033, 0.026774480938911438, -0.014398721046745777, 0.007020863704383373, 0.03855525329709053, 0.02141958475112915, -0.032129377126693726, 0.008686831220984459, 0.0066043720580637455, 0.009162821806967258, -0.03093940019607544, -0.026774480938911438, -0.014755713753402233, -0.02403753437101841, 0.027726462110877037, -0.007318357937037945, -0.04022121801972389, -0.0035104318521916866, -0.0034360582940280437, -0.010828790254890919, 0.0066936202347278595, -0.010352798737585545, 0.011721272952854633, 0.013030246831476688, 0.019515620544552803, -0.006634121295064688, -0.03498532250523567, 0.0028708192985504866, 0.01237575989216566, 0.0042541674338281155, -0.012494757771492004, 0.004194668494164944, -0.012018767185509205, -0.010233801789581776, -0.01725466549396515, -0.009876808151602745, 0.0034509331453591585, -0.01124528143554926, -0.012137764133512974, 0.0049384040758013725, -0.025941496714949608, 0.019039630889892578, 0.0345093309879303, 0.03093940019607544, -0.0027815711218863726, -0.033795345574617386, -0.0030344410333782434, -0.0037038030568510294, -0.0034360582940280437, -0.04236317798495293, -0.012494757771492004, 0.007407606113702059, -0.06616271287202835, -0.008627332746982574, 0.00562264071777463, 0.040697209537029266, 0.04355315491557121, 0.04212518408894539, 0.011364279314875603, -0.03546131029725075, 0.012613755650818348, 0.017611658200621605, -0.010947787202894688, 0.035699307918548584, -0.021895574405789375, 0.025941496714949608, -0.0002091756323352456, 0.0018370269099250436, 0.0028261952102184296, 0.006128381006419659, -0.0015767194563522935, 0.014398721046745777, 0.019515620544552803, -0.0001794262061594054, 0.020824596285820007, -0.007794348523020744, -0.011483277194201946, 0.024275528267025948, 0.008865327574312687, -0.04307716339826584, 0.03093940019607544, -0.012554256245493889, 0.0035401813220232725, 0.0006433312664739788, 0.036413293331861496, -0.023680539801716805, -0.007318357937037945, -0.01618368551135063, -0.004581410903483629, -0.028083454817533493, -0.01618368551135063, 0.0041649192571640015, 0.019872615113854408, -0.012435258366167545, 0.0067828684113919735, 0.01796865090727806, -0.002097334247082472, 0.0011156033724546432, -0.03926923871040344, 0.022847557440400124, 0.011959267780184746, 0.005414395127445459, 0.0016510930145159364, -0.0066043720580637455, 0.0044326637871563435, -0.017373662441968918, -0.026298489421606064, -0.02844044752418995, -0.03165338560938835, 0.025465505197644234, -0.02498951554298401, 0.038317255675792694, -0.003257561707869172, -0.013863231055438519, 0.006544873118400574, -0.021657580509781837, 0.009400817565619946, 0.020229607820510864, -0.0428391695022583, -0.017611658200621605, 0.0466470941901207, 0.012197263538837433, -0.016659677028656006, 0.019991612061858177, 0.007526603993028402, 0.05664290115237236, -0.015826692804694176, 0.028916439041495323, 0.01713566668331623, 0.012673254124820232, -0.010947787202894688, -0.01963461935520172, 0.006634121295064688, 0.004313666373491287, 0.0008664519409649074, 0.013803732581436634, 0.011721272952854633, -0.02153858169913292, 0.0020824596285820007, 0.0002073162904707715, 0.022133570164442062, -0.008686831220984459, -0.009698311798274517, -0.008746330626308918, 0.000494584150146693, -0.004135169554501772, -0.018682638183236122, 0.019277626648545265, 0.008686831220984459, 0.019039630889892578, 0.00021289430151227862, -0.01332774106413126, -0.0022460813634097576, -0.003004691796377301, -0.012435258366167545, 0.011899769306182861, 0.015945689752697945, -0.014101226814091206, 0.00821084063500166, 0.025227511301636696, -0.010233801789581776, -0.03355734795331955, -0.005801137536764145, 0.027250470593571663, -0.010352798737585545, 0.058784861117601395, -0.018444642424583435, 0.01642168127000332, -0.010174302384257317, -0.008686831220984459, -0.022966554388403893, -0.0016362182796001434, -0.03093940019607544, -0.0029600674752146006, -0.02915443480014801, 5.392083039623685e-05, 0.008924826979637146, 0.02820245362818241, -0.005741638597100973, 0.003093939973041415, -0.012970748357474804, 0.036651287227869034, -0.007615852169692516, -0.02487051673233509, -0.007437355816364288, -0.01630268432199955, 0.006039132829755545, -0.025941496714949608, -0.027845459058880806, -0.022847557440400124, -0.05473893880844116, 0.030344411730766296, 0.018444642424583435, -0.000799515750259161, -0.011721272952854633, -0.026298489421606064, 0.008448836393654346, -0.002692322712391615, -0.03165338560938835, 0.005116900894790888, -0.04045921564102173, -0.018682638183236122, -0.017730655148625374, 0.012970748357474804, 0.019158627837896347, -0.002603074535727501, -0.015112706460058689, -0.012613755650818348, -0.019039630889892578, -0.012018767185509205, 0.0010412298142910004, -0.015945689752697945, 0.010531296022236347, 0.03165338560938835, -0.005087151192128658, -0.010828790254890919, -0.0033021860290318727, -0.009757810272276402, -0.0021568331867456436, -0.0034509331453591585, 0.025227511301636696, -0.001584156765602529, -0.024275528267025948, 0.022014573216438293, -0.0028856939170509577, -0.04212518408894539, -0.01796865090727806, 0.0004313666431698948, -0.00490865483880043, 0.007794348523020744, 0.011364279314875603, -0.01630268432199955, -0.013803732581436634, 0.005235898308455944, 0.013863231055438519, 0.010471796616911888, -0.010471796616911888, -0.005920134950429201, -0.008329838514328003, -0.015945689752697945, 0.03284336254000664, 0.04807506874203682, -0.05259697884321213, 0.021895574405789375, -0.017730655148625374, -0.014577217400074005, -0.02320455014705658, -0.007972844876348972, 0.037365276366472244, -0.01963461935520172, -0.014815212227404118, -0.021300585940480232, 0.00946031603962183, 0.00039603919140063226, 0.03712727874517441, -0.00904382485896349, -0.008865327574312687, -0.01796865090727806, -0.024632522836327553, -0.009281819686293602, -0.009103323332965374, 0.015945689752697945, -0.029511427506804466, 0.015826692804694176, 0.02748846635222435, -0.015707695856690407, -0.003926923964172602, 0.0022163318935781717, -0.014755713753402233, -0.022609561681747437, 0.015350702218711376, 0.01618368551135063, -0.0011007286375388503, 0.019277626648545265, -0.00538464542478323, 0.01463671587407589, -0.02153858169913292, 0.005444144364446402, 0.0043434156104922295, -0.020943593233823776, -0.027607465162873268, 0.016540678218007088, -0.011304780840873718, 0.012316261418163776, 0.0009817309910431504, 0.006217629183083773, 0.001004043035209179, -0.000669362023472786, 0.019158627837896347, -0.03950723260641098, -0.004819406662136316, 0.00025101075880229473, -0.0009147947421297431, 0.02570350095629692, -0.021062592044472694, 0.00645562494173646, -0.005860636476427317, -0.024394527077674866, -0.008567833341658115, -0.008627332746982574, 0.02141958475112915, -0.004878905136138201, 0.01076929084956646, -0.01112628448754549, -0.05140700191259384, 0.03093940019607544, -0.019991612061858177, 0.027964457869529724, 0.022966554388403893, 0.0010263550793752074, 0.05164499953389168, -0.004997903015464544, -0.019277626648545265, 0.005801137536764145, -0.004819406662136316, 0.014220223762094975, -0.0044326637871563435, 0.022133570164442062, -0.008270339109003544, -0.019515620544552803, 0.000814390426967293, 0.01642168127000332, 0.027726462110877037, 0.014755713753402233, 0.021181588992476463, 0.013803732581436634, -0.002766696270555258, 0.005533392541110516, 0.006485374178737402, 0.013446738943457603, 0.008686831220984459, -0.01154277566820383, 0.02748846635222435, 0.003763301996514201, 0.006991114467382431, -0.025465505197644234, -0.005087151192128658, -0.010828790254890919, 0.013744233176112175, 0.007794348523020744, -0.02415653131902218, 0.01160227507352829, -0.02748846635222435, 0.023561542853713036, -0.008329838514328003, 0.009995806030929089, 0.0041649192571640015, 0.015945689752697945, 0.02915443480014801, 0.03879324719309807, -0.012137764133512974, 0.02237156592309475, -0.00898432545363903, -0.0030641905032098293, -0.004492162726819515, -0.0027964457403868437, -0.00821084063500166, 0.015707695856690407, 0.005265648011118174, 0.018444642424583435, 0.030701404437422752, 0.0015097832074388862, 0.058784861117601395, -0.005741638597100973, -0.004462413489818573, 0.009400817565619946, 0.004313666373491287, 0.04236317798495293, 0.0033021860290318727, -0.02070559747517109, 0.02653648518025875, 0.03165338560938835, 0.0066043720580637455, -0.03593730181455612, -0.01029330026358366, -0.00039789851871319115, 0.02403753437101841, -0.013208744116127491, -0.03617529943585396, 0.03855525329709053, 0.009519815444946289, 0.005414395127445459, 0.022966554388403893, -0.0035401813220232725, 0.0041649192571640015, -0.0017626533517614007, -0.02665548212826252, 0.0025138261262327433, -0.0012569130631163716, -0.014517717994749546, -0.026417488232254982, 0.008032344281673431, 0.03688928484916687, 0.05331096425652504, -0.031177394092082977, 0.004581410903483629, -0.017849653959274292, -0.0068721165880560875, -0.0021865826565772295, -0.011007286608219147, -0.029749423265457153, -0.01796865090727806, -0.014279723167419434, 0.04022121801972389, -0.013625235296785831, 0.027131473645567894, 0.008805829100310802, -0.009579313918948174, -0.02070559747517109, 0.026893477886915207, -0.009638813324272633, 0.03236737102270126, -0.02570350095629692, -0.01725466549396515, -0.0023799538612365723, -0.008686831220984459, 0.00666387053206563, -0.012673254124820232, -0.000989168300293386, 0.00666387053206563, 0.019039630889892578, -0.010114803910255432, 0.003138564061373472, -0.022966554388403893, -0.03355734795331955, -0.031415391713380814, 0.006128381006419659, -0.007437355816364288, 0.011423778720200062, -0.016778673976659775, 0.036413293331861496, -0.011364279314875603, 0.013982228934764862, 0.030701404437422752, -0.021776577457785606, 0.03284336254000664, -0.001338724046945572, -0.0002937755489256233, 0.020110609009861946, -0.030463408678770065, -0.01618368551135063, -0.05259697884321213, 0.013387240469455719, -0.030463408678770065, 0.0034509331453591585, -0.008448836393654346, 0.0034360582940280437, 0.004730158019810915, -0.0028410698287189007, 0.016064688563346863, -0.003004691796377301, 0.024394527077674866, 0.0009110760875046253, -0.0002677447919268161, 0.021300585940480232, -0.017730655148625374, 0.020229607820510864, 0.002766696270555258, -0.012792252004146576, 0.014458219520747662, -0.011483277194201946, -0.009698311798274517, -0.005265648011118174, 0.020824596285820007, -0.00322781247086823, 0.0018667762633413076, -0.0028708192985504866, 0.016778673976659775, -0.01546970009803772, 0.025108512490987778, 0.002558450447395444, 0.023680539801716805, -0.02332354709506035, -0.007913346402347088, -0.005979633890092373, -0.06949464976787567, -0.0044326637871563435, -0.02225256897509098, 0.010650292970240116, 0.02058660052716732, -0.006812617648392916, 0.031177394092082977, -0.01076929084956646, 0.00904382485896349, 0.027726462110877037, 0.006128381006419659, 0.033795345574617386, 0.006515123415738344, 0.05093101039528847, -0.00045553804375231266, -0.02403753437101841, -0.006277128122746944, -0.013982228934764862, -0.030463408678770065, 0.008032344281673431, -0.0024394525680691004, 0.0006656433106400073, 0.011007286608219147, -0.03355734795331955, -0.033081356436014175, 0.008091842755675316, -0.03331935405731201, 0.009638813324272633, -0.011185782961547375, 0.00514665013179183, 0.021776577457785606, -0.00016176248027477413, 0.0011304781073704362, 0.0014205349143594503, 0.0035104318521916866, -0.0073778568767011166, 0.008091842755675316, -0.0007623289711773396, -0.012197263538837433, 0.016659677028656006, -0.019158627837896347, 0.00022869868553243577, -0.01076929084956646, 0.018444642424583435, 0.018563639372587204, -0.02308555133640766, 8.088124013738707e-05, -0.029868420213460922, 0.0037335525266826153, 0.015707695856690407, -0.0428391695022583, -0.022966554388403893, 0.0036294294986873865, 0.006217629183083773, -0.0023650790099054575, 0.0020378355402499437, -0.024394527077674866, 0.03546131029725075, 0.005949884653091431, -0.0006433312664739788, -0.01713566668331623, -0.007675351109355688, 0.033081356436014175, -0.014101226814091206, -0.014815212227404118, 0.015112706460058689, -0.011959267780184746, 0.02915443480014801, -0.001658530323766172, 0.026417488232254982, -0.034033339470624924, 0.015707695856690407, 0.00016362182213924825, 0.007318357937037945, -0.00410542031750083, 0.020824596285820007, -0.01880163513123989, 0.01546970009803772, -0.0022907054517418146, 0.013625235296785831, -0.012256762012839317, 0.011959267780184746, 0.017730655148625374, 0.009579313918948174, 0.027250470593571663, 0.04617110267281532, -0.04902704805135727, 0.027250470593571663, -0.017492661252617836, -0.013744233176112175, -0.005682139657437801, -0.00015990315296221524, 0.00514665013179183, 0.05093101039528847, -0.005860636476427317, -0.005801137536764145, -0.024394527077674866, -0.004224418196827173, -0.009341319091618061, 0.006812617648392916, -0.007794348523020744, 0.0028708192985504866, -0.00048342812806367874, -0.002617949154227972, 0.025227511301636696, 0.017016669735312462, 0.011661773547530174, 0.02308555133640766, -0.014220223762094975, 0.02237156592309475, -0.015172205865383148, 0.022609561681747437, -0.0072886087000370026, 0.00821084063500166, 0.021776577457785606, -0.0042541674338281155, 0.009281819686293602, 0.022966554388403893, -0.0014577216934412718, 0.033081356436014175, -0.004462413489818573, 0.015053207986056805, -0.003123689442873001, -0.019158627837896347, 0.031177394092082977, 0.023561542853713036, -0.013268242590129375, -0.019039630889892578, -0.02320455014705658, -0.009162821806967258, 0.010947787202894688, -0.018444642424583435, 0.004492162726819515, -0.013089746236801147, 0.02915443480014801, 0.0035550559405237436, 0.008924826979637146, 0.010055304504930973, -0.019872615113854408, -0.0014651591191068292, -0.009341319091618061, 0.03331935405731201, 0.017611658200621605, 0.01463671587407589, 0.012494757771492004, 0.000814390426967293, 0.008865327574312687, -0.0009222321095876396, -0.005235898308455944, 0.0033468101173639297, -0.017016669735312462, 0.05140700191259384, 0.0022609562147408724, 0.029035435989499092, -0.0028856939170509577, 0.013506238348782063, 0.0014577216934412718, -0.030701404437422752, 0.005473893601447344, -0.01618368551135063, -0.018682638183236122, 0.016778673976659775, -0.012316261418163776, -0.0002454327477607876, 0.006217629183083773, -0.015588697046041489, -0.010828790254890919, 0.0013982228701934218, -0.04498112574219704, 0.01154277566820383, -0.03355734795331955, 0.00981730967760086, 0.02570350095629692, -0.014755713753402233, -0.0017849653959274292, 0.0002491514023859054, 0.005176399368792772, -0.012018767185509205, -0.0029451928567141294, -0.019277626648545265, 0.018444642424583435, 0.0044326637871563435, 0.014398721046745777, -0.017492661252617836, 0.056166909635066986, 0.044267140328884125, 0.032129377126693726, -0.0009110760875046253, -0.057832878082990646, -0.0428391695022583, 0.02927343174815178, -0.00011992736108368263, -0.007258858997374773, -0.013565736822783947, -0.000799515750259161, 0.007615852169692516, -0.0035550559405237436, 0.0005057401722297072, -0.0027815711218863726, -0.011780771426856518, -0.0326053686439991, 0.017016669735312462, -0.007526603993028402, 0.01029330026358366, 0.020229607820510864, 0.022847557440400124, 0.02832145057618618, 0.042601171880960464, -0.01207826565951109, -0.038079261779785156, 0.024513524025678635, 0.004402914550155401, -0.006158130709081888, 0.005116900894790888, -0.015707695856690407, 0.021062592044472694, 0.017492661252617836, -0.015350702218711376, -0.020348604768514633, 0.0007734849932603538, 0.029868420213460922, -0.019396623596549034, 0.01630268432199955, 0.027012476697564125, -0.026417488232254982, 0.00946031603962183, -0.016778673976659775, 0.0006619246560148895, -0.013922729529440403, -0.005206149071455002, -0.007972844876348972, 0.016064688563346863, 0.011304780840873718, -0.031415391713380814, -0.012792252004146576, 0.031415391713380814, -0.009222321212291718, -0.003718677908182144, -0.015945689752697945, 0.02582249976694584, 0.020824596285820007, -0.025108512490987778, 0.021062592044472694, 0.017492661252617836, -0.008805829100310802, -0.01618368551135063, 0.03522331640124321, 0.014458219520747662, -0.030463408678770065, 0.006515123415738344, -0.006009383592754602, 0.015588697046041489, 0.017611658200621605, 0.011304780840873718, 0.014101226814091206, -0.003138564061373472, 0.00386742502450943, 0.005860636476427317, 0.006039132829755545, 0.01975361630320549, 0.02487051673233509, 0.020943593233823776, -0.003897174261510372, 0.014339221641421318]}}
{"UUID": "84bd0a80-8546-4106-9586-3581c7d08339", "BM25": {"terms": ["introduction", "b", "claudia", "c", "schmidt", "fz-juelich", "de", "1", "cognitive", "neuroscience", "institute", "of", "neurosciences", "and", "medicine", "inm-3", "forschungszentrum", "j", "lich", "germany", "2", "department", "nuclear", "faculty", "university", "hospital", "cologne", "3", "neurology", "4", "molecular", "organisation", "the", "brain", "inm-2", "5", "psychiatry", "psychotherapy", "6", "german", "centre", "for", "neurodegenerative", "diseases", "dzne", "bonn-cologne", "bonn", "alzheimer", "s", "disease", "ad", "is", "a", "disorder", "characterised", "by", "progressive", "decline", "in", "functions", "particularly", "episodic", "memory", "importantly", "current", "diagnostic", "criteria", "mark", "presence", "atypical", "nonamnestic", "neuropsychological", "symptoms", "among", "these", "apraxia", "represents", "critical", "phenotype", "that", "warrants", "further", "investigation", "since", "it", "impacts", "activities", "daily", "living", "impairs", "cognitive-motor", "including", "gesture", "imitation", "pantomiming", "object", "use", "actual", "cannot", "be", "solely", "attributed", "to", "basic", "motor", "deficits", "apraxic", "constitute", "core", "feature", "increases", "severity", "as", "progresses", "likewise", "prevalence", "from", "around", "30", "mild", "cases", "90", "severe", "stages", "notably", "limb", "has", "been", "shown", "distinguish", "between", "frontotemporal", "dementia", "7"], "weights": [2.642857183564043, 1.67806347761295, 5.330011980326496, 2.299918215949625, 6.607553509435518, 6.107272922825227, 2.537147168509276, 1.2550610886577365, 1.0480390843965919, 3.583177170056317, 4.4473897861564105, 0.3616508392504074, 7.798478712938253, 0.367689876932301, 6.388685299313171, 6.107272922825227, 8.935709348975843, 2.6409739234187994, 11.62842095999014, 8.521838941434064, 1.263871963968081, 6.1335802879449535, 5.63867170908038, 7.813813357730343, 5.39682534010395, 5.950236911836228, 11.240907695620798, 1.494601537530091, 2.794830402570532, 1.654421802665778, 2.9974653385866774, 5.330011980326496, 0.4878534905960377, 1.4014072568101998, 6.107272922825227, 1.9338705359232014, 2.762354768590657, 4.02611682649018, 2.219486747389481, 5.330011980326496, 3.907585626439531, 0.5990358485197133, 3.2657853505677172, 2.5497136780860883, 6.107272922825227, 6.107272922825227, 6.107272922825227, 1.2607743045764854, 0.6702615429537051, 1.4913078310783443, 4.154077530417944, 0.89245352773462, 0.5054712738920538, 2.70066155325975, 5.330011980326496, 0.8478447419114356, 3.154466626017042, 1.7815353924941653, 0.4140336688824897, 4.089188820056617, 2.316365213639095, 3.66477233280402, 1.668330326849514, 3.708463487918995, 2.70066155325975, 1.820696131106045, 2.20559674899009, 5.330011980326496, 4.892696487055121, 4.915387561098776, 6.107272922825227, 2.387749947352286, 2.163119677017277, 2.0836465567085116, 1.305298717336661, 6.1335802879449535, 3.154466626017042, 2.3772056835183113, 4.630869774421134, 1.26977817893606, 5.099470988165982, 2.1548552891062296, 3.106801834753653, 3.66477233280402, 1.6350552489047978, 3.8026323372297766, 2.845806897263159, 2.70066155325975, 2.794830402570532, 5.099470988165982, 4.4140206909708795, 1.682969055365291, 4.915387561098776, 3.907585626439531, 4.915387561098776, 6.458268109726987, 3.2398485978568217, 4.238757916994749, 3.907585626439531, 1.305298717336661, 3.3144081110080066, 5.099470988165982, 0.6810280697732638, 4.091669053506737, 2.6858654122721943, 4.059608026419777, 5.986627071747386, 5.099470988165982, 3.583177170056317, 3.106801834753653, 5.133012370821289, 2.7465381551584684, 0.7503030464157182, 5.099470988165982, 5.63867170908038, 2.9974653385866774, 0.9864539236837974, 3.964938104079994, 2.2501366062390122, 1.6350552489047978, 2.845806897263159, 2.9974653385866774, 3.0183148918309355, 2.7157002647130803, 3.3144081110080066, 3.907585626439531, 1.7545528339314123, 1.9170301625651096, 2.537147168509276, 3.6230678397618896, 1.2891479330147164, 3.1792611314169767, 0.9481319030533916, 1.5939734206438099], "k1": 1.5, "b": 0.75, "avgdl": 198.29391602399315, "N": 1167}, "SpladeV3": {"model_id": "naver/splade-v3", "tokens": ["cologne", "claudia", "schmidt", "in", "german", "alzheimer", "cognitive", "jul", "germany", "##ax", "apr", "##m", "dementia", "ad", "institute", "deficit", "##ora", "##sz", "university", "bonn", "neuroscience", "##air", "faculty", "gesture", "##ich", "nuclear", "cognition", "disease", "prevalence", "##eli", "##rum", "##ote", "##erative", "critical", "front", "core", "medicine", "##nes", "imitation", "progressive", "motor", "hospital", "##sch", "criteria", "##iso", "diseases", "##type", "decline", "##yp", "##eno", "institutes", "gestures", "##therapy", "disorder", "presence", "psychiatry", "##ia", "##3", "functions", "diagnostic", "hospitals", "##am", "ju", "brain", "mimic", "warrant", "memory", "universities", "##uro", "constitute", "department", "ata", "characterised", "ne", "##cho", "##gen", "##psy", "##ical", "##ung", "psychiatrist", "de", "##imi", "function", "ep", "imp", "limb", "psycho", "characterized", "mental", "brains", "im", "##ent", "declining", "daily", "attributed", "##dic", "nerve", "psychiatric", "importantly", "for", "syndrome", "mark", "therapy", "d", "radioactive", "##ne", "severity", "schneider", "##tom", "molecular", "##de", "##mp", "prevalent", "disorders", "memories", "basic", "paint", "##tic", "of", "notably", "living", "progress", "advertising", "represent", "centre", "##logical", "med", "3", "clinic", "distinguish", "ada", "pan", "severe", "marks", "##z", "symptoms", "mild", "##ic", "characteristic", "is", "accent", "stages", "activities", "non", "ph", "m", "functional", "neurological", "features", "object", "actual", "diagnosis", "atomic", "introduction", "psychology", "objects", "remember", "museum", "impact", "intelligence", "f", "marking", "functioning", "##emon", "recognised", "##ch", "am", "at", "berlin", "##s", "##logy", "she", "##l", "current", "particularly", "dusseldorf", "inn", "%", "cortex", "brandt", "motors", "feature", "investigation", "theresa", "limbs", "ir", "##ad", "marcus", "##otype", "mona", "psychological", "af", "als", "cores", "and", "apt", "departments", "april", "u", "shown", "carl", "karlsruhe", "center", "##d", "##genic", "europe", "disabled", "schizophrenia", "coma", "##eration", "stage", "roland", "location", "phenomenon", "gerard", "distinctive", "pauline", "parkinson", "switzerland", "orphan", "acronym", "college", "affect", "walters", "ab", "increase", "marked", "bordeaux", "professor", "urban", "organization", "anderson", "therapist", "liverpool", "association", "7", "ip", "cancer", "id", "existence", "s", "ina", "rhineland", "increased", "centers", "personality", "frequency", "paris", "mir", "patient", "radio", "type", "significantly", "##inal", "organisation", "therapeutic", "facility", "mentally", "germans", "##uron", "prehistoric", "hans", "author", "medication", "alt", "danish", "population", "ed", "deterioration", "integrated", "##ng", "demonstrated", "investigate", "onset", "everyday", "monique", "remembered", "qualification", "##pse", "describe", "bavaria", "##physical", "weber", "heidelberg", "##ob", "degree", "intellectual", "gene", "present", "mit", "6", "utrecht", "medicinal", "chemical", "perfume", "depression", "-", "conservatory", "lobe", "impacted", "anxiety", "endemic", "##iche", "tumor", "no", "britain", "gesturing", "worse", "currently", "biological", "diagnosed", "prof", "increasing", "##im", "intensity", "##ual", "madness", "nm", "austria", "impacts", "autism", "doctor", "##ger", "wagner", "##drome", "characteristics", "gilbert", "##um"], "weights": [2.7419698238372803, 2.653151512145996, 2.4313199520111084, 2.2961783409118652, 2.1447911262512207, 2.124880075454712, 2.1148831844329834, 2.113539457321167, 2.112201690673828, 2.098099946975708, 2.049569845199585, 2.0285770893096924, 2.021104335784912, 1.9925754070281982, 1.9741847515106201, 1.9486474990844727, 1.8849408626556396, 1.8791662454605103, 1.8455989360809326, 1.8427246809005737, 1.817586064338684, 1.755574107170105, 1.7525641918182373, 1.748169183731079, 1.7446184158325195, 1.730730414390564, 1.7239631414413452, 1.7184921503067017, 1.716528296470642, 1.712402582168579, 1.6966522932052612, 1.691213607788086, 1.6680934429168701, 1.6657649278640747, 1.6368098258972168, 1.615799069404602, 1.6084964275360107, 1.6075024604797363, 1.6062084436416626, 1.6029860973358154, 1.577896237373352, 1.5648232698440552, 1.540048360824585, 1.5277669429779053, 1.5250571966171265, 1.5186362266540527, 1.513895869255066, 1.505096197128296, 1.501121163368225, 1.4862720966339111, 1.482995629310608, 1.4654855728149414, 1.4534716606140137, 1.4402291774749756, 1.4135820865631104, 1.4079147577285767, 1.396213412284851, 1.395042896270752, 1.392690658569336, 1.3822097778320312, 1.3808385133743286, 1.369979739189148, 1.3672417402267456, 1.3648329973220825, 1.3510546684265137, 1.3501657247543335, 1.3491040468215942, 1.346966028213501, 1.3266077041625977, 1.3126599788665771, 1.306994080543518, 1.2950325012207031, 1.2912981510162354, 1.288131833076477, 1.2695322036743164, 1.2669806480407715, 1.2661216259002686, 1.2597718238830566, 1.251599669456482, 1.241172432899475, 1.2349909543991089, 1.2326314449310303, 1.2058916091918945, 1.2017910480499268, 1.195556879043579, 1.1824134588241577, 1.1790575981140137, 1.1751936674118042, 1.166623592376709, 1.1655216217041016, 1.1618891954421997, 1.160417914390564, 1.1526516675949097, 1.144905924797058, 1.1209956407546997, 1.1162875890731812, 1.1034598350524902, 1.1006144285202026, 1.0859767198562622, 1.0831115245819092, 1.0755870342254639, 1.07111656665802, 1.0677114725112915, 1.0666455030441284, 1.0585976839065552, 1.0565226078033447, 1.0454343557357788, 1.0424178838729858, 1.0398550033569336, 1.0361775159835815, 1.0339975357055664, 1.033363938331604, 1.0181362628936768, 1.0179805755615234, 1.0137985944747925, 1.0085541009902954, 1.0022788047790527, 0.9805251955986023, 0.9745784997940063, 0.971542477607727, 0.9649398326873779, 0.9548004865646362, 0.9442275762557983, 0.9432140588760376, 0.9339953660964966, 0.9245989322662354, 0.9133284091949463, 0.9129657745361328, 0.9129164814949036, 0.8994091749191284, 0.8918478488922119, 0.8893839716911316, 0.8875508308410645, 0.887404203414917, 0.8825977444648743, 0.8757763504981995, 0.8659480810165405, 0.8633295297622681, 0.8615562319755554, 0.8605378866195679, 0.8407190442085266, 0.8344473242759705, 0.8239427804946899, 0.8135155439376831, 0.8124117851257324, 0.8064407706260681, 0.7960919737815857, 0.7922406196594238, 0.7912428975105286, 0.788331151008606, 0.7793596386909485, 0.7674306035041809, 0.7629368305206299, 0.7572935223579407, 0.7545157670974731, 0.7501695156097412, 0.7431350350379944, 0.7369423508644104, 0.7323358058929443, 0.7307810187339783, 0.7232962846755981, 0.7168821692466736, 0.7105333805084229, 0.7097734212875366, 0.6942347884178162, 0.6886624693870544, 0.6818618178367615, 0.6776031255722046, 0.6765438318252563, 0.676467776298523, 0.6590861082077026, 0.6548975110054016, 0.6465663909912109, 0.6406633853912354, 0.6316733360290527, 0.625400722026825, 0.6234740614891052, 0.6222978234291077, 0.6203658580780029, 0.6182302832603455, 0.6156507134437561, 0.6114751696586609, 0.5947710275650024, 0.5928547978401184, 0.5878388285636902, 0.5874068737030029, 0.5850357413291931, 0.5797644853591919, 0.5787531733512878, 0.5782775282859802, 0.5752180218696594, 0.5749053955078125, 0.5738439559936523, 0.5726667046546936, 0.5679199695587158, 0.5579851269721985, 0.5525987148284912, 0.5525678396224976, 0.5349714159965515, 0.5255231261253357, 0.518883228302002, 0.5156314373016357, 0.5135042667388916, 0.5075742602348328, 0.5064070820808411, 0.5055614709854126, 0.5044484734535217, 0.503093421459198, 0.4759906530380249, 0.4752976596355438, 0.4642145037651062, 0.4583752155303955, 0.4472445547580719, 0.43963533639907837, 0.430984765291214, 0.42513686418533325, 0.4161665737628937, 0.41511571407318115, 0.4109332859516144, 0.40641242265701294, 0.40561792254447937, 0.3960612416267395, 0.392442524433136, 0.38466155529022217, 0.38171035051345825, 0.3736293613910675, 0.35952794551849365, 0.35860854387283325, 0.34808388352394104, 0.3427104651927948, 0.3419039845466614, 0.3409837782382965, 0.3355081081390381, 0.32196754217147827, 0.30821576714515686, 0.30810821056365967, 0.3049009442329407, 0.2916516363620758, 0.2779078185558319, 0.276893675327301, 0.27351003885269165, 0.2707846760749817, 0.26728588342666626, 0.25704479217529297, 0.2484634667634964, 0.24304533004760742, 0.23785626888275146, 0.23692099750041962, 0.23648609220981598, 0.2347574234008789, 0.23221512138843536, 0.22734905779361725, 0.2237507402896881, 0.22333692014217377, 0.22247643768787384, 0.221858948469162, 0.21153295040130615, 0.2085193544626236, 0.20365683734416962, 0.2010756880044937, 0.20067572593688965, 0.2003013789653778, 0.19731101393699646, 0.19482891261577606, 0.1934601366519928, 0.19263631105422974, 0.1913096308708191, 0.189244344830513, 0.18615210056304932, 0.1843334138393402, 0.18037407100200653, 0.15887682139873505, 0.1514260470867157, 0.15069395303726196, 0.14946676790714264, 0.14698177576065063, 0.14607517421245575, 0.1423162966966629, 0.1385664939880371, 0.1372082382440567, 0.12745799124240875, 0.12479739636182785, 0.12352915108203888, 0.12307232618331909, 0.12224563956260681, 0.1149308979511261, 0.11407697945833206, 0.11370567977428436, 0.11321644484996796, 0.11061648279428482, 0.11003998667001724, 0.10778360068798065, 0.1072300598025322, 0.10493385046720505, 0.10225140303373337, 0.1014505922794342, 0.10066082328557968, 0.0997106283903122, 0.09748291224241257, 0.09414627403020859, 0.09256239980459213, 0.08608656376600266, 0.08495797216892242, 0.08439115434885025, 0.0830901488661766, 0.07396388798952103, 0.0694243311882019, 0.059344127774238586, 0.05713040381669998, 0.05357633903622627, 0.05258622020483017, 0.052020758390426636, 0.04840129241347313, 0.04786480590701103, 0.03944449871778488, 0.03815186396241188, 0.03659738600254059, 0.035741470754146576, 0.031021684408187866, 0.030200272798538208, 0.0292518213391304, 0.02759862318634987, 0.024889446794986725, 0.02391367405653, 0.02188790962100029, 0.019245661795139313, 0.009152710437774658, 0.006597818806767464]}, "Qwen3-4B": {"model_id": "Qwen/Qwen3-Embedding-4B", "vector": [-0.00040256071952171624, 0.008685111068189144, -0.007869060151278973, -0.006703273393213749, -0.001173072843812406, 0.05152777209877968, -0.041035693138837814, -0.022965997457504272, -0.011249842122197151, 0.029377825558185577, 0.018419429659843445, 0.06341879814863205, 0.0067615630105137825, 0.011249842122197151, -0.029610982164740562, -0.024947835132479668, 0.04220147803425789, -0.019818374887108803, -0.008218795992434025, -0.0009217000915668905, -0.0009144139476120472, 0.023199155926704407, -0.004051108844578266, 0.021100739017128944, -0.015854699537158012, -0.006528405472636223, -0.017836537212133408, -0.04196832329034805, 0.01737022213637829, -0.031709399074316025, 0.041035693138837814, 0.03730517625808716, -0.02121731825172901, 0.03404097259044647, -0.00039709609700366855, -0.009909187443554401, -0.031709399074316025, 0.009034846909344196, 0.022266525775194168, 0.007577613461762667, -0.029844140633940697, 0.03777148947119713, -0.0075193243101239204, 0.01422259770333767, -0.00014116948295850307, -0.010084055364131927, -7.559398363810033e-05, -0.024131784215569496, -0.004255121573805809, -0.02214994840323925, 0.012240760028362274, 0.006819852162152529, -0.02657993696630001, -0.011832735501229763, -0.009850897826254368, -0.01993495225906372, 0.08999873697757721, -0.0004389915557112545, -0.027279408648610115, 0.010841816663742065, 0.013289968483150005, 0.03240887075662613, 0.01177444588392973, 0.010258923284709454, -0.0026230202056467533, -0.005595776252448559, -0.013872861862182617, 0.0037596621550619602, 0.005741499364376068, -0.004051108844578266, -0.0066741290502250195, 0.017137065529823303, 0.0, -0.011657866649329662, -0.02040126733481884, -0.019818374887108803, -0.013173390179872513, 0.00521689560264349, -0.0014499472454190254, -0.0029727560468018055, 0.019352059811353683, -0.009850897826254368, -0.012765364721417427, 0.0389372743666172, -0.0010200634133070707, 0.0194686371833086, 0.010258923284709454, 0.005858078133314848, 0.01154128834605217, 0.011891024187207222, 0.011249842122197151, -0.023782048374414444, -0.03917043283581734, 0.013173390179872513, -0.004634002223610878, 0.012007603421807289, 0.014863780699670315, -0.014106019400060177, -0.015621541999280453, -0.0010054910089820623, -0.017603378742933273, -0.017486801370978355, 0.029610982164740562, 0.026463357731699944, 0.01597127877175808, -0.012532207183539867, -0.008918268606066704, -0.010725237429141998, 0.00775248184800148, 0.010958394967019558, 0.013406546786427498, -0.01690390706062317, -0.0006302534602582455, 0.016670750454068184, 0.018536008894443512, -0.003074762411415577, 0.03147624060511589, -0.0008269799291156232, -0.00381795153953135, -0.024248363450169563, 0.00016302798758260906, 0.01398944016546011, -0.0097343185916543, 0.004429989494383335, 0.009909187443554401, -0.009850897826254368, 0.00019035111472476274, -0.004459134303033352, -0.01020063366740942, 0.0076359030790627, 0.0026230202056467533, -0.00510031683370471, 0.028678353875875473, -0.002462724456563592, 0.008568532764911652, 0.014164308086037636, -0.0029727560468018055, -0.014164308086037636, -0.022732840850949287, 0.01177444588392973, -0.01643759198486805, 0.008568532764911652, 0.010900105349719524, -0.02611362189054489, 0.01725364290177822, -0.046864625066518784, 0.002025554422289133, -0.013581415638327599, 0.0035556494258344173, -0.020168110728263855, 0.0018142556073144078, 0.0034973600413650274, 0.011249842122197151, 0.02214994840323925, 0.007198732811957598, 0.0025647308211773634, -0.001908975769765675, -0.0032350581604987383, 0.004750580992549658, 0.02086758241057396, 0.008160507306456566, 0.001289651496335864, 0.007082154043018818, -0.04733094200491905, -0.0036139388103038073, 0.009384582750499249, 0.003963674884289503, 0.007810770999640226, -0.0020401268266141415, 0.0017486800206825137, -0.0194686371833086, 0.002258711727336049, -0.010317211970686913, -0.02448152005672455, 0.001726821530610323, 0.011016684584319592, 0.00510031683370471, -0.03380781412124634, -0.021450474858283997, 0.010142344050109386, 0.014280887320637703, 0.014572333544492722, 0.006528405472636223, -0.021100739017128944, -0.006062090862542391, 0.01264878548681736, -0.00862682145088911, -0.021916789934039116, 0.0007686906028538942, -0.007461035158485174, 0.01398944016546011, -0.0031767687760293484, -0.0005501055857166648, -0.0055374871008098125, 0.009034846909344196, -0.012357339262962341, -0.003730517579242587, 0.020634423941373825, 0.033108342438936234, -0.01900232397019863, 0.002812460530549288, -0.0062952484004199505, 0.028212038800120354, -0.02180021069943905, -0.026696516200900078, -0.007257022429257631, -0.003453643061220646, 9.335401409771293e-05, 0.015738120302557945, -0.02657993696630001, 0.004604857414960861, 0.0097343185916543, 0.008277085609734058, -0.057356707751750946, 0.008043928071856499, -0.007869060151278973, -0.0013625131687149405, -0.009034846909344196, 0.001908975769765675, -0.010258923284709454, 0.010492080822587013, -0.002346145687624812, -0.016787327826023102, 0.03543991595506668, -0.002637592377141118, 0.0031913411803543568, 0.01177444588392973, -0.0059163677506148815, -0.0002404435072094202, 0.0152718061581254, 0.011016684584319592, 0.009442872367799282, 0.0026813093572854996, 0.011191552504897118, -0.0023607180919498205, -0.013756283558905125, -0.017137065529823303, 0.010550369508564472, -0.0097343185916543, -0.017020486295223236, -0.009617740288376808, -0.010783527046442032, -0.012532207183539867, -0.009617740288376808, -0.01398944016546011, -0.004954593721777201, 0.013581415638327599, -0.01737022213637829, -0.01177444588392973, -0.00798563938587904, -0.004459134303033352, 0.018302850425243378, 0.004517423454672098, -0.0021858501713722944, -0.005012882873415947, -0.012532207183539867, -9.69971006270498e-05, -0.008335375227034092, 0.01177444588392973, 0.009850897826254368, 0.005712355021387339, 0.022033369168639183, 0.0015155227156355977, 0.009501161985099316, 0.005187750793993473, -0.0019818374421447515, -0.031243083998560905, -0.011949313804507256, -0.008743400685489178, 0.01771995797753334, 0.01818627305328846, -0.007111298851668835, -0.003599366405978799, 0.027629144489765167, 0.0328751839697361, 0.010025765746831894, -0.007373600732535124, -0.014514044858515263, 0.007810770999640226, -0.010958394967019558, -0.026696516200900078, 0.02623020112514496, 0.014106019400060177, 0.00033880677074193954, -0.030077297240495682, -0.019818374887108803, 0.007577613461762667, 0.0016321013681590557, -0.02483125776052475, -0.013523126021027565, 0.010084055364131927, 0.004750580992549658, -0.0015665258979424834, -0.00996747612953186, 0.01311510056257248, -0.010958394967019558, -0.023315733298659325, -0.0025064414367079735, -0.002987328451126814, -0.0031476242002099752, -0.01393115147948265, 0.012357339262962341, 0.012415628880262375, 0.017486801370978355, 0.02448152005672455, 0.0017122492427006364, 0.01597127877175808, 0.010142344050109386, -0.01690390706062317, -0.016787327826023102, 0.008685111068189144, 0.018302850425243378, 0.008043928071856499, 0.004634002223610878, -0.006149524822831154, -0.00798563938587904, -0.013173390179872513, -0.01288194302469492, -0.021450474858283997, -0.022499684244394302, 0.005012882873415947, -0.024248363450169563, 0.010841816663742065, -0.012299049645662308, 0.023782048374414444, 0.004517423454672098, 0.016087856143712997, -0.006703273393213749, 0.02180021069943905, -0.004750580992549658, -0.013814572244882584, 0.014455755241215229, -0.039636749774217606, -0.022849420085549355, 0.013697993941605091, 0.0018798310775309801, -0.03590622916817665, 0.008568532764911652, 0.017137065529823303, -0.005042027682065964, -0.00909313652664423, 0.0004134899645578116, 0.03100992739200592, 0.00533347437158227, 0.00798563938587904, -0.009909187443554401, 0.01818627305328846, -0.021916789934039116, -0.0194686371833086, -0.009151425212621689, -0.037072017788887024, -0.0003934530250262469, 0.00932629406452179, 0.0017049630405381322, 0.018302850425243378, 0.029610982164740562, 0.0305436123162508, -0.010900105349719524, 0.00885997898876667, 0.000322412874083966, -0.010725237429141998, 0.012473917566239834, 0.0037013727705925703, 0.022499684244394302, -0.02389862760901451, 0.006994720082730055, 0.02879493124783039, 0.013756283558905125, 0.006644984241575003, -0.013231678865849972, 0.004750580992549658, -0.018769165500998497, 0.00316219637170434, -0.014514044858515263, 0.01020063366740942, 0.00533347437158227, 0.03777148947119713, 0.011657866649329662, 0.0020692714024335146, 0.00862682145088911, 0.009384582750499249, 0.002637592377141118, -0.005304329562932253, -0.004051108844578266, 0.003541077021509409, 0.004488278646022081, -0.022732840850949287, -0.03777148947119713, -0.0026813093572854996, 0.005304329562932253, 0.011482998728752136, 0.008218795992434025, -0.0062078144401311874, 0.017137065529823303, -0.02797888033092022, -0.001967265037819743, -0.0062078144401311874, 0.0008087645401246846, 0.014514044858515263, -0.017836537212133408, -0.00533347437158227, 0.014164308086037636, 0.01177444588392973, -0.012240760028362274, -0.021450474858283997, -0.0496625155210495, -0.012765364721417427, -0.011016684584319592, 0.010783527046442032, 0.0152718061581254, -0.009909187443554401, 0.021916789934039116, -0.007402745541185141, -0.009442872367799282, -0.011599577963352203, 0.0062078144401311874, 0.004284266382455826, -0.020284688100218773, 0.044533051550388336, 0.02354889176785946, 0.008568532764911652, 0.004109397996217012, -0.004663147032260895, 0.02168363332748413, 0.007402745541185141, -0.01597127877175808, 0.029028089717030525, 0.0097343185916543, 0.030310453847050667, -0.0152718061581254, 0.002258711727336049, -0.001027349499054253, 0.005566631443798542, -0.020984161645174026, 0.00862682145088911, -0.015854699537158012, 0.015621541999280453, -0.010025765746831894, -0.013289968483150005, -0.00028233896591700613, 0.029610982164740562, -0.003934530075639486, -0.00498373806476593, -0.004167687613517046, -0.0013406546786427498, -0.03777148947119713, 0.010841816663742065, 0.011482998728752136, -0.009850897826254368, -0.014747201465070248, -0.011133262887597084, 0.007869060151278973, -0.017953114584088326, -0.008976557292044163, -0.024598099291324615, -0.03730517625808716, -0.015621541999280453, 0.008918268606066704, -0.0194686371833086, -0.027162831276655197, -0.036605700850486755, 0.006703273393213749, 0.027162831276655197, 0.029610982164740562, -0.023782048374414444, 0.019235480576753616, -0.005799788981676102, -0.008393663913011551, 0.0152718061581254, 0.01771995797753334, -0.009559450671076775, 0.026929672807455063, 0.006120380014181137, 0.017020486295223236, 0.008277085609734058, -0.032175712287425995, -0.029494402930140495, 0.01958521641790867, -0.012415628880262375, 0.008218795992434025, -0.004051108844578266, 0.007373600732535124, -0.01177444588392973, 0.009909187443554401, -0.011249842122197151, -0.004779725335538387, -0.004488278646022081, 0.004255121573805809, 0.018536008894443512, -0.0018069694051519036, 0.00885997898876667, 0.040569376200437546, -0.03240887075662613, -0.01043379120528698, -0.005595776252448559, 0.00909313652664423, 0.01771995797753334, -0.0019235480576753616, 0.010550369508564472, 0.014805491082370281, -0.011016684584319592, -0.03240887075662613, -0.020517846569418907, -0.012065892107784748, -0.01597127877175808, 0.017486801370978355, 0.006353537552058697, -0.026813093572854996, -0.004838014952838421, -0.010492080822587013, 0.02308257669210434, 0.02879493124783039, 0.00996747612953186, -0.004284266382455826, -0.0072278776206076145, -0.041502006351947784, -0.022849420085549355, 0.014106019400060177, -0.012357339262962341, -0.0305436123162508, 0.012532207183539867, -0.009442872367799282, 0.00042441923869773746, -0.026346780359745026, 0.04126884788274765, 0.015155226923525333, -0.019701795652508736, 0.040103062987327576, -0.0017122492427006364, -0.0017705385107547045, 0.022499684244394302, -0.006178669631481171, 0.00885997898876667, -0.029028089717030525, -0.0019818374421447515, 0.0075193243101239204, 0.008335375227034092, 0.016204435378313065, 0.009792608208954334, -0.013173390179872513, 0.011191552504897118, 0.0305436123162508, 0.00387624092400074, 0.04196832329034805, 0.034274131059646606, 0.0027687435504049063, 0.015038648620247841, -0.011657866649329662, 0.006149524822831154, 0.01818627305328846, 0.008393663913011551, -0.00399281969293952, 0.007169588468968868, 0.012240760028362274, 0.05968828126788139, -0.029844140633940697, -0.030077297240495682, -0.00399281969293952, -0.00775248184800148, -0.018536008894443512, -0.00655755028128624, -0.040103062987327576, -0.013289968483150005, -0.010900105349719524, 0.007023864891380072, 0.005712355021387339, -0.02879493124783039, 0.017603378742933273, -0.004692291375249624, -0.017020486295223236, 0.015854699537158012, 0.004342555534094572, -0.00322048575617373, 0.006878141779452562, 0.012532207183539867, 0.004167687613517046, 0.014047729782760143, 0.0029727560468018055, -0.03264202922582626, 0.008335375227034092, -0.013872861862182617, 0.034274131059646606, 0.024947835132479668, -0.04383357986807823, -0.017836537212133408, -0.027745723724365234, -0.010900105349719524, 0.02797888033092022, 0.023199155926704407, -0.030776768922805786, -0.021567054092884064, -0.002754171146079898, -0.034274131059646606, 0.012473917566239834, 0.00486715929582715, -0.006062090862542391, 0.010841816663742065, -0.02040126733481884, -0.011074974201619625, -0.006790707819163799, 0.011657866649329662, -0.0060038017109036446, -0.04033622145652771, 0.020984161645174026, 0.02354889176785946, 0.0009326293948106468, 0.045465681701898575, 0.021567054092884064, 0.005158605985343456, -0.008918268606066704, 0.00885997898876667, -0.00909313652664423, -0.00048817318747751415, -0.005450052674859762, 0.008743400685489178, 0.020168110728263855, -0.011657866649329662, 0.02657993696630001, -0.02529757097363472, -0.013639704324305058, 0.005012882873415947, -0.010608659125864506, -0.03334150090813637, -0.012998522259294987, -0.006353537552058697, -0.0016175290802493691, -0.02623020112514496, 0.008043928071856499, 0.022499684244394302, 0.018069693818688393, -0.011133262887597084, 0.015854699537158012, 0.009676029905676842, 0.028911510482430458, -0.011133262887597084, 0.007053009700030088, -0.0001484556560171768, 0.04126884788274765, -0.014688912779092789, 0.014572333544492722, 0.0028270327020436525, -0.026463357731699944, -0.010783527046442032, 0.010084055364131927, -0.005974656902253628, 0.00632439274340868, 0.013464836403727531, -0.012473917566239834, -0.0011657867580652237, 