{"UUID": "c1efd5ea-d7a4-4a58-8253-aaac450a3659", "BM25": {"terms": ["disease", "progression", "and", "social", "cognition", "in", "behavioral", "variant", "frontotemporal", "dementia", "defining", "changes", "of", "the", "brain", "vrije", "universiteit", "amsterdam", "skip", "to", "main", "navigation", "search", "content", "home", "image", "hyperlink", "help", "amp", "faq", "profiles", "research", "units", "output", "courses", "projects", "datasets", "software", "activities", "prizes", "grants", "press", "media", "by", "expertise", "name", "or", "affiliation", "jay", "lydia", "petronella", "fieldhouse", "phd", "thesis", "phd-thesis", "graduation", "internal", "109", "downloads", "pure", "overview", "fingerprint", "abstract", "summary", "findings", "goal", "this", "was", "gain", "insight", "bvftd", "greater", "understanding", "manifestation", "course", "relevance", "clinical", "symptoms", "may", "clinicians", "researchers", "adequately", "identify", "monitor", "meaningful", "manifestations", "part", "i", "addressed", "heterogeneity", "a", "large", "cohort", "n", "315", "age", "at", "diagnosis", "ranged", "from", "26-85", "years", "earlier", "onset", "associated", "with", "more", "severe", "euphoria", "apathy", "depression", "while", "later", "characterized", "prominent", "memory", "impairment", "survival", "did", "not", "differ", "across", "groups", "nearly", "half", "were", "diagnosed", "after", "65", "showing", "late-onset", "is", "common", "than", "assumed", "music", "processing", "emerged", "as", "relevant", "domain", "prospective", "study", "63", "altered", "appreciation", "occurred", "79", "ftd", "patients", "most", "often", "musicophilia", "35", "these", "independent", "general", "emotion", "recognition", "though", "performed", "worse", "on", "music-related", "phenotypes", "thus", "represent", "markers", "potential", "outcome", "measures", "clinically", "change"], "weights": [1.4693488652684863, 3.8506765162772005, 0.14011475157859987, 5.796601955240871, 3.824909819948178, 0.21183694087855193, 5.801085815811939, 8.031382058742235, 6.817111317058301, 1.597816314727744, 7.290173359920391, 4.274505972695034, 0.12560888216673674, 0.22668499601281533, 2.303526085709394, 8.685111708569877, 8.494591824513703, 7.155872188929325, 6.8501219707299, 0.6033305074856068, 4.139906020238967, 4.353000518639137, 3.621602565203594, 2.9386971561896473, 4.080577828319822, 2.401939666872761, 3.529170143448758, 4.005374705153466, 2.124801547636763, 5.574197255731383, 3.2694203726971462, 1.8416071065660744, 4.791932373782063, 6.351837689237576, 6.070057021423369, 4.752479870411715, 3.3986717226956467, 3.529170143448758, 2.9282985940406228, 7.248850498636219, 4.87639002068541, 3.4340816653932147, 3.5807331440856114, 1.1388880154402843, 4.45830869247801, 4.51593215810907, 0.9313946124327884, 5.78866442960495, 6.480127130994005, 6.480127130994005, 6.480127130994005, 6.252118442813334, 5.325210416396565, 7.712031467789941, 6.252118442813334, 6.252118442813334, 3.8224885288246484, 4.173201603697618, 4.4308137212161, 5.400859599782631, 3.6816442271739156, 6.480127130994005, 1.7480963205576732, 3.079860853954712, 1.9684951957999033, 4.1938221416758115, 0.8333189692342945, 2.034275011595375, 4.678376282996802, 3.9406735307513614, 10.585953432293193, 2.882925909039638, 2.6462169840644267, 4.969524502313238, 6.094389204426812, 3.6242032363253784, 2.1084744377749134, 3.0479577979825905, 2.070596627467903, 3.4709299629562276, 2.9231436675836275, 5.574197255731383, 2.717102319124576, 4.28133712800362, 4.023209006139848, 4.28133712800362, 2.9598588062806885, 1.8651314072919747, 4.3046015979582695, 3.1301028725079325, 0.20419271104798917, 3.452318754124, 2.191135438638474, 2.2341042077520936, 5.483395075171119, 2.931495343050861, 1.4003970768971938, 1.7622837029430585, 4.609870952392098, 0.7804488054832323, 6.252118442813334, 2.1485645983510833, 3.70567913248027, 4.537603157287209, 1.6148002823144378, 0.3006688704422632, 2.802807787204281, 3.1046341231802694, 5.675108338819688, 3.6816442271739156, 2.446422331333312, 1.8555727803438045, 3.7818579508000267, 3.307869542135383, 4.609870952392098, 1.8122509801464177, 0.8572573652784758, 3.8364467213022997, 2.7462371726506585, 1.2668003019024687, 3.9565908621035746, 2.041339488277989, 2.449466846323317, 4.378203934191568, 4.28133712800362, 1.8699525829031933, 3.323717361947903, 2.1485645983510833, 2.789551584804995, 3.519200102286184, 4.969524502313238, 0.7794802816489048, 2.7048967814678537, 2.0810945716839924, 4.87639002068541, 7.566875118843743, 2.9652272516227893, 3.5597549929314645, 0.6888163983513071, 4.267136041607035, 3.239792773000929, 3.079860853954712, 0.7995446642285051, 3.0150286644629616, 3.9406735307513614, 5.325210416396565, 4.678376282996802, 3.1832911184749544, 4.28133712800362, 1.7053341726321238, 2.0933689137880194, 2.638672120494645, 6.252118442813334, 2.5875450951740366, 1.32493982594587, 2.8350380333942975, 2.6614975914331582, 5.903869320370639, 5.0001920492025445, 3.9727924464903515, 2.802959680297404, 4.1938221416758115, 0.5453080873204015, 6.252118442813334, 4.214922269788417, 3.239792773000929, 3.0557460890777994, 2.992556565402037, 1.6699168034766625, 2.825756473001763, 2.449466846323317, 3.307869542135383, 2.9334829773800846], "k1": 1.5, "b": 0.75, "avgdl": 233.87661016949153, "N": 4425}, "SpladeV3": {"model_id": "naver/splade-v3", "tokens": ["dementia", "front", "amsterdam", "##ft", "social", "##ij", "thesis", "progression", "manifestation", "##ora", "music", "cognition", "behavioral", "clinical", "defining", "b", "relevant", "vr", "variant", "##hort", "##ote", "disease", "##print", "universite", "##v", "##type", "##eno", "onset", "behavior", "changes", "musical", "recognition", "related", "brain", "represent", "emotion", "abstract", "domain", "##athy", "##d", "phd", "paint", "appreciation", "##hil", "emotional", "prospective", "##mp", "##oria", "age", "progress", "markers", "worse", "##rone", "fa", "graduation", "alzheimer", "change", "insight", "dutch", "brains", "ft", "outcomes", "##set", "impairment", "course", "##gen", "pure", "manifest", "profiles", "retrospective", "ph", "emerge", "finger", "relevance", "output", "research", "processing", "##eit", "63", "eu", "characterized", "variants", "het", "potential", "summary", "prominent", "diseases", "amp", "mutation", "meaningful", "cognitive", "society", "late", "definition", "goal", "domains", "outcome", "lydia", "common", "altered", "clinic", "symptoms", "##ph", "memory", "depression", "marker", "##q", "diagnosis", "addressed", "grants", "define", "differ", "patients", "internal", "download", "software", "diagnosed", "main", "##link", "link", "##ero", "greater", "variation", "expertise", "thus", "independent", "skip", "associated", "survival", "doctorate", "recognized", "navigation", "emotions", "intelligence", "affiliation", "65", "prevalence", "courses", "findings", "emerged", "syndrome", "data", "profile", "study", "%", "assumed", "depressed", "university", "fingerprints", "psychology", "graduate", "dissertation", "defined", "netherlands", "downloads", "##l", "patient", "##front", "psychological", "image", "content", "pet", "researchers", "insights", "more", "alterations", "overview", "severe", "nearly", "disorder", "memories", "activities", "##house", "media", "researcher", "alteration", "##otype", "##je", "ranged", "cortex", "remember", "recognize", "performed", "projects", "goals", "prizes", "##ians", "ap", "progressive", "##lla", "earlier", "understanding", "emotionally", "79", "measures", "monitor", "v", "units", "modification", "press", "half", "##mps", "duration", "large", "population", "characteristic", "315", "gain", "facebook", "gene", "across", "alter", "belgian", "socially", "general", "les", "emergence", "studies", "signs", "parkinson", "highlight", "modifications", "similar", "home", "showing", "images", "representing", "##ia", "fingers", "109", "groups", "degree", "measure", "n", "genetic", "significant", "scientists", "cancer", "recognised", "schizophrenia", "classes", "knowledge", "decline", "anger", "modified", "catalyst", "college", "socio", "assume", "reflect", "psycho", "pd", "compassion", "range", "identify", "##f", "prize", "changed", "may", "show", "f", "##ian", "mental", "type", "significance", "musician", "address", "no", "bf", "years", "disabled", "picture", "specialists", "assumption", "museum", "aba", "##uro", "resolved", "variations", "##it", "jay", "targets", "representative", "affiliated", "co", "and", "frequency", "monitoring", "photo", "##genic", "funding", "remembered", "stage", "appreciated", "borne", "belgium", "graduated", "songs", "training", "processes", "personality", "lee", "severity", "evolution", "name", "sociology", "processor", "typing", "elderly", "field", "did", "effect", "shown", "bae", "virus", "distorted", "psychiatrist", "uk", "understand", "institute", "characteristics", "##op", "concluded", "prevalent", "indicators", "project", "witnessed", "results", "help", "conclusions", "survive", "##oot", "links", "utrecht"], "weights": [2.530958890914917, 2.3244950771331787, 2.3199613094329834, 2.2850704193115234, 2.252284049987793, 2.2491934299468994, 2.2128005027770996, 2.207223415374756, 2.1878767013549805, 2.1174919605255127, 2.058317184448242, 2.0260703563690186, 2.0022263526916504, 2.001739978790283, 1.9807093143463135, 1.97916579246521, 1.9534938335418701, 1.9376850128173828, 1.9314988851547241, 1.920379877090454, 1.8938709497451782, 1.8670306205749512, 1.8319892883300781, 1.765892744064331, 1.759052038192749, 1.7526417970657349, 1.7299319505691528, 1.726576805114746, 1.7185747623443604, 1.7081109285354614, 1.6869980096817017, 1.6824045181274414, 1.6818592548370361, 1.6517643928527832, 1.6429898738861084, 1.633442997932434, 1.6279453039169312, 1.6194403171539307, 1.6148655414581299, 1.6092627048492432, 1.5995906591415405, 1.5942955017089844, 1.5904152393341064, 1.5473707914352417, 1.5339908599853516, 1.5325934886932373, 1.5295820236206055, 1.5157499313354492, 1.515580415725708, 1.4885051250457764, 1.480499267578125, 1.4748910665512085, 1.4609273672103882, 1.4484120607376099, 1.4456721544265747, 1.4298169612884521, 1.4121063947677612, 1.4116978645324707, 1.4097683429718018, 1.3906091451644897, 1.3769841194152832, 1.370180368423462, 1.3602452278137207, 1.3573684692382812, 1.3562227487564087, 1.354488492012024, 1.3522197008132935, 1.3506724834442139, 1.3456883430480957, 1.345117211341858, 1.3220117092132568, 1.3196743726730347, 1.3186700344085693, 1.3141206502914429, 1.283575177192688, 1.2792116403579712, 1.2774651050567627, 1.2767702341079712, 1.2638639211654663, 1.2606310844421387, 1.2453123331069946, 1.2421636581420898, 1.2414411306381226, 1.2329667806625366, 1.2328540086746216, 1.2271846532821655, 1.2261587381362915, 1.223617672920227, 1.2081067562103271, 1.1941274404525757, 1.1839112043380737, 1.1786987781524658, 1.177077293395996, 1.1585721969604492, 1.1581482887268066, 1.150202989578247, 1.1487869024276733, 1.146992802619934, 1.1408922672271729, 1.1335601806640625, 1.1226369142532349, 1.118236780166626, 1.117666482925415, 1.1161543130874634, 1.1127305030822754, 1.1123629808425903, 1.1083425283432007, 1.1075239181518555, 1.106222152709961, 1.1040570735931396, 1.1010513305664062, 1.098646640777588, 1.0969719886779785, 1.0840845108032227, 1.0814709663391113, 1.080954670906067, 1.077422022819519, 1.0749424695968628, 1.071824073791504, 1.0693715810775757, 1.0682549476623535, 1.0621477365493774, 1.0549583435058594, 1.0511901378631592, 1.0439832210540771, 1.0415762662887573, 1.0208215713500977, 1.011023759841919, 1.0078104734420776, 1.0022432804107666, 0.9984778165817261, 0.9961019158363342, 0.9941797256469727, 0.9828469157218933, 0.9741281867027283, 0.9662813544273376, 0.9535162448883057, 0.9440548419952393, 0.9402061700820923, 0.9380620718002319, 0.922892689704895, 0.9213716387748718, 0.9182575941085815, 0.911184549331665, 0.8978845477104187, 0.8956669569015503, 0.8919137716293335, 0.8777452707290649, 0.8668124079704285, 0.866782546043396, 0.8375834226608276, 0.8188329339027405, 0.809105634689331, 0.8089768886566162, 0.808764636516571, 0.8083040118217468, 0.806660532951355, 0.8020685315132141, 0.7957499623298645, 0.7946354150772095, 0.7909546494483948, 0.7802167534828186, 0.779454231262207, 0.7731134295463562, 0.7707754969596863, 0.7703813314437866, 0.7659982442855835, 0.7648500800132751, 0.7595595717430115, 0.7561517953872681, 0.7507210373878479, 0.7505850791931152, 0.7504432797431946, 0.7348161935806274, 0.7221775650978088, 0.7218989133834839, 0.7185400128364563, 0.7103956937789917, 0.7092204689979553, 0.7001488208770752, 0.6994653940200806, 0.696419894695282, 0.6943823099136353, 0.693736732006073, 0.6916115880012512, 0.6896957159042358, 0.6893349289894104, 0.6889642477035522, 0.6817389726638794, 0.6781247854232788, 0.6444606781005859, 0.6343532204627991, 0.6302841901779175, 0.6253941655158997, 0.6237148642539978, 0.6144289970397949, 0.5987622737884521, 0.5901294946670532, 0.5854927897453308, 0.5786703824996948, 0.5568647384643555, 0.5498794913291931, 0.5411080718040466, 0.5293235182762146, 0.5270941257476807, 0.5266469120979309, 0.5137413740158081, 0.5128609538078308, 0.48899656534194946, 0.48802632093429565, 0.48471009731292725, 0.47812706232070923, 0.4766991436481476, 0.4741499722003937, 0.4740127623081207, 0.46970003843307495, 0.46844565868377686, 0.4665311276912689, 0.46200031042099, 0.4600387215614319, 0.4573550522327423, 0.45553189516067505, 0.44999343156814575, 0.44800448417663574, 0.43448948860168457, 0.4337172508239746, 0.43073132634162903, 0.4177241623401642, 0.40648797154426575, 0.4038955867290497, 0.3988816738128662, 0.39595097303390503, 0.39572206139564514, 0.3935798704624176, 0.38118043541908264, 0.3737546503543854, 0.37286868691444397, 0.36631274223327637, 0.3643382489681244, 0.3642120361328125, 0.36220887303352356, 0.3560805320739746, 0.3522408604621887, 0.35198041796684265, 0.34941762685775757, 0.34538716077804565, 0.3422016501426697, 0.33643272519111633, 0.3359166085720062, 0.32705220580101013, 0.32536229491233826, 0.3174586892127991, 0.31737542152404785, 0.3136342763900757, 0.3131083846092224, 0.31264036893844604, 0.31038880348205566, 0.3101515769958496, 0.3029387295246124, 0.2916574478149414, 0.28420209884643555, 0.2822332978248596, 0.28176766633987427, 0.274929016828537, 0.27444761991500854, 0.26386645436286926, 0.26346448063850403, 0.25910672545433044, 0.24942047894001007, 0.24514348804950714, 0.23301587998867035, 0.22205305099487305, 0.22193308174610138, 0.21937789022922516, 0.2156437635421753, 0.2112424224615097, 0.2060382068157196, 0.1987960934638977, 0.19726185500621796, 0.18928052484989166, 0.18296648561954498, 0.17549267411231995, 0.17268013954162598, 0.1707579344511032, 0.16987647116184235, 0.16822534799575806, 0.16521060466766357, 0.16326865553855896, 0.15242435038089752, 0.14046894013881683, 0.13729184865951538, 0.13245709240436554, 0.13000287115573883, 0.12897242605686188, 0.12871025502681732, 0.12444036453962326, 0.11234451830387115, 0.10885986685752869, 0.10864114761352539, 0.10836584120988846, 0.10600095242261887, 0.10544746369123459, 0.10415353626012802, 0.10397937893867493, 0.09231660515069962, 0.09212503582239151, 0.09016268700361252, 0.08943579345941544, 0.08564784377813339, 0.08262840658426285, 0.07840721309185028, 0.07737963646650314, 0.07552199065685272, 0.07449808716773987, 0.07249820232391357, 0.05896108224987984, 0.055533818900585175, 0.05508645996451378, 0.05137838423252106, 0.04826238751411438, 0.04680776223540306, 0.04311529919505119, 0.03925006836652756, 0.03724028542637825, 0.0341876745223999, 0.024867171421647072, 0.024494217708706856, 0.02410637028515339, 0.015514456667006016, 0.014992299489676952, 0.014001564122736454, 0.01154907327145338, 0.008563099429011345, 0.005408031865954399]}, "Qwen3-4B": {"model_id": "Qwen/Qwen3-Embedding-4B", "vector": [-0.00048386966227553785, 0.04465104267001152, -0.0003113269922323525, -0.012002968229353428, -0.002205545548349619, 0.02556632272899151, 0.014883681200444698, -0.023885907605290413, -0.005521365441381931, 0.02952730283141136, 0.05233294144272804, 0.07729911804199219, 0.010202523320913315, -0.021965432912111282, 0.01800445280969143, -0.006571625359356403, 0.05161276459693909, -0.007621884811669588, -0.0022505566012114286, -0.0025356269907206297, -0.006001484114676714, 0.04849199205636978, 0.0352887287735939, 0.02280564047396183, 0.007051744032651186, -0.026886649429798126, -0.024486055597662926, 0.011522850021719933, 0.02232552133500576, -0.048732053488492966, 0.039609797298908234, -0.0037659313529729843, 0.015963947400450706, -0.039609797298908234, 0.00013878432218916714, -0.02700667828321457, -0.0352887287735939, 0.005431343335658312, 0.020044956356287003, 0.04801187291741371, -0.009002226404845715, 0.02652656100690365, -0.012303042225539684, 0.016924185678362846, 0.018724631518125534, -0.01704421453177929, 0.009362315759062767, -0.03552878648042679, -0.013203265145421028, -0.02280564047396183, -0.006031491793692112, 0.013683384284377098, -0.08017982542514801, -0.026286501437425613, -0.010982716456055641, 0.014703636057674885, 0.02604644186794758, 0.0011627875501289964, 0.003210793947800994, -0.002400593599304557, 0.01572388783097267, 0.01620400696992874, 0.009182270616292953, -0.018244512379169464, -0.008282048627734184, -0.022445550188422203, -0.01620400696992874, -0.0012153005227446556, 0.024846144020557404, 0.021485313773155212, -0.007291803136467934, 0.021005194634199142, -0.01992492750287056, 0.028807124122977257, -0.0007051744032651186, -0.0069317142479121685, -0.0046511502005159855, -0.01068264152854681, 0.021245254203677177, -0.005251298658549786, 0.018604600802063942, -0.007051744032651186, 0.011582864448428154, 0.04417092353105545, 0.00313577544875443, 0.0007651892374269664, -0.021725373342633247, -0.0030457533430308104, -0.021245254203677177, -0.011042730882763863, 0.014103488065302372, -0.058094367384910583, -0.017764393240213394, -0.05329317972064018, -0.005341320764273405, -0.000150974839925766, -0.012843175791203976, -0.021245254203677177, -0.004741172306239605, 0.014343547634780407, -0.0030607569497078657, -0.005371328443288803, 0.04129021242260933, 0.016324037685990334, 0.047771815210580826, -0.007231788244098425, -0.02376587688922882, -0.014283532276749611, -0.008282048627734184, -0.006661647465080023, 0.010502597317099571, -0.015843918547034264, 0.046331457793712616, 0.016804154962301254, -0.0036158941220492125, -0.007321810815483332, 0.02748679742217064, 0.0018904674798250198, -3.4696080547291785e-05, -0.037689320743083954, -0.008162018842995167, 0.005131268873810768, -0.02508620359003544, 0.01656409725546837, -0.0005888956366106868, -0.0032858126796782017, -0.005761425010859966, -0.03144777566194534, 0.015003710053861141, -0.0007389327511191368, -0.029767362400889397, 0.009662389755249023, 0.012903191149234772, 0.006601632572710514, -0.0029407271649688482, 0.021245254203677177, 0.006361573468893766, -0.024005936458706856, -0.0011102745775133371, -0.0012153005227446556, -0.001965485978871584, -0.0017329285619780421, 0.006151521112769842, 0.004561128094792366, 0.00069767254171893, 0.009542359970510006, -0.00021849153563380241, -0.005971476901322603, 0.022445550188422203, -0.0006451595691032708, 0.008882196620106697, -0.01800445280969143, 0.027726856991648674, 0.007561869919300079, 0.007651892490684986, 0.0058814543299376965, -0.0021755381021648645, 0.008402077481150627, 0.010202523320913315, -0.007981973700225353, -0.002655656775459647, 0.005611387547105551, -0.002055508317425847, -0.012783161364495754, -0.0015978951705619693, 0.009782419539988041, 0.021245254203677177, 0.01716424524784088, -0.005851447116583586, -0.022925669327378273, -0.006991729140281677, 0.0, -0.013323294930160046, -0.019324779510498047, -0.0032708088401705027, -0.012243027798831463, -0.0009902449091896415, -0.056173890829086304, -0.02616647072136402, -0.013923442922532558, -0.003210793947800994, 0.021725373342633247, 0.0035408756230026484, -0.0071717738173902035, -0.01572388783097267, -0.012423072010278702, -0.007801929488778114, 0.019084719941020012, 0.016804154962301254, -0.0027606827206909657, -0.0048612020909786224, -0.007051744032651186, 0.012122998014092445, -0.015003710053861141, 0.005311313550919294, 0.0014478580560535192, -0.01356335449963808, 0.01656409725546837, 0.043450746685266495, -0.00498123187571764, 0.0020855157636106014, 0.02232552133500576, 0.0014178506098687649, 0.024005936458706856, -0.020525075495243073, -0.03744926303625107, -0.0028357012197375298, -0.021125223487615585, 0.018844660371541977, -0.010862686671316624, 0.007741914596408606, -0.017284274101257324, -0.0069317142479121685, -0.039129678159952164, 0.0012303042458370328, 0.023405788466334343, -0.013443324714899063, 0.009542359970510006, 0.004531120415776968, -0.012062983587384224, -0.0023705861531198025, 0.0035858869086951017, -0.0003357080277055502, 0.030487539246678352, 0.0009039735305123031, 0.018724631518125534, 0.00044636038364842534, -0.0019504823721945286, -0.016804154962301254, 0.01716424524784088, 0.026766618713736534, 0.007861943915486336, -0.004471105523407459, -0.003825946245342493, 0.013683384284377098, -0.0034958645701408386, -0.02328575775027275, -0.0026106457225978374, -0.002415597438812256, 0.015963947400450706, -0.01764436438679695, -0.009182270616292953, -0.021125223487615585, -0.008882196620106697, -0.016804154962301254, -0.004051001742482185, 0.005341320764273405, -0.02376587688922882, -0.015363799408078194, -0.010202523320913315, -0.0026106457225978374, -0.0016128988936543465, 0.006481602787971497, -0.00438108341768384, 0.0006901706801727414, -0.010262537747621536, 0.003315820125862956, -0.008162018842995167, -0.012483087368309498, 0.008522107265889645, 0.011042730882763863, 0.021605342626571655, 0.005731417331844568, 0.007201781030744314, 0.002655656775459647, 0.04801187291741371, -0.014883681200444698, -0.024125967174768448, -0.008642137050628662, -0.030487539246678352, 0.04129021242260933, -0.015303784981369972, 0.0033458273392170668, 0.023885907605290413, 0.021965432912111282, -0.004561128094792366, 0.013443324714899063, 0.009842433966696262, 0.011822924017906189, 0.005161276552826166, 0.007531862705945969, 0.01992492750287056, 0.007801929488778114, -0.006541617680341005, -0.02760682813823223, -0.02184540219604969, 0.0025956418830901384, -0.005221291445195675, -0.02604644186794758, -0.007591877598315477, 0.02508620359003544, -0.004231046419590712, -0.005011239089071751, 0.0025056195445358753, -0.004171031527221203, -0.01356335449963808, -0.010742656886577606, -0.009782419539988041, 0.01656409725546837, -0.000982742989435792, -0.0208851657807827, 0.007801929488778114, 0.011702894233167171, 0.00876216683536768, -0.0035408756230026484, -0.016924185678362846, -0.0028206976130604744, 0.022205490618944168, -0.013863428495824337, 0.003990986850112677, 0.0030307495035231113, 0.017284274101257324, -0.005341320764273405, 0.01656409725546837, 0.01668412610888481, -0.03192789480090141, -0.010202523320913315, -0.010562611743807793, -0.027726856991648674, -0.027846885845065117, 0.01656409725546837, -0.03360830992460251, -0.02664658986032009, -0.01308323536068201, 0.0007951966836117208, 0.010502597317099571, -0.013503339141607285, 0.025806382298469543, -0.01668412610888481, 0.003870957298204303, 0.007231788244098425, 0.008462092839181423, 0.00339083862490952, -0.022205490618944168, 0.0046511502005159855, -0.022685609757900238, -0.005941469222307205, 0.003375834785401821, 0.012423072010278702, -0.00249061593785882, -0.02748679742217064, 0.004591135308146477, -0.006301558576524258, 0.018124481663107872, -0.026286501437425613, 0.008462092839181423, 0.006961721461266279, -0.005791432224214077, -0.005521365441381931, -0.018124481663107872, -0.00249061593785882, -0.015363799408078194, -0.010862686671316624, -0.023045700043439865, 0.04081009328365326, -0.0024306010454893112, -0.0005513863870874047, -0.01254310179501772, 0.0012303042458370328, -0.015123739838600159, 0.0014928692253306508, 0.0067216623574495316, 0.023885907605290413, 0.008642137050628662, -0.03888961672782898, 0.02184540219604969, 0.002775686327368021, 0.012603117153048515, 0.012423072010278702, -0.017884422093629837, 0.01944480836391449, -0.04225044697523117, 0.023045700043439865, -0.0011252783006057143, 0.0007014234433881938, 0.01374339871108532, -0.004921216983348131, 0.006331565789878368, 0.017284274101257324, 0.008642137050628662, -0.012963205575942993, -0.01308323536068201, -0.019204748794436455, 0.020164987072348595, 0.005791432224214077, -0.012843175791203976, -0.005431343335658312, -0.010082493536174297, 0.0016128988936543465, -0.00996246375143528, 0.02184540219604969, 0.004921216983348131, -0.01620400696992874, 0.01446357648819685, -0.030727598816156387, 0.03336825221776962, -0.008822182193398476, 0.0058814543299376965, 0.03144777566194534, -0.012723146937787533, 0.007981973700225353, 0.003960979636758566, -0.014343547634780407, -0.042970627546310425, 0.0029857384506613016, -0.023885907605290413, -0.007921959273517132, 0.006991729140281677, 0.015603858977556229, 0.005791432224214077, -0.018124481663107872, -0.015603858977556229, 0.005641395226120949, -0.0069317142479121685, 0.01302322093397379, -0.02280564047396183, 0.00498123187571764, -0.006451595574617386, 0.013143250718712807, 0.02136528305709362, -0.030967658385634422, -0.03504866734147072, 0.01752433367073536, -0.0014778655022382736, 0.011522850021719933, 0.00429106131196022, 0.024486055597662926, 0.015843918547034264, 0.02520623430609703, -0.02556632272899151, -0.016804154962301254, -0.0465715155005455, 0.03384837135672569, 5.204412082093768e-05, 0.00012378061364870518, -0.023405788466334343, 0.022205490618944168, -0.0034658571239560843, 0.014523591846227646, -0.0066916546784341335, 0.0417703315615654, -0.024486055597662926, 0.009122256189584732, -0.004561128094792366, -0.008882196620106697, 0.017884422093629837, -0.030127450823783875, 0.03312819451093674, 0.02712670899927616, 0.011042730882763863, -0.030967658385634422, -0.011042730882763863, 0.020525075495243073, 0.004351076204329729, 0.00373592390678823, -0.0018004452576860785, 0.008642137050628662, -0.0005926465382799506, -0.01716424524784088, -0.011462834663689137, -0.005341320764273405, -0.014523591846227646, 0.0028357012197375298, 0.0208851657807827, 0.0008064494468271732, 0.004951224662363529, -0.03984985500574112, -0.027846885845065117, 0.01704421453177929, -0.0048912097699940205, -0.005611387547105551, -0.005011239089071751, 0.00996246375143528, 0.030967658385634422, -0.018724631518125534, 0.009722404181957245, -0.028687095269560814, 0.021485313773155212, -0.028206976130604744, -0.01800445280969143, 0.016444066539406776, -0.003525872016325593, -0.0018829656764864922, 0.0028507050592452288, -0.000566390051972121, -0.010742656886577606, -0.008402077481150627, 0.00429106131196022, -0.0011252783006057143, 0.022565580904483795, -0.0033458273392170668, 0.0465715155005455, -0.018844660371541977, -0.007051744032651186, -0.0015003710286691785, 0.018724631518125534, -0.0016729136696085334, -0.013263280503451824, 0.011282790452241898, 0.010502597317099571, -0.028086945414543152, 0.004591135308146477, -0.026286501437425613, -0.015603858977556229, -0.023405788466334343, 0.04032997414469719, -0.007561869919300079, -0.015483829192817211, 0.01896468922495842, 0.00018004453158937395, 0.01446357648819685, 0.011942953802645206, -0.022085461765527725, 0.023045700043439865, 0.0022355527617037296, -0.00369091285392642, -0.010622627101838589, 0.021005194634199142, -0.014403562061488628, -0.030487539246678352, -0.020164987072348595, 0.020525075495243073, 0.028206976130604744, -0.023165728896856308, 0.0028206976130604744, 0.019204748794436455, 0.009602374397218227, 0.04465104267001152, 0.00858212262392044, -0.020285015925765038, 0.05857448652386665, 0.003165782894939184, 3.1179584766505286e-05, 0.01800445280969143, -0.0025056195445358753, 0.004831194877624512, 0.0029857384506613016, 0.010982716456055641, 0.015843918547034264, 0.01620400696992874, 0.0046511502005159855, 0.012122998014092445, 0.010262537747621536, 0.028687095269560814, 0.05905460566282272, -0.0208851657807827, -0.009662389755249023, 0.02556632272899151, 0.03288813307881355, 0.00498123187571764, 0.004201038740575314, -0.007861943915486336, 0.013203265145421028, 0.02664658986032009, 0.04705163463950157, -0.004351076204329729, -0.012303042225539684, 0.018124481663107872, 0.015303784981369972, -0.00687169935554266, -0.03480860963463783, -0.02748679742217064, 0.02652656100690365, -0.006541617680341005, -0.015243769623339176, -0.002565634436905384, -0.023045700043439865, 0.042970627546310425, -0.011702894233167171, 0.0035858869086951017, -0.01752433367073536, -0.02616647072136402, 0.012483087368309498, -0.0013503339141607285, 0.007801929488778114, -0.006361573468893766, -0.009062240831553936, 0.0004951224545948207, -0.042010389268398285, 0.03432849049568176, -0.019684867933392525, 0.021245254203677177, 0.035768844187259674, -0.046331457793712616, -0.005311313550919294, -0.0005213789409026504, -0.015063725411891937, 0.012122998014092445, 0.00019223503477405757, 0.019564839079976082, -0.03144777566194534, -0.0417703315615654, -0.009182270616292953, -0.006751669570803642, 0.0057014101184904575, 0.00738182570785284, 0.0046811578795313835, -0.03192789480090141, 0.010862686671316624, -0.004471105523407459, -0.013383309356868267, -0.019564839079976082, -0.025806382298469543, -0.018724631518125534, 0.009662389755249023, 0.010502597317099571, 0.06817685812711716, 0.03600890561938286, 0.013323294930160046, 0.03240801393985748, 0.02748679742217064, 0.014523591846227646, -0.04513116180896759, -0.016804154962301254, 0.0005813937750644982, 0.0018079470610246062, -0.01704421453177929, 0.0160839781165123, -0.012483087368309498, -0.00996246375143528, -0.025926411151885986, -0.011222775094211102, 0.005641395226120949, -0.026886649429798126, 0.006991729140281677, -0.018604600802063942, -0.023645848035812378, -0.024366026744246483, 0.0012903191382065415, 0.023885907605290413, -0.029287243261933327, 0.004351076204329729, 0.009902449324727058, 0.007081751246005297, -0.01896468922495842, 0.00042948120972141623, -0.030487539246678352, 0.029287243261933327, 0.0030457533430308104, 0.005551372654736042, 0.011942953802645206, 0.014103488065302372, -0.0019129731226712465, -0.027726856991648674, -0.010022478178143501, 0.017764393240213394, 0.010382567532360554, -0.03144777566194534, 0.00948234461247921, 0.02376587688922882, -0.028567064553499222, -0.002775686327368021, 0.00948234461247921, 0.0321679562330246, 0.012483087368309498, -0.001867961953394115, 0.027246737852692604, -0.036729082465171814, -0.006661647465080023, 0.006961721461266279, 0.03192789480090141, -0.013863428495824337, -0.011222775094211102, 0.02040504664182663, 0.007021736353635788, -0.008282048627734184, -0.010082493536174297, 0.005491358228027821, -0.004621142987161875, -0.007561869919300079, -2.942133869510144e-05, -0.01068264152854681, 0.012603117153048515, 0.024366026744246483, -0.003810942405834794, 0.03336825221776962, 0.042490508407354355, 0.011402820236980915, 0.017404304817318916, 0.039609797298908234, 0.013683384284377098, 0.03456854820251465, -0.006211536005139351, 0.005371328443288803, 0.005311313550919294, 0.015483829192817211, -0.0021605342626571655, -0.008882196620106697, -0.021005194634199142, 0.03600890561938286, 0.011102745309472084, 0.03984985500574112, 0.01704421453177929, 0.03360830992460251, 0.08306054025888443, -0.011642878875136375, 0.002565634436905384, 0.030727598816156387, -0.04969228804111481, -0.006211536005139351, 0.013623368926346302, -0.0001434729783795774, 0.015363799408078194, -0.006601632572710514, 0.006901707034558058, 0.004531120415776968, 0.01800445280969143, -0.004081009421497583, -0.011702894233167171, -0.00027569319354370236, 0.013203265145421028, -0.009362315759062767, -0.007411832921206951, -0.0014853673055768013, -0.01716424524784088, -0.023645848035812378, -0.022445550188422203, -0.013803414069116116, 0.019324779510498047, -0.021005194634199142, -0.03264807537198067, -0.036969143897295, 0.022085461765527725, 0.007981973700225353, -0.001657910062931478, -0.012423072010278702, -0.024125967174768448, 0.01716424524784088, -0.0020855157636106014, -0.001717924838885665, 0.02460608445107937, -0.0023855899926275015, -0.015183755196630955, -0.01800445280969143, -0.02280564047396183, 0.0012903191382065415, 0.0027606827206909657, 0.029167212545871735, -0.02556632272899151, -0.01668412610888481, 0.023165728896856308, -0.0037509275134652853, 0.00438108341768384, -0.00279069016687572, 0.011642878875136375, 0.01752433367073536, -0.0643359124660492, -0.007261795923113823, 0.0011177763808518648, -0.0037209203001111746, 0.0011177763808518648, -0.0022955676540732384, 0.00047074141912162304, -0.022085461765527725, -0.018364541232585907, 0.011402820236980915, 0.022685609757900238, -0.012723146937787533, -0.01800445280969143, -0.011582864448428154, -0.02760682813823223, -0.004921216983348131, -0.005491358228027821, 0.015963947400450706, -0.02568635158240795, 0.024366026744246483, -0.02796691656112671, -0.015243769623339176, 0.006331565789878368, -0.0160839781165123, -0.03384837135672569, 0.020044956356287003, 0.03288813307881355, 0.03384837135672569, 0.017404304817318916, -0.0033608311787247658, -0.0009114753920584917, -0.0048612020909786224, 0.05593383312225342, 0.002415597438812256, -0.04273056611418724, 0.004321068525314331, -0.011702894233167171, -0.018244512379169464, -0.0017479322850704193, -0.013323294930160046, -0.008402077481150627, -0.00738182570785284, 0.02844703570008278, 0.023885907605290413, 0.02508620359003544, 0.020525075495243073, -0.010082493536174297, 0.0018904674798250198, 0.00687169935554266, 0.0160839781165123, -0.007981973700225353, 0.01896468922495842, -0.003960979636758566, -0.007231788244098425, -0.01752433367073536, -0.0352887287735939, 0.008942211046814919, 0.028086945414543152, 0.012002968229353428, -0.02712670899927616, 0.012062983587384224, -0.01572388783097267, -0.018244512379169464, 0.036729082465171814, 0.0007239290280267596, -0.003015745896846056, -0.021725373342633247, 0.024486055597662926, -0.015183755196630955, -0.03360830992460251, 0.047771815210580826, 0.01668412610888481, 0.024005936458706856, 0.058094367384910583, 0.007651892490684986, 0.037689320743083954, 0.027246737852692604, 0.01374339871108532, 0.005281305871903896, -0.009662389755249023, -0.009362315759062767, -0.02844703570008278, -0.006901707034558058, -0.004141024313867092, 0.015363799408078194, 0.0011627875501289964, -0.006901707034558058, 0.006301558576524258, -0.008702152408659458, 0.024486055597662926, 0.005971476901322603, 0.020285015925765038, 0.021725373342633247, 0.00858212262392044, 0.02040504664182663, 0.022205490618944168, 0.00996246375143528, -0.01308323536068201, -0.013323294930160046, 0.004501113202422857, 0.0025956418830901384, -0.03192789480090141, -0.002130526816472411, 0.010262537747621536, 0.021965432912111282, 0.043930865824222565, -0.018724631518125534, 0.0352887287735939, 0.006631640251725912, -0.016444066539406776, 0.04225044697523117, -0.03840949758887291, -0.009662389755249023, 0.004141024313867092, -0.00996246375143528, 0.010142507962882519, -0.0029707346111536026, -0.016444066539406776, 0.016804154962301254, -0.02280564047396183, 0.0208851657807827, -0.028086945414543152, -0.03264807537198067, -0.018364541232585907, 0.02760682813823223, -0.007981973700225353, 0.0017329285619780421, 0.024125967174768448, 0.007861943915486336, -0.021245254203677177, -0.0069317142479121685, -0.027726856991648674, -0.028567064553499222, 0.015963947400450706, 0.02184540219604969, 0.025446293875575066, 0.005191283766180277, 0.015963947400450706, -0.02760682813823223, 0.015963947400450706, -0.015243769623339176, 0.0035708830691874027, 0.0008627133793197572, -0.009182270616292953, 0.012002968229353428, 0.006421587895601988, 0.002055508317425847, 0.00024193483113776892, -0.014703636057674885, 0.04225044697523117, 0.009542359970510006, -0.009902449324727058, 0.02184540219604969, 0.005521365441381931, -0.022205490618944168, -0.012303042225539684, -0.019804898649454117, -0.015303784981369972, -0.00876216683536768, 0.0021755381021648645, 0.015183755196630955, 0.03264807537198067, 0.0006001483998261392, -0.02424599602818489, -0.02556632272899151, -0.026286501437425613, 0.0046811578795313835, 0.027246737852692604, -0.02136528305709362, -0.019084719941020012, -0.0011102745775133371, 0.016804154962301254, -0.02760682813823223, 0.030007420107722282, 0.018364541232585907, 0.012423072010278702, -0.004231046419590712, 0.01752433367073536, 0.012783161364495754, 0.001605396973900497, -0.017764393240213394, 0.021725373342633247, -0.00339083862490952, -0.04705163463950157, -0.010922701098024845, 0.03648902475833893, 0.01668412610888481, -0.010022478178143501, 0.011522850021719933, 0.013683384284377098, 0.02460608445107937, -0.018244512379169464, 0.0008589624194428325, 0.01992492750287056, -0.03312819451093674, -0.0034208460710942745, -0.0005063752178102732, 0.013203265145421028, 0.05065252631902695, 0.019324779510498047, -0.014643621630966663, 0.004621142987161875, -0.02232552133500576, 0.005041246768087149, -0.0012753154151141644, -0.024966174736618996, -0.005161276552826166, 0.03360830992460251, -0.012963205575942993, 0.04561128094792366, 0.01446357648819685, 0.020645106211304665, 0.011582864448428154, -0.013203265145421028, -0.018124481663107872, -0.013983458280563354, -0.023885907605290413, -0.0035408756230026484, 0.016924185678362846, 0.01494369562715292, 0.00558138033375144, 0.009122256189584732, 0.01992492750287056, 0.0018754637567326427, -0.0007501855143345892, 0.0015603859210386872, -0.010322553105652332, -0.038649559020996094, -0.004831194877624512, 0.014043472707271576, -0.00249061593785882, 0.005761425010859966, 0.021485313773155212, -0.010082493536174297, 0.026406530290842056, -0.005521365441381931, 0.020765135064721107, 0.0001772313262335956, -0.018724631518125534, 0.03168783709406853, 0.003210793947800994, 0.041530270129442215, 0.005521365441381931, 0.026406530290842056, -0.027846885845065117, 0.0067216623574495316, -0.014043472707271576, 0.007591877598315477, 0.015003710053861141, -0.007681899704039097, -0.02040504664182663, 0.015963947400450706, 0.018244512379169464, 0.03408842906355858, -0.0035858869086951017, -0.015843918547034264, 0.016804154962301254, -0.006421587895601988, 0.035768844187259674, -0.019684867933392525, 0.05377329885959625, 0.008222033269703388, 0.022445550188422203, 0.029767362400889397, 0.010802671313285828, -0.011102745309472084, -0.018724631518125534, -0.005731417331844568, -0.018244512379169464, 0.0008402077946811914, 0.021005194634199142, 0.006451595574617386, 0.022085461765527725, 0.018124481663107872, -0.011462834663689137, -0.03240801393985748, -0.008462092839181423, 0.01896468922495842, 0.007081751246005297, 0.010082493536174297, 0.04897211119532585, 0.012002968229353428, -0.00618152879178524, -0.010802671313285828, 0.004321068525314331, 0.036969143897295, -0.04993234947323799, 0.00017629360081627965, 0.00026819133199751377, 0.022925669327378273, -0.006631640251725912, -0.023885907605290413, -0.004411091096699238, -0.04273056611418724, -0.02184540219604969, 0.009542359970510006, 0.01656409725546837, 0.027246737852692604, -0.028567064553499222, -0.009422330185770988, 0.020525075495243073, 0.015963947400450706, -0.006061499007046223, 0.02568635158240795, 0.008162018842995167, 0.002265560207888484, 0.019204748794436455, -0.006901707034558058, -0.00438108341768384, -0.019204748794436455, 0.02280564047396183, 0.013443324714899063, 0.045371219515800476, 0.0003113269922323525, 0.014823665842413902, -0.016804154962301254, 0.009722404181957245, 0.010622627101838589, 0.0019129731226712465, -0.013143250718712807, -0.03144777566194534, -0.02184540219604969, -0.021125223487615585, -0.0019954934250563383, -0.018844660371541977, 0.042010389268398285, -0.011102745309472084, -0.020044956356287003, 0.005191283766180277, -0.002700667828321457, -0.01716424524784088, -0.0018829656764864922, -0.009722404181957245, -0.0029857384506613016, -0.018244512379169464, -0.0289271529763937, -0.019324779510498047, 0.014643621630966663, -0.03408842906355858, -0.02376587688922882, -0.005131268873810768, -0.004411091096699238, -0.0008252040715888143, 0.03360830992460251, -0.010382567532360554, 0.0010877690510824323, 0.00558138033375144, -0.01374339871108532, 0.0017329285619780421, -0.025326263159513474, -0.013803414069116116, 0.01374339871108532, -0.04513116180896759, -0.005221291445195675, -0.021125223487615585, 0.008162018842995167, 0.011342804878950119, -0.030607569962739944, -0.03888961672782898, 0.01992492750287056, 0.015063725411891937, 0.03288813307881355, -0.014103488065302372, 0.02184540219604969, -0.024005936458706856, 0.021245254203677177, -0.015003710053861141, -0.0016128988936543465, -0.01188293844461441, -0.0071717738173902035, -0.006511610466986895, 0.028086945414543152, -0.01476365141570568, -0.01668412610888481, -0.026766618713736534, 0.0025206233840435743, -0.017404304817318916, 0.002070512156933546, 0.0013278283877298236, 0.020044956356287003, -0.02136528305709362, -0.011462834663689137, 0.035768844187259674, -0.013383309356868267, -0.0028357012197375298, 0.025446293875575066, 0.0321679562330246, -0.0006901706801727414, 0.0071717738173902035, -0.0008739661425352097, -0.019804898649454117, 0.023885907605290413, 0.03360830992460251, -0.008642137050628662, 0.012423072010278702, 0.014703636057674885, 0.01116276066750288, -0.019564839079976082, -0.007621884811669588, -0.002565634436905384, -0.013503339141607285, 0.05449347570538521, 0.013803414069116116, 0.01188293844461441, -0.011282790452241898, 0.009722404181957245, -0.0048612020909786224, 0.0321679562330246, 0.01572388783097267, 0.013623368926346302, 0.004201038740575314, -0.038169439882040024, -0.023405788466334343, 0.024486055597662926, 0.01800445280969143, 0.0019354786491021514, 0.046331457793712616, -0.004201038740575314, -0.0321679562330246, -0.0020104972645640373, -0.0208851657807827, 0.019084719941020012, -0.02040504664182663, 0.02556632272899151, -0.018604600802063942, -0.029647331684827805, -0.005521365441381931, 0.02232552133500576, 0.0003825946187134832, 0.009902449324727058, 0.02568635158240795, -0.021005194634199142, -0.00154538219794631, -0.028327004984021187, -0.006811684463173151, -0.024005936458706856, 0.020765135064721107, 0.019204748794436455, -0.024366026744246483, 0.023405788466334343, 0.0010877690510824323, 0.008642137050628662, -0.037689320743083954, -0.029047183692455292, -0.00804198905825615, -0.015003710053861141, -0.008162018842995167, 0.02328575775027275, 0.028807124122977257, -0.01764436438679695, 0.046811576932668686, -0.015483829192817211, -0.025326263159513474, -0.003165782894939184, 0.011642878875136375, -0.0014703635824844241, 0.012783161364495754, 0.0010652634082362056, -0.006391580682247877, 0.031207717955112457, 0.00924228597432375, 0.025326263159513474, -0.030727598816156387, 0.0352887287735939, 0.038649559020996094, -0.016924185678362846, 0.0019129731226712465, 0.01476365141570568, -0.07201781123876572, 0.037689320743083954, 0.042490508407354355, -0.03336825221776962, 0.03480860963463783, 0.0352887287735939, -0.000641408609226346, 0.007651892490684986, -0.023645848035812378, -0.017404304817318916, 0.007981973700225353, -0.03360830992460251, -0.004801187198609114, 0.0011102745775133371, 0.005311313550919294, -0.00876216683536768, 0.00858212262392044, -0.03432849049568176, 0.026886649429798126, -0.007051744032651186, 5.180968946660869e-05, 0.03192789480090141, -0.005521365441381931, -0.019684867933392525, 0.014643621630966663, -0.0005401335656642914, 0.008942211046814919, 0.01254310179501772, 0.013623368926346302, -0.017764393240213394, 0.03744926303625107, -0.0003863455494865775, 0.020525075495243073, 0.01494369562715292, 0.029167212545871735, -0.004141024313867092, -0.010322553105652332, 0.009302300401031971, 0.00738182570785284, 0.015243769623339176, -0.038649559020996094, 0.022445550188422203, 0.024486055597662926, -0.03384837135672569, 0.028807124122977257, 0.035768844187259674, -0.0017629360081627965, 0.037209201604127884, -0.020525075495243073, 0.010262537747621536, 0.006361573468893766, -0.026286501437425613, 0.03264807537198067, 0.0027306752745062113, -0.02040504664182663, -0.01068264152854681, -0.01044258289039135, -0.016444066539406776, 0.009062240831553936, 0.016804154962301254, 0.0059114620089530945, 0.009722404181957245, 0.017764393240213394, -0.04849199205636978, 0.01668412610888481, -0.03936973586678505, 0.014103488065302372, 0.007741914596408606, -0.003075760556384921, -0.044410981237888336, -0.028807124122977257, 0.0006901706801727414, 0.02328575775027275, 0.019564839079976082, -0.0019354786491021514, -0.009362315759062767, -0.03888961672782898, -0.018244512379169464, -0.03840949758887291, -0.014523591846227646, -0.004801187198609114, 0.019084719941020012, -0.001905471202917397, 0.01704421453177929, 0.002070512156933546, -0.005041246768087149, 0.021485313773155212, 0.005191283766180277, 0.011942953802645206, -0.013923442922532558, 0.0002606894704513252, -0.004771179985255003, 0.03312819451093674, -0.00924228597432375, 0.02604644186794758, -0.00876216683536768, 3.610267958720215e-05, -0.009002226404845715, 0.01302322093397379, 0.00747184781357646, -0.016804154962301254, 0.004741172306239605, 0.02040504664182663, 0.03168783709406853, -0.024005936458706856, 0.0027606827206909657, 0.012303042225539684, 0.03744926303625107, 0.010502597317099571, 0.015243769623339176, 0.006961721461266279, -0.014103488065302372, -0.028567064553499222, -0.015603858977556229, -0.0321679562330246, -0.030727598816156387, 0.01572388783097267, 0.02664658986032009, -0.041530270129442215, -0.0005701410118490458, 0.028567064553499222, -0.013803414069116116, 0.01572388783097267, -0.00219054170884192, 0.03600890561938286, -0.019324779510498047, -0.013863428495824337, -0.031207717955112457, -0.008282048627734184, 0.016444066539406776, -0.012783161364495754, 0.014163502492010593, -0.007591877598315477, -0.009422330185770988, -0.003075760556384921, -0.036248963326215744, -0.0026106457225978374, -0.003210793947800994, 0.019684867933392525, -0.004951224662363529, 0.01302322093397379, -0.0022505566012114286, 0.006001484114676714, -0.055693771690130234, -0.022445550188422203, 0.0016654118662700057, 0.022685609757900238, -0.037209201604127884, 0.010862686671316624, -0.000641408609226346, 0.029647331684827805, 0.02712670899927616, 0.01044258289039135, -0.018844660371541977, 0.024005936458706856, -0.00858212262392044, 0.01494369562715292, 0.023405788466334343, 0.023405788466334343, 0.03408842906355858, 0.07153768837451935, -0.015843918547034264, 0.022445550188422203, -0.023645848035812378, -0.004771179985255003, 0.029047183692455292, -0.007111758925020695, -0.025926411151885986, 0.002565634436905384, -0.003645901568233967, 0.003510868176817894, 0.0024456048849970102, -0.011462834663689137, 0.019084719941020012, 0.030967658385634422, 0.006901707034558058, 0.013503339141607285, 0.0069317142479121685, 0.00810200348496437, 0.007261795923113823, -0.014583606272935867, -0.02652656100690365, 0.024486055597662926, 0.013383309356868267, -0.011702894233167171, 0.03432849049568176, 0.02376587688922882, -0.020645106211304665, 0.005791432224214077, 0.006451595574617386, 0.0208851657807827, 0.001132780103944242, 0.008282048627734184, -0.007261795923113823, -0.039609797298908234, 0.00369091285392642, -0.00804198905825615, 0.011762908659875393, -0.011762908659875393, -0.0321679562330246, 0.006331565789878368, -0.014283532276749611, -0.002130526816472411, -0.01476365141570568, 0.01656409725546837, -0.012663131579756737, -0.018244512379169464, -0.005791432224214077, 0.005641395226120949, -0.0030607569497078657, 0.026286501437425613, 0.014103488065302372, 0.005131268873810768, -0.014703636057674885, -0.007981973700225353, -0.03936973586678505, -0.001657910062931478, -0.02232552133500576, -0.0417703315615654, 0.0054613505490124226, -0.010982716456055641, -0.000828955031465739, 0.011822924017906189, -0.01752433367073536, 0.0007314308895729482, 0.026886649429798126, -0.026886649429798126, -0.006361573468893766, 0.03240801393985748, -0.00498123187571764, 0.030607569962739944, 0.024366026744246483, 0.03936973586678505, 0.0321679562330246, 0.003990986850112677, -0.014103488065302372, -0.024125967174768448, -0.0012303042458370328, 0.013683384284377098, -0.030487539246678352, -0.024966174736618996, -0.01992492750287056, 0.03432849049568176, -0.00948234461247921, 0.007351818028837442, 0.006901707034558058, -0.021965432912111282, 0.005101261660456657, -0.0027306752745062113, -0.014883681200444698, 0.03360830992460251, 0.02520623430609703, 0.0022355527617037296, -0.004321068525314331, 0.028807124122977257, -0.00048386966227553785, 0.011042730882763863, -0.0035858869086951017, -0.01308323536068201, -0.012783161364495754, 0.008522107265889645, 0.004351076204329729, 0.009302300401031971, 0.000566390051972121, -0.020525075495243073, -0.03360830992460251, 0.015483829192817211, -0.006571625359356403, 0.02760682813823223, 0.030487539246678352, -0.00627155089750886, 0.014283532276749611, 0.004261053632944822, -0.0013128246646374464, -0.012723146937787533, 0.006601632572710514, -0.03360830992460251, 0.006061499007046223, 0.0015003710286691785, -0.007021736353635788, -0.004951224662363529, 0.020525075495243073, 0.013983458280563354, 0.025326263159513474, -0.007051744032651186, -0.01716424524784088, 0.02556632272899151, 0.018604600802063942, 0.00339083862490952, -0.021965432912111282, 0.012843175791203976, 0.006031491793692112, 0.014823665842413902, -0.010502597317099571, -0.00558138033375144, 0.005611387547105551, 0.014103488065302372, 0.0002625649212859571, 0.009782419539988041, -0.010202523320913315, 0.006751669570803642, 0.03288813307881355, -0.02652656100690365, 0.009662389755249023, -0.02232552133500576, 0.011462834663689137, -0.037209201604127884, -0.017764393240213394, 0.010322553105652332, 0.011342804878950119, -0.021005194634199142, -0.01572388783097267, 0.00627155089750886, 0.004141024313867092, -0.012183013372123241, 0.016444066539406776, -0.00429106131196022, -0.008522107265889645, 0.02664658986032009, -0.017404304817318916, 0.02952730283141136, 0.02652656100690365, 0.008162018842995167, -0.009362315759062767, 0.02556632272899151, -0.012122998014092445, -0.01668412610888481, -0.007081751246005297, -0.012663131579756737, -0.0029857384506613016, 0.015843918547034264, 0.007981973700225353, 0.013983458280563354, -0.0066916546784341335, -0.010142507962882519, -0.008642137050628662, 0.01374339871108532, -0.003870957298204303, 0.014823665842413902, 0.022565580904483795, -0.027726856991648674, 0.02652656100690365, -0.00313577544875443, 0.02136528305709362, 0.011582864448428154, -0.012963205575942993, 0.03480860963463783, -0.004020994529128075, -0.012783161364495754, 0.009002226404845715, 0.0014628617791458964, 0.019804898649454117, 0.013143250718712807, -0.008702152408659458, 0.0005851447349414229, -0.013803414069116116, -0.00343584967777133, 0.010082493536174297, -0.009842433966696262, 0.0032408013939857483, 0.01068264152854681, -0.007261795923113823, -0.01236305758357048, -0.011522850021719933, 0.0031057680025696754, -0.0031207718420773745, -0.009902449324727058, 0.056173890829086304, 0.01236305758357048, 0.0019954934250563383, -0.019684867933392525, 0.016324037685990334, 0.015363799408078194, 0.05377329885959625, 0.011282790452241898, -0.017764393240213394, 0.026886649429798126, -0.007531862705945969, 0.022445550188422203, -0.020285015925765038, -0.02712670899927616, -0.015183755196630955, 0.012483087368309498, 0.011402820236980915, 0.003450853517279029, -0.009302300401031971, -0.024366026744246483, 0.001432854332961142, -0.019204748794436455, 0.008402077481150627, -0.013143250718712807, 0.0048912097699940205, -0.025446293875575066, -0.03480860963463783, -0.019564839079976082, -0.003870957298204303, 0.01236305758357048, -0.021605342626571655, 0.009182270616292953, -0.020765135064721107, -0.0022355527617037296, -0.009362315759062767, 0.026406530290842056, 0.02952730283141136, -0.0017779397312551737, 0.02748679742217064, -0.009842433966696262, 0.009062240831553936, 0.019804898649454117, -0.02940727211534977, 0.02232552133500576, 0.0020405047107487917, 0.000320704304613173, -0.015363799408078194, -0.004351076204329729, 0.01752433367073536, 0.03648902475833893, -0.002775686327368021, -0.003870957298204303, 0.014103488065302372, 0.004201038740575314, -0.03264807537198067, 0.005821439437568188, -0.004111016634851694, 0.005491358228027821, -0.02796691656112671, 0.0030307495035231113, 0.026406530290842056, -0.01572388783097267, -0.029167212545871735, 0.016324037685990334, -0.0035408756230026484, -0.01236305758357048, 0.007621884811669588, -0.014163502492010593, -0.022565580904483795, -0.007981973700225353, 0.04032997414469719, 0.010922701098024845, 0.01188293844461441, 0.011462834663689137, 0.0026856642216444016, -0.004921216983348131, 0.011642878875136375, 0.04129021242260933, -0.0048612020909786224, 0.007321810815483332, 0.006751669570803642, 0.0003525872016325593, -0.006571625359356403, -0.010202523320913315, -0.018844660371541977, 0.021605342626571655, 0.0036158941220492125, -0.008522107265889645, 0.024366026744246483, -0.020164987072348595, -0.02712670899927616, 0.00858212262392044, -0.028206976130604744, 0.044410981237888336, -0.02232552133500576, -0.008642137050628662, -0.006061499007046223, -0.0058814543299376965, -0.009782419539988041, 0.002700667828321457, 0.0015528840012848377, 0.015303784981369972, 0.015243769623339176, -0.019684867933392525, -0.0066916546784341335, 0.009542359970510006, 0.012663131579756737, -0.009782419539988041, -0.038169439882040024, -0.0020855157636106014, 0.036729082465171814, 0.000922728213481605, 0.005041246768087149, -0.003900964744389057, 0.0321679562330246, -0.009842433966696262, 0.0048612020909786224, 0.005551372654736042, 0.018604600802063942, -0.0008777170442044735, -0.006361573468893766, -0.0066916546784341335, -0.030247479677200317, 0.008282048627734184, -0.016924185678362846, -0.030487539246678352, -0.012062983587384224, -0.019684867933392525, -0.02940727211534977, -0.002925723558291793, -0.008822182193398476, -0.019564839079976082, -0.02604644186794758, 0.03168783709406853, -0.01446357648819685, 0.020164987072348595, -0.0003375834785401821, 0.0020405047107487917, 0.009722404181957245, 0.006211536005139351, 0.01944480836391449, 0.04993234947323799, -0.010142507962882519, 0.0037509275134652853, -0.003075760556384921, -0.010622627101838589, 0.017404304817318916, 0.008402077481150627, -0.011582864448428154, 0.0025056195445358753, -0.00738182570785284, 0.005281305871903896, -0.010562611743807793, -0.001035256078466773, -0.004501113202422857, 0.002865708665922284, 0.0003244552353862673, 0.003960979636758566, -0.016324037685990334, 0.007351818028837442, 0.00043698307126760483, -0.02280564047396183, -0.006541617680341005, -0.008702152408659458, -0.036969143897295, 0.0013278283877298236, 0.036248963326215744, 0.020765135064721107, -0.004831194877624512, 0.02184540219604969, -0.007981973700225353, -0.01896468922495842, -0.008222033269703388, 0.008222033269703388, -0.019204748794436455, -0.002265560207888484, 0.011702894233167171, -0.0008139513083733618, -0.006001484114676714, -0.0184845719486475, -0.012963205575942993, -0.01044258289039135, 0.004141024313867092, 0.011522850021719933, -0.027846885845065117, -0.007441840600222349, -0.001357835833914578, -0.004321068525314331, -0.029167212545871735, -0.004951224662363529, 0.013503339141607285, -0.001965485978871584, 0.03480860963463783, -0.009002226404845715, 0.003180786734446883, -0.018124481663107872, 0.0036158941220492125, -0.006601632572710514, -0.004621142987161875, 0.00023161977878771722, 0.03648902475833893, -0.025806382298469543, 0.0011477838270366192, -0.0034208460710942745, 0.01992492750287056, -0.01476365141570568, -0.000716427166480571, -0.009302300401031971, -0.006661647465080023, -0.019204748794436455, -0.004201038740575314, -0.007741914596408606, -0.0025206233840435743, 0.012663131579756737, -0.005521365441381931, -0.01356335449963808, 0.01446357648819685, -0.026886649429798126, 0.00996246375143528, 0.004561128094792366, 0.006571625359356403, 0.03240801393985748, -0.02508620359003544, 0.030127450823783875, -0.00339083862490952, -0.022085461765527725, -0.013383309356868267, -0.0007276799296960235, -0.014583606272935867, -0.03984985500574112, -0.007981973700225353, 0.005221291445195675, -0.016924185678362846, 0.0046811578795313835, 0.01668412610888481, 0.03792937844991684, 0.004081009421497583, 0.00558138033375144, -0.0037059164606034756, -0.03192789480090141, 0.00810200348496437, 0.0023705861531198025, -0.007921959273517132, -0.01620400696992874, 0.006811684463173151, 0.048251934349536896, -0.02556632272899151, -0.005431343335658312, 0.03408842906355858, -0.013623368926346302, -0.009842433966696262, -0.03240801393985748, -0.003525872016325593, -0.002205545548349619, 0.012303042225539684, -0.023525817319750786, 0.007501855026930571, 0.016924185678362846, 0.001320326467975974, 0.0006339067476801574, -0.011102745309472084, -0.029167212545871735, 0.014163502492010593, -0.02040504664182663, 0.0056714024394750595, 0.015603858977556229, -0.03600890561938286, 0.021725373342633247, 0.0026856642216444016, 0.028206976130604744, -0.02232552133500576, -0.027366768568754196, -0.018844660371541977, -0.02328575775027275, -0.0035858869086951017, 0.02988739125430584, -0.0013728395570069551, -0.007321810815483332, -0.005191283766180277, 0.004471105523407459, 0.016924185678362846, 0.006361573468893766, 0.020285015925765038, -6.657896301476285e-05, -0.007861943915486336, -0.0028056937735527754, 0.026406530290842056, -0.05161276459693909, 0.0019954934250563383, -0.0008627133793197572, 0.018604600802063942, -0.0321679562330246, -0.027726856991648674, -0.014703636057674885, -0.014163502492010593, 0.001282817218452692, 0.027846885845065117, 0.01656409725546837, -0.017284274101257324, -0.02520623430609703, 0.005521365441381931, 0.0071717738173902035, -0.013983458280563354, 0.0184845719486475, -0.004531120415776968, -0.0026106457225978374, 0.0004482358635868877, 0.010082493536174297, -0.009422330185770988, -0.006811684463173151, -0.03432849049568176, 0.003300816286355257, 0.007291803136467934, -0.01356335449963808, 0.001965485978871584, -0.022205490618944168, -0.0014853673055768013, 0.02556632272899151, 0.004141024313867092, -0.03168783709406853, 0.057614248245954514, -0.021245254203677177, 0.01044258289039135, 0.0007989475852809846, 0.03192789480090141, -0.020164987072348595, -0.021245254203677177, -0.005041246768087149, 0.0009039735305123031, 0.023045700043439865, -0.017884422093629837, -0.036729082465171814, 0.019564839079976082, -0.028687095269560814, -0.002205545548349619, 0.010742656886577606, 0.009722404181957245, -0.0027306752745062113, -0.023645848035812378, 0.03552878648042679, 0.022445550188422203, 0.027846885845065117, -0.018244512379169464, -0.002100519370287657, 0.019804898649454117, -0.03552878648042679, -0.009302300401031971, -0.021725373342633247, -0.02712670899927616, 0.019324779510498047, -0.03264807537198067, 0.017404304817318916, -0.017404304817318916, 0.005011239089071751, 0.01716424524784088, -0.008702152408659458, 0.04753175377845764, 0.023405788466334343, -0.05185282230377197, 0.01716424524784088, 0.03144777566194534, 0.005821439437568188, -0.005731417331844568, 0.014703636057674885, 0.00924228597432375, 0.027726856991648674, -0.012122998014092445, 0.004531120415776968, -0.010742656886577606, -0.010322553105652332, -0.019804898649454117, -0.015363799408078194, -0.0033458273392170668, -0.037689320743083954, 0.011762908659875393, 0.009302300401031971, -0.03360830992460251, 0.017884422093629837, 0.0013803413603454828, 0.013503339141607285, -0.004921216983348131, 0.01800445280969143, -0.005821439437568188, -0.029767362400889397, 0.00011252782860537991, 0.013683384284377098, -0.03168783709406853, -0.005401335656642914, -0.0006714160554111004, -0.004171031527221203, 0.015483829192817211, -0.030967658385634422, -0.006421587895601988, -0.004561128094792366, -0.014523591846227646, 2.9186905521783046e-05, -0.01188293844461441, 0.0020405047107487917, 0.00019223503477405757, 0.01944480836391449, 0.0003432098892517388, -0.04705163463950157, -0.009782419539988041, 0.00996246375143528, 0.010502597317099571, 0.042970627546310425, -0.015603858977556229, 0.029287243261933327, 0.01716424524784088, -0.01656409725546837, 0.007801929488778114, -0.007681899704039097, -0.026886649429798126, 0.029287243261933327, -0.0003188288537785411, 0.030967658385634422, 0.027846885845065117, 0.006031491793692112, -0.014283532276749611, 0.002865708665922284, -0.0048612020909786224, 0.003870957298204303, 0.02424599602818489, -0.02232552133500576, -0.003660905407741666, -0.012183013372123241, 0.038169439882040024, -0.0066916546784341335, -0.016804154962301254, -0.024125967174768448, -0.030127450823783875, 0.05857448652386665, -0.005431343335658312, -0.02136528305709362, 0.008342063054442406, 0.009722404181957245, 0.040089912712574005, -0.007591877598315477, -0.04705163463950157, 0.039609797298908234, -0.011702894233167171, 0.01068264152854681, -0.024366026744246483, -0.015063725411891937, 0.03552878648042679, 0.015963947400450706, 0.011642878875136375, 0.016924185678362846, -0.006151521112769842, -0.01068264152854681, -0.037209201604127884, 0.013383309356868267, 0.03240801393985748, 0.012483087368309498, -0.011342804878950119, -0.0056714024394750595, -0.000622653984464705, 0.005251298658549786, -0.006961721461266279, -0.015363799408078194, 0.00139534508343786, -0.0035858869086951017, -0.012423072010278702, -0.005521365441381931, 0.00124530796892941, -0.03192789480090141, -0.000566390051972121, -0.020285015925765038, -0.011522850021719933, 0.02460608445107937, -0.014343547634780407, -0.044410981237888336, -0.021245254203677177, -0.010742656886577606, -0.004171031527221203, -0.004561128094792366, -0.016444066539406776, 0.008942211046814919, 0.012963205575942993, -0.003870957298204303, 0.01656409725546837, 0.011942953802645206, -0.04465104267001152, 0.030247479677200317, -0.007741914596408606, 0.0011927949963137507, -0.016324037685990334, 0.003960979636758566, 0.011462834663689137, -0.030007420107722282, 0.0057014101184904575, -0.006151521112769842, 0.008882196620106697, 0.010622627101838589, -0.013203265145421028, -0.019084719941020012, -0.0009302300750277936, -0.007861943915486336, 0.006331565789878368, -0.018844660371541977, -0.010502597317099571, 0.008822182193398476, 0.0023255751002579927, -0.02136528305709362, -0.01044258289039135, -0.03432849049568176, -0.022925669327378273, -0.030247479677200317, -0.046811576932668686, -0.006391580682247877, 0.010082493536174297, 0.016324037685990334, 0.019684867933392525, 0.019204748794436455, 0.03600890561938286, -0.012603117153048515, -0.03744926303625107, 0.03984985500574112, -0.018364541232585907, -0.009722404181957245, 0.00924228597432375, 0.007681899704039097, 0.02760682813823223, -0.007591877598315477, -0.0018904674798250198, -0.02748679742217064, 0.0012228024424985051, 0.012603117153048515, -0.004501113202422857, -0.02376587688922882, 0.002115523209795356, -0.004201038740575314, 0.004051001742482185, 0.025446293875575066, -0.05401335656642914, -0.013323294930160046, 0.018724631518125534, -0.011462834663689137, -0.01254310179501772, -0.007231788244098425, 0.016804154962301254, -0.0002813195751514286, -0.0014103488065302372, -0.017884422093629837, -0.005101261660456657, 0.0160839781165123, 0.0008139513083733618, -0.011102745309472084, 0.0002981987490784377, -0.007441840600222349, 0.019804898649454117, 0.0013053228612989187, -0.019204748794436455, 0.028687095269560814, -0.03192789480090141, 0.015843918547034264, -0.005791432224214077, -0.005521365441381931, -0.01800445280969143, 0.010742656886577606, -0.023885907605290413, 0.015843918547034264, -0.003075760556384921, 0.030967658385634422, -0.008462092839181423, 0.004171031527221203, 0.03288813307881355, 0.024966174736618996, -0.0023855899926275015, 0.01476365141570568, 0.0054613505490124226, 0.009182270616292953, 0.007741914596408606, -0.0352887287735939, 0.017764393240213394, 0.006091506686061621, 0.019804898649454117, -0.01068264152854681, 0.028567064553499222, 0.018244512379169464, 0.010082493536174297, -0.005971476901322603, 0.02568635158240795, 0.0012002967996522784, -0.018724631518125534, -0.021965432912111282, -0.006961721461266279, -0.0046511502005159855, -0.012723146937787533, -0.01044258289039135, -0.011642878875136375, 0.038649559020996094, -0.001282817218452692, 0.017764393240213394, 0.004231046419590712, -0.014403562061488628, 0.008162018842995167, 0.01308323536068201, -0.0010127504356205463, 0.01572388783097267, 0.007531862705945969, 0.012423072010278702, 0.03192789480090141, 0.009422330185770988, 0.007261795923113823, -0.006211536005139351, -0.01764436438679695, 0.026406530290842056, 0.010262537747621536, 0.008402077481150627, 0.007681899704039097, 0.020285015925765038, 0.02040504664182663, -0.006751669570803642, -0.008162018842995167, 0.0022205491550266743, -0.00339083862490952, -0.00339083862490952, -0.03036751039326191, 0.008942211046814919, 0.01116276066750288, 0.018604600802063942, -0.000922728213481605, -0.0069317142479121685, -0.00498123187571764, 0.012062983587384224, 0.03336825221776962, -0.01656409725546837, -0.010622627101838589, -0.006451595574617386, -0.026766618713736534, 0.010382567532360554, 0.00678167724981904, 0.02748679742217064, 0.0026106457225978374, 0.045851338654756546, -0.038649559020996094, -0.03792937844991684, 0.00084770965622738, -0.0012978209415450692, -0.0022355527617037296, 0.0022505566012114286, 0.01704421453177929, 0.025926411151885986, -0.003000742057338357, 0.018844660371541977, -0.027366768568754196, -0.0011552857467904687, -0.007981973700225353, 0.011342804878950119, -0.030727598816156387, 0.01422351785004139, 0.0008589624194428325, 0.03432849049568176, -0.0046811578795313835, -0.008282048627734184, 0.02556632272899151, 0.0034658571239560843, 0.01308323536068201, 0.0008177022100426257, 0.03192789480090141, -0.035768844187259674, -0.0321679562330246, 0.010622627101838589, -0.04849199205636978, -0.006511610466986895, 0.01236305758357048, 0.010982716456055641, 0.0071417661383748055, -0.042010389268398285, 0.002700667828321457, -0.01668412610888481, 0.007111758925020695, 0.007051744032651186, -0.03504866734147072, 0.036969143897295, 0.007921959273517132, 0.007981973700225353, 0.018604600802063942, 0.0028206976130604744, 0.024125967174768448, 0.0020855157636106014, 0.028086945414543152, -0.028567064553499222, 0.05521365627646446, 0.011582864448428154, -0.010322553105652332, -0.005521365441381931, -0.006451595574617386, -0.028327004984021187, 0.016804154962301254, -0.025446293875575066, -0.0023105714935809374, -0.027846885845065117, 0.0003507117216940969, -0.020285015925765038, -0.011582864448428154, -0.026886649429798126, 0.0184845719486475, 0.03336825221776962, -0.010562611743807793, 0.04465104267001152, -0.01068264152854681, 0.029287243261933327, -0.008462092839181423, 0.006751669570803642, -0.020164987072348595, 0.03312819451093674, -0.04225044697523117, -0.00498123187571764, 0.02460608445107937, -0.023405788466334343, 0.006961721461266279, 0.0035708830691874027, 0.00249061593785882, -0.03792937844991684, -0.006601632572710514, -0.0513727031648159, 0.015063725411891937, -0.009602374397218227, 0.02472611516714096, -0.031207717955112457, -0.00858212262392044, 0.0005963974981568754, 0.04129021242260933, -0.010262537747621536, -0.010622627101838589, -0.0024456048849970102, 0.043450746685266495, -0.014403562061488628, -0.007321810815483332, 0.0036308979615569115, 0.025926411151885986, -0.060494959354400635, -0.017884422093629837, 0.03240801393985748, -0.018724631518125534, 0.005521365441381931, -0.010862686671316624, -0.04705163463950157, -0.008642137050628662, -0.022925669327378273, 0.010982716456055641, -0.005851447116583586, 0.0010652634082362056, -0.0017329285619780421, -0.01992492750287056, 0.015963947400450706, -0.01704421453177929, 0.0027456791140139103, 0.00810200348496437, 0.01944480836391449, 0.01374339871108532, -0.010262537747621536, -0.005311313550919294, -0.01656409725546837, -0.010862686671316624, 0.0017854415345937014, 0.009182270616292953, 0.015063725411891937, -0.023045700043439865, -0.02988739125430584, -0.015483829192817211, 0.005161276552826166, 0.016924185678362846, -0.03744926303625107, 0.027366768568754196, -0.020765135064721107, 0.00996246375143528, -0.011522850021719933, 0.003225797787308693, -0.020164987072348595, 0.003870957298204303, -0.022565580904483795, -0.02952730283141136, -0.015183755196630955, 0.011582864448428154, 0.012002968229353428, -0.030127450823783875, -0.019684867933392525, 0.01668412610888481, 0.011762908659875393, 0.01668412610888481, 0.005551372654736042, -0.020765135064721107, -0.02184540219604969, 0.031207717955112457, -0.020164987072348595, 0.013683384284377098, -0.01476365141570568, 0.004081009421497583, -0.0028507050592452288, -0.019564839079976082, 0.00618152879178524, 0.015303784981369972, 0.03312819451093674, -0.008822182193398476, 0.0352887287735939, 0.025446293875575066, 0.036248963326215744, 0.03480860963463783, -0.006901707034558058, 0.05545371398329735, -0.019804898649454117, -0.025446293875575066, -0.03480860963463783, -0.004531120415776968, -0.02184540219604969, 0.006511610466986895, -0.00019317277474328876, -0.02136528305709362, -0.02700667828321457, -0.003960979636758566, -0.020525075495243073, 0.0035408756230026484, 0.0008814680040813982, -0.03600890561938286, -0.005791432224214077, -0.020044956356287003, 0.017404304817318916, 0.004531120415776968, 0.037209201604127884, 0.026286501437425613, 0.020044956356287003, 0.0014178506098687649, -0.01944480836391449, 0.023645848035812378, -0.0036158941220492125, -0.011042730882763863, -0.009542359970510006, -0.0184845719486475, -0.008462092839181423, -0.010142507962882519, -0.0027306752745062113, 0.01896468922495842, -0.002100519370287657, 0.013443324714899063, 0.006361573468893766, -0.022085461765527725, 0.02472611516714096, 0.012723146937787533, -0.007561869919300079, 0.04753175377845764, 0.0160839781165123, 0.008702152408659458, 0.010982716456055641, 0.01800445280969143, 0.008222033269703388, -0.022565580904483795, 0.020645106211304665, -0.005851447116583586, -0.006031491793692112, -0.008702152408659458, -0.009062240831553936, 0.013923442922532558, 0.011642878875136375, 0.0011777912732213736, 0.02280564047396183, -0.005941469222307205, -0.0028957161121070385, 0.024366026744246483, 0.04465104267001152, 0.004141024313867092, 0.026886649429798126, 0.012183013372123241, 0.03240801393985748, 0.03192789480090141, -0.02424599602818489, 0.03984985500574112, -0.023405788466334343, 0.0025956418830901384, -0.0023705861531198025, -0.001582891447469592, 0.008222033269703388, -0.006031491793692112, -0.04129021242260933, 0.023405788466334343, 0.01068264152854681, -0.00810200348496437, -0.000753936474211514, -0.02760682813823223, 0.02508620359003544, -3.8212576328078285e-05, -0.0015603859210386872, 0.011462834663689137, -0.022925669327378273, 0.016444066539406776, 0.011402820236980915, 0.02136528305709362, -0.025926411151885986, 0.030127450823783875, 0.037689320743083954, -0.015003710053861141, -0.0007089253049343824, 0.0009977467125281692, -0.013503339141607285, -0.00618152879178524, -0.003960979636758566, 0.005371328443288803, 0.04609140008687973, -0.010622627101838589, 0.016324037685990334, 0.019324779510498047, -0.039609797298908234, -0.02568635158240795, 0.030607569962739944, 0.014643621630966663, -0.030247479677200317, -0.009302300401031971, 0.020164987072348595, 0.0036158941220492125, -0.015183755196630955, 0.015843918547034264, -0.006091506686061621, 0.010862686671316624, -0.004561128094792366, 0.009662389755249023, 0.01422351785004139, 0.0026106457225978374, -0.0184845719486475, 0.007261795923113823, 0.022445550188422203, 0.013383309356868267, 0.005971476901322603, 0.008282048627734184, 0.004621142987161875, -0.028807124122977257, -0.038649559020996094, 0.015963947400450706, -0.0017254267586395144, 0.018244512379169464, -0.00858212262392044, -0.011522850021719933, 0.009782419539988041, 0.01356335449963808, -0.0005888956366106868, 0.018244512379169464, -4.337009886512533e-05, -0.036248963326215744, -0.0069317142479121685, -0.005071253981441259, -0.018724631518125534, 0.021485313773155212, 0.00558138033375144, -0.030727598816156387, -0.01716424524784088, 0.02748679742217064, 0.018244512379169464, -0.018124481663107872, -0.009122256189584732, 0.017884422093629837, 0.025926411151885986, 0.006091506686061621, -0.013323294930160046, 0.03144777566194534, -0.015483829192817211, 0.005161276552826166, 0.0071717738173902035, 0.019684867933392525, 0.01572388783097267, -0.03600890561938286, 0.006421587895601988, 0.01896468922495842, -0.003825946245342493, -0.0003225797845516354, -0.02376587688922882, 0.006841692142188549, 0.013263280503451824, 0.006121513899415731, 0.012183013372123241, 0.04032997414469719, 0.01896468922495842, 0.04273056611418724, -0.020645106211304665, -0.0014628617791458964, 0.01446357648819685, 0.0016354044200852513, -0.003930971957743168, 0.004831194877624512]}}
{"UUID": "d65a26b8-6699-47b3-8c3a-147bef7790c2", "BM25": {"terms": ["disease", "progression", "and", "social", "cognition", "in", "behavioral", "variant", "frontotemporal", "dementia", "defining", "changes", "of", "the", "brain", "abstract", "part", "ii", "examined", "a", "scoping", "review", "149", "longitudinal", "studies", "highlighted", "established", "markers", "ftd-specific", "rating", "scales", "ftld-cdr", "ftd-frs", "informant", "questionnaires", "fbi", "cbi-r", "cognitive", "screeners", "ace-r", "composites", "imaging", "included", "grey", "matter", "atrophy", "mri", "white", "pathology", "dti", "while", "asl", "pet", "require", "further", "validation", "neurofilament", "light", "chain", "nfl", "emerged", "as", "most", "promising", "fluid", "marker", "multimodal", "approach", "tailored", "to", "genetic", "sporadic", "subtypes", "was", "recommended", "caregiver", "interviews", "n", "20", "emphasized", "symptoms", "often", "underrepresented", "quantitative", "assessments", "three", "core", "themes", "i", "loss", "emotional", "connection", "preoccupation", "restlessness", "iii", "apathy", "dependency", "impaired", "insight", "paradoxically", "reduced", "distress", "for", "patients", "but", "disrupted", "caregiver-patient", "relationships", "psychotic", "also", "quality", "life", "caregivers", "reported", "changing", "priorities", "across", "stages", "major", "gaps", "societal", "medical", "support", "project", "provided", "evidence", "differentiating", "bvftd", "63", "from", "primary", "psychiatric", "disorders", "ppd", "26", "baseline", "socio-behavioral", "overlapped", "showed", "progressive", "worsening", "behavior", "emotion", "recognition", "socio-emotional", "sensitivity", "contrast", "relative", "stability", "or", "improvement", "negative", "increased", "positive", "decreased", "higher", "serum", "correlated", "with", "decline", "underscoring", "its", "value"], "weights": [1.3434258723051877, 3.7494001600840248, 0.14374670038184365, 4.906334565902813, 2.491796646254056, 0.21442028942951794, 4.565870625661796, 4.749296162257339, 4.031246475261871, 0.9448564189856317, 4.749296162257339, 3.2186296077338508, 0.11320508107271136, 0.19828155853456195, 1.9308272409765355, 1.9796326277115897, 3.3518937128495683, 5.055890583768956, 3.839042494838729, 0.2190369697593932, 2.9754811654973774, 1.16261319778017, 5.473335931344953, 4.065082811567951, 1.562247908352496, 5.928957216184274, 3.6444412557975636, 4.803667389185874, 7.0802149264648095, 3.487790096918332, 4.658914202944987, 7.0802149264648095, 7.0802149264648095, 5.473335931344953, 4.595990523788429, 7.0802149264648095, 7.0802149264648095, 0.4940064160343204, 6.874039370923257, 7.0802149264648095, 6.209673731238575, 2.3407540754551306, 2.2899244783934884, 4.749296162257339, 4.017589063006453, 3.5520255315122884, 2.720077880387683, 2.8343546912419004, 2.7913145843685285, 4.987456629303269, 3.4600552067762598, 6.209673731238575, 3.474044978117077, 4.393520769583707, 2.3051298851909765, 2.694188452480075, 5.258508263142639, 4.517672065928297, 5.18375295193252, 7.6920348110540955, 5.714137260005033, 1.1056916711788576, 2.370636763453567, 3.7549329099624846, 3.7196527980572665, 5.512405779916915, 3.382657457376987, 2.596699570560553, 4.4626178803157375, 0.474864383868556, 3.395225593382639, 5.080923973236934, 3.8488276383893245, 1.3252599120155109, 4.595990523788429, 4.2531986526032215, 4.749296162257339, 2.838862253872108, 2.229223453691513, 4.958099423340627, 4.448262389757096, 2.988165676075393, 5.684834982251044, 4.0430561720302425, 3.1004423747383494, 2.9064182193750265, 3.581916579483604, 4.749296162257339, 2.1121690752526305, 3.2816145413767788, 3.544686698118383, 4.797654843512488, 7.0802149264648095, 6.312502709934161, 4.376948921500573, 4.169280004785095, 5.573652849359344, 4.125316226261836, 4.4626178803157375, 6.030537428489747, 3.086303174898963, 4.725944422823681, 0.30178286231993906, 1.3160263895964806, 2.2251664600419314, 5.573652849359344, 7.0802149264648095, 3.4672407657867876, 5.9514651684631685, 1.805546241943962, 2.4014146869417043, 2.593797217481437, 3.6855440290231676, 2.638217635750898, 5.258508263142639, 5.473335931344953, 2.3117160122744296, 3.2105403607967196, 3.5895272239630445, 4.376948921500573, 5.473335931344953, 2.599610145614048, 2.3339797719676523, 3.5229795743574734, 2.8126092804563254, 2.158541219398587, 5.017677405232093, 9.678738698560853, 3.4143708487141446, 0.8838196736780841, 2.6321827737203125, 3.6525313157600743, 2.4381125989432686, 10.394111426186026, 2.650394753779633, 3.3458499759707347, 7.0802149264648095, 6.555376177477278, 2.918273339060027, 3.800808043707147, 5.080923973236934, 3.6525313157600743, 4.556085224249402, 3.8587068713016275, 8.548055503291872, 3.382657457376987, 3.537399913626161, 4.328779210690462, 4.703111654133109, 1.0547583347458382, 3.92006434237017, 3.5229795743574734, 2.6565378650957987, 3.339841582784465, 3.8889276472304513, 2.5652158944582433, 3.8488276383893245, 4.155936540526398, 0.34049262564365407, 1.8940274370386245, 4.901787670488105, 1.9313655685923317, 3.4604813183352956], "k1": 1.5, "b": 0.75, "avgdl": 233.87661016949153, "N": 4425}, "SpladeV3": {"model_id": "naver/splade-v3", "tokens": ["fbi", "dementia", "##oping", "frs", "nfl", "social", "ft", "progression", "front", "##ld", "longitudinal", "##ora", "##ft", "quantitative", "ace", "abstract", "cognition", "socio", "baseline", "composite", "b", "cb", "markers", "restless", "disease", "behavioral", "priorities", "##ote", "informant", "##pres", "paradox", "##dal", "marker", "dt", "pp", "brain", "matter", "defining", "variant", "##athy", "distress", "psychotic", "paint", "worse", "progressive", "specific", "##cup", "as", "progress", "scales", "rating", "gaps", "symptoms", "##sco", "mri", "recognition", "stability", "imaging", "behavior", "insight", "brains", "##mp", "##rop", "sensitivity", "##d", "cognitive", "emotional", "grey", "##naire", "##gi", "relative", "##v", "alzheimer", "correlated", "impaired", "established", "negative", "serum", "promising", "primary", "##lam", "impairment", "screen", "changes", "quality", "highlighted", "life", "overlap", "correlation", "##type", "societal", "stable", "cd", "support", "psychiatric", "genetic", "##i", "themes", "##ning", "psycho", "society", "variants", "diseases", "decline", "scale", "emerge", "evidence", "core", "overlapping", "fluid", "football", "white", "##l", "review", "pet", "stages", "sporadic", "validation", "dependency", "pathology", "##vers", "gap", "relationships", "highlight", "emotion", "studies", "##fi", "across", "assessments", "##mo", "improvement", "included", "scan", "patient", "major", "intelligence", "priority", "disorders", "interviews", "r", "patients", "care", "sensitive", "under", "decreased", "positive", "ap", "emotionally", "distressed", "emerged", "chain", "insights", "psychiatrist", "psychology", "increased", "##oc", "syndrome", "rated", "societies", "multi", "signs", "lads", "prevalence", "emotions", "variation", "gray", "iii", "pratt", "##hy", "##ically", "approaches", "ratings", "assess", "##ers", "project", "declining", "dependent", "stage", "change", "value", "assessment", "establish", "improvements", "pets", "definition", "define", "study", "##ring", "contrast", "at", "med", "projects", "disruption", "disrupt", "connections", "sub", "psychiatry", "disrupted", "increase", "examined", "quan", "loss", "report", "supporting", "schizophrenia", "recognized", "recommended", "retrospective", "image", "warning", "##ver", "different", "question", "highlights", "screening", "inhibitor", "reported", "reviews", "ne", "mutation", "approach", "##ope", "psychological", "indicators", "connection", "sc", "disorder", "##uro", "depression", "decrease", "caring", "ii", "differ", "recognize", "##iating", "valid", "cortex", "inherited", "scanning", "emergence", "##ness", "disturbed", "alterations", "emphasized", "##er", "depend", "compassion", "gene", "aces", "relationship", "##r", "##mps", "##otype", "pre", "demonstrated", "argyle", "diagnosis", "##ation", "charts", "63", "improve", "include", "interactions", "parkinson", "sociology", "relations", "associated", "##ations", "evolution", "n", "path", "background", "light", "changing", "perception", "emerging", "defined", "three", "higher", "questions", "als", "theme", "changed", "anger", "assessed", "personality", "examine", "##encies", "cores", "dog", "characteristics", "mentally", "affect", "trials", "modification", "##re", "therapist", "experimental", "offensive", "lesions", "les", "mental", "onset", "detection", "explored", "reduction", "stabilize", "majors", "socially", "clinic", "reduce", "medical", "values", "traits", "##front", "altered", "deemed", "discrimination", "pairs", "supported", "analyze", "show", "intensity", "crazy", "##ent", "modified", "images", "experiments", "measures", "##giving", "couples", "existing", "targets", "screens", "variations", "effect", "consecutive", "bad", "clinical", "stadium", "cancer", "promise", "studied", "20", "verbal", "indicated", "and", "distorted", "##ped", "reduced", "vulnerability", "##opa", "illness", "deficit", "##entation", "autism", "therapy", "scores", "knowledge", "shown", "score", "tailored", "genetics", "memory", "thinking", "were", "indicator", "t", "anxiety", "concerns", "appeared", "briggs", "landmarks", "promised", "cocaine", "26", "showed", "investigation", "significant", "cat", "reciprocal", "criteria", "adopted", "concussion", "test", "enhanced", "painting", "phase", "clients", "links", "defect", "paranoid", "algorithm", "staffordshire", "radio", "resident", "fortress", "healthcare"], "weights": [2.553419589996338, 2.502351760864258, 2.492601156234741, 2.4064531326293945, 2.3699705600738525, 2.3119664192199707, 2.309938907623291, 2.2765495777130127, 2.258913993835449, 2.1834564208984375, 2.16874623298645, 2.081705093383789, 2.0723369121551514, 2.046731472015381, 2.017188787460327, 2.0103611946105957, 1.9821264743804932, 1.9559670686721802, 1.9437452554702759, 1.9380476474761963, 1.9367282390594482, 1.929466724395752, 1.9137318134307861, 1.9031628370285034, 1.8922367095947266, 1.8915451765060425, 1.879394769668579, 1.8738855123519897, 1.818073034286499, 1.8130030632019043, 1.8090965747833252, 1.8012148141860962, 1.7976939678192139, 1.7817085981369019, 1.7781822681427002, 1.777239441871643, 1.7506608963012695, 1.7426196336746216, 1.7282332181930542, 1.7266957759857178, 1.710277795791626, 1.7080001831054688, 1.6984453201293945, 1.6859205961227417, 1.6631534099578857, 1.6612329483032227, 1.6586928367614746, 1.6575359106063843, 1.6552594900131226, 1.6510517597198486, 1.6262863874435425, 1.619512677192688, 1.6181342601776123, 1.6022207736968994, 1.598045825958252, 1.5947003364562988, 1.5925852060317993, 1.5863672494888306, 1.5796310901641846, 1.5662761926651, 1.5575222969055176, 1.5551137924194336, 1.5487467050552368, 1.5423259735107422, 1.5409162044525146, 1.5397233963012695, 1.5217053890228271, 1.5155398845672607, 1.5143256187438965, 1.5124754905700684, 1.5031136274337769, 1.50211763381958, 1.497204303741455, 1.4945911169052124, 1.4916763305664062, 1.482588529586792, 1.4791396856307983, 1.4705978631973267, 1.4677268266677856, 1.4654217958450317, 1.4627351760864258, 1.4563382863998413, 1.4531826972961426, 1.4497385025024414, 1.4493435621261597, 1.4475696086883545, 1.433104157447815, 1.432361364364624, 1.4315283298492432, 1.4223532676696777, 1.4189625978469849, 1.4149359464645386, 1.3979618549346924, 1.3935843706130981, 1.3712366819381714, 1.3612306118011475, 1.3519790172576904, 1.3509694337844849, 1.3436883687973022, 1.3276028633117676, 1.323434829711914, 1.321640968322754, 1.3098715543746948, 1.3056135177612305, 1.2855396270751953, 1.2835978269577026, 1.2811591625213623, 1.279813289642334, 1.2749000787734985, 1.2715600728988647, 1.271327257156372, 1.2697557210922241, 1.2660324573516846, 1.2651833295822144, 1.248927354812622, 1.2433395385742188, 1.2408488988876343, 1.2339693307876587, 1.2289927005767822, 1.2169142961502075, 1.2018485069274902, 1.1976276636123657, 1.1902048587799072, 1.1511967182159424, 1.1447919607162476, 1.1366146802902222, 1.1328246593475342, 1.1308083534240723, 1.1087881326675415, 1.1080188751220703, 1.1031007766723633, 1.0984042882919312, 1.094557285308838, 1.0901432037353516, 1.0764167308807373, 1.0763118267059326, 1.0726414918899536, 1.0696210861206055, 1.0616333484649658, 1.0586988925933838, 1.051939606666565, 1.0483993291854858, 1.0458130836486816, 1.0453377962112427, 1.0432729721069336, 1.0305808782577515, 1.0299046039581299, 1.0278778076171875, 1.0240557193756104, 1.0065956115722656, 0.9912753105163574, 0.9764522314071655, 0.9762897491455078, 0.9755061864852905, 0.9670486450195312, 0.964638352394104, 0.9615564942359924, 0.9548150300979614, 0.9509830474853516, 0.9483000040054321, 0.9457870125770569, 0.9346462488174438, 0.9213780760765076, 0.9085502028465271, 0.9064602255821228, 0.9026705026626587, 0.8999423980712891, 0.8992369771003723, 0.8956074714660645, 0.8936280608177185, 0.8873311281204224, 0.8862109184265137, 0.8859379887580872, 0.8813931345939636, 0.878408670425415, 0.8728325366973877, 0.8695770502090454, 0.8681533336639404, 0.8597162365913391, 0.8389379382133484, 0.8202360272407532, 0.8157331347465515, 0.8142882585525513, 0.8136481642723083, 0.8102645874023438, 0.8009136915206909, 0.799935519695282, 0.7985361218452454, 0.7955750823020935, 0.7940410375595093, 0.7887006998062134, 0.7852382659912109, 0.774932861328125, 0.7719132900238037, 0.7718797922134399, 0.7481640577316284, 0.7393423318862915, 0.7348671555519104, 0.7340226769447327, 0.7327514886856079, 0.7269628643989563, 0.7252116203308105, 0.7206368446350098, 0.7202823758125305, 0.7145846486091614, 0.7136178612709045, 0.709821343421936, 0.7077039480209351, 0.7027252316474915, 0.7005876302719116, 0.6990603804588318, 0.6881795525550842, 0.6871768832206726, 0.6832118034362793, 0.6758492588996887, 0.6726016998291016, 0.66939377784729, 0.6661182641983032, 0.6572819948196411, 0.6565669775009155, 0.6559567451477051, 0.6546992063522339, 0.6536521911621094, 0.6484183669090271, 0.6406021118164062, 0.640557587146759, 0.6380681991577148, 0.6314734816551208, 0.6291692852973938, 0.6277438998222351, 0.6218469142913818, 0.6208810806274414, 0.6202098727226257, 0.6149106025695801, 0.6103820204734802, 0.6078662872314453, 0.5938378572463989, 0.5744699835777283, 0.5693629384040833, 0.5687366724014282, 0.5641546249389648, 0.5631055235862732, 0.557650625705719, 0.5514335632324219, 0.5486034154891968, 0.5381467342376709, 0.5342552065849304, 0.5312836170196533, 0.5262336730957031, 0.5208436250686646, 0.5138304233551025, 0.5130072832107544, 0.5118869543075562, 0.5103245973587036, 0.5002776384353638, 0.499877393245697, 0.4966753125190735, 0.494371622800827, 0.4919528365135193, 0.481199711561203, 0.47868871688842773, 0.4612528383731842, 0.45734459161758423, 0.45556652545928955, 0.44728779792785645, 0.4394475221633911, 0.4377080500125885, 0.42462077736854553, 0.41951435804367065, 0.41432738304138184, 0.41237786412239075, 0.40557488799095154, 0.4044873118400574, 0.40071040391921997, 0.37013572454452515, 0.36275774240493774, 0.36243003606796265, 0.3588672876358032, 0.3561926782131195, 0.3552553057670593, 0.351749449968338, 0.3509593605995178, 0.34996357560157776, 0.34328603744506836, 0.3429110646247864, 0.3380388915538788, 0.33566585183143616, 0.328264445066452, 0.327374130487442, 0.3250187635421753, 0.3210482895374298, 0.3149617314338684, 0.31160852313041687, 0.2983979284763336, 0.2957691550254822, 0.29311421513557434, 0.29239755868911743, 0.29040035605430603, 0.2840234637260437, 0.2794141173362732, 0.2761116921901703, 0.27434447407722473, 0.2731250524520874, 0.26725372672080994, 0.2668718695640564, 0.26498284935951233, 0.2636326551437378, 0.25846412777900696, 0.2577771544456482, 0.24988803267478943, 0.24611561000347137, 0.24227274954319, 0.2387027144432068, 0.23788487911224365, 0.21735529601573944, 0.21735315024852753, 0.212449848651886, 0.21077731251716614, 0.20813442766666412, 0.20722246170043945, 0.20695726573467255, 0.1962706744670868, 0.19618448615074158, 0.19027850031852722, 0.18924857676029205, 0.18697798252105713, 0.1783144772052765, 0.17721152305603027, 0.1733429729938507, 0.16542528569698334, 0.1653275340795517, 0.1631954312324524, 0.15860359370708466, 0.15802505612373352, 0.1573253571987152, 0.15685461461544037, 0.1550825983285904, 0.15428395569324493, 0.15084399282932281, 0.1473907083272934, 0.1459091603755951, 0.1456354260444641, 0.12921756505966187, 0.1286430060863495, 0.12845346331596375, 0.12777628004550934, 0.1262536197900772, 0.11933819949626923, 0.11367912590503693, 0.11072755604982376, 0.11032725870609283, 0.10978581756353378, 0.10791858285665512, 0.10713731497526169, 0.1053880825638771, 0.10416629910469055, 0.10344588756561279, 0.10102003067731857, 0.1006370410323143, 0.09898579865694046, 0.09893845021724701, 0.0807785838842392, 0.06835518777370453, 0.06811115890741348, 0.06566403806209564, 0.06270699948072433, 0.05849373713135719, 0.053885914385318756, 0.04871821403503418, 0.046504296362400055, 0.045019056648015976, 0.04495513439178467, 0.04234629124403, 0.04025748744606972, 0.0370614193379879, 0.03525715693831444, 0.035127416253089905, 0.03255992382764816, 0.030015943571925163, 0.02644256129860878, 0.025670485571026802, 0.02477588690817356, 0.02218584716320038, 0.02125091664493084, 0.017954282462596893, 0.016537699848413467, 0.014003627002239227, 0.013751132413744926, 0.012957938015460968, 0.012545359320938587, 0.010866602882742882, 0.009073070250451565, 0.008842330425977707, 0.005573077127337456, 0.004791430197656155, 0.0037933967541903257, 0.003141604131087661, 0.001981231616809964]}, "Qwen3-4B": {"model_id": "Qwen/Qwen3-Embedding-4B", "vector": [-0.00041298510041087866, 0.0409330353140831, -0.010818016715347767, -0.013332474045455456, -0.0013814899139106274, 0.04607890173792839, -0.012747717089951038, -0.007894228212535381, 0.0058183385990560055, 0.018595293164253235, 0.059879183769226074, 0.06455724686384201, 0.015086747705936432, -0.019297001883387566, 0.013566377572715282, 0.011578201316297054, 0.04163474589586258, 0.015437602065503597, 0.007367946207523346, -0.0030261208303272724, -0.006900140084326267, 0.02830227091908455, 0.055435024201869965, 0.008771364577114582, -0.012864667922258377, -0.01941395364701748, -0.019998712465167046, -0.008303558453917503, 0.0026167905889451504, -0.02526153065264225, 0.03695668280124664, -0.019881760701537132, 0.032278623431921005, -0.026547998189926147, 0.002777598798274994, -0.029939591884613037, -0.019530905410647392, 0.004414920229464769, 0.02666494809091091, 0.0313430093228817, 0.005204343236982822, 0.022805549204349518, -0.006753950845450163, 0.013566377572715282, 0.026080191135406494, -0.008069655857980251, 0.011870580725371838, -0.06315382570028305, 0.004678061231970787, -0.00853746198117733, -0.003771686926484108, 0.002236698055639863, -0.07438117265701294, -0.023741161450743675, -0.005350532475858927, 0.013566377572715282, 0.014969795942306519, 0.0032015482429414988, 0.006958615966141224, -0.004327206406742334, -0.0012645383831113577, -0.019881760701537132, 0.006900140084326267, -0.016139311715960503, -0.007017091847956181, -0.023273354396224022, -0.003771686926484108, -0.011461249552667141, 0.021636033430695534, -0.0011987531324848533, -0.015437602065503597, 0.013390949927270412, -0.013390949927270412, 0.014092659577727318, 0.012747717089951038, -0.014209611341357231, -0.0017104161670431495, 0.004414920229464769, 0.02350725792348385, 0.0063153826631605625, -0.003420832334086299, 0.002382887527346611, 0.018946148455142975, -0.0024852200876921415, 0.005087391473352909, -0.0015203699003905058, 0.014618941582739353, -0.0013010858092457056, 0.01298161968588829, -0.005379770416766405, -0.007426422089338303, -0.053797703236341476, -0.019998712465167046, -0.06221821531653404, -0.0003380630223546177, -0.00853746198117733, -0.007777276914566755, -0.019647857174277306, -0.011987531557679176, 0.009063743986189365, -0.0054090083576738834, 0.0005116629181429744, 0.042804259806871414, -0.009122218936681747, 0.043505970388650894, -0.016139311715960503, -0.019297001883387566, -0.01432656217366457, -0.012689241208136082, -0.0020027949940413237, 0.013507901690900326, -0.023741161450743675, -0.011461249552667141, 0.015086747705936432, -0.011695153079926968, -0.00836203433573246, 0.04233645275235176, -0.0020612706430256367, -0.00017542729619890451, -0.028419222682714462, -0.013390949927270412, 0.009063743986189365, -0.028068367391824722, 0.006344620604068041, -0.008303558453917503, -0.02350725792348385, 0.00818660669028759, -0.023039450868964195, 0.025378482416272163, 0.01432656217366457, -0.0014472751645371318, 0.007660325150936842, 0.02631409466266632, 0.0008040417451411486, -0.013449425809085369, 0.030173495411872864, 0.013975707814097404, -0.023624209687113762, 0.0028506936505436897, -0.018361389636993408, -0.013566377572715282, 0.01555455382913351, 0.004590347409248352, 0.023390306159853935, -0.018244437873363495, -0.001776201417669654, -0.003947114106267691, -0.008245082572102547, 0.013390949927270412, -0.0055259596556425095, 0.026431046426296234, 0.003435451304540038, 0.037424489855766296, 0.005759862717241049, 0.011812104843556881, -0.0002101472782669589, -0.007426422089338303, 0.004561109468340874, 0.022103838622570038, -0.011051919311285019, -0.0019297002581879497, 0.01777663268148899, -0.008654412813484669, -0.0017615824472159147, 0.01567150466144085, -0.004064065869897604, 0.007601849269121885, 0.003917876165360212, -0.014151135459542274, -0.011987531557679176, 0.00047511557932011783, 0.0037424489855766296, -0.011344298720359802, -0.019180050119757652, -0.00040933035779744387, -0.007397184148430824, -5.390734440879896e-05, -0.07391336560249329, -0.023390306159853935, 0.009122218936681747, 0.009648500941693783, 0.00853746198117733, -0.007338708732277155, -0.010701064951717854, -0.011578201316297054, -0.024092014878988266, -0.002792217768728733, 0.02350725792348385, 0.01742577739059925, -0.002996882889419794, -0.014560465700924397, -0.007280232850462198, 0.012923143804073334, -0.013332474045455456, -0.0031576913315802813, 0.012221435084939003, -0.0032454049214720726, 0.01093496847897768, 0.014618941582739353, 0.0005664839991368353, 0.007309470791369677, 0.011695153079926968, 0.0013814899139106274, 0.014209611341357231, -0.016841020435094833, -0.02350725792348385, 0.010233258828520775, -0.01298161968588829, 0.003552402835339308, 0.0013010858092457056, -0.019063100218772888, 0.003640116425231099, -0.007309470791369677, -0.017191875725984573, 0.00181274872738868, 0.011987531557679176, -0.009999356232583523, 0.0021197465248405933, 0.008946792222559452, -0.0031869292724877596, -0.010291734710335732, 0.009356122463941574, 0.006198430899530649, 0.019297001883387566, 0.009940880350768566, 0.0068124267272651196, 0.0019004623172804713, 0.004093303345143795, -0.017659680917859077, -0.0032600238919258118, 0.013040095567703247, -0.007660325150936842, 0.0002795872569549829, 0.0007272923248820007, 0.008303558453917503, -0.0055259596556425095, -0.027834463864564896, -0.013449425809085369, 0.013390949927270412, 0.014794368296861649, -0.01707492396235466, -0.016490165144205093, -0.016607116907835007, -0.002938407240435481, -0.025027627125382423, -0.005087391473352909, 0.006987853907048702, -0.03391594439744949, -0.022688597440719604, -0.01602235995233059, -0.007777276914566755, -0.00613995548337698, 0.01882919669151306, 0.005204343236982822, -0.002923788269981742, 0.0009648501290939748, 0.005262818653136492, -0.0012499195290729403, -0.013975707814097404, -0.0025290767662227154, 0.011285822838544846, -0.007192519027739763, -0.006900140084326267, 0.0057306247763335705, 0.005204343236982822, 0.03391594439744949, 0.008303558453917503, -0.012689241208136082, 0.010818016715347767, -0.014969795942306519, 0.047248419374227524, -0.00923917070031166, -0.00018547782383393496, 0.021986886858940125, 0.03719058632850647, -0.011402774602174759, 0.010642589069902897, 0.028068367391824722, 0.00613995548337698, 0.016957972198724747, 0.004882726352661848, -0.0025583147071301937, 0.027249706909060478, -0.0064030964858829975, -0.029939591884613037, -0.01315704733133316, -0.02116822637617588, 0.006461571902036667, -0.02455982193350792, -0.009648500941693783, 0.021636033430695534, -0.027834463864564896, -0.0015788456657901406, -0.01742577739059925, 0.0064323339611291885, 0.006344620604068041, -0.007455660030245781, -0.008712888695299625, 0.017542729154229164, -0.0016884877113625407, -0.0030261208303272724, 0.006666237022727728, 0.013449425809085369, -0.013975707814097404, -0.012162959203124046, -0.015437602065503597, -0.014385038055479527, 0.005028915591537952, -0.014735892415046692, -0.010291734710335732, -0.02186993695795536, 0.006373858544975519, -0.014618941582739353, 0.029822640120983124, -0.012338386848568916, -0.042804259806871414, -0.014852844178676605, -0.007601849269121885, -0.022337742149829865, -0.03181081637740135, 0.0059060524217784405, -0.03438375145196915, -0.03508545830845833, -0.010467162355780602, 0.008128131739795208, 0.015437602065503597, -0.006666237022727728, 0.030173495411872864, 0.0032600238919258118, -0.007952704094350338, -0.002090508583933115, 0.012455337680876255, -0.02526153065264225, -0.014268086291849613, 0.0053212945349514484, -0.017308825626969337, -0.015437602065503597, 0.00818660669028759, -0.009122218936681747, -0.012162959203124046, -0.02385811135172844, 0.018946148455142975, 0.0013814899139106274, 0.008888316340744495, -0.010291734710335732, 0.001111039542593062, -0.013215523213148117, -0.005233581177890301, -0.014151135459542274, -0.047248419374227524, -0.039061810821294785, -0.007894228212535381, -0.007835752330720425, -0.020232614129781723, 0.042102549225091934, -0.002792217768728733, -0.002777598798274994, -0.009590025059878826, 0.026431046426296234, 0.004678061231970787, 0.001461894134990871, -0.007543373852968216, 0.02701580338180065, 0.003435451304540038, -0.016957972198724747, 0.00036730090505443513, -0.007221756968647242, 0.011578201316297054, -0.006344620604068041, -0.014794368296861649, 0.01777663268148899, -0.03321423381567001, 0.0444415807723999, -0.027834463864564896, 0.008011179976165295, 0.013040095567703247, -0.0025436957366764545, -0.006666237022727728, -0.0038009246345609426, 0.0015422983560711145, -0.006373858544975519, -0.02222079038619995, -0.01707492396235466, 0.00461958535015583, -0.007660325150936842, -0.017308825626969337, 0.0010964205721393228, -0.018010536208748817, -0.0068124267272651196, -0.005145867355167866, 0.00529205659404397, -0.0017104161670431495, -0.012221435084939003, 0.0064323339611291885, -0.05473331734538078, 0.023624209687113762, 0.001016016467474401, 0.004911964293569326, 0.02046651765704155, -0.02186993695795536, -0.0008003870607353747, 0.008245082572102547, -0.016256263479590416, -0.01941395364701748, 0.020934324711561203, 