{"UUID": "d56e1f34-0a71-439a-bfb8-f8c6da49a1f8", "BM25": {"terms": ["jmir", "preprints", "82876", "effectiveness", "of", "vr-based", "cognitive", "training", "and", "games", "on", "rehabilitation", "in", "patients", "with", "mci", "a", "systematic", "review", "meta-analysis", "sorry", "you", "need", "to", "enable", "javascript", "for", "this", "page", "function", "properly", "publications", "menu", "search", "user", "sign", "up", "follow", "us", "twitter", "home", "browse", "journal", "current", "issue", "upcoming", "by", "year", "select", "2015", "submit", "author", "theme", "medical", "internet", "research", "protocols", "formative", "mhealth", "uhealth", "public", "health", "surveillance", "online", "informatics", "mental", "human", "factors", "serious", "education", "aging", "jmirx", "med", "cancer", "iproceedings", "interactive", "pediatrics", "parenting", "dermatology", "assistive", "technologies", "diabetes", "cardio", "infodemiology", "ai", "nursing", "participatory", "medicine", "perioperative", "biomedical", "engineering", "bioinformatics", "biotechnology", "asian", "pacific", "island", "bio", "neurotechnology", "xr", "spatial", "computing", "jmxr", "2", "0", "data", "challenges", "transfer", "hub", "manuscript", "exchange", "membership", "jmirpub", "advanced"], "weights": [10.929458920131616, 5.605064664712625, 7.703936532161484, 3.392864739877913, 0.1152736818689803, 5.368792004591847, 0.7246003505829729, 2.726036282046279, 0.1394974452959409, 7.501232105613925, 0.9057891901041092, 5.08569077829576, 0.1794820725297155, 1.3815751836843917, 0.35745192158422523, 2.0782343977895934, 0.13965019859405334, 1.9625019131031463, 1.2205207699288918, 2.6989190410628656, 8.617837743571304, 3.481324680777707, 3.0975349506217835, 0.49138764379741395, 4.868494151261531, 6.746885295860056, 0.31681409790749865, 0.9906960651005741, 5.267598459730074, 1.7174670280747606, 5.96798589823654, 3.9049216933209383, 5.333995220083404, 4.099414592040448, 5.010934661935111, 8.200772713136764, 5.231814062398601, 6.349380963191135, 3.0267129332956317, 6.247896431493224, 3.305877025848803, 10.415142847734007, 5.089847641250679, 2.643816929410677, 6.938679459546596, 7.432867087532263, 1.6924923534738623, 5.507672804770482, 5.696916453607319, 2.5700606510570125, 5.3574718586876955, 2.3727474847814567, 5.480471682233174, 4.757979983373936, 4.2320352643115955, 1.9931975109540851, 4.010001844302249, 6.746885295860056, 5.205053010850066, 6.098886540642564, 4.234542736268761, 2.283806730338305, 6.098886540642564, 3.53164782580513, 8.175340800417834, 3.2800718052433924, 3.014683736791857, 2.185480669069968, 4.890965938515216, 3.141476129661476, 2.0148642719121304, 9.42669273663685, 2.4765396920019573, 4.39113638293394, 6.746885295860056, 5.267598459730074, 5.8512659928557875, 6.746885295860056, 5.745952478227194, 6.170820308912755, 4.16049921240783, 2.8418847619920085, 6.746885295860056, 6.746885295860056, 3.8175373476175047, 5.276304984395516, 5.8512659928557875, 4.480800418038465, 5.441945916401121, 5.010934661935111, 5.089892349359979, 5.8512659928557875, 6.031451660119077, 5.267598459730074, 5.908047880376992, 4.630036232705892, 6.247896431493224, 5.404748893297662, 6.420843099949818, 4.061373780552007, 4.985849652873715, 6.746885295860056, 0.9731327368741816, 2.0968024220705113, 1.4626225810313194, 3.421552781318847, 5.605064664712625, 5.797324414476951, 3.469102376925122, 5.908047880376992, 6.247896431493224, 8.617837743571304, 3.7367050229939744], "k1": 1.5, "b": 0.75, "avgdl": 233.87661016949153, "N": 4425}, "SpladeV3": {"model_id": "naver/splade-v3", "tokens": ["##mir", "j", "vr", "journal", "##mx", "##rin", "prep", "spatial", "java", "effectiveness", "interactive", "##script", "twitter", "rehabilitation", "cognitive", "training", "mc", "rehab", "pediatric", "effective", "systematic", "based", "journals", "biomedical", "biotechnology", "##i", "games", "nursing", "82", "cognition", "serious", "#", "manuscript", "meta", "cancer", "train", "##atics", "diabetes", "##eding", "inform", "research", "med", "uh", "2015", "review", "health", "der", "pacific", "asian", "patients", "bio", "surveillance", "##ative", "assist", "##6", "number", "island", "challenges", "clinic", "current", "parenting", "human", "ai", "mentally", "online", "aging", "enable", "##mi", "japan", "technologies", "game", "##form", "cancers", "##ts", "public", "brows", "publications", "mental", "submit", "issue", "##mat", "menu", "##tech", "membership", "medicine", "quest", "protocols", "x", "engineering", "manuscripts", "data", "publishing", "ip", "transfer", "search", "##bet", "medical", "##pu", "islands", "author", "efficacy", "##io", "code", "##eal", "##uro", "nurse", "upcoming", "published", "follow", "page", "education", "reviews", "##ici", "##tory", "authors", "protocol", "pre", "therapy", "researcher", "challenge", "humans", "analyze", "preparation", "year", "hub", "internet", "enabling", "challenging", "script", "sign", "psychiatric", "website", "mir", "contact", "##per", "transferred", "##nology", "hospital", "##ro", "format", "v", "patient", "educational", "part", "computing", "users", "##bi", "sorry", "user", "theme", "issues", "##de", "themes", "alzheimer", "factors", "exchanges", "engineer", "brain", "analysis", "submitted", "software", "disease", "##t", "card", "exchange", "ne", "advanced", "parents", "function", "intelligence", "healthcare", "##7", "therapist", "vaccine", "trainers", "todd", "database", "learning", "latest", "enabled", "##ology", "elderly", "parent", "pages", "conditioning", "trainer", "reality", "##x", "hospitals", "databases", "psychology", "heart", "syndrome", "##r", "mika", "font", "assisted", "medicinal", "preparatory", "cardiac", "technology", "spear", "currently", "no", "program", "benefit", "pharmacy", "youtube", "dementia", "per", "skin", "asia", "recovery", "age", "india", "classes", "computers", "algorithm", "information", "parker", "tech", "clinical", "psychological", "study", "statistics", "##up", "exercises", "medication", "diseases", "treatment", "platform", "analytics", "tracking", "cv", "offer", "functions", "gaming", "##8", "trial", "ibm", "musa", "university", "asiatic", "magazine", "institute", "integrated", "robot", "company", "up", "member", "best", "3d", "##ce", "jay", "##hea", "computer", "novel", "select", "##train", "##9"], "weights": [3.0580925941467285, 2.490215539932251, 2.2955634593963623, 2.0383734703063965, 2.0144360065460205, 1.9567064046859741, 1.9464426040649414, 1.91338050365448, 1.849048376083374, 1.760168433189392, 1.750443696975708, 1.732496738433838, 1.696267008781433, 1.660130262374878, 1.649848222732544, 1.563186526298523, 1.55043625831604, 1.5274606943130493, 1.4779659509658813, 1.4769117832183838, 1.4509090185165405, 1.435699224472046, 1.409987449645996, 1.3681867122650146, 1.3672454357147217, 1.3582308292388916, 1.3563075065612793, 1.3502018451690674, 1.349660038948059, 1.3267215490341187, 1.3087550401687622, 1.2841529846191406, 1.2708336114883423, 1.2541227340698242, 1.2379661798477173, 1.232703447341919, 1.2117427587509155, 1.200832724571228, 1.1957528591156006, 1.1944494247436523, 1.1935025453567505, 1.1795307397842407, 1.156181812286377, 1.1459836959838867, 1.1437634229660034, 1.1430816650390625, 1.1411073207855225, 1.1205103397369385, 1.1181557178497314, 1.116587519645691, 1.1138861179351807, 1.0954937934875488, 1.0930407047271729, 1.0869406461715698, 1.086809754371643, 1.0865497589111328, 1.0830172300338745, 1.08123779296875, 1.0807104110717773, 1.0785127878189087, 1.073545217514038, 1.0679731369018555, 1.0664576292037964, 1.0620362758636475, 1.0549182891845703, 1.052807331085205, 1.041412115097046, 1.0397799015045166, 1.0325168371200562, 1.0250747203826904, 1.0142701864242554, 1.0137121677398682, 1.0129177570343018, 1.0067534446716309, 1.0029256343841553, 1.00022554397583, 0.9997793436050415, 0.9952875375747681, 0.9804787635803223, 0.9774283170700073, 0.9753167033195496, 0.9650002717971802, 0.9428381323814392, 0.9400427341461182, 0.9276673793792725, 0.9179620742797852, 0.9174968600273132, 0.9077438116073608, 0.8952109217643738, 0.8926820755004883, 0.8770124912261963, 0.8755441308021545, 0.8716748952865601, 0.8711296319961548, 0.8548963069915771, 0.8495362401008606, 0.8449901938438416, 0.8390182256698608, 0.836129903793335, 0.8353340029716492, 0.8170780539512634, 0.8124505877494812, 0.8109872341156006, 0.8093276023864746, 0.8084158301353455, 0.8068888187408447, 0.8007295727729797, 0.7985899448394775, 0.7981882691383362, 0.792203426361084, 0.7921062707901001, 0.7862558960914612, 0.782218337059021, 0.7775130867958069, 0.776419460773468, 0.7582781910896301, 0.7566276788711548, 0.7561478614807129, 0.7486991882324219, 0.7421227693557739, 0.740495502948761, 0.7387160062789917, 0.7345772385597229, 0.732550859451294, 0.7247502207756042, 0.7126625776290894, 0.6985243558883667, 0.6911645531654358, 0.6875307559967041, 0.6806778311729431, 0.6758996248245239, 0.6671003103256226, 0.66315096616745, 0.6528477668762207, 0.6469960808753967, 0.6467750072479248, 0.6465674042701721, 0.6361425518989563, 0.6311476230621338, 0.6309821605682373, 0.6284165978431702, 0.6177626252174377, 0.6079516410827637, 0.6060062646865845, 0.6026180982589722, 0.6015732288360596, 0.5906368494033813, 0.5884304046630859, 0.5883598923683167, 0.5789461135864258, 0.5649120211601257, 0.5602092742919922, 0.5583229064941406, 0.5551263689994812, 0.5434014797210693, 0.5265629291534424, 0.5181447267532349, 0.5109596252441406, 0.5062977075576782, 0.5053633451461792, 0.5019617676734924, 0.49981361627578735, 0.49870628118515015, 0.4946766495704651, 0.4938168525695801, 0.4902036190032959, 0.48582231998443604, 0.4855116605758667, 0.4800224304199219, 0.47831249237060547, 0.47559112310409546, 0.4742310047149658, 0.4739035665988922, 0.4654048681259155, 0.46119314432144165, 0.4600510597229004, 0.4474186301231384, 0.44290825724601746, 0.43271997570991516, 0.41605713963508606, 0.41104891896247864, 0.41010957956314087, 0.40740570425987244, 0.40596529841423035, 0.3980732858181, 0.3873292803764343, 0.3741231858730316, 0.36280712485313416, 0.3515440821647644, 0.349798321723938, 0.340021550655365, 0.33659130334854126, 0.334661066532135, 0.3237772583961487, 0.31987258791923523, 0.30661100149154663, 0.30567222833633423, 0.2997916042804718, 0.29811209440231323, 0.2843815088272095, 0.28417640924453735, 0.28137755393981934, 0.27873826026916504, 0.27371975779533386, 0.2731935381889343, 0.26595574617385864, 0.26522910594940186, 0.2490166276693344, 0.24806278944015503, 0.246612548828125, 0.2455623894929886, 0.24233655631542206, 0.2351446896791458, 0.22951248288154602, 0.2240889072418213, 0.21671555936336517, 0.21134419739246368, 0.21031275391578674, 0.2072351574897766, 0.20214149355888367, 0.19408181309700012, 0.17030169069766998, 0.16716368496418, 0.16312091052532196, 0.15551821887493134, 0.15551017224788666, 0.15286946296691895, 0.15079808235168457, 0.14597651362419128, 0.14171350002288818, 0.14029660820960999, 0.13484400510787964, 0.13049106299877167, 0.13016152381896973, 0.1253645271062851, 0.12258009612560272, 0.12115538865327835, 0.12055129557847977, 0.10070382803678513, 0.09779170155525208, 0.09063243120908737, 0.08987155556678772, 0.08105253428220749, 0.07289240509271622, 0.07227028161287308, 0.07086212933063507, 0.05024537071585655, 0.04960781708359718, 0.04224773123860359, 0.04078715294599533, 0.04054640233516693, 0.03959260508418083, 0.03894386813044548, 0.03826192766427994, 0.034409746527671814, 0.025339389219880104, 0.012730458751320839, 0.008177058771252632, 0.002131453948095441, 0.00106804387178272]}, "Qwen3-4B": {"model_id": "Qwen/Qwen3-Embedding-4B", "vector": [-0.00026578668621368706, 0.08015835285186768, -0.04730274900794029, -0.043108414858579636, -0.0014636472333222628, 0.08668287098407745, -0.006116734817624092, -0.024350428953766823, -9.19330632314086e-05, 0.04800180345773697, 0.07083761692047119, 0.04567161947488785, 0.007864372804760933, -0.03029240109026432, -0.010485830716788769, -0.04287539795041084, 0.004514732863754034, -0.012000450864434242, -0.0017549203475937247, 0.006145861931145191, -0.005941970739513636, 0.03798200935125351, 0.030525419861078262, -0.007048808503895998, -0.017243366688489914, -0.03285560384392738, -0.01677732914686203, -0.05732254311442375, -0.0011141195427626371, -0.05965272709727287, 0.018058931455016136, -0.0323895663022995, 0.017243366688489914, 0.00588371604681015, 0.0016092837322503328, -0.02003958821296692, 0.016660820692777634, 0.0015874382806941867, 0.008039137348532677, 0.05569141358137131, -0.02528250403702259, 0.013631580397486687, -0.0031748765613883734, -0.013107288628816605, -0.019340531900525093, -0.021670717746019363, 0.006874044891446829, -0.018175439909100533, 0.0026797123719006777, -0.005475934129208326, 0.01001979410648346, 0.013107288628816605, -0.0191075149923563, -0.017709404230117798, 0.034020695835351944, 0.019573550671339035, 0.04846784099936485, -0.008679937571287155, -0.02528250403702259, 0.027146650478243828, 0.017709404230117798, 0.038681063801050186, 0.009145975112915039, 0.0024612576235085726, -0.003378767753019929, 0.0019806569907814264, 0.015262709930539131, -0.05126406252384186, 0.01071884948760271, 0.009029465727508068, 0.01584525592625141, 0.019340531900525093, -0.00017203316383529454, 0.026331087574362755, 0.010194557718932629, -0.018408458679914474, -0.005505061242729425, 0.020971661433577538, -0.0021991117391735315, -0.017709404230117798, 0.007310954388231039, 0.011068376712501049, -0.024583447724580765, 0.020505625754594803, 0.014621908776462078, 0.0117674320936203, -0.009029465727508068, -0.0033350768499076366, 0.01514620054513216, -0.03891408443450928, 0.013049034401774406, -0.02143769897520542, -0.0059128436259925365, -0.026564104482531548, 0.005184660665690899, -0.007806118577718735, -0.006641026120632887, -0.005126406438648701, -0.011883941479027271, 0.0035098406951874495, -0.02761268801987171, -0.0051555335521698, 0.004019568674266338, 0.012816015630960464, 0.0055341883562505245, -0.012291723862290382, 0.007077936083078384, -0.006903172004967928, -0.010369321331381798, -0.016544310376048088, -0.006466262508183718, -0.019923079758882523, -0.002330184681341052, 0.03891408443450928, -0.006553644314408302, -0.021670717746019363, 0.024350428953766823, -0.0030001127161085606, 0.005825461819767952, -0.03471975028514862, -0.0044273510575294495, 0.02143769897520542, -0.02563203126192093, -0.007136190310120583, 0.01042757648974657, -0.03914710134267807, 0.00031857992871664464, 0.006378880701959133, -0.0035680951550602913, 0.00984503049403429, -0.013806344009935856, -0.011301395483314991, -0.012990779243409634, -0.006582771893590689, -0.003524404251947999, 0.010660595260560513, 0.01502969115972519, -0.020156096667051315, -0.02027260698378086, 0.03285560384392738, -0.009320738725364208, 0.002082602586597204, 0.012058706022799015, -0.009670265950262547, -0.00943724811077118, 0.003699168097227812, -0.004951642360538244, -0.014913181774318218, 0.022253263741731644, -0.012408233247697353, 0.009204229339957237, -0.008563428185880184, 0.025981558486819267, -0.009786775335669518, 0.0026068941224366426, 0.026331087574362755, 0.002912730909883976, 0.014680163003504276, 0.01852496899664402, 0.01118488609790802, 0.014738418161869049, 0.01712685637176037, 0.0012961651664227247, -0.013748089782893658, -0.0057672071270644665, 0.024816466495394707, -0.02679712325334549, 0.035185787826776505, 7.918987103039399e-05, 0.017243366688489914, 0.0002148139028577134, 0.0001247012842213735, -0.02120468020439148, -0.0033205130603164434, 0.002359312027692795, -0.0044564781710505486, -0.03448673337697983, -0.005417679436504841, -0.024350428953766823, 0.007922627963125706, -0.010951868258416653, -0.018757985904812813, 0.04357445240020752, 0.0059128436259925365, -0.011592668481171131, 0.013049034401774406, 0.0018641477217897773, 0.005330297630280256, 0.0220202449709177, -0.015495727770030499, 0.022602790966629982, 0.02563203126192093, 0.009087719954550266, 0.007514845579862595, -0.016078274697065353, 0.013631580397486687, -0.004602114669978619, -0.009903284721076488, 0.05359424650669098, 0.03215654939413071, 0.02178722620010376, -0.0005643416079692543, -0.008971210569143295, 0.012757761403918266, 0.006378880701959133, -0.013340307399630547, 0.00972852110862732, -0.00038411637069657445, -0.00041506413253955543, -0.029243817552924156, 0.02737966924905777, -0.0382150299847126, -0.00943724811077118, -0.01089361310005188, -0.002242802642285824, 0.0206221342086792, -0.008621683344244957, 0.0023884393740445375, 0.024816466495394707, 0.018291950225830078, -0.017010347917675972, 0.007514845579862595, -0.00757310027256608, -0.0038739319425076246, -0.0010631467448547482, -0.002548639429733157, 0.00972852110862732, -0.011359650641679764, -0.024233920499682426, -0.005796334240585566, 0.03378767892718315, 0.011825687251985073, -0.0005752643337473273, -0.01887449622154236, -0.00559244304895401, 0.004980769939720631, 0.020971661433577538, -0.000997610273770988, 0.008796446956694126, 0.034020695835351944, -0.006641026120632887, 0.018058931455016136, -0.013456816785037518, -0.00559244304895401, 0.012641252018511295, -0.02912730909883976, -0.00013380356540437788, -0.02143769897520542, -0.039613138884305954, 7.418361201416701e-05, -0.014913181774318218, -0.005242915358394384, -0.007077936083078384, -0.007048808503895998, -0.05965272709727287, 0.012932525016367435, -0.019806569442152977, -0.04846784099936485, -0.0069905538111925125, -0.0191075149923563, 0.003990441095083952, 0.00471862405538559, -0.006524517200887203, 0.006611899007111788, -0.0035535315982997417, 0.025399012491106987, -0.001237910590134561, 0.01147615909576416, -0.017709404230117798, -0.039613138884305954, 0.01945704221725464, -0.025399012491106987, 0.013806344009935856, 0.014796672388911247, 0.004689496476203203, 0.0027670941781252623, 0.002839912660419941, 0.00020298092567827553, 0.0032185674645006657, 0.009087719954550266, -0.004514732863754034, 0.011883941479027271, -0.006553644314408302, 0.012291723862290382, -0.004223459865897894, 0.008213900960981846, -0.028078725561499596, 0.0009903284953907132, -0.03774899244308472, -0.009204229339957237, 6.917736027389765e-05, -0.020738642662763596, -0.0011796560138463974, 0.003378767753019929, -0.018757985904812813, -0.03145749121904373, 0.0022136755287647247, -0.008330410346388817, 0.028428252786397934, 0.006349753122776747, -0.007340081501752138, 0.012408233247697353, 0.0008046418661251664, 0.004339968785643578, -0.005679825320839882, 0.03448673337697983, 0.010252812877297401, -0.008505173958837986, 0.007747863885015249, -0.01619478315114975, 0.011709177866578102, -0.001652974751777947, -0.004835132975131273, 0.02178722620010376, -0.023068828508257866, -0.027496179565787315, -0.004951642360538244, 0.008563428185880184, -0.006611899007111788, -0.017709404230117798, 0.018408458679914474, -0.04473954439163208, -0.0027525306213647127, -0.01514620054513216, 0.01584525592625141, 0.017825912684202194, 0.011534414254128933, 0.0038739319425076246, 0.016078274697065353, -0.034020695835351944, -0.005971098318696022, 0.02295231819152832, -0.014039362780749798, -0.008388664573431015, -0.004369096364825964, -0.004077823366969824, 0.027146650478243828, 0.009145975112915039, 0.008854702115058899, 0.00926248449832201, -0.0009138692985288799, 0.007514845579862595, -0.0053885518573224545, 0.0003495276905596256, -0.0011286832159385085, -0.013107288628816605, 0.06291498243808746, -0.02085515297949314, -0.011068376712501049, -0.02796221524477005, 0.00041324368794448674, -0.0020534752402454615, -0.024233920499682426, 0.006611899007111788, -0.028311744332313538, 0.014796672388911247, 0.014505399391055107, -0.011942196637392044, 0.024233920499682426, -0.011883941479027271, -0.008039137348532677, -0.016544310376048088, 0.00926248449832201, -0.005126406438648701, -0.04171030595898628, -0.030991455540060997, -0.019340531900525093, 0.017709404230117798, 0.039846159517765045, -0.002621457679197192, -0.02178722620010376, -0.03005938231945038, 0.01013630349189043, 0.013573325239121914, -0.01502969115972519, 0.0072526996955275536, 0.03285560384392738, 0.007806118577718735, -0.020738642662763596, 0.01945704221725464, 0.007689609192311764, 0.028078725561499596, -0.025748539716005325, -0.035418808460235596, -0.0057672071270644665, -2.2755710233468562e-05, -0.006204116623848677, -0.05266217514872551, 0.010252812877297401, -0.014796672388911247, 0.007340081501752138, 0.011942196637392044, 0.0039321864023804665, -0.019573550671339035, -0.035418808460235596, 0.05126406252384186, -0.004485605284571648, 0.014621908776462078, 0.030991455540060997, 0.00471862405538559, -0.004660369362682104, -0.02469995804131031, 0.005796334240585566, -0.007631354965269566, 0.008854702115058899, -0.0041943322867155075, -0.01887449622154236, -0.0025777667760849, 0.013689834624528885, 0.03122447431087494, -0.013107288628816605, -0.025981558486819267, 0.019340531900525093, -0.005679825320839882, -0.024583447724580765, -0.024932976812124252, 0.004602114669978619, -0.019573550671339035, 0.027146650478243828, 0.03681691735982895, -0.004223459865897894, 0.01642780192196369, -0.03169051185250282, 0.0010777104180306196, 0.01584525592625141, -0.01060234010219574, 0.0032913859467953444, -0.011534414254128933, 0.024932976812124252, -0.003844804596155882, -0.017010347917675972, 0.015379218384623528, 0.016893839463591576, -0.011650923639535904, 0.01089361310005188, 0.029826363548636436, 0.016893839463591576, -0.01118488609790802, 0.0011141195427626371, 0.0019806569907814264, -0.014272380620241165, -0.010194557718932629, 0.024233920499682426, 0.006320626009255648, -0.0014272381085902452, -0.004485605284571648, -0.03005938231945038, -0.0051555335521698, 0.019224023446440697, -0.0015219018096104264, -0.014738418161869049, -0.010485830716788769, 0.011301395483314991, -0.024583447724580765, 0.011126631870865822, 0.012291723862290382, 0.0011942196870222688, 0.006670153699815273, -0.0007827964145690203, 0.04357445240020752, -0.06431309878826141, 0.006000225432217121, 0.056623488664627075, -0.0033933313097804785, -0.0235348641872406, -0.0014272381085902452, -0.00286903977394104, -0.018058931455016136, -0.02120468020439148, 0.03681691735982895, -0.018757985904812813, -0.0015655928291380405, 0.025165993720293045, -0.010194557718932629, -0.006437134929001331, -0.005242915358394384, 0.006437134929001331, -0.028195234015583992, -0.019340531900525093, -0.01712685637176037, 0.019340531900525093, 0.0117674320936203, 0.0005716234445571899, -0.0024903849698603153, 0.004631242249161005, 0.0103110671043396, -0.02737966924905777, 0.018991004675626755, 0.01852496899664402, 0.003990441095083952, 0.017010347917675972, 0.009029465727508068, -0.0027816579677164555, -0.025748539716005325, -0.004835132975131273, 0.005039024166762829, 0.003713731886819005, -0.013922853395342827, 0.021088171750307083, 0.0220202449709177, -0.007398336194455624, -0.007514845579862595, -0.0004187050508335233, -0.02178722620010376, 0.0038739319425076246, -0.0011068377643823624, 0.023651374503970146, -0.012524742633104324, 0.0039321864023804665, 0.009495502337813377, 0.003160313004627824, 0.0033205130603164434, -0.014097617007791996, -0.033088620752096176, -0.008796446956694126, 0.02446693927049637, 0.010369321331381798, -0.022486282512545586, -0.016311293467879295, -0.03122447431087494, 0.012175214476883411, -0.005039024166762829, 0.029010798782110214, -0.051963116973638535, -0.022253263741731644, -0.015728745609521866, 0.013864599168300629, 0.0073692090809345245, -0.019806569442152977, 0.014913181774318218, 0.0013908289838582277, 0.012816015630960464, 0.04031219333410263, 0.002140857046470046, -0.009495502337813377, -0.006291498430073261, -0.024932976812124252, -0.018291950225830078, 0.025399012491106987, -0.0037282954435795546, 0.008039137348532677, -0.007048808503895998, 0.025981558486819267, 0.035418808460235596, 0.017010347917675972, -0.008330410346388817, -0.0025195120833814144, -0.03029240109026432, -0.03588484227657318, 0.008971210569143295, 0.011301395483314991, -0.011126631870865822, 0.007398336194455624, 0.003451586002483964, 0.02621457725763321, 0.0055341883562505245, -0.04613765701651573, -0.01071884948760271, -0.018757985904812813, 0.016544310376048088, 0.011534414254128933, 0.02143769897520542, -0.010078048333525658, 0.023651374503970146, 0.022486282512545586, -0.018408458679914474, 0.01735987514257431, 0.04007917642593384, -0.012874269858002663, 0.0073692090809345245, 0.006670153699815273, -0.007980882190167904, -3.640913564595394e-05, -0.013107288628816605, -0.02295231819152832, 0.01101012248545885, -0.00035316860885359347, -0.030758436769247055, -0.0027088397182524204, 0.0057672071270644665, 0.020738642662763596, 0.026098068803548813, 0.008796446956694126, -0.024816466495394707, 0.026680614799261093, 0.00972852110862732, -0.021321190521121025, 0.013515071012079716, -0.018175439909100533, 0.017592893913388252, -0.0039321864023804665, 0.008097391575574875, -0.004689496476203203, -0.039613138884305954, 0.020505625754594803, -0.010485830716788769, 0.005213788244873285, -0.0012816016096621752, -0.03262258693575859, -0.022719301283359528, 0.014796672388911247, -0.020505625754594803, -0.03588484227657318, 0.013282052241265774, 0.002810785314068198, 0.007747863885015249, 0.034020695835351944, 0.006408007815480232, -0.02644759602844715, -0.0003112981212325394, 0.02528250403702259, 0.03355465829372406, -0.018408458679914474, -0.018058931455016136, 0.004835132975131273, -0.01561223715543747, -0.036583900451660156, -0.031923528760671616, -0.016078274697065353, 0.026331087574362755, -0.01794242113828659, -0.012582996860146523, 0.022602790966629982, -0.004602114669978619, 0.0014636472333222628, -0.01001979410648346, -0.01794242113828659, -0.015495727770030499, -0.0018787113949656487, 0.017825912684202194, -0.016893839463591576, 0.05033198744058609, -0.01735987514257431, 0.0017403566744178534, 0.0017330748960375786, -0.00559244304895401, -0.014039362780749798, 0.0028836035635322332, -0.016544310376048088, -0.002839912660419941, -0.012291723862290382, 0.009378992952406406, 0.029243817552924156, -0.008039137348532677, 0.015262709930539131, -0.012116960249841213, -0.02528250403702259, -0.016893839463591576, 0.015379218384623528, 0.008563428185880184, -0.012990779243409634, 0.021903736516833305, -0.005213788244873285, 0.02003958821296692, -0.013049034401774406, -0.0003058367292396724, 0.0220202449709177, -0.027263160794973373, 0.005184660665690899, -0.00471862405538559, 0.03891408443450928, 0.0032476948108524084, -0.03588484227657318, 0.022835809737443924, -0.003815677482634783, -0.0103110671043396, -0.006204116623848677, 0.010777103714644909, 0.012524742633104324, -0.006087607238441706, -0.04007917642593384, 0.022253263741731644, 0.04846784099936485, -0.008854702115058899, -0.023884393274784088, 0.022835809737443924, 0.017825912684202194, -0.009961539879441261, 0.03332164138555527, 0.006437134929001331, -0.026564104482531548, 0.01969006098806858, 0.00926248449832201, -0.004106950480490923, 0.03471975028514862, -0.011942196637392044, 0.013456816785037518, 0.030525419861078262, -0.01502969115972519, -0.006058480124920607, 0.004980769939720631, 0.02143769897520542, 0.013398561626672745, 0.012641252018511295, 0.0440404899418354, 0.006874044891446829, -0.011592668481171131, 0.008039137348532677, -0.008505173958837986, -0.006903172004967928, -0.03215654939413071, 0.00014381608343683183, 0.009145975112915039, -0.01584525592625141, -0.01735987514257431, 0.0011068377643823624, -0.000862896500620991, -0.026680614799261093, -0.016311293467879295, -0.018757985904812813, -0.02120468020439148, 0.023301847279071808, -0.01584525592625141, 0.008330410346388817, 0.009786775335669518, -0.013282052241265774, -0.028661271557211876, 0.012582996860146523, -0.0206221342086792, -0.030991455540060997, 0.0037282954435795546, -0.01147615909576416, -0.018991004675626755, 0.015495727770030499, -0.010777103714644909, 0.0071070631965994835, -0.003451586002483964, 0.018757985904812813, -0.008272155188024044, 0.04590463638305664, 0.004602114669978619, -0.006728408392518759, -0.029243817552924156, 0.026098068803548813, 0.02796221524477005, -0.012175214476883411, -0.0206221342086792, -0.004951642360538244, 0.00757310027256608, -0.00471862405538559, -0.00728182727470994, -0.031923528760671616, -0.01101012248545885, 0.027845706790685654, 0.017709404230117798, 0.018408458679914474, -0.041943322867155075, -0.02644759602844715, 0.03704993799328804, -0.030758436769247055, -0.0006917735445313156, 0.05266217514872551, 0.04450652748346329, -0.0003422458830755204, -0.03215654939413071, 0.009378992952406406, 0.018175439909100533, 0.024233920499682426, 0.0010849921964108944, -0.0006626462563872337, -0.011592668481171131, -0.008563428185880184, -0.04334143549203873, -0.027729198336601257, 0.004747751168906689, 0.013748089782893658, 0.007747863885015249, 0.021554207429289818, 0.011359650641679764, -0.0235348641872406, -0.03611786291003227, 0.023651374503970146, -0.003058367408812046, -0.029243817552924156, 0.047535765916109085, -0.01118488609790802, -0.05359424650669098, 0.01712685637176037, 0.007514845579862595, 0.016078274697065353, -0.011942196637392044, 0.011650923639535904, -0.0235348641872406, 0.01794242113828659, 0.0017622021259739995, -0.03332164138555527, -0.02027260698378086, 0.006058480124920607, -0.008679937571287155, 0.02143769897520542, 0.021088171750307083, 0.023418355733156204, 0.009145975112915039, -0.01071884948760271, 0.01677732914686203, -0.020738642662763596, 0.023767882958054543, -0.009378992952406406, 0.011301395483314991, -0.027496179565787315, 0.005242915358394384, 0.0220202449709177, -0.001019455841742456, 0.03378767892718315, -0.00020753206626977772, 0.003378767753019929, 0.025165993720293045, -0.028661271557211876, 0.00243213027715683, -0.01147615909576416, -0.023418355733156204, -0.047535765916109085, -0.04730274900794029, -0.00588371604681015, -0.015262709930539131, -0.010194557718932629, 0.007747863885015249, -0.0020243478938937187, -0.006058480124920607, 0.001092274091206491, 0.01794242113828659, 0.002330184681341052, 0.0206221342086792, -0.007689609192311764, 0.0012306288117542863, -0.008912956342101097, 0.02970985509455204, 0.004136077594012022, -0.00486426055431366, -0.011126631870865822, 0.028195234015583992, 0.013340307399630547, -0.004806005861610174, -0.0020243478938937187, 0.0017622021259739995, -0.02178722620010376, 0.015379218384623528, -0.01852496899664402, 0.009320738725364208, 0.03588484227657318, -0.04473954439163208, 0.025399012491106987, 0.03565182536840439, 0.013282052241265774, 0.017825912684202194, 0.021321190521121025, -0.020156096667051315, -0.02703014202415943, 0.021903736516833305, 0.011825687251985073, 0.016311293467879295, 0.03262258693575859, 0.0023884393740445375, 0.00573807954788208, 0.03891408443450928, 0.025165993720293045, 0.002650585025548935, -0.027146650478243828, 0.004398223478347063, 0.019573550671339035, -0.003378767753019929, -0.031923528760671616, -0.0033642041962593794, -0.030758436769247055, 0.008621683344244957, -0.028777780011296272, 0.01013630349189043, -0.004077823366969824, -0.01584525592625141, -0.004835132975131273, 0.016311293467879295, 0.016893839463591576, -0.010485830716788769, 0.018641477450728416, -0.005068151745945215, -0.011825687251985073, 0.006611899007111788, 0.01101012248545885, -0.030758436769247055, 0.012116960249841213, 0.041011251509189606, -0.02085515297949314, 0.03169051185250282, -0.03122447431087494, -0.033088620752096176, -0.022253263741731644, 0.013282052241265774, -0.011243141256272793, -0.02003958821296692, 0.018058931455016136, -0.006699280813336372, 0.018757985904812813, -0.012874269858002663, 0.019573550671339035, -0.017825912684202194, -0.0060293530113995075, 0.007136190310120583, 0.00243213027715683, 0.0382150299847126, -0.025981558486819267, 0.01969006098806858, 0.00943724811077118, 0.008505173958837986, -0.012116960249841213, 0.009145975112915039, -0.022486282512545586, -0.004339968785643578, 0.012757761403918266, -0.0008701783372089267, -0.010660595260560513, -0.030758436769247055, -0.017243366688489914, -0.007340081501752138, -0.017476385459303856, -0.03495277091860771, 0.021321190521121025, 0.007194445002824068, 0.011534414254128933, -0.004602114669978619, -0.007864372804760933, 0.0014199563302099705, 0.013981107622385025, 0.0029564218129962683, -0.013981107622385025, 0.0008774601737968624, -0.01969006098806858, -0.004776878748089075, 0.01118488609790802, -0.009612011723220348, -0.04031219333410263, 0.008505173958837986, 0.02621457725763321, -0.02679712325334549, 0.004922515247017145, 0.011301395483314991, -0.009670265950262547, 0.038681063801050186, 0.01794242113828659, 0.033088620752096176, -0.0008956647361628711, -0.023185336962342262, -0.015961764380335808, 0.02446693927049637, 0.04240936040878296, -0.007456590887159109, 0.013748089782893658, 0.0037574227899312973, -0.016311293467879295, -0.014505399391055107, 0.0044273510575294495, -0.00588371604681015, -0.005679825320839882, 0.022602790966629982, 0.002082602586597204, -0.022719301283359528, -0.03588484227657318, -0.0035535315982997417, -0.018757985904812813, -0.005242915358394384, 0.013223798014223576, -0.005068151745945215, 0.0013252925127744675, 0.013282052241265774, 0.0032913859467953444, -0.0010777104180306196, 0.01945704221725464, -0.008446919731795788, 0.0032622586004436016, -0.009145975112915039, 0.011359650641679764, 0.0005279324832372367, 0.010660595260560513, -0.02085515297949314, -0.01712685637176037, 0.020156096667051315, -0.011301395483314991, 0.0003295026835985482, 0.021903736516833305, 0.01852496899664402, 0.030525419861078262, 0.03681691735982895, 0.012233469635248184, 0.00286903977394104, -0.001652974751777947, -0.036350879818201065, 0.024816466495394707, -0.02085515297949314, -0.020738642662763596, 0.013223798014223576, -0.04054521396756172, -0.004543859977275133, -0.009670265950262547, -0.013049034401774406, 0.014272380620241165, 0.009029465727508068, 0.007456590887159109, -0.024816466495394707, 0.04567161947488785, 0.02446693927049637, 0.009961539879441261, -0.011592668481171131, 0.007310954388231039, 0.041011251509189606, -0.0043108416721224785, 0.014097617007791996, -0.012990779243409634, 0.0412442684173584, 0.008796446956694126, 0.030525419861078262, 0.014621908776462078, 0.011942196637392044, -0.02854476124048233, 0.004369096364825964, -0.003058367408812046, -0.04031219333410263, -0.024350428953766823, 0.014388890005648136, 0.03029240109026432, 0.00972852110862732, -0.0059128436259925365, 0.003670040750876069, 0.019573550671339035, 0.01794242113828659, 0.0191075149923563, 0.02679712325334549, -0.005213788244873285, 0.014388890005648136, 0.0072526996955275536, 0.006466262508183718, 0.01712685637176037, 0.0103110671043396, 0.02528250403702259, -0.011650923639535904, 0.0412442684173584, -0.02446693927049637, 0.012408233247697353, 0.019224023446440697, -0.011301395483314991, 0.019806569442152977, 0.014214126393198967, -0.003699168097227812, 0.04171030595898628, -0.04171030595898628, 0.015495727770030499, -0.02469995804131031, -0.009378992952406406, 0.016660820692777634, 0.017825912684202194, -0.017476385459303856, 0.02411741204559803, 0.008213900960981846, -0.009378992952406406, 0.03378767892718315, -0.025748539716005325, -0.019806569442152977, -0.028195234015583992, 0.004485605284571648, -0.012524742633104324, 0.03425371274352074, 0.002068038797006011, 0.0382150299847126, 0.010252812877297401, 0.027496179565787315, 0.013165543787181377, 0.0017112293280661106, -0.020971661433577538, 0.01561223715543747, -0.005971098318696022, -0.02761268801987171, 0.014680163003504276, -0.02970985509455204, 0.013456816785037518, -0.035185787826776505, -0.017243366688489914, -0.007136190310120583, -0.016311293467879295, -0.028078725561499596, -0.012408233247697353, -0.02703014202415943, -0.011942196637392044, -0.018291950225830078, -0.00189327506814152, -0.002330184681341052, -0.03332164138555527, -0.012408233247697353, 0.018641477450728416, 0.005708952434360981, 0.02236977219581604, -0.018757985904812813, 0.009961539879441261, 0.03774899244308472, -0.006320626009255648, -0.017709404230117798, -0.02003958821296692, -0.030991455540060997, -0.020738642662763596, -0.00926248449832201, -0.008213900960981846, 0.008796446956694126, -0.005184660665690899, -0.02761268801987171, -0.04171030595898628, -0.03355465829372406, -0.039613138884305954, -0.028428252786397934, 0.014097617007791996, 0.00757310027256608, -0.01147615909576416, -0.005213788244873285, 0.03262258693575859, -0.011592668481171131, 0.0103110671043396, -0.0022282390855252743, 0.010951868258416653, -0.017825912684202194, 0.00972852110862732, 0.008912956342101097, 0.03681691735982895, -0.027729198336601257, -0.004747751168906689, -0.006466262508183718, 0.023884393274784088, -0.013282052241265774, -0.0006116734584793448, 0.021088171750307083, -0.013748089782893658, 0.01071884948760271, 0.008039137348532677, 0.03285560384392738, -0.0041943322867155075, -0.02469995804131031, 0.02703014202415943, 0.010777103714644909, -0.031923528760671616, 0.030991455540060997, -0.03704993799328804, -0.008796446956694126, 0.018058931455016136, 0.03495277091860771, -0.005359424743801355, 0.018408458679914474, -0.01456365454941988, 0.007310954388231039, -0.014680163003504276, -0.011883941479027271, 0.0020534752402454615, -0.0017039475496858358, 0.03798200935125351, 0.03215654939413071, 0.03914710134267807, -0.01060234010219574, -0.009145975112915039, -0.01456365454941988, -0.0023447482381016016, 0.002548639429733157, 0.036350879818201065, -0.005621570628136396, 0.00500989705324173, 0.022719301283359528, -0.02178722620010376, 0.003204003907740116, 0.04147728532552719, 0.02679712325334549, 0.02912730909883976, -0.05918668955564499, 0.018291950225830078, -0.040778230875730515, -0.013398561626672745, -0.028894290328025818, 0.021903736516833305, -0.04380747303366661, 0.0005242915358394384, 0.022486282512545586, -0.0035826589446514845, -0.009495502337813377, 0.014097617007791996, 0.03029240109026432, -0.027263160794973373, 0.01147615909576416, -0.0010267376201227307, 0.006757535506039858, -0.0206221342086792, 0.00943724811077118, 0.023767882958054543, -0.022719301283359528, 0.004951642360538244, -0.01794242113828659, -0.0014199563302099705, -0.010777103714644909, 0.01514620054513216, -0.013806344009935856, 0.0036117862910032272, -0.02563203126192093, -0.015495727770030499, 0.01584525592625141, -0.029360326007008553, 0.0235348641872406, 0.006058480124920607, -0.045205581933259964, -0.03122447431087494, -0.0015437473775818944, -0.027146650478243828, 0.016311293467879295, -0.018408458679914474, 0.014913181774318218, 0.012116960249841213, 0.0033350768499076366, 0.013398561626672745, -0.014272380620241165, 0.039846159517765045, 0.04147728532552719, -0.0025340758729726076, -0.03565182536840439, -0.015262709930539131, -0.012291723862290382, 0.0053885518573224545, 0.004165205173194408, -0.023418355733156204, 0.023418355733156204, 0.009612011723220348, 0.013689834624528885, 0.0206221342086792, -0.017243366688489914, -0.012757761403918266, -0.011068376712501049, -0.019806569442152977, 0.008971210569143295, 0.0006480825832113624, -0.00984503049403429, -0.004165205173194408, 0.008796446956694126, -0.014097617007791996, -0.0004096027696505189, 0.015961764380335808, 0.007922627963125706, -0.007310954388231039, 0.006670153699815273, 0.022602790966629982, -0.0025777667760849, 0.0030001127161085606, -0.01642780192196369, -0.018175439909100533, -0.006495389621704817, 0.027729198336601257, 0.035185787826776505, -0.000520650646649301, 0.014796672388911247, 0.0031894403509795666, -0.012408233247697353, -0.04054521396756172, 0.0018058931455016136, 0.028661271557211876, -0.02504948526620865, -0.016660820692777634, -0.020389115437865257, -0.0206221342086792, 0.012524742633104324, -0.02446693927049637, -0.00984503049403429, 0.010951868258416653, 0.01852496899664402, 0.0017403566744178534, -0.03029240109026432, -0.018991004675626755, 0.007631354965269566, 0.011359650641679764, 0.009612011723220348, 0.0028836035635322332, -0.02621457725763321, -0.06244894862174988, 0.03262258693575859, -0.008912956342101097, 0.004806005861610174, -0.020971661433577538, 0.014039362780749798, -0.011301395483314991, -0.012990779243409634, -0.019224023446440697, 0.00033860496478155255, 0.006553644314408302, -0.02027260698378086, 0.036350879818201065, 0.0003877572889905423, 0.0019078387413173914, -0.011126631870865822, 0.020505625754594803, -0.01013630349189043, 0.035418808460235596, 0.006378880701959133, 0.008097391575574875, 0.01060234010219574, -0.0034807133488357067, -0.02528250403702259, -0.042176343500614166, 0.003466149792075157, 0.027146650478243828, 0.019224023446440697, 0.038681063801050186, -0.018757985904812813, 0.013748089782893658, 0.007980882190167904, 0.001310728839598596, 0.008330410346388817, 0.008738192729651928, 0.020505625754594803, -0.04147728532552719, 0.03169051185250282, -0.003815677482634783, 0.00486426055431366, 0.0007645918522030115, 0.008679937571287155, 0.01969006098806858, 0.015961764380335808, 9.921489254338667e-05, 0.015262709930539131, 0.027729198336601257, 0.016311293467879295, -0.011243141256272793, -0.04846784099936485, 0.0025632032193243504, -0.01852496899664402, 0.02854476124048233, 0.018757985904812813, 0.007689609192311764, 0.008330410346388817, -0.03728295490145683, -0.05173010006546974, -0.01887449622154236, 0.0010849921964108944, -0.02970985509455204, -0.012699506245553493, -0.023767882958054543, 0.018408458679914474, 0.012233469635248184, 0.012990779243409634, 0.011942196637392044, 0.03169051185250282, 0.014738418161869049, 0.005941970739513636, -0.03285560384392738, -0.0043108416721224785, -0.007631354965269566, 0.01969006098806858, 0.006116734817624092, -0.02504948526620865, 0.02761268801987171, -0.03355465829372406, 0.014388890005648136, -0.011126631870865822, -0.02469995804131031, 0.008971210569143295, -0.0011723741190508008, 0.0005060869734734297, -0.0027670941781252623, 0.010485830716788769, -0.007077936083078384, -0.017825912684202194, -0.0030146765056997538, 0.006349753122776747, 0.010078048333525658, 0.006495389621704817, -0.022835809737443924, 0.017243366688489914, 0.0036117862910032272, 0.012116960249841213, 0.03029240109026432, -0.006408007815480232, -0.01852496899664402, 0.0034078950993716717, 0.03704993799328804, 0.001652974751777947, -0.0040486957877874374, 0.004602114669978619, -0.02295231819152832, 0.012291723862290382, 0.012466488406062126, -0.01584525592625141, -0.00045693464926443994, 0.04031219333410263, 0.0006371598574332893, -0.014621908776462078, -0.0009320738608948886, 0.008272155188024044, 0.010194557718932629, -0.0027525306213647127, -0.0023447482381016016, -0.024350428953766823, 0.016311293467879295, 0.0010777104180306196, 0.03378767892718315, 0.016660820692777634, 0.008738192729651928, 0.03122447431087494, 0.0031457492150366306, -0.007806118577718735, -0.013165543787181377, 0.035418808460235596, 0.03704993799328804, -0.01794242113828659, 0.02563203126192093, -0.009029465727508068, -0.008213900960981846, -0.027263160794973373, -0.0026797123719006777, 0.04334143549203873, 0.007806118577718735, 0.03448673337697983, 0.019923079758882523, -0.013340307399630547, -0.014796672388911247, -0.0006335189682431519, 0.0014126744354143739, -0.006641026120632887, -0.034020695835351944, 0.026913633570075035, 0.00984503049403429, -0.025515522807836533, 0.027496179565787315, 0.0039321864023804665, -0.022719301283359528, -0.00530117005109787, 0.0220202449709177, -0.030525419861078262, 0.028311744332313538, -0.00742746377363801, 0.01561223715543747, 0.0021991117391735315, 0.013456816785037518, 0.00286903977394104, -0.019573550671339035, -0.013981107622385025, -0.024233920499682426, -0.012699506245553493, -0.012874269858002663, -0.015495727770030499, 0.035185787826776505, -0.0016165656270459294, 0.04590463638305664, 0.06011876463890076, 0.0039321864023804665, 0.008505173958837986, 0.04380747303366661, 0.018991004675626755, 0.01089361310005188, 0.010369321331381798, 0.0039321864023804665, -0.0025632032193243504, -0.014913181774318218, -0.004747751168906689, 0.00984503049403429, -0.02027260698378086, -0.01013630349189043, 0.04380747303366661, 0.004951642360538244, -0.003990441095083952, -0.022719301283359528, 0.012641252018511295, 0.0030146765056997538, -0.018641477450728416, 0.03914710134267807, -0.0033933313097804785, -0.006116734817624092, -0.0010267376201227307, 0.017709404230117798, 0.013922853395342827, 0.0033933313097804785, -0.02912730909883976, -0.0019806569907814264, 0.01677732914686203, -0.016544310376048088, 0.0206221342086792, 0.015961764380335808, 9.830466296989471e-05, -0.023301847279071808, -0.02504948526620865, -0.012932525016367435, 0.00034042540937662125, 0.007456590887159109, -0.03169051185250282, -0.02679712325334549, 0.007398336194455624, 0.020971661433577538, -0.012349979020655155, -0.01071884948760271, -0.015961764380335808, -0.010777103714644909, -0.005825461819767952, -0.0103110671043396, 0.023185336962342262, 0.01118488609790802, -0.015495727770030499, -0.02469995804131031, -0.0071070631965994835, -0.017709404230117798, -0.005941970739513636, 0.005213788244873285, -0.015728745609521866, 0.0038739319425076246, -0.015961764380335808, -0.0023010573349893093, -0.004543859977275133, 0.042176343500614166, -0.012233469635248184, -0.018991004675626755, 0.019806569442152977, 0.01514620054513216, 0.028195234015583992, 0.018058931455016136, -0.026098068803548813, 0.005621570628136396, 0.03332164138555527, -0.0043108416721224785, 0.01887449622154236, 0.003844804596155882, -0.029010798782110214, -0.008563428185880184, -0.01101012248545885, -0.019224023446440697, 0.01101012248545885, -0.0011359649943187833, -0.014330635778605938, 0.03495277091860771, 0.012466488406062126, -0.022253263741731644, -0.011825687251985073, 0.022253263741731644, 0.025399012491106987, 0.005971098318696022, 0.01677732914686203, -0.010777103714644909, 0.0031894403509795666, 0.013049034401774406, -0.0006043916218914092, -0.00094663753407076, 0.018641477450728416, 0.02761268801987171, -0.005708952434360981, 0.015961764380335808, 0.02528250403702259, -0.020971661433577538, 0.0045729875564575195, -0.006524517200887203, -0.04450652748346329, 0.01001979410648346, 0.006903172004967928, 0.03471975028514862, 0.012466488406062126, 0.008505173958837986, 0.01619478315114975, 0.020389115437865257, -0.008505173958837986, 0.012874269858002663, -0.024233920499682426, 0.035185787826776505, -0.012175214476883411, 0.05522537603974342, 0.03798200935125351, 0.019340531900525093, -0.0014490835601463914, -0.0191075149923563, 0.01514620054513216, -6.144041435618419e-06, 0.0023447482381016016, -0.016078274697065353, -0.0028836035635322332, 0.01485492754727602, 0.018058931455016136, -0.02644759602844715, -0.001405392657034099, -0.026680614799261093, -0.008330410346388817, -0.0017185112228617072, 0.002737967064604163, 0.03425371274352074, -0.017592893913388252, -0.02085515297949314, -0.00955375749617815, -0.007456590887159109, 0.0206221342086792, 0.007165317889302969, 0.006087607238441706, -0.013806344009935856, 0.0005971098435111344, -0.001995220547541976, -0.002665148815140128, 0.03495277091860771, -0.018058931455016136, 0.00286903977394104, -0.029476836323738098, -0.0117674320936203, -0.010252812877297401, 0.00757310027256608, 0.013806344009935856, 0.0007209008908830583, 0.006262371316552162, -0.023068828508257866, 0.008679937571287155, -0.0005424960982054472, 0.0012816016096621752, -0.007514845579862595, 0.0012670379364863038, -0.0040486957877874374, -0.04007917642593384, 0.02236977219581604, 0.014039362780749798, -0.0026942759286612272, 0.006903172004967928, -0.022719301283359528, 0.007806118577718735, -0.006932299584150314, 0.02085515297949314, 0.0002585048496257514, -0.05825461819767952, -0.029010798782110214, -0.016660820692777634, -0.02621457725763321, 0.009087719954550266, 0.012058706022799015, -0.028661271557211876, 0.008097391575574875, 0.0014272381085902452, 0.019340531900525093, -0.005621570628136396, -0.00972852110862732, 0.021903736516833305, 0.04240936040878296, 0.012932525016367435, 0.005621570628136396, -0.02854476124048233, -0.0323895663022995, 0.011126631870865822, 0.006087607238441706, -0.012641252018511295, 0.008854702115058899, -0.045205581933259964, -0.0029272944666445255, 0.014505399391055107, 0.012641252018511295, 0.017476385459303856, -0.014388890005648136, 0.003349640406668186, 0.006553644314408302, -0.020738642662763596, -0.007514845579862595, 0.006204116623848677, -0.03029240109026432, -0.0036554771941155195, 0.022719301283359528, -0.022136753425002098, -0.000924792024306953, 0.021321190521121025, 0.03728295490145683, 0.008563428185880184, 0.01584525592625141, -0.008505173958837986, -0.0035826589446514845, 0.008679937571287155, 0.037515971809625626, -0.01677732914686203, 0.025165993720293045, -0.021321190521121025, -0.011709177866578102, 0.01969006098806858, 0.007398336194455624, 0.0002302877837792039, -0.0016675384249538183, 0.01887449622154236, -0.01089361310005188, 0.017825912684202194, 9.64842110988684e-05, -0.0009684829856269062, -0.012990779243409634, 0.009903284721076488, 0.011068376712501049, 0.0021554208360612392, -0.04147728532552719, -0.002737967064604163, 0.014214126393198967, -0.012641252018511295, 0.006408007815480232, -0.010252812877297401, -0.02236977219581604, 0.03471975028514862, 0.03891408443450928, -0.01147615909576416, -0.016078274697065353, -0.02236977219581604, 0.016311293467879295, -0.017010347917675972, 0.0053885518573224545, -0.011417904868721962, -0.0016893838765099645, -0.012233469635248184, 0.04240936040878296, 0.00043326872400939465, -0.0039030592888593674, 0.02446693927049637, 0.01042757648974657, -0.0001419956242898479, 0.014621908776462078, -0.016893839463591576, -0.017243366688489914, 0.023651374503970146, -0.054293300956487656, -0.030525419861078262, 0.013282052241265774, 0.0004878824111074209, -0.008213900960981846, -0.01561223715543747, -0.003990441095083952, 0.017825912684202194, -0.014796672388911247, -0.03029240109026432, -0.019340531900525093, -0.013107288628816605, -0.027263160794973373, -0.01852496899664402, -0.014505399391055107, -0.029010798782110214, 0.02504948526620865, 0.004252586979418993, -0.005068151745945215, 0.023301847279071808, -0.009612011723220348, 0.019573550671339035, -0.017243366688489914, 0.0220202449709177, 0.004077823366969824, 0.012466488406062126, 0.013107288628816605, 0.0004842414928134531, 0.014621908776462078, 0.01969006098806858, -0.007048808503895998, -0.009495502337813377, -0.008912956342101097, -0.04031219333410263, -0.013398561626672745, -0.0019515296444296837, 0.03215654939413071, -0.00043508916860446334, 0.026564104482531548, -0.02644759602844715, 0.008738192729651928, -0.001237910590134561, -0.020156096667051315, -0.00728182727470994, 0.043108414858579636, 0.03425371274352074, 0.008854702115058899, 0.0003240412916056812, -0.004252586979418993, 0.006291498430073261, 0.02563203126192093, -0.009786775335669518, -0.02236977219581604, -0.00544680655002594, 0.02085515297949314, -0.006961426697671413, 0.008039137348532677, -0.008563428185880184, -0.012349979020655155, 0.013806344009935856, -0.03145749121904373, -0.00015018768317531794, -0.00588371604681015, -0.013049034401774406, 0.006058480124920607, -0.01071884948760271, -0.02703014202415943, 0.006262371316552162, 0.018408458679914474, -0.003961313981562853, 0.00984503049403429, 0.03471975028514862, 0.01794242113828659, 0.006145861931145191, 0.0440404899418354, -0.007689609192311764, -0.02621457725763321, -0.05359424650669098, 0.03355465829372406, -0.014097617007791996, -0.01619478315114975, 0.017592893913388252, 0.03169051185250282, 0.01852496899664402, -0.014155872166156769, 0.024583447724580765, -0.001237910590134561, -0.025515522807836533, -0.017825912684202194, 0.01584525592625141, -0.016078274697065353, 0.0033933313097804785, -0.0056506977416574955, -0.0024175664875656366, 0.0103110671043396, -0.035185787826776505, 0.028661271557211876, -0.024816466495394707, -0.017592893913388252, 0.007194445002824068, 0.01945704221725464, -0.0018423022702336311, 0.026098068803548813, -0.01969006098806858, 0.007864372804760933, 0.03122447431087494, -0.033088620752096176, 0.00588371604681015, 0.008679937571287155, -0.006000225432217121, -0.017243366688489914, 0.041943322867155075, 0.022253263741731644, -0.02178722620010376, 0.011650923639535904, 0.0059128436259925365, 0.0004096027696505189, 0.005126406438648701, -0.01887449622154236, -0.016893839463591576, -0.022835809737443924, -0.005359424743801355, 0.018757985904812813, 0.02854476124048233, 0.015728745609521866, -0.01089361310005188, 0.00757310027256608, 0.0036117862910032272, -0.009612011723220348, -0.04963293299078941, -0.010252812877297401, 0.005359424743801355, 0.023068828508257866, -0.012932525016367435, -0.028661271557211876, 0.0034370224457234144, -0.016544310376048088, 0.005272042937576771, 0.03145749121904373, -0.034020695835351944, 0.0005461370456032455, -0.03448673337697983, 0.0038739319425076246, 0.01514620054513216, -0.02679712325334549, 0.008505173958837986, 0.004776878748089075, 0.01735987514257431, -0.04963293299078941, -0.023884393274784088, 0.007806118577718735, 0.0043108416721224785, -0.0017403566744178534, -0.014272380620241165, 0.025165993720293045, 0.0039030592888593674, -0.011825687251985073, 0.009145975112915039, -0.002665148815140128, -0.010660595260560513, 0.028195234015583992, -0.0041943322867155075, 0.006058480124920607, -0.0035098406951874495, -0.01677732914686203, -0.028777780011296272, 0.02411741204559803, 0.0007245417800731957, 0.029360326007008553, 0.011534414254128933, -0.033088620752096176, 0.00189327506814152, 0.016544310376048088, 0.03029240109026432, -0.016893839463591576, 0.010951868258416653, -0.0039321864023804665, 0.01485492754727602, 0.012524742633104324, -0.002985549159348011, -0.0055341883562505245, 0.00013471380225382745, 0.018175439909100533, 0.014796672388911247, 0.01502969115972519, 0.002839912660419941, -0.012699506245553493, 0.007136190310120583, 0.009961539879441261, 0.009786775335669518, 0.029826363548636436, -0.01514620054513216, 0.004106950480490923, 0.047535765916109085, 0.017592893913388252, 0.018175439909100533, -0.0044273510575294495, -0.02528250403702259, -0.0026360214687883854, -0.02411741204559803, -0.020971661433577538, -0.014913181774318218, 0.03169051185250282, -0.0023156211245805025, 0.004485605284571648, -0.02586505003273487, 0.013107288628816605, -0.011534414254128933, 0.002650585025548935, -0.02027260698378086, -0.023651374503970146, 0.01735987514257431, -0.0014782109064981341, 0.0235348641872406, -0.042176343500614166, 0.0017476384527981281, -0.01969006098806858, 0.008505173958837986, 0.01514620054513216, 0.01584525592625141, 0.03425371274352074, -0.0011505286674946547, 0.01013630349189043, -0.009320738725364208, -0.04147728532552719, -0.04497256502509117, 0.015728745609521866, 0.0073692090809345245, -0.006408007815480232, -0.009612011723220348, 0.014097617007791996, -0.012757761403918266, 0.0023884393740445375, -0.00486426055431366, -0.0001993400219362229, 0.0191075149923563, -0.024583447724580765, -0.00972852110862732, 0.01642780192196369, -0.008097391575574875, 0.014738418161869049, 0.012233469635248184, -0.006349753122776747, 0.01794242113828659, -0.027845706790685654, 0.01514620054513216, -0.0018277385970577598, -0.012000450864434242, -0.012175214476883411, 0.0055341883562505245, 0.027146650478243828, -0.011534414254128933, 0.03145749121904373, 0.009495502337813377, -0.013456816785037518, -0.007864372804760933, -0.01042757648974657, 0.012757761403918266, 0.0020534752402454615, -0.003204003907740116, -0.011883941479027271, -0.0025340758729726076, 0.013981107622385025, 0.016311293467879295, 0.006145861931145191, 0.01852496899664402, -0.02563203126192093, -0.020389115437865257, 0.017592893913388252, -0.001310728839598596, 0.0022282390855252743, 0.008388664573431015, -0.008738192729651928, 0.04264238104224205, 0.02236977219581604, 0.03425371274352074, -0.02143769897520542, 0.035185787826776505, -0.002650585025548935, -0.023068828508257866, 0.006058480124920607, -0.008796446956694126, -0.0044273510575294495, 0.020971661433577538, -0.02085515297949314, 0.009029465727508068, 0.017476385459303856, -0.016544310376048088, 0.007456590887159109, -0.0037574227899312973, 0.0191075149923563, 0.029476836323738098, 0.0016675384249538183, 0.0018787113949656487, 0.052196137607097626, -0.004077823366969824, 0.007019681390374899, 0.017010347917675972, 0.006378880701959133, 0.019340531900525093, -0.0027816579677164555, 0.006204116623848677, -0.022719301283359528, -0.025399012491106987, 0.012757761403918266, -0.0025195120833814144, 0.0035826589446514845, -0.018641477450728416, -0.03029240109026432, 0.04147728532552719, -0.006466262508183718, -0.013689834624528885, -0.029010798782110214, 0.00471862405538559, -0.004806005861610174, -0.012000450864434242, -0.0206221342086792, 0.02411741204559803, 0.00588371604681015, 0.00742746377363801, -0.004165205173194408, -0.017010347917675972, -0.01514620054513216, 0.010777103714644909, -0.028078725561499596, -0.0021262934897094965, 0.012175214476883411, 0.014155872166156769, -0.025165993720293045, 0.003160313004627824, 0.01642780192196369, 0.003233131254091859, 0.02854476124048233, -0.014155872166156769, 0.005039024166762829, 0.008330410346388817, -0.013748089782893658, 0.028428252786397934, 0.04893387854099274, 0.010078048333525658, 0.004806005861610174, 0.0034370224457234144, -0.006553644314408302, -0.03425371274352074, -0.013107288628816605, -0.0029272944666445255, 0.009670265950262547, -0.0034370224457234144, 0.011126631870865822, -0.03145749121904373, -0.01619478315114975, 0.012932525016367435, -0.02446693927049637, 0.015728745609521866, 0.0005898280069231987, -0.003349640406668186, 0.009204229339957237, -0.0009102284093387425, 0.012699506245553493, 0.007747863885015249, -0.025399012491106987, -0.017825912684202194, 0.0034224586561322212, -0.01584525592625141, 0.019923079758882523, 0.0206221342086792, 0.010544085875153542, 0.014214126393198967, -0.011883941479027271, -0.044273506850004196, 0.005971098318696022, -0.04287539795041084, 0.022835809737443924, -0.027845706790685654, 0.008039137348532677, -0.05802159756422043, 0.02761268801987171, 0.00742746377363801, 0.006087607238441706, 0.023068828508257866, 0.0034807133488357067, -0.0014636472333222628, -0.014447145164012909, -0.012524742633104324, -0.03332164138555527, -0.035185787826776505, -0.040778230875730515, 0.011709177866578102, -0.005854588933289051, 0.021670717746019363, -0.0014126744354143739, 0.013049034401774406, -0.045438602566719055, 0.013864599168300629, -0.027263160794973373, 0.015961764380335808, -0.007689609192311764, -0.00926248449832201, -0.0015364654827862978, 0.005242915358394384, -0.001041301293298602, -0.03029240109026432, -0.018175439909100533, -0.04264238104224205, 0.009495502337813377, -0.0020534752402454615, 0.028311744332313538, -0.039846159517765045, -0.02796221524477005, -0.002068038797006011, 0.011301395483314991, 0.00588371604681015, -0.04357445240020752, -0.00972852110862732, -0.017709404230117798, 0.001674820203334093, 0.014039362780749798, 0.0025923303328454494, 0.00500989705324173, 0.024233920499682426, 0.0191075149923563, -0.015961764380335808, -0.02027260698378086, -0.0005170096992515028, 0.028894290328025818, 0.011709177866578102, -0.007398336194455624, -0.005679825320839882, 0.019573550671339035, 0.007922627963125706, 0.0044273510575294495, 0.023767882958054543, -0.03728295490145683, 0.004019568674266338, 0.0019369659712538123, 0.017010347917675972, 0.002140857046470046, -0.0010777104180306196, 0.006378880701959133, -0.0072235725820064545, 0.01584525592625141, 0.017825912684202194, -0.009612011723220348, 0.022602790966629982, 0.008330410346388817, 0.015961764380335808, 0.020971661433577538, -0.015379218384623528, 0.016544310376048088, 0.01852496899664402, 0.012349979020655155, -0.018408458679914474, -0.014388890005648136, -0.0006335189682431519, 0.02178722620010376, 0.011650923639535904, 0.023651374503970146, 0.0018131749238818884, -0.01013630349189043, -0.004165205173194408, -0.013864599168300629, 0.0235348641872406, 0.010485830716788769, 0.017010347917675972, -0.0382150299847126, 0.007310954388231039, -0.02679712325334549, -0.008388664573431015, 0.013864599168300629, 0.014913181774318218, -0.0009830466005951166, -0.008272155188024044, -0.005475934129208326, -0.027729198336601257, -0.012582996860146523, 0.028661271557211876, -0.0055341883562505245, -0.013573325239121914, 0.0040486957877874374, 0.00972852110862732, 0.01794242113828659, -0.05825461819767952, -0.022835809737443924, -0.011883941479027271, 0.0025923303328454494, 0.020156096667051315, -0.0016238474054262042, -0.013223798014223576, 0.021903736516833305, 0.00926248449832201, -0.014796672388911247, 0.008679937571287155, -0.009145975112915039, -0.002796221524477005, 0.02120468020439148, 0.014155872166156769, -0.03495277091860771, 0.03588484227657318, -0.022486282512545586, 0.0040486957877874374, -0.004835132975131273, 0.035185787826776505, -0.02085515297949314, 0.01794242113828659, 0.009670265950262547, -0.012291723862290382, 0.026913633570075035, -0.02586505003273487, -0.002330184681341052, 0.002140857046470046, 0.0023884393740445375, 0.007689609192311764, 0.03029240109026432, -0.016544310376048088, -0.024583447724580765, 0.0007973600877448916, -0.03938012197613716, 0.021670717746019363, 0.013748089782893658, 0.0412442684173584, -0.004631242249161005, 0.023651374503970146, 0.016544310376048088, 0.003815677482634783, 0.012932525016367435, -0.013340307399630547, 0.007631354965269566, 0.03215654939413071, -0.018408458679914474, 0.003597222501412034, -0.02469995804131031, 0.051963116973638535, -0.009029465727508068, 0.008912956342101097, 0.030525419861078262, -0.004165205173194408, 0.008097391575574875, -0.010951868258416653, -0.00027306852280162275, -0.008796446956694126, -0.016893839463591576, -0.0024175664875656366, 0.020389115437865257, 0.022602790966629982, -0.030758436769247055, -0.01712685637176037, 0.006641026120632887, -0.04240936040878296, -0.024350428953766823, -0.00530117005109787, -0.005213788244873285, 0.013748089782893658, 0.026564104482531548, -0.018291950225830078, -0.02236977219581604, 0.03145749121904373, 0.0023447482381016016, -0.016893839463591576, 0.007514845579862595, 0.0055341883562505245, -0.00094663753407076, -0.028078725561499596, 0.010369321331381798, -0.009145975112915039, -0.005330297630280256, -0.01735987514257431, 0.018991004675626755, -0.01887449622154236, -0.011068376712501049, -0.007747863885015249, 0.007922627963125706, 0.016660820692777634, 0.03145749121904373, -0.02563203126192093, 0.009903284721076488, -0.0005497779347933829, -0.012699506245553493, 0.018641477450728416, -0.018175439909100533, -0.010660595260560513, -0.020389115437865257, -0.0037574227899312973, 0.013456816785037518, -0.001237910590134561, 0.007194445002824068, -0.0025777667760849, 0.0006408008048310876, 0.0014636472333222628, -0.006408007815480232, 0.016078274697065353, 0.028311744332313538, 0.03145749121904373, -0.013515071012079716, -0.0033350768499076366, 0.0033350768499076366, -0.023068828508257866, 0.025981558486819267, 0.023418355733156204, 0.009320738725364208, 0.02703014202415943, 0.029360326007008553, 0.013748089782893658, -0.013806344009935856, 0.010660595260560513, 0.007747863885015249, 0.019806569442152977, 0.031923528760671616, 0.00486426055431366, 0.009378992952406406, -0.011126631870865822, 0.027729198336601257, -0.028078725561499596, 0.006262371316552162, -0.04007917642593384, 0.007631354965269566, 0.01456365454941988, -0.016660820692777634, -0.005097278859466314, -0.03285560384392738, -0.0022282390855252743, -0.001580156502313912, 0.02761268801987171, 0.01456365454941988, -0.022719301283359528, 0.008505173958837986, 0.013981107622385025, 0.03215654939413071, -0.0002767094410955906, 0.010660595260560513, -0.03029240109026432, 0.02644759602844715, -0.024583447724580765, -0.0015655928291380405, -0.018408458679914474, -0.019573550671339035, 0.008563428185880184, 0.00742746377363801, 0.048700857907533646, -0.0206221342086792, -0.02586505003273487, -0.007048808503895998, -0.019224023446440697, -0.029826363548636436, -0.001725793001241982, -0.02143769897520542, 0.002665148815140128, 0.01456365454941988, 0.01712685637176037, 0.019573550671339035, -0.0016165656270459294, -0.01677732914686203, -0.04800180345773697, -0.023068828508257866, 0.03704993799328804, -0.012000450864434242, -0.00943724811077118, -0.0026360214687883854, -0.00286903977394104, 0.009087719954550266, 0.008272155188024044, 0.016311293467879295, 0.01001979410648346, -0.004106950480490923, -0.04567161947488785, 0.008213900960981846, -0.00500989705324173, 0.018991004675626755, -0.006524517200887203, 0.010485830716788769, 0.011534414254128933, 0.005272042937576771, -0.01060234010219574, 0.022719301283359528, 0.0412442684173584, -0.029826363548636436, 0.00943724811077118, 0.02469995804131031, -0.001652974751777947, 0.05149707943201065, -0.023418355733156204, 0.03891408443450928, 0.008563428185880184, -0.01969006098806858, 0.019923079758882523, -0.009670265950262547, 0.031923528760671616, 0.014505399391055107, -0.006233244203031063, -0.008330410346388817, -0.039613138884305954, -0.006815790198743343, 0.01969006098806858, -0.0015510291559621692, 0.0023010573349893093, -0.010485830716788769, 0.0024466938339173794, -0.002970985369756818, -0.010660595260560513, 0.008039137348532677, 0.023767882958054543, -0.017476385459303856, -0.0021554208360612392, 0.0015219018096104264, 0.014680163003504276, 0.018408458679914474, -0.013223798014223576, 0.015728745609521866, -0.008854702115058899, -0.020389115437865257, 0.01502969115972519, -0.013340307399630547, -0.017010347917675972, 0.01089361310005188, -0.006408007815480232, -0.007864372804760933, -0.011126631870865822, -0.013282052241265774, 0.026098068803548813, 0.011942196637392044, 0.025515522807836533, 0.02236977219581604, -0.028311744332313538, -0.006087607238441706, -0.0010558649664744735, 0.012233469635248184, 0.007864372804760933, -0.030991455540060997, 0.004077823366969824, 0.024233920499682426, 0.015379218384623528, -0.01514620054513216, -0.018991004675626755, 0.014621908776462078, -0.0023738755844533443, 0.014330635778605938, 0.0007318236166611314, 0.01584525592625141, -0.01502969115972519, 0.013806344009935856, 0.01712685637176037, 0.010544085875153542, -0.013456816785037518, 0.016893839463591576, -0.015495727770030499, -0.01071884948760271, -0.02761268801987171, 0.064779132604599, 0.028311744332313538, -0.008213900960981846, -0.021670717746019363, 0.03844804689288139, 0.039846159517765045, -0.012582996860146523, 0.019224023446440697, 0.001165092340670526, -0.001529183704406023, -0.01945704221725464, -0.006641026120632887, 0.018408458679914474, 0.004689496476203203, 0.006378880701959133, -0.00926248449832201, 0.016893839463591576, -0.027845706790685654, -0.03215654939413071, 0.0033205130603164434, -0.010252812877297401, -0.011301395483314991, -0.02178722620010376, -0.010369321331381798, 0.023884393274784088, 0.0036554771941155195, -0.012466488406062126, -0.015379218384623528, 0.008738192729651928, -0.01677732914686203, -0.0012961651664227247, 0.003305949503555894, -0.004747751168906689, -0.001332574407570064, 0.020738642662763596, -0.003990441095083952, -0.0072526996955275536, 0.011301395483314991, 0.01561223715543747, -0.002242802642285824, 0.012932525016367435, -0.008679937571287155, -0.008213900960981846, 0.0032476948108524084, -0.005563315935432911, 0.022253263741731644, 0.004893387667834759, -0.03332164138555527, 0.0323895663022995, 0.007747863885015249, -0.005242915358394384, 0.008854702115058899, 0.005272042937576771, -0.005621570628136396, -0.001580156502313912, 0.018175439909100533, 0.009961539879441261, 0.018991004675626755, 0.006641026120632887, -0.03332164138555527, -0.017010347917675972, -0.009495502337813377, -0.0009175101877190173, 0.03332164138555527, 0.006174989510327578, 0.01642780192196369, 0.008505173958837986, 0.014447145164012909, 0.025748539716005325, 0.011243141256272793, -0.020971661433577538, 0.039613138884305954, -0.00031857992871664464, -0.01945704221725464, -0.007398336194455624, -0.021321190521121025, 0.041011251509189606, -0.004339968785643578, -0.013165543787181377, -0.014505399391055107, -0.02027260698378086, 0.019224023446440697, -0.03378767892718315, -0.0117674320936203, 0.019923079758882523, 0.009612011723220348, -0.03588484227657318, -0.007310954388231039, 0.011883941479027271, -0.00189327506814152, 0.027845706790685654, 0.03285560384392738, -0.0019806569907814264, 0.0235348641872406, 0.03215654939413071, 0.0323895663022995, 0.003538968041539192, -0.008563428185880184, 0.024583447724580765, 0.03169051185250282, -0.024932976812124252, -0.0034224586561322212, -0.01071884948760271, -0.014738418161869049, 0.02178722620010376, 0.005825461819767952, 0.00972852110862732, -0.00025122304214164615, 0.04031219333410263, -0.013165543787181377, 0.03378767892718315]}}
{"UUID": "307c54fb-08ae-4e67-8a41-5440ca663c29", "BM25": {"terms": ["jmir", "publications", "preprints", "journal", "of", "medical", "internet", "research", "protocols", "formative", "mhealth", "and", "uhealth", "public", "health", "surveillance", "online", "informatics", "mental", "human", "factors", "serious", "games", "education", "aging", "jmirx", "med", "cancer", "iproceedings", "interactive", "pediatrics", "parenting", "dermatology", "rehabilitation", "assistive", "technologies", "diabetes", "cardio", "infodemiology", "ai", "nursing", "participatory", "medicine", "perioperative", "biomedical", "engineering", "bioinformatics", "biotechnology", "asian", "pacific", "island", "bio", "neurotechnology", "xr", "spatial", "computing", "jmxr", "2", "0", "data", "challenges", "transfer", "hub", "manuscript", "exchange", "explore", "our", "sister", "journals", "here", "current", "issue", "upcoming", "top", "articles", "browse", "by", "year", "select", "2015", "issues", "authors", "themes", "maintenance", "notice", "due", "to", "necessary", "scheduled", "the", "website", "will", "be", "unavailable", "from", "wednesday", "july", "01", "2020", "at", "8", "00", "pm", "10", "est", "we", "apologize", "in", "advance", "for", "any", "inconvenience", "this", "may", "cause", "you", "who", "affected", "readers", "no", "access", "all", "28", "recommend", "accessing", "via", "pubmed", "central", "submission", "form", "or", "your", "user", "account", "reviewers", "please", "download", "manuscripts", "are", "reviewing", "offline", "reading", "before", "7", "editors", "assign", "make", "decisions", "copyeditors", "copyediting"], "weights": [10.82618753664014, 4.953232864940458, 4.8940832344733245, 4.664311741336309, 0.10303636951905741, 4.474651281054861, 3.6952174637987296, 1.8745063718115085, 3.5013481503541137, 5.891068201097416, 4.544811558610675, 0.1273570869785692, 5.3252656575807995, 3.84438533692644, 2.11859223809836, 5.3252656575807995, 3.083671544978192, 7.422090708475499, 2.8640069990581245, 2.6322824117193075, 1.908260643110575, 4.270565253379582, 4.687780875119402, 2.7429916651037685, 1.7592862960145763, 8.55814702778751, 2.1623999206360502, 3.8341372022520037, 5.891068201097416, 4.599423351884598, 5.1090548475496735, 5.891068201097416, 5.01709995726052, 3.178225074441258, 5.388074897142299, 3.6327554917742586, 2.481402338769163, 5.891068201097416, 5.891068201097416, 3.3332970532122306, 4.790162900336024, 5.1090548475496735, 4.156651637819617, 4.75165548758835, 4.375316394191009, 4.444258595106482, 5.1090548475496735, 5.2663846387289635, 4.599423351884598, 5.158634165606216, 4.042733502103444, 5.455374202656846, 4.719176767353587, 5.60638323487732, 3.546203749167309, 4.353413324444661, 5.891068201097416, 0.8496944990548568, 1.830830899144405, 1.277094392372097, 2.9875416439600855, 4.8940832344733245, 5.061955556073715, 3.0290597517042697, 5.158634165606216, 2.8640069990581245, 2.9076434369113837, 7.524697348052121, 4.51281941183311, 4.042733502103444, 2.30845866787318, 5.465351902252272, 6.490035775354483, 3.8341372022520037, 3.562386930435332, 6.951753347127053, 0.8056321249592195, 3.4419363215405014, 4.974283968448077, 2.244058096796749, 3.209831716785359, 3.111017688344617, 4.353413324444661, 6.293249532654884, 4.8940832344733245, 2.4436094157102892, 0.6754673080018239, 3.93962239575044, 5.786317060285987, 0.160355136371323, 4.6573979322162655, 3.5499111441688718, 1.921640041177507, 5.60638323487732, 0.8101479066253314, 12.874235602764825, 6.497155704432623, 5.10281355609139, 3.1273456884425306, 2.4871587445195047, 1.7109443607045005, 8.215987816731326, 8.09536176938555, 0.9238766084025815, 6.143716420247311, 2.5840875327836406, 7.524697348052121, 0.09731430567330687, 4.231723066031326, 0.4018656774900178, 2.435099211269861, 7.524697348052121, 0.8650299849691387, 1.4647086792598059, 3.750632831822558, 5.20077024929907, 2.2697661074942594, 3.809513850674393, 5.891068201097416, 3.68756003005139, 4.812337164776003, 1.6034415593409477, 2.4521972218696595, 5.061955556073715, 5.786317060285987, 2.6605558911010916, 1.5027555705383786, 2.2417554317138184, 3.510149985913038, 3.184462114122302, 1.404556804592524, 4.923136948686302, 8.215987816731326, 7.042954354615155, 5.099309436518486, 5.94259377111641, 4.213391630077098, 8.269040600292827, 1.5047878536482415, 5.3252656575807995, 6.490035775354483, 4.8940832344733245, 4.599167835921468, 2.372453790761869, 3.262718005795691, 6.008945541145715, 3.450197686354476, 3.9971541456755686, 7.524697348052121, 7.524697348052121], "k1": 1.5, "b": 0.75, "avgdl": 233.87661016949153, "N": 4425}, "SpladeV3": {"model_id": "naver/splade-v3", "tokens": ["##mir", "j", "##mx", "journal", "spatial", "apologize", "access", "journals", "unavailable", "surveillance", "interactive", "maintenance", "##rin", "2020", "protocols", "pub", "biotechnology", "##itors", "research", "internet", "nursing", "##ience", "manuscript", "serious", "sister", "pediatric", "publications", "##ven", "##atics", "protocol", "prep", "copy", "2015", "download", "website", "online", "review", "transfer", "format", "current", "pacific", "aging", "biomedical", "manuscripts", "account", "decisions", "inform", "off", "japan", "issue", "##itor", "advance", "##form", "publishing", "exchange", "asian", "authors", "med", "hub", "affected", "sisters", "public", "issues", "cancer", "##iting", "themes", "articles", "jul", "health", "##eding", "noon", "brows", "medical", "exchanges", "challenges", "notice", "##med", "games", "bio", "##ative", "island", "uh", "assignment", "submitted", "editors", "clinic", "user", "submit", "##mat", "published", "##line", "diabetes", "transferred", "submission", "human", "data", "mentally", "please", "##tech", "saturday", "##uro", "##ici", "engineering", "july", "medicine", "##tory", "due", "ip", "researcher", "est", "education", "wednesday", "der", "mental", "ai", "parenting", "##eal", "assign", "affect", "decision", "reviewers", "##bet", "##nology", "theme", "cancers", "nurse", "central", "users", "author", "scheduled", "##io", "challenging", "schedule", "mir", "apology", "x", "necessary", "upcoming", "websites", "##ive", "recommended", "##per", "date", "recommend", "article", "release", "apologies", "university", "##mi", "updated", "assigned", "game", "reading", "computing", "editor", "before", "currently", "skin", "rehabilitation", "##ology", "year", "factors", "educational", "vaccine", "publication", "humans", "age", "per", "rehab", "psychiatric", "##de", "patient", "assist", "##bi", "deadline", "healthcare", "disease", "readers", "impacted", "reviewing", "explore", "##ro", "magazine", "citing", "information", "challenge", "islands", "no", "##in", "top", "ne", "latest", "minimal", "engineer", "##ited", "india", "monograph", "databases", "citation", "hospital", "part", "accounts", "expired", "parents", "copies", "inc", "maintain", "korea", "update", "sorry", "unknown", "copyright", "who", "pm", "card", "database", "unaffected", "biology", "musa", "topics", "report", "novel", "detection", "accessible", "discontinued", "page", "revision", "manga", "guidelines", "duration", "parent", "asia", "news", "medicinal", "form", "approval", "read", "pathogen", "##scribe", "diseases", "##ts", "parker", "depression", "papers", "notified", "asiatic", "web", "decline", "reviewer", "reviews", "##hea", "via", "preparation", "science", "technologies", "company", "likely", "cardiac", "pharmacy", "editing", "integrated", "decided", "##biology", "##ce", "todd", "request", "declining", "wiley", "twin", "paper", "jin", "timing", "institute", "literature", "##r", "formats", "psychology", "heart", "unable", "view", "##x", "site", "conclusions", "15", "availability", "ethnic", "cas", "nerve", "ibm", "pre", "logan", "mika", "tech", "algorithm", "forms", "torre", "computers", "downloads", "note", "genus", "recommendation"], "weights": [2.97415828704834, 2.4650466442108154, 2.1043498516082764, 2.0024962425231934, 1.9444503784179688, 1.7742822170257568, 1.730622410774231, 1.674180269241333, 1.65696120262146, 1.636600136756897, 1.618001937866211, 1.5470153093338013, 1.5351948738098145, 1.5204505920410156, 1.5013532638549805, 1.4872417449951172, 1.4714730978012085, 1.4657862186431885, 1.4459450244903564, 1.4359922409057617, 1.4208331108093262, 1.4200044870376587, 1.4188549518585205, 1.4096124172210693, 1.396093487739563, 1.378486156463623, 1.3728857040405273, 1.348462700843811, 1.3448752164840698, 1.3393118381500244, 1.3322513103485107, 1.3241552114486694, 1.3178908824920654, 1.31031334400177, 1.309950590133667, 1.301255702972412, 1.2949219942092896, 1.2945518493652344, 1.2921106815338135, 1.2788172960281372, 1.277678370475769, 1.2762566804885864, 1.2717409133911133, 1.2659821510314941, 1.2654129266738892, 1.2574944496154785, 1.2560975551605225, 1.2544443607330322, 1.2433195114135742, 1.239546298980713, 1.2316044569015503, 1.2280527353286743, 1.2236906290054321, 1.2225134372711182, 1.2130533456802368, 1.2061941623687744, 1.1969244480133057, 1.196655511856079, 1.1933131217956543, 1.1734822988510132, 1.1529066562652588, 1.1435773372650146, 1.1286404132843018, 1.1261664628982544, 1.1252304315567017, 1.119566559791565, 1.0961973667144775, 1.0901089906692505, 1.084392786026001, 1.083928108215332, 1.080529808998108, 1.0805081129074097, 1.0724209547042847, 1.070257544517517, 1.0595316886901855, 1.0582855939865112, 1.0553734302520752, 1.051673412322998, 1.0390466451644897, 1.03412663936615, 1.021970272064209, 1.0163195133209229, 1.0145690441131592, 1.008915662765503, 1.0084054470062256, 0.9942185878753662, 0.985798716545105, 0.9734651446342468, 0.9709237813949585, 0.9704304337501526, 0.9702473878860474, 0.9682155251502991, 0.9671376943588257, 0.9656178951263428, 0.963788628578186, 0.9624449610710144, 0.956926703453064, 0.956378698348999, 0.943538248538971, 0.9431684613227844, 0.9428352117538452, 0.9224260449409485, 0.9204283356666565, 0.9130890369415283, 0.9042445421218872, 0.8937869071960449, 0.8914124965667725, 0.8902295231819153, 0.8822265863418579, 0.8732803463935852, 0.870468020439148, 0.8699817657470703, 0.8556370735168457, 0.8494096994400024, 0.8427834510803223, 0.8352760672569275, 0.8332119584083557, 0.8210715651512146, 0.8188244104385376, 0.8179340958595276, 0.8118796348571777, 0.8067044615745544, 0.8057883977890015, 0.8057827353477478, 0.8001389503479004, 0.800087571144104, 0.7945672273635864, 0.7895999550819397, 0.7893323302268982, 0.7838749289512634, 0.7830773591995239, 0.7813534736633301, 0.7664493322372437, 0.759337306022644, 0.755501389503479, 0.7470568418502808, 0.7412922382354736, 0.7285786271095276, 0.7213186025619507, 0.7098591327667236, 0.7089276909828186, 0.7054805159568787, 0.6906334161758423, 0.6857397556304932, 0.6748655438423157, 0.6721058487892151, 0.665325403213501, 0.6643664240837097, 0.6595988273620605, 0.6527369022369385, 0.6417618989944458, 0.6389593482017517, 0.6367135643959045, 0.6363708972930908, 0.633581817150116, 0.6320557594299316, 0.6302184462547302, 0.6226673722267151, 0.6217557787895203, 0.6137802004814148, 0.6135966777801514, 0.6041563749313354, 0.5993359088897705, 0.5931958556175232, 0.5847594141960144, 0.5762977004051208, 0.5747802257537842, 0.5686862468719482, 0.5670520663261414, 0.5598952770233154, 0.5595666170120239, 0.546593189239502, 0.5449947118759155, 0.5346218347549438, 0.5328564047813416, 0.5250139832496643, 0.5247887372970581, 0.5221313238143921, 0.5211495757102966, 0.5118247270584106, 0.5066423416137695, 0.5030488967895508, 0.49920719861984253, 0.4983106255531311, 0.497985303401947, 0.49569904804229736, 0.4894450008869171, 0.47518718242645264, 0.47449907660484314, 0.4724334478378296, 0.46561968326568604, 0.4643147587776184, 0.4589543044567108, 0.4490330219268799, 0.44794565439224243, 0.44045016169548035, 0.43988317251205444, 0.4389629364013672, 0.4360760748386383, 0.43335142731666565, 0.42881858348846436, 0.4284120500087738, 0.4253166913986206, 0.42286768555641174, 0.4165657162666321, 0.4148021340370178, 0.41112712025642395, 0.3972674012184143, 0.396324098110199, 0.3950023949146271, 0.39343777298927307, 0.3836793601512909, 0.3829778730869293, 0.3806867003440857, 0.37770500779151917, 0.37252867221832275, 0.3616895377635956, 0.3570121228694916, 0.3553368151187897, 0.3546959161758423, 0.3545011281967163, 0.3525218963623047, 0.34613627195358276, 0.3320714831352234, 0.3243057429790497, 0.3071393072605133, 0.3034452795982361, 0.3000669777393341, 0.2957564890384674, 0.28892284631729126, 0.28451383113861084, 0.28236067295074463, 0.27689942717552185, 0.2762905955314636, 0.2762720584869385, 0.262384295463562, 0.2616995871067047, 0.260942667722702, 0.2589205503463745, 0.2532328963279724, 0.25052380561828613, 0.24937792122364044, 0.246992290019989, 0.24284307658672333, 0.24268671870231628, 0.23394273221492767, 0.22030149400234222, 0.21970078349113464, 0.2167774885892868, 0.21053729951381683, 0.20707949995994568, 0.2051210254430771, 0.19925373792648315, 0.19764433801174164, 0.19530555605888367, 0.1938653290271759, 0.19344931840896606, 0.18668408691883087, 0.1849755197763443, 0.17609433829784393, 0.17443415522575378, 0.1728426069021225, 0.15231844782829285, 0.15071730315685272, 0.14692379534244537, 0.14586487412452698, 0.14437003433704376, 0.13349628448486328, 0.12987728416919708, 0.12328016757965088, 0.11260171234607697, 0.11225473880767822, 0.10941039770841599, 0.10708621889352798, 0.10470820218324661, 0.10267291963100433, 0.10252445191144943, 0.10219193249940872, 0.10079623013734818, 0.096270352602005, 0.09620040655136108, 0.09557270258665085, 0.09510538727045059, 0.08348824828863144, 0.08337792754173279, 0.0703452080488205, 0.0662999078631401, 0.06125180423259735, 0.05533653870224953, 0.05076691135764122, 0.0504227913916111, 0.05041804537177086, 0.049275148659944534, 0.040938250720500946, 0.038206081837415695, 0.0317852757871151, 0.012495282106101513, 0.012077860534191132, 0.007942760363221169, 0.002415865659713745, 0.000786933524068445]}, "Qwen3-4B": {"model_id": "Qwen/Qwen3-Embedding-4B", "vector": [-0.00017494837811682373, 0.03735982999205589, -0.027569754049181938, -0.003418087027966976, -0.0007138597429729998, 0.04298631101846695, 0.016541853547096252, 0.02599433995783329, -0.001997400540858507, 0.023181099444627762, 0.08552250266075134, 0.021380625665187836, 0.00582340732216835, 0.028244933113455772, -0.004247992765158415, -0.07381942868232727, 0.007201895117759705, -0.024193866178393364, -0.010971637442708015, 0.0012026602635160089, -0.001097163767553866, 0.01564161665737629, 0.05581468716263771, -0.030833113938570023, -0.011478020809590816, -0.04276125133037567, -0.022618452087044716, -0.07381942868232727, 0.022843511775135994, -0.00911489874124527, -0.009733811020851135, 0.012940905056893826, 0.009508752264082432, 0.006554849911481142, 0.00013538719213102013, -0.0036009475588798523, -0.005373288877308369, -0.002574114827439189, 0.0066955117508769035, 0.05041326582431793, -0.004979435354471207, 0.02610686980187893, 0.00838345568627119, -0.020480388775467873, -0.048612792044878006, -0.01485390868037939, 0.0008721044869162142, -0.01969268172979355, -0.005091964732855558, -0.012040668167173862, 0.013953671790659428, 0.0059078047052025795, -0.01687944121658802, -0.023181099444627762, 0.06256646662950516, -0.02340615913271904, 0.03983548283576965, -0.005176362115889788, -0.012040668167173862, 0.02194327488541603, 0.021268095821142197, 0.008608515374362469, 0.020480388775467873, -0.008214661851525307, 0.004051066003739834, -0.012434521690011024, 0.011871874332427979, -0.04276125133037567, -0.002517850138247013, 0.029032640159130096, -0.02723216637969017, 0.004641846287995577, -0.0031648953445255756, -0.01969268172979355, 0.020142801105976105, -0.01564161665737629, -0.013616083189845085, -0.00039737019687891006, -0.003657212480902672, -0.013784877024590969, 0.0116468146443367, 0.017667148262262344, -0.005682745482772589, 0.026444459334015846, 0.017779678106307983, -0.0059922016225755215, -4.417666423250921e-05, -0.009565017186105251, -0.0362345352768898, -0.017329560592770576, 0.009902605786919594, -0.04073571786284447, 0.019805211573839188, -0.01924256421625614, 0.004613714292645454, 0.00905863381922245, -0.01552908681333065, -0.015416556969285011, -0.007764543406665325, 0.020255330950021744, -0.017892207950353622, -0.007314424961805344, 0.004923170432448387, 0.01575414650142193, 0.001969268312677741, -0.000594297016505152, -0.00843972060829401, 0.0036009475588798523, 0.01969268172979355, -0.007370689418166876, -0.014516320079565048, 0.018904974684119225, -0.00967754703015089, 0.009902605786919594, -0.005204494576901197, -0.010690312832593918, 0.02194327488541603, -0.021830745041370392, 0.021718215197324753, 0.0035587488673627377, -0.008721045218408108, 0.01800473779439926, -0.010352724231779575, -0.010746577754616737, 0.0171045009046793, -0.0796709656715393, 0.012209462933242321, 0.01434752531349659, -0.016316793859004974, 0.00905863381922245, -0.0009494685800746083, -0.01800473779439926, -0.0232936292886734, -0.013784877024590969, -0.01423499546945095, 0.011928139254450798, 0.0032352262642234564, 0.004107330925762653, -0.01946762204170227, 0.01665438339114189, -0.009565017186105251, -0.010859107598662376, 0.008102132007479668, 0.013278494589030743, -0.008214661851525307, -0.039610423147678375, 0.007708278484642506, -0.00023736714501865208, 0.010746577754616737, 0.003854139242321253, 0.002208393532782793, 0.004276125226169825, 0.011815609410405159, 0.0061047314666211605, 0.01699197106063366, 0.025769280269742012, -0.008889839053153992, 0.011984403245151043, 0.003108630422502756, 0.006470452528446913, 0.026219399645924568, 0.0181172676384449, 0.004332390148192644, -0.027907343581318855, 0.004698111210018396, 0.01699197106063366, -0.01946762204170227, 0.031733348965644836, 0.0057952748611569405, -0.007708278484642506, 0.001814540009945631, 0.0059922016225755215, 0.0011956271482631564, -0.0015050835208967328, 0.00013978287461213768, -0.0026303797494620085, -0.00849598553031683, -0.010690312832593918, -0.013278494589030743, 0.027007106691598892, 0.003938536625355482, -0.01665438339114189, -0.023968806490302086, 0.010183929465711117, 0.0014136532554402947, 0.021043037995696068, 0.010296459309756756, 0.0061047314666211605, 0.008889839053153992, -0.0010901306523010135, 0.005063832737505436, 0.0310581736266613, -0.003769742092117667, 0.00905863381922245, -0.01676691137254238, -0.0032352262642234564, -0.010240194387733936, 0.009396222420036793, 0.03150829300284386, 0.013053434900939465, 0.008664780296385288, 0.024193866178393364, -0.005120097193866968, 0.008889839053153992, 0.0029961008112877607, -0.02453145571053028, 0.011027902364730835, -6.549574754899368e-05, 0.005204494576901197, -0.0068924385122954845, 0.03330876678228378, -0.023743748664855957, -0.014628849923610687, -0.004276125226169825, 0.0024897176772356033, 0.021155567839741707, -0.007539484184235334, -0.0024053205270320177, 0.026556989178061485, 0.03645959496498108, -0.015191497281193733, 0.009283692575991154, -0.00277104158885777, -0.012715846300125122, -0.017892207950353622, -0.004613714292645454, 0.01564161665737629, 0.011027902364730835, -0.009846340864896774, 0.0024053205270320177, 0.011871874332427979, 0.0024756514467298985, -0.006329790689051151, -0.0034040207974612713, -0.002517850138247013, -0.013559818267822266, 0.010746577754616737, 0.0024615852162241936, 0.017217030748724937, -0.005964069627225399, -0.020480388775467873, -0.019017504528164864, 0.009846340864896774, 0.020367858931422234, 0.007652013562619686, -0.021380625665187836, 0.003263358725234866, -0.028244933113455772, -0.004416787065565586, 0.0181172676384449, -0.010521518997848034, -0.00905863381922245, -0.01958015188574791, -0.0171045009046793, -0.0693182423710823, 0.0012307926081120968, -0.006554849911481142, -0.015078968368470669, -0.011590549722313881, 0.02059291861951351, -0.0008404555264860392, 0.007314424961805344, -0.002194327535107732, -0.01699197106063366, -0.0031930278055369854, -0.00917116366326809, 0.008721045218408108, 0.0013011236442252994, -0.012997169978916645, -0.02970781736075878, 0.0465872585773468, -0.009902605786919594, 0.011871874332427979, 0.0171045009046793, 0.003769742092117667, -0.004726243671029806, 0.011027902364730835, -0.020480388775467873, -0.005429553799331188, 0.0037416096311062574, -0.003502484178170562, -0.0063016582280397415, 0.007989602163434029, 0.008214661851525307, 0.0064141880720853806, -0.0028413727413862944, -0.050188206136226654, -0.018567385151982307, -0.030382994562387466, 0.008833574131131172, 0.004810641054064035, 0.007989602163434029, -0.004838773515075445, 0.00073144247289747, 0.010071400552988052, -0.03285864740610123, 0.016316793859004974, -0.006273525767028332, 0.002039599232375622, 0.007652013562619686, -0.0055139511823654175, 0.0007208928000181913, 0.017554620280861855, 0.025206632912158966, -0.02081797830760479, -0.02059291861951351, -0.014066201634705067, 0.007258160039782524, 0.02835746295750141, -0.0039666686207056046, -0.013841141946613789, 0.01496643852442503, -0.006217260845005512, 0.00905863381922245, 0.003826006781309843, 0.003291491186246276, 0.002939836122095585, 0.01969268172979355, 0.004529316909611225, 0.024081336334347725, -0.006217260845005512, -0.0445617251098156, 0.00616099638864398, 0.0057108779437839985, 0.027569754049181938, 0.01237825769931078, 0.008889839053153992, 0.01434752531349659, -0.025094103068113327, 0.01440379023551941, -0.021155567839741707, 0.020255330950021744, -0.021605685353279114, -0.013165964744985104, 0.003488417947664857, -0.007483219262212515, 0.02194327488541603, 0.0171045009046793, 0.00905863381922245, -0.0028273065108805895, -0.029257699847221375, -0.004754376132041216, 0.03555935621261597, 0.010971637442708015, -0.008158396929502487, -0.02599433995783329, -0.0026022472884505987, 0.01434752531349659, 0.007258160039782524, -0.02858252078294754, -0.00843972060829401, -0.007426954340189695, -0.05896551534533501, -0.017667148262262344, 0.012209462933242321, 0.010296459309756756, 0.002208393532782793, -0.012772111222147942, 0.0014910174068063498, 0.05086338520050049, 0.008664780296385288, -0.015979204326868057, 0.0014699180610477924, -0.007258160039782524, -0.02970781736075878, -0.02588181011378765, -0.01822979748249054, 0.008889839053153992, 0.002039599232375622, 0.0034462192561477423, -0.03758488968014717, -0.01108416635543108, 0.05221373960375786, -0.007258160039782524, -0.0310581736266613, -0.009902605786919594, 0.00967754703015089, 0.00917116366326809, -0.012434521690011024, 0.006357923150062561, 0.02588181011378765, 0.051313504576683044, -0.01800473779439926, -0.008833574131131172, -0.022843511775135994, 0.014122466556727886, 0.00010549651051405817, -0.010465254075825214, -0.01423499546945095, -0.0029539023526012897, 0.009227428585290909, 0.01822979748249054, -0.0006927603972144425, -0.009902605786919594, -0.014122466556727886, 0.05806528031826019, -0.004079198464751244, 0.0017864075489342213, 0.021268095821142197, -0.017892207950353622, -0.03285864740610123, -0.010127665475010872, -0.02610686980187893, -0.015191497281193733, 0.021605685353279114, 0.00016439873434137553, -0.03128323331475258, -0.030608054250478745, 0.019017504528164864, 0.0111404312774539, -0.03353382274508476, -0.024418925866484642, 0.0116468146443367, 0.0015754145570099354, -0.0414108969271183, 0.007764543406665325, 0.022730981931090355, 0.004754376132041216, -0.044786784797906876, 0.017667148262262344, -0.009283692575991154, 0.005935937166213989, 0.012434521690011024, -0.04433666542172432, -0.007820808328688145, 0.0024756514467298985, -0.009227428585290909, 0.011815609410405159, 0.01552908681333065, 0.002166195074096322, -0.022618452087044716, -0.030382994562387466, -0.007089365739375353, -0.00587967224419117, -0.010577783919870853, 0.003460285486653447, -0.004669978749006987, -0.010015135630965233, -0.03285864740610123, -0.0068924385122954845, -0.016091734170913696, 0.010634047910571098, 0.017554620280861855, 0.018792444840073586, -0.034434061497449875, -0.004613714292645454, -0.025544222444295883, 0.010859107598662376, 0.004529316909611225, -0.011871874332427979, -0.03645959496498108, 0.0006224294193089008, 0.01434752531349659, -0.006639247294515371, 0.02194327488541603, 0.04253619164228439, -0.0013784877955913544, 0.023968806490302086, -0.020030271261930466, 0.07607001811265945, -0.07607001811265945, 0.00047473429003730416, 0.021268095821142197, -0.024418925866484642, -0.01822979748249054, 0.0054014213383197784, 0.015416556969285011, 0.0006224294193089008, -0.0014488187152892351, 0.05851539969444275, 0.002742909360677004, 0.01676691137254238, 0.043436430394649506, -0.03871018812060356, -0.007989602163434029, -0.0024475189857184887, 0.012547051534056664, -0.0342090018093586, -0.015304027125239372, -0.0018848710460588336, 0.015979204326868057, -0.010971637442708015, -0.01665438339114189, 0.03533429652452469, 0.040960777550935745, 0.02081797830760479, 0.004726243671029806, 0.025319162756204605, 0.03353382274508476, 0.013616083189845085, -0.015191497281193733, -0.01924256421625614, -0.005120097193866968, 0.003629080019891262, -0.0284699909389019, -0.018567385151982307, -0.03533429652452469, -0.016316793859004974, 0.0013433222193270922, 0.015191497281193733, 0.010465254075825214, 0.002742909360677004, -0.016541853547096252, 0.0059078047052025795, 0.009227428585290909, -0.0362345352768898, 0.007061233278363943, -0.002377188066020608, 0.013841141946613789, 0.013334758579730988, -7.912238652352244e-05, 0.007708278484642506, 0.009396222420036793, -0.009790075942873955, -0.007708278484642506, 0.009902605786919594, -0.004501184448599815, 0.011590549722313881, -0.013053434900939465, -0.007145630195736885, -0.011027902364730835, 0.016316793859004974, 0.03285864740610123, -0.020030271261930466, -0.001709043513983488, 0.010971637442708015, 0.018792444840073586, 0.013559818267822266, -0.04028560221195221, 0.014122466556727886, -0.02486904338002205, -0.02216833271086216, 0.000777157605625689, 0.004641846287995577, 0.011478020809590816, -0.010971637442708015, -0.00031648954609408975, 0.030157936736941338, -0.010296459309756756, 0.02216833271086216, -0.013165964744985104, -0.030382994562387466, -0.02858252078294754, 0.026782047003507614, 0.01564161665737629, -0.00917116366326809, -0.03488418087363243, -0.04321137070655823, -0.009790075942873955, 0.01687944121658802, 0.006976835895329714, -0.019917741417884827, -0.02194327488541603, 0.011871874332427979, 0.02070544846355915, 0.019130034372210503, -0.04028560221195221, -0.0031648953445255756, -0.002208393532782793, 0.0005204494809731841, -0.0031648953445255756, 0.02081797830760479, 0.033083707094192505, 0.004979435354471207, 0.04298631101846695, 0.011815609410405159, 0.023743748664855957, 0.02610686980187893, -0.010634047910571098, 0.017667148262262344, 0.021380625665187836, -0.0014417856000363827, -0.0171045009046793, 0.010746577754616737, -0.017217030748724937, -0.014741378836333752, -0.027007106691598892, -0.00843972060829401, -0.010127665475010872, 0.0018989371601492167, -0.00855225045233965, 0.006386055611073971, 0.01822979748249054, -0.0032352262642234564, 0.000685727340169251, -0.012884640134871006, -0.045011844485998154, 0.010408989153802395, 0.004838773515075445, 0.027682283893227577, 0.005654613021761179, -0.006920570973306894, -0.010296459309756756, -0.015304027125239372, -0.003108630422502756, -0.018567385151982307, -0.026782047003507614, -0.02858252078294754, -0.02216833271086216, 0.0006751776672899723, 0.04771255701780319, 0.0013011236442252994, -0.06121610850095749, -0.012603316456079483, 0.005739010404795408, -0.00911489874124527, 0.008214661851525307, 0.015191497281193733, -0.01969268172979355, 0.021155567839741707, 0.005739010404795408, 0.00292576989158988, 0.023068569600582123, 0.0021239963825792074, -0.003108630422502756, 0.009227428585290909, 0.01429126039147377, -0.0014910174068063498, -0.025431692600250244, 0.03983548283576965, -0.0111404312774539, -0.003769742092117667, 0.043661490082740784, -0.015078968368470669, 0.03668465465307236, -0.0018567385850474238, 0.005176362115889788, -0.028019873425364494, -0.0015191497514024377, 0.01822979748249054, -0.01564161665737629, 0.012040668167173862, 0.0024897176772356033, -0.00016703613800927997, 0.007708278484642506, -0.03285864740610123, -0.04118583723902702, 0.030833113938570023, -0.018792444840073586, -0.002166195074096322, -0.0002065973385469988, -0.011534284800291061, -0.014628849923610687, -0.00027956574922427535, -0.01440379023551941, 0.00046418464626185596, -0.0010408989619463682, -0.04771255701780319, -0.009790075942873955, 0.01822979748249054, -0.00585153978317976, 0.028132403269410133, 0.012490786612033844, 0.0310581736266613, -0.0054014213383197784, 0.037134770303964615, 0.008158396929502487, -0.0232936292886734, 0.016091734170913696, -0.024081336334347725, 0.01552908681333065, 0.01935509406030178, -0.047262437641620636, 0.006582982372492552, 0.01237825769931078, -0.006864306516945362, 0.010971637442708015, 0.015416556969285011, 0.04793761298060417, -0.011928139254450798, -0.025431692600250244, -0.02340615913271904, 0.023743748664855957, 0.00046066808863542974, -0.007426954340189695, 0.023068569600582123, 0.012547051534056664, 0.0061047314666211605, 0.011196696199476719, 0.01232199277728796, -0.017667148262262344, 0.013897406868636608, 0.012715846300125122, -0.0004149529559072107, -0.010015135630965233, -0.0057952748611569405, 0.019805211573839188, 0.0014699180610477924, -0.003066431963816285, -0.007652013562619686, 0.003854139242321253, 0.023631218820810318, 0.009958870708942413, 0.011196696199476719, 0.046362198889255524, 0.008721045218408108, 0.007061233278363943, 0.0037416096311062574, -0.02970781736075878, 0.007933337241411209, 0.018567385151982307, 0.001709043513983488, -0.01665438339114189, -0.030157936736941338, 0.025319162756204605, 0.02711963653564453, 0.004304257687181234, -0.006836174055933952, 0.006357923150062561, 0.008045867085456848, -0.049963146448135376, 0.008889839053153992, -0.03555935621261597, -0.004838773515075445, -0.004698111210018396, 0.016541853547096252, -0.00838345568627119, -0.013784877024590969, -0.000457151560112834, -0.04433666542172432, 0.0037134771700948477, 0.006667379289865494, -0.021493155509233475, 0.0037134771700948477, -0.0116468146443367, -0.011027902364730835, 0.03150829300284386, -0.010296459309756756, -0.004444919526576996, 0.03465912118554115, 0.004895037971436977, -0.012209462933242321, -0.042086075991392136, 0.02745722606778145, -0.030157936736941338, 0.02610686980187893, -0.025319162756204605, -0.02093050815165043, 0.020030271261930466, 0.023968806490302086, 0.0055139511823654175, -0.030833113938570023, -0.0028413727413862944, -0.001842672354541719, 0.010465254075825214, 0.013278494589030743, -0.025769280269742012, 0.006048466544598341, 0.03871018812060356, -0.046362198889255524, 0.002785107819363475, 0.06391681730747223, 0.018904974684119225, 0.021380625665187836, -0.001371454680338502, 0.013109699822962284, 0.04298631101846695, 0.011590549722313881, -0.017329560592770576, -0.00014769511471968144, -0.046362198889255524, -0.0013292559888213873, -0.03848512843251228, -0.004022933542728424, 0.00587967224419117, -0.004247992765158415, 0.04276125133037567, 