{"UUID": "ed6d527d-1101-4413-8fb8-27a4378fefa6", "BM25": {"terms": ["a", "review", "of", "hypertension", "and", "vascular", "cognitive", "impairment", "about", "who", "we", "are", "journal", "membership", "contact", "us", "development", "history", "latest", "news", "journals", "information", "editorial", "policies", "process", "open", "access", "policy", "research", "publication", "ethics", "article", "processing", "charges", "advertising", "books", "careers", "login", "home", "overview", "the", "aims", "amp", "scope", "board", "reviewer", "indexing", "archiving", "academic", "supporter", "articles", "online", "first", "current", "issue", "archive", "column", "edit", "special", "for", "authors", "instructions", "charge", "author", "awards", "exchanges", "webinars", "conferences", "office", "submissions", "search", "types", "year", "volume", "pages", "accscience", "publishing", "bh", "doi", "10", "36922", "bh025310044", "submit", "to", "apply", "cite", "this", "7", "download", "108", "views", "related", "info", "links", "google", "scholar", "more", "by", "xiandong", "sun", "browser", "forthcoming", "view", "all", "announcements", "zhu", "1", "siyu", "duan", "2", "show", "less", "department", "cardiology", "chifeng", "clinical", "medical", "college", "inner", "mongolia", "university", "china", "neurology", "municipal", "hospital", "brain", "heart", "025310044", "https", "org", "received", "august", "2025", "revised", "23", "september", "accepted", "24", "published", "october", "s", "is", "an", "distributed", "under", "terms", "conditions", "creative", "commons", "attribution", "4", "0", "international", "license", "creativecommons", "licenses", "pdf", "xml", "abstract"], "weights": [0.20776534331886048, 1.8158364208933846, 0.10912535544520344, 4.785618787893833, 0.12172763426741286, 3.2230975969713676, 0.6543926093100111, 1.2859860746730842, 3.796356697995436, 2.2534324245638344, 1.7659766636946181, 1.0283785667628955, 4.376462885168933, 5.416116257885, 2.8002017285307548, 2.6237677441870457, 2.2256233191105537, 4.082128910567665, 4.1825698869718515, 6.81979612731673, 3.084080422066962, 2.0013578408579935, 6.308449119550017, 3.9252277645825573, 3.7257627963267135, 3.112770792419462, 3.4867582637955676, 4.6201506461597015, 0.9910601883678885, 2.6630297515663366, 3.273618168877032, 3.570445426112029, 4.448186866950203, 6.67831427090122, 4.980995920081725, 4.2012707552924775, 4.938488043538341, 4.623882381493016, 2.8657668228967395, 3.7942430272884407, 0.20657236372270582, 3.6686259527997, 3.758193113351565, 3.4848902568516, 4.715032455317401, 4.858864449805134, 5.349301251397601, 6.992919932946546, 3.3540202907543737, 6.992919932946546, 2.4345507287915225, 5.254228281784593, 3.616276430208734, 3.336009278597273, 8.258728291365392, 4.4122768369360665, 8.361946293716448, 6.67831427090122, 7.789697736449955, 0.4713418991357557, 3.6488634576305765, 4.623882381493016, 5.744677585678642, 2.9939696417496258, 4.512106201555702, 5.848674916696646, 6.099505029614843, 4.897828931308771, 3.567444925859981, 5.965703988242444, 4.3651318506575025, 4.317368460241422, 4.974025164409348, 4.191324464123601, 6.255702644700682, 6.443332202589101, 3.2258334227544903, 7.988436982358794, 1.8708535976581386, 1.574181469700724, 9.378907175738194, 10.17888646376495, 3.3239771521389283, 0.30487538598589586, 4.897828931308771, 4.985963861886089, 1.2500756874198626, 1.6213452435436864, 4.191324464123601, 4.300834113581133, 4.111296366771064, 2.403661629342309, 5.566038599435553, 6.171496812310293, 1.517284944497706, 1.5258877630657324, 1.661685361443041, 1.3727062152804237, 10.17888646376495, 5.072602375446684, 5.488075773895786, 6.67831427090122, 4.113345939302826, 2.317172056876413, 5.28694399946633, 5.403732111909085, 1.6118781217792426, 6.992919932946546, 5.28694399946633, 1.2279140069818169, 2.961015747548886, 3.113120403655503, 5.072602375446684, 5.488075773895786, 14.081991344551497, 1.2500397366607074, 3.443610469745334, 3.91127209883424, 9.698626976347102, 10.037715334026222, 2.4874069364777154, 4.676282427593837, 2.5181161744391822, 6.67831427090122, 3.0898167115133237, 1.2396417174292589, 3.4419922635832143, 6.992919932946546, 2.8295108652496217, 2.9610737132079303, 2.719372833635364, 3.8065459975166105, 3.7413099016870746, 4.146254167146358, 2.2394244884528534, 6.143141562008727, 3.287731829260244, 2.1745291792846584, 2.3447859049809945, 4.388900313180898, 0.49903199257528524, 0.8033197780833474, 1.0138966060910641, 3.596666436788914, 2.596214745078938, 2.7116613487108294, 2.4547523964974913, 3.331397923210549, 3.4589160241927672, 3.6686259527997, 1.6054987183370633, 2.645777874253827, 2.8302276376141173, 3.377203600220053, 4.2012707552924775, 4.146254167146358, 3.0178571955025366, 4.1825698869718515, 1.801559810247035], "k1": 1.5, "b": 0.75, "avgdl": 233.87661016949153, "N": 4425}, "SpladeV3": {"model_id": "naver/splade-v3", "tokens": ["##feng", "journal", "##ando", "vascular", "zhu", "mongolia", "impairment", "##tension", "##yu", "hyper", "review", "mongolian", "china", "editorial", "amp", "chi", "cognitive", "inner", "##ng", "journals", "##mons", "xi", "ethics", "##iology", "membership", "current", "article", "cognition", "issue", "b", "citation", "disabled", "##bution", "municipal", "du", "chinese", "latest", "zhang", "clinical", "pressure", "scope", "si", "contact", "##an", "abstract", "doi", "##h", "authors", "access", "special", "license", "xml", "policy", "published", "hospital", "vein", "pdf", "department", "historical", "index", "charge", "author", "processing", "who", "awards", "overview", "news", "board", "research", "development", "archive", "med", "disease", "policies", "google", "articles", "publishing", "commons", "citing", "university", "heart", "exchanges", "hospitals", "##ina", "h", "aim", "college", "magazine", "august", "##uro", "syndrome", "september", "korea", "##logy", "submit", "aims", "open", "member", "academic", "history", "reviews", "advertising", "date", "conferences", "clinic", "links", "card", "volumes", "2020", "ne", "impaired", "careers", "archives", "column", "accepted", "scholar", "copyright", "brain", "distributed", "october", "patient", "view", "researcher", "volume", "browser", "cardiac", "conference", "vietnamese", "ethical", "aiming", "acc", "##tens", "forthcoming", "information", "medical", "brains", "publication", "bp", "##logist", "lung", "updated", "currently", "international", "link", "revised", "received", "log", "columns", "bao", "award", "org", "universities", "circulation", "licensed", "##in", "cite", "arch", "reviewer", "oct", "supporters", "contacts", "tibet", "year", "https", "zheng", "authorship", "japan", "##ao", "search", "sun", "online", "coming", "feng", "study", "##iving", "supporter", "inhibitor", "stroke", "##shan", "internal", "jiang", "creative", "download", "taiwan", "process", "edit", "shi", "high", "hearts", "editors", "editor", "edition", "issues", "editing", "gp", "korean", "handicap", "##rbin", "book", "developmental", "health", "md", "horde", "related", "we", "burma", "support", "departments", "##100", "##wei", "colleges", "##iol", "and", "##tri", "intelligence", "uk", "qi", "manchu", "processes", "join", "##ience", "prevalence", "beijing", "##hu", "nerve", "books", "municipality", "no", "diagnosis", ";", "##han", "pediatric", "##a", "of", "##com", "members", "##hua", "j", "ni", "scholarship", "type", "liu", "diabetes", "staff", "first", "yi", "toxic", "career", "grateful", "bai", "number", "##fa", "##25", "cancer", "the", "##press", "pages", "##53", "##tao", "revision", "about", "website", "cv", "yuan", "cardiovascular", "alzheimer", "amplifier", "dementia", "boards", "gong", "exchange", "newspaper", "damage", "peng", "##g", "india", "web", "charges", "invasive", "##nh", "academics", "handling", "medicine", "summary", "##vas", "##opa", "submitted", "aj", "nh", "depression", "cas", "publisher", "dong", "reference", "analysis", "russian", "##tro", "fee", "disability", "tempo", "manuscript", "goal", "warning", "pulmonary", "committee"], "weights": [2.428403615951538, 2.3544559478759766, 2.274130344390869, 2.2336230278015137, 2.190904140472412, 2.156785726547241, 2.138864278793335, 2.0185441970825195, 1.9439750909805298, 1.9166393280029297, 1.8929548263549805, 1.883333444595337, 1.8167543411254883, 1.8139314651489258, 1.7727234363555908, 1.7455559968948364, 1.7119605541229248, 1.6907235383987427, 1.6594253778457642, 1.6332452297210693, 1.6263827085494995, 1.6007508039474487, 1.5275688171386719, 1.5063433647155762, 1.4549806118011475, 1.4387340545654297, 1.4362436532974243, 1.4265010356903076, 1.4263499975204468, 1.4134944677352905, 1.3911807537078857, 1.390576720237732, 1.3861643075942993, 1.386154294013977, 1.3795368671417236, 1.3679380416870117, 1.366542100906372, 1.343031883239746, 1.3393522500991821, 1.337156891822815, 1.3204352855682373, 1.3143272399902344, 1.3016048669815063, 1.282589316368103, 1.2804781198501587, 1.2801488637924194, 1.2726330757141113, 1.2603051662445068, 1.245379090309143, 1.2303251028060913, 1.2212320566177368, 1.2156013250350952, 1.2076444625854492, 1.191556692123413, 1.1828151941299438, 1.1758544445037842, 1.1698977947235107, 1.1388208866119385, 1.1208440065383911, 1.1200309991836548, 1.114301323890686, 1.112295150756836, 1.110109806060791, 1.1047834157943726, 1.1046487092971802, 1.0993796586990356, 1.072121024131775, 1.07072114944458, 1.0621113777160645, 1.0616426467895508, 1.0574673414230347, 1.057173252105713, 1.0532047748565674, 1.0525563955307007, 1.051674246788025, 1.0497803688049316, 1.041082739830017, 1.0317097902297974, 1.0151519775390625, 1.0022003650665283, 0.9909642338752747, 0.990881085395813, 0.9901173114776611, 0.9898519515991211, 0.9886895418167114, 0.9678255319595337, 0.967714786529541, 0.9666767120361328, 0.9476840496063232, 0.9471336603164673, 0.9400771856307983, 0.9330430626869202, 0.9251392483711243, 0.9219313263893127, 0.9190871119499207, 0.9109017252922058, 0.9098098874092102, 0.9097124934196472, 0.9085766077041626, 0.9039614796638489, 0.8850659132003784, 0.8766927719116211, 0.8693187832832336, 0.8624501824378967, 0.8466763496398926, 0.8434723019599915, 0.8409598469734192, 0.8404355645179749, 0.8399040699005127, 0.8397258520126343, 0.8325102925300598, 0.8032007813453674, 0.8001566529273987, 0.7962684035301208, 0.7839602828025818, 0.7683651447296143, 0.7671031355857849, 0.7669224143028259, 0.7662069797515869, 0.7569062113761902, 0.7203099727630615, 0.699721097946167, 0.6983784437179565, 0.6960361003875732, 0.6942063570022583, 0.6876917481422424, 0.6759161353111267, 0.6707737445831299, 0.6666144132614136, 0.6659852266311646, 0.6576155424118042, 0.6483563780784607, 0.6471731662750244, 0.642920732498169, 0.6403455138206482, 0.6375218629837036, 0.6342810988426208, 0.6327419281005859, 0.6263664960861206, 0.6209469437599182, 0.61826491355896, 0.6086796522140503, 0.6072237491607666, 0.6058434247970581, 0.6001922488212585, 0.5892686247825623, 0.5842783451080322, 0.5804318189620972, 0.5529965758323669, 0.5455199480056763, 0.5429553985595703, 0.5423772931098938, 0.5418049097061157, 0.5406963229179382, 0.5393712520599365, 0.5367304086685181, 0.5365963578224182, 0.5259475708007812, 0.5224658846855164, 0.5180951356887817, 0.5117895007133484, 0.5112032890319824, 0.5065621137619019, 0.5037825107574463, 0.5025289058685303, 0.49924057722091675, 0.49805665016174316, 0.48529958724975586, 0.4820716679096222, 0.47888076305389404, 0.47751307487487793, 0.4768291711807251, 0.47577938437461853, 0.4732890725135803, 0.47174307703971863, 0.46371299028396606, 0.4617767930030823, 0.45735591650009155, 0.45355379581451416, 0.4517592489719391, 0.43961289525032043, 0.42905059456825256, 0.4278202950954437, 0.425942063331604, 0.42453059554100037, 0.4242706894874573, 0.4176976978778839, 0.4167402982711792, 0.41570380330085754, 0.409067839384079, 0.40722161531448364, 0.40215569734573364, 0.4005456864833832, 0.3984321653842926, 0.39194124937057495, 0.38861873745918274, 0.3884458839893341, 0.3872144818305969, 0.3869446814060211, 0.38103967905044556, 0.37594640254974365, 0.3748026490211487, 0.3670778274536133, 0.3644293546676636, 0.36440080404281616, 0.361092209815979, 0.3600422143936157, 0.3590600788593292, 0.35634666681289673, 0.3527475893497467, 0.347984254360199, 0.338320791721344, 0.33435264229774475, 0.3277483284473419, 0.32640597224235535, 0.3259715735912323, 0.32547903060913086, 0.3250386118888855, 0.3237466514110565, 0.3114335536956787, 0.3058074414730072, 0.2935812473297119, 0.29341748356819153, 0.28649258613586426, 0.2854074537754059, 0.28529635071754456, 0.28084003925323486, 0.28045663237571716, 0.271992951631546, 0.26579514145851135, 0.26530593633651733, 0.25513961911201477, 0.2542957365512848, 0.25423336029052734, 0.24964399635791779, 0.24716491997241974, 0.24161513149738312, 0.2314452975988388, 0.22974787652492523, 0.22595380246639252, 0.22354310750961304, 0.22312532365322113, 0.2202850580215454, 0.21380454301834106, 0.2123381346464157, 0.21228772401809692, 0.20766127109527588, 0.20521368086338043, 0.20432011783123016, 0.20076428353786469, 0.18499641120433807, 0.18352416157722473, 0.17952392995357513, 0.17455099523067474, 0.16167891025543213, 0.15766854584217072, 0.15159939229488373, 0.1483582705259323, 0.14603185653686523, 0.1396923065185547, 0.1382550448179245, 0.13523928821086884, 0.13182182610034943, 0.1291612982749939, 0.12685242295265198, 0.12570998072624207, 0.11827286332845688, 0.11677540838718414, 0.11490462720394135, 0.10814131796360016, 0.1053391769528389, 0.1040968969464302, 0.09814281016588211, 0.09642433375120163, 0.0955752283334732, 0.08760756999254227, 0.08623269945383072, 0.08068813383579254, 0.07987959682941437, 0.07757118344306946, 0.07544232904911041, 0.07477980852127075, 0.061328958719968796, 0.05822987109422684, 0.055025987327098846, 0.053617212921381, 0.04930715635418892, 0.04821282997727394, 0.04773717373609543, 0.04758800193667412, 0.04740746691823006, 0.041980843991041183, 0.04111343249678612, 0.040460772812366486, 0.036403704434633255, 0.022476516664028168, 0.021791307255625725, 0.01830604486167431, 0.01822894811630249, 0.016699885949492455, 0.015487225726246834, 0.009349055588245392, 0.003820562269538641, 0.0016708116745576262, 0.00046882961760275066]}, "Qwen3-4B": {"model_id": "Qwen/Qwen3-Embedding-4B", "vector": [-0.000452167063485831, -0.008646316826343536, -0.0020439422223716974, -0.012175425887107849, -0.0016542697558179498, 0.0071758548729121685, 0.0008822772069834173, 0.03576163575053215, -0.008999227546155453, 0.07011163234710693, 0.030350336804986, 0.02517431043088436, 0.007264082320034504, -0.0189395509660244, -0.04705478623509407, 0.00688176229596138, 0.004058475140482187, -0.021174652501940727, 0.0324678011238575, 0.002955628791823983, 0.0033673581201583147, 0.054113004356622696, -0.01611626334488392, -0.023174481466412544, -0.047995880246162415, 0.009234501980245113, -0.00829340610653162, -0.07246436923742294, 0.02470376156270504, 0.01376352459192276, 0.034114718437194824, -0.05552464723587036, -0.012822428718209267, -0.03552636131644249, -0.002543899230659008, 0.0014263482298702002, 0.005881848279386759, -0.000992561923339963, -0.007822858169674873, 0.02188047580420971, 0.0009116864530369639, 0.05199553817510605, -0.024115577340126038, 0.005823029670864344, -0.023056844249367714, -0.02505667321383953, -0.006675897631794214, -0.012881247326731682, -0.01376352459192276, -0.0094697754830122, 0.017174996435642242, 0.011469603516161442, -0.028115233406424522, 0.004176112357527018, 0.01682208478450775, 0.008528679609298706, 0.026350678876042366, 0.009058046154677868, 0.0022939208429306746, 0.013587068766355515, 0.009116864763200283, 0.029409240931272507, -0.0032203118316829205, -0.0063523962162435055, -0.00688176229596138, -0.009705048985779285, 0.003602632088586688, -0.014116435311734676, -0.007528765592724085, 0.01917482540011406, -0.014763439074158669, 0.01246951799839735, -0.013175339438021183, 0.006322986911982298, 0.0006102417246438563, -0.005411300342530012, -0.0008418395300395787, 0.008940408937633038, -0.006911171600222588, 0.01611626334488392, -0.013292976655066013, -0.011822515167295933, 0.01929246261715889, 0.022703934460878372, -0.008587498217821121, 0.04705478623509407, 0.0049407524056732655, 0.004705478437244892, -0.002058646874502301, -0.017763180658221245, 0.020704105496406555, -0.06917053461074829, -0.013939980417490005, -0.02529194764792919, 0.005146617069840431, -0.007822858169674873, -0.005911257583647966, -0.015645716339349747, -0.004852524492889643, 0.0004705478495452553, -0.009528594091534615, -0.018586639314889908, -0.023174481466412544, 0.005293663125485182, 0.009175683371722698, -0.005411300342530012, 0.005323072429746389, -0.008352224715054035, 0.015410441905260086, 0.0010440280893817544, 0.011410785838961601, 0.0033232441637665033, 0.006499442271888256, 0.001970419194549322, 0.014175253920257092, 0.010646144859492779, 0.022586297243833542, 0.004411386325955391, 0.02799759805202484, 0.015645716339349747, -0.009705048985779285, 0.01246951799839735, -0.0016542697558179498, -0.022703934460878372, 0.021057017147541046, 0.005940666422247887, -0.010704963468015194, 0.025762494653463364, 0.005323072429746389, 0.012293062172830105, -0.04070238769054413, 0.001264597405679524, -0.01682208478450775, 0.004793706350028515, -0.0094697754830122, 0.039761293679475784, 0.01623390056192875, 0.002455671550706029, -0.017410270869731903, 0.004999571014195681, 0.004529023077338934, -0.020115921273827553, 0.014410528354346752, -0.04658423736691475, -0.013528251089155674, 0.020115921273827553, -0.008646316826343536, -0.0033673581201583147, 0.0038232014048844576, -0.007146445568650961, 0.0035732227843254805, 0.01246951799839735, -0.005999485030770302, 0.0007609641179442406, -0.004617250990122557, 0.014292891137301922, 0.013234158046543598, -0.021174652501940727, 0.01529280561953783, 0.007999313063919544, 0.014057616703212261, 0.006734716240316629, 0.0033673581201583147, -0.045643143355846405, -0.01364588737487793, 0.00402906583622098, 0.014704620465636253, 0.02740941196680069, -0.011646059341728687, -0.020468831062316895, -0.008587498217821121, -0.004058475140482187, 0.0048231156542897224, -0.015528079122304916, 0.0007021456258371472, -0.0028674008790403605, -0.008528679609298706, -0.04423149675130844, -0.01364588737487793, 0.05058389529585838, -0.014410528354346752, 0.006411214359104633, 0.009528594091534615, 0.0015145759098231792, -0.03270307555794716, 0.011940151453018188, 0.005087798461318016, -0.012116607278585434, 0.00021781219402328134, -0.02470376156270504, -0.02764468640089035, 0.0444667711853981, 0.0013307681074365973, 0.011587240733206272, -0.01941009797155857, 0.011587240733206272, -0.010116779245436192, -0.008763954043388367, -0.01399879902601242, 0.002955628791823983, 0.0014998712576925755, 0.012410699389874935, 0.0195277351886034, 0.011528422124683857, -0.0024115578271448612, 0.003602632088586688, 0.009528594091534615, -0.01623390056192875, 0.004205521196126938, 0.0030291518196463585, 0.002896810183301568, -0.009646231308579445, -0.026233043521642685, -0.022821571677923203, 0.01505753118544817, 0.018351366743445396, -0.011822515167295933, 0.007705220952630043, 0.01635153777897358, 0.017057359218597412, -0.01905718818306923, -0.0014263482298702002, 0.017292633652687073, 0.018586639314889908, 0.009293319657444954, 0.015763353556394577, 0.006499442271888256, 0.007205264177173376, -0.021057017147541046, 0.0014925189316272736, 0.0324678011238575, 0.008999227546155453, 0.013057703152298927, -0.008646316826343536, 0.004793706350028515, -0.011410785838961601, -0.012293062172830105, 0.005058389622718096, 0.001536632771603763, -0.0038232014048844576, -0.040231842547655106, -0.020704105496406555, -0.00414670305326581, 0.007881676778197289, -0.010763782076537609, -0.017763180658221245, 0.009646231308579445, -0.017645545303821564, -0.026938864961266518, -0.013351795263588428, -0.003190902527421713, -0.01917482540011406, -0.008646316826343536, -0.003970247693359852, -0.031056158244609833, -0.011646059341728687, -0.015763353556394577, -0.02446848899126053, -0.0056465743109583855, -0.006411214359104633, 0.00379379210062325, -0.04729006066918373, 0.00414670305326581, -0.007881676778197289, 0.01670444943010807, 0.030820883810520172, 0.02505667321383953, 0.0027350594755262136, -0.031761981546878815, -0.0022351022344082594, 0.053642455488443375, -0.00805813167244196, 0.0189395509660244, 0.0004429766850080341, 0.018469003960490227, -0.017645545303821564, 0.006617079023271799, -0.023527393117547035, -0.004264339804649353, 0.01388116180896759, -0.017527908086776733, 0.011528422124683857, -0.030350336804986, 0.023645030334591866, -0.023174481466412544, -0.011351967230439186, -0.021057017147541046, -0.01882191374897957, -0.011410785838961601, 0.013587068766355515, 0.004176112357527018, 0.018233729526400566, -0.009234501980245113, -0.013234158046543598, 5.812920062453486e-05, 0.004058475140482187, -0.02729177474975586, -0.017763180658221245, -0.009116864763200283, 0.005617165006697178, -0.011940151453018188, 0.029644515365362167, 0.020704105496406555, 0.016939722001552582, 0.00033820627140812576, 0.014528164640069008, 0.006058303639292717, 0.006617079023271799, 0.01905718818306923, 0.005793620366603136, -0.01529280561953783, 0.004529023077338934, -0.004705478437244892, 0.018233729526400566, 0.005411300342530012, -0.05128971487283707, 0.0011249034432694316, -0.002985037863254547, 0.008646316826343536, -0.017292633652687073, 0.010763782076537609, -0.03670273348689079, -0.021292289718985558, -0.011763696558773518, 0.01635153777897358, 0.028232870623469353, 0.024115577340126038, -0.006440623663365841, 0.004587841685861349, -0.020115921273827553, -0.008705135434865952, 0.0038232014048844576, -0.014057616703212261, -0.006646488327533007, 0.023527393117547035, 0.007705220952630043, 0.005558346398174763, 0.015763353556394577, 0.02740941196680069, 0.005999485030770302, -0.010410871356725693, 0.0060877129435539246, 0.05293663218617439, -0.021174652501940727, -0.020939379930496216, -0.0444667711853981, 0.04070238769054413, -0.008352224715054035, 0.014763439074158669, 0.007058217655867338, 0.017410270869731903, 0.0013013589195907116, -0.020821742713451385, -0.01599862612783909, -0.020351193845272064, -0.002529194811359048, 0.009116864763200283, 0.004617250990122557, 0.018469003960490227, -0.018586639314889908, 0.0032938348595052958, -0.010469689965248108, -0.00201453291811049, 0.023997940123081207, -0.017057359218597412, -0.034114718437194824, 0.010940237902104855, 0.018116092309355736, 0.05693629011511803, -0.021409926936030388, 0.0020292375702410936, 0.02482139877974987, 0.01505753118544817, -0.008940408937633038, -0.006528851576149464, 0.008116950280964375, 0.025409584864974022, -0.001176369609311223, -0.007058217655867338, 0.01929246261715889, -0.00746994698420167, 0.029291603714227676, -0.01611626334488392, 0.026821227744221687, -0.017527908086776733, 0.004352567717432976, -0.007822858169674873, -0.03623218461871147, -0.011116692796349525, -0.028585782274603844, -0.003337948815897107, 0.0030144471675157547, -0.01929246261715889, -0.01529280561953783, -0.031761981546878815, 0.028821056708693504, 0.002602717839181423, -0.0072934916242957115, 0.023056844249367714, -0.004440795164555311, -0.010057960636913776, 0.01376352459192276, 0.010057960636913776, 0.010116779245436192, -0.008646316826343536, -0.003882019780576229, -0.009822686202824116, 0.00688176229596138, 0.019763009622693062, -0.008528679609298706, -0.01964537240564823, -0.039761293679475784, 0.020351193845272064, 0.009234501980245113, -0.006499442271888256, -0.014175253920257092, -0.0038526104763150215, -0.0189395509660244, 0.0324678011238575, 0.010646144859492779, 0.013175339438021183, 0.011116692796349525, -0.008587498217821121, -0.00958741270005703, 0.0017719067400321364, -0.005793620366603136, -0.010587326250970364, -0.0024262622464448214, 0.040467116981744766, -0.01882191374897957, -0.008763954043388367, 0.03764382749795914, 0.026938864961266518, -0.02799759805202484, -0.009116864763200283, 0.0028674008790403605, -0.004117293749004602, -0.01670444943010807, 0.002955628791823983, 0.007322900928556919, -0.002617422491312027, -0.03552636131644249, -0.0094697754830122, 0.034349992871284485, 0.015763353556394577, 0.004587841685861349, -0.03129143267869949, -0.0056465743109583855, -0.0014998712576925755, -0.023880302906036377, -0.01364588737487793, 0.006322986911982298, -0.002529194811359048, 0.0006470032967627048, -0.0017351452261209488, 0.0019557145424187183, -0.006440623663365841, 0.0072934916242957115, -0.0013013589195907116, 0.01599862612783909, -0.04964279755949974, -0.026115406304597855, 0.029173966497182846, 0.045172594487667084, -0.006146531086415052, -0.005205435678362846, -0.005852438975125551, -0.012057788670063019, 0.007205264177173376, -0.0038232014048844576, 0.01623390056192875, -0.02999742515385151, -0.005823029670864344, -0.009528594091534615, 0.0053818910382688046, 0.003058561123907566, 0.025644857436418533, -0.006205349694937468, -0.006381805054843426, -0.012763610109686852, 0.02482139877974987, -0.013939980417490005, -0.009058046154677868, -0.014410528354346752, 0.02235102280974388, 0.020821742713451385, -0.0249390359967947, 0.04634896293282509, 0.031526707112789154, -0.023174481466412544, 0.031761981546878815, 0.018351366743445396, -0.009528594091534615, -0.0324678011238575, -0.0034702904522418976, -0.0031320841517299414, -0.006558260880410671, -0.0014189959038048983, 0.02740941196680069, 0.004264339804649353, -0.021057017147541046, -0.018233729526400566, 0.03058561123907566, -0.03882019594311714, 0.010116779245436192, -0.010763782076537609, 0.012940065935254097, -0.01941009797155857, -0.01941009797155857, 0.008822772651910782, 0.007028808351606131, -0.01670444943010807, 0.001257245079614222, 0.00558775570243597, 0.005087798461318016, 0.011646059341728687, -0.008469861000776291, 0.010175596922636032, 0.012234244495630264, -0.02199811115860939, 0.001007266459055245, -0.006234758999198675, 0.02176283858716488, -0.021409926936030388, 0.0013160635717213154, 0.0026762408670037985, 0.010822600685060024, 0.028938692063093185, -0.007146445568650961, 0.006028894335031509, 0.02235102280974388, -0.003426176495850086, 0.010763782076537609, -0.045407868921756744, -0.022586297243833542, -0.013116521760821342, 0.004646659828722477, 0.004470204468816519, 0.028585782274603844, 0.026938864961266518, -0.03129143267869949, 0.004381977021694183, 0.01635153777897358, 0.023880302906036377, 0.04164348542690277, 0.017057359218597412, 0.015175168402493, 0.018469003960490227, -0.023527393117547035, -0.02223338559269905, -0.03129143267869949, -0.03552636131644249, -0.01376352459192276, 0.005234844982624054, -0.0005992132937535644, -0.001352825085632503, -0.06587669998407364, -0.024233214557170868, -0.029644515365362167, -0.021057017147541046, 0.008528679609298706, 0.015175168402493, -0.03646745905280113, 0.017292633652687073, 0.0189395509660244, -0.0006102417246438563, 0.04352567717432976, -0.012410699389874935, -0.053877729922533035, -0.0035585181321948767, 0.00034923473140224814, 0.013469432480633259, -0.012645973823964596, 0.0053818910382688046, -0.003970247693359852, -0.020351193845272064, -0.0189395509660244, 0.030350336804986, 0.001264597405679524, -0.009646231308579445, 0.004087884444743395, 0.04587841406464577, 0.0390554703772068, -0.03317362442612648, -0.010293234139680862, 0.020586468279361725, -0.01599862612783909, 0.001999828265979886, -0.009293319657444954, -0.007528765592724085, 0.0097638675943017, 0.002440966898575425, -0.02740941196680069, 0.00699939951300621, -0.003882019780576229, 0.010234415531158447, 0.005852438975125551, -0.025409584864974022, -0.01529280561953783, 0.0007462594658136368, 0.02799759805202484, -0.034585267305374146, -0.023645030334591866, 0.00699939951300621, 0.017998455092310905, -0.006117122247815132, -0.005675983615219593, 0.05505409836769104, -0.004852524492889643, -0.017763180658221245, -0.007999313063919544, 0.02740941196680069, -0.017645545303821564, 0.010175596922636032, -0.0011028465814888477, -0.047760605812072754, 0.0012425404274836183, -0.012998884543776512, -0.017880817875266075, 0.01505753118544817, -0.012822428718209267, 0.01882191374897957, -0.02999742515385151, 0.023880302906036377, -0.024350851774215698, -0.004617250990122557, 0.005823029670864344, 0.005881848279386759, 0.01623390056192875, 0.026233043521642685, 0.005881848279386759, 0.029056329280138016, 0.04658423736691475, 0.002793877851217985, 0.007646402809768915, -0.01670444943010807, -0.02787996083498001, 0.004058475140482187, -0.013234158046543598, -0.02246866002678871, -0.006617079023271799, -0.003190902527421713, 0.012116607278585434, -0.024115577340126038, -0.02764468640089035, 0.02235102280974388, 0.0189395509660244, 0.01646917499601841, 0.002543899230659008, -0.0052642542868852615, 0.006793534383177757, 0.014822257682681084, 0.0016101559158414602, 0.03764382749795914, -0.012234244495630264, -0.004205521196126938, 0.0021174652501940727, 0.015645716339349747, -0.026468316093087196, -0.00016910313570406288, 0.018469003960490227, 0.017527908086776733, -0.03882019594311714, -0.0016101559158414602, -0.017763180658221245, 0.007764039561152458, -0.012763610109686852, -0.028350507840514183, -0.0022056931629776955, 0.01529280561953783, -0.02176283858716488, 0.03270307555794716, -0.0071758548729121685, -0.0036467458121478558, -0.008646316826343536, 0.034820541739463806, 0.0006028894567862153, 0.03317362442612648, 0.007646402809768915, -0.023292118683457375, -0.017880817875266075, 0.0029409241396933794, 0.014645801857113838, -0.009175683371722698, 0.029409240931272507, -0.019998284056782722, -0.002558603882789612, 0.02787996083498001, -0.010940237902104855, 0.03505581617355347, 0.015410441905260086, 0.0065876697190105915, 0.011998970061540604, 0.024350851774215698, 0.003352653468027711, 0.00958741270005703, 0.02246866002678871, 0.014175253920257092, -0.0336441695690155, -0.03058561123907566, -0.01964537240564823, -0.002176283858716488, -0.018469003960490227, -0.0065876697190105915, -0.01623390056192875, -0.036938007920980453, 0.053642455488443375, -0.020468831062316895, 0.025762494653463364, -0.029644515365362167, -0.009293319657444954, -0.02976215071976185, -0.021292289718985558, 0.00805813167244196, -0.00817576888948679, -0.02199811115860939, -0.03317362442612648, 0.020586468279361725, -0.004852524492889643, -0.02529194764792919, 0.033879444003105164, 0.017174996435642242, -0.0249390359967947, -0.01529280561953783, 0.012704792432487011, 0.003632041160017252, -0.04117293655872345, 0.005999485030770302, -0.016939722001552582, 0.011116692796349525, 0.02776232361793518, 0.011646059341728687, -0.0017572020879015326, 0.023762665688991547, -0.026468316093087196, 0.005117207765579224, 0.004176112357527018, -0.006617079023271799, -0.008881590329110622, 0.023997940123081207, 0.0002003504487220198, -0.0033232441637665033, 0.002646831562742591, -0.0018233729060739279, -0.02470376156270504, -0.007352310232818127, -0.034820541739463806, 0.028350507840514183, 0.021174652501940727, -0.051054440438747406, -0.012998884543776512, 0.012822428718209267, 0.021057017147541046, -0.012234244495630264, -0.0390554703772068, 0.018586639314889908, 0.021292289718985558, -0.01905718818306923, 0.005705392919480801, -0.022939207032322884, -0.031526707112789154, -0.0046760691329836845, 0.014175253920257092, -0.013175339438021183, 0.010469689965248108, 0.017763180658221245, 0.02458612434566021, -0.0444667711853981, 0.028703419491648674, -0.01388116180896759, -0.0027350594755262136, -0.0026762408670037985, 0.03293834999203682, -0.0033967671915888786, 0.0378791019320488, -0.010822600685060024, -0.015763353556394577, 0.004499613773077726, 0.034349992871284485, 0.016939722001552582, 0.008999227546155453, -0.012234244495630264, 0.0071758548729121685, -0.0026909455191344023, -0.008587498217821121, -0.01929246261715889, -0.02717413753271103, 0.0006617078906856477, 0.020821742713451385, 0.0097638675943017, -0.011234330013394356, -0.014116435311734676, -0.02188047580420971, 0.017763180658221245, -0.03552636131644249, 0.0008197826100513339, -0.002896810183301568, 0.036938007920980453, -0.017292633652687073, -0.004793706350028515, 0.023645030334591866, 0.009058046154677868, 0.007705220952630043, 0.037408553063869476, -0.0336441695690155, -0.03929074481129646, -0.005176026374101639, 0.012763610109686852, -0.004911343101412058, -0.024350851774215698, -0.009528594091534615, 0.009058046154677868, -0.028115233406424522, 0.03505581617355347, -0.013175339438021183, 0.0020292375702410936, 0.009175683371722698, 0.02235102280974388, -0.003970247693359852, 0.008705135434865952, -0.026703590527176857, -0.00805813167244196, 0.01529280561953783, 0.021174652501940727, -0.012998884543776512, -0.010528508573770523, 0.022586297243833542, -0.01505753118544817, -0.008528679609298706, 0.01611626334488392, 0.039761293679475784, -0.005793620366603136, -0.017057359218597412, 0.02987978793680668, 0.0005918609676882625, 0.010234415531158447, -0.008116950280964375, -0.026350678876042366, 0.03670273348689079, 0.018116092309355736, -0.03505581617355347, 0.01505753118544817, 0.006646488327533007, -0.028350507840514183, -0.0056465743109583855, 0.02246866002678871, 0.014645801857113838, -0.014351709745824337, -0.012822428718209267, 0.0033967671915888786, 0.005558346398174763, -0.007058217655867338, 0.007264082320034504, -0.005558346398174763, 0.005058389622718096, 0.028115233406424522, 0.0014998712576925755, -0.031526707112789154, -0.02752704918384552, 0.029291603714227676, -0.007940495386719704, 0.029644515365362167, 0.00040989130502566695, 0.0057642110623419285, 0.017057359218597412, 0.018351366743445396, 0.008469861000776291, 0.00025181661476381123, 0.000999914132989943, 0.03199725225567818, 0.0336441695690155, 0.009293319657444954, 0.0047348877415061, 0.018586639314889908, 0.0010513802990317345, 0.019998284056782722, 0.01917482540011406, -0.0002977685653604567, -0.0249390359967947, -0.003426176495850086, 0.04093766212463379, -0.028115233406424522, 0.01905718818306923, -0.012881247326731682, -0.028703419491648674, -0.0378791019320488, -0.02176283858716488, 0.0052642542868852615, -0.018116092309355736, 0.025880131870508194, -0.00958741270005703, 0.02176283858716488, 0.026468316093087196, 0.021527564153075218, -0.004793706350028515, -0.009058046154677868, -0.01964537240564823, -0.0028526964597404003, -0.001727792900055647, -0.011469603516161442, -0.002543899230659008, -0.00026835931930691004, 0.019880646839737892, -0.0013895865995436907, -0.00035842510988004506, 0.0026909455191344023, 0.010116779245436192, 0.020233558490872383, -0.0014189959038048983, 0.0020292375702410936, 0.0012351881014183164, -0.008587498217821121, -0.006646488327533007, -0.0013087112456560135, -0.011410785838961601, 0.0324678011238575, -0.05481882393360138, -0.0015219282358884811, -0.020233558490872383, -0.02246866002678871, 0.012822428718209267, 0.019880646839737892, 0.023056844249367714, 0.028585782274603844, -0.017174996435642242, -0.021292289718985558, 0.01235188078135252, 0.013234158046543598, 0.012528336606919765, 0.008705135434865952, 0.0032203118316829205, -0.004529023077338934, 0.0249390359967947, 0.012293062172830105, -0.024350851774215698, 0.013469432480633259, 0.020704105496406555, -0.011234330013394356, 0.051054440438747406, -0.01611626334488392, -0.030350336804986, 0.022939207032322884, 0.014586983248591423, 0.013410613872110844, 0.03293834999203682, -0.013351795263588428, 0.014410528354346752, -0.03340889886021614, -0.006646488327533007, 0.00746994698420167, 0.00402906583622098, -0.01364588737487793, -0.02482139877974987, -0.004617250990122557, -0.01599862612783909, 0.008646316826343536, -0.008881590329110622, -0.004499613773077726, -0.007411128841340542, -0.009822686202824116, -0.01364588737487793, -0.01399879902601242, -0.011410785838961601, 0.011704877950251102, 0.02999742515385151, 0.009822686202824116, 0.0007021456258371472, -0.002102760598063469, 0.0249390359967947, 0.020704105496406555, -0.023527393117547035, 0.005028980318456888, 0.018586639314889908, -0.00379379210062325, 0.03317362442612648, -0.0029262194875627756, -0.028821056708693504, 0.022703934460878372, 0.030350336804986, -0.006028894335031509, -0.0026615362148731947, 0.011234330013394356, 0.031056158244609833, 0.028115233406424522, -0.0324678011238575, 0.018116092309355736, 0.01493989396840334, -0.0033820627722889185, -0.007381719537079334, -0.013116521760821342, -0.024233214557170868, -0.0034849951043725014, 0.0019263052381575108, 0.002529194811359048, -0.004293749108910561, -0.0094697754830122, -0.029291603714227676, 0.02446848899126053, -0.0064700329676270485, 0.017880817875266075, -0.00046319555258378386, 0.014822257682681084, 0.017057359218597412, -0.018586639314889908, 0.014822257682681084, -0.026350678876042366, 0.020468831062316895, 0.0064700329676270485, 0.03764382749795914, -0.0065876697190105915, -0.03129143267869949, 0.009822686202824116, -0.013822343200445175, -0.0033085395116358995, -0.021527564153075218, -0.02976215071976185, -0.02799759805202484, -0.018586639314889908, -0.005058389622718096, -0.023645030334591866, 0.018351366743445396, -0.08799244463443756, 0.015880990773439407, -0.00958741270005703, -0.011587240733206272, -0.018586639314889908, 0.07011163234710693, 0.020351193845272064, 0.006911171600222588, -0.008234587498009205, -0.00488193379715085, 0.002529194811359048, 0.021174652501940727, 0.02188047580420971, 0.018233729526400566, -0.004793706350028515, -0.034349992871284485, -0.022939207032322884, 0.01929246261715889, -0.008587498217821121, 0.015763353556394577, 0.004764297045767307, 0.010587326250970364, -0.001176369609311223, -0.0324678011238575, -0.0006874409737065434, -0.012998884543776512, 0.010057960636913776, -0.021057017147541046, -0.001808668253943324, 0.020233558490872383, -0.023762665688991547, 0.01376352459192276, 0.010763782076537609, -0.03834965080022812, -0.018351366743445396, 0.004117293749004602, -0.01529280561953783, 0.01399879902601242, -0.020586468279361725, 0.010469689965248108, 0.034349992871284485, 0.013939980417490005, 0.007058217655867338, 0.0032938348595052958, 0.007705220952630043, -0.022586297243833542, 0.007117036264389753, -0.015645716339349747, -0.03223252668976784, -0.003102674847468734, 0.005852438975125551, -0.011940151453018188, -0.02505667321383953, 0.001088141929358244, -0.014704620465636253, 0.012234244495630264, -0.01235188078135252, -0.0020292375702410936, -0.012822428718209267, -0.01599862612783909, 0.010763782076537609, -0.00558775570243597, -0.03576163575053215, -0.008763954043388367, 0.03529109060764313, 0.007087626960128546, 0.018351366743445396, -0.01682208478450775, 0.034820541739463806, 0.031761981546878815, -0.03646745905280113, -0.020115921273827553, 0.01235188078135252, -0.013175339438021183, -0.005675983615219593, 0.025880131870508194, -0.009528594091534615, 0.008469861000776291, -0.008411042392253876, -0.010293234139680862, -0.022821571677923203, -0.0432904027402401, -0.014881075359880924, -0.004264339804649353, -0.005793620366603136, -0.0032938348595052958, -0.007705220952630043, -0.026350678876042366, 0.01670444943010807, -0.010587326250970364, 0.022821571677923203, 0.01493989396840334, 0.005146617069840431, 0.02164520137012005, 0.0032056071795523167, 0.00046319555258378386, 0.018469003960490227, -0.017174996435642242, -0.004352567717432976, -0.007705220952630043, 0.03129143267869949, 0.008881590329110622, -0.014763439074158669, 0.004793706350028515, 0.006499442271888256, -0.01929246261715889, 0.022586297243833542, 0.0064700329676270485, -0.008469861000776291, -0.005205435678362846, 0.02470376156270504, 0.024233214557170868, -0.010822600685060024, -0.005205435678362846, -0.014645801857113838, -0.005793620366603136, 0.001985123846679926, 0.004264339804649353, -0.020351193845272064, 0.010704963468015194, -0.005352481734007597, -0.021057017147541046, 0.008999227546155453, 0.008587498217821121, 0.023880302906036377, 0.015410441905260086, 0.008352224715054035, 0.0038232014048844576, 0.008763954043388367, -0.03270307555794716, 0.002455671550706029, -0.007822858169674873, -0.011940151453018188, 0.005823029670864344, 0.0016101559158414602, -0.005352481734007597, -0.000628622539807111, -0.002455671550706029, -0.04140821099281311, -0.010528508573770523, -0.00829340610653162, 0.000812430283986032, 0.028468145057559013, -0.025762494653463364, -0.008705135434865952, -0.014234072528779507, -0.014763439074158669, 0.014410528354346752, 0.004617250990122557, -0.06258286535739899, -0.03552636131644249, 0.029644515365362167, 0.019880646839737892, -0.0324678011238575, 0.023409755900502205, 0.005176026374101639, -0.04187875986099243, -0.02764468640089035, -0.003146788803860545, 0.020586468279361725, 0.01529280561953783, 0.0189395509660244, 0.00817576888948679, -0.042349305003881454, 0.0015219282358884811, -0.026233043521642685, 0.007411128841340542, -0.00746994698420167, -0.019763009622693062, -0.0065876697190105915, -0.01941009797155857, 0.0022792161908000708, 0.0057642110623419285, 0.007646402809768915, 0.02482139877974987, 0.013528251089155674, 0.015175168402493, -0.04070238769054413, -0.0094697754830122, -0.0045584323816001415, -0.03646745905280113, 0.017645545303821564, 0.013351795263588428, -0.007117036264389753, -0.02729177474975586, 0.023292118683457375, 0.011822515167295933, 0.007528765592724085, 0.028821056708693504, 0.029526878148317337, -0.006705306936055422, 0.006205349694937468, -0.011234330013394356, -0.031056158244609833, -0.009234501980245113, 0.01376352459192276, -0.0054995277896523476, 0.009116864763200283, -0.013116521760821342, -0.015528079122304916, -0.018469003960490227, -0.026938864961266518, -0.0054995277896523476, -0.028468145057559013, -0.019763009622693062, 0.022821571677923203, 0.0008308110409416258, 0.02235102280974388, 0.017998455092310905, 0.012410699389874935, 0.012175425887107849, 0.023056844249367714, 0.01388116180896759, -0.010293234139680862, 0.008881590329110622, 0.005675983615219593, 0.01646917499601841, 0.009293319657444954, -0.007322900928556919, -0.02223338559269905, 0.010410871356725693, 0.01635153777897358, 5.238521043793298e-05, 0.013704705983400345, -0.025527220219373703, 0.031056158244609833, 0.004999571014195681, 0.017998455092310905, -0.03223252668976784, -0.023056844249367714, -0.011881332844495773, -0.05128971487283707, -0.006822943687438965, -0.017527908086776733, -0.01670444943010807, 0.006499442271888256, -0.0378791019320488, -0.007999313063919544, 0.025644857436418533, 0.0034702904522418976, 0.026703590527176857, 0.026821227744221687, 0.0012498927535489202, -0.017292633652687073, -0.0094697754830122, -0.004381977021694183, 0.009352138265967369, -0.011881332844495773, -0.043055128306150436, -0.0336441695690155, -0.008352224715054035, -0.02211574837565422, 0.005058389622718096, 0.010057960636913776, 0.0336441695690155, -0.011822515167295933, -0.013351795263588428, -0.0024115578271448612, 0.015528079122304916, -0.0042349305003881454, 0.022821571677923203, -0.0036614504642784595, -0.020468831062316895, 0.01611626334488392, -0.007881676778197289, -0.020821742713451385, 0.017174996435642242, 0.04587841406464577, 0.009410956874489784, 0.02482139877974987, 0.010410871356725693, -0.03199725225567818, -0.02470376156270504, 0.004117293749004602, 0.017057359218597412, 0.01670444943010807, 0.013351795263588428, -0.013116521760821342, 0.006117122247815132, 0.02505667321383953, 0.009705048985779285, 0.010469689965248108, 0.018116092309355736, 0.012175425887107849, -0.01964537240564823, 0.008940408937633038, -0.006822943687438965, -0.013410613872110844, 0.029291603714227676, -0.009410956874489784, -0.018704276531934738, -0.007322900928556919, -0.003911429084837437, 0.00402906583622098, 0.011646059341728687, 0.030820883810520172, 0.020586468279361725, -0.01658681221306324, 0.030820883810520172, 0.0060877129435539246, 0.006705306936055422, 0.01882191374897957, -0.004176112357527018, 0.007117036264389753, -0.0022351022344082594, -0.02223338559269905, -0.010528508573770523, 0.005970075726509094, 0.0053818910382688046, 0.01376352459192276, 0.034114718437194824, -0.004793706350028515, 0.023997940123081207, -0.04164348542690277, -0.021292289718985558, 0.02176283858716488, 0.008234587498009205, 0.03811437636613846, 0.03646745905280113, -0.020468831062316895, -0.014822257682681084, -0.004058475140482187, -0.021527564153075218, 0.007499356288462877, 0.018469003960490227, -0.013234158046543598, -0.004293749108910561, -0.013469432480633259, -0.02446848899126053, -0.010646144859492779, 0.02729177474975586, 0.0045584323816001415, -0.007499356288462877, 0.030350336804986, -0.00746994698420167, -0.02976215071976185, -0.034820541739463806, -0.012175425887107849, 0.02235102280974388, 0.010646144859492779, -0.0028232871554791927, 0.026350678876042366, 0.029409240931272507, -0.014645801857113838, 0.026350678876042366, -0.03317362442612648, -0.02235102280974388, 0.030350336804986, 0.024233214557170868, -0.01599862612783909, 0.0016101559158414602, 0.011763696558773518, 0.003073265543207526, 0.033879444003105164, -0.004381977021694183, -0.0009484480251558125, -0.015880990773439407, -0.002911514835432172, -0.01646917499601841, -0.021409926936030388, -0.015763353556394577, 0.017998455092310905, -0.005793620366603136, 0.05176026374101639, 0.008705135434865952, 0.000639650970697403, 0.001970419194549322, 0.029056329280138016, -0.001455757417716086, 0.03199725225567818, -0.03599691018462181, 0.014704620465636253, 0.021409926936030388, -0.02517431043088436, -0.008705135434865952, 0.025527220219373703, 0.03058561123907566, 0.034114718437194824, -0.023645030334591866, 0.015880990773439407, 0.022939207032322884, 0.020233558490872383, -0.018116092309355736, 0.04117293655872345, -0.028350507840514183, 0.0390554703772068, 0.018233729526400566, 0.034820541739463806, 0.003337948815897107, 0.021292289718985558, -0.004852524492889643, -0.013822343200445175, -0.005028980318456888, 0.005411300342530012, -0.01905718818306923, 0.01376352459192276, -0.02188047580420971, -0.0024115578271448612, 0.01882191374897957, 0.021174652501940727, 0.002999742515385151, -0.025527220219373703, 0.028938692063093185, 0.0007462594658136368, 0.007764039561152458, 0.0390554703772068, -0.007146445568650961, 0.006264168303459883, -0.01599862612783909, -0.03199725225567818, 0.026350678876042366, -0.0064700329676270485, 0.020468831062316895, -0.005323072429746389, 0.04352567717432976, -0.034349992871284485, 0.034349992871284485, 0.018704276531934738, 0.018351366743445396, -0.014410528354346752, 0.017410270869731903, 0.019880646839737892, 0.020468831062316895, 0.014586983248591423, -0.0024262622464448214, 0.03317362442612648, -0.0030291518196463585, -0.004764297045767307, -0.012057788670063019, -0.00617594039067626, 0.00958741270005703, 0.0036467458121478558, -0.03529109060764313, 0.01235188078135252, -0.009410956874489784, -0.006234758999198675, 0.028350507840514183, -0.05552464723587036, 0.04587841406464577, -0.016939722001552582, -0.007705220952630043, 0.023292118683457375, 0.009999142028391361, 0.012293062172830105, 0.01682208478450775, 0.0057642110623419285, -0.003705564420670271, 0.013234158046543598, -0.013469432480633259, 0.03670273348689079, 0.004911343101412058, 0.0048231156542897224, -0.0249390359967947, -0.005087798461318016, 0.009175683371722698, -0.0018674867460504174, 0.014351709745824337, -0.04423149675130844, 0.014116435311734676, -0.0249390359967947, 0.05317190662026405, 0.04399622231721878, 0.02729177474975586, 0.0324678011238575, -0.01529280561953783, 0.015645716339349747, 0.007646402809768915, 0.009410956874489784, 0.034349992871284485, -0.011646059341728687, -0.0007683163858018816, -0.003705564420670271, 0.0026321271434426308, -0.014704620465636253, 0.009410956874489784, -0.0034702904522418976, 0.018704276531934738, 0.0011028465814888477, -0.005411300342530012, 0.007822858169674873, 0.01964537240564823, -0.01611626334488392, -0.02223338559269905, 0.00699939951300621, -0.011351967230439186, 0.028232870623469353, 0.019763009622693062, -0.01905718818306923, 0.006146531086415052, -0.028938692063093185, 0.01658681221306324, 0.0024850808549672365, 0.005176026374101639, 0.0012866542674601078, -0.01917482540011406, -0.034349992871284485, 0.018233729526400566, 0.026703590527176857, 0.0053818910382688046, -0.015645716339349747, 0.026585953310132027, 0.002896810183301568, -0.009058046154677868, 0.006793534383177757, 0.004852524492889643, 0.01658681221306324, 0.008587498217821121, -0.008116950280964375, 0.010528508573770523, 0.016939722001552582, -0.020821742713451385, -0.0022056931629776955, 0.000812430283986032, 0.004411386325955391, 0.011116692796349525, 0.008705135434865952, 0.029056329280138016, 0.0336441695690155, -0.015410441905260086, 0.0034849951043725014, -0.005705392919480801, -0.03270307555794716, 0.022939207032322884, -0.0016395652201026678, -0.018704276531934738, -0.012998884543776512, 0.007205264177173376, -0.0005955371307209134, 0.013704705983400345, -0.0009190387791022658, -0.00019851238175760955, 0.0017424975521862507, 0.002102760598063469, -0.010293234139680862, 0.04493732005357742, 0.01941009797155857, 0.023997940123081207, -0.019880646839737892, -0.01658681221306324, 0.002264511538669467, 0.012645973823964596, -0.040231842547655106, -0.013292976655066013, 0.014822257682681084, -0.018233729526400566, 0.007117036264389753, 0.020586468279361725, -0.00817576888948679, -0.01929246261715889, -0.018116092309355736, 0.0002389500878052786, -0.019998284056782722, 0.005411300342530012, 0.00829340610653162, -0.014057616703212261, -0.019998284056782722, -0.040467116981744766, -0.006411214359104633, 0.015645716339349747, -0.0018307252321392298, 0.009234501980245113, -0.005970075726509094, 0.020939379930496216, 0.00018840294796973467, 0.03058561123907566, 0.011469603516161442, 0.008822772651910782, 0.007028808351606131, -0.04352567717432976, -0.02505667321383953, 0.03011506237089634, 0.028350507840514183, -0.01623390056192875, -0.017763180658221245, -0.025527220219373703, -0.056465741246938705, -0.0006911171367391944, 0.016939722001552582, 0.009293319657444954, -0.010352052748203278, -0.010999055579304695, -0.05858320742845535, -0.013939980417490005, -0.01599862612783909, 0.00020954084175173193, -0.0018674867460504174, 0.008116950280964375, 0.005470118951052427, 0.004323158413171768, 7.398262096103281e-05, -0.009352138265967369, -0.04352567717432976, -0.0390554703772068, -0.00805813167244196, -0.02740941196680069, 0.006264168303459883, 0.034349992871284485, 0.008234587498009205, -0.012116607278585434, 0.00958741270005703, 0.017527908086776733, -0.017410270869731903, 0.01529280561953783, 0.007440537679940462, 0.02764468640089035, 0.011704877950251102, -0.020468831062316895, -0.02482139877974987, -0.01611626334488392, -0.004852524492889643, -0.016939722001552582, -0.0025733085349202156, 0.00036026319139637053, -0.02752704918384552, 0.005970075726509094, -0.003264425788074732, 0.02752704918384552, 0.008999227546155453, -0.020115921273827553, 0.02458612434566021, -0.013704705983400345, -0.011293148621916771, -0.042819853872060776, 0.00817576888948679, -0.01088141929358244, -0.002543899230659008, -0.004911343101412058, -0.004087884444743395, 0.003249721135944128, 0.00958741270005703, 0.03505581617355347, 0.013234158046543598, -0.00958741270005703, -0.009410956874489784, 0.001088141929358244, -0.01635153777897358, 0.03340889886021614, 0.002529194811359048, 0.008469861000776291, 0.008646316826343536, -0.023174481466412544, 0.0038526104763150215, -0.006381805054843426, -0.013057703152298927, -0.007764039561152458, 0.026468316093087196, -0.011293148621916771, -0.01882191374897957, 0.02717413753271103, -0.0023233299143612385, -0.0054995277896523476, 0.04211403429508209, 0.01117551140487194, 0.024350851774215698, 0.013469432480633259, 0.025527220219373703, 0.010763782076537609, -0.015528079122304916, 0.01635153777897358, 0.0, 0.014175253920257092, 0.028938692063093185, 0.048466429114341736, -0.019763009622693062, -0.015410441905260086, 0.018469003960490227, -0.0011322557693347335, -0.021292289718985558, 0.03834965080022812, -0.007646402809768915, -0.022703934460878372, -0.029409240931272507, 0.01105787418782711, -0.0189395509660244, -0.013057703152298927, 0.002088056178763509, 0.018469003960490227, 0.014998712576925755, 0.0027350594755262136, 0.015763353556394577, -0.014175253920257092, 0.03834965080022812, -0.014410528354346752, -0.015175168402493, 0.008763954043388367, -0.004352567717432976, -0.0054995277896523476, -0.0052642542868852615, 0.009822686202824116, -0.016939722001552582, -0.039996568113565445, -0.014998712576925755, -0.04658423736691475, -0.0035144041758030653, -0.008234587498009205, 0.0060877129435539246, -0.028350507840514183, -0.01623390056192875, -0.004352567717432976, -0.005881848279386759, 0.024350851774215698, 0.024350851774215698, -0.01882191374897957, 0.028938692063093185, -0.03623218461871147, -0.00043011014349758625, 0.017998455092310905, 0.024350851774215698, -0.006822943687438965, -0.026703590527176857, 0.03505581617355347, 0.0048231156542897224, -0.009352138265967369, 0.006822943687438965, 0.008587498217821121, 0.014704620465636253, -0.015410441905260086, 0.020704105496406555, 0.021174652501940727, -0.031761981546878815, 0.017410270869731903, -0.028821056708693504, -0.036938007920980453, -0.01088141929358244, 0.0042349305003881454, 0.008881590329110622, -0.007146445568650961, 0.0021321699023246765, 0.031056158244609833, 0.01670444943010807, -0.010352052748203278, 0.025880131870508194, 0.016939722001552582, -0.00023435488401446491, 0.02987978793680668, -0.0390554703772068, -0.0031761981081217527, 0.009234501980245113, 0.01682208478450775, -0.00544070964679122, -0.011293148621916771, 0.003970247693359852, -0.01882191374897957, -0.00805813167244196, 0.009293319657444954, -0.004705478437244892, 0.013587068766355515, 0.0002904162392951548, -0.018116092309355736, 0.012998884543776512, 0.0065876697190105915, 0.009116864763200283, 0.00617594039067626, 0.048231154680252075, 0.003426176495850086, 0.024350851774215698, 0.028350507840514183, -0.01105787418782711, -0.007764039561152458, 0.010763782076537609, 0.01235188078135252, -0.01258715521544218, -0.012116607278585434, 0.00817576888948679, 0.02517431043088436, -0.009410956874489784, 0.0036614504642784595, 0.005293663125485182, -0.0075875842012465, 0.0038526104763150215, -0.02235102280974388, -0.005470118951052427, -0.03293834999203682, -0.0052642542868852615, -3.3544914913363755e-05, -0.007881676778197289, -0.002985037863254547, -0.023527393117547035, -0.026938864961266518, -0.006969990208745003, 0.0021321699023246765, 0.0015586897497996688, 0.013939980417490005, 0.005146617069840431, -0.007234673015773296, -0.011881332844495773, 0.017763180658221245, -0.003543813480064273, 0.011528422124683857, -0.008763954043388367, -0.039996568113565445, -0.0053818910382688046, 0.018351366743445396, 0.005705392919480801, 0.02740941196680069, -0.006264168303459883, -0.028585782274603844, -0.010528508573770523, 0.045643143355846405, 0.02211574837565422, 0.007322900928556919, 0.003690859768539667, -0.025409584864974022, -0.012881247326731682, 0.005793620366603136, 0.037173278629779816, -0.004999571014195681, -0.015880990773439407, -0.008528679609298706, 0.020704105496406555, -0.012234244495630264, -0.014586983248591423, 0.004705478437244892, -0.012528336606919765, 0.024115577340126038, -0.017292633652687073, -0.005734801758080721, 0.009881504811346531, -0.0013822342734783888, -0.02740941196680069, 0.022821571677923203, -0.030820883810520172, -0.008705135434865952, -0.01364588737487793, 0.0033085395116358995, 0.030350336804986, -0.03599691018462181, 0.00746994698420167, 0.014410528354346752, 0.006793534383177757, -0.03129143267869949, 0.006205349694937468, 0.0037496781442314386, -0.005234844982624054, -0.01635153777897358, 0.010352052748203278, -0.020939379930496216, -0.014116435311734676, 0.005940666422247887, -0.0033085395116358995, -0.039526019245386124, 0.017645545303821564, 0.03552636131644249, 0.027056502178311348, -0.014881075359880924, -0.0030438564717769623, -0.012410699389874935, -0.010704963468015194, 0.011998970061540604, -0.04729006066918373, -0.03011506237089634, -0.01623390056192875, -0.05458354949951172, 0.00488193379715085, -0.011587240733206272, 0.03529109060764313, 0.014528164640069008, 0.01376352459192276, -0.000272035482339561, -0.014822257682681084, 0.03270307555794716, -0.005146617069840431, -0.003970247693359852, 0.023056844249367714, 0.017292633652687073, 0.01658681221306324, -0.002808582503348589, -0.019763009622693062, 0.012645973823964596, 0.012998884543776512, -0.00558775570243597, -0.021057017147541046, 0.010410871356725693, -0.002058646874502301, 0.025762494653463364, -0.007117036264389753, 0.0004815763095393777, 0.015175168402493, -0.010822600685060024, -0.0006653840537182987, 0.026468316093087196, -0.006028894335031509, -0.017292633652687073, -0.010057960636913776, 0.06023012474179268, -0.02764468640089035, 0.02482139877974987, 0.010116779245436192, -0.00046870976802892983, 0.010234415531158447, -0.0024115578271448612, 0.01670444943010807, -0.006969990208745003, -0.009410956874489784, -0.014116435311734676, -0.00617594039067626, -0.031056158244609833, 0.03270307555794716, -0.006117122247815132, -0.016939722001552582, -0.0028379918076097965, 0.02246866002678871, 0.015880990773439407, 0.002440966898575425, 0.006146531086415052, 0.011234330013394356, 0.0018233729060739279, -0.0047348877415061, -0.015410441905260086, 0.011704877950251102, -0.02799759805202484, -0.0027350594755262136, -0.005205435678362846, -0.040467116981744766, 0.003970247693359852, 0.016939722001552582, 0.010116779245436192, 0.008587498217821121, -0.007146445568650961, -0.0336441695690155, 0.03882019594311714, -0.012763610109686852, -0.023056844249367714, 0.019998284056782722, -0.0036614504642784595, 0.028821056708693504, -0.03811437636613846, 0.005970075726509094, 0.009881504811346531, -0.0005918609676882625, 0.015528079122304916, 0.03599691018462181, 0.011351967230439186, 0.011234330013394356, 0.007881676778197289, 0.017763180658221245, -0.011940151453018188, 0.006617079023271799, 0.007058217655867338, 0.017527908086776733, -0.017410270869731903, -0.013587068766355515, 0.00488193379715085, 0.019880646839737892, 0.02458612434566021, 0.004176112357527018, -0.01246951799839735, 0.006058303639292717, -0.007764039561152458, 0.018233729526400566, 0.010587326250970364, -0.01117551140487194, -0.010352052748203278, -0.02458612434566021, -0.005558346398174763, 0.031056158244609833, -0.0016689744079485536, 0.022703934460878372, 0.008940408937633038, 0.0053818910382688046, -0.010587326250970364, -0.020468831062316895, -0.019998284056782722, 0.013822343200445175, -0.04634896293282509, 0.023292118683457375, 0.0094697754830122, 0.0002867401053663343, 0.0010366757633164525, -0.04470204561948776, -0.004293749108910561, -0.005999485030770302, -0.01088141929358244, 0.01611626334488392, -0.017998455092310905, -0.015410441905260086, -0.02164520137012005, 0.05199553817510605, -0.021174652501940727, 0.008822772651910782, 0.006969990208745003, 0.030820883810520172, 0.018116092309355736, -0.013587068766355515, -0.02176283858716488, -0.020233558490872383, 0.01088141929358244, -0.00958741270005703, 0.006617079023271799, -0.006440623663365841, -0.039526019245386124, 0.036938007920980453, -0.009352138265967369, -0.014057616703212261, 0.006764125544577837, 0.0014925189316272736, -0.0023233299143612385, -0.0249390359967947, -0.028232870623469353, 0.024115577340126038, -0.028585782274603844, 0.008411042392253876, -0.0031173794995993376, 0.040467116981744766, -0.01505753118544817, -0.005675983615219593, 0.010999055579304695, 0.006028894335031509, -0.02740941196680069, 0.018469003960490227, -0.014763439074158669, 0.009293319657444954, 0.034114718437194824, -0.008587498217821121, 0.013292976655066013, -0.03317362442612648, 0.0094697754830122, 0.0003418824344407767, 0.021527564153075218, -0.004705478437244892, 0.034114718437194824, -0.014645801857113838, -0.018469003960490227, 0.003970247693359852, -0.004617250990122557, 0.0038232014048844576, 0.013057703152298927, -0.03129143267869949, 0.003146788803860545, -0.001816020580008626, -0.005970075726509094, -0.02764468640089035, -0.018469003960490227, 0.00042459589894860983, 0.023997940123081207, -0.007940495386719704, -0.0032203118316829205, -0.00829340610653162, 0.03293834999203682, -0.008528679609298706, 0.018351366743445396, 0.006028894335031509, -0.008999227546155453, 0.004293749108910561, 0.004499613773077726, -0.02235102280974388, -0.045643143355846405, 0.013057703152298927, -0.017174996435642242, -0.013410613872110844, -0.013410613872110844, -0.014292891137301922, -0.0005036332295276225, -0.05128971487283707, -0.0020439422223716974, 0.0060877129435539246, -0.01658681221306324, -0.005117207765579224, 0.017880817875266075, 0.000904334126971662, -0.007999313063919544, 0.011116692796349525, -0.023527393117547035, -0.00829340610653162, 0.01635153777897358, -0.03223252668976784, -0.03599691018462181, 0.005911257583647966, -0.01905718818306923, 0.0005661278846673667, 0.014410528354346752, 0.022939207032322884, 0.0035879274364560843, 0.02776232361793518, -0.013469432480633259, 0.004411386325955391, 0.02176283858716488, 0.023880302906036377, -0.0060877129435539246, 0.023174481466412544, 0.009058046154677868, -0.005940666422247887, 0.013528251089155674, -0.001999828265979886, -0.019763009622693062, -0.03505581617355347, -0.02799759805202484, -0.018351366743445396, 0.031056158244609833, -0.010057960636913776, -0.027056502178311348, -0.011763696558773518, 0.0007536117918789387, 0.006617079023271799, -0.018469003960490227, 0.02176283858716488, -0.0056465743109583855, -0.0037643827963620424, 0.020115921273827553, 0.0018454298842698336, 0.02976215071976185, 0.021174652501940727, 0.023997940123081207, -0.031761981546878815, -0.002985037863254547, 0.021057017147541046, -0.01905718818306923, -0.0021468745544552803, -0.01670444943010807, -0.0010513802990317345, 0.04164348542690277, 0.0324678011238575, -0.009999142028391361, 0.021174652501940727, -0.014822257682681084, -0.00629357760772109, -0.026703590527176857, 0.011116692796349525, 0.0037496781442314386, 0.023880302906036377, -0.00236744387075305, 0.026821227744221687, -0.011293148621916771, 0.01235188078135252, 0.017645545303821564, 0.021527564153075218, 0.009881504811346531, 0.008763954043388367, -0.0009778572712093592, -0.04493732005357742, 0.016939722001552582, -0.004176112357527018, 0.0097638675943017, -0.02235102280974388, 0.007764039561152458, -0.01658681221306324, 0.0064700329676270485, -0.02717413753271103, -0.007822858169674873, -0.013057703152298927, -0.031056158244609833, 0.013116521760821342, 0.0065876697190105915, -0.006646488327533007, -0.009234501980245113, -0.012293062172830105, -0.04634896293282509, 0.0035879274364560843, 0.031526707112789154, -0.022703934460878372, 0.01941009797155857, 0.03552636131644249, 0.026703590527176857, -0.0056465743109583855, -0.0052642542868852615, -0.0038526104763150215, -0.0336441695690155, 2.5962845029425807e-05, -0.007146445568650961, 0.036938007920980453, 0.006381805054843426, -0.008763954043388367, 0.029291603714227676, -0.034585267305374146, -0.02458612434566021, -0.018586639314889908, 0.02235102280974388, 0.015528079122304916, -0.029526878148317337, 0.010352052748203278, 0.0324678011238575, 0.012822428718209267, -0.00817576888948679, -0.01882191374897957, 0.026585953310132027, 0.005793620366603136, 0.0378791019320488, -0.014881075359880924, 0.0056465743109583855, -0.005411300342530012, -0.01599862612783909, -0.01529280561953783, -0.010704963468015194, 0.03058561123907566, 0.007999313063919544, 0.01399879902601242, 0.020115921273827553, 0.0021909885108470917, 0.006940580904483795, -0.037408553063869476, -0.0024115578271448612, 0.008763954043388367, 0.01505753118544817, 0.04164348542690277, -0.030350336804986, 0.005705392919480801, 0.007822858169674873, -0.003970247693359852, -0.0018380775582045317, -0.009352138265967369, -0.02188047580420971, 0.006558260880410671, 0.008411042392253876, -1.9299814084661193e-05, 0.029526878148317337, 0.0444667711853981, 0.011410785838961601, -0.01258715521544218, -0.006117122247815132, 0.03623218461871147, -0.0195277351886034, 0.017998455092310905, -0.01529280561953783, 0.020351193845272064, -0.0052642542868852615, -0.007087626960128546, -0.005558346398174763, -0.010057960636913776, 0.029173966497182846, 0.0015880990540608764, 0.01929246261715889, -0.012175425887107849, 0.0009410956990905106, 0.011293148621916771, -0.0015586897497996688, -0.0002610070223454386, -0.030820883810520172, -0.006411214359104633, -0.01917482540011406, -0.03623218461871147, 0.015645716339349747, -0.01670444943010807, -0.05176026374101639, 0.010234415531158447, 0.006558260880410671, -0.018469003960490227, 0.004852524492889643, 0.001999828265979886, 0.00817576888948679, -0.028585782274603844, 0.004205521196126938, -0.03552636131644249, 0.022586297243833542, -0.06540615111589432, 0.004176112357527018, 0.01493989396840334, 0.005558346398174763, -0.022939207032322884, 0.010528508573770523, -0.00817576888948679, 0.0025733085349202156, 0.015175168402493, -0.0195277351886034, -0.002793877851217985, -0.005617165006697178, 0.010057960636913776, 0.017880817875266075, -0.03882019594311714, -0.00817576888948679, 0.015175168402493, -0.01235188078135252, -0.0038232014048844576, -0.0003198254853487015, 0.03270307555794716, -0.007528765592724085, 0.004793706350028515, 0.012116607278585434, -0.007322900928556919, -0.007822858169674873, 0.020939379930496216, -0.009352138265967369, 0.011351967230439186, -0.0027350594755262136, -0.004617250990122557, 0.008940408937633038, -0.03129143267869949, -0.014763439074158669, -0.031526707112789154, 0.014881075359880924, 0.0026909455191344023, 0.014763439074158669, 0.008234587498009205, -0.024115577340126038, 0.005293663125485182, -0.002999742515385151, -0.028585782274603844, 0.012293062172830105, -0.01623390056192875, 0.05434827506542206, 0.042819853872060776, 0.026585953310132027, -0.0021468745544552803, 0.034349992871284485, -0.0781109407544136, -0.00023435488401446491, -0.02188047580420971, -0.020939379930496216, 0.002264511538669467, -0.005028980318456888, -0.03576163575053215, 0.0094697754830122, -0.0031761981081217527, -0.015763353556394577, 0.026585953310132027, 0.004587841685861349, 0.00817576888948679, 0.01882191374897957, 0.0097638675943017, 0.005470118951052427, 0.01246951799839735, -0.014704620465636253, 0.025644857436418533, 0.023056844249367714, -0.0012057789135724306, 0.029056329280138016, -0.02799759805202484, 0.006793534383177757, -0.048466429114341736, 0.021057017147541046, 0.008352224715054035, -0.03599691018462181, 0.014234072528779507, -0.01529280561953783, -0.018351366743445396, -0.03834965080022812, -0.04634896293282509, -0.01905718818306923, 0.002558603882789612, -0.010410871356725693, -0.021292289718985558, 0.039761293679475784, -0.012057788670063019, 0.006264168303459883, -0.01235188078135252, 0.025997769087553024, 0.025527220219373703, -0.0021321699023246765, 0.01529280561953783, -0.0065876697190105915, 0.0010366757633164525, -0.009116864763200283, -0.003529108827933669, -0.009058046154677868, -0.023527393117547035, -0.007058217655867338, -0.025527220219373703, -0.008352224715054035, 0.005117207765579224, 0.022939207032322884, -0.023880302906036377, -0.008234587498009205, -0.015763353556394577, 0.02529194764792919, 0.026821227744221687, 0.010116779245436192, -0.020233558490872383, -0.031056158244609833, -0.014469346031546593, 0.03011506237089634, 0.042819853872060776, 0.02517431043088436, -0.013234158046543598, 0.024233214557170868, -0.028115233406424522, -0.04964279755949974, -0.004705478437244892, -0.01658681221306324, 0.0033673581201583147, 0.022703934460878372, -0.010822600685060024, 0.0026321271434426308, -0.008469861000776291, -0.011528422124683857, 0.017880817875266075, 0.005087798461318016, 0.011763696558773518, 0.008940408937633038, -0.007528765592724085, -0.013528251089155674, -0.007264082320034504, 0.0249390359967947, -0.00817576888948679, -0.0005587755586020648, -0.012645973823964596, 0.01399879902601242, -0.023527393117547035, 0.004411386325955391, -0.008116950280964375, -0.0009410956990905106, -0.0030144471675157547, -0.012704792432487011, 0.004352567717432976, 0.011822515167295933, -0.002161579206585884, -0.0007168502197600901, -0.0029703332111239433, 0.004264339804649353, 0.012645973823964596, 0.006381805054843426, 0.039996568113565445, -0.007117036264389753, 0.018351366743445396, 0.0390554703772068, 0.0072934916242957115, 0.011469603516161442, 0.021292289718985558, 0.0390554703772068, -0.0014189959038048983, -0.01929246261715889, 0.01905718818306923, 0.0008602202869951725, -0.021527564153075218, 0.02482139877974987, 0.034349992871284485, 0.005352481734007597, -0.023056844249367714, 0.007822858169674873, 0.010528508573770523, 0.006117122247815132, 0.010234415531158447, 0.012234244495630264, 0.042584579437971115, 0.0004264339804649353, 0.006499442271888256, 0.006705306936055422, -0.005028980318456888, 0.007381719537079334, 0.00041172935743816197, 0.023645030334591866, 0.015763353556394577, 0.01917482540011406, -0.005852438975125551, 0.000450329011073336, 0.028703419491648674, 0.003102674847468734, 0.03223252668976784, 0.010822600685060024, -0.031761981546878815, 0.021409926936030388, -0.018469003960490227, -0.011234330013394356, -0.014586983248591423, -0.03058561123907566, -0.014116435311734676, 0.006528851576149464, -0.026703590527176857, 0.013822343200445175, 0.005146617069840431, 0.00236744387075305, -0.023997940123081207, 0.005146617069840431, -0.0026762408670037985, 0.01376352459192276, -0.011469603516161442, -0.004529023077338934, 0.042584579437971115, -0.009116864763200283, -0.026468316093087196, 0.018469003960490227, 0.018704276531934738, 0.009410956874489784, 0.040231842547655106, 0.01658681221306324, -0.02246866002678871, -0.03270307555794716, 0.011351967230439186, 0.023997940123081207, -0.017998455092310905, 0.017527908086776733, -0.0011469604214653373, 0.03223252668976784, 0.003543813480064273, 0.002646831562742591, -0.004058475140482187, -0.03011506237089634, -0.034349992871284485, 0.007234673015773296, 0.01364588737487793, -0.031526707112789154, -0.06446505337953568, 0.012175425887107849, 0.00688176229596138, 0.029291603714227676, -0.00010339185973862186, -0.023762665688991547, 0.004381977021694183, -0.005705392919480801, -0.0024115578271448612, 0.025997769087553024, -0.0016910313861444592, 0.018351366743445396, -0.009881504811346531, -0.007234673015773296, -0.029644515365362167, 0.0063523962162435055, -0.01505753118544817, 0.001999828265979886, 0.018351366743445396, 0.01929246261715889, 0.033879444003105164, -0.006234758999198675, -0.04729006066918373, -0.03529109060764313, -0.034349992871284485, 0.03858492523431778, -0.014645801857113838, 0.00402906583622098, 0.003705564420670271, 0.004793706350028515, -0.014704620465636253, -0.03529109060764313, 0.00030144472839310765, 0.017292633652687073, 0.02717413753271103, -0.011998970061540604, 0.0019410098902881145, -0.001080789603292942, -0.031056158244609833, 0.020468831062316895, 0.026350678876042366, -0.001720440573990345, 0.005176026374101639, 0.03764382749795914, -0.03552636131644249, -0.008822772651910782, -0.021292289718985558, -0.011940151453018188, 0.0029703332111239433, -0.02470376156270504, -0.0011101987911388278, -0.002249806886538863, 0.005087798461318016, -0.003058561123907566, 0.005705392919480801, 0.007999313063919544, -0.028821056708693504, 0.01235188078135252, 0.009646231308579445, 0.0031320841517299414]}}
{"UUID": "1377662e-a9a7-4336-823e-2bc571f2fdf3", "BM25": {"terms": ["a", "review", "of", "hypertension", "and", "vascular", "cognitive", "impairment", "vci", "is", "dysfunction", "syndrome", "caused", "by", "various", "vascular-related", "risk", "factors", "with", "regarded", "as", "one", "the", "main", "pathogenic", "chronic", "can", "promote", "decline", "through", "abnormal", "microcirculation", "structure", "white", "matter", "fiber", "injury", "blood-brain", "barrier", "destruction", "oxidative", "stress", "neuroinflammatory", "reaction", "increasing", "incidence", "dementia", "to", "fully", "grasp", "research", "status", "in", "this", "field", "study", "adopted", "preferred", "reporting", "items", "for", "systematic", "reviews", "meta-analyses", "2020", "guidelines", "literature", "identification", "controlled", "vocabulary-based", "search", "strategy", "was", "employed", "screen", "pubmed", "embase", "web", "science", "cochrane", "library", "human", "studies", "published", "from", "january", "2000", "march", "2025", "focusing", "on", "antihypertensive", "treatment", "aerobic", "exercise", "intervention", "analysis", "shows", "that", "angiotensin", "converting", "enzyme", "inhibitors", "calcium", "channel", "blockers", "may", "play", "neuroprotective", "role", "cerebral", "blood", "flow", "reducing", "delaying", "amyloid", "deposition", "however", "these", "mechanisms", "their", "clinical", "results", "are", "still", "controversial", "particularly", "moderate", "high-intensity", "continuously", "improve", "neuroplasticity", "development", "enhance", "performance", "significant", "limitations", "remain", "existing", "thus", "it", "essential", "conduct", "integrated", "further", "strengthen", "standardized", "experimental", "design", "personalization", "keywords", "therapy", "funding", "none", "conflict", "interest", "authors", "declare", "they", "have", "no", "competing", "interests", "references", "1", "humphrey", "jd", "remodeling", "am", "j", "hypertens", "2021", "34", "5", "432-441", "doi", "10", "1093", "ajh", "hpaa195", "cipolla", "mj", "bishop", "n", "vinke", "rs", "godfrey", "ja", "ppar", "gamma", "activation", "prevents", "hypertensive", "arteries", "improves", "function", "female", "rats", "stroke", "2010", "41", "6", "1266-1270", "1161", "strokeaha", "109", "576942"], "weights": [0.23888751361711782, 1.0195159403969212, 0.11920912888338857, 6.783946720065602, 0.14295926522159613, 4.369477207754312, 0.9276469339334066, 1.4841761925913712, 6.284601468404367, 1.1380200492808643, 1.9164630006530667, 3.383767853420665, 3.8382234128196298, 1.1330828380513136, 2.7880058014763605, 6.738345043902946, 1.4296324418094415, 2.683876819518344, 0.2985839659261675, 5.218944374234198, 0.6840399929403612, 2.027184388311255, 0.2261239989576122, 2.8015885729232015, 4.799664445413012, 2.8200234552727417, 2.3898949512033143, 5.137936607403304, 1.6609059378449624, 1.8878849546529328, 3.7556337104612862, 5.74852454883281, 3.21011950664157, 2.4854954287266726, 2.4854954287266726, 5.154561745498307, 2.829384302510352, 3.4468617661250263, 3.231918314533262, 6.027965902118904, 4.829399726946726, 4.216192390669772, 4.3735883484908005, 4.719525122785528, 4.740691660651223, 3.6561148909822374, 1.2181235890314321, 0.5646377074847482, 3.6799831329338404, 7.198585364374468, 1.4039818204123797, 2.5838193230412685, 0.17893184300788645, 1.2166230715016872, 2.9028739422050833, 0.7940004445065956, 4.985131679218104, 4.484617684691938, 3.141045583284395, 3.555903547685902, 0.46137022633525104, 2.4100480353730878, 2.9941217881726074, 3.2542576434455412, 1.7486447814678254, 2.5017004238798766, 3.712008581317242, 2.7658132153911503, 2.3404363359346263, 7.198585364374468, 2.4508383312909294, 3.375104580500473, 1.1621437018335903, 3.4192787923171393, 4.400089477885707, 1.4376278215508695, 4.645935386052373, 3.555903547685902, 2.72719415607529, 4.25164938846486, 4.427393792929467, 2.518202230260874, 1.3699626397310838, 2.2594247658123363, 0.7750370006737085, 3.6561148909822374, 3.782331173141332, 4.18569506558085, 1.7996844306155386, 3.8382234128196298, 0.5415268003110563, 7.7746626350559005, 2.080900698060303, 5.584045385792197, 4.535497349635367, 2.0953661787288653, 1.957786181627918, 3.231918314533262, 1.267839477175454, 5.535544537826173, 6.208764869304333, 5.288284228361288, 4.347844498772273, 4.645935386052373, 5.535544537826173, 5.288284228361288, 1.4012298400707535, 3.545426994270523, 3.188835679693825, 1.5774341746703329, 3.987748829502609, 3.4529481694485495, 4.949353286161302, 3.4102689828155723, 4.681979130074921, 2.43855911646525, 3.7045009299566494, 2.868719204351262, 1.3157523998494924, 3.1790543632255495, 1.4346212333038448, 1.2045324621156088, 1.3361493232736854, 0.9909407922654305, 3.4192787923171393, 5.635755881122509, 2.326867202324315, 3.1148335981287896, 5.877454608471125, 4.985131679218104, 2.4854954287266726, 4.645935386052373, 2.144600253646013, 2.824691721892404, 1.938945270319943, 1.8132899928128057, 2.862935062503098, 3.3166876973944506, 3.284932042363926, 3.2173273326189293, 1.4903373976554848, 2.97733297738781, 4.347844498772273, 3.535070863676446, 2.0214088977526745, 4.88763411340099, 3.022817635427043, 2.9997883064858977, 2.37386113125364, 5.445371999689626, 2.9997883064858977, 2.5418246099469646, 2.907993123260719, 4.229123879164062, 3.4850039036138454, 2.9884906858300733, 2.048683690106808, 3.4102689828155723, 2.2372078566213984, 1.360698049697182, 1.7687150277460786, 3.7045009299566494, 3.692158635004785, 1.1710606251768676, 1.2113846059428748, 7.198585364374468, 4.229123879164062, 7.255370856927333, 2.6055742658860384, 1.0924479048724438, 5.094474588269061, 1.6949831771538426, 2.6019117671762118, 1.286421808799326, 7.198585364374468, 1.8207886716129253, 1.2993880172181673, 3.127844271035588, 6.027965902118904, 7.198585364374468, 6.738345043902946, 3.555903547685902, 6.208764869304333, 1.511879928809741, 7.198585364374468, 4.048324911978632, 7.198585364374468, 3.7556337104612862, 6.435192494759762, 5.445371999689626, 3.01122939282281, 4.577905086577246, 4.935064719155504, 5.288284228361288, 3.7170146511454254, 1.4346212333038448, 3.4753159237968085, 3.882542516437667, 2.4446778051219424, 2.8484029177494947, 2.7484445147810224, 1.4745119303343721, 7.198585364374468, 3.9616260106920564, 4.799664445413012, 4.14426369982573, 7.198585364374468], "k1": 1.5, "b": 0.75, "avgdl": 233.87661016949153, "N": 4425}, "SpladeV3": {"model_id": "naver/splade-v3", "tokens": ["vc", "##i", "vascular", "hyper", "cognitive", "impairment", "##tension", "##del", "dementia", "cognition", "##tens", "bishop", "calcium", "cerebral", "pathogen", "humphrey", "aero", "re", "systematic", "rats", "review", "literature", "##ii", "syndrome", "activation", "dysfunction", "##ida", "controversial", "deposition", "barrier", "brain", "flow", "godfrey", "chronic", "decline", "pub", "exercise", "stroke", "vin", "##base", "mechanisms", "##bic", "moderate", "##loid", "ja", "stress", "##astic", "standardized", "##tec", "pressure", "##pol", "cochrane", "strokes", "##mo", "arteries", "##ulation", "limitations", "127", "ox", "##ive", "matter", "promote", "fiber", "intensity", "improve", "exercises", "block", "significant", "barriers", "##ens", "rat", "alzheimer", "hp", "bishops", "micro", "integrated", "##aa", "research", "brains", "clinical", "funding", "ang", "inhibitor", "##iot", "artery", "factors", "##uro", "doi", "disabled", "destruction", "vein", "disease", "stressed", "gym", "impaired", "inhibitors", "caused", "white", "channel", "experimental", "gamma", "ryan", "therapy", "h", "enzymes", "aj", "enzyme", "ne", "conduct", "paint", "high", "enhance", "declining", "##tive", "ci", "mechanism", "status", "published", "mice", "study", "##med", "meta", "##aha", "authors", "performance", "function", "gilbert", "interventions", "factor", "abnormal", "intervention", "risk", "promoted", "##5", "controversy", "##per", "anti", "##la", "prevent", "related", "increasing", "##pro", "##ory", "ic", "amy", "##j", "female", "researcher", "is", "reporting", "icc", "cause", "report", "##rc", "existing", "cv", "channels", "##hy", "reviews", "structures", "risks", "roles", "intense", "##pl", "incidence", "key", "##anial", "limitation", "deficit", "and", "conversion", "functioning", "facilitate", "nic", "blocks", "cai", "circulation", "kane", "rs", "blood", "ni", "intelligence", "obstruction", "employed", "studies", "##ing", "cia", "disorder", "critical", "screen", "io", "ai", "improvement", "vince", "iv", "prevented", "treatment", "development", "cid", "injuries", "therapist", "effect", "grasp", "nerve", "##hd", "experiment", "activate", "results", "i", "injury", "medical", "v", "analyze", "##fl", "seizure", "enhanced", "structure", "##am", "can", "conflicts", "em", "formation", "design", "murphy", "humans", "conflict", "continuous", "functions", "damage", "limit", "failure", "##ivation", "##6", "preferred", "##ar", "delay", "treatments", "functional", "mental", "activated", "analysis", "constant", "play", "limits", "controlled", "##ci", "anxiety", "author", "ki", "flows", "phenomenon", "particularly", "mia", "##cular", "cs", "roi", "frank", "women", "##ie", "performances", "##19", "parkinson", "mc", "##mat", "##ity", "prevalence", "mentally", "experiments", "hi", "rodents", "increase", "essential", "arte", "pri", "graham", "main", "reactions", "##ulate", "delayed", "personal", "interest", "fibers", "index", "researchers", "##press", "##ede", "chi", "base", "destructive", "strengthen", "library", "guidelines", "persistent", "strategy", "deterioration", "##ization", "converting", "treat", "##words", "necessary", "patient", "116", "role", "developmental", "##ke", "depression", "m", "deficiency", "concerning", "screens", "reaction", "jd", "by", "pia", "significantly", "vessels", "invasive", "##ega", "monkeys", "reduce", "concerns", "treated", "adopted", "increased", "show", "altered", "##a", "kai", "human", "discussion", "mcc", "gp", "screening"], "weights": [2.8148036003112793, 2.7549614906311035, 2.7452688217163086, 2.5234553813934326, 2.3353192806243896, 2.3286423683166504, 2.304896116256714, 2.2965199947357178, 2.2121410369873047, 2.0826363563537598, 2.019369602203369, 1.941591501235962, 1.8966984748840332, 1.8819085359573364, 1.820038080215454, 1.7890735864639282, 1.7791860103607178, 1.7624551057815552, 1.7520774602890015, 1.7495075464248657, 1.736968755722046, 1.6857731342315674, 1.6830840110778809, 1.6816608905792236, 1.6760673522949219, 1.6711171865463257, 1.667072057723999, 1.655558466911316, 1.6548744440078735, 1.6509766578674316, 1.6436631679534912, 1.6431090831756592, 1.6419800519943237, 1.629892110824585, 1.626503825187683, 1.6239267587661743, 1.5905052423477173, 1.5752599239349365, 1.572058081626892, 1.5437800884246826, 1.5207200050354004, 1.519304871559143, 1.512495517730713, 1.452187180519104, 1.4230067729949951, 1.4173613786697388, 1.4108844995498657, 1.3995474576950073, 1.3887569904327393, 1.3867303133010864, 1.3838729858398438, 1.3784111738204956, 1.3719305992126465, 1.3688098192214966, 1.330325722694397, 1.318378210067749, 1.3002077341079712, 1.2922933101654053, 1.2814913988113403, 1.2813712358474731, 1.2765066623687744, 1.2676708698272705, 1.267184853553772, 1.2662729024887085, 1.2631282806396484, 1.261154294013977, 1.2474586963653564, 1.240454912185669, 1.2242921590805054, 1.2191855907440186, 1.2111811637878418, 1.2101922035217285, 1.2083653211593628, 1.2034410238265991, 1.2015600204467773, 1.2011215686798096, 1.1919151544570923, 1.1895077228546143, 1.1787177324295044, 1.1650980710983276, 1.156444787979126, 1.1523911952972412, 1.1483376026153564, 1.1456598043441772, 1.1367605924606323, 1.1306443214416504, 1.1222255229949951, 1.1192337274551392, 1.1171419620513916, 1.1157848834991455, 1.1153769493103027, 1.1151474714279175, 1.1107847690582275, 1.0968842506408691, 1.090259075164795, 1.0710514783859253, 1.0662970542907715, 1.0662007331848145, 1.0638206005096436, 1.0603423118591309, 1.043586254119873, 1.031639575958252, 1.026213526725769, 1.0161049365997314, 1.013854742050171, 0.9997081756591797, 0.9966223239898682, 0.9736374616622925, 0.960724949836731, 0.9606376886367798, 0.9577088356018066, 0.9535588026046753, 0.9503223896026611, 0.9500133991241455, 0.9467955231666565, 0.9465599656105042, 0.9417423009872437, 0.9409666061401367, 0.9304890632629395, 0.9024849534034729, 0.8995203971862793, 0.8943324089050293, 0.8845717310905457, 0.8835177421569824, 0.8820277452468872, 0.8727845549583435, 0.863365113735199, 0.8620438575744629, 0.86053466796875, 0.8414281606674194, 0.8353086113929749, 0.8312790393829346, 0.8309703469276428, 0.8299447298049927, 0.8244394063949585, 0.8235085606575012, 0.8155317902565002, 0.8104717135429382, 0.800538182258606, 0.7977266311645508, 0.7918248772621155, 0.7917947769165039, 0.7886773347854614, 0.7874038219451904, 0.7831407785415649, 0.7790693640708923, 0.7670939564704895, 0.7637995481491089, 0.7583407163619995, 0.7551849484443665, 0.7542083859443665, 0.7519099712371826, 0.7388256788253784, 0.7354961633682251, 0.7306169867515564, 0.7262610197067261, 0.7228491902351379, 0.7184346914291382, 0.7140429615974426, 0.7084522843360901, 0.7057580947875977, 0.7033274173736572, 0.7015623450279236, 0.6947692632675171, 0.694710910320282, 0.6928028464317322, 0.6923173666000366, 0.690829873085022, 0.6835771203041077, 0.683001697063446, 0.6781616806983948, 0.6749481558799744, 0.6746886968612671, 0.6667632460594177, 0.663424015045166, 0.6536915898323059, 0.6474215984344482, 0.6429099440574646, 0.6411744356155396, 0.6336080431938171, 0.6300764679908752, 0.6146636605262756, 0.6099199056625366, 0.6081779599189758, 0.596476674079895, 0.5832856893539429, 0.5821264386177063, 0.5807667374610901, 0.5800902247428894, 0.5781472325325012, 0.5743013620376587, 0.5711361169815063, 0.569998025894165, 0.5694534182548523, 0.5678128004074097, 0.557063639163971, 0.556632936000824, 0.5512595176696777, 0.5436370372772217, 0.5407550930976868, 0.5374049544334412, 0.5365891456604004, 0.5359359383583069, 0.5297785997390747, 0.5280125141143799, 0.527338981628418, 0.5198545455932617, 0.5169073343276978, 0.5147891044616699, 0.5134190320968628, 0.5011761784553528, 0.49854201078414917, 0.497958242893219, 0.49696362018585205, 0.49094972014427185, 0.48451584577560425, 0.4736172556877136, 0.465016633272171, 0.46424421668052673, 0.4637961983680725, 0.4585270285606384, 0.4553886651992798, 0.45486825704574585, 0.4539758265018463, 0.45128297805786133, 0.4506984353065491, 0.4449858069419861, 0.44176116585731506, 0.43703171610832214, 0.4300987422466278, 0.42581626772880554, 0.4221055209636688, 0.42046019434928894, 0.41954487562179565, 0.41631636023521423, 0.4128623902797699, 0.4094364643096924, 0.4001854956150055, 0.39898380637168884, 0.39792078733444214, 0.39667633175849915, 0.3947847783565521, 0.39290860295295715, 0.38058632612228394, 0.37627243995666504, 0.3760567009449005, 0.37130385637283325, 0.3697567880153656, 0.3662244975566864, 0.3661714494228363, 0.35747861862182617, 0.3541600704193115, 0.35392487049102783, 0.35365116596221924, 0.3523792028427124, 0.3459224998950958, 0.34521618485450745, 0.33998414874076843, 0.33800390362739563, 0.32921940088272095, 0.3271031379699707, 0.3166661560535431, 0.3166610896587372, 0.3159259259700775, 0.31451329588890076, 0.29822638630867004, 0.29552319645881653, 0.29478979110717773, 0.2936522662639618, 0.28178277611732483, 0.2749220132827759, 0.27243149280548096, 0.26599448919296265, 0.2645198106765747, 0.2625330686569214, 0.25968194007873535, 0.25513097643852234, 0.2524573504924774, 0.25017887353897095, 0.24544017016887665, 0.23011262714862823, 0.2237776815891266, 0.2185647040605545, 0.21626323461532593, 0.2063731849193573, 0.20544452965259552, 0.2031569927930832, 0.19745297729969025, 0.19691310822963715, 0.19498959183692932, 0.1913394182920456, 0.19008216261863708, 0.18560130894184113, 0.17966248095035553, 0.17965516448020935, 0.17931953072547913, 0.1741737276315689, 0.1726042479276657, 0.16973480582237244, 0.1640976071357727, 0.16236145794391632, 0.158828467130661, 0.1506790965795517, 0.14804045855998993, 0.14678795635700226, 0.14364638924598694, 0.14251713454723358, 0.13795079290866852, 0.13750910758972168, 0.1327473372220993, 0.13235892355442047, 0.13153263926506042, 0.12944428622722626, 0.12531404197216034, 0.11886177211999893, 0.11555405706167221, 0.11417929083108902, 0.11348523199558258, 0.1106068566441536, 0.09323658794164658, 0.08189192414283752, 0.08176858723163605, 0.06636738032102585, 0.056219883263111115, 0.052721310406923294, 0.03873871639370918, 0.03792578727006912, 0.016267985105514526, 0.014688066206872463, 0.010775063186883926, 0.009073025546967983, 0.00577823119238019, 0.004598637111485004]}, "Qwen3-4B": {"model_id": "Qwen/Qwen3-Embedding-4B", "vector": [-0.0004837924789171666, -0.009030792862176895, -0.0008136510150507092, -0.024277586489915848, -0.0014513775240629911, 0.044802118092775345, -0.02146279439330101, 0.024043021723628044, -0.00733018945902586, 0.04081449285149574, 0.013252981938421726, 0.028499776497483253, 0.007388830650597811, -0.06427109986543655, -0.03471577540040016, 0.014953586272895336, -0.0007220236584544182, -0.012901132926344872, 0.030259020626544952, 0.0039876229129731655, -0.00026571936905384064, 0.0490243062376976, -0.00554162310436368, -0.01946898363530636, -0.08350551873445511, 0.0018618680769577622, -0.010320906527340412, -0.049258872866630554, -0.026154115796089172, 0.029203474521636963, 0.03776513412594795, -0.02967260591685772, 0.007066302467137575, -0.011435095220804214, -0.0011435095220804214, -0.0077406796626746655, -0.013546190224587917, -0.0007696698885411024, -0.001458707614801824, -0.0006010755314491689, -0.007183585315942764, 0.049962569028139114, -0.03893796727061272, 0.004515396431088448, -0.010086340829730034, -0.0057761892676353455, -0.0006340613472275436, -0.03330837935209274, -0.008385736495256424, -0.00973449181765318, 0.013487548567354679, 0.011317811906337738, -0.0027854719664901495, -0.0014000661903992295, 0.005131132435053587, 0.005922792945057154, 0.01665418967604637, 0.007359509821981192, -0.00495520792901516, 0.021580077707767487, 0.00803388748317957, 0.03518490865826607, 0.0044274344108998775, 0.006157359108328819, -0.009089434519410133, 0.001722594490274787, 0.017944304272532463, -0.01413260493427515, -0.0017006038688123226, 0.018178869038820267, -0.018882567062973976, 0.056764986366033554, -0.012490642257034779, -0.0008832878083921969, 0.004134226590394974, -0.005307056941092014, -0.007916604168713093, 0.0027268303092569113, 0.020524529740214348, 0.01606777496635914, -0.007857962511479855, -0.008737585507333279, 0.0038410192355513573, 0.007857962511479855, -0.008444378152489662, 0.029438039287924767, 0.009441283531486988, -0.0008026557043194771, -0.017475171014666557, -0.017123322933912277, 0.007506113965064287, -0.05418476089835167, -0.01946898363530636, -0.014953586272895336, 0.004544717259705067, -0.005629585590213537, -0.0012314717750996351, -0.02005539834499359, -0.009558566845953465, 0.0009309340384788811, -0.009558566845953465, -0.008737585507333279, 0.003034698311239481, 0.01483630295842886, 0.02251834236085415, -0.007975245825946331, 0.010027699172496796, -0.009499925188720226, 0.006391925271600485, 0.0011361793149262667, 0.0020817737095057964, 0.005893472116440535, 0.0061280382797122, 0.029907172545790672, 0.01178694423288107, -0.009617208503186703, 0.018530718982219696, -0.016888756304979324, 0.020289963111281395, 0.019351700320839882, -0.01413260493427515, 0.020876379683613777, 0.019351700320839882, -0.025098567828536034, 0.019586265087127686, 0.030493587255477905, 0.0006267311982810497, 0.013370265252888203, -0.0004911226569674909, 0.019586265087127686, -0.04527124762535095, -0.00366509472951293, -0.0012314717750996351, 0.007857962511479855, -0.006391925271600485, 0.027796078473329544, 0.020876379683613777, -0.0038703398313373327, -0.011845585890114307, 0.004896566271781921, 0.006040075793862343, -0.003283924888819456, 0.006655811797827482, -0.031197285279631615, 0.007212906144559383, 0.021580077707767487, 0.001795896328985691, -0.011669660918414593, 0.010438189841806889, -0.01806158572435379, 0.0085030198097229, 0.03260468319058418, -0.006509208120405674, 0.002917415229603648, -0.010203623212873936, 0.0027561511378735304, 0.014601737260818481, -0.009675850160419941, 0.005688226781785488, -0.016419624909758568, -0.004662000574171543, 0.009089434519410133, -0.009324001148343086, -0.04057992622256279, -0.020641813054680824, 0.005160453263670206, -0.013546190224587917, 0.008620302192866802, -0.002023132285103202, -0.024981284514069557, -0.01161102019250393, 0.0004343137261457741, -0.006098717451095581, -0.006421245634555817, 0.0005827500717714429, -0.001568660489283502, 0.004544717259705067, -0.03166641667485237, -0.012197434902191162, 0.02932075783610344, -0.0170060396194458, -0.005013849586248398, 0.030962718650698662, 0.0006230660947039723, -0.021228227764368057, 0.013252981938421726, 0.003928981255739927, -0.011376453563570976, 0.002067113295197487, -0.006274641957134008, -0.02791335992515087, 0.04011079668998718, 0.01037954818457365, -0.01178694423288107, 0.010144981555640697, 0.025684982538223267, -0.006333283614367247, 0.004691320937126875, -0.010320906527340412, -0.0022723586298525333, 0.0015540000749751925, 0.0017445849953219295, -0.007036981638520956, 2.9320757676032372e-05, -0.00044530900777317584, 0.0028147927951067686, 0.013487548567354679, -0.012549283914268017, 0.023456605151295662, -0.007916604168713093, -0.024981284514069557, 0.0009455943945795298, -0.01665418967604637, -0.020524529740214348, -0.010144981555640697, -0.00020982667047064751, -0.01571592502295971, 0.0019644906278699636, 0.024277586489915848, 0.006421245634555817, -0.0053656985983252525, -0.0058641512878239155, 0.0012827831087633967, 0.026036832481622696, 0.0017152642831206322, 0.013018416240811348, 0.006040075793862343, 0.0026388680562376976, 0.005570943932980299, -0.0018032265361398458, 0.021580077707767487, -0.0037237361539155245, 0.02287019044160843, -0.006333283614367247, 0.00027488209889270365, -0.006509208120405674, -0.006274641957134008, 0.006391925271600485, -0.007975245825946331, -0.007066302467137575, -0.05465389043092728, -0.020641813054680824, -0.01413260493427515, 0.0029467360582202673, -0.011200529523193836, -0.01735788770020008, 0.014367170631885529, -0.009617208503186703, -0.0282652098685503, -0.006333283614367247, -0.0054536606185138226, -0.0033572267275303602, -0.004222189076244831, 0.005688226781785488, -0.006949019618332386, -0.008737585507333279, -0.016419624909758568, -0.020524529740214348, -0.0011728302342817187, 0.005336377769708633, 0.012490642257034779, 0.009617208503186703, -0.006479887291789055, 0.00741815147921443, 0.016888756304979324, 0.026857813820242882, 0.003327905898913741, 0.012138793244957924, -0.0122560765594244, -0.0187652837485075, 0.053011927753686905, -0.01770973764359951, 0.010438189841806889, 0.006978339981287718, 0.026388680562376976, -0.011552378535270691, 0.015598642639815807, -0.010438189841806889, -0.017475171014666557, 0.011141887865960598, -0.017592454329133034, 0.009030792862176895, -0.01735788770020008, 0.01571592502295971, -0.030728153884410858, -0.021931925788521767, -0.018999850377440453, -0.011845585890114307, -0.016536906361579895, 0.011669660918414593, 0.009148076176643372, -0.006538528949022293, 0.002580226631835103, -0.004456755239516497, 0.0029027550481259823, 0.012314718216657639, -0.02627139911055565, -0.009441283531486988, -0.0015173491556197405, 0.02181464247405529, -0.008268453180789948, 0.009324001148343086, 0.005805510096251965, 0.007447472307831049, 0.028030643239617348, -0.01178694423288107, 0.016888756304979324, -0.022401059046387672, -0.011376453563570976, 0.022401059046387672, 0.008151170797646046, 0.0032399436458945274, 0.001612641615793109, 0.030728153884410858, -0.006978339981287718, -0.033542945981025696, 0.012490642257034779, -9.437618427909911e-05, 0.0024043021257966757, -0.0415181927382946, 0.005629585590213537, -0.02591954916715622, 0.004016943741589785, -0.013428906910121441, 0.0071542649529874325, 0.025098567828536034, 0.020524529740214348, -0.019586265087127686, 0.030728153884410858, -0.010965962894260883, 0.0005460990942083299, 0.01982083171606064, -0.013018416240811348, 0.0028880946338176727, 0.011376453563570976, 0.00012919458094984293, 0.024277586489915848, -0.003709075739607215, 0.04456755146384239, -0.008444378152489662, -0.013428906910121441, 0.003899660659953952, 0.03823426738381386, 0.011904227547347546, -0.010965962894260883, -0.013898039236664772, 0.04878973960876465, -0.02556770108640194, 0.008561661466956139, 0.01630234159529209, 0.025333134457468987, -0.001722594490274787, -0.009030792862176895, -0.006479887291789055, -0.04269102215766907, 0.001612641615793109, 0.018530718982219696, -0.006978339981287718, 0.023925738409161568, -0.034950342029333115, 0.004016943741589785, -0.025333134457468987, 0.017944304272532463, 0.02521585114300251, -0.018648002296686172, -0.0170060396194458, 0.005512302275747061, 0.015950491651892662, 0.03635773807764053, -0.01295977458357811, -0.0008649623487144709, 0.01841343566775322, -0.0007696698885411024, -0.005336377769708633, 0.011141887865960598, 0.009793132543563843, 0.03987623006105423, -0.016771472990512848, -0.021345511078834534, 0.02357388846576214, -0.015012227930128574, 0.005395019426941872, -0.0170060396194458, 0.010496831499040127, -0.011259171180427074, -0.005717547610402107, -0.04057992622256279, -0.04644408077001572, 0.020524529740214348, -0.03377751260995865, 0.0008649623487144709, 0.005189774092286825, -0.003782377578318119, -0.011728302575647831, -0.015364076942205429, 0.0028147927951067686, 0.005629585590213537, -0.0005607595085166395, 0.06474023312330246, -0.01606777496635914, -0.0022283776197582483, 0.0043981135822832584, 0.007095623295754194, 0.0018032265361398458, -0.011904227547347546, 0.0207590963691473, 0.007799321319907904, 0.005658905953168869, 0.01055547222495079, -0.012197434902191162, -0.03565404191613197, -0.022401059046387672, 0.007799321319907904, -0.0010921981884166598, 0.0031226605642586946, -0.013018416240811348, -0.018178869038820267, -0.014425812289118767, 0.014425812289118767, 0.023456605151295662, 0.02040724642574787, 0.015598642639815807, -0.008561661466956139, -0.014308529905974865, 0.02322204038500786, -0.010965962894260883, -0.0076820384711027145, -0.0008393066818825901, 0.03213554993271828, -0.03166641667485237, -0.022049209102988243, 0.045505814254283905, 0.043394722044467926, -0.027444228529930115, 0.020993662998080254, 0.01571592502295971, -0.026857813820242882, -0.004075585398823023, -0.001979151042178273, -0.0018105567432940006, -0.023691171780228615, -0.038703400641679764, 0.002873434219509363, 0.02486400119960308, 0.021931925788521767, -0.008854868821799755, -0.004016943741589785, -0.013780755922198296, -0.0009602548088878393, -0.018648002296686172, -0.007476793136447668, -0.007271547801792622, 0.009675850160419941, -0.011845585890114307, 0.003181302221491933, -0.008268453180789948, -0.004163547419011593, -0.00733018945902586, 0.006450566463172436, 0.0076820384711027145, -0.04316015541553497, -0.008385736495256424, 0.03166641667485237, 0.029555322602391243, 0.0029467360582202673, -0.002550905803218484, 0.010027699172496796, -0.030728153884410858, -0.013898039236664772, 0.0014000661903992295, 0.004310151096433401, -0.012549283914268017, -0.0017299246974289417, 0.004662000574171543, 0.008444378152489662, 0.0013780755689367652, 0.01735788770020008, 0.014073963277041912, 0.010144981555640697, 0.010086340829730034, 0.022401059046387672, -0.04292558878660202, -0.01630234159529209, -0.013780755922198296, 0.013780755922198296, 0.022635623812675476, -0.020641813054680824, 0.030259020626544952, 0.03143185004591942, -0.006186679936945438, 0.04292558878660202, 0.03213554993271828, 0.005952113773673773, -0.0525427982211113, -0.03166641667485237, 0.011669660918414593, 0.013428906910121441, 0.014719019643962383, 0.038703400641679764, 0.03682687133550644, -0.009675850160419941, 0.005717547610402107, 0.012549283914268017, -0.027444228529930115, -0.007183585315942764, -0.014719019643962383, 0.016888756304979324, -0.020289963111281395, -0.026388680562376976, -0.002096434123814106, -0.026975097134709358, -0.017123322933912277, 0.00032802598434500396, -0.0122560765594244, 0.014543095603585243, 0.013839397579431534, -0.0019205096177756786, -0.0028147927951067686, 0.006890377961099148, -0.026154115796089172, -0.0006890377844683826, -0.008737585507333279, 0.027092380449175835, -0.034950342029333115, 