{"UUID": "d12b079f-bcd7-4bc1-a316-4dd3595709d0", "BM25": {"terms": ["a", "protective", "role", "of", "src-1", "against", "aging", "associated", "cognitive", "decline", "submit", "an", "article", "online", "issn", "1945-4589", "home", "archive", "volume", "17", "issue", "8", "navigate", "editorial", "board", "policies", "advance", "publications", "current", "special", "collections", "scientific", "integrity", "publication", "ethics", "statements", "interviews", "with", "outstanding", "authors", "newsroom", "sponsored", "conferences", "contact", "rapamycin", "press", "llc", "is", "the", "publisher", "www", "impactjournals", "com", "impact", "journals", "member", "wellcome", "trust", "list", "compliant", "publishers", "society", "for", "scholarly", "publishing", "learn", "about", "our", "free", "post-publication", "promotion", "services", "hesong", "liu", "1", "yongjie", "yang", "jonathan", "c", "bean", "he", "hailan", "rambabu", "majji", "2", "chen", "liang", "nan", "zhang", "meng", "yu", "longlong", "tu", "qingzhuo", "yue", "deng", "kristine", "m", "conde", "na", "yin", "mengjie", "wang", "yongxiang", "li", "junying", "han", "sanika", "vattakuzhiyil", "jossy", "megan", "elyse", "burt", "hari", "krishna", "yalamanchili", "chunmei", "usda", "ars", "children", "s", "nutrition", "research", "center", "department", "pediatrics", "baylor", "college", "medicine", "one", "plaza", "houston", "tx", "77030", "usa", "jan", "and", "dan", "duncan", "neurological", "institute", "texas", "hospital", "equal", "contribution"], "weights": [0.2523241589063984, 6.195015655081204, 2.9748650142273414, 0.12587831190782697, 7.77785924977654, 5.756594757114859, 3.450353926509908, 2.6066944859917838, 0.704181581724588, 2.6998419315083684, 3.681643896886308, 1.1229939560465703, 1.7266100558298025, 3.3909024427410537, 4.428539423436831, 8.274394417897549, 4.488785377121276, 6.911156758186526, 3.1892849051516166, 2.3801703620411514, 5.850377099700904, 1.8814083560731338, 6.362816651517516, 4.932744047810996, 3.5877875754455775, 4.347590305807269, 4.653336087294201, 3.7493003724333205, 2.538453924707238, 5.027209261979588, 4.913602707094021, 3.8311024677522534, 3.7234084868774127, 2.949577203252414, 3.6258661839558033, 5.121421589432266, 4.787150531696867, 0.3432065295995665, 6.478004308204181, 2.3548539096793166, 6.362816651517516, 6.478004308204181, 5.424845348694039, 3.101509165687808, 6.928829052804269, 3.9199244305120997, 7.1366479351425145, 1.4598195261729692, 0.1991458789912092, 3.551059560481618, 3.5017349299664207, 8.274394417897549, 3.6981481741287356, 3.0932114908897073, 4.830740236725469, 6.803946444568445, 7.3969145549423345, 5.516961275676668, 4.395396707751399, 7.1366479351425145, 7.3969145549423345, 4.087323686007448, 0.30418822925653105, 6.607625947371468, 3.5729397013495348, 4.516356538109537, 2.450041092690544, 2.200911791989048, 4.445517204955955, 8.274394417897549, 4.913602707094021, 3.467888078311327, 7.745372430126503, 4.85264713303217, 2.1421163231484734, 8.274394417897549, 4.777957815679725, 7.745372430126503, 1.6073205357932263, 7.1366479351425145, 4.017085148507299, 7.745372430126503, 8.274394417897549, 7.745372430126503, 1.532981619506868, 3.0034416597838445, 4.534850270244896, 7.3969145549423345, 2.8422820656526184, 5.566285906191866, 3.8406036488761166, 8.274394417897549, 6.0786039596004215, 8.274394417897549, 6.0786039596004215, 5.618077771890821, 7.745372430126503, 1.4025187611346486, 7.1366479351425145, 4.553680270417486, 4.71808351183133, 8.274394417897549, 3.6686915210858917, 8.274394417897549, 2.6808218352811872, 8.274394417897549, 4.087323686007448, 8.274394417897549, 8.274394417897549, 8.274394417897549, 7.1366479351425145, 8.274394417897549, 7.745372430126503, 7.745372430126503, 7.745372430126503, 7.3969145549423345, 7.745372430126503, 7.3969145549423345, 6.478004308204181, 7.495742051241583, 0.7816572838690956, 4.9408574768453875, 1.5523441913868266, 3.5225870735836846, 3.8598715810065856, 5.618077771890821, 9.79860131354557, 4.332132981861401, 2.6715197834140185, 2.330141595556293, 7.3969145549423345, 11.701470969209579, 10.460557782834618, 11.701470969209579, 5.81487102947615, 4.997618063761619, 0.06730555619699204, 4.612316013135708, 6.164955744734622, 3.1156314955995557, 3.220278384662274, 6.755824254645855, 3.422287313593694, 5.730146084416254, 4.087323686007448], "k1": 1.5, "b": 0.75, "avgdl": 233.87661016949153, "N": 4425}, "SpladeV3": {"model_id": "naver/splade-v3", "tokens": ["impact", "sr", "baylor", "liu", "aging", "decline", "journals", "usd", "##long", "ars", "protective", "roles", "journal", "yong", "##c", "issn", "pediatric", "cognitive", "##amy", "associated", "integrity", "protect", "##com", "hail", "##cin", "role", "declining", "bean", "submit", "against", "yang", "duncan", "conde", "age", "publisher", "research", "zhang", "ethics", "qing", "nutrition", "maj", "##jou", "neurological", "children", "texas", "1", "rap", "llc", "promotion", "houston", "he", "nan", "770", "cognition", "alzheimer", "##bu", "publishing", "well", "ram", "##son", "editorial", "scholarly", "##1", "##ika", "##zh", "kristin", "burt", "longer", "##uo", "##lam", "published", "elderly", "##xia", "protection", "##an", "##yi", "scientific", "chun", "plaza", "krishna", "researcher", "press", "submitted", "##ba", "china", "affect", "college", "meng", "archives", "institute", "chen", "online", "beans", "child", "archive", "1945", "article", "conferences", "nutritional", "societies", "clinic", "hospital", "authors", "brain", "issue", "san", "##rna", "wang", "cas", "publishers", "hari", "post", "yue", "magazine", "medicine", "liang", "department", "##chi", "jonathan", "statements", "##ji", "associate", "advance", "institutes", "hospitals", "publication", "outstanding", "##ls", "anti", "trust", "articles", "##mei", "member", "yu", "##uro", "##tta", "author", "volumes", "##ying", "navigate", "society", "prevent", "ne", "contribution", "usa", "ethical", "dementia", "##zhi", "website", "promoted", "ya", "isbn", "chinese", "deng", "publications", "services", "han", "scholarship", "sponsored", "colleges", "current", "li", "failure", "yin", "##li", "board", "syndrome", "contributions", "jun", "##sc", "interviews", "reduce", "protector", "##room", "vaccine", "sas", "policies", "www", "aa", "conference", "tx", "strategy", "megan", "senior", "volume", "researchers", "sponsorship", "contact", "med", "disease", "mentally", "ely", "##g", "brains", "wells", "statement", "intelligence", "deterioration", "center", "jan", "safety", "mental", "nerve", "manchu", "news", "todd", "home", "presses", "newspaper", "service", "date", "psychology", "committee", "association", "##bei", "dan", "neuroscience", "reddy", "company", "council", "number", "patient", "fighting", "pmid", "vietnamese", "bao", "comply", "cancer", "jo", "combat", "declined", "academic", "##itia", "fda", "japan", "citation", "protecting", "centers", "peng", "mongolia", "prevention", "older", "health", "korea", "related", "contacts", "declines", "promotions", "##a", "sd", "ic", "contributors", "slowly", "yi", "##hua", "psychiatrist", "-", "##hma", "impacted", "special", "issues", "equal", "departments", "free", "boards", "of", "virus", "##ng", "editors", "scientist", "papers", "44", "magazines", "citing", "aged", "trusts", "##ku", "novel", "assessment", "doctors", "zhu", "icc", "s", "depression", "memory", "university", "17", "scar", "45", "printing", "site", "ibm", "blog", "va", "sa", "##ra", "1944", "india", "gene", "##e", "expressed", "members", "psychological", "resistance", "##jia", "manuscript", "mongolian", "professor", "kids", "agency", "sc"], "weights": [2.575552225112915, 2.508789300918579, 2.308656692504883, 2.1688802242279053, 2.0794668197631836, 2.0789620876312256, 2.056157112121582, 1.9305949211120605, 1.8959885835647583, 1.8844720125198364, 1.8475978374481201, 1.8458497524261475, 1.8408640623092651, 1.8274426460266113, 1.8166812658309937, 1.802809238433838, 1.7605594396591187, 1.7520694732666016, 1.724029302597046, 1.7053649425506592, 1.7028651237487793, 1.6916048526763916, 1.6654608249664307, 1.6649143695831299, 1.6605706214904785, 1.6586966514587402, 1.6325637102127075, 1.6235767602920532, 1.6116716861724854, 1.6052356958389282, 1.5829782485961914, 1.5762966871261597, 1.5733457803726196, 1.5642980337142944, 1.534859299659729, 1.4937974214553833, 1.493391513824463, 1.4871141910552979, 1.486359715461731, 1.4535222053527832, 1.4527556896209717, 1.4520797729492188, 1.4342215061187744, 1.42603600025177, 1.4222183227539062, 1.4157748222351074, 1.4077526330947876, 1.403243899345398, 1.4019793272018433, 1.3875526189804077, 1.385580062866211, 1.3825570344924927, 1.354888916015625, 1.3526326417922974, 1.3512072563171387, 1.3483678102493286, 1.3466144800186157, 1.3430472612380981, 1.3377524614334106, 1.3284732103347778, 1.3242390155792236, 1.315924882888794, 1.2901687622070312, 1.2745144367218018, 1.2588458061218262, 1.2443896532058716, 1.238328218460083, 1.2277936935424805, 1.2063469886779785, 1.2042409181594849, 1.2024750709533691, 1.1915557384490967, 1.189562439918518, 1.1849191188812256, 1.1841628551483154, 1.1807780265808105, 1.177651286125183, 1.173973798751831, 1.165796160697937, 1.16502845287323, 1.1599000692367554, 1.1380349397659302, 1.1344064474105835, 1.1255414485931396, 1.1096491813659668, 1.1051440238952637, 1.0984920263290405, 1.096645712852478, 1.0953834056854248, 1.09010648727417, 1.085299015045166, 1.084840178489685, 1.07853364944458, 1.0640686750411987, 1.0549862384796143, 1.0501735210418701, 1.0471489429473877, 1.0393192768096924, 1.0386462211608887, 1.0383167266845703, 1.0290544033050537, 1.0271399021148682, 1.0246310234069824, 1.0201632976531982, 1.018620252609253, 1.017850399017334, 1.0129680633544922, 1.0058305263519287, 1.0025042295455933, 0.9943032264709473, 0.9891304969787598, 0.9890188574790955, 0.98724365234375, 0.984070897102356, 0.9795227646827698, 0.9789409637451172, 0.9733771085739136, 0.9732129573822021, 0.9596385955810547, 0.9560195207595825, 0.9400454759597778, 0.9390088319778442, 0.9302763342857361, 0.9137399196624756, 0.9128108024597168, 0.8937340974807739, 0.8839288949966431, 0.8831073045730591, 0.8761533498764038, 0.8732162714004517, 0.8722602725028992, 0.8687282204627991, 0.8655422925949097, 0.8655300140380859, 0.8647993803024292, 0.8625456094741821, 0.8562039732933044, 0.8495604991912842, 0.8489264845848083, 0.8395681381225586, 0.833368182182312, 0.8274238109588623, 0.8235020637512207, 0.8229972720146179, 0.8181344866752625, 0.8180082440376282, 0.8159348964691162, 0.8150375485420227, 0.799310028553009, 0.795968234539032, 0.7634612321853638, 0.7633599042892456, 0.7595776319503784, 0.754339337348938, 0.7447373867034912, 0.7361067533493042, 0.7280101776123047, 0.6989889144897461, 0.6985492706298828, 0.6975750923156738, 0.6805323958396912, 0.6776452660560608, 0.6741201281547546, 0.6723785996437073, 0.6708583235740662, 0.6704726815223694, 0.6594639420509338, 0.658793568611145, 0.6423248648643494, 0.6310988068580627, 0.6255080699920654, 0.6223071813583374, 0.6213879585266113, 0.611096978187561, 0.6094829440116882, 0.6088805198669434, 0.6040441989898682, 0.5912030935287476, 0.590329647064209, 0.5834937691688538, 0.5807837843894958, 0.5792214274406433, 0.5754583477973938, 0.567223310470581, 0.5666111707687378, 0.5640791654586792, 0.5586651563644409, 0.5539460182189941, 0.5504593849182129, 0.5267561674118042, 0.5248861908912659, 0.5219987630844116, 0.511155903339386, 0.5108656883239746, 0.5076385736465454, 0.5069973468780518, 0.5051716566085815, 0.5041322112083435, 0.5013872981071472, 0.4999837875366211, 0.49788182973861694, 0.4896220564842224, 0.48726800084114075, 0.4803735315799713, 0.477148175239563, 0.47540247440338135, 0.46927887201309204, 0.4674445390701294, 0.46575063467025757, 0.4633079171180725, 0.4489520788192749, 0.4403834342956543, 0.43637359142303467, 0.4214929938316345, 0.4160340130329132, 0.4138610363006592, 0.39676550030708313, 0.38045135140419006, 0.380376398563385, 0.38023653626441956, 0.37910446524620056, 0.3740096092224121, 0.3543582260608673, 0.34554365277290344, 0.34454822540283203, 0.3299209177494049, 0.3297390043735504, 0.3277607560157776, 0.32769903540611267, 0.3243641257286072, 0.3232904076576233, 0.3227362334728241, 0.32012245059013367, 0.31978124380111694, 0.3149663209915161, 0.3082805275917053, 0.30013787746429443, 0.2970188558101654, 0.2960129678249359, 0.2855883836746216, 0.2835144102573395, 0.2801550626754761, 0.2622309923171997, 0.2616357207298279, 0.2602686882019043, 0.260087788105011, 0.25509217381477356, 0.24274277687072754, 0.23822946846485138, 0.2365603893995285, 0.22850506007671356, 0.22375379502773285, 0.22351351380348206, 0.22238703072071075, 0.21808522939682007, 0.21725687384605408, 0.21718789637088776, 0.21360531449317932, 0.2105364352464676, 0.2058398574590683, 0.20415504276752472, 0.2030537724494934, 0.20109882950782776, 0.19393295049667358, 0.18609657883644104, 0.1855052262544632, 0.18012967705726624, 0.1458839327096939, 0.13180072605609894, 0.1302182674407959, 0.12595801055431366, 0.1204255223274231, 0.11765976995229721, 0.11570265889167786, 0.11554688960313797, 0.11410120129585266, 0.1082870364189148, 0.1061863899230957, 0.1035129576921463, 0.10326708108186722, 0.1032666563987732, 0.1019665002822876, 0.10021968930959702, 0.09791745245456696, 0.09467364102602005, 0.09071345627307892, 0.08018290251493454, 0.07749902456998825, 0.07584250718355179, 0.07177876681089401, 0.07052823156118393, 0.06897752732038498, 0.06695490330457687, 0.06651648133993149, 0.06592287123203278, 0.06329242140054703, 0.06065131723880768, 0.055146265774965286, 0.05361383780837059, 0.05136201158165932, 0.04839586839079857, 0.035717230290174484, 0.03039493039250374, 0.028943317010998726, 0.021033329889178276, 0.02067047357559204, 0.015831345692276955, 0.013692990876734257, 0.011370661668479443, 0.00618240749463439, 0.004505660850554705]}, "Qwen3-4B": {"model_id": "Qwen/Qwen3-Embedding-4B", "vector": [-0.00041432841680943966, 0.06676606088876724, -0.03456682711839676, 0.0014723455533385277, -0.001923667616210878, 0.052087001502513885, -0.02935812808573246, 0.03219923749566078, -0.007694670464843512, 0.01787531189620495, 0.019651005044579506, 0.031725719571113586, 0.008227378129959106, -0.04853561520576477, -0.05090320482850075, 0.014560684561729431, 0.0352771058678627, -0.028174331411719322, 0.003077868139371276, -0.0020420472137629986, -0.0011911941692233086, 0.027937572449445724, 0.007990619167685509, 0.005445458926260471, -0.048062097281217575, -0.013080939650535583, -0.020242901518940926, -0.028884608298540115, 0.019059106707572937, 0.008700896985828876, 0.03361979126930237, -0.06723958253860474, 0.03764469549059868, -0.010772538371384144, 0.00035883800592273474, -0.01976938359439373, 0.012548231519758701, -0.0007435714942403138, 0.005356674548238516, 0.07008069008588791, -0.002678337274119258, 0.04664153978228569, -0.008168188855051994, 0.00864170677959919, -0.01976938359439373, 0.01574447937309742, 0.015626100823283195, -0.04664153978228569, 0.001723902183584869, 0.007813050411641598, 0.011660384945571423, 0.005031130742281675, -0.023675909265875816, -0.0021604266948997974, -0.031015440821647644, 0.042143117636442184, 0.0029298937879502773, 0.0016721111023798585, -0.013672837987542152, 0.0012355864746496081, 0.0004161780816502869, 0.014027976430952549, 0.006481280084699392, 0.002559957792982459, -0.006688444409519434, -0.02592512033879757, 0.016217997297644615, -0.021071558818221092, -0.002959488658234477, -0.004232068546116352, -0.014264735393226147, 0.026990536600351334, 0.008404947817325592, -0.026398638263344765, -0.04048580303788185, -0.013258509337902069, -0.005771002732217312, -0.011068487539887428, -0.006274115759879351, 0.0031074630096554756, -0.012784991413354874, 0.0012281878152862191, 0.0011615992989391088, 0.08191864937543869, -0.013080939650535583, 0.010535779409110546, -0.020834799855947495, 0.010417399927973747, 0.024149427190423012, -0.0035069941077381372, 0.01467906404286623, -0.007576290983706713, 0.004705586936324835, -0.006185331381857395, -0.008523327298462391, -0.01633637771010399, -0.01692827418446541, -0.0049423458985984325, -0.0031222605612128973, 0.0015463328454643488, -0.016809895634651184, -0.004883156158030033, 0.04545774683356285, 0.03717117756605148, -0.0006066951900720596, -0.013080939650535583, 0.005652623251080513, -0.012903370894491673, -0.004350448492914438, -0.008937655948102474, 0.0037733479402959347, -0.006392495706677437, 0.003640171140432358, 0.02628025971353054, -0.021071558818221092, -0.005297484807670116, 0.011956334114074707, -0.03314627334475517, -0.0025303626898676157, -0.039065249264240265, 0.00013132730964571238, 0.021071558818221092, 0.012962560169398785, -0.010594969615340233, -0.0004550213925540447, 0.027582434937357903, -0.018348829820752144, 0.001982857473194599, 0.015270961448550224, -0.0033738170750439167, 0.012133903801441193, -0.019295865669846535, -0.02722729556262493, -0.0053270794451236725, -0.01420554518699646, 0.026753777638077736, 0.019651005044579506, 0.01006226148456335, -0.011127677746117115, 0.005267889704555273, -0.005267889704555273, -0.006836418993771076, 0.023675909265875816, -0.030186783522367477, 0.012252283282577991, -0.00020346484961919487, 0.0014649468939751387, 0.02628025971353054, 0.0021456293761730194, -0.005297484807670116, 0.028055952861905098, 0.017993690446019173, -0.012962560169398785, 0.013080939650535583, -0.004409638233482838, -0.0032110451720654964, 0.011837954632937908, 0.017046654596924782, 0.010239831171929836, 0.012548231519758701, 0.019651005044579506, 0.014915823005139828, -0.013495268300175667, -0.03054192289710045, -0.002974285976961255, 0.026161879301071167, 0.005119915585964918, 0.010535779409110546, -0.0067772287875413895, -0.008878465741872787, -0.0004439232870936394, 0.00034034118289127946, -0.007280342280864716, -0.019059106707572937, 0.001058017136529088, -0.01237066276371479, -0.005682218354195356, -0.01917748712003231, -0.014323924668133259, 0.019059106707572937, -0.013021750375628471, -0.003847335232421756, 0.05185024067759514, 0.005001535639166832, 0.010299020446836948, -0.000961833808105439, -0.0029446911066770554, -0.0032850324641913176, 0.008523327298462391, -0.0035809811670333147, 0.003640171140432358, 0.007250747177749872, 0.012193093076348305, 3.884328907588497e-05, -0.0029298937879502773, 0.0009766313014551997, 0.013199319131672382, 0.016573136672377586, -0.028529470786452293, 0.0016499148914590478, -0.004350448492914438, -0.004202473908662796, -0.003433006815612316, 0.007694670464843512, 0.014087165705859661, 0.01763855293393135, -0.001731300842948258, -0.009529553353786469, 0.021071558818221092, -0.014383114874362946, -0.013021750375628471, -0.0201245229691267, 0.0027819194365292788, -0.058242738246917725, 0.0021604266948997974, 0.01858558878302574, -0.003817740362137556, -0.011423625983297825, 0.010713349096477032, 0.004587207455188036, -0.010417399927973747, -0.01083172857761383, -0.005415864288806915, 0.024504566565155983, 0.004646397195756435, -0.0009026440093293786, 0.009470364078879356, 0.010417399927973747, -0.006481280084699392, 0.013258509337902069, -0.004232068546116352, 0.010417399927973747, 0.003447804367169738, -0.023675909265875816, 0.015389340929687023, -0.019532624632120132, -0.024149427190423012, -0.0023527934681624174, -0.011482816189527512, 0.003906525205820799, -0.03361979126930237, -0.018348829820752144, -0.006007762160152197, 0.0029890835285186768, -0.013554457575082779, -0.012193093076348305, 0.026753777638077736, -0.010239831171929836, -0.004084094427525997, -0.005652623251080513, -0.005415864288806915, -0.005652623251080513, 0.001923667616210878, 0.014027976430952549, 0.023084010928869247, -0.00941117387264967, -0.013317698612809181, -0.03622414171695709, 0.0023527934681624174, 0.06250440329313278, -0.014797443524003029, -0.02687215618789196, 0.01237066276371479, -0.006244521122425795, -0.018348829820752144, -0.008049809373915195, -0.040959324687719345, -0.005741408094763756, 0.0016055225860327482, -0.017756931483745575, 0.04735181853175163, -0.014383114874362946, 0.022610493004322052, 0.015389340929687023, -0.030068404972553253, 0.02379428781569004, 0.01189714390784502, -0.015862859785556793, 0.018112070858478546, 0.018940728157758713, -0.025451602414250374, 0.021545076742768288, 0.029239747673273087, 0.025096463039517403, -0.026635397225618362, -0.021071558818221092, -0.029239747673273087, -0.011305246502161026, -0.005593433510512114, 0.007694670464843512, 0.016573136672377586, -0.009115224704146385, -0.003847335232421756, -0.020953180268406868, 0.03148895874619484, -0.006510875187814236, -0.01633637771010399, -0.0034921965561807156, 0.024031048640608788, 0.012548231519758701, -0.003433006815612316, 0.011423625983297825, -0.0020420472137629986, 0.02320239134132862, 0.008819276466965675, -0.02474132552742958, -0.004291258752346039, -0.009766312316060066, 0.04853561520576477, -0.005238295067101717, 0.0024563756305724382, 0.02190021611750126, 0.0029002989176660776, 0.006925203371793032, -0.04474746808409691, -0.03551386296749115, 0.001442750683054328, 0.00941117387264967, -0.023675909265875816, -0.027108915150165558, 0.01083172857761383, -0.01917748712003231, 0.0357506237924099, -0.018112070858478546, 0.016573136672377586, 0.004202473908662796, 0.009647932834923267, -0.0019384650513529778, 0.014323924668133259, 0.0037733479402959347, 0.04948265105485916, 0.008819276466965675, -0.016809895634651184, -0.00941117387264967, -0.0033886143937706947, 0.01248904224485159, -0.0070139882154762745, 0.004084094427525997, 0.040012285113334656, -0.0032110451720654964, -0.019414246082305908, 0.0025895526632666588, 0.007517101243138313, -0.015507720410823822, -0.01823044940829277, -0.012725801207125187, 0.04853561520576477, 0.00040138064650818706, -0.04782533645629883, -0.011364436708390713, 0.025096463039517403, -0.002219616435468197, -0.04853561520576477, 0.0070139882154762745, -0.024504566565155983, 0.015389340929687023, 0.028292711824178696, -0.014087165705859661, -0.015507720410823822, -0.04687830060720444, -0.0002349094138480723, -0.00941117387264967, 0.030778681859374046, 0.011660384945571423, -0.02320239134132862, -0.011542005464434624, -0.008049809373915195, 0.009233604185283184, 0.04664153978228569, -0.012193093076348305, -0.028292711824178696, 0.0201245229691267, 0.001538934069685638, -0.019651005044579506, -0.03669765964150429, 0.019887764006853104, 0.024859704077243805, -0.013968786224722862, -0.02130831778049469, -0.0006399894482456148, -0.013554457575082779, 0.005060725379735231, -0.024504566565155983, 0.006422090344130993, 0.0008545523742213845, -0.003166652750223875, 0.0046759918332099915, -0.02190021611750126, -0.024149427190423012, 0.005711812991648912, -0.009647932834923267, 0.011542005464434624, 0.014738253317773342, -0.03764469549059868, -0.01095010805875063, -0.04048580303788185, 0.003536588978022337, 0.012429852038621902, 0.039065249264240265, -0.015626100823283195, 0.03243599459528923, -0.011009297333657742, 0.006540469825267792, 0.01728341355919838, -0.020953180268406868, -0.02190021611750126, -0.014442304149270058, 0.01787531189620495, 0.010594969615340233, -0.010594969615340233, -0.007191557437181473, 0.002870704047381878, 0.013258509337902069, -0.03622414171695709, -0.022018594667315483, -0.021781835705041885, 0.012725801207125187, -0.016454756259918213, 0.008227378129959106, 0.009056035429239273, -0.0006103945197537541, 0.005859787575900555, -0.008996845223009586, -0.004202473908662796, -0.008345757611095905, -0.0203612819314003, 0.029239747673273087, -0.018940728157758713, 0.02592512033879757, -0.049245890229940414, -0.007576290983706713, 0.017165035009384155, 0.029239747673273087, 0.001324371201917529, 0.02497808448970318, 0.012548231519758701, -0.006214926019310951, -0.022965632379055023, 0.015981238335371017, -0.029121369123458862, 0.015981238335371017, -0.009470364078879356, 0.014442304149270058, 0.037881456315517426, -0.009351983666419983, -0.009588743560016155, -0.006570064928382635, 0.024267807602882385, 0.021426698192954063, -0.019532624632120132, -0.00710277259349823, -0.008227378129959106, 0.007221152074635029, 0.00043652456952258945, -0.009115224704146385, 0.011482816189527512, 0.009529553353786469, 0.023557528853416443, -0.02343915030360222, -0.004084094427525997, -0.030068404972553253, 0.0029002989176660776, 0.0352771058678627, 0.017756931483745575, -0.03669765964150429, 0.002500767819583416, -0.0074283163994550705, -0.01390959694981575, 0.04380043223500252, 0.007931429892778397, 0.009233604185283184, 0.005267889704555273, 0.020479662343859673, -0.0027079321444034576, -0.02995002456009388, 0.019414246082305908, -0.040012285113334656, 0.015862859785556793, 0.021071558818221092, 0.019059106707572937, 0.01237066276371479, -0.017046654596924782, -0.002293603727594018, 0.002974285976961255, -0.015626100823283195, 0.03030516393482685, -0.017993690446019173, 0.01083172857761383, 0.042143117636442184, -0.006096546538174152, 0.005356674548238516, 0.0357506237924099, -0.004084094427525997, -0.018940728157758713, -0.009351983666419983, 0.021426698192954063, 0.01976938359439373, -0.022136975079774857, 0.015270961448550224, 0.020006142556667328, 0.009529553353786469, -0.012074713595211506, -0.019059106707572937, -0.013850406743586063, -0.01237066276371479, -0.053270794451236725, 0.04948265105485916, 0.027108915150165558, 0.01976938359439373, -0.01858558878302574, 0.035987380892038345, 0.0004198774404358119, -0.007813050411641598, -0.019532624632120132, 0.004764776676893234, 0.021781835705041885, 0.002885501366108656, 0.010299020446836948, -0.007250747177749872, -0.05895301327109337, 0.021426698192954063, -0.011423625983297825, 0.001812686794437468, -0.041906360536813736, 0.018112070858478546, 0.01467906404286623, -0.02628025971353054, 0.005031130742281675, 0.006066951900720596, 0.0033738170750439167, 0.002308401046320796, 0.01237066276371479, 0.022965632379055023, -0.020598040893673897, 0.01095010805875063, 0.0011172069935128093, 0.022136975079774857, 0.013613647781312466, 0.043090153485536575, 0.004468827974051237, -0.0008360555511899292, 0.03953876718878746, 0.0032998297829180956, 0.017401793971657753, 0.041196081787347794, 0.020242901518940926, -0.000817558728158474, 0.007635480724275112, -0.01160119567066431, 2.9594886655104347e-05, -0.019651005044579506, -0.048298854380846024, 0.008878465741872787, 0.004350448492914438, 0.01823044940829277, -0.0059781670570373535, -0.04380043223500252, 0.005386269185692072, -0.020598040893673897, -0.03622414171695709, -0.03054192289710045, -0.0357506237924099, -0.012607421725988388, 0.00025155654293484986, 0.004291258752346039, -0.017520172521471977, 0.008227378129959106, 0.036934416741132736, -0.008464137092232704, -0.014856632798910141, -0.01858558878302574, -0.015270961448550224, 0.01787531189620495, -0.006658849306404591, 0.04451071098446846, -0.03361979126930237, 0.0023379959166049957, 0.020006142556667328, -0.008464137092232704, -0.0014575481181964278, -0.008996845223009586, 0.024267807602882385, 0.00748750614002347, -0.04474746808409691, 0.02343915030360222, 0.023084010928869247, -0.01189714390784502, -0.0001405757066095248, 0.009825502522289753, -0.03030516393482685, -0.008996845223009586, -0.004054499324411154, -0.022492114454507828, 0.0016055225860327482, -0.0030186783988028765, -0.016217997297644615, -0.005800597835332155, -0.008345757611095905, 0.00941117387264967, -0.01858558878302574, 0.018467208370566368, -0.019532624632120132, 0.014738253317773342, 0.002678337274119258, 0.01420554518699646, 0.03433007001876831, 0.021071558818221092, 0.03054192289710045, 0.019414246082305908, -0.018703967332839966, 0.011009297333657742, -0.014383114874362946, 0.006066951900720596, -0.012074713595211506, 0.001908870181068778, -0.031962476670742035, -0.03551386296749115, -0.017520172521471977, -0.029831646010279655, 0.006599659565836191, -0.004232068546116352, 0.03646089881658554, 0.004764776676893234, -0.0203612819314003, -0.017520172521471977, -0.018348829820752144, -0.02284725196659565, -0.008108998648822308, 0.018112070858478546, 0.03361979126930237, -0.012133903801441193, 0.01189714390784502, 0.00633330550044775, 0.003447804367169738, 0.004172878805547953, -0.007576290983706713, -0.03054192289710045, -0.00671803904697299, 0.0006917804712429643, -0.023320769891142845, 0.012133903801441193, 0.040012285113334656, 0.03314627334475517, 0.026635397225618362, 0.012548231519758701, -0.004498422611504793, -0.007250747177749872, -0.03551386296749115, -0.002012452343478799, 0.009647932834923267, -0.0203612819314003, -0.019651005044579506, 0.004439232870936394, 0.0201245229691267, 0.004350448492914438, 0.016454756259918213, 0.017401793971657753, -0.011186867021024227, -0.0029002989176660776, 2.820762529154308e-05, 0.006984393112361431, 0.01390959694981575, -0.0005438060616143048, 0.01787531189620495, 0.0070435828529298306, 0.04427395015954971, -0.003033475950360298, -0.018112070858478546, 0.014619873836636543, 0.012429852038621902, -0.0606103278696537, 0.013672837987542152, 0.03622414171695709, 0.01248904224485159, -0.019295865669846535, 0.028174331411719322, 0.004409638233482838, -0.01314012985676527, 0.007073177956044674, 0.01314012985676527, -0.003077868139371276, 0.03361979126930237, 0.018467208370566368, -0.029121369123458862, 0.041196081787347794, 0.0028115143068134785, 0.017756931483745575, 0.022018594667315483, -0.039065249264240265, -0.002012452343478799, -0.012962560169398785, -0.0357506237924099, 0.004320853389799595, 0.01420554518699646, 0.026753777638077736, 0.004113689064979553, -0.025214843451976776, -0.01823044940829277, 0.008345757611095905, -0.03338303044438362, -0.003654968459159136, -0.005238295067101717, 0.002411983208730817, -0.014738253317773342, 0.017756931483745575, 0.012903370894491673, 0.04143284261226654, 0.006392495706677437, 0.007339532021433115, 0.016454756259918213, -0.0019680599216371775, 0.0017534970538690686, -0.017401793971657753, -0.0004106290580239147, -0.000453171698609367, -0.03338303044438362, -0.0059781670570373535, -0.011246057227253914, 0.015093391761183739, 0.014087165705859661, 0.011068487539887428, 0.006096546538174152, -0.00031074631260707974, 0.020598040893673897, -0.02190021611750126, -0.01633637771010399, -0.03669765964150429, 0.010003071278333664, -0.0357506237924099, -0.020598040893673897, -0.0007065779063850641, 0.001050618477165699, -0.015034202486276627, 0.03977552801370621, -0.0016425162320956588, -0.026043500751256943, -0.017165035009384155, -0.02284725196659565, -0.006096546538174152, 0.024149427190423012, -0.015626100823283195, 0.0029446911066770554, -0.011423625983297825, 0.025806741788983345, 0.028055952861905098, -0.009529553353786469, -0.011186867021024227, -0.0126666110008955, 0.04166959971189499, -0.06960717588663101, 0.023084010928869247, 0.018940728157758713, 0.024504566565155983, -0.02900298871099949, -0.026161879301071167, -0.019887764006853104, -0.0011615992989391088, 0.004587207455188036, 0.0022344139870256186, -0.002116034273058176, -0.030778681859374046, -0.018348829820752144, 0.01787531189620495, -0.013199319131672382, 0.004291258752346039, 0.041196081787347794, 0.005356674548238516, -0.019887764006853104, 0.008878465741872787, -0.0032110451720654964, -0.029121369123458862, 0.01882234774529934, 0.03361979126930237, 0.006066951900720596, 0.019414246082305908, -0.011542005464434624, -0.03125220164656639, -0.023084010928869247, 0.011009297333657742, -0.012725801207125187, -0.006392495706677437, 0.004439232870936394, 0.028055952861905098, 0.018348829820752144, -0.009351983666419983, -0.016809895634651184, -0.006274115759879351, -0.010535779409110546, 0.0045280177146196365, -0.014442304149270058, 0.008937655948102474, 0.005859787575900555, -0.002841109177097678, -0.015862859785556793, -0.006185331381857395, 0.010654158890247345, 0.0016869085375219584, 0.031015440821647644, -0.013850406743586063, -0.009588743560016155, 0.003151855431497097, -0.02568836137652397, 0.006007762160152197, 0.0278191938996315, -0.017993690446019173, -0.006510875187814236, 0.008464137092232704, -0.011542005464434624, -0.0017534970538690686, -0.003255437593907118, -0.037881456315517426, -0.01823044940829277, -0.0073987217620015144, 0.03622414171695709, -0.006836418993771076, -0.004291258752346039, 0.015981238335371017, 0.005918977316468954, 0.00941117387264967, 0.003359019523486495, 0.0014945417642593384, 0.01160119567066431, 0.0004994136979803443, 0.02130831778049469, -0.02568836137652397, -0.015981238335371017, 0.003063070820644498, -0.007576290983706713, 0.03148895874619484, 0.028055952861905098, 0.022373734042048454, -0.010594969615340233, 0.025214843451976776, 0.03314627334475517, -0.005593433510512114, 0.011423625983297825, -0.021189939230680466, 0.005475054029375315, 0.04948265105485916, -0.0026339448522776365, -0.06866014003753662, 0.018348829820752144, 0.04356367141008377, -0.002559957792982459, -0.01763855293393135, 0.034803587943315506, 0.039065249264240265, -0.023675909265875816, 0.013791217468678951, 0.03219923749566078, 0.008700896985828876, 0.037881456315517426, -0.0008138593984767795, -0.007931429892778397, 0.010890917852520943, -0.007694670464843512, 0.011482816189527512, -0.013613647781312466, -0.013613647781312466, 0.013554457575082779, 0.02687215618789196, 0.001435352023690939, -0.006688444409519434, -0.0357506237924099, 0.008700896985828876, -0.015270961448550224, 0.014560684561729431, 0.017401793971657753, 0.024622945114970207, -0.011956334114074707, 0.01882234774529934, 0.004646397195756435, 0.021545076742768288, -0.005475054029375315, 0.005238295067101717, -0.008819276466965675, 0.017993690446019173, -0.002559957792982459, -0.020242901518940926, 0.004232068546116352, 0.05753245949745178, 0.003965714946389198, -0.006214926019310951, -0.03669765964150429, -0.0201245229691267, -0.03717117756605148, 0.0201245229691267, -0.0018718765350058675, -0.006481280084699392, 0.02166345715522766, -0.004024904686957598, 0.01609961874783039, 0.01467906404286623, 0.012133903801441193, -0.014323924668133259, -0.011246057227253914, -0.012133903801441193, -0.005623028613626957, 0.01858558878302574, -0.007369126658886671, -0.00929279439151287, -0.004705586936324835, -0.010890917852520943, 0.003447804367169738, 0.005623028613626957, 0.0008693498093634844, -0.0031962478533387184, 0.02190021611750126, 0.016217997297644615, -0.028174331411719322, 0.0049127512611448765, -0.0025303626898676157, -0.002559957792982459, -0.001146801863797009, -0.015389340929687023, 0.004823966417461634, -0.019059106707572937, 0.0051791053265333176, 0.007813050411641598, 0.014264735393226147, -0.001812686794437468, 0.02568836137652397, -0.011068487539887428, 0.023320769891142845, -0.013199319131672382, -0.013258509337902069, 0.007073177956044674, 0.012548231519758701, -0.04048580303788185, -0.019887764006853104, 0.010239831171929836, 0.020006142556667328, 0.006007762160152197, -0.004172878805547953, -0.003418209496885538, 0.011305246502161026, 0.04332691431045532, 0.026161879301071167, 0.01882234774529934, -0.019532624632120132, -0.021426698192954063, 0.010417399927973747, 0.002204819116741419, 0.022965632379055023, -0.003433006815612316, 0.011660384945571423, 0.020479662343859673, -0.011068487539887428, -0.02876622974872589, 0.024622945114970207, -0.029713265597820282, -0.009588743560016155, -0.05090320482850075, -0.013850406743586063, -0.01160119567066431, 0.028529470786452293, -0.02071642130613327, -0.011009297333657742, -0.004705586936324835, -0.003995309583842754, -0.018940728157758713, -0.002219616435468197, -0.0013169724261388183, -0.005208699963986874, -0.008523327298462391, -0.024031048640608788, -0.007161962334066629, 0.011305246502161026, 0.008108998648822308, -0.001716503407806158, 0.006126141641288996, -0.03361979126930237, -0.012193093076348305, -0.01574447937309742, 0.04143284261226654, -0.022492114454507828, 0.003817740362137556, 0.037881456315517426, 0.002678337274119258, 0.013968786224722862, 0.020479662343859673, -0.01633637771010399, 0.0035069941077381372, 0.004498422611504793, 0.003936119843274355, 0.008523327298462391, 0.006274115759879351, -0.03433007001876831, 0.01609961874783039, -0.007309936918318272, -0.02935812808573246, -0.02628025971353054, 0.01728341355919838, 0.003965714946389198, -0.006185331381857395, 0.010121450759470463, -0.013080939650535583, -0.0005401066737249494, 0.003359019523486495, -0.02497808448970318, 0.003551386296749115, 0.04451071098446846, 0.004054499324411154, -0.020242901518940926, -0.0009840299608185887, 0.02474132552742958, 0.010299020446836948, -0.021545076742768288, 0.02130831778049469, 0.012252283282577991, -0.014738253317773342, -0.04474746808409691, -0.03054192289710045, -0.011068487539887428, -0.022728873416781425, -0.0045280177146196365, -0.014146355912089348, -0.0031222605612128973, -0.008404947817325592, -0.0029890835285186768, 0.027108915150165558, -0.026990536600351334, -0.021781835705041885, 0.0016721111023798585, -0.03267275542020798, -0.025214843451976776, 0.0033294246532022953, -0.0027079321444034576, 0.009766312316060066, 0.0201245229691267, 0.0006917804712429643, -0.007694670464843512, -0.01669151522219181, 0.01609961874783039, 0.022373734042048454, 0.010535779409110546, -0.02166345715522766, -0.018940728157758713, -0.008523327298462391, -0.00633330550044775, -0.003240640042349696, 0.031015440821647644, -0.002574755111709237, -0.010890917852520943, -0.018940728157758713, -0.002411983208730817, 0.03385654836893082, 0.0015611302806064487, -0.0013317698612809181, 0.005534243769943714, 0.008996845223009586, -0.0014945417642593384, 0.025096463039517403, 0.017993690446019173, -0.038828492164611816, -0.01574447937309742, 0.0036845633294433355, -0.0017978893592953682, 0.02841109037399292, -0.007931429892778397, -0.0031814503017812967, 0.0042616636492311954, 0.015152581967413425, 0.02474132552742958, 0.016454756259918213, 0.006510875187814236, -0.0357506237924099, -0.0021308318246155977, -0.02876622974872589, -0.018940728157758713, -0.0011763967340812087, 0.006688444409519434, -0.03835497424006462, -0.04166959971189499, 0.0024563756305724382, -0.03148895874619484, 0.020242901518940926, -0.035987380892038345, 0.025451602414250374, -0.006037356797605753, 0.005504648666828871, -0.014264735393226147, -0.050192926079034805, -0.023912668228149414, -0.029831646010279655, 0.027108915150165558, 0.017165035009384155, -0.0352771058678627, -0.028174331411719322, 0.04237987846136093, -0.01237066276371479, 0.005623028613626957, -0.002101236954331398, -0.01858558878302574, 0.02225535549223423, 0.0016721111023798585, -0.003033475950360298, -0.008108998648822308, 0.0024711729492992163, -0.038828492164611816, 0.008286568336188793, 0.01018064096570015, -0.010594969615340233, -0.007694670464843512, -0.02687215618789196, 0.02995002456009388, 0.00864170677959919, -0.01669151522219181, -0.020834799855947495, 0.024149427190423012, 0.0028115143068134785, -0.0059781670570373535, -0.010299020446836948, 0.0027819194365292788, 0.0004291258519515395, -0.013258509337902069, -0.04995616897940636, 0.01763855293393135, -0.023675909265875816, -0.003418209496885538, 0.016454756259918213, -0.0016055225860327482, 0.003654968459159136, -0.006599659565836191, 0.01343607809394598, 0.010890917852520943, -0.009470364078879356, 0.028292711824178696, 0.008700896985828876, 0.01763855293393135, 0.004350448492914438, 0.026161879301071167, -0.037881456315517426, -0.0203612819314003, 0.004557612352073193, -0.01787531189620495, -0.02568836137652397, 0.00787223968654871, 0.03148895874619484, -0.012133903801441193, -0.01189714390784502, 0.029713265597820282, -0.0034034119453281164, -0.005475054029375315, 0.01823044940829277, 0.011246057227253914, -0.010654158890247345, 0.016217997297644615, 0.0026635397225618362, 0.009884691797196865, -0.04332691431045532, -0.013672837987542152, -0.01160119567066431, -0.014323924668133259, 0.01390959694981575, 0.014501494355499744, -0.01787531189620495, 0.027108915150165558, -0.002648742403835058, -0.04261663556098938, 0.025096463039517403, -0.006925203371793032, 0.024031048640608788, 0.009174414910376072, -0.039065249264240265, -0.021426698192954063, -0.006274115759879351, -0.016573136672377586, -0.019651005044579506, 0.025333222001791, -0.011956334114074707, -0.020953180268406868, 0.0019532626029103994, -0.02497808448970318, -0.012784991413354874, -0.007694670464843512, 0.02592512033879757, -0.04261663556098938, 0.017046654596924782, 0.002293603727594018, 0.022136975079774857, -0.03361979126930237, 0.031015440821647644, -0.01882234774529934, 0.002411983208730817, 0.005031130742281675, 0.008937655948102474, 0.0016721111023798585, 0.014087165705859661, -0.013376888819038868, 0.017756931483745575, -0.004054499324411154, -0.034093309193849564, 0.016573136672377586, 0.041196081787347794, -0.008819276466965675, 0.012784991413354874, -0.02343915030360222, -0.014264735393226147, 0.0066292546689510345, -0.024859704077243805, -0.012429852038621902, 0.019414246082305908, 0.012193093076348305, 0.0020864394027739763, 0.0022640088573098183, 0.001982857473194599, 0.018467208370566368, -0.004498422611504793, 0.006954798474907875, 0.03717117756605148, 0.014383114874362946, -0.02190021611750126, -0.006481280084699392, -0.009115224704146385, 0.026398638263344765, 0.006570064928382635, 0.008937655948102474, 0.046168021857738495, 0.0007065779063850641, 0.001154200523160398, 0.010476590134203434, -0.014146355912089348, 0.005918977316468954, -0.002870704047381878, -0.06581902503967285, 0.03148895874619484, -7.121269300114363e-05, -0.01692827418446541, -0.010003071278333664, -0.008582517504692078, -0.025096463039517403, 0.006747634150087833, 0.01248904224485159, -0.017756931483745575, -0.020598040893673897, 0.017756931483745575, 0.021426698192954063, -0.014146355912089348, -0.035987380892038345, 0.009351983666419983, -0.013613647781312466, -0.026398638263344765, 0.005800597835332155, 0.0402490459382534, 0.013554457575082779, 0.007635480724275112, -0.014146355912089348, -0.006570064928382635, 0.0021456293761730194, 0.003240640042349696, -0.011956334114074707, -0.043090153485536575, 0.020242901518940926, -0.007813050411641598, -0.013968786224722862, 0.04356367141008377, -0.0030926656909286976, -0.0008360555511899292, 0.017046654596924782, 0.00864170677959919, -0.010239831171929836, -0.010417399927973747, -0.009233604185283184, 0.03148895874619484, -0.0027375270146876574, 0.01858558878302574, -0.005267889704555273, 0.002648742403835058, -0.008404947817325592, 0.01083172857761383, 0.006954798474907875, 0.011423625983297825, 0.007813050411641598, 0.02687215618789196, 0.012844180688261986, -0.03267275542020798, 0.01609961874783039, 0.001339168637059629, 0.0035069941077381372, 0.029594887048006058, 0.0031370578799396753, -0.036934416741132736, -0.006925203371793032, 0.011778764426708221, 0.013613647781312466, 0.0010654159123077989, 0.007635480724275112, 0.026517018675804138, 0.012429852038621902, -0.025806741788983345, 0.025451602414250374, -0.02722729556262493, 0.005889382213354111, 0.006925203371793032, 0.056348662823438644, -0.02130831778049469, 0.026043500751256943, -0.004380043130367994, -0.04261663556098938, 0.01160119567066431, -0.009647932834923267, -0.004320853389799595, 0.010121450759470463, 0.0010136248311027884, -0.02166345715522766, -0.017401793971657753, 0.0004809169040527195, -0.0063629006035625935, -0.027345675975084305, 0.012725801207125187, 0.002027249662205577, 0.004823966417461634, 0.007280342280864716, 0.016809895634651184, 0.011778764426708221, -0.019532624632120132, 0.0035069941077381372, -0.02130831778049469, 0.014027976430952549, -0.031015440821647644, 0.017756931483745575, 0.01976938359439373, 0.016454756259918213, 0.024504566565155983, -0.008700896985828876, -0.04853561520576477, -0.002382388338446617, 0.0006362900603562593, -0.013495268300175667, 0.004320853389799595, 0.021189939230680466, 0.0015019405400380492, -0.00025155654293484986, -0.021545076742768288, 0.009056035429239273, 0.02225535549223423, 0.004587207455188036, 0.025096463039517403, 0.004616802092641592, -0.009647932834923267, 0.014442304149270058, 0.01160119567066431, 0.007576290983706713, 0.011364436708390713, 0.01609961874783039, -0.0357506237924099, 0.00929279439151287, -0.019887764006853104, -0.007221152074635029, 0.005889382213354111, -0.0066292546689510345, -0.024504566565155983, 0.018112070858478546, 0.020598040893673897, -0.011778764426708221, -0.0049423458985984325, -0.03243599459528923, -0.02320239134132862, 0.004853561520576477, 0.015152581967413425, -0.045220986008644104, 0.01390959694981575, 0.0037585506215691566, -0.009884691797196865, 0.03859173133969307, -0.015507720410823822, 0.003936119843274355, 0.011009297333657742, -0.0022344139870256186, -0.019295865669846535, 0.01692827418446541, 0.024504566565155983, -0.0020716420840471983, 0.0024563756305724382, 0.01609961874783039, 0.004350448492914438, 0.014738253317773342, 0.023912668228149414, 0.015626100823283195, -0.004498422611504793, -0.004794371780008078, 0.017993690446019173, -0.0045280177146196365, 0.02722729556262493, -0.00710277259349823, -0.016217997297644615, -0.024031048640608788, -0.005060725379735231, 0.03764469549059868, 0.02568836137652397, -0.02722729556262493, -0.025451602414250374, 0.006688444409519434, -0.01609961874783039, -0.021071558818221092, -0.019651005044579506, 0.0203612819314003, 0.016809895634651184, -0.016809895634651184, 0.011482816189527512, -0.01420554518699646, -0.0031370578799396753, -0.03361979126930237, 0.044037189334630966, -0.029594887048006058, 0.017046654596924782, 0.0026191475335508585, 0.008168188855051994, -0.022965632379055023, 0.010890917852520943, 0.007813050411641598, -0.030186783522367477, -0.04356367141008377, -0.02935812808573246, -0.043090153485536575, -0.0026635397225618362, -0.008996845223009586, 0.01609961874783039, -0.02284725196659565, 0.024859704077243805, -0.006037356797605753, -0.01858558878302574, 0.012962560169398785, -0.003344222204759717, 0.011246057227253914, -0.01609961874783039, -0.009351983666419983, -0.012133903801441193, -0.009056035429239273, 0.009707123041152954, 0.006422090344130993, -0.003728955751284957, 0.02071642130613327, 0.0014723455533385277, 0.028884608298540115, 0.0028115143068134785, -0.004705586936324835, -0.013199319131672382, 0.01692827418446541, -0.005859787575900555, 0.019887764006853104, 0.028292711824178696, 0.032909512519836426, 0.018703967332839966, 0.04285339638590813, 0.0012133903801441193, -0.004646397195756435, 0.016809895634651184, -0.027700813487172127, -0.031962476670742035, 0.031725719571113586, 0.03148895874619484, -0.01728341355919838, -0.04048580303788185, -0.04166959971189499, 0.013021750375628471, 0.040959324687719345, 0.0017682944890111685, 0.019059106707572937, -0.0352771058678627, 0.0074283163994550705, -0.02746405452489853, 0.016573136672377586, 0.025569982826709747, -0.009233604185283184, -0.00017664447659626603, -0.017046654596924782, 0.023912668228149414, 0.015981238335371017, 0.022728873416781425, -0.01248904224485159, 0.023557528853416443, -0.04735181853175163, -0.013554457575082779, 0.005356674548238516, 0.024504566565155983, -0.0014797443291172385, 0.008168188855051994, -0.03622414171695709, 0.009943882003426552, 0.01763855293393135, 0.027582434937357903, 0.040012285113334656, 0.01006226148456335, -0.0203612819314003, 0.0033146273344755173, 0.024859704077243805, 0.016573136672377586, 0.01882234774529934, -0.028884608298540115, -0.010417399927973747, -0.05090320482850075, -0.020479662343859673, 0.002397185890004039, 0.015862859785556793, -0.01574447937309742, -0.01728341355919838, -0.02995002456009388, -0.02071642130613327, -0.0029002989176660776, 0.017520172521471977, -0.0022788061760365963, 0.0005623028264380991, 0.005918977316468954, 0.005918977316468954, 0.04451071098446846, -0.003536588978022337, 0.015862859785556793, 0.0034034119453281164, 0.02995002456009388, -0.00010681904677767307, 0.0016425162320956588, -0.0014723455533385277, 0.0032998297829180956, -0.002027249662205577, 0.00671803904697299, 0.004764776676893234, -0.022610493004322052, 0.011542005464434624, 0.015862859785556793, 0.03669765964150429, 0.021781835705041885, -0.007132367696613073, 0.011186867021024227, 0.02438618615269661, 0.034093309193849564, 0.03835497424006462, -0.017520172521471977, -0.0036993608810007572, -0.005830192472785711, -0.02746405452489853, -0.009115224704146385, 0.000356988311978057, -0.015507720410823822, 0.04166959971189499, 0.0053270794451236725, -0.0067772287875413895, 0.017165035009384155, -0.021071558818221092, 0.018348829820752144, 0.0031074630096554756, -0.057295698672533035, 0.0010876121232286096, 0.025096463039517403, 0.012962560169398785, 0.0029446911066770554, 0.00864170677959919, 0.01095010805875063, 0.010890917852520943, 0.006274115759879351, -0.006866013631224632, -0.02687215618789196, 0.019651005044579506, 0.004291258752346039, 0.026990536600351334, 0.01858558878302574, -0.0005918977549299598, 0.01390959694981575, 0.004320853389799595, 0.026043500751256943, -0.010417399927973747, 0.016217997297644615, -0.006155736278742552, 0.0016425162320956588, -0.006984393112361431, 0.027345675975084305, 0.0027375270146876574, 0.009233604185283184, -0.01006226148456335, 0.0038769301027059555, 0.0009359382675029337, 0.010121450759470463, 0.015626100823283195, -0.005918977316468954, 0.01237066276371479, -0.019532624632120132, -0.015507720410823822, 0.01917748712003231, 0.02190021611750126, -0.020953180268406868, 0.017165035009384155, 0.0029890835285186768, -0.024149427190423012, -0.014264735393226147, 0.016809895634651184, 0.01917748712003231, -0.010299020446836948, 0.020242901518940926, -0.013080939650535583, 0.01917748712003231, 0.02841109037399292, 0.006570064928382635, -0.019295865669846535, -0.01692827418446541, -0.02320239134132862, -0.014915823005139828, -0.008760086260735989, -0.011364436708390713, 0.00594857195392251, -0.010417399927973747, -0.0019532626029103994, -0.016809895634651184, 0.03456682711839676, -0.010239831171929836, -0.006126141641288996, 0.0025451602414250374, -0.031725719571113586, -0.013258509337902069, -0.00929279439151287, -0.0030926656909286976, 0.0038769301027059555, -0.03338303044438362, -0.017993690446019173, 0.009884691797196865, -0.012015524320304394, 0.024622945114970207, 0.014856632798910141, -0.012784991413354874, -0.0055638388730585575, -0.018940728157758713, 0.011127677746117115, 0.009943882003426552, -0.026517018675804138, 0.022728873416781425, 0.0126666110008955, -0.01248904224485159, -0.01574447937309742, -0.013080939650535583, -0.03030516393482685, 0.005238295067101717, 0.017046654596924782, -0.055164869874715805, -0.027108915150165558, -0.01787531189620495, 0.016573136672377586, -0.0074283163994550705, 0.02746405452489853, 0.011246057227253914, -0.007694670464843512, -0.022018594667315483, -0.0011246056528761983, 0.02568836137652397, -0.03219923749566078, -0.003640171140432358, 0.019887764006853104, -0.0027079321444034576, -0.004202473908662796, 0.016573136672377586, -0.0357506237924099, 0.007576290983706713, 0.04380043223500252, -0.03219923749566078, 0.0070435828529298306, -0.014738253317773342, 0.01728341355919838, -0.034093309193849564, 0.016217997297644615, -0.009056035429239273, 0.016809895634651184, -0.004202473908662796, 0.01095010805875063, 0.004764776676893234, 0.0004161780816502869, 0.0014649468939751387, -0.0203612819314003, 0.008464137092232704, 0.003847335232421756, -0.041196081787347794, 0.015270961448550224, 0.010121450759470463, -0.0201245229691267, 0.026635397225618362, -0.008582517504692078, -0.013199319131672382, 0.006007762160152197, -0.02379428781569004, 0.011542005464434624, -0.016573136672377586, -0.007813050411641598, -0.020834799855947495, 0.022965632379055023, -0.009647932834923267, 0.03764469549059868, -0.015981238335371017, 0.0201245229691267, -0.016573136672377586, 0.017046654596924782, -0.013199319131672382, 0.02568836137652397, -0.0352771058678627, 0.010594969615340233, -0.03267275542020798, 0.06203088164329529, 0.0017830919241532683, 0.009174414910376072, -0.001997654791921377, 0.01467906404286623, 0.017993690446019173, 0.013554457575082779, -0.008760086260735989, -0.010713349096477032, -0.013080939650535583, -0.012784991413354874, -0.007694670464843512, 0.013258509337902069, -0.03361979126930237, -0.00941117387264967, -0.011956334114074707, -0.007309936918318272, 0.009943882003426552, -0.010772538371384144, -0.0002330597344553098, -0.028292711824178696, 0.011660384945571423, -0.027582434937357903, -0.006599659565836191, -0.0059781670570373535, -0.0007472708821296692, 0.015389340929687023, -0.0003754851350095123, 0.0606103278696537, 0.028174331411719322, 0.0002903998247347772, 0.005741408094763756, -0.01692827418446541, -0.0059781670570373535, -0.02225535549223423, 0.015152581967413425, -0.01917748712003231, 0.0035809811670333147, 0.004380043130367994, 0.010713349096477032, 0.017401793971657753, 0.01692827418446541, 0.0014057571534067392, 0.020479662343859673, 0.010535779409110546, 0.011009297333657742, -0.005297484807670116, -0.03054192289710045, -0.0032998297829180956, -0.004202473908662796, 0.012311472557485104, -0.012311472557485104, -5.641525058308616e-05, 0.000954435090534389, -0.040012285113334656, -0.003965714946389198, 0.011423625983297825, -0.0010210236068814993, -0.022492114454507828, 0.005001535639166832, 0.028529470786452293, 0.01083172857761383, 0.03930201008915901, -0.030778681859374046, 0.017756931483745575, -0.013672837987542152, 0.02438618615269661, 0.010358210653066635, -0.005652623251080513, 0.006658849306404591, 0.01728341355919838, 0.020479662343859673, -0.009766312316060066, -0.014146355912089348, -0.031962476670742035, 0.00748750614002347, -0.03125220164656639, -0.0010432197013869882, 0.035987380892038345, 0.021071558818221092, -0.005652623251080513, 0.01574447937309742, 0.01858558878302574, 0.016573136672377586, 0.009588743560016155, 0.0067772287875413895, -0.00748750614002347, -0.014915823005139828, -0.005682218354195356, 0.002411983208730817, 0.0036105760373175144, -0.009233604185283184, 0.014027976430952549, -0.03433007001876831, 0.024149427190423012, 0.006007762160152197, 0.029476506635546684, 0.007161962334066629, 0.009707123041152954, 0.004409638233482838, -0.04285339638590813, -0.025451602414250374, -0.012725801207125187, 0.002293603727594018, -0.02071642130613327, -0.006984393112361431, 0.013672837987542152, -0.024031048640608788, -0.03267275542020798, -0.001997654791921377, -0.001982857473194599, 0.027700813487172127, -0.009647932834923267, -0.014797443524003029, 0.002559957792982459, -0.021545076742768288, -0.01728341355919838, 0.009943882003426552, -0.00941117387264967, -0.017993690446019173, -0.010476590134203434, 0.017520172521471977, -0.024031048640608788, 0.0026339448522776365, 0.020834799855947495, 0.01189714390784502, 0.048298854380846024, -0.018112070858478546, 0.003225842723622918, 0.0015685289399698377, -0.004764776676893234, 0.006866013631224632, -0.007132367696613073, 0.004350448492914438, 0.013613647781312466, -0.005001535639166832, 0.008464137092232704, -0.0011837955098599195, -0.009056035429239273, -0.04166959971189499, -0.014087165705859661, -0.017046654596924782, 0.020953180268406868, -0.024504566565155983, -0.043090153485536575, -0.003063070820644498, -0.014146355912089348, 0.008878465741872787, 0.006037356797605753, -0.038118213415145874, 0.018348829820752144, 0.0034773992374539375, -0.02166345715522766, -0.011009297333657742, 0.002870704047381878, -0.0023379959166049957, 0.01390959694981575, -0.014915823005139828, -0.03835497424006462, -0.022728873416781425, -0.007813050411641598, -0.012962560169398785, -0.014738253317773342, -0.012607421725988388, -0.0036845633294433355, -0.001427953247912228, -0.00594857195392251, 0.005415864288806915, 0.015507720410823822, -0.009825502522289753, -0.006155736278742552, 0.01823044940829277, -0.01497501228004694, -0.054217830300331116, -0.019887764006853104, 0.0025451602414250374, 0.043090153485536575, -0.006984393112361431, -0.002574755111709237, -0.01976938359439373, -0.03361979126930237, 0.002974285976961255, -0.023912668228149414, 0.021071558818221092, 0.015862859785556793, 0.02628025971353054, -0.003640171140432358, 0.024859704077243805, 0.03361979126930237, -0.0034921965561807156, -0.019414246082305908, -0.011009297333657742, 0.004113689064979553, 0.029121369123458862, 0.008878465741872787, -0.0016573136672377586, 0.013021750375628471, -0.007221152074635029, 0.012962560169398785, 0.018467208370566368, -0.006599659565836191, -0.016454756259918213, 0.02071642130613327, -0.00941117387264967, 0.015389340929687023, 0.011956334114074707, 0.008582517504692078, -0.009529553353786469, -0.001731300842948258, 0.0037585506215691566, 0.012844180688261986, 0.015034202486276627, 0.04048580303788185, -0.051139965653419495, 0.0022344139870256186, -0.01692827418446541, 0.012015524320304394, -0.012844180688261986, -0.01823044940829277, -0.010239831171929836, -0.015981238335371017, -0.01917748712003231, -0.0025155653711408377, -0.0014723455533385277, -0.017401793971657753, 0.0051791053265333176, 0.00023583424626849592, 0.034803587943315506, 0.02379428781569004, 0.03125220164656639, 0.010713349096477032, 0.004616802092641592, 0.015270961448550224, -0.006747634150087833, -0.008404947817325592, -0.00941117387264967, 0.005060725379735231, 0.012962560169398785, -0.03267275542020798, -0.026635397225618362, -0.02474132552742958, -0.022018594667315483, 0.014738253317773342, -0.011660384945571423, 0.018703967332839966, -0.012429852038621902, -0.024149427190423012, -0.03030516393482685, 0.05042968690395355, 0.001997654791921377, -0.017165035009384155, 0.06203088164329529, -0.015626100823283195, 0.0009692325256764889, 0.015152581967413425, 0.029594887048006058, 0.011423625983297825, 0.02592512033879757, -0.0008397548808716238, -0.012015524320304394, -0.007517101243138313, 0.004794371780008078, 0.015093391761183739, 0.008404947817325592, -0.001516737975180149, 0.016454756259918213, 0.031725719571113586, 0.013672837987542152, 0.014915823005139828, -0.02995002456009388, 0.0002719030308071524, -0.008168188855051994, 0.022965632379055023, 0.008878465741872787, -0.024031048640608788, -0.006155736278742552, -0.0024563756305724382, -0.0036845633294433355, -0.012133903801441193, 0.03148895874619484, 0.009588743560016155, -0.0201245229691267, 0.006185331381857395, 0.024504566565155983, 0.008404947817325592, 0.02995002456009388, -0.020598040893673897, 0.011305246502161026, 0.0034921965561807156, -0.018940728157758713, 0.004498422611504793, 0.004054499324411154, 0.005475054029375315, 0.027700813487172127, -0.009233604185283184, -0.011423625983297825, 0.052323758602142334, -0.019059106707572937, 0.014856632798910141, -0.03148895874619484, -0.005652623251080513, 0.01095010805875063, -0.03054192289710045, -0.004468827974051237, 0.02722729556262493, 0.011837954632937908, -0.024504566565155983, -0.00929279439151287, -0.025569982826709747, 0.010121450759470463, -0.009115224704146385, -0.011127677746117115, 0.0025155653711408377, -0.013613647781312466, 0.017046654596924782, 0.0021604266948997974, 0.0037881454918533564, -0.026517018675804138, -0.04143284261226654, 0.04380043223500252, -0.00034589023562148213, 0.01976938359439373, 0.010417399927973747, 0.01633637771010399, 0.009884691797196865, -0.007753860205411911, -0.024859704077243805, -0.003151855431497097, -1.4450628441409208e-05, -0.0029890835285186768, -0.0030926656909286976, -0.03267275542020798, 0.01763855293393135, 0.005889382213354111, -0.004646397195756435, 0.001524136634543538, -0.02746405452489853, 0.027345675975084305, -0.03740793466567993, 0.04735181853175163, 0.01787531189620495, 0.016573136672377586, 0.03622414171695709, -0.021545076742768288, 0.018112070858478546, 0.003817740362137556, 0.014087165705859661, 0.004823966417461634, 0.030186783522367477, 0.012252283282577991, 0.005475054029375315, -0.001820085570216179, -0.0021308318246155977, 0.02474132552742958, 0.020006142556667328, -0.009351983666419983, 0.003418209496885538, -0.001627718796953559, 0.017046654596924782, -0.03243599459528923, -0.022018594667315483, -0.010476590134203434, -0.01692827418446541, -0.006303710862994194, 0.016809895634651184, -0.0012651813449338078, -0.004172878805547953, -0.026043500751256943, 0.011127677746117115, -0.016809895634651184, -0.031725719571113586, 0.020598040893673897, 0.03148895874619484, -0.01083172857761383, -0.041196081787347794, -0.006688444409519434, -0.003551386296749115, 0.009056035429239273, -0.016454756259918213, -0.02343915030360222, 0.006155736278742552, -0.03646089881658554, 0.002767121884971857, -0.0015537315048277378, 0.01467906404286623, -0.03551386296749115, 0.006214926019310951, -0.01917748712003231, 0.002678337274119258, 0.01823044940829277, 0.00034773992956615984, -0.02935812808573246, 0.007694670464843512, -0.019414246082305908, -0.011956334114074707, -0.03054192289710045, -0.008227378129959106, -0.01633637771010399, 0.02474132552742958, -0.02130831778049469, 0.02474132552742958, 0.031015440821647644, -0.025096463039517403, -0.00017109543841797858, -0.005031130742281675, 0.022492114454507828, 0.004557612352073193, 0.022018594667315483, -0.00594857195392251, -0.026043500751256943, 0.011660384945571423, -0.001516737975180149, 0.02592512033879757, -0.006925203371793032, 0.0016573136672377586, -0.00941117387264967, 0.0126666110008955, -0.022018594667315483, -0.039065249264240265, 0.011423625983297825, 0.011364436708390713, -0.026990536600351334, -0.004113689064979553, 0.009766312316060066, 0.005208699963986874, 0.003033475950360298, 0.003995309583842754, 0.014323924668133259, 0.04048580303788185, 0.0, 0.010654158890247345, -0.0357506237924099, -0.006984393112361431, -0.0126666110008955, 0.011305246502161026, -0.01763855293393135, -0.022136975079774857, 0.001442750683054328, 0.036934416741132736, 0.0063629006035625935, 0.010358210653066635, 0.008937655948102474, -0.034803587943315506, 0.024267807602882385, -0.0009100427851080894, 0.022610493004322052, -0.015034202486276627, -0.022965632379055023, -0.021781835705041885, 0.019059106707572937, 0.0402490459382534, -0.011837954632937908, 0.020953180268406868, 0.0357506237924099, 0.012725801207125187, 0.011542005464434624, 0.015270961448550224, -0.024504566565155983, 0.027937572449445724, -0.01917748712003231, -0.0003810341586358845, -0.031962476670742035, -0.0038769301027059555, -0.007280342280864716, 0.004971941001713276, -0.006836418993771076, 0.034093309193849564, 0.01609961874783039, -0.02225535549223423, -0.006895608734339476, 0.012133903801441193, -0.011009297333657742, 0.0010358210420235991, 0.028055952861905098, -0.041906360536813736, 0.019651005044579506, 0.024859704077243805, -0.006570064928382635, -0.0045280177146196365, 0.0025155653711408377, -0.002500767819583416, -0.010239831171929836, -0.03740793466567993, -0.009115224704146385, 0.005297484807670116, 0.004232068546116352, -0.012548231519758701, 0.004202473908662796, 0.011542005464434624, -0.022136975079774857, 0.0201245229691267, 0.010772538371384144, -0.02225535549223423, -0.002012452343478799, 0.01248904224485159, 0.04664153978228569, 0.01633637771010399, 0.01976938359439373, 0.0003199947241228074, 0.004350448492914438, -0.0026635397225618362, -0.004202473908662796, -0.006244521122425795, 0.025214843451976776, -0.0066292546689510345, 0.03219923749566078, -0.049245890229940414, 0.02284725196659565, 0.0026339448522776365, -0.010535779409110546, -0.004439232870936394, -0.016809895634651184, -0.005534243769943714, 0.017520172521471977, -0.008108998648822308, 0.0070435828529298306, -0.0203612819314003, -0.013258509337902069, -0.006037356797605753, -0.005386269185692072, 0.03717117756605148, 0.027582434937357903, 0.0030038810800760984, 0.027108915150165558, -0.013613647781312466, -0.016573136672377586, 0.0016721111023798585, 0.002604349981993437, -0.042143117636442184, 0.01917748712003231, 0.004232068546116352, 0.020242901518940926, 0.008227378129959106, 0.02722729556262493, -0.02225535549223423, 0.017046654596924782, -0.002559957792982459, 0.010535779409110546, -0.02628025971353054, 0.013968786224722862, -0.005238295067101717, 0.03551386296749115, 0.013554457575082779, 0.01823044940829277, 0.021189939230680466, 0.04285339638590813, 0.03622414171695709, -0.041906360536813736, 0.03930201008915901, -0.0014723455533385277, -0.03740793466567993, -0.014442304149270058, 0.014442304149270058, 0.000954435090534389, -0.030068404972553253, 0.017401793971657753, -0.027582434937357903, 0.005711812991648912, -0.009825502522289753, -0.011127677746117115, -0.008227378129959106, 0.02876622974872589, 0.0035957787185907364, 0.0002682036720216274, -0.01083172857761383, 0.03764469549059868, -0.017046654596924782, -0.008404947817325592, 0.0126666110008955, -0.01171957515180111, 0.02190021611750126, -0.03859173133969307, 0.012962560169398785, 0.022373734042048454, -0.003906525205820799, -0.017401793971657753, -0.0027523243334144354, -0.005534243769943714, 0.007576290983706713, 0.0015833263751119375, 0.004172878805547953, 0.0035217914264649153, -0.002678337274119258, -0.008996845223009586, 0.009470364078879356, -0.027582434937357903, 0.019532624632120132, 0.014323924668133259, -0.013317698612809181, 0.006007762160152197, 0.020006142556667328, 0.009825502522289753, -0.0015907251508906484, -0.0352771058678627, 0.01858558878302574, -0.011956334114074707, -0.012311472557485104, -0.0003921322349924594, 0.008700896985828876, 0.046168021857738495, 0.0031074630096554756, 0.00710277259349823, -0.007191557437181473, -0.03859173133969307, 0.0017682944890111685, -0.03646089881658554, 0.00929279439151287, 0.016454756259918213, 0.017993690446019173, 0.007931429892778397, -0.009588743560016155, -0.020242901518940926, 0.024267807602882385, 0.003906525205820799, -0.0004698188276961446, 0.01633637771010399, 0.028529470786452293, 0.01609961874783039, -0.021781835705041885, -0.018348829820752144, -0.011778764426708221, -0.012548231519758701, 0.00864170677959919, -0.023320769891142845, -0.010299020446836948, 0.01237066276371479, -0.035040345042943954, 0.0028263116255402565, -0.012015524320304394, -0.011009297333657742, 0.01633637771010399, 0.022373734042048454, -0.004409638233482838, -0.001827484229579568, -0.005001535639166832, 0.01787531189620495, -0.0015611302806064487, 0.007813050411641598, -0.00748750614002347, -0.003936119843274355, 0.0029150962363928556, -0.025569982826709747, 0.013376888819038868, -0.016573136672377586, -0.012429852038621902, -0.0016721111023798585, 0.00941117387264967, 0.021545076742768288, -0.03669765964150429, -0.003906525205820799, -0.02497808448970318, 0.0021604266948997974, 0.0027227294631302357, -0.01390959694981575, -0.01882234774529934, -0.028884608298540115, 0.012252283282577991, -0.002485970500856638, 0.00941117387264967, 0.00024970684899017215, 0.019887764006853104, -0.03669765964150429, -0.007694670464843512, 0.025333222001791, 0.012725801207125187, -0.0010062261717393994, 0.0055638388730585575, -0.015507720410823822, 0.03219923749566078, -0.007250747177749872, 0.02190021611750126, -0.023912668228149414, 0.009588743560016155, -0.012311472557485104, 0.018703967332839966, 0.031725719571113586, 0.001339168637059629, -0.012725801207125187, 0.006540469825267792, 0.006126141641288996, 0.013791217468678951, 0.027345675975084305, -0.017401793971657753, 0.014856632798910141, -0.010239831171929836, 0.04143284261226654, 0.008700896985828876, 0.03433007001876831, 0.022492114454507828, 0.001346567296423018, 0.00671803904697299, -0.01497501228004694, -0.02343915030360222, 0.018467208370566368, -0.029476506635546684, 0.03054192289710045, 0.020598040893673897, 0.0018570790998637676, -0.020834799855947495, -0.03456682711839676, -0.008523327298462391, -0.004646397195756435, -0.0027375270146876574, -0.036934416741132736, -0.0001720202708384022, -0.012607421725988388, -0.009884691797196865, -0.0049423458985984325, -0.010535779409110546, -0.03338303044438362, 0.005859787575900555, -0.005001535639166832, -0.007546695880591869, 0.01823044940829277, 0.010594969615340233, -0.015862859785556793, 0.020479662343859673, -0.01420554518699646, -0.01343607809394598, 0.011482816189527512, 0.023675909265875816, -0.004084094427525997, 0.020479662343859673, 0.006836418993771076, 0.02320239134132862, 0.01189714390784502, 0.008582517504692078, -0.012725801207125187, -0.01574447937309742, 0.001250383909791708, -0.022018594667315483, -0.015981238335371017, 0.03361979126930237, 0.0067772287875413895, -0.01633637771010399, 0.01882234774529934, -0.03930201008915901, 0.019059106707572937, 0.015389340929687023, -0.035040345042943954, -0.018940728157758713, 0.009943882003426552, 0.01787531189620495, 0.004853561520576477, 0.02628025971353054, -0.0027375270146876574, 0.0013095737667754292, -0.006925203371793032, 0.04782533645629883, 0.02225535549223423, 0.006599659565836191, 0.004735182039439678, -0.013080939650535583, 0.005741408094763756, -0.008108998648822308, -0.004409638233482838, 0.03764469549059868, 0.0016425162320956588, -0.016809895634651184, -0.008700896985828876, 0.014264735393226147, 0.01574447937309742, -0.031015440821647644, 0.010535779409110546, 0.008760086260735989, -0.008523327298462391, 0.005504648666828871, -0.023084010928869247, 0.012193093076348305, 0.031015440821647644, -0.001997654791921377, -0.030778681859374046, -0.01420554518699646, -0.012252283282577991, 0.010476590134203434, 0.0020420472137629986, -0.01160119567066431, -0.009943882003426552, 0.014087165705859661, -0.007161962334066629, -0.01420554518699646, 0.015626100823283195, 0.000456871057394892, 0.02900298871099949, 0.019651005044579506, -0.006895608734339476, 0.019295865669846535, -0.002796716755256057, 0.014087165705859661, 0.024031048640608788, 0.02190021611750126, -0.045931264758110046, 0.009174414910376072, -0.005800597835332155, -0.014856632798910141, 0.0033294246532022953, 0.00026080492534674704, -0.004409638233482838, 0.038828492164611816, 0.011542005464434624, 0.01171957515180111, 0.002382388338446617, 0.013317698612809181, -0.06345143914222717, 0.040959324687719345, -0.004498422611504793, -0.006185331381857395, -0.03740793466567993, 0.002219616435468197, 0.02284725196659565, 0.016454756259918213, 0.015389340929687023, 0.0008323561633005738, 0.014856632798910141, 0.0009026440093293786, -0.024149427190423012, 0.01823044940829277, -0.012962560169398785, 0.022728873416781425, -0.012784991413354874, -0.01189714390784502, -0.0402490459382534, 0.020242901518940926, 0.005623028613626957, -0.022492114454507828, 0.009056035429239273, 0.011305246502161026, 0.051139965653419495, 0.004320853389799595, -0.014501494355499744, -0.017756931483745575, -0.01095010805875063, 0.022610493004322052, 0.03267275542020798, 0.011127677746117115, 0.015270961448550224, -0.026753777638077736, 0.006658849306404591, 0.0032110451720654964, 0.004113689064979553, 0.014383114874362946, 0.01609961874783039, 0.014738253317773342, -0.002559957792982459, 0.0004642697749659419, 0.019059106707572937, -0.002175224246457219, 0.01882234774529934, -0.04735181853175163, 0.012015524320304394, 0.031725719571113586, 0.012607421725988388, -0.00864170677959919, -0.022018594667315483, -0.008700896985828876, 0.015093391761183739, -0.015626100823283195, -0.025451602414250374, -0.011482816189527512, 0.004823966417461634, 0.01633637771010399, -0.01823044940829277, -0.009588743560016155, 0.0010802133474498987, -0.01858558878302574, 0.0005179105210117996, 0.025451602414250374]}}
{"UUID": "0832b955-6423-4e6d-b60c-732448e6f200", "BM25": {"terms": ["a", "protective", "role", "of", "src-1", "against", "aging", "associated", "cognitive", "decline", "received", "october", "14", "2024", "accepted", "july", "21", "2025", "published", "august", "27", "https", "doi", "org", "10", "18632", "206311", "how", "to", "cite", "this", "article", "liu", "h", "yang", "y", "bean", "jc", "he", "majji", "r", "liang", "c", "zhang", "n", "yu", "m", "tu", "l", "q", "deng", "conde", "km", "et", "al", "albany", "ny", "aug", "17", "2167-2188", "copy", "or", "download", "citation", "select", "the", "format", "you", "require", "from", "list", "below", "plain", "text", "endnote", "reference", "manager", "procite", "bibtex", "click", "box", "above", "amp", "abstract", "copyright", "is", "an", "open", "access", "distributed", "under", "terms", "creative", "commons", "attribution", "license", "cc", "by", "4", "0", "which", "permits", "unrestricted", "use", "distribution", "and", "reproduction", "in", "any", "medium", "provided", "original", "author", "source", "are", "credited"], "weights": [0.24369074684479755, 6.862384130854883, 3.295337348877369, 0.11536151542748417, 8.61574221267884, 6.376733604633579, 3.9324499361751437, 3.3500050986596763, 0.9049821150260572, 3.469713955637198, 3.143524452638376, 5.073454909907488, 2.330259222457043, 1.8469201574932632, 3.8005327078232054, 4.358152064516563, 2.554442893714637, 3.759629032786685, 2.710511680244986, 4.400268427808637, 4.000379358538959, 3.137629263718547, 2.0745794152048393, 3.283518592804309, 1.480503297780681, 8.984174718104057, 12.058254465230794, 4.0395182420428135, 0.5670056827740778, 6.895261433240841, 1.7287727939603625, 2.8991825684530226, 5.375406703136394, 2.7396756081226745, 3.5261632021776843, 3.499754843216498, 7.448324880201789, 4.878618935186329, 4.192522249861905, 8.083634039681431, 1.7701488549777977, 4.732899591351407, 1.6775166220902962, 2.966412301481841, 1.813721911954616, 4.008333320192922, 1.46377059348387, 6.344073228866769, 1.8150304471054213, 3.48856463199667, 5.863434602290972, 7.448324880201789, 5.047091410175188, 1.4436695927008547, 1.4401237264883955, 7.448324880201789, 5.616721260541137, 5.708764069387128, 2.484118915185913, 8.635759865348941, 6.636066965242277, 1.5493481685644568, 4.647736983053956, 6.506975944543452, 5.708764069387128, 0.24673108316778586, 4.834942289611743, 3.48856463199667, 4.621945858939214, 1.2982541570381068, 4.587355710163389, 4.429286275393986, 7.050869587438123, 3.0221860761552155, 4.878618935186329, 3.5651169640134555, 5.2785532425746915, 7.448324880201789, 5.02135567285493, 6.183653480798214, 6.183653480798214, 4.386046513375289, 2.531335958765471, 2.082556406519387, 3.5261632021776843, 0.928616824607009, 1.1720381752264304, 2.4720287454725214, 2.7690335175359744, 4.1576531000771615, 3.0011568971017666, 3.1346101761086578, 3.8510095796909316, 3.9984171964890054, 4.240836433889292, 3.9039597540723308, 4.192522249861905, 0.9245880929363354, 1.2750180617904263, 2.1011630458685198, 1.5996840412977693, 4.7525519491606065, 6.344073228866769, 2.184482880789353, 3.256657684836402, 0.09808422013238266, 4.180773765683897, 0.11168329254802357, 2.794654863065127, 4.8137484752224635, 2.9588406424788243, 3.170717079369412, 2.377681978866305, 4.386046513375289, 1.1887789460876257, 5.02135567285493], "k1": 1.5, "b": 0.75, "avgdl": 233.87661016949153, "N": 4425}, "SpladeV3": {"model_id": "naver/splade-v3", "tokens": ["sr", "##cite", "aging", "decline", "albany", "citation", "liu", "roles", "commons", "protective", "##bt", "##bution", "##c", "doi", "associated", "role", "cognitive", "206", "copyright", "protect", "citing", "against", "published", "declining", "age", "cc", "license", "alzheimer", "zhang", "accepted", "1", "cognition", "conde", "abstract", "article", "elderly", "cite", "plain", "ny", "1863", "received", "##1", "maj", "protection", "##ex", "##ricted", "dementia", "bi", "liang", "licensed", "citations", "creative", "deng", "bean", "et", "brain", "text", "pro", "yu", "reference", "unrest", "articles", "##ji", "2020", "date", "204", "copy", "format", "##tri", "reproduction", "##31", "anti", "cas", "al", "202", "safety", "yang", "patient", "##note", "references", "author", "memory", "prevent", "download", "mental", "credited", "york", "associate", "end", "syndrome", "proposed", "required", "prevention", "note", "manager", "psychology", "senior", "depression", "sd", "publishing", "journal", "mentally", "distributed", "intelligence", "vaccine", "research", "27", "peng", "org", "managers", "protector", "authorship", "amp", "brains", "disease", "deterioration", "cited", "reduce", "china", "gene", "adaptive", "cancer", "prevalence", "##escence", "expired", "acceptance", "notes", "medium", "strategy", "authors", "domain", "security", "lists", "credit", "aa", "texts", "10", "october", "at", "of", "paper", "vulnerability", "clinic", "assignment", "stress", "failure", "block", "aged", "fighting", "26", "important", "conservation", "resistance", "older", "combat", "factor", "sas", "terms", "related", "august", "premature", "by", "ending", "beans", "creativity", "committee", "original", "free", "disabled", "declines", "resistant", "therapy", "effect", "obesity", "zhu", "step", "scar", "pmid", "y", "-", "society", "request", "slowly", "onset", "no", "shield", "certificate", "genetic", "council", "psychiatrist", "association", "protecting", "##cit", "declined", "saturday", "supplement", "regulation", "yi", "accept", "access", "benefit", "updated", "written", "scientist", "##sc", "oct", "inhibitor", "anxiety", "experiment", "bias", "frame", "human", "code", "psychological", "first", "patent", "resist", "link"], "weights": [2.5680580139160156, 2.420119285583496, 2.150468111038208, 2.135834217071533, 2.1040537357330322, 2.056455373764038, 2.0136234760284424, 1.9913711547851562, 1.987551212310791, 1.982559323310852, 1.9706742763519287, 1.9552743434906006, 1.9453178644180298, 1.9449052810668945, 1.8590996265411377, 1.857850193977356, 1.825134515762329, 1.759631633758545, 1.7554199695587158, 1.720808744430542, 1.717517375946045, 1.68723726272583, 1.6218212842941284, 1.6167187690734863, 1.6153340339660645, 1.5822997093200684, 1.5733215808868408, 1.5497303009033203, 1.5481462478637695, 1.5342918634414673, 1.4976171255111694, 1.4513005018234253, 1.4194493293762207, 1.3981293439865112, 1.3129055500030518, 1.3103305101394653, 1.3029133081436157, 1.301138997077942, 1.2945566177368164, 1.2846537828445435, 1.267827033996582, 1.2667441368103027, 1.2478090524673462, 1.2232506275177002, 1.2216283082962036, 1.189764380455017, 1.1794006824493408, 1.1719534397125244, 1.1600494384765625, 1.146736741065979, 1.134352207183838, 1.1312520503997803, 1.119840383529663, 1.0762269496917725, 1.07353937625885, 1.0634510517120361, 1.055370569229126, 1.0245951414108276, 1.0186083316802979, 0.9887295961380005, 0.9802823662757874, 0.9786606431007385, 0.9779684543609619, 0.9477553367614746, 0.9453113675117493, 0.9419066905975342, 0.9329521656036377, 0.9301050901412964, 0.9153032302856445, 0.8918612003326416, 0.8879401683807373, 0.875338077545166, 0.8514787554740906, 0.8421674966812134, 0.8091516494750977, 0.8073350191116333, 0.8061636686325073, 0.8053337931632996, 0.7992917895317078, 0.7794790863990784, 0.7776635885238647, 0.7693141102790833, 0.7630865573883057, 0.7586915493011475, 0.742306649684906, 0.7413526773452759, 0.7320734262466431, 0.7162783741950989, 0.7064401507377625, 0.7037675380706787, 0.6927506327629089, 0.6903402805328369, 0.6856377124786377, 0.6742212176322937, 0.6569033861160278, 0.6542090177536011, 0.6512467861175537, 0.6490561962127686, 0.6266363263130188, 0.615749716758728, 0.6150518655776978, 0.6136462688446045, 0.6097202897071838, 0.607877790927887, 0.6041908264160156, 0.6029897928237915, 0.5945698022842407, 0.5861333608627319, 0.5624352097511292, 0.5432901382446289, 0.5374642610549927, 0.5362197160720825, 0.531275749206543, 0.519059956073761, 0.5155159831047058, 0.5106661319732666, 0.4897265136241913, 0.48247846961021423, 0.4815739393234253, 0.47618046402931213, 0.47397613525390625, 0.4668138921260834, 0.46162497997283936, 0.44946008920669556, 0.4455982744693756, 0.4449479579925537, 0.43695691227912903, 0.43319717049598694, 0.4304651916027069, 0.42860856652259827, 0.42847901582717896, 0.4270569682121277, 0.4233655631542206, 0.4196035861968994, 0.4164625406265259, 0.4142693281173706, 0.40685319900512695, 0.4048668444156647, 0.38843610882759094, 0.38243934512138367, 0.37959808111190796, 0.3610668182373047, 0.3534795939922333, 0.35179492831230164, 0.3505677878856659, 0.3378017246723175, 0.3354988694190979, 0.33183926343917847, 0.3269406259059906, 0.326717346906662, 0.3249112367630005, 0.3233043849468231, 0.3226732313632965, 0.31927838921546936, 0.31912750005722046, 0.3163299858570099, 0.30524396896362305, 0.3030138611793518, 0.3025912344455719, 0.29655730724334717, 0.2911441922187805, 0.28247469663619995, 0.27814942598342896, 0.27757227420806885, 0.2676551043987274, 0.2665908634662628, 0.2388012558221817, 0.23539048433303833, 0.23013140261173248, 0.23006604611873627, 0.2243036925792694, 0.220273956656456, 0.2194652259349823, 0.20534278452396393, 0.2024601846933365, 0.18980646133422852, 0.18942847847938538, 0.18470780551433563, 0.1770937591791153, 0.1701698750257492, 0.16978472471237183, 0.15996778011322021, 0.1592596173286438, 0.1570352166891098, 0.15681825578212738, 0.14617866277694702, 0.14117272198200226, 0.13957197964191437, 0.13192778825759888, 0.1307477355003357, 0.12594008445739746, 0.12512774765491486, 0.12296072393655777, 0.11948467791080475, 0.11703238636255264, 0.11697699129581451, 0.11581503599882126, 0.1128961443901062, 0.11105534434318542, 0.09648923575878143, 0.09015263617038727, 0.08988027274608612, 0.076984703540802, 0.07682765275239944, 0.051837313920259476, 0.049931805580854416, 0.04835229739546776, 0.04819212853908539, 0.047876644879579544, 0.03923693299293518, 0.024274634197354317, 0.024193618446588516, 0.019863976165652275, 0.015136059373617172, 0.01130437757819891, 0.004140940960496664, 0.002224234864115715, 0.0007495491881854832]}, "Qwen3-4B": {"model_id": "Qwen/Qwen3-Embedding-4B", "vector": [-0.0002930613118223846, 0.054878443479537964, -0.025239452719688416, 0.001382091548293829, -0.0013242028653621674, 0.04330071061849594, -0.01574571244418621, 0.03403852880001068, 0.0005029076710343361, 0.012677614577114582, 0.017482372000813484, 0.03890117257833481, 0.008335965685546398, -0.04978423938155174, -0.04654247686266899, 0.008567520417273045, 0.035890962928533554, -0.006483528763055801, -0.009030629880726337, -0.0024457955732941628, -0.0029523211997002363, 0.035890962928533554, 0.005470477510243654, 0.017366595566272736, -0.05209978669881821, -0.015398381277918816, -0.01910325512290001, -0.03473319113254547, 0.02882854826748371, 0.006975582335144281, 0.03427008166909218, -0.07178192585706711, 0.062056634575128555, -0.008914852514863014, 0.0016425905050709844, -0.01713504083454609, 0.0148194944486022, -0.002387906890362501, 0.014530051499605179, 0.07826545834541321, 0.00506525719538331, 0.03797495365142822, -0.008046522736549377, 0.012272394262254238, -0.025471007451415062, 0.005528366193175316, 0.015282603912055492, -0.05071045830845833, 0.008104410953819752, 7.326532795559615e-05, 0.009435850195586681, 0.0021852965001016855, -0.028018107637763023, -0.0016208821907639503, -0.04075361043214798, 0.038438063114881516, 0.013951164670288563, 0.0046889809891581535, -0.019219031557440758, -0.01383538730442524, -0.0004269288037903607, 0.004862646572291851, 0.006657194811850786, 0.010825177654623985, -0.010998844169080257, -0.026744557544589043, 0.018640145659446716, -0.023155460134148598, -0.005470477510243654, 0.0011650091037154198, -0.028481217101216316, 0.013719610869884491, -0.0017945482395589352, -0.018177036195993423, -0.05117356777191162, -0.013661721721291542, -8.140591671690345e-05, -0.00037627623532898724, 0.002561572939157486, 0.00506525719538331, -0.017250817269086838, -0.004660036414861679, 0.0055862548761069775, 0.07039260119199753, -0.016556154936552048, 0.004457426257431507, -0.028596993535757065, 0.008220188319683075, 0.04445848613977432, 0.0003419048443902284, 0.007699190638959408, -0.01418271940201521, 0.009435850195586681, -0.01644037663936615, -0.009956847876310349, -0.014414274133741856, -0.023155460134148598, -0.007872856222093105, -0.011693507432937622, 0.0013459111796692014, -0.013430166989564896, -0.007178192958235741, 0.03612251952290535, 0.03542785346508026, -0.0058756982907652855, -0.016556154936552048, 0.007757079321891069, -0.012793391942977905, -0.002764183096587658, -0.0014906327705830336, 0.00691769365221262, -0.010072625242173672, 0.0023589625488966703, 0.019334809854626656, -0.020145250484347343, -0.0034299027174711227, 0.014935271814465523, -0.02165035530924797, -0.004949479829519987, -0.029870543628931046, 0.004341648891568184, 0.027207667008042336, 0.014414274133741856, -0.0036904015578329563, 0.007641301956027746, 0.03658562898635864, -0.017598150297999382, 0.0050942013040184975, 0.009551627561450005, -0.0008864199626259506, 0.015629936009645462, -0.020492583513259888, -0.017366595566272736, -0.004052205476909876, -0.019450586289167404, 0.020029474049806595, 0.0163246002048254, 0.016093045473098755, -0.004746869206428528, 0.014240608550608158, -0.005615198984742165, -0.0005209978553466499, 0.02107146941125393, -0.019913695752620697, 0.012388171628117561, -0.005209978669881821, 0.005528366193175316, 0.033806972205638885, 0.00030753345345146954, -0.009725293144583702, 0.03218609094619751, 0.017366595566272736, -0.014414274133741856, 0.012909169308841228, 0.00021527342323679477, -0.004486370366066694, 0.017250817269086838, 0.017250817269086838, 0.009725293144583702, 0.009956847876310349, 0.013372278772294521, 0.01840859092772007, -0.013661721721291542, -0.025239452719688416, -0.0025471006520092487, 0.029060102999210358, 0.003646985162049532, 0.004775813780725002, -0.012909169308841228, -0.006772972177714109, 0.0030391542240977287, 0.006107252556830645, -0.005152089986950159, -0.012967057526111603, -0.0007199901156127453, -0.012388171628117561, -0.002633933676406741, -0.0263972245156765, -0.010535734705626965, 0.0148194944486022, -0.02246079593896866, 0.0032707087229937315, 0.040985167026519775, 0.0016353543614968657, 0.010304179973900318, -0.0034443747717887163, -0.0011288287350907922, -0.00016733437951188534, 0.008856963366270065, -0.0032996530644595623, 0.000665719504468143, 0.013024946674704552, 0.014935271814465523, -0.000604212807957083, -0.007641301956027746, 0.0008176771807484329, 0.006772972177714109, 0.01910325512290001, -0.023387014865875244, 0.006251974496990442, -0.0010709400521591306, -0.010477845557034016, 0.004139038734138012, 0.011982951313257217, 0.016671931371092796, 0.014124831184744835, -0.0024457955732941628, -0.008799075148999691, 0.027323443442583084, -0.014124831184744835, -0.013372278772294521, -0.021187245845794678, 0.003618040820583701, -0.042374491691589355, 0.0023010738659650087, 0.017945481464266777, -0.0006729555898346007, -0.010362068191170692, 0.017250817269086838, 0.00850963220000267, -0.012503948993980885, -0.004920535255223513, -0.007004526909440756, 0.027786552906036377, 0.002619461389258504, 0.005817809607833624, -0.0026049893349409103, 0.010362068191170692, -0.002778655383735895, 0.012330282479524612, -0.0021852965001016855, 0.0018379646353423595, -0.006136197131127119, -0.021997688338160515, 0.008393854834139347, -0.013256501406431198, -0.02361856959760189, -0.009667404927313328, -0.013256501406431198, 0.010767289437353611, -0.03218609094619751, -0.014703717082738876, 0.002633933676406741, -0.0007199901156127453, -0.017598150297999382, -0.008972740732133389, 0.025471007451415062, -0.011693507432937622, -0.002662878017872572, -0.011288287118077278, -0.007004526909440756, -0.007872856222093105, 0.003965372685343027, 0.007322914432734251, 0.022576574236154556, -0.0011288287350907922, -0.007178192958235741, -0.03612251952290535, 0.003965372685343027, 0.043069157749414444, -0.012619726359844208, -0.023387014865875244, 0.010362068191170692, -0.0002170824445784092, -0.009435850195586681, -0.008104410953819752, -0.038438063114881516, -0.00914640724658966, 0.01586149074137211, -0.012503948993980885, 0.04260604828596115, -0.011635619215667248, 0.020839914679527283, 0.013024946674704552, -0.0263972245156765, 0.015514158643782139, 0.014530051499605179, -0.026628779247403145, 0.02246079593896866, 0.008104410953819752, -0.017598150297999382, 0.03658562898635864, 0.013603833504021168, 0.024197455495595932, -0.018177036195993423, -0.022692350670695305, -0.01968214102089405, -0.009841070510447025, -0.009435850195586681, 0.0019103254890069366, 0.014587940648198128, -0.01123039796948433, -0.0028220717795193195, -0.024776343256235123, 0.017945481464266777, -0.0011794812744483352, 0.002619461389258504, -0.010825177654623985, 0.01840859092772007, 0.010767289437353611, -0.00408115005120635, 0.0081623001024127, -0.005962531082332134, 0.009204295463860035, 0.014645828865468502, -0.01910325512290001, 0.006454584654420614, -0.012909169308841228, 0.03403852880001068, -0.003994316793978214, 0.005441533401608467, 0.0163246002048254, 0.0013603833504021168, 0.006772972177714109, -0.03866961970925331, -0.03496474400162697, -0.0028944325167685747, 0.007699190638959408, -0.019566364586353302, -0.023850124329328537, 0.009725293144583702, -0.016208821907639503, 0.025934115052223206, -0.016671931371092796, 0.0021997687872499228, 0.011982951313257217, 0.007814968004822731, 0.00044501901720650494, 0.011288287118077278, 0.00041426566895097494, 0.049552686512470245, 0.016671931371092796, -0.007120304275304079, -0.011751396581530571, -0.006136197131127119, 0.008451743051409721, 0.0013965637190267444, 0.009956847876310349, 0.03681718185544014, -0.0016570626758038998, -0.016556154936552048, -0.0006295390776358545, -0.002865488175302744, -0.014530051499605179, -0.02026102878153324, -0.002489211969077587, 0.04353226721286774, -0.004978423938155174, -0.051636677235364914, -0.018640145659446716, 0.02026102878153324, 0.0014761605998501182, -0.035890962928533554, 0.009435850195586681, -0.03427008166909218, 0.012735503725707531, 0.0163246002048254, -0.012967057526111603, -0.005412588827311993, -0.055573105812072754, 0.0008574756793677807, -0.01898747682571411, 0.028018107637763023, 0.012446059845387936, -0.00850963220000267, -0.014356385916471481, -0.0036904015578329563, 0.01910325512290001, 0.05510999634861946, -0.021997688338160515, -0.030102098360657692, 0.024197455495595932, -0.013082834891974926, -0.021303024142980576, -0.04353226721286774, 0.01586149074137211, 0.024081679061055183, -0.007814968004822731, -0.012040839530527592, 0.007149248383939266, -0.011925062164664268, 0.01319861225783825, -0.022113464772701263, 0.011056732386350632, -0.0025471006520092487, 0.0008828019490465522, 0.002286601811647415, -0.01898747682571411, -0.023850124329328537, 0.005441533401608467, -0.005759920924901962, 0.004457426257431507, 0.008451743051409721, -0.02697611227631569, -0.010940955020487309, -0.039827391505241394, 0.00010356641723774374, 0.01782970502972603, 0.04121671989560127, -0.011519841849803925, 0.03079676255583763, -0.017482372000813484, 0.0007597885560244322, 0.01771392673254013, -0.019450586289167404, -0.01713504083454609, -0.018061259761452675, 0.012503948993980885, 0.01516682654619217, -0.013545944355428219, 0.0010564678814262152, 0.008683297783136368, 0.01910325512290001, -0.019334809854626656, -0.017945481464266777, -0.029291657730937004, 0.023271238431334496, -0.031954534351825714, 0.004428481683135033, 0.008856963366270065, -0.0032996530644595623, 0.006223029922693968, -0.007814968004822731, -0.00345884682610631, -0.0068598054349422455, -0.03172298148274422, 0.03079676255583763, -0.018871700391173363, 0.0328807532787323, -0.04746869578957558, 0.0009479266591370106, 0.001186717301607132, 0.043069157749414444, -0.0012518421281129122, 0.02095569111406803, 0.005817809607833624, -0.0005029076710343361, -0.01829281449317932, 0.021303024142980576, -0.018640145659446716, 0.03612251952290535, -0.015282603912055492, 0.016671931371092796, 0.020608359947800636, -0.010072625242173672, -0.009783182293176651, -0.003936428111046553, 0.033806972205638885, 0.010767289437353611, -0.0296389888972044, -0.007814968004822731, -0.004775813780725002, -0.0002930613118223846, -0.007930745370686054, -0.017598150297999382, 0.014472163282334805, 0.010825177654623985, 0.010477845557034016, -0.019913695752620697, -0.012735503725707531, -0.03542785346508026, 0.000481199414934963, 0.0326492004096508, 0.016556154936552048, -0.025818338617682457, 0.009320072829723358, -0.010188402608036995, -0.019913695752620697, 0.05071045830845833, 0.012503948993980885, 0.012272394262254238, 0.002561572939157486, 0.014414274133741856, 0.006599306128919125, -0.03473319113254547, 0.02767077460885048, -0.03334386274218559, 0.028018107637763023, 0.035890962928533554, 0.020608359947800636, 0.013082834891974926, -0.012619726359844208, -0.004254816100001335, 0.0026049893349409103, -0.013314389623701572, 0.02894432656466961, -0.0025471006520092487, 0.012677614577114582, 0.038438063114881516, -0.0070624155923724174, 0.002561572939157486, 0.03218609094619751, -0.005673087667673826, -0.020145250484347343, -0.008799075148999691, 0.03172298148274422, 0.01713504083454609, -0.02431323379278183, 0.008220188319683075, 0.014240608550608158, 0.007004526909440756, -0.008220188319683075, -0.0070624155923724174, 0.0019392698304727674, -0.01644037663936615, -0.0458478108048439, 0.04515314847230911, 0.021997688338160515, 0.018755923956632614, -0.008856963366270065, 0.04492159187793732, -0.005036312621086836, -0.01829281449317932, -0.023850124329328537, -0.0001239178964169696, 0.0263972245156765, -0.006049363873898983, 0.00457320362329483, -0.012040839530527592, -0.04445848613977432, 0.023155460134148598, -0.010072625242173672, 0.029870543628931046, -0.040985167026519775, 0.02095569111406803, 0.0025471006520092487, -0.014124831184744835, -0.0032128202728927135, -0.008856963366270065, 0.007872856222093105, 0.003936428111046553, 0.006194085814058781, 0.02500789798796177, -0.008220188319683075, 0.006251974496990442, -0.006309863179922104, 0.01898747682571411, 0.009377961978316307, 0.056267768144607544, 0.0010058153420686722, 0.002040575025603175, 0.029060102999210358, -0.010883066803216934, 0.00037446722853928804, 0.045616257935762405, 0.03172298148274422, 0.004341648891568184, 0.020145250484347343, -0.025471007451415062, 0.0018813811475411057, -0.015514158643782139, -0.04538470134139061, 0.009667404927313328, 0.0024602676276117563, 0.018061259761452675, 0.003010209882631898, -0.03079676255583763, -0.00408115005120635, -0.021303024142980576, -0.031028317287564278, -0.020724136382341385, -0.026744557544589043, -0.017482372000813484, -0.0008140591671690345, 0.006396695971488953, -0.016208821907639503, -0.000327432673657313, 0.0393642820417881, -0.008683297783136368, -0.020608359947800636, -0.019334809854626656, -0.004920535255223513, 0.016093045473098755, -0.00850963220000267, 0.03565941005945206, -0.02361856959760189, 0.0002478357928339392, 0.02222924306988716, -0.015514158643782139, -0.010940955020487309, -0.02234501950442791, 0.025934115052223206, 0.012909169308841228, -0.04422692954540253, 0.015051049180328846, 0.014414274133741856, -0.004660036414861679, 0.008799075148999691, 0.0017583677545189857, -0.0393642820417881, -0.015398381277918816, -0.015398381277918816, -0.030102098360657692, -0.012446059845387936, -0.004457426257431507, -0.0148194944486022, -0.013777499087154865, -0.0029523211997002363, 0.005238922778517008, -0.021997688338160515, 0.018871700391173363, -0.023850124329328537, 0.015514158643782139, 0.0013024946674704552, 0.0009262184030376375, 0.04260604828596115, 0.018871700391173363, 0.03542785346508026, 0.022113464772701263, -0.02697611227631569, 0.011809284798800945, -0.011867173947393894, 0.0012156616430729628, -0.015398381277918816, 0.014414274133741856, -0.03565941005945206, -0.028712771832942963, -0.021418800577521324, -0.014240608550608158, 0.002662878017872572, -0.013719610869884491, 0.025934115052223206, -0.006946638226509094, -0.01111462153494358, -0.0263972245156765, -0.025818338617682457, -0.02558678388595581, -0.0035890964791178703, 0.020029474049806595, 0.02894432656466961, -0.0007814968121238053, 0.0041969274170696735, 0.014298496767878532, -0.0012880224967375398, 0.008567520417273045, 0.0014833967434242368, -0.031954534351825714, -0.00691769365221262, -0.010246291756629944, -0.02836543880403042, 0.0017656038980931044, 0.04075361043214798, 0.030102098360657692, 0.03172298148274422, 0.023387014865875244, -0.0020116306841373444, -0.011867173947393894, -0.025818338617682457, 0.0043995375744998455, 0.02026102878153324, -0.024544788524508476, -0.025355229154229164, -0.007757079321891069, 0.01840859092772007, 0.009609515778720379, 0.008451743051409721, 0.014703717082738876, 0.0037627622950822115, 5.3139974625082687e-05, 0.0027931274380534887, -0.001186717301607132, 0.01013051439076662, 0.008451743051409721, 0.011577730067074299, 0.007814968004822731, 0.029870543628931046, -0.009609515778720379, -0.015977267175912857, 0.005991475656628609, 0.016903486102819443, -0.05974108725786209, -0.005267867352813482, 0.034501634538173676, 0.02755499817430973, -0.015051049180328846, 0.03172298148274422, 0.019450586289167404, -0.018524369224905968, 0.010014737024903297, 0.010940955020487309, -0.0037627622950822115, 0.03079676255583763, 0.02442901022732258, -0.02026102878153324, 0.05696243420243263, -0.011519841849803925, 0.01713504083454609, 0.014240608550608158, -0.034501634538173676, 0.005962531082332134, -0.016671931371092796, -0.024197455495595932, 0.001034759683534503, 0.020724136382341385, 0.03334386274218559, 0.008799075148999691, -0.02570256218314171, -0.009204295463860035, -0.003227292327210307, -0.03357541933655739, -0.009088518097996712, -0.006512473337352276, 0.012098727747797966, -0.007641301956027746, 0.017482372000813484, 0.010709400288760662, 0.04399537667632103, 0.0035890964791178703, 0.008625408634543419, 0.023155460134148598, -0.0006367751630023122, 0.005036312621086836, -0.015514158643782139, -0.008567520417273045, -0.0026484057307243347, -0.030565207824110985, -0.007988633587956429, -0.01418271940201521, 0.021418800577521324, 0.017945481464266777, 0.007467635907232761, -0.003400958376005292, -0.0006584834191016853, 0.01771392673254013, -0.01644037663936615, -0.004660036414861679, -0.02500789798796177, 0.008625408634543419, -0.026744557544589043, -0.015398381277918816, -0.002561572939157486, -0.01840859092772007, -0.018871700391173363, 0.04932112991809845, 0.011751396581530571, -0.020145250484347343, -0.019450586289167404, -0.015629936009645462, -0.011056732386350632, 0.01782970502972603, -0.012967057526111603, -0.003154931589961052, -0.011925062164664268, 0.014587940648198128, 0.035196300595998764, -0.0006982818595133722, -0.018061259761452675, -0.023271238431334496, 0.048394910991191864, -0.07131882011890411, 0.020145250484347343, 0.018755923956632614, 0.014414274133741856, -0.0296389888972044, -0.024776343256235123, -0.027091888710856438, -0.00914640724658966, 0.012561837211251259, 0.0015919379657134414, 0.005007368512451649, -0.029060102999210358, -0.013140724040567875, 0.009783182293176651, -0.014066942036151886, -0.01221450511366129, 0.05071045830845833, 0.00014110359188634902, -0.020492583513259888, 0.012561837211251259, 0.005846753716468811, -0.025818338617682457, 0.016787709668278694, 0.03890117257833481, 0.005933586973696947, 0.017366595566272736, -0.019334809854626656, -0.030102098360657692, -0.010651512071490288, 0.0013169668382033706, -0.005123145878314972, 0.005991475656628609, 0.004631092306226492, 0.029407434165477753, 0.022113464772701263, -0.007525524590164423, -0.024660564959049225, -0.010825177654623985, -0.008741186000406742, -0.006715083494782448, -0.006715083494782448, 0.013430166989564896, 0.0037917066365480423, -0.009030629880726337, -0.014703717082738876, -0.014124831184744835, 0.007757079321891069, 0.002069519367069006, 0.04445848613977432, -0.025123674422502518, -0.008972740732133389, 0.0053836447186768055, -0.02234501950442791, 0.011288287118077278, 0.037743400782346725, -0.01574571244418621, -0.0003400958376005292, 0.008741186000406742, -0.010014737024903297, 0.0020116306841373444, -0.005615198984742165, -0.027786552906036377, -0.020839914679527283, 0.00020351479179225862, 0.0326492004096508, 0.007641301956027746, -0.002416851231828332, 0.029175881296396255, 0.008335965685546398, 0.005209978669881821, 0.003473319113254547, 0.0004956715856678784, 0.012851281091570854, 0.007872856222093105, 0.02303968369960785, -0.03751184791326523, -0.02095569111406803, 0.002879960462450981, -0.011577730067074299, 0.02222924306988716, 0.029870543628931046, 