{"UUID": "66e29a3f-7d76-437e-afc8-5d2a023494a4", "BM25": {"terms": ["thieme", "e-journals", "arquivos", "de", "neuro-psiquiatria", "abstract", "en", "home", "products", "service", "help", "contact", "portal", "search", "filter", "full-text", "author", "title", "doi", "metadata", "journal", "authors", "funding", "agreements", "impact", "factor", "not", "logged", "in", "skip", "to", "main", "content", "year", "archive", "2025", "2024", "2023", "2022", "2021", "2020", "2019", "2018", "2017", "2016", "fieldsetmissinglegend", "issues", "table", "of", "contents", "current", "issue", "related", "journals", "seminars", "neurology", "neuropediatrics", "international", "epilepsy", "brachial", "plexus", "and", "peripheral", "nerve", "injury", "neuroanaesthesiology", "critical", "care", "books", "subscribe", "rss", "please", "copy", "the", "url", "add", "it", "into", "your", "feed", "reader", "https", "www", "thieme-connect", "10", "1055-s", "00054595", "xml", "share", "bookmark", "facebook", "linkedin", "weibo", "download", "pdf", "cc", "by", "4", "0", "arq", "neuropsiquiatr", "83", "08", "s00451811234", "1055", "s-0045", "1811234", "brazilian", "academy"], "weights": [12.770136774865625, 14.361287157877193, 17.016530982665188, 6.306913021911989, 17.016530982665188, 3.874138999385089, 7.5452425288180445, 3.456519403047335, 5.507632661818193, 4.734378882907669, 3.392817382076129, 3.3774386421745506, 6.619394239022609, 5.902730786563052, 7.356864248479782, 5.613437399424261, 2.4808689662535457, 5.1874131712692835, 2.1366238849295254, 6.239935391750092, 4.759825032786348, 2.564356307314977, 3.6399618658912773, 7.0543277178579595, 2.3818794256645934, 3.173097851789361, 1.5746702880671382, 8.434448762217787, 0.16060908604802449, 4.898373890918553, 0.5068183763321558, 3.5067743069222295, 3.652887586567297, 5.680626738415428, 7.334875444905117, 3.1047859154412167, 1.9270730663727624, 2.0224539265227928, 1.9657182601466594, 2.121626106615135, 2.188794832635514, 2.3589482758914158, 2.5230330091615865, 2.654521857505955, 2.7466918750845166, 8.434448762217787, 3.8436500947587864, 2.569318941432506, 0.1171467302339721, 5.293633441961625, 2.76429051751152, 4.504991943550797, 4.927795465634889, 3.7198364271163804, 6.816022454082434, 4.7900246638801685, 9.01053582455013, 3.413654127855926, 5.474460953250895, 8.054989914945269, 7.0543277178579595, 0.11559236646434029, 4.477651046103716, 6.239935391750092, 3.541566478513889, 9.01053582455013, 3.2846270782250095, 2.1977029104165533, 7.991764137717496, 6.928892253375364, 9.394117622906881, 4.898373890918553, 4.958803887979215, 0.13217787443148885, 6.3768009214748735, 5.474460953250895, 1.8654690932332185, 2.4717094699470317, 3.4456493739929477, 6.177266115158192, 7.195481301354952, 2.3445948139851014, 3.813270970778571, 8.434448762217787, 1.5247807264311437, 8.434448762217787, 9.01053582455013, 5.044769816375472, 4.2686652009553585, 8.434448762217787, 6.007784341246266, 6.619394239022609, 8.434448762217787, 3.47302345539717, 3.6399618658912773, 4.374469938561425, 0.9647135010995014, 1.3303514805696712, 2.1923496244941227, 7.195481301354952, 7.771568363687295, 4.161688680924776, 4.2139089716358065, 8.434448762217787, 6.619394239022609, 8.434448762217787, 8.434448762217787, 6.007784341246266, 4.979688869720671], "k1": 1.5, "b": 0.75, "avgdl": 233.87661016949153, "N": 4425}, "SpladeV3": {"model_id": "naver/splade-v3", "tokens": ["##vos", "journal", "##me", "journals", "th", "##qui", "##ria", "abstract", "##ie", "ar", "psi", "brazilian", "critical", "e", "##uro", "##iq", "metadata", "peripheral", "pdf", "doi", "nerve", "##q", "seminars", "##ex", "xml", "funding", "book", "##psy", "##hes", "##scribe", "##chia", "rs", "books", "ur", "##at", "search", "brazil", "impact", "ne", "portal", "fields", "author", "injuries", "##ile", "authors", "international", "##mark", "related", "##logy", "archive", "##ana", "academy", "bra", "injury", "2020", "##iology", "de", "field", "brain", "##ui", "contact", "facebook", "2016", "current", "linked", "archives", "copy", "##ps", "clinic", "title", "share", "nerves", "seminar", "agreements", "##vo", "year", "cc", "skip", "ep", "##ped", "##trics", "text", "wei", "subscription", "logged", "feed", "contacts", "seizure", "care", "pl", "en", "electronic", "citation", "##est", "french", "agreement", "searching", "download", "##et", "portals", "spanish", "factor", "##bo", "##leg", "##us", "titles", "full", "academies", "published", "105", "2017", "products", "link", "content", "museum", "##logist", "website", "portuguese", "home", "internationally", "contents", "https", "filter", "magazine", "research", "##mes", "issue", "psychology", "institute", "2018", "disease", "abstracts", "product", "taxonomy", "genus", "date", "updated", "workshop", "database", "service", "filters", "##e", "##in", "texts", "argentina", "number", "publishing", "sub", "years", "##45", "##ia", "of", "##anial", "202", "hospital", "help", "##tric", "mexico", "2019", "issues", "numb", "spinal", "links", "vietnamese", "reference", "##ve", "nm", "1813", "##phic", "nervous", "cafe", "medical", "copyright", "www", "##vas", "sage", "literature", "connect", "neuroscience", "wiley", "fund", "portugal", "syndrome", "citing", "log", "brains", "university", "sponsorship", "novel", "funded", "##my", "atlas", "##mer", "copies", "##11", "pages", "mobile", "library", "psychiatrist", "page", "medicine", "##hos", "monograph", "main", "damage", "articles", "##ma", "jorge", "blackwell", "thrust", "awards", "factors", "##xia", "domain", "spine", "##r", "medal", "neurological", "similar", "1811", "membership", "##mi", "2021", "meta", "workshops", "vo", "archived"], "weights": [2.3631751537323, 2.2351889610290527, 2.225921869277954, 2.1790196895599365, 2.103273868560791, 2.02527117729187, 1.8638691902160645, 1.8475772142410278, 1.8383272886276245, 1.830562949180603, 1.777636170387268, 1.7665257453918457, 1.7200427055358887, 1.641528844833374, 1.6358442306518555, 1.624549150466919, 1.615258812904358, 1.5561878681182861, 1.5479321479797363, 1.5403047800064087, 1.4978586435317993, 1.472459316253662, 1.442885398864746, 1.4287654161453247, 1.4260112047195435, 1.4241305589675903, 1.417133092880249, 1.4064725637435913, 1.4028762578964233, 1.3915588855743408, 1.3678885698318481, 1.3561822175979614, 1.350724220275879, 1.3477215766906738, 1.311131477355957, 1.3094233274459839, 1.2820360660552979, 1.2801405191421509, 1.2759071588516235, 1.2748874425888062, 1.2275879383087158, 1.2271112203598022, 1.2258830070495605, 1.2248597145080566, 1.2212035655975342, 1.2194030284881592, 1.206959843635559, 1.190654993057251, 1.1862508058547974, 1.181370735168457, 1.1737602949142456, 1.16592538356781, 1.1565008163452148, 1.153568148612976, 1.1518330574035645, 1.1478132009506226, 1.1410913467407227, 1.0918954610824585, 1.0902326107025146, 1.0836939811706543, 1.0829532146453857, 1.0737149715423584, 1.0486388206481934, 1.0482687950134277, 1.0422346591949463, 1.0377542972564697, 1.0173782110214233, 1.0151972770690918, 1.0115487575531006, 1.0021488666534424, 0.999636709690094, 0.9888802170753479, 0.977863073348999, 0.9623306393623352, 0.9534703493118286, 0.9464467763900757, 0.9364335536956787, 0.9346210956573486, 0.9158756136894226, 0.8980712294578552, 0.8785896897315979, 0.8722187280654907, 0.8589758276939392, 0.8514269590377808, 0.8444991111755371, 0.8435410857200623, 0.842124342918396, 0.8310681581497192, 0.8095546960830688, 0.8084797263145447, 0.7944476008415222, 0.7798098921775818, 0.7776807546615601, 0.776066780090332, 0.7712195515632629, 0.7421899437904358, 0.7407675385475159, 0.7355049252510071, 0.7221540212631226, 0.7104004621505737, 0.7099809646606445, 0.7016281485557556, 0.6943030953407288, 0.6899489164352417, 0.6877642869949341, 0.6828296184539795, 0.6802591681480408, 0.6794289350509644, 0.6732409596443176, 0.67085862159729, 0.663835883140564, 0.6614652872085571, 0.6594874858856201, 0.6454272866249084, 0.6344219446182251, 0.6284033060073853, 0.6268582344055176, 0.6056657433509827, 0.5983536243438721, 0.5959236025810242, 0.582817018032074, 0.5753057599067688, 0.555778980255127, 0.544971227645874, 0.5292335748672485, 0.5271086692810059, 0.5164212584495544, 0.5144147872924805, 0.5126045942306519, 0.5044362545013428, 0.483722448348999, 0.4833676815032959, 0.4813017249107361, 0.4745106101036072, 0.47321540117263794, 0.4396030902862549, 0.4391253590583801, 0.4346998929977417, 0.4158778786659241, 0.4158199429512024, 0.4147654175758362, 0.40981748700141907, 0.40717196464538574, 0.4055667221546173, 0.4018365740776062, 0.39934420585632324, 0.3885023891925812, 0.3876935541629791, 0.3760792315006256, 0.37056446075439453, 0.3511125147342682, 0.3478225767612457, 0.34035801887512207, 0.3357424736022949, 0.3346744775772095, 0.3335946202278137, 0.32634392380714417, 0.3179112672805786, 0.30639317631721497, 0.28805869817733765, 0.28667640686035156, 0.26958924531936646, 0.2565576434135437, 0.2517843544483185, 0.2507953345775604, 0.24788519740104675, 0.2469416856765747, 0.2459072768688202, 0.2305472046136856, 0.22878599166870117, 0.22771494090557098, 0.22050906717777252, 0.215201273560524, 0.21505002677440643, 0.20845432579517365, 0.20066261291503906, 0.19303223490715027, 0.18850699067115784, 0.1835898458957672, 0.18170352280139923, 0.17201778292655945, 0.16873960196971893, 0.16472510993480682, 0.15905681252479553, 0.1500576287508011, 0.1474151909351349, 0.14330700039863586, 0.13988907635211945, 0.13963733613491058, 0.13217318058013916, 0.13116736710071564, 0.1266786754131317, 0.1255970597267151, 0.12084876745939255, 0.11279582232236862, 0.1120419129729271, 0.11201901733875275, 0.10991820693016052, 0.10898831486701965, 0.10741420835256577, 0.10307569056749344, 0.09993243962526321, 0.0810103788971901, 0.07645773887634277, 0.0763307586312294, 0.07246420532464981, 0.062028903514146805, 0.05827713385224342, 0.04306543990969658, 0.04084935039281845, 0.039756059646606445, 0.0365355983376503, 0.03342827036976814, 0.03325602784752846, 0.03306449204683304, 0.02988697960972786, 0.02462249994277954, 0.019173553213477135, 0.014982757158577442, 0.014421091414988041, 0.011945616453886032, 0.010390030220150948, 0.01018543727695942, 0.007398586254566908, 0.006801622919738293, 0.006160540971904993, 0.0051570250652730465]}, "Qwen3-4B": {"model_id": "Qwen/Qwen3-Embedding-4B", "vector": [-0.00045536027755588293, 0.0535280667245388, -0.02307654358446598, 0.03639908507466316, -0.0019478268222883344, 0.06851592659950256, 0.005025690887123346, -0.0015612352872267365, -0.0029886504635214806, 0.0506732352077961, 0.042108744382858276, 0.035209573805332184, 0.009278197772800922, -0.0017842688830569386, 0.013976773247122765, -0.031878937035799026, 0.06066514179110527, -0.025098714977502823, 0.03283054754137993, -0.0036726200487464666, 0.003583406563848257, 0.01879429817199707, 0.03116522915661335, -0.023314446210861206, 0.022362837567925453, 0.00026578170945867896, -0.01819954253733158, -0.051862750202417374, 0.021649129688739777, -0.004014605190604925, 0.02854830212891102, -0.014333626255393028, -0.008267112076282501, 0.005769135896116495, 0.002379025099799037, -0.0012638571206480265, -0.006631532683968544, -0.005917825270444155, 0.03639908507466316, 0.007583142723888159, 0.0037469647359102964, 0.04781840741634369, -0.002155991503968835, 0.006125989835709333, 0.021887032315135002, -0.017010029405355453, -0.004579623695462942, -0.025455569848418236, -0.019745908677577972, -0.0015686696860939264, 0.01480943150818348, 0.005679922644048929, -0.058761920779943466, -0.010824564844369888, 0.030451523140072823, -0.0006914042169228196, 0.003984867129474878, -0.0009255894692614675, 0.0049067395739257336, 0.044249869883060455, 0.00993243046104908, 0.025574520230293274, -0.015225761570036411, -0.031403131783008575, -0.00481752585619688, -0.022719690576195717, 0.016534224152565002, -0.021173324435949326, 0.006988386623561382, 0.009754003025591373, -0.039491817355155945, 0.011716699227690697, 0.009872954338788986, -0.019032200798392296, 0.03402005881071091, -0.017010029405355453, -0.010110856965184212, 0.00963505171239376, 0.014333626255393028, -0.008861868642270565, 0.016415273770689964, -0.02153017744421959, -0.0018288756255060434, 0.039967622607946396, 0.019626958295702934, 0.02200598269701004, 0.01153827179223299, 0.006244941148906946, 0.004549885634332895, 0.007196551188826561, 0.0011523403227329254, -0.0506732352077961, -0.04068133234977722, -0.01879429817199707, -0.002037040190771222, -0.03758859634399414, -0.010229808278381824, -0.0267640333622694, -0.013679394498467445, 0.005382544361054897, -0.02248178794980049, -0.026407180353999138, 0.011240893974900246, 0.007256026845425367, 0.010705613531172276, -0.019626958295702934, -0.003583406563848257, -0.009872954338788986, 0.005114904139190912, -0.016891079023480415, -0.0007880521006882191, -0.013203590176999569, -0.032592643052339554, 0.031878937035799026, 0.000828941585496068, -0.00618546549230814, 0.022719690576195717, -0.007553405128419399, 0.0306894239038229, -0.0035536689683794975, -0.0026317965239286423, 0.02414710633456707, -0.001962695736438036, -0.011300369165837765, 0.002602058695629239, -0.05424177274107933, -0.00802921038120985, -0.00740471575409174, -0.0007062730728648603, 0.009991905651986599, 0.009218722581863403, -0.0209354218095541, 0.005769135896116495, -0.016415273770689964, 0.003806440392509103, 0.013560443185269833, 0.01480943150818348, -0.019626958295702934, -0.02961886301636696, -0.008148160763084888, -0.002973781432956457, -0.005858349613845348, 0.007166813127696514, 0.009159247390925884, -0.02248178794980049, -0.019983811303973198, 0.01427415106445551, -0.0031076015438884497, 0.0306894239038229, -0.006334154400974512, 0.015463663265109062, -0.0038361779879778624, -0.002825092291459441, 0.00862396601587534, 0.019983811303973198, 0.003657751251012087, -0.007731831632554531, 0.013500967994332314, -0.00856449082493782, 0.002706141211092472, 0.0036280134227126837, 0.005739398300647736, -0.060903046280145645, -0.026526130735874176, 0.010051381774246693, 0.01665317639708519, -0.051862750202417374, 0.001583538600243628, -0.014987858943641186, 0.005590709391981363, -0.013679394498467445, -0.010646137408912182, -0.01237093098461628, -0.015463663265109062, -0.0068694353103637695, -0.01290621142834425, -0.024266056716442108, -0.022719690576195717, -0.013322540558874607, 0.038302306085824966, 0.014571528881788254, -0.022243885323405266, -0.018437445163726807, 0.001174643635749817, -0.005888087209314108, 0.009991905651986599, 0.0041632940992712975, 0.026526130735874176, 0.01427415106445551, 0.0009367411839775741, 0.0008029210148379207, 0.031878937035799026, 0.005233855452388525, -0.008683442138135433, 0.014512053690850735, 0.008267112076282501, -0.01665317639708519, 0.015166285447776318, -0.007969734258949757, 0.00038659159326925874, 0.005055428482592106, 0.026050325483083725, 0.01879429817199707, 0.0016801864840090275, -0.020697519183158875, -0.014868907630443573, 0.009872954338788986, -0.019508006051182747, 0.006007038522511721, -0.017366884276270866, 0.02688298374414444, -0.01617737114429474, -0.0160584207624197, -0.047580502927303314, 0.001962695736438036, 0.005233855452388525, -0.019151153042912483, -0.01534471195191145, 0.014393102377653122, 0.02949991263449192, -0.01344149187207222, 0.0025425832718610764, 0.0021262536756694317, 0.021054372191429138, 8.270829857792705e-05, -0.0034793242812156677, 0.012727784924209118, -0.011181418783962727, -0.012549357488751411, -0.0026466655544936657, 0.02307654358446598, 0.02367130108177662, -0.005085166543722153, 0.010765088722109795, -0.0038956536445766687, 0.0037767025642096996, -0.015820518136024475, 0.015582614578306675, -0.0031819462310522795, -0.026169277727603912, 0.0003085298230871558, -0.0160584207624197, -0.014393102377653122, -0.002289811847731471, -0.013560443185269833, 0.007850782945752144, 0.004520148038864136, -0.031878937035799026, -0.01927010342478752, -0.011657223105430603, -0.0267640333622694, 0.009040296077728271, 0.019151153042912483, 0.0017470966558903456, -0.0321168415248394, -0.004609361290931702, -0.007166813127696514, -0.02533661760389805, -0.018913250416517258, 0.026169277727603912, 0.010348759591579437, -0.009218722581863403, -0.007315502502024174, 0.00018957856809720397, -0.0035536689683794975, 0.06708850711584091, 0.033068448305130005, -0.011419320479035378, -0.005531233735382557, 0.0037767025642096996, 0.004520148038864136, -0.024979764595627785, -0.013263065367937088, 0.026050325483083725, 0.003048126120120287, -0.013025162741541862, 0.013084638863801956, -0.014512053690850735, 0.01290621142834425, 0.013619919307529926, -0.0003215401084162295, -0.0034049798268824816, 0.017485834658145905, 0.026526130735874176, -0.027001935988664627, -0.02902410738170147, -0.03116522915661335, 0.007107337936758995, 0.004252507351338863, -0.0036726200487464666, 0.028191449120640755, -0.022719690576195717, -0.014571528881788254, -0.012489882297813892, 0.054479677230119705, -0.004698574542999268, -0.006007038522511721, -0.0024979764129966497, 0.012965687550604343, -0.022124934941530228, 0.004639098886400461, 0.002572320867329836, 0.027120886370539665, 0.01938905566930771, -0.020221713930368423, 0.008267112076282501, 0.0036726200487464666, 0.004371458664536476, -0.013857821933925152, -0.03972972184419632, -0.011181418783962727, 0.019626958295702934, 0.012251979671418667, 0.008207636885344982, 0.002557452069595456, -0.031403131783008575, 0.0077913072891533375, 0.01986486092209816, -0.00963505171239376, 0.009159247390925884, 0.006423368118703365, -0.031403131783008575, -0.027120886370539665, -0.013917297124862671, 0.03116522915661335, -0.002899436978623271, 0.01474995631724596, 0.018913250416517258, -0.005412282422184944, 0.006423368118703365, -0.01100299134850502, 0.02795354649424553, -0.026169277727603912, -0.008505014702677727, 0.01724793203175068, 0.003583406563848257, -0.0005836046184413135, 0.03687489032745361, 0.017961639910936356, 0.00010408234811620787, -0.009516100399196148, 0.019983811303973198, 0.03854020684957504, -0.023790251463651657, 0.01927010342478752, -0.020697519183158875, 0.0013902428327128291, -0.017010029405355453, -0.0004181880212854594, -0.014393102377653122, 0.03116522915661335, -0.017842689529061317, -0.045439381152391434, 0.0022749428171664476, -0.017604786902666092, 0.029262010008096695, 0.008445539511740208, -0.010110856965184212, 0.024503959342837334, -0.012965687550604343, 0.004371458664536476, 0.0011820781510323286, 0.013679394498467445, 0.00909977126866579, -0.02735878899693489, -0.0024979764129966497, -0.0013902428327128291, -0.0013828084338456392, 0.021054372191429138, -0.005233855452388525, -0.007166813127696514, -6.598077743547037e-05, 0.012668308801949024, -0.026050325483083725, 0.0006282113608904183, 0.006155727431178093, -0.012549357488751411, 0.001353070605546236, -0.03711279109120369, -0.0033752419985830784, 0.011121942661702633, 0.007731831632554531, -0.020102763548493385, 0.012787260115146637, -0.02949991263449192, -0.0034347176551818848, -0.014631005004048347, -0.017485834658145905, -0.008683442138135433, 0.008148160763084888, -0.010110856965184212, 0.052338555455207825, -0.010765088722109795, 0.0038956536445766687, -0.031403131783008575, 0.027477741241455078, -0.0069586485624313354, 0.024503959342837334, 0.011359845288097858, -0.0306894239038229, -0.014036248438060284, 0.019626958295702934, -0.005769135896116495, -0.010586662217974663, 0.00862396601587534, -0.022838640958070755, -0.006274678744375706, -0.001769399968907237, 0.016891079023480415, 0.003286028513684869, -0.0267640333622694, 0.007969734258949757, 0.003122470574453473, 0.009575576521456242, -0.05638289824128151, 0.008267112076282501, -0.00036800545058213174, -0.011419320479035378, 0.007493929471820593, -0.005204117391258478, -0.03592327982187271, -0.030927326530218124, 0.025098714977502823, 0.0011820781510323286, -0.021768080070614815, 0.005947562865912914, 0.01819954253733158, 0.03972972184419632, 0.06018933653831482, -0.03711279109120369, 0.004490409977734089, -0.002334418473765254, -0.0011820781510323286, 0.005055428482592106, 0.002364156302064657, 0.02355234883725643, -0.00018028549675364047, 0.006423368118703365, -0.013619919307529926, -0.024028154090046883, -0.045439381152391434, -0.0008029210148379207, 0.006482843775302172, 0.02902410738170147, -0.021887032315135002, -0.023195495828986168, -0.018556395545601845, 0.02902410738170147, 0.04139503836631775, 0.0028399613220244646, 0.00740471575409174, -0.012073553167283535, 0.012073553167283535, -0.006125989835709333, -0.004698574542999268, 0.012965687550604343, 0.02153017744421959, -0.00496621523052454, -0.015106810256838799, 0.010170333087444305, -0.02961886301636696, 0.0036428822204470634, 0.007731831632554531, -0.017842689529061317, -0.031403131783008575, -0.022124934941530228, -0.005679922644048929, -0.00862396601587534, -0.00856449082493782, 0.017961639910936356, -0.05043533444404602, -0.016415273770689964, 0.010408234782516956, -0.01724793203175068, 0.0006319285603240132, 0.012608833611011505, -0.005204117391258478, 0.00019143718236591667, -0.03164103627204895, -0.028667252510786057, 0.009278197772800922, 0.0032116840593516827, -0.02902410738170147, 0.005085166543722153, 0.0060367765836417675, 0.004460672382265329, -0.021768080070614815, 0.01724793203175068, 0.00993243046104908, -0.019151153042912483, 0.019151153042912483, -9.757720545167103e-05, -0.02355234883725643, -0.013738870620727539, 0.006363892462104559, -0.03425796329975128, 0.008148160763084888, -0.024385008960962296, 0.005352806765586138, 0.01237093098461628, -0.013679394498467445, -0.0428224541246891, -0.03449586406350136, 0.013619919307529926, -0.007850782945752144, 0.0049959528259932995, 0.0133820166811347, -0.001286160433664918, -0.011895125731825829, 0.010824564844369888, 0.019151153042912483, -0.005709660239517689, -0.010408234782516956, -0.011121942661702633, -0.003955129534006119, -0.0037469647359102964, -0.009218722581863403, -0.020697519183158875, -0.03283054754137993, -0.010348759591579437, -0.007107337936758995, 0.018080592155456543, -0.0060367765836417675, -0.02153017744421959, -0.04448777064681053, 0.03925391659140587, -0.012549357488751411, 0.03449586406350136, 0.012251979671418667, 0.007850782945752144, 0.026050325483083725, -0.02260073833167553, 0.002141122706234455, 0.006334154400974512, 0.0016132764285430312, 0.001360505004413426, 0.01819954253733158, 0.027477741241455078, 0.0066612702794373035, 0.0041632940992712975, -0.027715643867850304, 0.028072496876120567, 0.008683442138135433, 0.011121942661702633, 0.023790251463651657, -0.0049067395739257336, 0.018437445163726807, -0.02854830212891102, 0.029737815260887146, -0.012430406175553799, 0.02628822810947895, 0.004401196725666523, -0.013976773247122765, -0.01100299134850502, 0.04306035488843918, 0.006809959653764963, -0.03378215804696083, 0.014987858943641186, 0.009397149085998535, 0.013917297124862671, 0.013798345811665058, -0.015166285447776318, 0.020816469565033913, 0.017604786902666092, -0.008445539511740208, 0.0008735483279451728, -0.013203590176999569, 0.005352806765586138, -0.044249869883060455, -0.04234664887189865, -0.009694527834653854, -0.002572320867329836, -0.003806440392509103, 0.016296321526169777, 0.014393102377653122, -0.008445539511740208, -0.01183565054088831, 0.01427415106445551, -0.006750483997166157, 0.02045961655676365, 0.016891079023480415, 0.02248178794980049, 0.045915186405181885, -0.030451523140072823, -0.006066514179110527, -0.04401196539402008, -0.015939468517899513, -0.006274678744375706, 0.012668308801949024, 0.012251979671418667, -0.0009664789540693164, -0.013203590176999569, -0.012965687550604343, 0.01772373728454113, 0.011895125731825829, 0.0013456360902637243, 0.005590709391981363, 0.0011002991814166307, -0.020578566938638687, -0.018080592155456543, 0.057810310274362564, 0.0029589126352220774, -0.01665317639708519, -0.028191449120640755, 0.002349287271499634, -0.02688298374414444, 0.02997571788728237, 0.027239838615059853, 0.015701565891504288, 0.019745908677577972, 0.002825092291459441, 0.008683442138135433, -0.005858349613845348, 0.012251979671418667, -0.012608833611011505, 0.02474186196923256, -0.03806440159678459, 0.02961886301636696, -0.015463663265109062, 0.016772126778960228, -0.012489882297813892, -0.017485834658145905, 0.039491817355155945, 0.03283054754137993, -0.004103818442672491, 0.00740471575409174, -0.00802921038120985, -0.04139503836631775, -0.003494193311780691, 0.0009887823835015297, -0.012430406175553799, -0.00020258886797819287, 0.011300369165837765, -0.004371458664536476, -0.03592327982187271, -0.02367130108177662, -0.07755622267723083, 0.027596691623330116, 0.0035685377661138773, 0.029856765642762184, -0.008861868642270565, 0.02260073833167553, 0.010586662217974663, 0.01724793203175068, -0.005204117391258478, 0.008742917329072952, 0.0060367765836417675, -0.009278197772800922, -0.003122470574453473, 0.023314446210861206, 0.013144114054739475, 0.02854830212891102, -0.013976773247122765, 0.03009466826915741, -0.006423368118703365, -0.0028845679480582476, 0.024028154090046883, -0.021292274817824364, -0.00862396601587534, -0.007464191410690546, -0.01153827179223299, -0.021649129688739777, -0.03497166931629181, 0.03806440159678459, 0.0013233327772468328, 0.03164103627204895, 0.005055428482592106, -0.015939468517899513, -0.03639908507466316, -0.037826500833034515, -0.018675347790122032, 0.009337673895061016, 0.015701565891504288, -0.0058286115527153015, 0.003955129534006119, 0.03449586406350136, 0.01237093098461628, 0.016534224152565002, 0.011419320479035378, -0.013560443185269833, -0.03116522915661335, 0.013084638863801956, 0.022124934941530228, -0.02628822810947895, 0.004341721069067717, -0.01100299134850502, -0.020816469565033913, 0.01534471195191145, -0.06804011762142181, 0.00013196155487094074, 0.0160584207624197, -0.01284673623740673, -0.012133028358221054, -0.0026317965239286423, 0.02961886301636696, 0.02034066617488861, -0.012489882297813892, 0.01665317639708519, -0.032592643052339554, -0.024028154090046883, 0.021173324435949326, -0.006899172905832529, 0.014452577568590641, -0.03473376855254173, 0.023314446210861206, -0.0321168415248394, 0.04139503836631775, -0.012073553167283535, 0.011895125731825829, 0.007018124219030142, -0.02045961655676365, 0.003241421887651086, -0.01534471195191145, 0.0209354218095541, -0.007672355975955725, -0.0036280134227126837, -0.022719690576195717, 0.00862396601587534, 0.010527186095714569, -0.03544747456908226, -0.017604786902666092, 0.021054372191429138, -0.03806440159678459, 0.006363892462104559, 0.0160584207624197, 0.0038659158162772655, -0.02997571788728237, 0.0019180889939889312, -0.03164103627204895, 0.007285764440894127, 0.04995952919125557, -0.00963505171239376, 0.02248178794980049, 0.014333626255393028, 0.0012935949489474297, -0.002260074019432068, 0.004222769755870104, 0.023433398455381393, -0.026645081117749214, 0.019626958295702934, -0.024028154090046883, -0.04139503836631775, -0.012251979671418667, -0.00248310761526227, -0.029380960389971733, -0.0306894239038229, -0.043774064630270004, -0.014987858943641186, 0.007047862280160189, -0.024385008960962296, -0.004579623695462942, 0.0011151680955663323, 0.025455569848418236, -0.016415273770689964, -0.018913250416517258, -0.018675347790122032, 0.007731831632554531, -0.0016727520851418376, 0.006096252240240574, 0.0016430142568424344, -0.03330635279417038, -0.013619919307529926, -0.0005984735325910151, 0.008742917329072952, -0.032592643052339554, 0.003657751251012087, 0.04020552709698677, -0.0077913072891533375, -0.010824564844369888, -0.014571528881788254, -0.029856765642762184, -0.018080592155456543, 0.022243885323405266, -0.02260073833167553, 0.03687489032745361, 0.01284673623740673, -0.04615308716893196, -0.02153017744421959, 0.01772373728454113, -0.0054717580787837505, -0.03972972184419632, -0.02795354649424553, -0.047580502927303314, 0.02842935174703598, -0.00909977126866579, 0.003122470574453473, -0.01879429817199707, 0.0007062730728648603, 0.024979764595627785, 0.010705613531172276, 0.03806440159678459, 0.010051381774246693, -0.021054372191429138, 0.005679922644048929, 0.0011002991814166307, -0.00802921038120985, 0.019032200798392296, 0.01986486092209816, -0.0321168415248394, 0.01879429817199707, 0.018556395545601845, 0.0015017596306279302, 0.0267640333622694, 0.0535280667245388, -0.03378215804696083, 0.020697519183158875, 0.004103818442672491, 0.016772126778960228, -0.021054372191429138, 0.009872954338788986, -0.008861868642270565, -0.029737815260887146, -0.03711279109120369, 0.008207636885344982, -0.02569347247481346, 0.0029886504635214806, 0.052814360707998276, -0.013738870620727539, -0.0005389978759922087, 0.0060367765836417675, 0.021768080070614815, 0.05091113969683647, 0.011181418783962727, 0.017366884276270866, -0.020221713930368423, 0.032592643052339554, 0.0017024899134412408, 0.014690480194985867, 0.004074080381542444, -0.010884040035307407, 0.0066017950884997845, -0.0033008975442498922, -0.015106810256838799, 0.002155991503968835, 0.018675347790122032, 0.001434849575161934, 0.006482843775302172, -0.03425796329975128, 0.004133556038141251, -0.03639908507466316, -0.010884040035307407, -0.014036248438060284, 0.008326588198542595, -0.020578566938638687, 0.005293331108987331, 0.027001935988664627, 0.009159247390925884, 0.006125989835709333, -0.01724793203175068, 0.01237093098461628, 0.0005613012472167611, 0.030213620513677597, 0.019983811303973198, 0.01938905566930771, -0.003345504170283675, 0.018556395545601845, 0.01879429817199707, 0.0321168415248394, 0.00368748907931149, -0.025455569848418236, 0.015701565891504288, -0.017961639910936356, 0.012133028358221054, -0.030927326530218124, 0.010110856965184212, 0.013619919307529926, -5.808167043142021e-05, -0.04020552709698677, 0.019626958295702934, -0.00370235787704587, 0.039491817355155945, 0.002155991503968835, 0.02569347247481346, 0.021292274817824364, 0.020221713930368423, 0.008802393451333046, -0.007612880785018206, -0.018080592155456543, -0.022719690576195717, 0.006572057027369738, 0.021649129688739777, -0.022838640958070755, 0.022124934941530228, -0.01617737114429474, 0.010051381774246693, -0.00248310761526227, -0.02034066617488861, 0.0009962167823687196, -0.039016012102365494, 0.0008549621561542153, -0.024028154090046883, -0.0007434453582391143, -0.0018883512821048498, 0.04353616014122963, -0.00862396601587534, -0.00856449082493782, 0.007553405128419399, -0.03164103627204895, 0.013738870620727539, -0.03235474228858948, -0.0020073025953024626, 0.023909203708171844, -0.02141122706234455, -0.0030183882918208838, 0.020697519183158875, -0.0024236319586634636, -0.0013828084338456392, -0.013025162741541862, 0.014155199751257896, -0.04567728191614151, -0.035209573805332184, 0.011478796601295471, 0.014928382821381092, 0.014631005004048347, -0.031878937035799026, 0.016534224152565002, -0.03473376855254173, -0.007850782945752144, -0.00909977126866579, 0.008386063389480114, 0.01665317639708519, 0.008445539511740208, -5.854632399859838e-05, -0.0009887823835015297, 0.012073553167283535, 0.0026466655544936657, -0.005323068704456091, -0.00963505171239376, 0.005382544361054897, 0.011657223105430603, 0.00963505171239376, 0.019626958295702934, 0.011240893974900246, -0.0034049798268824816, -0.009337673895061016, -0.0005687357042916119, 0.013679394498467445, 0.0015017596306279302, 0.02141122706234455, -0.000791769300121814, -0.01534471195191145, -0.011062467470765114, -0.025931375101208687, -0.006334154400974512, 0.0054717580787837505, -0.03164103627204895, 0.013144114054739475, 0.006928910966962576, -0.01879429817199707, -0.0028399613220244646, 0.005174379795789719, -0.02248178794980049, -0.007196551188826561, -0.025098714977502823, 0.022838640958070755, -0.021173324435949326, 0.013203590176999569, 0.009337673895061016, 0.00020444748224690557, 0.03592327982187271, 0.007731831632554531, 0.02153017744421959, -0.009516100399196148, -0.021054372191429138, -0.002260074019432068, -0.013619919307529926, -0.004044342786073685, -0.016891079023480415, 0.018080592155456543, 0.01938905566930771, 0.007523667067289352, -0.0035685377661138773, 0.010705613531172276, 0.013679394498467445, 0.007969734258949757, 0.012073553167283535, 0.022124934941530228, 0.030927326530218124, 0.024622909724712372, -0.005412282422184944, 0.011716699227690697, -0.01665317639708519, 0.014690480194985867, -0.01724793203175068, -0.02949991263449192, -0.015463663265109062, -0.002185729332268238, -0.024979764595627785, 0.023790251463651657, 0.012192504480481148, -0.026169277727603912, 0.0036428822204470634, 0.0044309343211352825, 0.015463663265109062, -0.005709660239517689, -0.005144641734659672, -0.002557452069595456, 0.015166285447776318, -0.007018124219030142, 0.012608833611011505, -0.025931375101208687, 0.0623304583132267, 0.001286160433664918, -0.013203590176999569, 0.0209354218095541, -0.01938905566930771, 0.01480943150818348, 0.04068133234977722, 0.014690480194985867, 0.013025162741541862, -0.016415273770689964, -0.01480943150818348, 0.00669100834056735, -0.02307654358446598, -0.045915186405181885, -0.014333626255393028, -0.016415273770689964, 0.001278726034797728, -0.009991905651986599, -0.022838640958070755, -0.02045961655676365, -0.024028154090046883, 0.020816469565033913, -0.0054717580787837505, 0.005025690887123346, 0.0016504487721249461, -0.011419320479035378, 0.01237093098461628, -0.0019180889939889312, 0.006899172905832529, -0.007493929471820593, -0.010110856965184212, -0.005233855452388525, 0.015106810256838799, -0.006809959653764963, -0.025574520230293274, 0.0020221713930368423, -0.042108744382858276, 0.016296321526169777, -0.023433398455381393, 0.008742917329072952, 0.00309273274615407, 0.011478796601295471, 0.0010110856965184212, 0.015582614578306675, -0.006631532683968544, 0.022719690576195717, 0.0024236319586634636, -0.011716699227690697, 0.013976773247122765, 0.02367130108177662, 0.018080592155456543, 0.003955129534006119, 0.014095724560320377, -0.025098714977502823, -0.002111384877935052, 0.03473376855254173, -0.007850782945752144, 0.01290621142834425, 0.01665317639708519, 0.010408234782516956, -0.020102763548493385, -0.02533661760389805, -0.015166285447776318, 0.013263065367937088, -0.003315766341984272, -0.0027656168676912785, -0.0209354218095541, -0.0033752419985830784, 0.007047862280160189, -0.0258124228566885, 0.029737815260887146, -0.026407180353999138, -0.02153017744421959, 0.018675347790122032, -0.014036248438060284, 0.014333626255393028, -0.024860812351107597, -0.020578566938638687, -0.011716699227690697, -0.03235474228858948, -0.027596691623330116, -0.004371458664536476, -0.006334154400974512, 0.017010029405355453, 0.0032116840593516827, 0.007583142723888159, 0.017010029405355453, -0.0321168415248394, 0.021768080070614815, 0.009991905651986599, -0.02141122706234455, -0.00808868557214737, -0.03283054754137993, -0.00550149567425251, 0.014036248438060284, -0.01831849478185177, -0.008386063389480114, -0.0007843348430469632, -0.00018028549675364047, 0.007553405128419399, -0.019508006051182747, 0.009040296077728271, 0.0008066382142715156, -0.04020552709698677, 0.02248178794980049, -0.014036248438060284, -0.012608833611011505, 0.010527186095714569, 0.012251979671418667, -0.019508006051182747, 0.024503959342837334, -0.00038659159326925874, 0.0009664789540693164, 0.009991905651986599, -0.0024682385846972466, 0.0060367765836417675, 0.0133820166811347, -0.030332570895552635, -0.036161184310913086, 0.0002750747953541577, -0.009694527834653854, -0.011240893974900246, 0.02902410738170147, 0.014155199751257896, -0.024860812351107597, 0.0006059079896658659, 0.01724793203175068, 0.02153017744421959, 0.019151153042912483, 0.013025162741541862, 0.033544253557920456, 0.0019329579081386328, 0.004222769755870104, 0.008802393451333046, 0.0049067395739257336, 0.015166285447776318, 0.026526130735874176, 0.04139503836631775, -0.02141122706234455, 0.01712898164987564, -0.010289283469319344, 0.013798345811665058, 0.010110856965184212, 0.005531233735382557, -0.0030332570895552635, -0.027715643867850304, 0.028667252510786057, -0.0028845679480582476, 0.013263065367937088, 0.024028154090046883, 0.031403131783008575, -0.012549357488751411, 0.015939468517899513, 0.019626958295702934, -0.004698574542999268, -0.0026169277261942625, 0.022957593202590942, -0.0060367765836417675, -0.026169277727603912, 0.004460672382265329, 0.017485834658145905, 0.005293331108987331, 0.0032265528570860624, -0.04329825937747955, -0.006899172905832529, -0.0006988386739976704, 0.015939468517899513, -0.045915186405181885, -0.018913250416517258, -0.027715643867850304, -0.03687489032745361, 0.037826500833034515, 0.012251979671418667, 0.01772373728454113, 0.027715643867850304, 0.020578566938638687, -0.0003122470516245812, -0.022362837567925453, 0.001174643635749817, -0.004579623695462942, -0.014690480194985867, 0.015820518136024475, -0.017961639910936356, 0.01427415106445551, -0.03235474228858948, -0.010527186095714569, 0.00740471575409174, 0.007672355975955725, -0.024979764595627785, 0.007047862280160189, -0.007553405128419399, -0.00481752585619688, 0.007345240097492933, 0.02569347247481346, -0.017842689529061317, 0.06375787407159805, 0.005085166543722153, -0.03473376855254173, -0.016891079023480415, -0.01474995631724596, -0.008742917329072952, 0.03687489032745361, -0.007910259068012238, -0.03877811133861542, -0.013084638863801956, -0.006007038522511721, 0.00856449082493782, -0.006482843775302172, 0.02533661760389805, 0.0209354218095541, 0.006809959653764963, -0.03116522915661335, 0.016415273770689964, 0.0024385007563978434, 0.004549885634332895, 0.03663698956370354, -0.041632939130067825, -0.03806440159678459, -0.01421467587351799, -0.03164103627204895, 0.048056308180093765, -0.025574520230293274, -0.014928382821381092, -0.016534224152565002, -0.042108744382858276, 0.02854830212891102, -0.01421467587351799, -0.00029551953775808215, 0.005144641734659672, -0.0012118159793317318, 0.0063044168055057526, 0.022838640958070755, 0.027715643867850304, -0.00481752585619688, -0.020221713930368423, -0.03925391659140587, -0.005739398300647736, 0.01100299134850502, -0.001472021802328527, -0.010705613531172276, -0.02248178794980049, -0.011181418783962727, 0.007137075532227755, 0.007256026845425367, -0.026645081117749214, -0.035685379058122635, 0.0017619655700400472, -0.007315502502024174, -0.009456625208258629, -0.023790251463651657, 0.0258124228566885, 0.006542319431900978, -0.0022749428171664476, -0.02688298374414444, 0.00035313653643243015, 0.026526130735874176, -0.016296321526169777, 0.0038659158162772655, 0.054479677230119705, 0.016296321526169777, 0.00862396601587534, 0.018437445163726807, -0.009337673895061016, -0.008386063389480114, -0.0030629949178546667, 0.05804821476340294, -0.012133028358221054, -0.02902410738170147, -0.009813479147851467, 0.014452577568590641, 0.005739398300647736, -0.02628822810947895, -0.027596691623330116, 0.030451523140072823, 0.011062467470765114, -0.016891079023480415, 0.005769135896116495, -0.013500967994332314, -0.0017842688830569386, 0.019508006051182747, 0.01617737114429474, -0.010051381774246693, -0.024622909724712372, -0.01724793203175068, 0.0032265528570860624, -0.03378215804696083, -0.0008623966132290661, 0.014631005004048347, -0.025455569848418236, -0.006215203087776899, 0.016772126778960228, -0.008921344764530659, -0.016296321526169777, -0.030451523140072823, -0.017010029405355453, -0.012192504480481148, 0.004847263917326927, -0.0008512449567206204, 0.006215203087776899, 0.029380960389971733, 0.025574520230293274, -0.02569347247481346, 0.007077599875628948, -0.020816469565033913, -0.013144114054739475, 0.0209354218095541, 0.004401196725666523, 0.021054372191429138, 0.0030332570895552635, -0.003286028513684869, -0.0058286115527153015, 0.012133028358221054, 0.0049067395739257336, -0.011419320479035378, -0.02367130108177662, 0.007523667067289352, -0.015225761570036411, -0.02474186196923256, 0.017366884276270866, 0.006780221592634916, 0.011597747914493084, 0.015820518136024475, 0.003984867129474878, 0.03164103627204895, -0.010110856965184212, -0.008386063389480114, 0.0002676403382793069, 0.021173324435949326, -0.00011384006938897073, 0.03925391659140587, 0.024503959342837334, 0.001583538600243628, 0.020816469565033913, -0.010884040035307407, -0.02521766722202301, 0.007672355975955725, 0.024028154090046883, 0.04448777064681053, 0.013738870620727539, -0.028786204755306244, -0.03806440159678459, -0.0014199806610122323, 0.008861868642270565, -0.003509062109515071, 0.01819954253733158, 0.009516100399196148, 0.02200598269701004, -0.017010029405355453, -0.030213620513677597, -0.020816469565033913, -0.0035239311400800943, -0.03663698956370354, -0.018675347790122032, -0.006096252240240574, -6.691008456982672e-05, -0.006750483997166157, -0.017842689529061317, 0.006542319431900978, -0.031403131783008575, -0.009337673895061016, -0.054003871977329254, 0.02141122706234455, 0.039491817355155945, 0.0038659158162772655, -0.003286028513684869, 0.012251979671418667, 0.015939468517899513, -0.027596691623330116, -0.015582614578306675, 0.03330635279417038, 0.023195495828986168, -0.004074080381542444, 0.003271159715950489, 0.050197429955005646, -0.019983811303973198, -0.015701565891504288, 0.004520148038864136, -0.0044309343211352825, 0.009397149085998535, -0.00046837059198878706, -0.033544253557920456, 0.00496621523052454, 0.010646137408912182, 0.033544253557920456, 0.02628822810947895, 0.000565018504858017, 0.004341721069067717, 0.0020965158473700285, 0.02842935174703598, 0.01879429817199707, -0.0017173588275909424, -0.013084638863801956, 0.018437445163726807, -0.027239838615059853, -0.030927326530218124, 0.014512053690850735, 0.050197429955005646, 0.02367130108177662, 0.0038659158162772655, 0.0026466655544936657, 0.0007137075299397111, -0.013322540558874607, -0.01421467587351799, -0.00737497815862298, -0.009397149085998535, 0.007523667067289352, -0.004668836947530508, -0.005917825270444155, 0.001472021802328527, -0.03473376855254173, 0.011181418783962727, 0.00993243046104908, -0.014571528881788254, 0.016296321526169777, -0.007196551188826561, -0.002260074019432068, -0.00368748907931149, 0.01831849478185177, 0.007553405128419399, 0.015820518136024475, -0.02688298374414444, -0.020816469565033913, -0.030213620513677597, 0.005323068704456091, 0.010705613531172276, 0.002944043604657054, -0.02045961655676365, -0.024028154090046883, -0.007345240097492933, -0.05804821476340294, -0.021649129688739777, -0.006750483997166157, -0.002944043604657054, -0.015463663265109062, 0.02842935174703598, 0.010110856965184212, -0.005620446987450123, 0.027596691623330116, 0.023790251463651657, -0.020102763548493385, 0.00012824432633351535, 0.004222769755870104, 0.016891079023480415, 0.00669100834056735, -0.001130037009716034, 0.0025425832718610764, 0.005085166543722153, -0.006542319431900978, 0.0028845679480582476, -0.014690480194985867, -0.03283054754137993, 0.009754003025591373, 0.005055428482592106, -0.009694527834653854, 0.004758050199598074, 0.0018214411102235317, 0.0018214411102235317, 0.02200598269701004, -0.021173324435949326, -0.0009739134111441672, 0.0001198805621243082, -0.004133556038141251, 0.022838640958070755, 0.03687489032745361, -0.004936477169394493, 0.008742917329072952, -0.0020965158473700285, 0.025455569848418236, -0.007285764440894127, 0.02355234883725643, -0.0032562906853854656, -0.00618546549230814, -0.015166285447776318, -0.009872954338788986, 0.0037469647359102964, 0.022838640958070755, 0.017010029405355453, 0.00047208782052621245, -0.025098714977502823, 0.02414710633456707, 0.02842935174703598, 0.014095724560320377, 0.032592643052339554, -0.020697519183158875, 0.004758050199598074, 0.00740471575409174, -0.027834594249725342, 0.010527186095714569, 0.0321168415248394, 0.015820518136024475, 0.01665317639708519, 0.0005761701613664627, -0.020816469565033913, -0.01480943150818348, -0.005947562865912914, 0.0006542319315485656, -0.0004795222484972328, -0.0018363100243732333, -0.027477741241455078, 0.008326588198542595, 0.010110856965184212, -0.005917825270444155, -0.006096252240240574, 0.03473376855254173, -0.020816469565033913, -0.005204117391258478, 0.02961886301636696, 0.0031968150287866592, 0.015463663265109062, -0.0024385007563978434, 0.0008215071284212172, 0.023909203708171844, -0.010943516157567501, -0.007047862280160189, 0.03925391659140587, -0.002379025099799037, 0.006482843775302172, -0.03592327982187271, -0.006482843775302172, -0.004401196725666523, 0.04448777064681053, 0.0010408235248178244, 0.004668836947530508, -0.010586662217974663, 0.007493929471820593, 0.015225761570036411, -0.02569347247481346, -0.021292274817824364, -0.003538799937814474, 0.03009466826915741, -0.019983811303973198, 0.027834594249725342, 0.019983811303973198, 0.024266056716442108, 0.03402005881071091, 0.006839697249233723, 0.026526130735874176, 0.026407180353999138, -0.025098714977502823, 0.0041632940992712975, 0.03330635279417038, 0.006780221592634916, -0.01427415106445551, -0.014333626255393028, -0.009872954338788986, 0.0020816470496356487, 0.01480943150818348, 0.03639908507466316, 0.017604786902666092, 0.028191449120640755, 0.0006579491309821606, 0.015166285447776318, -0.03758859634399414, -0.0321168415248394, 0.05305226147174835, 0.0306894239038229, 2.9737815566477366e-05, 0.01819954253733158, 0.003925391472876072, 0.03330635279417038, 0.05543128773570061, -0.019626958295702934, -0.004520148038864136, 0.019983811303973198, -0.02367130108177662, 0.022838640958070755, 0.0028548301197588444, 0.001851178938522935, 0.011657223105430603, -0.013679394498467445, -0.02200598269701004, 0.0004107535642106086, -0.02260073833167553, -0.014036248438060284, -0.007910259068012238, 0.013203590176999569, -0.0321168415248394, -0.022243885323405266, 0.03425796329975128, 0.01617737114429474, 0.006542319431900978, 0.01831849478185177, 0.011300369165837765, 0.014690480194985867, 0.011300369165837765, 0.003761833533644676, 0.02260073833167553, -0.0038361779879778624, -0.011419320479035378, 0.024622909724712372, 0.02569347247481346, 0.03449586406350136, -0.010705613531172276, 0.007969734258949757, -0.01879429817199707, -0.01665317639708519, 0.020102763548493385, -0.003806440392509103, 0.03009466826915741, -0.025931375101208687, -0.005352806765586138, -0.05543128773570061, 0.009397149085998535, -0.027715643867850304, -0.005650184582918882, -0.0306894239038229, 0.001620710943825543, 0.04234664887189865, 0.008505014702677727, 0.0024236319586634636, -0.02141122706234455, -0.05091113969683647, 0.01665317639708519, -0.006750483997166157, -0.054479677230119705, 0.003464455483481288, 0.027001935988664627, -0.037826500833034515, -0.0034049798268824816, -0.0017470966558903456, 0.0049067395739257336, -0.0007731831865385175, -0.041157133877277374, 0.02688298374414444, -0.012965687550604343, 0.0160584207624197, 0.005055428482592106, -0.006780221592634916, -0.03116522915661335, 0.046390991657972336, -0.015047334134578705, -0.0321168415248394, -0.0001449718402000144, -0.013322540558874607, -0.014512053690850735, 0.00550149567425251, 0.008861868642270565, 0.017604786902666092, -0.0321168415248394, 0.01290621142834425, -0.01772373728454113, 0.013679394498467445, -0.02569347247481346, -0.015225761570036411, -0.023314446210861206, -0.007672355975955725, 0.01772373728454113, 0.028667252510786057, -0.04877001792192459, 0.019508006051182747, 0.05043533444404602, 0.022719690576195717, -0.0030332570895552635, -0.0002035181678365916, 0.030332570895552635, 0.010527186095714569, 0.023433398455381393, -0.008267112076282501, 0.0033008975442498922, 0.024385008960962296, -0.017961639910936356, 0.02795354649424553, -0.013203590176999569, 0.0007099903305061162, -0.005620446987450123, 0.037826500833034515, -0.020697519183158875, -0.02569347247481346, 0.011895125731825829, -0.01665317639708519, -0.048056308180093765, 0.0012564227217808366, 0.005174379795789719, -0.0025871898978948593, -0.025931375101208687, -0.0037172269076108932, 0.0027804856654256582, -0.0032116840593516827, -0.022957593202590942, -0.02307654358446598, -0.019508006051182747, 0.04139503836631775, 0.016891079023480415, 0.0017619655700400472, -0.04068133234977722, 0.001434849575161934, 0.004549885634332895, -0.011776174418628216, 0.00011476937652332708, -0.011300369165837765, -0.0160584207624197, -0.02034066617488861, 0.006572057027369738, 0.00550149567425251, -0.003137339372187853, 0.009337673895061016, 0.012489882297813892, -0.006155727431178093, 0.017604786902666092, 0.02153017744421959, -0.006363892462104559, 0.015939468517899513, -0.00856449082493782, -0.0003122470516245812, -0.002527714241296053, -0.011181418783962727, -0.01284673623740673, -0.001130037009716034, -0.012430406175553799, -0.020816469565033913, -0.010289283469319344, 0.0028548301197588444, -0.017842689529061317, 0.009991905651986599, -0.008386063389480114, 0.0014422839740291238, -0.02141122706234455, -0.021649129688739777, 0.026645081117749214, -0.008802393451333046, 0.05329016223549843, -0.005174379795789719, 0.013560443185269833, 0.004044342786073685, 0.011062467470765114, 0.0014868907164782286, 0.03877811133861542, -0.006482843775302172, 0.028072496876120567, -0.00963505171239376, 0.015939468517899513, 0.002512845443561673, 0.007850782945752144, -0.014987858943641186, -0.0025871898978948593, -0.0038956536445766687, -0.018913250416517258, -0.013203590176999569, -0.005412282422184944, -0.018675347790122032, 0.016296321526169777, -0.02034066617488861, -0.0010036512976512313, 0.006453105714172125, -0.02141122706234455, -0.001174643635749817, 0.02141122706234455, -0.00018400272529106587, -0.0012564227217808366, -0.0036131443921476603, -0.014095724560320377, -0.04306035488843918, 0.022124934941530228, -0.016891079023480415, 0.014036248438060284, -0.011895125731825829, 0.023790251463651657, 0.016534224152565002, 0.01927010342478752, 0.01534471195191145, 0.0013158982619643211, 0.02260073833167553, -0.015701565891504288, -0.03116522915661335, 0.0044309343211352825, -0.005739398300647736, 0.017842689529061317, -0.0049959528259932995, -0.01986486092209816, 0.008505014702677727, -0.012430406175553799, -0.01665317639708519, 0.02842935174703598, -0.00370235787704587, -0.003494193311780691, -0.0160584207624197, 0.025574520230293274, 0.01427415106445551, 0.0012489882064983249, 0.007969734258949757, -0.013976773247122765, -0.051862750202417374, -0.012192504480481148, -0.010765088722109795, -0.0033008975442498922, 0.0032562906853854656, 0.0009590444969944656, 0.03592327982187271, 0.010527186095714569, -0.028310399502515793, -0.0020667780190706253, -0.01665317639708519, -0.0306894239038229, 0.0006505146739073098, 0.0002713575668167323, 0.018080592155456543, -0.008386063389480114, -0.012192504480481148, 0.006453105714172125, -0.002572320867329836, -0.0019180889939889312, 0.019626958295702934, -0.0306894239038229, 0.017366884276270866, 0.0012935949489474297, -0.022838640958070755, -0.0038659158162772655, -0.010824564844369888, -0.030213620513677597, 0.008980819955468178, -0.004787788260728121, 0.006899172905832529, 0.005917825270444155, -0.0016801864840090275, -0.015582614578306675, -0.013917297124862671, -0.026526130735874176, -0.005293331108987331, -0.01831849478185177, -0.021887032315135002, -0.004074080381542444, 0.00040146050741896033, 0.002750747837126255, 0.0007248592446558177, -0.0004795222484972328, 0.0006170596461743116, -0.001992433564737439, -0.024385008960962296, 0.022124934941530228, -0.01927010342478752, 0.005323068704456091, -0.03639908507466316, 0.008326588198542595, -0.009754003025591373, 0.0133820166811347, -0.014690480194985867, -0.03116522915661335, 0.021887032315135002, 0.008802393451333046, 0.0258124228566885, -0.0049067395739257336, -0.0015314974589273334, -0.00019050788250751793, -0.012965687550604343, 0.005174379795789719, -0.0033306351397186518, 0.011716699227690697, 0.006423368118703365, 0.022243885323405266, 0.016415273770689964, 0.00672074593603611, -0.006066514179110527, -0.003538799937814474, 0.002141122706234455, 0.009754003025591373, 0.013263065367937088, -0.0077913072891533375, -0.00808868557214737, -0.02854830212891102, 0.0036280134227126837, -0.03425796329975128, -0.03235474228858948, 0.02628822810947895, 0.0013233327772468328, -0.02355234883725643, -0.012668308801949024, 0.008980819955468178, -0.04781840741634369, 0.014333626255393028, -0.020578566938638687, -0.02521766722202301, -0.01290621142834425, -0.012787260115146637, -0.01100299134850502, 0.0060367765836417675, 0.0418708436191082, 0.007077599875628948, 0.031878937035799026, 0.007672355975955725, 0.012668308801949024, 0.008921344764530659, -0.0037767025642096996, 0.010289283469319344, 0.0041632940992712975, 0.016891079023480415, 0.030927326530218124, 0.028072496876120567, -0.02200598269701004, -0.008326588198542595, 0.013679394498467445, -0.014690480194985867, 0.012489882297813892, -0.00017749758262652904, -0.021768080070614815, 0.028786204755306244, 0.017604786902666092, 0.02961886301636696, 0.025098714977502823, 0.023909203708171844, -0.010646137408912182, -0.004490409977734089, 0.006750483997166157, 0.0019478268222883344, 0.016296321526169777, 0.026526130735874176, -0.015939468517899513, 0.0019329579081386328, -0.0027953546959906816, -0.0012638571206480265, 0.0005538667901419103, 0.0011077335802838206, -0.03497166931629181, -0.0066612702794373035, -0.002037040190771222, 0.02474186196923256, -0.01831849478185177, -0.0006282113608904183, 0.024266056716442108, -0.013322540558874607, 0.013917297124862671, -0.016772126778960228, 0.016415273770689964, 0.0015240630600601435, 0.02367130108177662, 0.005977300927042961, -0.004371458664536476, -0.014571528881788254, -0.012192504480481148, -0.004252507351338863, -0.008980819955468178, 0.007018124219030142, -0.008980819955468178, -0.013263065367937088, 0.004044342786073685, 0.009694527834653854, -0.021887032315135002, 0.0063044168055057526, -0.0024236319586634636, 0.006155727431178093, -0.0133820166811347, 0.044249869883060455, -0.013798345811665058, -0.03402005881071091, 0.01831849478185177, -0.01772373728454113, 0.02355234883725643, -0.02795354649424553, 0.020697519183158875, -0.011181418783962727, -0.01153827179223299, -0.019745908677577972, 0.006572057027369738, 0.0008215071284212172, -0.005739398300647736, -0.0010854302672669291, -0.017010029405355453, -0.0133820166811347, -0.01665317639708519, 0.0133820166811347, 0.011954601854085922, 0.026645081117749214, -0.020578566938638687, -0.020697519183158875, -0.03283054754137993, 0.01284673623740673, 0.011359845288097858, -0.026526130735874176, -0.004698574542999268, 0.0321168415248394, 0.0209354218095541, 0.019508006051182747, -0.0068694353103637695, -0.004877001512795687, 0.00240876292809844, 0.0006356458179652691, 0.025455569848418236, 0.017366884276270866, 0.022243885323405266, -0.021768080070614815, -0.0003587123937904835, -0.004787788260728121, -0.04044342786073685, 0.004698574542999268, 0.0004795222484972328, -0.03497166931629181, 0.025098714977502823, -0.029737815260887146, -0.0032265528570860624, -0.007464191410690546, 0.005025690887123346, 0.01772373728454113, -0.0049067395739257336, 0.0032562906853854656, -0.002899436978623271, -0.02248178794980049, 0.033544253557920456, 0.0063936300575733185, 0.016296321526169777, 0.008802393451333046, -0.007464191410690546, -0.010586662217974663, 0.027715643867850304, 0.006066514179110527, 0.002185729332268238, -0.012430406175553799, -0.01617737114429474, 0.024979764595627785, -0.009456625208258629, -0.017842689529061317, 0.0038659158162772655, -0.019151153042912483, 0.02688298374414444, 0.012311454862356186, 0.00011802195513155311, 0.014987858943641186, -0.02045961655676365, -0.018675347790122032, -0.005709660239517689, -0.004579623695462942, 0.03235474228858948, 0.013144114054739475, 0.03663698956370354, 0.0012638571206480265, -0.0009664789540693164, -0.021887032315135002, 0.012549357488751411, -0.0019180889939889312, 0.018913250416517258, -0.012430406175553799, -0.0002053767821053043, -0.009516100399196148, 0.02367130108177662, 0.0209354218095541, 0.04044342786073685, -0.016534224152565002, -0.05138694494962692, -0.05305226147174835, 0.007672355975955725, 0.010705613531172276, -0.02414710633456707, 0.022124934941530228, 0.009516100399196148, 0.00120438146404922, -0.007256026845425367, 0.008742917329072952, -0.028191449120640755, 0.013560443185269833, 0.006512581370770931, 0.019508006051182747, -0.01617737114429474, 0.018437445163726807, -0.013144114054739475, 0.009397149085998535, -0.00856449082493782, 0.013144114054739475, 0.0035685377661138773, 0.02153017744421959, 0.0055609713308513165, 0.02355234883725643, -0.0007099903305061162, 0.021887032315135002, 0.03330635279417038, -0.021649129688739777, 0.020697519183158875, -0.009397149085998535, -0.02153017744421959, 0.00740471575409174, 0.023790251463651657, -0.002869699150323868, -0.009159247390925884, -0.01724793203175068, -0.01712898164987564, 0.0018883512821048498, -0.04234664887189865, 0.0005538667901419103, -0.010051381774246693, -0.005739398300647736, 0.0013084638630971313, -0.01772373728454113, 0.0031076015438884497, -0.01617737114429474, -0.025098714977502823, -0.0306894239038229, 0.010884040035307407, 0.001992433564737439, -0.019745908677577972, 0.011359845288097858, -0.03330635279417038, -0.045439381152391434, 0.003345504170283675, -0.009694527834653854, 0.005442020017653704, 0.02153017744421959, 0.03235474228858948, 0.039967622607946396, 0.01986486092209816, -0.009218722581863403, 0.03711279109120369, -0.01474995631724596, -0.002527714241296053, -0.011181418783962727, -0.004698574542999268, 0.020102763548493385, -0.0022005983628332615, 0.009397149085998535, 0.008386063389480114, 0.00862396601587534, -0.001278726034797728, 0.020578566938638687, -0.02045961655676365, -0.01938905566930771, -0.005442020017653704, 0.005144641734659672, -0.03592327982187271, -0.03378215804696083, -0.022243885323405266, -0.027477741241455078, -0.008921344764530659, -0.0027804856654256582, -0.02688298374414444, 0.027239838615059853, -0.009278197772800922, 0.017961639910936356, -0.02248178794980049, -0.004460672382265329, 0.055669188499450684, -0.0052635930478572845, -0.017010029405355453, 0.014452577568590641, -0.00856449082493782, 0.023195495828986168, 0.013679394498467445, 0.0034347176551818848, 0.018556395545601845, -0.04306035488843918, 0.00862396601587534, -0.018913250416517258, -0.011895125731825829, 0.019983811303973198, -0.0049067395739257336, -0.027715643867850304, 0.02688298374414444, 0.02533661760389805, -0.0014422839740291238, 0.016891079023480415, 0.00802921038120985, 0.005323068704456091, 0.0306894239038229, 0.0019478268222883344, 0.002899436978623271, 0.05471757799386978, -0.035209573805332184, 0.0008958516409620643, -0.0010408235248178244, -0.022243885323405266, -0.02307654358446598, -0.005442020017653704, -0.039967622607946396, -0.016772126778960228, -0.002929174806922674, 0.002676403382793069, -0.018556395545601845, 0.02569347247481346, -0.008148160763084888, -0.024860812351107597, 0.008802393451333046, -0.031403131783008575, -0.03544747456908226, -0.007107337936758995, 0.0007360109011642635, 0.0015612352872267365, 0.05138694494962692, 0.021887032315135002, -0.012727784924209118, -0.014512053690850735, -0.006423368118703365, -0.024028154090046883, 0.00909977126866579, 0.006482843775302172, 0.0306894239038229, 0.015582614578306675, -0.00740471575409174, 0.037826500833034515, -0.033068448305130005, -0.021054372191429138, -0.008505014702677727, 0.016772126778960228, 0.0428224541246891, -0.01819954253733158, -0.009278197772800922, 0.011716699227690697, 0.022957593202590942, 0.007731831632554531, 0.0027656168676912785, 0.003925391472876072, 0.06066514179110527, 0.0024385007563978434, -0.004252507351338863, 0.006066514179110527, 0.03009466826915741, 0.009516100399196148, -0.006750483997166157, 0.023314446210861206, -0.004193031694740057, -0.016891079023480415, 0.039967622607946396, 0.0002936609089374542, -0.01819954253733158, 0.01938905566930771, -0.03497166931629181, 0.018080592155456543, -0.024503959342837334, -0.0004070363356731832, 0.016415273770689964, -0.00309273274615407, 0.014452577568590641, -0.03544747456908226, 0.0160584207624197, 0.013619919307529926, -0.008505014702677727, -0.015820518136024475, 0.012549357488751411, 0.014631005004048347, -0.002944043604657054, 0.03854020684957504, 0.01427415106445551, 0.019032200798392296, 0.010110856965184212, -0.010229808278381824, 0.011776174418628216, -0.0017173588275909424, -0.007077599875628948, -0.01290621142834425, 0.049245819449424744, -0.014512053690850735, -0.03473376855254173, 0.009694527834653854, 0.002155991503968835, 0.012073553167283535, -0.01290621142834425, 0.009754003025591373, -0.016772126778960228, -0.004252507351338863, -0.011597747914493084, 0.001583538600243628, -0.013679394498467445, 0.012192504480481148, 0.0012564227217808366, -0.007612880785018206, -0.030451523140072823, 0.009813479147851467, -0.016534224152565002, -0.03164103627204895, 0.008326588198542595, -0.004936477169394493, 0.0020221713930368423, -0.02260073833167553, 0.005888087209314108, 0.015047334134578705, 0.00014775976887904108, -0.020816469565033913, 0.00669100834056735, 0.04020552709698677, -0.007464191410690546, 0.0160584207624197, 0.019508006051182747, 0.0015314974589273334, -0.046390991657972336, -0.02569347247481346, 0.007731831632554531, -0.0258124228566885, 0.01480943150818348, -0.002349287271499634, 0.015463663265109062, 0.012133028358221054, -0.011954601854085922, 0.006125989835709333, -0.006899172905832529, 0.03402005881071091, 0.02735878899693489, 0.006423368118703365, -0.0004293397068977356, -0.002379025099799037, 0.024266056716442108, 0.0, -0.023790251463651657, -0.01724793203175068, 0.01183565054088831, 0.020697519183158875, 0.0029886504635214806, 0.019508006051182747, 0.02533661760389805, -0.0006170596461743116, 0.03235474228858948, 0.031403131783008575, -0.006512581370770931, 0.0009516100981272757, -0.026050325483083725, 0.02414710633456707, 0.01819954253733158, 0.006007038522511721, -0.021173324435949326, -0.00802921038120985, 0.0055609713308513165, -0.009040296077728271, -0.024979764595627785, -0.009040296077728271, -0.027239838615059853, 0.05210065096616745, 0.03925391659140587, 0.023195495828986168, 0.0074344538152217865, -0.008505014702677727, -0.052814360707998276, -0.009872954338788986, -0.02474186196923256, -0.004668836947530508, -0.01534471195191145, -0.017604786902666092, -0.03378215804696083, 0.009575576521456242, -0.008207636885344982, 0.005293331108987331, 0.023433398455381393, 0.004847263917326927, -0.013322540558874607, -0.029737815260887146, -0.016891079023480415, 0.018675347790122032, -0.02260073833167553, -0.005679922644048929, -0.0011895125498995185, 0.0306894239038229, -0.01819954253733158, 0.05899982526898384, -0.0022749428171664476, 0.006244941148906946, 0.015582614578306675, -0.007969734258949757, 0.007047862280160189, -0.0525764562189579, 0.0037469647359102964, -0.00856449082493782, -0.02521766722202301, -0.005025690887123346, -0.009278197772800922, -0.014095724560320377, 0.0034347176551818848, 0.017366884276270866, -0.013263065367937088, 0.024979764595627785, -0.011121942661702633, -0.0018214411102235317, -0.009991905651986599, 0.008267112076282501, 0.0069586485624313354, -0.015820518136024475, 0.019745908677577972, -0.002527714241296053, -0.026526130735874176, 0.020578566938638687, -0.013084638863801956, 0.01938905566930771, -0.019508006051182747, 0.010051381774246693, 0.0035239311400800943, 0.004222769755870104, 0.021887032315135002, 0.004758050199598074, 0.017842689529061317, -0.008742917329072952, -0.043774064630270004, -0.006482843775302172, 0.002572320867329836, -0.008861868642270565, 0.013025162741541862, -0.0008177899289876223, 0.03449586406350136, 0.01772373728454113, 0.027596691623330116, 0.0321168415248394, -0.012014077045023441, 0.022957593202590942, 0.013857821933925152, -0.03639908507466316, -0.02961886301636696, -0.0003549951652530581, 0.01237093098461628, 0.031878937035799026, -0.008980819955468178, -0.022957593202590942, -0.00496621523052454, 0.0014794563176110387, 0.03116522915661335, -0.0133820166811347, -0.01183565054088831, -0.009991905651986599, -0.013560443185269833, -0.013025162741541862, 0.0041632940992712975, -0.01237093098461628, 0.006066514179110527, -0.0019775647670030594, -0.006928910966962576, -0.021887032315135002, -0.022838640958070755, 0.011657223105430603, 0.01986486092209816, -0.005858349613845348, -0.01724793203175068, 0.006899172905832529, 0.003137339372187853, 0.015047334134578705, -0.010943516157567501, 0.0023938941303640604, 0.003732095705345273, 0.04877001792192459, 0.0011374714085832238, 0.0016430142568424344, -0.026169277727603912, -0.022243885323405266, -0.01284673623740673, 0.022362837567925453, -0.015463663265109062, -0.008921344764530659, -0.013917297124862671, -0.007850782945752144, -0.007731831632554531, -0.01831849478185177, 0.011300369165837765, -0.031403131783008575, 0.0024979764129966497, -0.007672355975955725, 0.01183565054088831, 0.02367130108177662, 0.009516100399196148, 0.02260073833167553, 0.008861868642270565, 0.02961886301636696, 0.01927010342478752, 0.009040296077728271, 0.014452577568590641, -0.00496621523052454, -0.0018957856809720397, -0.005085166543722153, -0.0016132764285430312, 0.003315766341984272, 0.0018363100243732333, 0.011716699227690697, 0.006215203087776899, -0.01665317639708519, 0.006572057027369738, -0.007493929471820593, 0.026645081117749214, -0.02997571788728237, 0.005679922644048929, 0.013084638863801956, 0.03639908507466316, 0.003360372968018055, 0.028905155137181282, -0.0044309343211352825, 0.005947562865912914, -0.0035982755944132805, 0.013500967994332314, -0.002289811847731471, 0.023433398455381393, -0.0037469647359102964, -0.013798345811665058, 0.005114904139190912, -0.008505014702677727, 0.030927326530218124, -0.0018586134538054466, -0.039016012102365494, 0.007612880785018206, -0.0031819462310522795, 0.015463663265109062, -0.006899172905832529, 0.012608833611011505, -0.015820518136024475, 0.019032200798392296, 0.004549885634332895, 0.012251979671418667, -0.0267640333622694, -0.012014077045023441, 0.0030629949178546667, 0.0030332570895552635, 0.01617737114429474, -0.012251979671418667, 0.014928382821381092, -0.0160584207624197, -0.013263065367937088, -0.013322540558874607, 0.01831849478185177, -0.018437445163726807, 0.006809959653764963, -0.0525764562189579, -0.00993243046104908, 0.0060367765836417675, -0.005144641734659672, -0.021292274817824364, 0.01100299134850502, 0.01819954253733158, 0.0267640333622694, -0.00802921038120985, -0.003925391472876072, -0.010943516157567501, 0.020221713930368423, -0.019508006051182747, 0.00856449082493782, -0.01284673623740673, 0.005293331108987331, -0.004074080381542444, 0.017366884276270866, -0.02842935174703598, 0.015106810256838799, 0.01831849478185177, -0.00808868557214737, -0.008445539511740208, 0.0002397611242486164, -0.013263065367937088, -0.024028154090046883, -0.011597747914493084, -0.01831849478185177, 0.00740471575409174, -0.01474995631724596, 0.0006876869592815638, -0.005679922644048929, 0.0015389318577945232, -0.012727784924209118, 0.0209354218095541, 0.018675347790122032, 0.04496357589960098, -0.02355234883725643, -0.00240876292809844, 0.022719690576195717, 0.012192504480481148, 0.025931375101208687, -0.0022005983628332615, 0.005352806765586138, 0.007910259068012238, -0.012489882297813892, 0.018437445163726807, 0.023314446210861206, 0.008980819955468178, -0.016296321526169777, -0.013857821933925152, 0.014987858943641186, -0.018556395545601845, 0.010051381774246693, 0.013203590176999569, 0.051862750202417374, 0.02854830212891102, 0.013084638863801956, -0.02854830212891102, 0.00963505171239376, -0.03378215804696083, 0.014155199751257896, -0.0024533697869628668, 0.029143057763576508]}}
{"UUID": "6c58946a-aaf0-452a-8c98-d73f8d886148", "BM25": {"terms": ["brain", "health", "a", "new", "concept", "to", "the", "neurologist", "an", "initiative", "of", "lifestyle", "medicine", "commission", "brazilian", "academy", "neurology", "authors", "author", "affiliations", "luis", "daniel", "silva", "pilatti", "1", "universidade", "federal", "do", "paran", "complexo", "hospital", "de", "cl", "nicas", "divis", "o", "neurologia", "curitiba", "pr", "brazil", "conrado", "regis", "borges", "2", "s", "rio-liban", "paulo", "sp", "samira", "luisa", "ap", "stolos-pereira", "3", "faculdade", "medicina", "departamento", "marcelo", "rezende", "young", "blood", "4", "estadual", "ponta", "grossa", "universit", "rio", "raphael", "machado", "castilhos", "5", "porto", "alegre", "rs", "brenda", "leticia", "lopes", "batista", "6", "da", "restaura", "recife", "pe", "fabiano", "moulin", "moraes", "7", "escola", "paulista", "e", "neurocirurgia", "marcos", "christiano", "lange", "further", "information", "opens", "publication", "history", "section", "also", "available", "at", "abstract", "full", "text", "references", "permissions", "and", "reprints", "in", "window", "preview"], "weights": [1.4037994938715417, 1.3921540391408243, 0.1370896325130213, 3.6231262369379116, 4.41364538806711, 0.345248071699648, 0.20156208524781863, 5.270352139547078, 1.1481604099451677, 4.050774572340817, 0.10019634630195447, 3.573197162424322, 2.7313889208269826, 4.94426774231816, 5.640597160675952, 4.675337412955363, 2.851574097165853, 2.407626519929606, 2.3292418056664097, 3.997286943178223, 7.56268045967985, 6.214826336838907, 4.996566268644827, 7.918947325290198, 1.3604803341316793, 12.819033901401792, 9.838871396154744, 4.320389887053503, 11.125773837867943, 11.885682937694646, 6.733860926407656, 6.656276393255582, 8.251260012066586, 12.283300596939625, 16.281105633371446, 6.368851688181502, 14.294272350069663, 11.885682937694646, 8.251260012066586, 10.93484415966576, 7.918947325290198, 7.918947325290198, 7.296581228000625, 0.9552897928363776, 1.1170841286156659, 8.459824770871055, 13.541638795598995, 8.617432792988692, 7.918947325290198, 7.56268045967985, 5.379984106570102, 7.56268045967985, 1.116790541084669, 7.296581228000625, 9.305273762366616, 10.62523450986306, 7.918947325290198, 7.918947325290198, 4.429216696678907, 2.7601806316929975, 1.2490423020819847, 8.459824770871055, 11.885682937694646, 11.885682937694646, 5.691027163159753, 7.084105095021392, 7.296581228000625, 7.084105095021392, 7.56268045967985, 1.5118113536207225, 9.952857102507334, 11.125773837867943, 4.757618009280531, 7.918947325290198, 7.918947325290198, 7.296581228000625, 7.084105095021392, 1.7328560990498965, 4.255960969794086, 8.459824770871055, 8.459824770871055, 6.399436916809419, 7.56268045967985, 7.296581228000625, 7.918947325290198, 1.8360495619634893, 8.459824770871055, 8.459824770871055, 1.5329685065942142, 8.459824770871055, 7.56268045967985, 7.56268045967985, 6.399436916809419, 2.3755730049265353, 2.266384782434219, 8.510767531210144, 3.015677646898014, 3.1758055198773527, 4.282938987207805, 1.860722443045016, 2.7472875664176764, 1.6343438014646854, 2.040128784185112, 2.165559984201625, 2.1203039546860434, 1.3762381334105203, 4.5277836202893225, 0.06881388326147075, 4.801287287058015, 0.10940798488171391, 5.236193373938989, 7.56268045967985], "k1": 1.5, "b": 0.75, "avgdl": 233.87661016949153, "N": 4425}, "SpladeV3": {"model_id": "naver/splade-v3", "tokens": ["lifestyle", "brazilian", "brazil", "brain", "commission", "paulo", "health", "silva", "parana", "brains", "##uro", "##bane", "##vis", "brenda", "##logist", "pont", "fabian", "initiative", "ne", "luisa", "borg", "sami", "author", "concept", "medici", "authors", "concepts", "##iba", "mach", "clinic", "porto", "##ulin", "marcelo", "pereira", "sao", "sir", "##log", "##lat", "marcos", "initiatives", "raphael", "luis", "##cola", "##ife", "academy", "hospital", "##gre", "abstract", "##ao", "##aur", "##zen", "##pes", "hospitals", "medicine", "mora", "conrad", "commissions", "##iver", "lange", "complex", "bat", "new", "daniel", "federal", "rs", "mental", "##aca", "##ost", "##hos", "healthy", "##rit", "university", "##olo", "doctor", "cast", "regis", "latest", "gross", "nerve", "wellness", "ale", "cu", "##logists", "li", "institute", "##ista", "committee", "universidad", "universities", "permission", "council", "affiliation", "medical", "doctors", "mind", "life", "portuguese", "##ado", "published", "christians", "rest", "##icia", "christian", "mans", "disease", "##lda", "##rg", "##logy", "written", "journal", "pr", "scientist", "surgeon", "commissioned", "##il", "mo", "clinics", "references", "healthcare", "idea", "india", "med", "niche", "church", "##ru", "portugal", "who", "pi", "pe", "alzheimer", "##sit", "location", "blood", "proposed", "project", "di", "hawkins", "head", "brasil", "psychiatrist", "##de", "academies", "publishing", "specialist", "ap", "projects", "important", "argentina", "mona", "nc", "paul", "neuroscience", "mendes", "now", "numb", "preview", "research", "commissioner", "sp", "biomedical", "healing", "illness", "depart", "ngo", "association", "reprint", "fa", "elena", "ni", "scientists", "das", "invented", "carlos", "##ci", "##ario", "freelance", "##io", "##ogist", "##psy", "japan", "dissertation", "chi", "neurological", "councils", "degree", "cancer", "ideas", "to", "comfort", "introduced", "cb", "cure", "effort", "affiliated", "historical", "institutes", "##ia", "no", "pastor", "##ad", "mel", "dr", "##ament", "monograph", "quality", "editors", "lo", "smart", "magazine", "##cu", "wrote", "reference", "ken", "director", "ray", "##cao", "rio", "memory", "##opa", "citation", "bio", "he", "claudio", "let", "patient", "developed", "collaboration", "thomas", "b"], "weights": [2.3961405754089355, 2.3408193588256836, 2.3303418159484863, 2.189812183380127, 2.1261892318725586, 2.0027036666870117, 1.9786251783370972, 1.8912121057510376, 1.879819631576538, 1.8588459491729736, 1.8107858896255493, 1.765345573425293, 1.7035499811172485, 1.697758436203003, 1.6845754384994507, 1.6711158752441406, 1.6498321294784546, 1.641501545906067, 1.6055318117141724, 1.577561855316162, 1.5430341958999634, 1.5392541885375977, 1.5340306758880615, 1.5009607076644897, 1.4977227449417114, 1.4799884557724, 1.4659593105316162, 1.465801477432251, 1.4642741680145264, 1.452896237373352, 1.432969331741333, 1.427664875984192, 1.4266815185546875, 1.4094419479370117, 1.402417540550232, 1.400071382522583, 1.3980576992034912, 1.3976091146469116, 1.3776652812957764, 1.3771326541900635, 1.3677072525024414, 1.3553606271743774, 1.348625898361206, 1.3396779298782349, 1.3389418125152588, 1.3212344646453857, 1.301450490951538, 1.2828683853149414, 1.2802202701568604, 1.279362440109253, 1.237072467803955, 1.236615538597107, 1.207735538482666, 1.2066371440887451, 1.2065048217773438, 1.201955795288086, 1.181656837463379, 1.1807771921157837, 1.166151523590088, 1.159088134765625, 1.1488946676254272, 1.1481229066848755, 1.1464911699295044, 1.1359179019927979, 1.132925271987915, 1.1309089660644531, 1.1172977685928345, 1.1137773990631104, 1.1130938529968262, 1.0984522104263306, 1.0722739696502686, 1.055466890335083, 1.0542314052581787, 1.0484001636505127, 1.0360870361328125, 1.033293604850769, 1.018018364906311, 0.9967395067214966, 0.9892171621322632, 0.9792240858078003, 0.9774684906005859, 0.9572205543518066, 0.9538333415985107, 0.9538232088088989, 0.9537742137908936, 0.9400596618652344, 0.9364762902259827, 0.9232100248336792, 0.9215061664581299, 0.9066163301467896, 0.9064833521842957, 0.8863885402679443, 0.8790950775146484, 0.8682488799095154, 0.8641745448112488, 0.8635542392730713, 0.816655158996582, 0.8112134337425232, 0.8053368926048279, 0.7900428771972656, 0.7871971130371094, 0.7847832441329956, 0.780269205570221, 0.7751949429512024, 0.7721772789955139, 0.7710216045379639, 0.7709701061248779, 0.7648977637290955, 0.7637223601341248, 0.7608062624931335, 0.750083863735199, 0.7202463150024414, 0.7012121081352234, 0.6878053545951843, 0.6823294162750244, 0.6707003116607666, 0.6642458438873291, 0.6600205302238464, 0.6593320369720459, 0.6592617034912109, 0.6447328329086304, 0.6189250946044922, 0.6160754561424255, 0.6044022440910339, 0.5998060703277588, 0.5954562425613403, 0.5947546362876892, 0.5944158434867859, 0.5940317511558533, 0.5902697443962097, 0.5871860980987549, 0.5780107378959656, 0.5692895650863647, 0.5675769448280334, 0.544417142868042, 0.541415274143219, 0.5332489609718323, 0.5197232365608215, 0.5139309763908386, 0.5103461742401123, 0.5037975311279297, 0.49586135149002075, 0.4768449366092682, 0.47243183851242065, 0.4679051637649536, 0.4668382406234741, 0.46601468324661255, 0.460458368062973, 0.4597010612487793, 0.456186443567276, 0.4561144709587097, 0.4329961836338043, 0.43060973286628723, 0.4211044907569885, 0.41648951172828674, 0.4159669876098633, 0.40955284237861633, 0.3909927308559418, 0.3841685652732849, 0.3805568516254425, 0.37760189175605774, 0.3744615614414215, 0.35535165667533875, 0.34481537342071533, 0.323792964220047, 0.320746511220932, 0.31716665625572205, 0.2999641001224518, 0.29944607615470886, 0.2889646589756012, 0.28092435002326965, 0.2718079090118408, 0.271585077047348, 0.26683589816093445, 0.26192277669906616, 0.24240168929100037, 0.24108007550239563, 0.24071192741394043, 0.24056807160377502, 0.23865623772144318, 0.23598140478134155, 0.23062683641910553, 0.22776544094085693, 0.22228391468524933, 0.2125261276960373, 0.19311557710170746, 0.19240570068359375, 0.19196295738220215, 0.18740081787109375, 0.18598340451717377, 0.18389175832271576, 0.17916634678840637, 0.17761947214603424, 0.15974757075309753, 0.15563933551311493, 0.1439288705587387, 0.14261429011821747, 0.13816532492637634, 0.12523919343948364, 0.12185228615999222, 0.117535300552845, 0.11149920523166656, 0.10838372260332108, 0.10556323826313019, 0.09659421443939209, 0.08807280659675598, 0.08462986350059509, 0.08337077498435974, 0.08056456595659256, 0.079380102455616, 0.07848475873470306, 0.07767666131258011, 0.07446692883968353, 0.061519257724285126, 0.06098485738039017, 0.05927591770887375, 0.05821229889988899, 0.05582606792449951, 0.04931027442216873, 0.048580486327409744, 0.044791560620069504, 0.040040478110313416, 0.038325775414705276, 0.03238347917795181, 0.02574174292385578, 0.02427567169070244, 0.011579844169318676, 0.008844486437737942, 0.003816613694652915]}, "Qwen3-4B": {"model_id": "Qwen/Qwen3-Embedding-4B", "vector": [-0.0005364548414945602, 0.03073173388838768, -0.031452011317014694, 0.021248113363981247, -0.0018682132940739393, 0.07106713950634003, -0.011644446291029453, 0.029651321470737457, -0.009963804855942726, 0.038414668291807175, 0.03193219378590584, 0.018967242911458015, 0.007863002829253674, -0.0050119138322770596, -0.0034213063772767782, 0.0064524635672569275, 0.05450081080198288, -0.04801833629608154, 0.02785063348710537, -0.002881100168451667, 0.0012754870112985373, -0.010383964516222477, 0.04897870123386383, -0.014585569500923157, 0.007802979554980993, -0.040095310658216476, -0.01824696734547615, -0.02292875573039055, -0.004471707623451948, 0.042736317962408066, 0.04177595302462578, -0.020167700946331024, 0.024129213765263557, -0.016446279361844063, 0.0032412377186119556, 0.007112715858966112, 0.016926463693380356, -0.006542498245835304, 0.04345659166574478, -0.009483621455729008, 0.010624056681990623, 0.032892558723688126, -0.005972280632704496, 0.012424744665622711, -0.003541352227330208, -0.024849489331245422, 0.0006114834686741233, -0.021968388929963112, -0.031211918219923973, 0.005612142849713564, 0.015065752901136875, -0.010984194464981556, -0.012424744665622711, -0.012184652499854565, 0.0054620858281850815, 0.023288892582058907, -0.010864147916436195, 0.008163116872310638, -0.0008778352057561278, 0.04897870123386383, -0.0013580184895545244, 0.01800687611103058, -0.022808710113167763, -0.02893104776740074, 0.00010691582428989932, -0.015726005658507347, 0.013385110534727573, -0.030611688271164894, 0.005221994128078222, 0.018727149814367294, -0.01968751661479473, -0.00147056148853153, -0.013865293934941292, -0.002235853811725974, 0.01620618812739849, -0.0038714783731848, 0.0033762892708182335, -0.00870332308113575, 0.0174066461622715, -0.004051547031849623, -0.012664835900068283, -0.009963804855942726, 0.0010729096829891205, 0.05017916113138199, 0.014165408909320831, -0.00972371269017458, -0.011344331316649914, 0.018727149814367294, 0.005822223145514727, -0.007802979554980993, -0.010443988256156445, -0.05738190934062004, -0.042736317962408066, 0.008403209038078785, -0.009783735498785973, -0.021608250215649605, -0.005612142849713564, -0.0154859134927392, -0.013985340483486652, -0.0007953036692924798, -0.009843758307397366, -0.022808710113167763, 0.030371597036719322, -0.012784881517291069, 0.01230469811707735, -0.01800687611103058, -0.02400916814804077, -0.02749049663543701, -0.001410538563504815, -0.00046705332351848483, 0.012844904325902462, -0.015846051275730133, 0.006632532458752394, 0.011704469099640846, -0.001185452681966126, -0.0190872885286808, 0.012244675308465958, -0.02112806774675846, 0.031452011317014694, -0.0063324179500341415, 0.004141581244766712, 0.014105386100709438, -0.01536586694419384, -0.007863002829253674, -0.019327379763126373, -0.018126921728253365, -0.012064606882631779, 0.008763345889747143, 0.00798304844647646, -0.020047655329108238, -0.008463231846690178, -0.02400916814804077, -0.021248113363981247, -0.012364720925688744, 0.01824696734547615, -0.0018682132940739393, 0.056661635637283325, -0.021008022129535675, 0.003316266229376197, -0.005702177528291941, 0.0013580184895545244, 0.021248113363981247, -0.0055221086367964745, 0.010323941707611084, -0.020647883415222168, -0.014945706352591515, 0.000739032169803977, -0.009843758307397366, 0.023649029433727264, -0.020767929032444954, 0.0063924407586455345, -0.031692102551460266, 0.005101948045194149, -0.008463231846690178, 0.031692102551460266, -0.001770676113665104, -0.003046163124963641, 0.012784881517291069, -0.022808710113167763, -0.00870332308113575, 0.010864147916436195, 0.010023827664554119, -0.025449717417359352, -0.03193219378590584, 0.009303552098572254, 0.008103094063699245, -0.0292911846190691, 0.0077429567463696, -0.011404355056583881, -0.01800687611103058, 0.005762200336903334, 0.010984194464981556, -0.019807564094662666, -0.01968751661479473, -0.0047718221321702, -0.02112806774675846, 0.008283162489533424, -0.01176449190825224, -0.0174066461622715, 0.028210772201418877, -0.013985340483486652, -0.008163116872310638, 0.011344331316649914, -0.015726005658507347, -0.005702177528291941, -0.011404355056583881, 0.0007878008182160556, 0.017286600545048714, 0.004681787453591824, -0.007022681646049023, -0.008883392438292503, 0.03241237625479698, 0.0031512032728642225, 0.0028360828291624784, 0.01800687611103058, 0.00870332308113575, -0.003046163124963641, 0.0015005730092525482, 0.008163116872310638, -0.006152349058538675, -0.008823368698358536, 0.017766784876585007, 0.024489350616931915, 0.0006227378034964204, -0.008823368698358536, -0.0031962203793227673, -0.0013805271591991186, -0.022448571398854256, -0.00486185634508729, -0.006992670241743326, -0.012844904325902462, -0.0017256588907912374, -0.001410538563504815, -0.01800687611103058, -0.010684079490602016, 0.018487058579921722, -0.009363574907183647, -0.024249259382486343, 0.009123483672738075, 0.04873860999941826, 0.002746048616245389, 0.010443988256156445, -0.0030011460185050964, 0.026169992983341217, 0.018367012962698936, 0.012004584074020386, 0.011164262890815735, 0.0021008022595196962, -0.013505157083272934, -0.003316266229376197, -0.00282107712700963, 0.0050719366408884525, 0.014105386100709438, 0.008223139680922031, 0.008403209038078785, -0.0009566152584739029, -0.02520962618291378, 0.022688662633299828, -0.01944742538034916, -0.008283162489533424, 0.002746048616245389, -0.02400916814804077, -0.012664835900068283, -0.02256861701607704, -0.006122337654232979, 0.00666254386305809, 0.0025359683204442263, -0.02989141270518303, -0.021248113363981247, -0.004081558436155319, -0.01968751661479473, 0.010984194464981556, 0.019327379763126373, -0.010143873281776905, -0.04489714279770851, 0.006632532458752394, 0.0042016045190393925, -0.023288892582058907, -0.00900343805551529, -0.007112715858966112, 0.0174066461622715, -0.035773660987615585, -0.010864147916436195, -0.00900343805551529, 0.0067825899459421635, 0.03193219378590584, 0.007322796154767275, -0.012124629691243172, -0.008583277463912964, 0.02028774656355381, 0.017886830493807793, -0.005912257358431816, -0.010684079490602016, 0.025569763034582138, 0.021368158981204033, -0.021008022129535675, 0.007502865046262741, 0.012964950874447823, 0.005041925236582756, 0.02112806774675846, -0.0007202750421129167, 0.02400916814804077, 0.0027010312769562006, 0.016086142510175705, -0.023288892582058907, -0.029171139001846313, -0.032652467489242554, -0.008403209038078785, -0.012064606882631779, -0.005282016936689615, 0.01968751661479473, 0.03793448582291603, -0.008643300272524357, -0.014045363292098045, 0.07346805185079575, -0.03337274119257927, -0.00900343805551529, 0.0055221086367964745, 0.019327379763126373, -0.034093018621206284, -0.014885683543980122, 0.004951891023665667, 0.01764673739671707, 0.03601375222206116, -5.603702084044926e-05, 0.006512486841529608, -0.010624056681990623, -0.005402062553912401, 0.008043071255087852, -0.038414668291807175, -0.010684079490602016, -0.009243529289960861, 0.0019807564094662666, 0.005702177528291941, -0.044176869094371796, -0.011524400673806667, 0.00010128867870662361, 0.0039014897774904966, -0.02845086343586445, -0.00192073336802423, 0.007052693050354719, -0.034093018621206284, -0.018967242911458015, -0.012664835900068283, 0.006212372332811356, 0.0004389176028780639, 0.0309718269854784, 0.01434547733515501, -0.016686370596289635, -0.02520962618291378, 0.015185798518359661, 0.007202750071883202, -0.04177595302462578, -0.01434547733515501, 0.017766784876585007, 0.013205042108893394, -0.007382818963378668, 0.0033912949729710817, -0.002610997064039111, 0.0063324179500341415, 0.00042016044608317316, 0.01884719729423523, 0.030251551419496536, -0.0026860255748033524, 0.014765637926757336, -0.008103094063699245, 0.03217228502035141, -0.02953127585351467, -0.009423598647117615, -0.031692102551460266, 0.02232852578163147, 0.02148820459842682, -0.012964950874447823, -0.0027310429140925407, 0.022088434547185898, 0.020167700946331024, 0.011644446291029453, -0.014825660735368729, 0.02232852578163147, -0.014105386100709438, 0.010864147916436195, -0.019207334145903587, 0.02725040540099144, 0.015726005658507347, -0.012904927134513855, -0.02520962618291378, 0.014285454526543617, 0.019207334145903587, 0.039855219423770905, -0.029411230236291885, -0.014045363292098045, -0.010323941707611084, 0.019207334145903587, -0.011044217273592949, -0.021008022129535675, 0.004501719027757645, -0.03625384345650673, 0.008643300272524357, -0.017766784876585007, 0.013805271126329899, -0.010624056681990623, -0.01680641807615757, -0.017526691779494286, 0.017166554927825928, -0.012964950874447823, -0.0007840493926778436, -0.003091180231422186, -0.013865293934941292, -0.022688662633299828, -0.003541352227330208, -0.0067225671373307705, 0.017166554927825928, -0.027130359783768654, -0.006692555267363787, -0.029411230236291885, 0.0018231961876153946, -0.005612142849713564, 0.02809072658419609, 0.015605959109961987, -0.019927609711885452, -0.029171139001846313, -0.0030011460185050964, 0.0174066461622715, -0.018487058579921722, 0.002656014170497656, -0.002235853811725974, -0.01620618812739849, 0.004711799323558807, 0.015726005658507347, -0.014885683543980122, -0.03241237625479698, -0.01656632497906685, 0.015245821326971054, 0.017286600545048714, 0.013805271126329899, -0.01764673739671707, 0.0009266037959605455, -0.010984194464981556, 0.029771367087960243, -0.0077429567463696, -0.01620618812739849, 0.002160825068131089, 0.013985340483486652, 0.010684079490602016, -0.00666254386305809, 0.001403035712428391, 0.041055675595998764, 0.024129213765263557, 0.03769439458847046, -0.0246093962341547, 0.01158442348241806, 0.02725040540099144, -0.010624056681990623, 0.025449717417359352, 0.00579221174120903, 0.009183506481349468, -0.011224285699427128, -0.013925316743552685, -0.0042616273276507854, 0.004621764644980431, -0.030011460185050964, -0.016086142510175705, -0.021368158981204033, 0.014885683543980122, -0.026770221069455147, -0.01536586694419384, -0.03769439458847046, 0.03769439458847046, 0.02809072658419609, 0.018967242911458015, -0.00870332308113575, -0.0035713636316359043, 0.010624056681990623, 0.005672165658324957, -0.004051547031849623, -0.017166554927825928, 0.021008022129535675, -0.010143873281776905, 0.010203896090388298, 0.009783735498785973, 0.000442669028416276, 0.010864147916436195, 0.002881100168451667, -0.0006827607285231352, -0.002205842174589634, 0.004231615923345089, -0.023288892582058907, -0.0021758307702839375, 0.0026260027661919594, 0.006482475437223911, -0.021368158981204033, 0.0042016045190393925, 0.015065752901136875, 0.005672165658324957, 0.008823368698358536, 0.013265064917504787, 0.0012754870112985373, 0.0026260027661919594, -0.0190872885286808, -0.012124629691243172, 0.030371597036719322, 0.030251551419496536, -0.02376907505095005, -0.02725040540099144, 0.005041925236582756, 0.02436930499970913, 0.0063924407586455345, 0.002055784920230508, 0.01056403387337923, -0.026530129835009575, 0.043936777859926224, -0.01656632497906685, -0.00564215425401926, -0.024249259382486343, -0.006992670241743326, -0.013205042108893394, 0.026530129835009575, -0.0022658652160316706, 0.016086142510175705, 0.009243529289960861, -0.017286600545048714, -0.016326233744621277, -0.029051093384623528, -0.016926463693380356, -0.013865293934941292, -0.02172829583287239, 0.011104240082204342, 0.005552120041102171, 0.002055784920230508, -0.0007315293187275529, 0.014705615118145943, -0.010083850473165512, -0.0008778352057561278, -0.02725040540099144, 0.004531730432063341, -0.015605959109961987, 0.015185798518359661, -0.010624056681990623, -0.03601375222206116, 0.01158442348241806, 0.04489714279770851, -0.002055784920230508, -0.012544790282845497, -0.02292875573039055, -0.00870332308113575, 0.024249259382486343, 0.008223139680922031, 0.00900343805551529, 0.0030611688271164894, 0.010263918898999691, 0.005552120041102171, 0.007923025637865067, -0.0035863693337887526, -0.0054620858281850815, 0.0019807564094662666, 0.0309718269854784, 0.030251551419496536, 0.03361283615231514, 0.030371597036719322, -0.006302406545728445, -0.019207334145903587, 0.02112806774675846, 0.028330817818641663, 0.01764673739671707, 0.021848343312740326, -0.024129213765263557, 0.02845086343586445, -0.011404355056583881, 0.026890268549323082, -0.013024973683059216, 0.006002292037010193, -0.002671019872650504, 0.001553093083202839, -0.0016206188593059778, 0.02496953494846821, -0.012004584074020386, -0.004141581244766712, -0.01128430850803852, -0.015005730092525482, 0.004951891023665667, -0.00588224595412612, -0.0027310429140925407, 0.008103094063699245, -0.0009566152584739029, -0.0006527492660097778, -0.0095436442643404, -0.008763345889747143, -0.02749049663543701, -0.04081558436155319, 0.007052693050354719, -0.018126921728253365, 0.01074410229921341, 0.0033912949729710817, 0.008283162489533424, 0.0154859134927392, -0.05906255170702934, -0.014765637926757336, 0.01596609689295292, -0.01944742538034916, -0.011704469099640846, 0.0076529220677912235, 0.019207334145903587, 0.0095436442643404, -0.024129213765263557, 0.027010314166545868, -0.01176449190825224, -0.01536586694419384, 0.00900343805551529, -0.009123483672738075, -0.0007840493926778436, -0.02809072658419609, -0.011644446291029453, 0.013505157083272934, 0.02352898381650448, -0.00399152422323823, 0.018487058579921722, 0.004081558436155319, -0.018367012962698936, -0.005372051149606705, -0.0190872885286808, 0.012664835900068283, -0.004711799323558807, 0.004681787453591824, 0.004231615923345089, 0.021008022129535675, 0.023048801347613335, 0.024729441851377487, 0.02604994736611843, 0.027970680966973305, 0.02376907505095005, 0.012424744665622711, 0.010383964516222477, -0.012844904325902462, 0.008043071255087852, -0.00972371269017458, 0.024129213765263557, -0.02400916814804077, 0.03385292738676071, 0.019807564094662666, 0.009903782047331333, -0.010504011064767838, 0.009243529289960861, 0.03769439458847046, 0.016086142510175705, 0.006902635563164949, 0.0013880300102755427, -0.005101948045194149, -0.040095310658216476, 0.003961512818932533, 0.008043071255087852, 0.0031361975707113743, 0.0292911846190691, 0.04489714279770851, -0.007172738667577505, -0.04297640919685364, -0.04441696032881737, -0.05786209553480148, 0.018367012962698936, -0.0003263746330048889, 0.018367012962698936, -0.023649029433727264, -0.012844904325902462, 0.0042016045190393925, -0.009063460864126682, -0.018126921728253365, -0.015605959109961987, -0.020167700946331024, 0.012424744665622711, 0.004561741836369038, 0.02112806774675846, 0.0458575114607811, 0.001102921087294817, -0.02641008421778679, 0.004741810727864504, 0.010083850473165512, -0.012664835900068283, 0.01446552388370037, -0.005822223145514727, 0.01620618812739849, -0.011644446291029453, -0.006152349058538675, -0.006092326249927282, -0.03193219378590584, 0.03745429962873459, -0.009063460864126682, 0.021968388929963112, -0.012004584074020386, -0.015846051275730133, -0.031692102551460266, -0.039855219423770905, -0.029651321470737457, 0.02292875573039055, 0.01332508772611618, -0.00384146673604846, -0.004651776049286127, 0.0475381501019001, -0.0033612835686653852, 0.03385292738676071, 0.01128430850803852, -0.017526691779494286, -0.02400916814804077, 0.03601375222206116, 0.009903782047331333, 0.019327379763126373, 0.022448571398854256, 0.006962658371776342, -0.003181214677169919, -0.012544790282845497, -0.06290402263402939, 0.00870332308113575, 0.030251551419496536, -0.027370451018214226, 0.008223139680922031, 0.018367012962698936, 0.023288892582058907, -0.0031512032728642225, -0.010924171656370163, 0.03889485076069832, -0.02665017545223236, -0.010924171656370163, 0.0012979955645278096, 0.002656014170497656, -0.009663689881563187, -0.016926463693380356, -0.002145819365978241, -0.03721420839428902, 0.03889485076069832, -0.002010767813771963, 0.016326233744621277, -0.012004584074020386, -0.006902635563164949, -0.01362520270049572, 0.018126921728253365, 0.014525546692311764, 0.005942268762737513, -0.0292911846190691, -0.034333109855651855, 0.031692102551460266, 0.011104240082204342, -0.027610542252659798, -0.03601375222206116, -0.023048801347613335, -0.01620618812739849, -0.02953127585351467, 0.005762200336903334, 0.02580985426902771, -0.001493070158176124, 0.014225431717932224, -0.02989141270518303, -0.011104240082204342, 0.0364939346909523, -0.007802979554980993, 0.01536586694419384, 0.010984194464981556, 0.00681260135024786, -0.0006752578192390501, -0.02869095467031002, 0.04225613549351692, -0.044176869094371796, 0.028210772201418877, -0.022448571398854256, -0.03553356975317001, -0.01074410229921341, 0.009183506481349468, 0.017526691779494286, -0.008763345889747143, -0.016926463693380356, 0.0024009167682379484, 0.013145019300282001, -0.04057549312710762, -0.0063924407586455345, 0.017166554927825928, 0.005342039745301008, -0.03241237625479698, -0.041295766830444336, -0.04465705156326294, 0.004891867749392986, -0.023408938199281693, 0.010443988256156445, -0.00681260135024786, -0.02641008421778679, -0.041055675595998764, 0.0050119138322770596, -0.02785063348710537, -0.025689808651804924, 0.0064524635672569275, 0.012904927134513855, 0.013205042108893394, -0.006092326249927282, 0.0012754870112985373, -0.021608250215649605, -0.01434547733515501, 0.002220848109573126, 0.016926463693380356, 0.010143873281776905, 0.003121191868558526, -0.014405500143766403, -0.023649029433727264, 0.021848343312740326, -0.02520962618291378, -0.05137961730360985, -0.05786209553480148, 0.0017481675604358315, 0.023288892582058907, -0.006302406545728445, -0.013024973683059216, -0.0006790092447772622, -0.040095310658216476, -0.0063924407586455345, 0.005912257358431816, -0.007352807559072971, 0.0013054985320195556, -0.050899434834718704, -0.0024009167682379484, 0.005041925236582756, -0.02112806774675846, -0.017766784876585007, 0.05306025967001915, -0.00768293347209692, -0.006032303441315889, 0.020767929032444954, 0.002220848109573126, -0.003931501414626837, 0.056661635637283325, -0.059542734175920486, 0.005221994128078222, 0.019207334145903587, -0.0032412377186119556, -0.030011460185050964, -0.021848343312740326, -0.006602521054446697, 0.00399152422323823, -0.002746048616245389, 0.04441696032881737, 0.0035713636316359043, -0.0008028065203689039, 0.03673402592539787, 0.001545590115711093, -0.022808710113167763, 0.014225431717932224, -0.005342039745301008, 0.02112806774675846, 0.02580985426902771, 0.03505338355898857, -0.019567470997571945, -0.012364720925688744, 0.011944561265408993, -0.012184652499854565, 0.007532876450568438, -0.01620618812739849, -0.01824696734547615, -0.0042016045190393925, -0.01764673739671707, 0.02869095467031002, 0.011044217273592949, -0.013805271126329899, -0.0018306990386918187, -0.026169992983341217, 0.02112806774675846, -0.018727149814367294, -0.040095310658216476, 0.017286600545048714, -0.01446552388370037, -0.05137961730360985, -0.015305844135582447, 0.024129213765263557, 0.01158442348241806, -0.0025509740225970745, -0.017166554927825928, 0.006512486841529608, -0.019207334145903587, 0.018367012962698936, 0.03889485076069832, 0.01764673739671707, 0.025689808651804924, -0.008163116872310638, 0.017286600545048714, -0.006482475437223911, -0.0004501718794927001, -0.016926463693380356, 0.010263918898999691, 0.01230469811707735, 0.02172829583287239, -0.024849489331245422, 0.016686370596289635, 0.009903782047331333, -0.012784881517291069, -0.0381745770573616, 0.01656632497906685, -0.015005730092525482, 0.02112806774675846, -0.002220848109573126, 0.0017631732625886798, -0.0038114553317427635, 0.020407792180776596, -0.028570909053087234, 0.0031512032728642225, -0.005762200336903334, -0.0005514605436474085, 0.025929901748895645, 0.025929901748895645, -0.045617420226335526, -0.004171592649072409, -0.0042616273276507854, 0.007502865046262741, -0.024489350616931915, -0.011404355056583881, 0.02376907505095005, -0.005942268762737513, 0.010323941707611084, -0.011524400673806667, 0.006962658371776342, 0.0077429567463696, 0.027610542252659798, 0.0032112260814756155, -0.0012829898623749614, -0.016926463693380356, -0.019327379763126373, 0.016086142510175705, 0.024849489331245422, -0.012904927134513855, 0.006602521054446697, -0.0024759455118328333, -0.02316884696483612, 0.04057549312710762, 0.009903782047331333, 0.015726005658507347, -0.03601375222206116, 0.0026410084683448076, -0.022448571398854256, -0.012124629691243172, -0.0025059569161385298, -0.01158442348241806, 0.010203896090388298, 0.006182360462844372, 0.0002682274207472801, -0.025929901748895645, 0.034333109855651855, 0.0013655214570462704, -0.0154859134927392, 0.020407792180776596, -0.024249259382486343, 0.02604994736611843, -0.005552120041102171, 0.012244675308465958, -0.023288892582058907, -0.009183506481349468, 0.004531730432063341, 0.004531730432063341, -0.01800687611103058, 0.028330817818641663, 0.01464559230953455, 0.027730587869882584, 0.0009978810558095574, -0.004801833536475897, 0.004141581244766712, 0.04369668662548065, -0.0063324179500341415, 0.02641008421778679, 0.010624056681990623, -0.003331271931529045, 0.011704469099640846, 0.00045579904690384865, -0.020167700946331024, 0.025569763034582138, 0.014045363292098045, 0.028330817818641663, -0.0006602521170862019, -0.007022681646049023, -0.001545590115711093, -0.019807564094662666, -0.014765637926757336, -0.0013805271591991186, -0.0309718269854784, -0.014705615118145943, 0.005342039745301008, 0.007802979554980993, 0.022088434547185898, 0.02088797651231289, 0.03505338355898857, -0.0008590780198574066, 0.026169992983341217, 0.01764673739671707, 0.006962658371776342, -0.01230469811707735, -0.03241237625479698, -0.0039014897774904966, -0.0076529220677912235, -0.01446552388370037, 0.011704469099640846, 0.012364720925688744, 0.011404355056583881, 0.001035395311191678, 0.010924171656370163, -0.030011460185050964, 0.006872624158859253, 0.03745429962873459, 0.019927609711885452, 0.004831844940781593, 0.009183506481349468, 0.02520962618291378, 