{"UUID": "3804b765-fe77-4a84-b355-a8e9f483f14d", "BM25": {"terms": ["jmir", "aging", "effectiveness", "of", "walking", "prescription", "using", "mobile", "health", "technology", "on", "the", "changes", "in", "daily", "steps", "older", "adults", "with", "cognitive", "impairment", "randomized", "controlled", "study", "skip", "to", "main", "content", "footer", "select", "options", "articles", "help", "career", "center", "login", "register", "journal", "medical", "internet", "research", "10495", "protocols", "5059", "formative", "3834", "mhealth", "and", "uhealth", "2906", "public", "surveillance", "1828", "online", "informatics", "1744", "1659", "mental", "1188", "human", "factors", "1038", "serious", "games", "745", "education", "694", "584", "jmirx", "med", "557", "cancer", "515", "interactive", "510", "iproceedings", "pediatrics", "parenting", "508", "dermatology", "350", "rehabilitation", "assistive", "technologies", "334", "diabetes", "313", "cardio", "247", "infodemiology", "218", "ai", "201", "nursing", "149", "participatory", "medicine", "139", "perioperative", "129", "biomedical", "engineering", "102", "bioinformatics", "biotechnology", "68", "asian", "pacific", "island", "47", "bio", "35", "neurotechnology", "33", "xr", "spatial", "computing", "jmxr", "2", "0", "26", "data", "challenges", "preprints", "focus", "scope", "editorial", "board", "author", "information", "resource", "article", "processing", "fees", "publishing", "policies", "get", "involved", "top", "institutional", "partners", "indexing", "impact", "factor", "year", "2018", "2019", "2020", "2021", "2022", "2023", "2024", "2025", "latest", "announcements", "authors", "themes", "issues", "blog"], "weights": [10.836390047807376, 3.028797631885553, 2.995056430828708, 0.10991760552430327, 3.505049831961706, 3.488122421775024, 1.3208096195537418, 3.271472886302132, 2.337155738174398, 2.9558882657915295, 0.572281322092561, 0.11159504765764552, 2.104302032009324, 0.14249702992454846, 2.7613391974162877, 3.88897763025581, 1.4389497009856016, 1.542904154487463, 0.31554121915612715, 0.4578054707991107, 0.8996609252319762, 2.425456080623786, 2.473354965687358, 0.8390935109089899, 5.989898658463726, 0.4496639331906751, 2.960697072704357, 3.084057494980309, 6.07499615346446, 7.283828277876471, 4.446081190599916, 6.220483302142471, 2.8644855962086373, 4.517525323467076, 4.690765034920232, 4.708592269580203, 4.621974241949321, 4.684629483244837, 4.497607625732802, 3.735835468149671, 1.8841231691146845, 6.211248440414812, 3.5398351340833587, 6.211248440414812, 5.95582310014411, 6.211248440414812, 4.594768341254825, 0.13503593945241765, 5.383801228428415, 6.211248440414812, 3.8749878351431093, 5.383801228428415, 6.07499615346446, 3.117567407794893, 7.4811728497708545, 6.07499615346446, 6.211248440414812, 2.895488298843193, 6.07499615346446, 2.661216583929624, 1.9292363339498675, 2.960697072704357, 4.317507507723776, 4.739309183222308, 6.07499615346446, 2.7731427586400184, 5.95582310014411, 5.95582310014411, 8.626272529318335, 2.1861691223800195, 5.849920529860687, 3.8762822189090427, 6.07499615346446, 4.649980429931803, 8.798879945422994, 5.95582310014411, 5.165213818993166, 5.95582310014411, 5.754626891001847, 5.07224815622027, 5.754626891001847, 3.2131602741058582, 5.44730087010854, 3.6726869111876925, 6.07499615346446, 2.5086780301134417, 5.95582310014411, 5.95582310014411, 5.668008863370966, 5.95582310014411, 5.383801228428415, 3.3699368113690267, 5.588617752749194, 4.828294080945585, 5.07224815622027, 5.165213818993166, 4.182586679595234, 4.446081190599916, 4.803885908439042, 4.739309183222308, 4.4234100780071985, 4.493110094841269, 4.15230051083687, 5.165213818993166, 5.324272986644954, 3.305481563792777, 4.649980429931803, 5.2153381152482226, 4.087171419110182, 2.960697072704357, 5.515339932758082, 2.7155359740158365, 4.771050180582203, 3.7897097224602527, 5.668008863370966, 3.585183787750729, 4.401266248686895, 5.95582310014411, 0.8590343809962301, 1.850955478592251, 2.4561729942658905, 1.2911322740648856, 3.0203808423785303, 4.94787922782397, 3.1701530137519662, 3.54873371983318, 3.2068961610853965, 3.2985819557400786, 2.094546396000172, 2.038022873558664, 4.739309183222308, 1.5874308762698226, 3.111899880675204, 3.8637538573008197, 3.2849309442059784, 3.9971382452611652, 4.071562188465995, 3.176179247443292, 3.8762822189090427, 3.2985819557400786, 4.358466155815289, 5.44730087010854, 2.0109715727012967, 2.6789809377389138, 3.4797702476500283, 2.1301446260216474, 1.9916112768666958, 1.847954241293038, 1.7912450740924966, 1.6596153014722042, 1.7075160520355264, 1.6269879630505055, 1.9018925466116594, 4.259194895527503, 5.383801228428415, 2.1650330326224734, 4.401266248686895, 3.2451143381508003, 5.668008863370966], "k1": 1.5, "b": 0.75, "avgdl": 233.87661016949153, "N": 4425}, "SpladeV3": {"model_id": "naver/splade-v3", "tokens": ["##mir", "j", "aging", "##mx", "prescription", "mobile", "walking", "controlled", "effectiveness", "350", "blog", "spatial", "latest", "random", "journal", "articles", "effective", "impairment", "202", "adults", "cognitive", "age", "334", "interactive", "health", "pediatric", "research", "themes", "impact", "index", "skip", "walk", "publishing", "register", "biotechnology", "content", "biomedical", "ip", "2020", "many", "protocols", "technology", "serious", "nursing", "surveillance", "authors", "rehabilitation", "daily", "medication", "steps", "senior", "##4", "tech", "assist", "adult", "elderly", "scope", "involved", "cognition", "rehab", "study", "asian", "##ized", "protocol", "der", "med", "log", "career", "cancer", "older", "pacific", "article", "editorial", "institutional", "technologies", "disabled", "internet", "ai", "diabetes", "uh", "clinic", "inform", "fees", "online", "bio", "format", "careers", "games", "##mat", "cancers", "##eal", "journals", "##atics", "island", "published", "engineering", "public", "x", "##tech", "issues", "efficacy", "human", "challenges", "processing", "policies", "##tory", "partners", "alzheimer", "healthcare", "medical", "##mi", "changes", "313", "theme", "patient", "japan", "##ative", "foot", "information", "walker", "129", "2018", "##bet", "##form", "author", "factor", "38", "pharmacy", "##ro", "board", "education", "103", "center", "everyday", "studies", "medicine", "##ici", "factors", "1828", "options", "resource", "##uro", "centers", "parenting", "using", "android", "cell", "game", "announced", "data", "mika", "prep", "##rin", "registers", "blogger", "hospital", "##in", "stairs", "##r", "educational", "##io", "impaired", "204", "registration", "control", "fee", "##ology", "intelligence", "select", "main", "website", "boards", "dementia", "per", "2021", "tracking", "resources", "ne", "page", "year", "assisted", "topics", "prescribed", "nurse", "decline", "humans", "##5", "islands", "pages", "##de", "patients", "cost", "card", "contents", "disease", "engineer", "diseases", "part", "##nology", "2019", "written", "walkers", "todd", "institutes", "heart", "1744", "researcher", "##x", "ada", "challenging", "problems", "updated", "hospitals", "benefits", "announcement", "challenge", "issue", "mental", "number", "139", "74", "m", "##eding", "benefit", "years", "50", "computing", "hiking", "statistics", "change", "mentally", "help", "brain", "parents", "##ense", "phone", "therapy", "jay", "##th", "##ive", "india", "58", "database", "assistant", "processor", "partner", "69", "improvements", "psychiatric", "use", "best", "citing", "appointments", "34", "parent", "formats", "asia", "focus", "critical", "news", "medicinal", "top", "##per", "concerns", "vaccine", "parker", "therapist", "sweden", "databases", "review", "computers", "cardiac", "casualties", "mir", "mobility", "current", "insurance", "citation", "20", "changed", "illness", "forum", "doctor", "deficit", "update", "brains", "list", "educated", "assistance", "syndrome", "psychiatrist", "date", "104", "guide", "seniors", "cellular", "radio", "68", "33", "medications", "trial", "vision", "detection", "population", "policy", "55", "score", "impacted", "publisher", "institution", "disability", "stages", "directive", "with", "prevalence", "guidelines"], "weights": [2.9904370307922363, 2.3889005184173584, 1.9962369203567505, 1.960531234741211, 1.924254298210144, 1.9024893045425415, 1.8409984111785889, 1.8347960710525513, 1.8033421039581299, 1.776262879371643, 1.7709637880325317, 1.7562934160232544, 1.665087342262268, 1.6619833707809448, 1.6341638565063477, 1.5869557857513428, 1.5632350444793701, 1.5567657947540283, 1.4981675148010254, 1.4920116662979126, 1.4812921285629272, 1.4616354703903198, 1.4287467002868652, 1.4097284078598022, 1.387653112411499, 1.3783304691314697, 1.378111481666565, 1.3776799440383911, 1.3561395406723022, 1.353698968887329, 1.344903588294983, 1.3420137166976929, 1.3307223320007324, 1.3258942365646362, 1.2978100776672363, 1.2868492603302002, 1.2767066955566406, 1.2515150308609009, 1.2485381364822388, 1.2407325506210327, 1.2353006601333618, 1.2290593385696411, 1.225302815437317, 1.2235369682312012, 1.2217220067977905, 1.2186009883880615, 1.2141926288604736, 1.2110525369644165, 1.2020083665847778, 1.1857919692993164, 1.184658408164978, 1.1749681234359741, 1.1733883619308472, 1.1724915504455566, 1.1569406986236572, 1.1558749675750732, 1.1544142961502075, 1.1473464965820312, 1.1354930400848389, 1.1268668174743652, 1.115323543548584, 1.112115740776062, 1.11175537109375, 1.0993212461471558, 1.0973484516143799, 1.0798110961914062, 1.074578881263733, 1.0742384195327759, 1.06722092628479, 1.064541220664978, 1.045292615890503, 1.0339041948318481, 1.028557300567627, 1.0281153917312622, 1.0276014804840088, 1.0271707773208618, 1.017482042312622, 1.0111885070800781, 1.0091439485549927, 0.9913783073425293, 0.9861040115356445, 0.980733335018158, 0.9790762662887573, 0.9788291454315186, 0.9767357110977173, 0.9625447988510132, 0.9536340236663818, 0.949108898639679, 0.9474256038665771, 0.9446300268173218, 0.944420337677002, 0.9432445764541626, 0.9384490251541138, 0.9368607401847839, 0.9335247874259949, 0.9312373995780945, 0.9270786643028259, 0.9263217449188232, 0.9258096218109131, 0.9238319396972656, 0.92140793800354, 0.9166908264160156, 0.9162089228630066, 0.9152630567550659, 0.9084447622299194, 0.9067651033401489, 0.9051285982131958, 0.9015509486198425, 0.8790834546089172, 0.8756446838378906, 0.8733307719230652, 0.8585675358772278, 0.8563756942749023, 0.8540326356887817, 0.852211594581604, 0.8520110845565796, 0.8435914516448975, 0.8423974514007568, 0.8376879096031189, 0.8233574032783508, 0.8227320909500122, 0.8205264210700989, 0.8147050142288208, 0.8123212456703186, 0.8116540908813477, 0.8105185627937317, 0.8039214611053467, 0.8020933270454407, 0.7998899221420288, 0.79914391040802, 0.781073808670044, 0.768807053565979, 0.7687830924987793, 0.7563281655311584, 0.7553421854972839, 0.7526950240135193, 0.7495477199554443, 0.731706976890564, 0.7258718013763428, 0.7162989377975464, 0.7126213312149048, 0.7063964605331421, 0.7062506079673767, 0.6976382732391357, 0.6969031095504761, 0.6947387456893921, 0.6763180494308472, 0.6699154376983643, 0.6674038767814636, 0.6649707555770874, 0.6526409983634949, 0.6513868570327759, 0.6479225158691406, 0.6420500874519348, 0.6308393478393555, 0.6306414604187012, 0.6282573938369751, 0.6276472210884094, 0.6271743178367615, 0.6269177794456482, 0.6212899088859558, 0.6197950839996338, 0.618806779384613, 0.6152188777923584, 0.6129050254821777, 0.6055682301521301, 0.6055422425270081, 0.6011554598808289, 0.5990396738052368, 0.5983220338821411, 0.5968378186225891, 0.5934457778930664, 0.5832750201225281, 0.5799239873886108, 0.5741673707962036, 0.5729235410690308, 0.5719517469406128, 0.567635178565979, 0.5570195913314819, 0.554101824760437, 0.5535229444503784, 0.5521150231361389, 0.5487198829650879, 0.5319974422454834, 0.5318393707275391, 0.5292316675186157, 0.5275087356567383, 0.5124250650405884, 0.5108292698860168, 0.5068128108978271, 0.5021774172782898, 0.4875847399234772, 0.4875653386116028, 0.4841322600841522, 0.48250865936279297, 0.4775041937828064, 0.46803170442581177, 0.465695858001709, 0.4470610022544861, 0.44184452295303345, 0.4388946294784546, 0.4287416636943817, 0.41621333360671997, 0.409548819065094, 0.4091634452342987, 0.40444687008857727, 0.40420979261398315, 0.40040117502212524, 0.39903759956359863, 0.3957705795764923, 0.3932320773601532, 0.3918377757072449, 0.38986948132514954, 0.38682547211647034, 0.3837376534938812, 0.3801722526550293, 0.37539052963256836, 0.37394648790359497, 0.37366440892219543, 0.36734700202941895, 0.36690816283226013, 0.3622003495693207, 0.3567957878112793, 0.3492155373096466, 0.3461354970932007, 0.34503173828125, 0.33970335125923157, 0.33485642075538635, 0.3295167088508606, 0.3284100890159607, 0.3267745077610016, 0.32597047090530396, 0.31692951917648315, 0.3158031702041626, 0.31442245841026306, 0.29987797141075134, 0.29804685711860657, 0.2964978516101837, 0.2955983281135559, 0.2942216694355011, 0.2935091257095337, 0.29102393984794617, 0.288930207490921, 0.2809954881668091, 0.2761458158493042, 0.2696905732154846, 0.2689477801322937, 0.26617154479026794, 0.26164716482162476, 0.25962305068969727, 0.2533425986766815, 0.2526090741157532, 0.25092971324920654, 0.2506096363067627, 0.24997299909591675, 0.24492673575878143, 0.2439926713705063, 0.23505856096744537, 0.2173396348953247, 0.2167794108390808, 0.21242302656173706, 0.21007700264453888, 0.2094968557357788, 0.20845915377140045, 0.20775817334651947, 0.20537607371807098, 0.20231597125530243, 0.1927277147769928, 0.1898963451385498, 0.18749603629112244, 0.18725748360157013, 0.1769248992204666, 0.17691485583782196, 0.17516395449638367, 0.17283137142658234, 0.17158232629299164, 0.170648455619812, 0.1690686196088791, 0.16695238649845123, 0.16285768151283264, 0.16093626618385315, 0.15986540913581848, 0.14891417324543, 0.14265692234039307, 0.14141015708446503, 0.1365644931793213, 0.1260089874267578, 0.12157393991947174, 0.11850179731845856, 0.11559141427278519, 0.11164029687643051, 0.11125309765338898, 0.10985992103815079, 0.10751764476299286, 0.10363313555717468, 0.10004068166017532, 0.09507082402706146, 0.09228352457284927, 0.0922103226184845, 0.0898379534482956, 0.07795032113790512, 0.07651901990175247, 0.07169004529714584, 0.07127606868743896, 0.07004610449075699, 0.06891178339719772, 0.06862499564886093, 0.059550799429416656, 0.058551304042339325, 0.055372193455696106, 0.049674998968839645, 0.03352704271674156, 0.026965070515871048, 0.025129904970526695, 0.01967288739979267, 0.0013543282402679324]}, "Qwen3-4B": {"model_id": "Qwen/Qwen3-Embedding-4B", "vector": [-0.0003001514414791018, 0.0261529553681612, -0.04675130173563957, -0.04443687945604324, -0.0014826758997514844, 0.06017494201660156, 0.020945508033037186, 0.028930259868502617, -0.0049760048277676105, -0.004715632647275925, 0.05346312001347542, 0.03865082934498787, 0.009373404085636139, 0.004484190605580807, -0.028814539313316345, -0.04790851101279259, -0.0006039192085154355, 0.0025747932959347963, 0.00013380245945882052, 0.0030376773793250322, -0.003601817414164543, 0.010299173183739185, 0.03263333439826965, -0.04721418395638466, -0.049297165125608444, -0.04027092456817627, -0.0059596337378025055, -0.036104965955019, 0.026615839451551437, -0.02846737578511238, -0.009894149377942085, -0.029624586924910545, -0.010125591419637203, 0.0048892139457166195, 0.0021119089797139168, -0.014291549101471901, 0.0130764776840806, -0.0004918144550174475, 0.009662707336246967, 0.029624586924910545, -0.026384398341178894, 0.0393451526761055, -0.005467819049954414, -0.0061332150362432, -0.045362647622823715, -0.007116843946278095, -0.0014031176688149571, -0.025342907756567, 0.004050236660987139, -0.023259930312633514, 0.017821040004491806, 0.0023433510214090347, -0.044668324291706085, -0.008736939169466496, -0.005901772994548082, -0.016779551282525063, 0.07035839557647705, 0.0008606752380728722, -0.009546985849738121, 0.007753309793770313, 0.008679077960550785, 0.011745685711503029, 0.011745685711503029, -0.0074640074744820595, -0.007521867752075195, -0.0042527480982244015, 0.020019739866256714, -0.04883427917957306, -0.001526071224361658, -0.004802423063665628, -0.017705319449305534, 0.03795650228857994, -0.023838534951210022, 0.02221843972802162, -0.0007377216243185103, -0.017126714810729027, -0.00393451564013958, 0.0032546543516218662, -0.01573806256055832, -0.0009185357484966516, -0.021061230450868607, 0.0011716755107045174, -0.01139852311462164, 0.026500118896365166, 0.015506619587540627, 0.05346312001347542, 0.001417582738213241, 0.011167081072926521, 0.025574350729584694, -0.02673156000673771, 0.00943126529455185, -0.010588475503027439, -0.004802423063665628, -0.03170756623148918, 0.013365780003368855, 0.0032112589105963707, -0.016316667199134827, -0.0130764776840806, -0.009257683530449867, 0.0022710254415869713, -0.015159456990659237, -0.009373404085636139, 0.030550355091691017, 0.005149586591869593, 0.013134337961673737, -0.008679077960550785, -0.007319355849176645, -0.0055256797932088375, 0.020829787477850914, -0.004628841765224934, -0.0036741429939866066, -0.018631087616086006, 0.030318913981318474, 0.053231678903102875, -0.0029074912890791893, -0.0026471188757568598, -0.003616282483562827, -0.04003947973251343, -0.000549674965441227, 0.0075797284953296185, 0.0024446069728583097, 0.0071457745507359505, -0.028698818758130074, -0.009662707336246967, 0.03147612512111664, -0.003703073365613818, -0.007406146731227636, 0.024648582562804222, 0.015275177545845509, 0.012729315087199211, -0.020829787477850914, -0.025574350729584694, -0.024995746091008186, -0.0028640958480536938, -0.003384840441867709, 0.0054388889111578465, 0.013423641212284565, -0.008910520002245903, -0.030318913981318474, 0.020366903394460678, 0.0002639886224642396, -0.0035150267649441957, -0.0047734929248690605, 0.005554609932005405, -0.005930703599005938, -0.028120214119553566, 0.010762057267129421, -0.018515367060899734, 0.013250059448182583, -0.0050049349665641785, 0.027078723534941673, -0.0016200946411117911, 0.009778427891433239, 0.0007449542172253132, 0.0010270242346450686, 0.01816820353269577, -0.003384840441867709, -0.0014031176688149571, 0.005033865571022034, -0.0020251183304935694, 0.02129267156124115, 0.020714066922664642, -0.0012873966479673982, -0.0044552600011229515, 0.004860283806920052, 0.029624586924910545, -0.036799293011426926, 0.03471631184220314, -0.0015766992000862956, -0.018399646505713463, 0.011861407198011875, 0.007319355849176645, -0.0022565603721886873, -0.014754433184862137, 0.0012946291826665401, 0.00015278793580364436, -0.0188625305891037, -0.012324291281402111, -0.005612470675259829, 0.0188625305891037, 8.758184776525013e-06, -0.002213164931163192, 0.013250059448182583, 0.012497873045504093, -0.0075797284953296185, 0.02198699861764908, 0.00862121768295765, -0.011282801628112793, 0.020019739866256714, -0.014060107059776783, 0.0065960995852947235, -0.0003525875508785248, 0.014175827614963055, 0.008968381211161613, -0.0052074468694627285, 0.011572103947401047, -0.01747387833893299, 0.0048892139457166195, 0.0425853431224823, 0.011745685711503029, 0.011282801628112793, 0.0031100029591470957, -0.03332766145467758, 0.015390899032354355, 0.013770803809165955, -0.0034137708134949207, -0.0053231678903102875, -0.0052074468694627285, 0.020829787477850914, -0.018631087616086006, 0.007521867752075195, -0.016779551282525063, -0.0172424353659153, -0.009720567613840103, -0.001200605765916407, 0.010530615225434303, 0.0031100029591470957, -0.013712943531572819, 0.023028487339615822, 0.012845035642385483, -0.011456383392214775, -0.0034427009522914886, -0.00674075074493885, -0.013192199170589447, 0.010183451697230339, 0.003153398400172591, -0.0037320037372410297, 0.0134815014898777, 0.011514243669807911, -0.009315543808043003, 0.01978829875588417, 0.010819917544722557, 0.011977127753198147, -0.03008747100830078, 0.012845035642385483, 0.0134815014898777, 0.01747387833893299, -0.011167081072926521, -0.018515367060899734, 0.037493616342544556, -0.052537351846694946, -0.005554609932005405, -0.0057281916961073875, -0.002299955813214183, 0.009778427891433239, -0.02198699861764908, 0.006972192786633968, -0.027425887063145638, -0.011803545989096165, -0.01463871169835329, -0.0029074912890791893, -0.021176951006054878, -0.018283924087882042, -0.01978829875588417, -0.06665532290935516, 0.006682890001684427, -0.009489125572144985, -0.04489976540207863, -0.005612470675259829, -0.019556855782866478, 0.007811170537024736, 0.012440011836588383, 0.0061621456407010555, -0.0021263740491122007, 0.003153398400172591, -0.016895271837711334, 0.009199823252856731, 0.014175827614963055, 0.0012801639968529344, -0.025458630174398422, 0.02140839211642742, 0.011456383392214775, 0.014522991143167019, 0.013423641212284565, 0.019325414672493935, -0.012555733323097229, 0.021176951006054878, 0.0034137708134949207, 0.01816820353269577, -0.028004491701722145, -0.015506619587540627, 0.016895271837711334, 0.009141962043941021, 0.0188625305891037, -0.001526071224361658, -0.0054099587723612785, -0.02522718720138073, -0.0023288859520107508, -0.04165957495570183, -0.009489125572144985, 0.0008208961226046085, -0.01573806256055832, 0.0006183843361213803, -0.023144207894802094, 0.0028785609174519777, 0.0007196402293629944, 0.012034988030791283, 0.0058728428557515144, 0.0031100029591470957, 0.009952009655535221, -0.013307919725775719, -0.0052074468694627285, -0.005930703599005938, -0.01504373550415039, 0.01666383072733879, 0.036567848175764084, 0.013944385573267937, 0.009952009655535221, -0.01967257633805275, -0.020714066922664642, -0.00862121768295765, 0.019904019311070442, -0.00393451564013958, 0.011861407198011875, -0.015275177545845509, -0.0044552600011229515, -0.019093971699476242, 0.004310608841478825, -0.021061230450868607, -0.0006690122536383569, 0.027310166507959366, -0.04976004734635353, -0.015622341074049473, -0.015275177545845509, -0.005901772994548082, 0.020251182839274406, 0.030318913981318474, -0.0025603279937058687, 0.009546985849738121, -0.02221843972802162, 0.0036452128551900387, 0.008794799447059631, -0.024648582562804222, -0.0058439127169549465, 0.0016200946411117911, -0.008910520002245903, -0.0059596337378025055, 0.027310166507959366, 0.010414893738925457, -0.003992375917732716, 0.0046577719040215015, 0.022449882701039314, 0.023838534951210022, 0.018515367060899734, -0.022681323811411858, -0.0026905143167823553, 0.04813995212316513, -0.006682890001684427, -0.028583098202943802, -0.03633640706539154, 0.02048262394964695, 0.0021408393513411283, -0.0005569075001403689, 0.0008823729585856199, -0.021871276199817657, 0.018515367060899734, -0.0037898642476648092, 0.009720567613840103, 0.019441135227680206, 0.0034137708134949207, 0.009373404085636139, -0.006422517821192741, -0.0074640074744820595, 0.0015043735038489103, -0.04050236567854881, -0.028235934674739838, -0.007232564967125654, 0.025921514257788658, 0.028930259868502617, -0.01654810830950737, -0.025342907756567, -0.0393451526761055, -0.0008896054932847619, -0.021524114534258842, -0.04050236567854881, 0.01504373550415039, 0.004918144084513187, 0.0025747932959347963, -0.010009869933128357, 0.0061332150362432, -0.004513120744377375, 0.05855484679341316, -0.007984751835465431, 0.0046577719040215015, -0.014175827614963055, -0.007926891557872295, -0.00015097980212885886, -0.05462033301591873, -0.020251182839274406, -0.011282801628112793, 0.009373404085636139, -0.015506619587540627, 0.0020106530282646418, 0.007521867752075195, -0.029624586924910545, 0.05438889190554619, -0.0014609781792387366, 0.014928014948964119, 0.028235934674739838, 0.007695449516177177, -0.0172424353659153, -0.012324291281402111, -0.020135462284088135, -0.010299173183739185, 0.016779551282525063, 0.009373404085636139, -0.00674075074493885, -0.01099349930882454, -0.0017936761723831296, 0.03379054367542267, -0.03147612512111664, -0.0032112589105963707, 0.004831353668123484, -0.016895271837711334, -0.009662707336246967, -0.009894149377942085, -0.001952792634256184, -0.031939007341861725, -0.001417582738213241, 0.009778427891433239, -0.01573806256055832, 0.021524114534258842, -0.01654810830950737, -0.0069432626478374004, 0.028698818758130074, 0.006625029724091291, 0.048602838069200516, -0.009604846127331257, 0.020829787477850914, 0.0038477247580885887, -0.024185698479413986, 0.0019238623790442944, -0.008274054154753685, -0.01666383072733879, 0.02140839211642742, 0.020829787477850914, -0.00021336067584343255, -0.0037320037372410297, 0.014696571975946426, 0.013192199170589447, 0.03332766145467758, -0.015159456990659237, 0.012382151558995247, 0.010183451697230339, 0.013134337961673737, -0.0030087470076978207, -0.024301419034600258, 0.01070419605821371, 0.012960757128894329, 0.008736939169466496, -0.029045982286334038, -0.025805791839957237, -0.0030087470076978207, -0.029393143951892853, -0.014754433184862137, 0.022334162145853043, 0.03008747100830078, 0.0020540484692901373, -0.019441135227680206, 0.02279704622924328, -0.02916170284152031, -0.006972192786633968, 0.03726217523217201, 0.006653959862887859, -0.029393143951892853, 0.023028487339615822, -0.02916170284152031, -0.014291549101471901, 0.01585378311574459, 0.028120214119553566, -0.01816820353269577, -0.0018660018686205149, 0.020366903394460678, -0.012382151558995247, -0.0023722813930362463, -0.028583098202943802, 0.0046577719040215015, -0.003688608296215534, 0.0019093971932306886, -0.00284963077865541, 0.0344848707318306, 0.0023578163236379623, 0.014407269656658173, -0.007753309793770313, 0.025574350729584694, 0.00943126529455185, 0.0012656989274546504, 0.0017719784518703818, 0.044668324291706085, -0.0014103502035140991, -0.007984751835465431, -0.008794799447059631, -0.0067118206061422825, -0.023144207894802094, -0.028930259868502617, -0.00010080387437483296, 0.004310608841478825, 0.00013561059313360602, 0.028698818758130074, -0.0014609781792387366, -0.0068275416269898415, 0.006306796800345182, -0.008679077960550785, 0.024880023673176765, -0.012729315087199211, -0.007319355849176645, -0.0074640074744820595, 0.002733909524977207, -0.017705319449305534, -0.009199823252856731, 0.00786903128027916, 0.0045709810219705105, -0.0050049349665641785, -0.0245328601449728, -0.005814982578158379, -0.00902624148875475, 0.030318913981318474, -0.018631087616086006, 0.008563357405364513, -0.050222933292388916, -0.018746808171272278, -0.013944385573267937, 0.06943262368440628, -0.04721418395638466, 0.01967257633805275, 0.007637588772922754, -0.01139852311462164, 0.035873524844646454, -0.02835165522992611, -0.008100473321974277, 0.00862121768295765, 0.017589598894119263, 0.04003947973251343, -0.009720567613840103, -0.016200946643948555, -0.021639835089445114, -0.014002245850861073, 0.015275177545845509, -0.005381028633564711, 0.01070419605821371, 0.001851536682806909, 0.005554609932005405, 0.03008747100830078, 0.029508866369724274, 0.024301419034600258, 0.020714066922664642, -0.0068275416269898415, 0.007926891557872295, -0.0036452128551900387, 0.01110921986401081, -0.0035294918343424797, -0.01967257633805275, 0.010414893738925457, -0.011456383392214775, 0.020135462284088135, 0.0028640958480536938, -0.01666383072733879, -0.028814539313316345, -0.018399646505713463, -0.002835165476426482, -0.006885401904582977, -0.02360709197819233, 0.024764303117990494, 0.020829787477850914, 0.05207446962594986, 0.005236377008259296, 0.0053231678903102875, 0.016316667199134827, -0.016316667199134827, -0.0067118206061422825, -0.005988563876599073, 0.011629965156316757, -0.027773050591349602, -0.0005207447102293372, -0.0052074468694627285, 0.01573806256055832, 0.006856471765786409, 0.0008317449828609824, -0.02927742339670658, 0.008389775641262531, -0.0041370270773768425, 0.05114870145916939, 0.027194445952773094, -0.01654810830950737, 0.00786903128027916, 0.011282801628112793, -0.03471631184220314, 0.03309621661901474, 0.010530615225434303, -0.009894149377942085, 0.012497873045504093, 0.01110921986401081, -0.024648582562804222, -0.045362647622823715, 0.014117967337369919, 0.007753309793770313, -0.014812293462455273, -0.03471631184220314, -0.0034282358828932047, 0.012960757128894329, 0.036104965955019, 0.008274054154753685, -0.04119669273495674, 0.0025747932959347963, 0.021639835089445114, 0.017010992392897606, 0.024069976061582565, -0.0063646575435996056, 0.010183451697230339, -0.010935638099908829, -0.027078723534941673, 0.025921514257788658, -0.03332766145467758, 0.009546985849738121, 0.039113711565732956, -0.008910520002245903, -0.035179197788238525, 0.0011138150002807379, -0.006769680883735418, 0.019904019311070442, 0.006625029724091291, -0.028583098202943802, 0.029045982286334038, -0.03957659751176834, 0.007695449516177177, -0.004513120744377375, -0.013423641212284565, 0.027078723534941673, 0.0057281916961073875, 0.031013239175081253, 0.012382151558995247, 0.04675130173563957, -0.009662707336246967, 0.026384398341178894, -0.0010776522103697062, -0.006248936522752047, -0.05600898340344429, -0.015969503670930862, -0.03633640706539154, 0.000549674965441227, -0.006682890001684427, 0.03564208000898361, 0.01967257633805275, -0.011861407198011875, -0.014696571975946426, 0.021524114534258842, -0.012902895919978619, -0.020019739866256714, -0.016316667199134827, -0.00821619387716055, 0.011572103947401047, 0.004831353668123484, -0.05114870145916939, -0.0009402334690093994, -0.014060107059776783, 0.036567848175764084, 0.010762057267129421, -0.027078723534941673, 0.025921514257788658, -0.023491371423006058, 0.050917260348796844, 0.011224941350519657, -0.0328647755086422, 0.0036596779245883226, -0.035873524844646454, -0.0018804669380187988, -0.01070419605821371, 0.015969503670930862, -0.0045709810219705105, 0.0013958851341158152, -0.05114870145916939, 0.02684728242456913, 0.0040213060565292835, 0.012440011836588383, -0.0009402334690093994, 0.015969503670930862, 0.0020251183304935694, -0.01573806256055832, 0.024648582562804222, -0.012324291281402111, -0.03795650228857994, 0.035873524844646454, 0.005786051973700523, -0.026384398341178894, 0.04189101606607437, 0.0075797284953296185, -0.009778427891433239, 0.018399646505713463, -0.021061230450868607, 0.039808038622140884, 0.0061621456407010555, 0.013712943531572819, 0.015159456990659237, -0.00044299461296759546, 0.06387801468372345, 0.014580851420760155, -0.024764303117990494, 0.028698818758130074, 0.014928014948964119, -0.0033993057440966368, -0.017010992392897606, 0.023375650867819786, -0.011051359586417675, -0.014522991143167019, -0.011572103947401047, -0.008505496196448803, -0.0040213060565292835, 0.005467819049954414, -0.008389775641262531, 0.010357033461332321, -0.04189101606607437, 0.001981722889468074, -0.002415676834061742, 0.016779551282525063, 0.015390899032354355, -0.019325414672493935, 0.005265307612717152, 0.03078179806470871, 0.014407269656658173, -0.03147612512111664, 0.0010125591652467847, -0.004484190605580807, -0.03379054367542267, -0.013712943531572819, -0.00786903128027916, 0.01747387833893299, 0.010414893738925457, 0.030550355091691017, -0.018746808171272278, 0.046056974679231644, 0.012092849239706993, 0.016316667199134827, -0.027773050591349602, -0.004368469584733248, -0.0409652478992939, -0.03471631184220314, -0.020714066922664642, -0.013423641212284565, -0.03564208000898361, -0.015390899032354355, 0.0003417386906221509, -0.0023722813930362463, -0.008968381211161613, 0.014522991143167019, 0.01816820353269577, 0.04027092456817627, -0.02210271917283535, -0.012440011836588383, 0.05346312001347542, -0.043742552399635315, 0.008852659724652767, 0.020945508033037186, 0.09072529524564743, 0.025690071284770966, -0.028583098202943802, 0.0018226064275950193, -0.00393451564013958, 0.0050917258486151695, 0.017821040004491806, 0.010009869933128357, -0.01654810830950737, -0.008389775641262531, 0.011629965156316757, -0.0344848707318306, 0.00821619387716055, 0.006567168980836868, -0.0005930703482590616, 0.01070419605821371, -0.020945508033037186, -0.010935638099908829, -0.016316667199134827, 0.0126714538782835, 0.01423368789255619, -0.04189101606607437, 0.03402198478579521, 0.016200946643948555, -0.03471631184220314, -0.006567168980836868, 0.025690071284770966, 0.014002245850861073, -0.019904019311070442, -0.00786903128027916, -0.020366903394460678, 0.014928014948964119, 0.0034716313239187002, -0.006017494015395641, -0.005554609932005405, 0.0009185357484966516, 0.017705319449305534, 0.023028487339615822, 0.010241311974823475, 0.00786903128027916, 0.0020395833998918533, -0.01897825114428997, -0.001641792245209217, 0.009894149377942085, 0.014522991143167019, 0.009489125572144985, 0.028698818758130074, 0.005670330952852964, -0.010588475503027439, 0.013365780003368855, -0.017589598894119263, 0.05276879668235779, -0.005265307612717152, -0.029624586924910545, 0.010067731142044067, -0.017705319449305534, -0.018515367060899734, -0.016895271837711334, -0.02603723481297493, -0.04559409245848656, -0.004079166799783707, 0.0031823287717998028, -0.007377216592431068, 0.004368469584733248, 0.03240189328789711, 0.002430141903460026, -0.01099349930882454, 0.007521867752075195, 5.1306007662788033e-05, 0.02198699861764908, 0.024301419034600258, -0.0050049349665641785, 0.0029942819382995367, 0.008968381211161613, 0.014928014948964119, 0.014407269656658173, 0.030550355091691017, 0.014349409379065037, 0.019556855782866478, 0.012902895919978619, 0.012034988030791283, 0.008447635918855667, 0.01897825114428997, 0.0062778666615486145, -0.010935638099908829, -0.008679077960550785, 0.020019739866256714, 0.004484190605580807, -0.06248936429619789, 0.024648582562804222, -0.012902895919978619, -0.008274054154753685, 0.013886525295674801, 0.03471631184220314, 0.011051359586417675, -0.0188625305891037, 0.004513120744377375, 0.012092849239706993, 0.0261529553681612, 0.014117967337369919, -0.014465129934251308, 0.044668324291706085, 0.015390899032354355, 0.0474456287920475, 0.013134337961673737, -0.04351111128926277, 0.010125591419637203, 0.0052942377515137196, 0.017705319449305534, -0.01654810830950737, -0.0021408393513411283, 0.0010487219551578164, -0.021755555644631386, -0.009315543808043003, 0.010877777822315693, 0.012034988030791283, -0.015159456990659237, -0.017821040004491806, 0.04397399723529816, 0.013944385573267937, 0.010183451697230339, 0.0061332150362432, 0.014812293462455273, -0.01573806256055832, -0.007637588772922754, 0.014580851420760155, -0.0034716313239187002, 0.022681323811411858, 0.03957659751176834, 0.022449882701039314, 0.024301419034600258, -0.003486096393316984, -0.03494775667786598, -0.019209692254662514, -0.00821619387716055, 0.012902895919978619, 0.000871524098329246, 0.008158333599567413, 0.01897825114428997, 0.008910520002245903, 0.03379054367542267, 0.007319355849176645, 0.011687825433909893, -0.016779551282525063, -0.020251182839274406, 0.011977127753198147, 0.014349409379065037, -0.02927742339670658, 0.019093971699476242, 0.0328647755086422, -0.01110921986401081, 0.0018226064275950193, 0.043742552399635315, -0.03332766145467758, -0.004050236660987139, -0.036104965955019, -0.02291276678442955, -0.036799293011426926, 0.011456383392214775, -0.013250059448182583, -0.014522991143167019, -0.00674075074493885, -0.04628841578960419, 0.01978829875588417, 0.0245328601449728, 0.016316667199134827, 0.001634559710510075, -0.0031823287717998028, 0.021639835089445114, -0.0015043735038489103, -0.002430141903460026, -0.0041370270773768425, -0.001981722889468074, 0.029624586924910545, 0.007637588772922754, -0.0027628398966044188, 0.005814982578158379, -0.02765733003616333, -0.009778427891433239, 0.025458630174398422, -0.0393451526761055, 0.02210271917283535, -0.01747387833893299, 0.013828665018081665, 0.04050236567854881, -0.009720567613840103, 0.030550355091691017, -0.005583540536463261, -0.02522718720138073, 0.018399646505713463, 0.03170756623148918, 0.03147612512111664, -0.016200946643948555, 0.008274054154753685, 0.0022854905109852552, -0.0052074468694627285, -0.0007702682050876319, -0.004628841765224934, -0.010935638099908829, -0.0015766992000862956, -0.00011843325773952529, 0.0067118206061422825, -0.026384398341178894, -0.020714066922664642, 0.009952009655535221, -0.004599911626428366, 0.0019093971932306886, 0.019093971699476242, -0.006422517821192741, 0.020019739866256714, -0.016200946643948555, 0.022565603256225586, 0.011224941350519657, 0.007695449516177177, 0.0045709810219705105, 0.014060107059776783, -0.03703073412179947, 0.0010776522103697062, -0.030318913981318474, 0.014349409379065037, -0.0038766548968851566, -0.008968381211161613, 0.03633640706539154, -0.034253429621458054, -0.011861407198011875, 0.004947074688971043, 0.04397399723529816, -0.0015477689448744059, 0.006422517821192741, -0.013828665018081665, 0.01585378311574459, 0.014465129934251308, -0.041428133845329285, 0.03379054367542267, 0.003992375917732716, -0.007290425710380077, -0.0038766548968851566, 0.0014537456445395947, -0.0188625305891037, -0.015390899032354355, -0.04189101606607437, 0.020019739866256714, 0.008158333599567413, 0.028814539313316345, -0.03147612512111664, 0.011629965156316757, 0.04651986062526703, 0.0016562574310228229, -0.007348285987973213, -0.012902895919978619, 0.036104965955019, -0.0065382388420403, -0.017936762422323227, -0.02603723481297493, 0.03147612512111664, -0.012324291281402111, 0.00041044806130230427, 0.018399646505713463, 0.009662707336246967, 0.007753309793770313, 0.0019383274484425783, 0.01423368789255619, -0.008331915363669395, -0.041428133845329285, 0.00042310505523346364, -0.004079166799783707, 0.000998093979433179, 0.007174704689532518, 0.002184234792366624, 0.003384840441867709, 0.0018804669380187988, 0.02916170284152031, -0.007377216592431068, -0.0012873966479673982, -0.001106582465581596, 0.003616282483562827, 0.0261529553681612, 0.024069976061582565, -0.0172424353659153, -0.002299955813214183, -0.0067118206061422825, 0.0038766548968851566, 0.011282801628112793, 0.02754160761833191, 0.009084101766347885, -0.008968381211161613, 0.007984751835465431, -0.020366903394460678, -0.02372281439602375, 0.026500118896365166, -0.0046867020428180695, 0.013828665018081665, -0.004281678702682257, -0.018746808171272278, 0.011282801628112793, 0.008100473321974277, -0.010935638099908829, 0.006625029724091291, -0.0013597222277894616, 0.023375650867819786, -0.0032112589105963707, -0.024880023673176765, -0.013770803809165955, 0.012440011836588383, 0.015622341074049473, -0.026268675923347473, 0.024995746091008186, -0.0188625305891037, 0.020714066922664642, 0.015622341074049473, 0.00943126529455185, 0.036567848175764084, 0.01666383072733879, -0.031244682148098946, 0.006972192786633968, 0.03309621661901474, 0.019093971699476242, -0.0005786052206531167, -0.02754160761833191, 0.015390899032354355, -0.035873524844646454, -0.025111466646194458, -0.018515367060899734, -0.051843028515577316, -0.008042612113058567, -0.0008281287155114114, -0.011340661905705929, -0.008447635918855667, -0.009604846127331257, -0.021639835089445114, 0.029856029897928238, -0.014117967337369919, -0.005612470675259829, 0.036799293011426926, 0.0023867464624345303, 0.006972192786633968, -0.028583098202943802, 0.04327967017889023, 0.002097443910315633, -0.02210271917283535, -0.008389775641262531, 0.005149586591869593, 0.004050236660987139, -0.020714066922664642, -0.009894149377942085, 0.02360709197819233, 0.012555733323097229, -0.029393143951892853, -0.0261529553681612, -0.005352098029106855, -0.05901773273944855, -0.0035439569037407637, -0.022449882701039314, 0.020945508033037186, -0.005988563876599073, 0.011745685711503029, 0.0188625305891037, 0.025921514257788658, -0.038187943398952484, -0.0060464246198534966, -0.008042612113058567, 0.0025458629243075848, -0.019556855782866478, 0.0027773049660027027, 0.0002983433078043163, 0.030318913981318474, -0.020945508033037186, 0.0012873966479673982, 0.027078723534941673, 0.014754433184862137, 0.03957659751176834, -0.0344848707318306, 0.061100710183382034, 0.0065382388420403, 0.04189101606607437, 0.008505496196448803, 0.013944385573267937, 0.01654810830950737, 0.003616282483562827, 0.07359858602285385, -0.0014465129934251308, -0.02140839211642742, 0.027078723534941673, -0.025805791839957237, -0.03309621661901474, 0.014580851420760155, 0.03170756623148918, -0.020251182839274406, 0.014928014948964119, 0.011687825433909893, -0.006885401904582977, -0.014060107059776783, -0.013134337961673737, -0.0022420953027904034, -0.003818794386461377, 0.014812293462455273, 0.004165957681834698, 0.04675130173563957, -0.03703073412179947, 0.006567168980836868, -0.0028640958480536938, 0.010241311974823475, 0.007637588772922754, 0.02140839211642742, -0.007811170537024736, -0.011919267475605011, -0.005814982578158379, -0.022565603256225586, 0.0036741429939866066, 0.028235934674739838, 0.004281678702682257, 0.031939007341861725, -0.03008747100830078, 0.029856029897928238, -0.04651986062526703, -0.0023722813930362463, 0.0011138150002807379, -0.00821619387716055, -0.0393451526761055, -0.007637588772922754, 0.015969503670930862, 0.0027628398966044188, -0.022681323811411858, 0.0045420508831739426, 0.04559409245848656, -0.005930703599005938, -0.0028785609174519777, 0.013828665018081665, -0.0063935876823961735, -0.0020395833998918533, 0.01654810830950737, 0.03471631184220314, -0.015159456990659237, -0.016895271837711334, -0.030318913981318474, 0.017821040004491806, -0.023144207894802094, -0.016779551282525063, -0.0065382388420403, 0.0074640074744820595, -0.014522991143167019, -0.007926891557872295, 0.036799293011426926, -0.007290425710380077, 0.0005605238256976008, -0.027773050591349602, 0.012208569794893265, -0.019209692254662514, -0.0022420953027904034, -0.00786903128027916, 0.013828665018081665, -0.0006726285791955888, 0.0016707225004211068, 0.013192199170589447, -0.0044552600011229515, 0.010009869933128357, -0.016779551282525063, 0.03726217523217201, 0.011629965156316757, -0.037493616342544556, -0.051843028515577316, 0.01139852311462164, 0.01654810830950737, 0.010125591419637203, -0.01735815592110157, -0.028583098202943802, 0.015969503670930862, -0.036799293011426926, 0.011051359586417675, 0.035179197788238525, -0.03332766145467758, 0.010530615225434303, -0.019441135227680206, -0.016085224226117134, 0.008100473321974277, 0.02140839211642742, -0.0029074912890791893, 0.003616282483562827, 0.002835165476426482, -0.002516932785511017, 0.010472754016518593, 0.027310166507959366, -0.0055256797932088375, 0.013539361767470837, -0.03564208000898361, 0.006017494015395641, -0.031013239175081253, -0.025574350729584694, 0.012382151558995247, -0.0009402334690093994, -0.007377216592431068, 0.005583540536463261, 0.012613593600690365, 0.0018153738928958774, -0.005062795709818602, -0.0012801639968529344, -0.00047734929830767214, -0.020019739866256714, 0.01967257633805275, 0.0057571218349039555, -0.04050236567854881, -0.010819917544722557, -0.0053231678903102875, -0.03402198478579521, 0.013597222976386547, -0.0015694666653871536, 0.005178516730666161, 0.01585378311574459, 0.019904019311070442, 0.010472754016518593, -0.028698818758130074, -0.006567168980836868, 0.007001122925430536, 0.016200946643948555, 0.015390899032354355, -0.009257683530449867, -0.031013239175081253, -0.06665532290935516, 0.015622341074049473, 0.025111466646194458, -0.010472754016518593, -0.012440011836588383, 0.02522718720138073, 0.016200946643948555, -0.043048229068517685, -0.010935638099908829, 0.0029219563584774733, -0.002950886497274041, -0.01139852311462164, 0.019209692254662514, -0.011977127753198147, 0.008679077960550785, -0.0024735373444855213, 0.03263333439826965, -0.01573806256055832, 0.020945508033037186, 0.012902895919978619, 0.0069143325090408325, 0.0188625305891037, 0.005814982578158379, -0.036567848175764084, -0.020251182839274406, 0.010588475503027439, 0.012845035642385483, 0.0029364214278757572, 0.0071457745507359505, -0.02927742339670658, 0.020251182839274406, 0.023144207894802094, 0.004860283806920052, 0.018399646505713463, 0.010877777822315693, -0.010935638099908829, 0.005467819049954414, 0.040733806788921356, 0.028814539313316345, 0.0008172798552550375, 0.008852659724652767, 0.011051359586417675, 0.0030376773793250322, -0.025805791839957237, 0.003688608296215534, 0.028583098202943802, 0.01897825114428997, 0.024185698479413986, -0.01585378311574459, -0.04165957495570183, -0.0013741874136030674, -0.04397399723529816, 0.03008747100830078, 0.01654810830950737, 0.025805791839957237, 0.010530615225434303, -0.00943126529455185, -0.018399646505713463, -0.030318913981318474, -0.0164323877543211, -0.0062778666615486145, -0.017821040004491806, -0.010588475503027439, 0.00284963077865541, -0.001200605765916407, -0.017705319449305534, -0.00862121768295765, 0.028120214119553566, 0.028698818758130074, 0.0052074468694627285, -0.008100473321974277, 0.0060464246198534966, -0.0035150267649441957, 0.01573806256055832, 0.021176951006054878, -0.011456383392214775, 0.010009869933128357, -0.010472754016518593, 0.024301419034600258, -0.013192199170589447, -0.0006509308586828411, 0.010241311974823475, -0.008679077960550785, 0.008679077960550785, 0.01735815592110157, -0.00633572693914175, 0.03703073412179947, 0.005554609932005405, -0.01139852311462164, -0.0030810728203505278, -0.00326911942102015, 0.03170756623148918, -0.024764303117990494, 0.00674075074493885, 0.024995746091008186, -0.0026615839451551437, 0.012208569794893265, -0.023259930312633514, -0.004079166799783707, -0.0037898642476648092, 0.0019383274484425783, -0.013655083253979683, 0.0004158724914304912, -0.008100473321974277, -0.019209692254662514, 0.01139852311462164, 0.0007666518795304, 0.017705319449305534, -0.019209692254662514, 0.00943126529455185, 0.00041044806130230427, 0.006451447959989309, 0.004513120744377375, -0.004831353668123484, 0.017705319449305534, 0.015969503670930862, -0.014754433184862137, -0.01897825114428997, 0.0025747932959347963, 0.00047373303095810115, 0.013134337961673737, 0.0010053265141323209, -0.0122664300724864, 0.023491371423006058, 0.011919267475605011, 0.0018949321238324046, 0.010299173183739185, 0.025111466646194458, 0.03541063889861107, 0.013250059448182583, -0.011629965156316757, 0.02916170284152031, -0.0054388889111578465, 0.012729315087199211, -0.020366903394460678, 0.036799293011426926, -0.020714066922664642, -0.0035439569037407637, 0.015159456990659237, -0.026268675923347473, -0.027888771146535873, 0.011919267475605011, 0.008331915363669395, -0.025574350729584694, -0.011167081072926521, 0.005612470675259829, -0.0058728428557515144, 0.0057571218349039555, 0.012845035642385483, 0.010241311974823475, 0.008331915363669395, -0.011745685711503029, 0.00633572693914175, -0.027310166507959366, 0.0044552600011229515, 0.004194887820631266, -0.0004267213516868651, -0.0018298389622941613, -0.014002245850861073, -0.016200946643948555, -0.009141962043941021, 0.0004176806251052767, -0.009836288169026375, -0.009257683530449867, 0.01110921986401081, -0.002082978840917349, 0.009084101766347885, 0.0122664300724864, 0.014928014948964119, 0.06156359612941742, -0.0006183843361213803, -0.0036596779245883226, 0.023259930312633514, 0.010819917544722557, -0.0069432626478374004, -0.0049760048277676105, -0.0008425938431173563, 0.0049760048277676105, -0.001996187958866358, 0.03217044845223427, -0.02059834636747837, -0.008042612113058567, -0.024185698479413986, 0.03726217523217201, 0.019093971699476242, -0.00045384347322396934, -0.0025458629243075848, 0.005901772994548082, 0.008100473321974277, -0.007058983668684959, 0.02916170284152031, 0.015969503670930862, -0.0030666075181216, 0.011803545989096165, 0.008100473321974277, 0.016085224226117134, -0.0064803785644471645, -0.030550355091691017, -0.0007196402293629944, 0.01573806256055832, -0.0016851876862347126, -0.0026037234347313643, 0.005583540536463261, -0.004310608841478825, -0.00549674965441227, -0.0026471188757568598, -0.014175827614963055, -0.016895271837711334, -0.012787175364792347, -0.057166196405887604, -0.012729315087199211, -0.027773050591349602, 0.003616282483562827, 0.011224941350519657, 0.0377250611782074, -0.010125591419637203, -0.010646335780620575, -0.01504373550415039, 0.0029074912890791893, 0.012034988030791283, 0.0164323877543211, 0.004368469584733248, -0.02441713958978653, 0.015506619587540627, -0.021871276199817657, 0.002401211531832814, 0.0067118206061422825, 0.024185698479413986, 0.009315543808043003, -0.009894149377942085, -0.010414893738925457, 0.011514243669807911, 0.0024735373444855213, -0.011514243669807911, 0.007116843946278095, 0.018283924087882042, 0.0027049793861806393, 0.017010992392897606, 0.028814539313316345, -0.00015550015086773783, -0.004599911626428366, 0.0068275416269898415, -0.011282801628112793, 0.0188625305891037, 0.004802423063665628, 0.013655083253979683, -0.001417582738213241, -0.03564208000898361, 0.004397399723529816, -0.028120214119553566, -0.008736939169466496, 0.00569926155731082, 0.013134337961673737, 0.012555733323097229, -0.005786051973700523, 0.003963445778936148, 0.03494775667786598, 0.0074640074744820595, 0.00902624148875475, -0.04050236567854881, 0.0022276300005614758, 0.01504373550415039, 0.002733909524977207, 0.03841938450932503, -0.012787175364792347, 0.0011644429760053754, 0.016895271837711334, -0.014291549101471901, 0.0030087470076978207, 0.020251182839274406, -0.03957659751176834, 0.03008747100830078, -0.01654810830950737, -0.02684728242456913, -0.0006111517432145774, -0.006104284897446632, 0.013365780003368855, 0.025574350729584694, 0.011919267475605011, -0.005467819049954414, -0.0018949321238324046, 0.0032546543516218662, 0.0056414008140563965, -0.007174704689532518, 0.001634559710510075, -0.015622341074049473, 0.03263333439826965, 0.010241311974823475, 0.004947074688971043, -0.011919267475605011, -0.03217044845223427, 0.0180524829775095, 0.017936762422323227, -0.027773050591349602, -0.0072614955715835094, 0.026500118896365166, 0.0012367686722427607, 0.021176951006054878, -0.007521867752075195, -0.02059834636747837, 0.0027773049660027027, -0.011456383392214775, 0.009489125572144985, 0.018631087616086006, 0.012613593600690365, 0.017010992392897606, 0.0130764776840806, 0.024648582562804222, -0.014928014948964119, 0.02441713958978653, 0.010762057267129421, 0.021871276199817657, 0.0024446069728583097, -0.008100473321974277, 0.004628841765224934, 0.013597222976386547, 0.029624586924910545, -0.010183451697230339, -0.002531397854909301, -0.03564208000898361, -0.053231678903102875, -0.022449882701039314, 0.020829787477850914, 0.03147612512111664, 0.0164323877543211, -0.031244682148098946, 0.006567168980836868, 0.015275177545845509, -0.0010342567693442106, -0.010877777822315693, -0.0038477247580885887, 0.013018617406487465, -0.0022854905109852552, -0.01978829875588417, 0.04443687945604324, -0.009199823252856731, -0.023491371423006058, -0.0035150267649441957, -0.014580851420760155, -0.0064803785644471645, 0.005467819049954414, -0.0069432626478374004, 0.014522991143167019, -0.008679077960550785, -0.04813995212316513, -0.028004491701722145, -0.001641792245209217, 0.012382151558995247, 0.010241311974823475, -0.025690071284770966, -0.029856029897928238, 0.002516932785511017, -0.0035150267649441957, -0.009489125572144985, -0.02765733003616333, 0.02835165522992611, 0.029393143951892853, 0.007521867752075195, 0.016895271837711334, -0.0057571218349039555, -0.023954255506396294, 0.010183451697230339, 0.03147612512111664, -0.010472754016518593, -0.026268675923347473, -0.031939007341861725, -0.009489125572144985, 0.012845035642385483, 0.013539361767470837, 0.019904019311070442, -0.0072614955715835094, -0.015622341074049473, -0.0036452128551900387, -0.004744562786072493, -0.02140839211642742, -0.012324291281402111, 0.0067986114881932735, 0.025342907756567, -0.0014103502035140991, 0.009952009655535221, -0.019325414672493935, 0.007087913807481527, 0.01978829875588417, 0.013828665018081665, -0.004831353668123484, -0.012787175364792347, 0.0027049793861806393, -0.00015459608403034508, 0.024185698479413986, -0.005236377008259296, 0.011282801628112793, -0.0058439127169549465, -0.015969503670930862, 0.001996187958866358, -0.025921514257788658, 0.014522991143167019, -0.008563357405364513, -0.012613593600690365, 0.017705319449305534, 0.0034282358828932047, -0.013655083253979683, 0.007174704689532518, -0.0006943262415006757, 0.015390899032354355, 0.0013235594378784299, -0.021871276199817657, -0.0245328601449728, -0.03332766145467758, 0.02198699861764908, -0.01747387833893299, 0.0020685135386884212, -0.029856029897928238, -0.0033559103030711412, 0.004310608841478825, 0.02835165522992611, -0.012555733323097229, 0.008158333599567413, -0.02441713958978653, 0.023259930312633514, -0.008679077960550785, 0.006653959862887859, -0.0058439127169549465, 0.018283924087882042, -0.029856029897928238, 0.04281678423285484, -0.023838534951210022, -0.025574350729584694, 0.02221843972802162, -0.030318913981318474, -0.018283924087882042, 0.027194445952773094, 0.0028640958480536938, 0.0001401309564244002, 0.02835165522992611, -0.05138014256954193, -0.024301419034600258, 0.02140839211642742, -0.013250059448182583, -0.0180524829775095, -0.022449882701039314, -0.014175827614963055, -0.0049760048277676105, -0.014928014948964119, -0.009315543808043003, -0.023259930312633514, 0.027310166507959366, -0.0035584219731390476, 0.0045709810219705105, 0.006682890001684427, 0.0026615839451551437, 0.039113711565732956, 0.007521867752075195, 0.021524114534258842, 0.0045709810219705105, -0.0008570589707233012, -0.006885401904582977, -0.012497873045504093, 0.0060464246198534966, -0.0021697694901376963, 0.003818794386461377, -0.0020251183304935694, 0.0036741429939866066, 0.029045982286334038, 0.019441135227680206, -0.018283924087882042, -0.008158333599567413, -0.014117967337369919, -0.015275177545845509, -0.043048229068517685, -0.008852659724652767, 0.021176951006054878, -0.035179197788238525, 0.014349409379065037, -0.028930259868502617, 0.006567168980836868, -0.00196725782006979, -0.015159456990659237, -0.0003037677379325032, 0.05276879668235779, -0.011745685711503029, 0.012440011836588383, 0.013134337961673737, 0.0001301861775573343, -0.017589598894119263, 0.013886525295674801, -0.0017068854067474604, 0.006856471765786409, -0.003703073365613818, 0.02198699861764908, 0.0007738844724372029, 0.012497873045504093, -0.01504373550415039, 0.005988563876599073, -0.005381028633564711, -0.0344848707318306, -0.00943126529455185, -0.007203634828329086, 0.0005749889533035457, 0.0051206559874117374, -0.005988563876599073, -0.0069432626478374004, 0.0010631870245561004, 0.04003947973251343, 0.018631087616086006, 0.027194445952773094, 0.04050236567854881, -0.0062778666615486145, 2.5539995476719923e-05, 0.03795650228857994, -0.025342907756567, -0.023259930312633514, -0.02210271917283535, 0.005178516730666161, 0.00943126529455185, -0.012382151558995247, 0.01070419605821371, 0.023954255506396294, 0.006017494015395641, -0.0074640074744820595, 0.035179197788238525, 0.003688608296215534, -0.03170756623148918, -0.037493616342544556, 0.022334162145853043, -0.0011499779066070914, -0.0057571218349039555, 0.013770803809165955, -0.007348285987973213, 0.0018804669380187988, -0.021524114534258842, 0.000658163451589644, -0.01654810830950737, -0.001316326903179288, 0.020135462284088135, 0.036567848175764084, -0.013250059448182583, 0.003587352344766259, -0.04489976540207863, 0.02846737578511238, 0.0017141179414466023, 0.010414893738925457, 0.015969503670930862, -0.0060753547586500645, 0.007811170537024736, 0.010588475503027439, 0.031939007341861725, 0.022449882701039314, 0.029045982286334038, -0.008042612113058567, -0.0012729314621537924, 0.014812293462455273, -0.019093971699476242, -0.0003562038473319262, -0.0045420508831739426, 0.0025024674832820892, 0.005786051973700523, 0.04281678423285484, 0.050685815513134, 0.0018226064275950193, 0.005583540536463261, 0.01099349930882454, -0.01654810830950737, -0.0049760048277676105, -0.05438889190554619, -0.003153398400172591, -0.0008534427033737302, 0.02210271917283535, 0.006567168980836868, -0.01070419605821371, -0.007116843946278095, -0.01573806256055832, -0.014407269656658173, 0.00674075074493885, -0.013655083253979683, 0.012845035642385483, -0.014812293462455273, 0.0011138150002807379, -0.0031389333307743073, -0.019441135227680206, 0.015969503670930862, -0.0025458629243075848, 0.01139852311462164, -0.010935638099908829, -0.03379054367542267, 0.017936762422323227, -0.009952009655535221, 0.0037320037372410297, -0.006422517821192741, 0.0068275416269898415, 0.006017494015395641, -0.008968381211161613, -0.02927742339670658, -0.024301419034600258, 0.018399646505713463, 0.012150709517300129, -0.010530615225434303, -0.0063646575435996056, -0.016316667199134827, -0.01978829875588417, -0.027773050591349602, -0.005901772994548082, -0.022334162145853043, 0.025574350729584694, -0.013655083253979683, -0.03541063889861107, 0.019093971699476242, -0.008158333599567413, 0.045362647622823715, 0.02441713958978653, -0.011224941350519657, -0.00821619387716055, 0.017705319449305534, 0.020945508033037186, 0.010819917544722557, 0.009373404085636139, 0.017010992392897606, 0.029508866369724274, 0.0064803785644471645, 0.007521867752075195, -0.005265307612717152, -0.004513120744377375, -0.019556855782866478, 0.012613593600690365, 0.026268675923347473, 0.021639835089445114, -0.0020685135386884212, -0.018515367060899734, 0.02210271917283535, 0.017821040004491806, 0.036799293011426926, 0.010414893738925457, -0.009199823252856731, 0.008679077960550785, -0.02140839211642742, -0.007753309793770313, 0.009373404085636139, 0.02059834636747837, -0.016085224226117134, 0.006422517821192741, -0.029856029897928238, 0.027773050591349602, 0.004310608841478825, 0.004310608841478825, 0.011167081072926521, -0.009373404085636139, -0.016085224226117134, -0.011224941350519657, 0.024185698479413986, -0.039808038622140884, 0.006769680883735418, -0.028930259868502617, 0.008852659724652767, 0.0164323877543211, 0.011224941350519657, 0.02198699861764908, 0.01735815592110157, 0.0046867020428180695, -0.008274054154753685, -0.019556855782866478, -0.012382151558995247, 0.012555733323097229, 0.0075797284953296185, -0.00040321549749933183, -0.010588475503027439, 0.004599911626428366, -0.007637588772922754, 0.0011933732312172651, -0.01666383072733879, -0.007290425710380077, -0.018746808171272278, 0.010530615225434303, -0.019441135227680206, 0.007637588772922754, 0.00786903128027916, 0.0022710254415869713, 0.011803545989096165, -0.031244682148098946, 0.0344848707318306, -0.03541063889861107, 0.044668324291706085, 0.0065382388420403, -0.008910520002245903, 0.0061621456407010555, 0.0035439569037407637, 0.03309621661901474, -0.012902895919978619, 0.0046577719040215015, 0.008968381211161613, 0.014117967337369919, 0.026500118896365166, -0.00016273271467071027, 0.014175827614963055, 0.007753309793770313, -0.0328647755086422, -0.013018617406487465, -0.0180524829775095, 0.0003941748000215739, -0.007203634828329086, 0.010241311974823475, 0.016895271837711334, -0.01504373550415039, 0.02441713958978653, 0.01735815592110157, 0.0022565603721886873, -0.018631087616086006, 0.0172424353659153, -0.006422517821192741, 0.015390899032354355, 0.0061910757794976234, 0.004165957681834698, -0.020829787477850914, 0.03309621661901474, -0.020829787477850914, -0.020366903394460678, 0.02684728242456913, 0.011456383392214775, -0.002097443910315633, 0.013886525295674801, -0.020019739866256714, -0.01099349930882454, 0.013712943531572819, -0.014522991143167019, 0.03957659751176834, -0.019441135227680206, 0.02048262394964695, 0.01423368789255619, -0.029856029897928238, -0.006104284897446632, 0.02765733003616333, 0.02129267156124115, -0.006220005918294191, 0.026384398341178894, 0.000983628910034895, 0.014407269656658173, 0.051843028515577316, 0.01099349930882454, 0.006856471765786409, -0.028583098202943802, 0.028698818758130074, -0.015622341074049473, 0.019209692254662514, -0.017936762422323227, -0.043048229068517685, 0.02048262394964695, -0.01978829875588417, 0.012208569794893265, -0.017126714810729027, -0.0134815014898777, -0.007290425710380077, -0.014928014948964119, -0.01666383072733879, -0.002213164931163192, -0.009315543808043003, -0.0050917258486151695, -0.021176951006054878, -0.007319355849176645, -0.006104284897446632, -0.01585378311574459, -0.0012656989274546504, -0.019904019311070442, -0.01585378311574459, -0.012960757128894329, 0.007926891557872295, -0.011977127753198147, 0.013828665018081665, 0.0024735373444855213, 0.014465129934251308, -0.0027773049660027027, 0.0008245124481618404, 0.008389775641262531, 0.015969503670930862, 0.010877777822315693, 0.025690071284770966, -0.0134815014898777, 0.026500118896365166, 0.02221843972802162, -0.0061910757794976234, -0.017821040004491806, -0.014696571975946426, -0.007377216592431068, -0.009894149377942085, 0.0010559544898569584, 0.0015405364101752639, -0.025111466646194458, -0.019209692254662514, 0.008563357405364513, -0.016895271837711334, -0.005612470675259829, 0.00902624148875475, 0.014522991143167019, 0.010299173183739185, -0.011687825433909893, -0.020135462284088135, -0.0068275416269898415, -0.017126714810729027, 0.014522991143167019, 0.002531397854909301, -0.0050049349665641785, -0.013655083253979683, -0.028698818758130074, 0.005033865571022034, -0.009778427891433239, -0.03633640706539154, -0.017010992392897606, 0.031013239175081253, -0.02846737578511238, 0.02372281439602375, 0.0004845818621106446, -0.006017494015395641, -0.052537351846694946, 0.009894149377942085, 0.014812293462455273, 0.011456383392214775, -0.01573806256055832, -0.0026760490145534277, -0.022565603256225586, 0.0026037234347313643, -0.012208569794893265, -0.01978829875588417, -0.017589598894119263, -0.015506619587540627, 0.016316667199134827, 0.0025024674832820892, 0.0328647755086422, -0.02360709197819233, 0.021061230450868607, -0.05138014256954193, -0.01504373550415039, 0.009199823252856731, -0.0014826758997514844, -0.019093971699476242, 0.028235934674739838, -0.024648582562804222, -0.012729315087199211, -0.01897825114428997, -0.03309621661901474, -0.001424815389327705, -0.020714066922664642, -0.01816820353269577, -0.021061230450868607, 0.017010992392897606, -0.0652666687965393, -0.028814539313316345, 0.0049760048277676105, 0.016085224226117134, 0.033559102565050125, -0.021871276199817657, -0.007984751835465431, -0.01897825114428997, 0.0035728872753679752, 0.01573806256055832, 0.0033414450008422136, 0.014928014948964119, 0.0013669547624886036, 0.005149586591869593, -0.0269630029797554, -0.03332766145467758, -0.012960757128894329, -0.005901772994548082, -0.014580851420760155, 0.019209692254662514, -0.0040213060565292835, 0.025805791839957237, -0.020135462284088135, -0.009141962043941021, 0.049297165125608444, -0.009778427891433239, -0.0020685135386884212, 0.013886525295674801, 0.011224941350519657, 0.007348285987973213, 0.0003905585326720029, 0.0035294918343424797, -0.0017719784518703818, 0.04999149218201637, -0.012324291281402111, 0.0045420508831739426, 0.0013524896930903196, 0.020135462284088135, 0.004802423063665628, 0.013770803809165955, -0.025921514257788658, -0.02291276678442955, 0.001200605765916407, 0.007232564967125654, -0.009720567613840103, -0.024185698479413986, -0.0008245124481618404, 0.00038694223621860147, -0.017010992392897606, -0.008158333599567413, -0.003153398400172591, -0.0377250611782074, 0.03147612512111664, -0.004484190605580807, 0.00393451564013958, -0.01654810830950737, 0.010009869933128357, -0.033559102565050125, -0.005612470675259829, 0.01978829875588417, -0.009257683530449867, 0.0027773049660027027, 0.026500118896365166, 0.0012801639968529344, -0.006104284897446632, -0.010067731142044067, -0.012787175364792347, -0.03471631184220314, 0.0122664300724864, 0.0007232564967125654, 0.02048262394964695, -0.00943126529455185, 0.042353902012109756, 0.01978829875588417, -0.025921514257788658, -0.007377216592431068, 0.0030955378897488117, 0.0022276300005614758, 0.021061230450868607, -0.024764303117990494, -0.01654810830950737, 0.03471631184220314, 0.01978829875588417, 0.01747387833893299, -0.0016200946411117911, -0.008389775641262531, -0.010530615225434303, 0.0062778666615486145, 0.025342907756567, -0.01654810830950737, -0.009315543808043003, -0.017821040004491806, 0.018283924087882042, 0.009604846127331257, 0.028814539313316345, -0.0074640074744820595, 0.04050236567854881, 0.012208569794893265, 0.0047734929248690605, 0.013770803809165955, 0.004194887820631266, -0.013018617406487465, 0.0032257239799946547, 0.025690071284770966, 0.019556855782866478, 0.0126714538782835, 0.021755555644631386, -0.0126714538782835, -0.012845035642385483, -0.0065382388420403, 0.03888227045536041, 0.007348285987973213, 0.0024880024138838053, 0.019325414672493935, 0.016895271837711334, 0.043742552399635315, 0.019093971699476242, 0.014117967337369919, -0.013018617406487465, -0.009778427891433239, 0.0004701167345046997, -0.008274054154753685, 0.007695449516177177, -0.009373404085636139, 0.017010992392897606, 0.017705319449305534, 0.0062778666615486145, 0.0051206559874117374, 0.010241311974823475, 0.038187943398952484, -0.01978829875588417, 0.02221843972802162, 0.03564208000898361, -0.023838534951210022, -0.000976396317128092, 0.023144207894802094, 0.024648582562804222, -0.004484190605580807, 0.0014826758997514844, 0.006972192786633968, -0.0018153738928958774, 0.0037609338760375977, 0.002748374827206135, -0.0344848707318306, 0.008100473321974277, 0.0061621456407010555, 0.013423641212284565, -0.0064803785644471645, 0.0057571218349039555, -0.03726217523217201, 0.0009474660619162023, 0.007203634828329086, 0.0014899084344506264, -0.01573806256055832, -0.007637588772922754, 0.043048229068517685, 0.02279704622924328, 0.0069143325090408325, -0.03332766145467758, -0.011167081072926521, -0.0016707225004211068, -0.0045420508831739426, -0.012034988030791283, 0.0001419390900991857, -0.007116843946278095, 0.031013239175081253, 0.014060107059776783, -0.0009257683414034545, -0.00786903128027916, 0.0015550014795735478, 0.011167081072926521, -0.05415744706988335, 0.013192199170589447, 0.026615839451551437, 0.015275177545845509, 0.006769680883735418, -0.004802423063665628, 0.014928014948964119, -0.020714066922664642, -0.002632653806358576, 0.019093971699476242, 0.014812293462455273, 0.016779551282525063, 0.043742552399635315, 0.041428133845329285, 0.004426329862326384, -0.021871276199817657, -0.014754433184862137, -0.01897825114428997, 0.01978829875588417, 0.012034988030791283, 0.01666383072733879, 0.026268675923347473, 0.043048229068517685, -0.011629965156316757, 0.029624586924910545, 0.003818794386461377, 0.013828665018081665, -0.0013886524830013514, 0.023144207894802094, -0.009836288169026375, -0.0061910757794976234, -0.0028062353376299143, -0.0075797284953296185, -0.06248936429619789, 0.008274054154753685, -0.03564208000898361, 0.008447635918855667, -0.0035728872753679752, -0.006567168980836868, -0.033559102565050125, -0.02048262394964695, -0.0442054383456707, -0.007087913807481527, 0.028120214119553566, 0.010819917544722557, -0.024764303117990494, -0.0025892583653330803, 0.017705319449305534, 0.014812293462455273, 0.0019383274484425783, 2.6105039069079794e-05, -0.028930259868502617, 0.006625029724091291, 0.0009330009343102574, -0.007811170537024736, -0.019209692254662514, -0.04027092456817627, -0.02360709197819233, 0.010299173183739185, 0.012382151558995247, -0.03703073412179947, -0.012208569794893265, -0.025342907756567, -0.0029798168689012527, -0.017705319449305534, -0.009604846127331257, -0.021061230450868607, -0.03541063889861107, -0.010183451697230339, 0.002632653806358576, -0.015390899032354355, 0.0007919658673927188, 0.002950886497274041, -0.0523059107363224, 0.007753309793770313, 0.026500118896365166, 0.019209692254662514, 0.03471631184220314, -0.017010992392897606, -0.004744562786072493, 0.029624586924910545, 0.0010487219551578164, 0.02048262394964695, -0.027888771146535873, -0.008042612113058567, -0.02441713958978653, -0.008794799447059631, 0.0071457745507359505, -0.008158333599567413, -0.00902624148875475, 0.0269630029797554, 0.013250059448182583, 0.004310608841478825, -0.013423641212284565, 0.01423368789255619, 0.009952009655535221, 0.017126714810729027, 0.03865082934498787, 0.039808038622140884, 0.016085224226117134, 0.039113711565732956, -0.02754160761833191, 0.025342907756567, -0.02522718720138073, -0.0005315935122780502, 0.03147612512111664, -0.03078179806470871, 0.027888771146535873, -0.010935638099908829, 0.017010992392897606, -0.013828665018081665, -0.023259930312633514, 0.0030232123099267483, 0.03309621661901474, 0.010183451697230339, -0.0164323877543211, 0.007637588772922754, -0.0062778666615486145, 0.007087913807481527, 0.007753309793770313, 0.014580851420760155, 0.01735815592110157, -0.01816820353269577, -0.01666383072733879, 0.02916170284152031, 0.025921514257788658, 0.0074640074744820595, -0.010183451697230339, 0.016200946643948555, 0.014928014948964119, -0.010588475503027439, 0.014696571975946426, 0.022334162145853043, -0.012092849239706993, 0.002184234792366624, -0.008331915363669395, 0.012613593600690365, -0.008968381211161613, -0.025342907756567, 0.0025603279937058687, -0.009315543808043003, 0.01897825114428997, 0.007984751835465431, -0.03263333439826965, -0.008505496196448803, 0.008852659724652767, 0.014349409379065037, 0.007637588772922754, -0.015390899032354355, 0.009778427891433239, 0.017705319449305534, 0.031244682148098946, -0.004310608841478825, 0.022565603256225586, 0.014928014948964119, 0.008910520002245903, 0.020714066922664642, -0.015275177545845509, 0.009720567613840103, 0.022565603256225586, 0.0245328601449728, 0.06758108735084534, 0.0026760490145534277, 0.001316326903179288, 0.01110921986401081, -0.011514243669807911, 0.011224941350519657, -0.019441135227680206, 0.021871276199817657, 0.007203634828329086, -0.005554609932005405, -0.0027049793861806393, 0.024648582562804222, 0.013770803809165955, 0.005352098029106855, 0.0015622341306880116, 0.01666383072733879, -0.021755555644631386, 0.008736939169466496, -0.026500118896365166, 0.0065093087032437325, -0.0063935876823961735, -0.02048262394964695, -0.009720567613840103, -0.018283924087882042, -0.009141962043941021, -0.013018617406487465, -0.006769680883735418, -0.0016562574310228229, 0.01735815592110157, -0.010357033461332321, 0.009952009655535221, 0.008505496196448803, -0.0037320037372410297, -0.02048262394964695, -0.0004484190430957824, 0.0269630029797554, -0.007984751835465431, -0.020945508033037186, 0.0042527480982244015, 0.0126714538782835, 0.031013239175081253, 0.014407269656658173, -0.009141962043941021, -0.020019739866256714, 0.01139852311462164, -0.02927742339670658, -0.010877777822315693, 0.001092117396183312, -0.010472754016518593, 0.019441135227680206, 0.014754433184862137, 0.002618188504129648, 0.016316667199134827, -0.036567848175764084, -0.0393451526761055, 0.022334162145853043, 0.0027049793861806393, 0.0002178810245823115, -0.021176951006054878, 0.010530615225434303, 0.004918144084513187, 0.024301419034600258, 0.010241311974823475, -0.01504373550415039, 0.013307919725775719, -0.00010261201532557607, -0.010357033461332321, 0.01967257633805275, 0.023954255506396294, 0.008331915363669395, -0.0001021599819068797, -0.0026905143167823553, -0.009836288169026375, 0.028004491701722145, 0.002618188504129648, 0.0063935876823961735, -0.013250059448182583, -0.024185698479413986, 0.03240189328789711, -0.02522718720138073, -0.0377250611782074, 0.010067731142044067, -0.01110921986401081, 0.02210271917283535, 0.02048262394964695, -0.018399646505713463, -0.004368469584733248, -0.03494775667786598, 0.02916170284152031, -0.031244682148098946, 0.0018804669380187988, 0.007348285987973213, -0.0172424353659153, -0.027425887063145638, 0.011977127753198147, -0.0037609338760375977, 0.00786903128027916, -0.024069976061582565, -0.009315543808043003, 0.012324291281402111, 0.02684728242456913, 0.02140839211642742, 0.0057571218349039555, -0.02360709197819233, -0.023375650867819786, -0.018283924087882042, 0.01897825114428997, -0.002097443910315633, -0.007406146731227636, 0.010299173183739185, -0.010241311974823475, 0.028235934674739838, 0.01735815592110157, 0.0027194444555789232, -0.0027194444555789232, 0.034253429621458054, -0.003963445778936148, 0.028814539313316345]}}
{"UUID": "ff7250f6-7a40-471c-9459-8aad7f9d1ae8", "BM25": {"terms": ["jmir", "aging", "effectiveness", "of", "walking", "prescription", "using", "mobile", "health", "technology", "on", "the", "changes", "in", "daily", "steps", "older", "adults", "with", "cognitive", "impairment", "randomized", "controlled", "study", "journal", "medical", "internet", "research", "10495", "articles", "protocols", "5059", "formative", "3834", "mhealth", "and", "uhealth", "2906", "public", "surveillance", "1828", "online", "informatics", "1744", "1659", "mental", "1188", "human", "factors", "1038", "serious", "games", "745", "education", "694", "584", "jmirx", "med", "557", "cancer", "515", "interactive", "510", "iproceedings", "pediatrics", "parenting", "508", "dermatology", "350", "rehabilitation", "assistive", "technologies", "334", "diabetes", "313", "cardio", "247", "infodemiology", "218", "ai", "201", "nursing", "149", "participatory", "medicine", "139", "perioperative", "129", "biomedical", "engineering", "102", "bioinformatics", "biotechnology", "68", "asian", "pacific", "island", "47", "bio", "35", "neurotechnology", "33", "xr", "spatial", "computing", "jmxr", "2", "0", "26", "data", "challenges", "preprints"], "weights": [10.930816917391109, 3.2125373061694655, 3.3306546287722716, 0.11448915757813319, 3.8977931523215394, 3.8789690138141393, 1.468807274484775, 3.638043744187585, 2.4524910827382187, 3.2870976430544774, 0.636405850243065, 0.12409935191977575, 2.3400905676116093, 0.1537134224852565, 3.0707492135432366, 4.324740332795462, 1.6001850358565979, 1.715787659624747, 0.35089783662607277, 0.509102898596281, 1.0004685701765992, 2.697230155218895, 2.7504961443361267, 0.9331145341086359, 4.879466583574728, 4.719558228661794, 4.154438482777271, 1.9771019943427635, 6.907223234788291, 6.251560785125247, 3.936476172224663, 6.907223234788291, 6.623177303926497, 6.907223234788291, 5.109615393691362, 0.13243372442892093, 5.987059975659095, 6.907223234788291, 4.180000401018671, 5.987059975659095, 6.755703782419767, 3.466893047624011, 8.070039660131545, 6.755703782419767, 6.907223234788291, 3.2199298169582904, 6.755703782419767, 2.9594077901825204, 2.1454086338826865, 3.292445280193537, 4.801287287058015, 5.270352139547078, 6.755703782419767, 3.083875372176227, 6.623177303926497, 6.623177303926497, 9.305273762366616, 2.4311309235396705, 6.505408275509304, 4.310622391600417, 6.755703782419767, 5.1710140360753, 9.491467654897798, 6.623177303926497, 5.743979691917861, 6.623177303926497, 6.399436916809419, 5.640597160675952, 6.399436916809419, 3.573197162424322, 6.0576747972398595, 4.084214085206402, 6.755703782419767, 2.7897771831914127, 6.623177303926497, 6.623177303926497, 6.303113277730573, 6.623177303926497, 5.987059975659095, 3.747540621914326, 6.214826336838907, 5.208344400865264, 5.640597160675952, 5.743979691917861, 4.436320077324626, 4.94426774231816, 5.342164732638874, 5.270352139547078, 4.919056315475208, 4.996566268644827, 4.61756872896237, 5.743979691917861, 5.920861552150961, 3.6758631181188135, 5.1710140360753, 5.799720451129421, 4.545141876301297, 3.292445280193537, 6.133337685130196, 3.0198137064652637, 5.305649738180079, 4.088009777982486, 6.303113277730573, 3.9869061747084644, 4.8944312543694295, 6.623177303926497, 0.9552897928363776, 2.058356353145206, 2.7313889208269826, 1.435804561379038, 3.358816658602879, 5.502292605618213], "k1": 1.5, "b": 0.75, "avgdl": 233.87661016949153, "N": 4425}, "SpladeV3": {"model_id": "naver/splade-v3", "tokens": ["##mir", "j", "mobile", "aging", "prescription", "walking", "##mx", "spatial", "controlled", "effectiveness", "journal", "random", "articles", "impairment", "effective", "adults", "cognitive", "health", "protocols", "age", "walk", "technology", "research", "interactive", "daily", "surveillance", "medication", "biotechnology", "biomedical", "steps", "protocol", "pediatric", "tech", "technologies", "38", "senior", "elderly", "internet", "diabetes", "assist", "##ative", "nursing", "cancer", "der", "adult", "##ized", "older", "cognition", "##form", "pacific", "many", "study", "bio", "##atics", "cancers", "ip", "##eal", "uh", "article", "inform", "changes", "##mat", "x", "mentally", "##ici", "disabled", "walker", "journals", "med", "1659", "##bet", "asian", "everyday", "challenges", "island", "129", "format", "##rin", "human", "efficacy", "58", "##mi", "engineering", "online", "alzheimer", "rehab", "1828", "118", "stairs", "clinic", "rehabilitation", "334", "1744", "factors", "139", "studies", "mental", "healthcare", "parenting", "medicine", "japan", "##tech", "medical", "350", "patient", "public", "data", "cell", "using", "##tory", "ai", "##eding", "pharmacy", "##ology", "control", "##ro", "android", "##uro", "##r", "islands", "diseases", "psychiatric", "prescribed", "##io", "per", "dementia", "computing", "mika", "prep", "assisted", "benefits", "impaired", "disease", "benefit", "tracking", "education", "change", "##nology", "patients", "part", "heart", "33", "games", "jay", "card", "103", "intelligence", "humans", "ne", "therapy", "educational", "walkers", "skin", "challenge", "cardiac", "india", "website", "mobility", "statistics", "ada", "313", "mir", "##per", "computers", "hospital", "brain", "engineer", "##de", "use", "treatment", "information", "nurse", "parents", "published", "decline", "effect", "##x", "challenging", "parker", "hospitals", "69", "hiking", "##ive", "game", "medicinal", "deficit", "problems", "therapist", "syndrome", "factor", "databases", "computer", "improvements", "pages", "34", "researcher", "topics", "aids", "als", "facts", "intervention", "musa", "26", "68", "depression", "database", "formats", "todd", "serious", "illness", "epidemic", "parent", "psychology", "with", "life", "best", "m", "cosmetic", "##ense", "list", "vision", "wheelchair", "sweden", "adaptive", "medications", "je", "care", "assistant", "guidelines", "50", "obesity", "psychological", "arthritis", "index", "jin", "trials", "asia", "vida", "distraction", "psychiatrist", "cellular", "guide", "##8", "changed", "no", "technological", "vaccine", "doctor", "diagnosis", "trial", "page", "wellness", "effects", "used", "phone", "prevalence", "47", "staircase", "radio", "##th", "modified", "stepping", "updated", "supplement", "experiments", "dysfunction", "written"], "weights": [3.0114448070526123, 2.4012327194213867, 2.0531105995178223, 2.01869535446167, 1.9876296520233154, 1.921543836593628, 1.8310450315475464, 1.8152220249176025, 1.8143284320831299, 1.7561665773391724, 1.7082678079605103, 1.6493539810180664, 1.641419768333435, 1.5377578735351562, 1.5149855613708496, 1.4830167293548584, 1.4749760627746582, 1.4131789207458496, 1.4124596118927002, 1.4081565141677856, 1.3910316228866577, 1.3886668682098389, 1.3457629680633545, 1.3334091901779175, 1.329716682434082, 1.3160945177078247, 1.3082695007324219, 1.2981109619140625, 1.293674349784851, 1.2932350635528564, 1.2874045372009277, 1.2873247861862183, 1.2456855773925781, 1.229044795036316, 1.2158949375152588, 1.2109674215316772, 1.210952639579773, 1.203306794166565, 1.1902073621749878, 1.1730611324310303, 1.171781063079834, 1.1714632511138916, 1.1579699516296387, 1.1323603391647339, 1.12833571434021, 1.12507164478302, 1.1248801946640015, 1.1233532428741455, 1.1059057712554932, 1.1042239665985107, 1.088578224182129, 1.0843935012817383, 1.071624517440796, 1.0716087818145752, 1.0692365169525146, 1.0691168308258057, 1.0497676134109497, 1.0423184633255005, 1.0390172004699707, 1.0307780504226685, 1.029405951499939, 1.0152053833007812, 1.0078678131103516, 1.0050541162490845, 1.002281665802002, 0.9951673746109009, 0.9939261674880981, 0.9936805963516235, 0.9918302297592163, 0.9865620136260986, 0.9839529395103455, 0.9785737991333008, 0.9781088829040527, 0.9729415774345398, 0.9720695614814758, 0.9693095684051514, 0.9663549065589905, 0.9618130922317505, 0.9607586860656738, 0.9488179087638855, 0.9453340768814087, 0.9436150789260864, 0.9409129619598389, 0.9354931116104126, 0.930420994758606, 0.927462637424469, 0.9226775765419006, 0.9206452369689941, 0.920425295829773, 0.9164391756057739, 0.9129540324211121, 0.9124756455421448, 0.907118022441864, 0.8992922306060791, 0.8865613341331482, 0.8849493265151978, 0.8812987804412842, 0.8768543004989624, 0.8721203804016113, 0.8642916679382324, 0.8560668230056763, 0.8542695045471191, 0.8431676030158997, 0.8429214358329773, 0.8175950050354004, 0.8057877421379089, 0.8010494709014893, 0.7907963991165161, 0.780676007270813, 0.7795156240463257, 0.7644631266593933, 0.751916766166687, 0.7446557879447937, 0.739316999912262, 0.7380264401435852, 0.7370534539222717, 0.7193363904953003, 0.7061429023742676, 0.7055621147155762, 0.7006560564041138, 0.6903385519981384, 0.6743113398551941, 0.6676828265190125, 0.6502953171730042, 0.6489004492759705, 0.6442420482635498, 0.6407164931297302, 0.6290953755378723, 0.6257389783859253, 0.6181901693344116, 0.616058349609375, 0.6090376377105713, 0.600544810295105, 0.5900980830192566, 0.5785404443740845, 0.5640390515327454, 0.562264084815979, 0.5547377467155457, 0.5511530041694641, 0.5470412969589233, 0.546676516532898, 0.5404600501060486, 0.5101115703582764, 0.49708041548728943, 0.48261505365371704, 0.4757494330406189, 0.47540926933288574, 0.46606728434562683, 0.46468111872673035, 0.45981818437576294, 0.4585021734237671, 0.44514432549476624, 0.44405215978622437, 0.43104588985443115, 0.43028101325035095, 0.4286779463291168, 0.4247613847255707, 0.4126642048358917, 0.41216546297073364, 0.41179829835891724, 0.40999728441238403, 0.39919960498809814, 0.39191964268684387, 0.38846859335899353, 0.38826751708984375, 0.38569530844688416, 0.3818584084510803, 0.3796929717063904, 0.3763907849788666, 0.34827378392219543, 0.345649391412735, 0.3433494567871094, 0.31053274869918823, 0.3053821623325348, 0.30286797881126404, 0.299913227558136, 0.29234379529953003, 0.2868659198284149, 0.28626516461372375, 0.2847978472709656, 0.2814481854438782, 0.26887550950050354, 0.2678101658821106, 0.2661360204219818, 0.26460403203964233, 0.2642022669315338, 0.2614613473415375, 0.2575123608112335, 0.2545599043369293, 0.2541660964488983, 0.25053277611732483, 0.24806594848632812, 0.24173620343208313, 0.24071712791919708, 0.23192331194877625, 0.22842687368392944, 0.22792835533618927, 0.21760810911655426, 0.2175365388393402, 0.21303385496139526, 0.20175983011722565, 0.19204764068126678, 0.18681876361370087, 0.18257872760295868, 0.17925167083740234, 0.17611375451087952, 0.16691258549690247, 0.1669081300497055, 0.1662609875202179, 0.1619815081357956, 0.1616540104150772, 0.16145235300064087, 0.160940021276474, 0.1565168797969818, 0.15421825647354126, 0.1476753205060959, 0.14561595022678375, 0.13818784058094025, 0.13375109434127808, 0.13156193494796753, 0.12952657043933868, 0.12074165791273117, 0.11852134764194489, 0.1086759865283966, 0.10118449479341507, 0.10025788098573685, 0.10010477155447006, 0.09064987301826477, 0.09033727645874023, 0.08680645376443863, 0.08474456518888474, 0.08336395770311356, 0.07396488636732101, 0.07271194458007812, 0.07266929000616074, 0.06627015769481659, 0.0660555362701416, 0.06400138884782791, 0.06331538408994675, 0.061274368315935135, 0.06057101860642433, 0.052666787058115005, 0.05173444375395775, 0.05109844729304314, 0.049017954617738724, 0.04510009288787842, 0.043673429638147354, 0.04327467083930969, 0.04261720925569534, 0.042343612760305405, 0.0404994897544384, 0.03900668025016785, 0.03603595495223999, 0.033776964992284775, 0.03371040150523186, 0.03332744538784027, 0.032441720366477966, 0.03207257762551308, 0.021986529231071472, 0.019677843898534775, 0.013397281989455223, 0.011609449982643127, 0.010588433593511581, 0.007631078828126192, 0.006031629629433155, 0.0047369287349283695, 0.004662397783249617]}, "Qwen3-4B": {"model_id": "Qwen/Qwen3-Embedding-4B", "vector": [-0.0002305129455635324, 0.025502951815724373, -0.0391121506690979, -0.04528775438666344, -0.0011865162523463368, 0.056724052876234055, 0.016468273475766182, 0.02596040442585945, -0.008920314721763134, -0.003974114544689655, 0.06267093122005463, 0.04071323201060295, 0.009320585057139397, 0.005975467152893543, -0.03133546561002731, -0.047803737223148346, 0.0034737763926386833, -0.0009577902383171022, 0.005975467152893543, 0.004088477697223425, -0.0010221194243058562, 0.008119774051010609, 0.032479096204042435, -0.053064435720443726, -0.05352189019322395, -0.04277176782488823, -0.006776008289307356, -0.036138713359832764, 0.025274226441979408, -0.02744712308049202, -0.0029877335764467716, -0.021500246599316597, -0.003530957968905568, 0.007204869762063026, 0.0002894813660532236, -0.012294023297727108, 0.010464215651154518, -7.549745350843295e-05, 0.006118420977145433, 0.026760945096611977, -0.03499508276581764, 0.03659616410732269, -0.006661645602434874, -0.008062592707574368, -0.04345794394612312, -0.0068045989610254765, -0.0021014204248785973, -0.03064928762614727, 0.006633054465055466, -0.019784800708293915, 0.017040088772773743, 0.003073505824431777, -0.04711756110191345, -0.007490777410566807, -0.0007111949962563813, -0.013266108930110931, 0.06358583271503448, 0.0019298758124932647, -0.009606492705643177, 0.009377767331898212, 0.01029267068952322, 0.01052139699459076, 0.012008116580545902, -0.0077766845934093, -0.006661645602434874, -0.004488748032599688, 0.030191835016012192, -0.038197245448827744, 0.0013080269563943148, -0.0032879365608096123, -0.014638465829193592, 0.04025578126311302, -0.020242253318428993, 0.021157156676054, 0.009206222370266914, -0.014238194562494755, -0.003916933201253414, 0.0004681735881604254, -0.009949581697583199, -0.002201488008722663, -0.016696998849511147, 0.0012722885003313422, -0.016696998849511147, 0.0227582398802042, 0.01738317683339119, 0.05718150734901428, -0.000882739492226392, 0.009320585057139397, 0.026189129799604416, -0.025274226441979408, 0.008405681699514389, -0.011950934305787086, -0.00583251379430294, -0.032936546951532364, 0.013380472548305988, 0.004345794208347797, -0.013323291204869747, -0.010578578338027, -0.007376414258033037, 0.00388834229670465, -0.013323291204869747, -0.007204869762063026, 0.03545253351330757, 0.008119774051010609, 0.014638465829193592, -0.0048032463528215885, -0.007233460433781147, -0.00514633534476161, 0.022872602567076683, -5.986188989481889e-05, -0.008577225729823112, -0.010349852964282036, 0.029963109642267227, 0.055809151381254196, 0.00021532410755753517, -0.0024873954243957996, -0.009720856323838234, -0.03522380813956261, 0.0035595486406236887, 0.004031296353787184, 0.0038597516249865294, 0.001508162240497768, -0.030420560389757156, -0.007033325266093016, 0.02859075367450714, -0.0038311609532684088, -0.006175602786242962, 0.025617314502596855, 0.013552016578614712, 0.01132193859666586, -0.022986965253949165, -0.02435932122170925, -0.02687530778348446, -0.001694002072326839, -0.0014509806642308831, 0.008062592707574368, 0.012351205572485924, -0.00789104774594307, -0.028133301064372063, 0.01955607533454895, 0.0004967643180862069, -0.004002705216407776, -0.0036882071290165186, 0.005918285809457302, -0.0005861104582436383, -0.03225037083029747, 0.010692941956222057, -0.02424495853483677, 0.009034678339958191, -0.0002948421461042017, 0.02424495853483677, 0.0014509806642308831, 0.008520044386386871, -0.001072153216227889, 0.0032307549845427275, 0.014524102210998535, -0.004688883665949106, -0.004631701856851578, 0.006375737953931093, -0.00125084538012743, 0.02058534137904644, 0.018298082053661346, -0.004603111185133457, -0.004059887025505304, 0.006347147282212973, 0.02744712308049202, -0.03430890291929245, 0.03636743873357773, -0.003388004144653678, -0.019098622724413872, 0.011207574978470802, 0.008005410432815552, -0.0034880719613283873, -0.01852680742740631, 0.005346470978111029, -0.0005217812140472233, -0.02069970592856407, -0.014752828516066074, -0.005060563329607248, 0.02104279398918152, 0.0009041825542226434, -0.0038597516249865294, 0.015667732805013657, 0.013151746243238449, -0.007719503249973059, 0.021271519362926483, 0.008977496065199375, -0.010407034307718277, 0.021843334659934044, -0.015324643813073635, 0.009149041026830673, -0.001508162240497768, 0.01578209549188614, 0.008977496065199375, -0.005518015474081039, 0.01589645817875862, -0.017611904069781303, 0.007376414258033037, 0.04071323201060295, 0.012008116580545902, 0.012408386915922165, 0.000561093504074961, -0.034080177545547485, 0.013952287845313549, 0.015667732805013657, -0.0048032463528215885, -0.004460157360881567, -0.004603111185133457, 0.02161460928618908, -0.017154451459646225, 0.0052892891690135, -0.016582636162638664, -0.017154451459646225, -0.011893752962350845, 0.0008470010361634195, 0.012465568259358406, 0.00264464458450675, -0.012980202212929726, 0.022529512643814087, 0.017154451459646225, -0.012065297923982143, -0.004145659040659666, -0.0038311609532684088, -0.01080730464309454, 0.012465568259358406, 0.006432919297367334, -0.0051177446730434895, 0.012465568259358406, 0.008348499424755573, -0.011436301283538342, 0.016010820865631104, 0.009377767331898212, 0.013952287845313549, -0.029734382405877113, 0.013037383556365967, 0.01052139699459076, 0.02012789063155651, -0.01166502758860588, -0.018069356679916382, 0.03659616410732269, -0.05031972378492355, 0.002530281664803624, -0.006633054465055466, -0.004574520513415337, 0.013151746243238449, -0.023101327940821648, 0.009206222370266914, -0.025617314502596855, -0.008520044386386871, -0.011607845313847065, -0.00015635567251592875, -0.02058534137904644, -0.01955607533454895, -0.016811363399028778, -0.07410722970962524, 0.002959142904728651, -0.009892400354146957, -0.04528775438666344, -0.007719503249973059, -0.01578209549188614, 0.006432919297367334, 0.01578209549188614, 0.0030449151527136564, -0.002573167672380805, 0.0004020574560854584, -0.02161460928618908, 0.01109321229159832, 0.010464215651154518, -0.00030556367710232735, -0.02596040442585945, 0.02481677383184433, 0.012294023297727108, 0.014466920867562294, 0.019327348098158836, 0.017611904069781303, -0.0062041934579610825, 0.020814068615436554, 0.0024016231764107943, 0.015210280194878578, -0.03179291635751724, -0.013380472548305988, 0.012865838594734669, 0.01692572608590126, 0.015324643813073635, -0.006547282449901104, -0.005460833664983511, -0.036138713359832764, -0.006375737953931093, -0.04208558797836304, -0.011207574978470802, 0.0023015555925667286, -0.017268814146518707, 0.0023730325046926737, -0.0155533691868186, 0.008119774051010609, -4.6013243263587356e-05, 0.015210280194878578, 0.0030020291451364756, 0.005746741313487291, 0.011436301283538342, -0.017154451459646225, -0.006347147282212973, -0.005718150641769171, -0.01086448598653078, 0.011207574978470802, 0.03316527232527733, 0.012579930946230888, 0.012637113220989704, -0.014981554821133614, -0.02172897197306156, -0.012808657251298428, 0.023558780550956726, -0.004488748032599688, 0.009263403713703156, -0.011836571618914604, 0.004574520513415337, -0.02161460928618908, 0.0021728971041738987, -0.015324643813073635, 0.001565343700349331, 0.025159861892461777, -0.047803737223148346, -0.0163539107888937, -0.016010820865631104, -0.001886989688500762, 0.019098622724413872, 0.026303492486476898, -0.0010864485520869493, 0.008691588416695595, -0.02218642458319664, 0.008577225729823112, 0.002887665992602706, -0.02481677383184433, -0.003159278305247426, 0.003530957968905568, -0.010464215651154518, -0.0052035171538591385, 0.02058534137904644, 0.008634407073259354, -0.006032648961991072, 0.0027304168324917555, 0.02058534137904644, 0.025159861892461777, 0.020928431302309036, -0.0163539107888937, -0.0027447121683508158, 0.04002705216407776, -0.00583251379430294, -0.026303492486476898, -0.034080177545547485, 0.01795499213039875, -0.0030020291451364756, -0.0032879365608096123, -0.0024016231764107943, -0.01692572608590126, 0.012579930946230888, -0.003773979377001524, 0.007233460433781147, 0.016582636162638664, 0.008062592707574368, 0.014409739524126053, -0.004374385345727205, -0.009663674049079418, 0.0017154451925307512, -0.03842597082257271, -0.029734382405877113, -0.006461509969085455, 0.02172897197306156, 0.028705116361379623, -0.01292301993817091, -0.030878012999892235, -0.03385145217180252, -0.0007969672442413867, -0.01692572608590126, -0.04002705216407776, 0.0155533691868186, 0.0054894243367016315, 0.002959142904728651, -0.009206222370266914, 0.005946876481175423, -0.0048032463528215885, 0.056724052876234055, -0.007719503249973059, -0.001322322292253375, -0.018298082053661346, -0.009377767331898212, -0.0007933934102766216, -0.05420806631445885, -0.019670438021421432, -0.01080730464309454, 0.006032648961991072, -0.0113791199401021, 0.0026589399203658104, 0.010235489346086979, -0.03339399769902229, 0.05695277824997902, -0.0016296729445457458, 0.008520044386386871, 0.027790211141109467, 0.004031296353787184, -0.024931136518716812, -0.010692941956222057, -0.018069356679916382, -0.011436301283538342, 0.018298082053661346, 0.008634407073259354, -0.004345794208347797, -0.021271519362926483, -0.004860428161919117, 0.03751106932759285, -0.03225037083029747, -0.000561093504074961, 0.0022872602567076683, -0.01692572608590126, -0.017268814146518707, -0.009720856323838234, -0.004174249712377787, -0.028819479048252106, -0.0014366853283718228, 0.009663674049079418, -0.016468273475766182, 0.026303492486476898, -0.013837924227118492, -0.006147011648863554, 0.02641785517334938, 0.0068903714418411255, 0.04643138125538826, -0.0155533691868186, 0.019441712647676468, -0.0021586017683148384, -0.02378750592470169, -0.0009720855741761625, -0.011779390275478363, -0.017611904069781303, 0.022415149956941605, 0.020470978692173958, -0.002072829520329833, -0.006032648961991072, 0.01132193859666586, 0.017268814146518707, 0.038197245448827744, -0.016239548102021217, 0.011950934305787086, 0.010407034307718277, 0.01852680742740631, -1.262013665837003e-05, -0.024702411144971848, 0.012122479267418385, 0.00566096929833293, 0.01132193859666586, -0.02698967047035694, -0.02321569062769413, -0.006175602786242962, -0.029276931658387184, -0.016010820865631104, 0.021157156676054, 0.029963109642267227, 0.006861780770123005, -0.012179660610854626, 0.02321569062769413, -0.023901868611574173, -0.005174926482141018, 0.03339399769902229, 0.008805952034890652, -0.02744712308049202, 0.022415149956941605, -0.022072061896324158, -0.014981554821133614, 0.008577225729823112, 0.029963109642267227, -0.014466920867562294, 0.002001352608203888, 0.02744712308049202, -0.023101327940821648, 0.0036167302168905735, -0.03225037083029747, 0.0054894243367016315, -0.005918285809457302, 0.000377040560124442, -0.006718826945871115, 0.03499508276581764, -0.004860428161919117, 0.02161460928618908, -0.009434948675334454, 0.028247663751244545, 0.006604463793337345, 0.004431566689163446, 0.002201488008722663, 0.04963354766368866, -0.001065005548298359, -0.0051177446730434895, -0.014867191202938557, -0.0025445770006626844, -0.014581283554434776, -0.03202164173126221, -0.0008970348862931132, 0.003916933201253414, 0.0032879365608096123, 0.02481677383184433, 0.0023015555925667286, -0.00568955997005105, 0.006633054465055466, -0.01132193859666586, 0.029276931658387184, -0.01132193859666586, -0.00514633534476161, -0.007547958754003048, -0.003388004144653678, -0.017611904069781303, -0.012408386915922165, 0.003773979377001524, -0.0012079592561349273, -0.0031163920648396015, -0.01692572608590126, -0.006061239633709192, -0.007376414258033037, 0.0327078215777874, -0.0163539107888937, 0.009034678339958191, -0.05329316481947899, -0.014752828516066074, -0.019899163395166397, 0.07044761627912521, -0.04597393050789833, 0.01841244474053383, 0.009263403713703156, -0.016582636162638664, 0.03339399769902229, -0.03659616410732269, -0.010121126659214497, 0.006375737953931093, 0.016696998849511147, 0.04208558797836304, -0.01000676304101944, -0.010235489346086979, -0.02001352608203888, -0.013380472548305988, 0.01132193859666586, -0.009149041026830673, 0.010235489346086979, 0.0018441035645082593, 0.006118420977145433, 0.026074767112731934, 0.03133546561002731, 0.02333005517721176, 0.017840629443526268, -0.008863133378326893, 0.0069761439226567745, -0.004717474337667227, 0.010178308002650738, -0.007376414258033037, -0.023558780550956726, 0.009206222370266914, -0.007605140097439289, 0.019899163395166397, 0.00019745489407796413, -0.014181013219058514, -0.03064928762614727, -0.020242253318428993, -0.006289965473115444, -0.0062041934579610825, -0.020814068615436554, 0.029963109642267227, 0.0227582398802042, 0.05695277824997902, 0.007262051105499268, 0.008291318081319332, 0.013780742883682251, -0.017154451459646225, -0.009263403713703156, 0.0010793008841574192, 0.016582636162638664, -0.02538858912885189, 0.00016350336954928935, -0.0034451857209205627, 0.018869897350668907, 0.008977496065199375, -9.738725202623755e-05, -0.02538858912885189, 0.009892400354146957, -0.005575196817517281, 0.04597393050789833, 0.02584603987634182, -0.016239548102021217, 0.0035452533047646284, 0.012637113220989704, -0.04117068275809288, 0.03133546561002731, 0.00566096929833293, -0.005174926482141018, 0.01692572608590126, 0.009492130018770695, -0.025045499205589294, -0.04162813723087311, 0.012179660610854626, 0.00789104774594307, -0.016125185415148735, -0.03499508276581764, -0.002029943512752652, 0.011607845313847065, 0.03728234022855759, 0.016811363399028778, -0.04528775438666344, 0.002001352608203888, 0.018755534663796425, 0.020242253318428993, 0.025045499205589294, -0.009549311362206936, 0.012236841954290867, -0.014466920867562294, -0.02104279398918152, 0.029276931658387184, -0.03339399769902229, 0.007433595601469278, 0.03179291635751724, -0.009492130018770695, -0.04025578126311302, 0.010635759681463242, -0.005460833664983511, 0.02584603987634182, 0.014981554821133614, -0.027904575690627098, 0.03385145217180252, -0.04208558797836304, 0.005946876481175423, 0.001136482460424304, -0.013666380196809769, 0.028819479048252106, 0.006747417617589235, 0.0311067383736372, 0.012122479267418385, 0.04894736781716347, -0.008977496065199375, 0.026303492486476898, -0.005746741313487291, -0.011607845313847065, -0.06084112077951431, -0.020928431302309036, -0.03659616410732269, 0.007719503249973059, -0.007262051105499268, 0.03636743873357773, 0.016239548102021217, -0.008005410432815552, -0.01109321229159832, 0.025617314502596855, -0.009263403713703156, -0.020814068615436554, -0.007833866402506828, -0.008062592707574368, 0.014638465829193592, 0.0021014204248785973, -0.04963354766368866, 0.007433595601469278, -0.014981554821133614, 0.038883425295352936, 0.010178308002650738, -0.025502951815724373, 0.021957697346806526, -0.027675848454236984, 0.05443679168820381, 0.014867191202938557, -0.034537628293037415, -0.0024016231764107943, -0.03659616410732269, -0.002001352608203888, -0.004031296353787184, 0.01955607533454895, -0.010635759681463242, -0.0001545687555335462, -0.05420806631445885, 0.024931136518716812, 0.008577225729823112, 0.013037383556365967, 0.002244374016299844, 0.017726266756653786, 0.0001608229795238003, -0.014123831875622272, 0.02058534137904644, -0.01578209549188614, -0.03796852007508278, 0.03064928762614727, 0.007119097281247377, -0.02172897197306156, 0.03636743873357773, 0.009034678339958191, -0.0048032463528215885, 0.018641170114278793, -0.021957697346806526, 0.0359099842607975, 0.0013366177445277572, 0.019212985411286354, 0.016239548102021217, -0.0010507102124392986, 0.06129857525229454, 0.015095917508006096, -0.02584603987634182, 0.03064928762614727, 0.009663674049079418, -0.0017511836485937238, -0.020242253318428993, 0.02687530778348446, -0.015439006499946117, -0.016010820865631104, -0.015439006499946117, -0.007547958754003048, -0.009606492705643177, 0.003316527232527733, -0.006776008289307356, 0.0062041934579610825, -0.04437284916639328, 0.008062592707574368, 0.004174249712377787, 0.021385883912444115, 0.017040088772773743, -0.0163539107888937, 0.007090506609529257, 0.029734382405877113, 0.014752828516066074, -0.025731677189469337, -0.002959142904728651, -0.0032593458890914917, -0.035681258887052536, 