{"UUID": "58390a46-387c-4e76-8b8a-f0a1ead94f67", "BM25": {"terms": ["impact", "of", "motor", "symptom", "asymmetry", "on", "non-motor", "outcomes", "in", "parkinson", "s", "disease", "a", "systematic", "review", "npj", "skip", "to", "main", "content", "thank", "you", "for", "visiting", "nature", "com", "are", "using", "browser", "version", "with", "limited", "support", "css", "obtain", "the", "best", "experience", "we", "recommend", "use", "more", "up", "date", "or", "turn", "off", "compatibility", "mode", "internet", "explorer", "meantime", "ensure", "continued", "displaying", "site", "without", "styles", "and", "javascript", "advertisement", "view", "all", "journals", "search", "log", "explore", "about", "journal", "publish", "us", "sign", "alerts", "rss", "feed", "1", "2", "3", "articles", "4", "article", "download", "pdf", "open", "access", "published", "01", "july", "2025", "p", "voruz", "d", "gu", "rin", "amp", "j", "ron", "volume", "11", "number", "188", "cite", "this", "4939", "accesses", "citations", "109", "altmetric", "metrics", "details", "subjects", "cognitive", "ageing", "dementia", "human", "behaviour", "neurodegeneration", "psychology"], "weights": [3.9045532580103925, 0.10770934478089848, 5.711496346599099, 6.404610138172398, 7.997902493769125, 1.111155886541669, 7.550937309445671, 4.074377690863003, 0.21503355272798313, 5.3128266796590875, 1.1344580017060242, 1.6879206754286868, 0.2694398471310808, 3.363674566629929, 2.0919391947811143, 9.317135419711086, 4.5071683953966355, 0.6027983982857871, 3.226708021462386, 5.509629613254493, 5.099216638691616, 5.490133822124447, 0.4996235495791916, 6.4909383498975, 4.621118221078466, 3.7055319300505514, 1.6130704869916475, 1.4394809362735212, 8.608360138340203, 3.2059015257218544, 0.48604012175473194, 3.070883997036358, 3.331666318457848, 6.769312994144169, 4.371993608310833, 0.21667576649240214, 3.927750986903038, 3.200764439934792, 2.77003520784049, 5.577399602719736, 2.0972517172574396, 1.844160838425576, 5.091558770104556, 4.071490590197891, 1.065288034657199, 5.037246633228807, 5.577399602719736, 5.936726717145444, 4.705424353046439, 4.071490590197891, 6.769312994144169, 6.769312994144169, 3.5874855622057913, 4.8208419944449465, 5.936726717145444, 5.007596352958203, 2.5326987710187803, 5.802645097618969, 0.06743993907613607, 6.4909383498975, 4.281042943514652, 3.1361983557526396, 1.7667152974747065, 3.4227540718007767, 2.8227341370944092, 5.007596352958203, 3.1556404084913128, 2.454932866782616, 2.5766868862927876, 4.184121551949937, 2.911892850011018, 4.525373936213429, 5.099216638691616, 5.480800675175552, 5.683922710721164, 1.783649602259678, 1.32320327673045, 1.5469032690040627, 2.7018972528582808, 1.2241038110850169, 3.082195931531594, 4.516581970101242, 4.733681285622225, 2.373315248723128, 2.658459972777295, 2.602275040025047, 3.286175235273784, 4.184121551949937, 2.929557309158284, 2.405352035052736, 6.4909383498975, 1.7325443945364385, 5.272566859786797, 7.411683301102997, 2.4302541957014845, 1.258218444974476, 6.769312994144169, 3.1956526600916466, 1.9897796675868917, 2.67068620210262, 5.802645097618969, 3.8015211694398725, 0.9531134442139846, 8.290915148248486, 5.0677691045234186, 4.310482909797969, 4.7731237386259995, 4.683805045872922, 3.4549830352597066, 3.722336980884574, 3.3433626640024303, 0.49893810431188357, 3.917476752379574, 0.9542889631272609, 2.9003199879449153, 4.870860795387345, 3.0266261502923575, 4.489276758903409], "k1": 1.5, "b": 0.75, "avgdl": 233.87661016949153, "N": 4425}, "SpladeV3": {"model_id": "naver/splade-v3", "tokens": ["motor", "parkinson", "##j", "systematic", "##erin", "np", "non", "impact", "pd", "outcomes", "##metry", "##metric", "##ym", "pdf", "browser", "nature", "##script", "##eration", "disease", "as", "explorer", "dementia", "cs", "review", "motors", "outcome", "citation", "support", "published", "affect", "metric", "journals", "amp", "psychology", "internet", "article", "java", "citing", "compatibility", "##5", "access", "204", "volumes", "syndrome", "##gen", "number", "journal", "articles", "gu", "##om", "202", "limited", "sy", "188", "alt", "skip", "rs", "##ru", "cognitive", "cite", "mode", "citations", "prevalence", "j", "download", "styles", "##uro", "volume", "compatible", "vo", "content", "symptoms", "no", "diseases", "experience", "age", "thank", "continued", "supporting", "literature", "effect", "curve", "patient", "ne", "nerve", "human", "alzheimer", "publishing", "subjects", "cognition", "##s", "tremor", "##erative", "psychological", "symmetrical", "behavior", "details", "many", "muscle", "##mpt", "behaviour", "variation", "study", "symmetry", "supported", "walking", "ie", "reviews", "humans", "paint", "11", "minimal", "obtain", "##de", "##meter", "roland", "modes", "natural", "impacted", "numbers", "diagnosis", "grateful", "als", "font", "brain", "intensity", "##opa", "best", "s", "dizzy", "##morphism", "web", "view", "nurse", "off", "impacts", "feed", "brains", "ensure", "score", "versions", "script", "research", "version", "automatic", "##mer", "arthritis", "similarity", "pal", "error", "meter", "##iom", "disabled", "limit", "##js", "displaying", "disorder", "consequences", "stroke", "##genic", "report", "accuracy", "onset", "log", "mimic", "effects", "clinical", "inhibitor", "##d", "cited", "systemic", "site", "ata", "code", "##pia", "measurement", "geometry", "4", "fit", "clinic", "switch", "stepping", "author", "turn", "magnetic", "movement", "m2", "##moto", "button", "frequency", "typing", "discovery", "experiences", "##bin", "associated", "ballistic", "##pse", "subject", "patients", "style", "22", "scale"], "weights": [2.489889144897461, 2.4710965156555176, 2.1869122982025146, 2.168104887008667, 2.1523115634918213, 2.103952169418335, 2.100470781326294, 2.0857505798339844, 2.017052412033081, 2.0027482509613037, 1.9751684665679932, 1.9663200378417969, 1.9228131771087646, 1.8830533027648926, 1.816866159439087, 1.7623705863952637, 1.7004355192184448, 1.6907932758331299, 1.6814649105072021, 1.6671847105026245, 1.6585031747817993, 1.6297612190246582, 1.6099960803985596, 1.5303884744644165, 1.5029855966567993, 1.4857139587402344, 1.4852265119552612, 1.4294021129608154, 1.4209247827529907, 1.4173583984375, 1.384868860244751, 1.3795065879821777, 1.3731168508529663, 1.3614403009414673, 1.3587145805358887, 1.3285353183746338, 1.3268632888793945, 1.3258496522903442, 1.322392225265503, 1.316052794456482, 1.29793119430542, 1.2538021802902222, 1.2315471172332764, 1.2148749828338623, 1.1962734460830688, 1.19001042842865, 1.1889169216156006, 1.1867388486862183, 1.1822158098220825, 1.1739299297332764, 1.1610723733901978, 1.1393420696258545, 1.11994206905365, 1.1145668029785156, 1.1048400402069092, 1.0864962339401245, 1.0649003982543945, 1.0609831809997559, 1.0486798286437988, 1.0277595520019531, 1.0263211727142334, 1.0191702842712402, 1.016066551208496, 1.0152643918991089, 1.002987027168274, 0.99976646900177, 0.9898274540901184, 0.9795687794685364, 0.9735914468765259, 0.9636486768722534, 0.9492028951644897, 0.9483432769775391, 0.9442293643951416, 0.9367694854736328, 0.8950162529945374, 0.8771336078643799, 0.8488706946372986, 0.843732476234436, 0.8304212689399719, 0.8271734714508057, 0.8237234354019165, 0.8185662031173706, 0.8118063807487488, 0.8084661960601807, 0.8038726449012756, 0.8000977039337158, 0.7925795912742615, 0.7737789750099182, 0.761533260345459, 0.7564802765846252, 0.7510770559310913, 0.746663510799408, 0.7466143369674683, 0.7426592111587524, 0.7315284609794617, 0.7254294157028198, 0.6874099969863892, 0.6760758757591248, 0.6596886515617371, 0.6564474105834961, 0.6455454230308533, 0.6408432126045227, 0.6327382922172546, 0.632453441619873, 0.6317270994186401, 0.6160969734191895, 0.6118150949478149, 0.6014411449432373, 0.5868201851844788, 0.5653457641601562, 0.5455648899078369, 0.5451827645301819, 0.5322083234786987, 0.5118054151535034, 0.5117218494415283, 0.5114501714706421, 0.47497066855430603, 0.4710172414779663, 0.4647209048271179, 0.4639381766319275, 0.4557632505893707, 0.43869665265083313, 0.42775166034698486, 0.42109647393226624, 0.4197958707809448, 0.41968345642089844, 0.4043874442577362, 0.39459943771362305, 0.39415863156318665, 0.3940728008747101, 0.39066264033317566, 0.38808223605155945, 0.38560277223587036, 0.3818540573120117, 0.3683232069015503, 0.34946104884147644, 0.34939923882484436, 0.34550973773002625, 0.3453940153121948, 0.34258654713630676, 0.338888019323349, 0.32815566658973694, 0.3213249742984772, 0.3140753209590912, 0.31321293115615845, 0.31261932849884033, 0.3097792863845825, 0.3079792559146881, 0.3064136207103729, 0.29751530289649963, 0.29643383622169495, 0.29545632004737854, 0.2834080755710602, 0.281673789024353, 0.2756279706954956, 0.26862961053848267, 0.2648389935493469, 0.25295916199684143, 0.2474450320005417, 0.2430967092514038, 0.2350844293832779, 0.23323115706443787, 0.23222848773002625, 0.23188678920269012, 0.22671057283878326, 0.22600287199020386, 0.21050050854682922, 0.21003912389278412, 0.20154795050621033, 0.18544656038284302, 0.18536528944969177, 0.18147942423820496, 0.17981520295143127, 0.1747712641954422, 0.17182037234306335, 0.17093731462955475, 0.16404201090335846, 0.16089852154254913, 0.15684223175048828, 0.15588350594043732, 0.13906310498714447, 0.1363259255886078, 0.13458268344402313, 0.13004335761070251, 0.12846501171588898, 0.11581985652446747, 0.11344653367996216, 0.09631121903657913, 0.09358441829681396, 0.09107376635074615, 0.07844264805316925, 0.07777880877256393, 0.07053117454051971, 0.07017243653535843, 0.06694278120994568, 0.06555988639593124, 0.06117844209074974, 0.06022980809211731, 0.06001818925142288, 0.05789199471473694, 0.021567873656749725, 0.016025502234697342]}, "Qwen3-4B": {"model_id": "Qwen/Qwen3-Embedding-4B", "vector": [-0.00024343575933016837, 0.03411654382944107, -0.01728571578860283, -0.023767858743667603, -0.000870682648383081, 0.03889286145567894, -0.006567434873431921, -0.006453712936490774, 0.005060620605945587, 0.04799060523509979, 0.02934022806584835, 0.0623195543885231, 0.004264567978680134, -0.003141565015539527, -0.02172086574137211, -0.009893798269331455, 0.022858085110783577, 0.019332708790898323, -0.012964286841452122, -0.0027861844282597303, -0.005089051090180874, 0.00841541402041912, 0.013476034626364708, 0.041622184216976166, -0.011599625460803509, 0.025246242061257362, -0.015693610534071922, -0.007278196047991514, 0.015579888597130775, -0.0009310973691754043, 0.04207707196474075, 0.006339990999549627, -0.019673874601721764, -0.021948309615254402, 0.004321428947150707, -0.018081769347190857, 0.010348685085773468, 0.0006823308649472892, 0.04116729646921158, 0.012623121030628681, -0.03593609482049942, 0.0514022596180439, 0.014272087253630161, 0.011599625460803509, 0.0550413578748703, -0.027293235063552856, -0.0014215226983651519, -0.005288064479827881, -0.0009239897481165826, -0.02024248242378235, 0.004520442336797714, 0.014215227216482162, -0.031387221068143845, -0.013305452652275562, 0.005657660309225321, -0.0015210292767733335, 0.03821052983403206, 0.009666354395449162, -0.016717106103897095, 0.03843797370791435, 0.01762688159942627, 0.008756579831242561, -0.004776316229254007, -0.02308552898466587, -0.009325188584625721, -0.018422933295369148, 0.016034776344895363, -0.053449250757694244, 0.005259633995592594, -0.0008351445430889726, -0.03343421220779419, -0.0005792704760096967, -0.017399437725543976, -0.02092481404542923, 0.02490507811307907, -0.01978759653866291, -0.012793703936040401, 0.0013362313620746136, 0.0011585409520193934, 0.0009879582794383168, 0.006311560515314341, -0.004691024776548147, 0.008074249140918255, 0.036163538694381714, 0.002217575442045927, -0.011201598681509495, -0.013078008778393269, -0.003454300109297037, -0.013078008778393269, -0.011997651308774948, 0.010917293839156628, -0.0329793244600296, 0.02752067893743515, -0.02752067893743515, 0.0016631815815344453, -0.021948309615254402, -0.009382049553096294, -0.014499531127512455, -0.010121241211891174, 0.000154590597958304, -0.008472274988889694, -0.022858085110783577, 0.008813440799713135, 0.0002016785292653367, 0.033206768333911896, -0.006965461187064648, -0.010519267991185188, -0.001329123741015792, 0.009325188584625721, -0.012452539056539536, 0.01944643072783947, -0.01580733247101307, 0.007903666235506535, 0.02535996399819851, 0.021948309615254402, 0.016034776344895363, 0.05094737187027931, 0.004321428947150707, -0.0031984259840101004, -0.02717951312661171, -0.009097744710743427, 0.032069552689790726, -0.011485903523862362, 0.009552632458508015, -0.005145912058651447, 0.001990131800994277, -0.004776316229254007, -0.011940790340304375, -0.0012509399093687534, 0.0027435387019068003, -0.012168234214186668, -0.016034776344895363, 0.025473685935139656, -0.014328948222100735, 0.020015038549900055, 0.007789944298565388, -0.006197839044034481, -0.023767858743667603, -0.01080357190221548, -0.010462407022714615, -0.004236137494444847, 0.002089638262987137, -0.004349859431385994, 0.04480639472603798, 0.015238722786307335, -0.0012793703936040401, 0.005885103717446327, 0.019901316612958908, 0.021493423730134964, 0.0046625942923128605, 0.013476034626364708, -0.005885103717446327, 0.02206203155219555, 0.0052312035113573074, 0.0003393885272089392, -0.0033405781723558903, -0.0023028666619211435, 0.0020469925366342068, 0.0016205358551815152, -0.00040868777432478964, -0.0004442258505150676, 0.00043178751366212964, 0.0044920118525624275, -0.013532895594835281, -0.01580733247101307, 0.014556392095983028, 0.022971807047724724, 0.02024248242378235, -0.015693610534071922, -0.006766447797417641, 0.0015707825077697635, -0.0015210292767733335, -0.021493423730134964, -0.012736842967569828, 0.013078008778393269, -0.0007605146383866668, 0.0028714758809655905, -0.03252444043755531, -0.00841541402041912, 0.02240319736301899, 0.0040939850732684135, -0.012509399093687534, 0.03161466494202614, -0.006823308765888214, -0.015238722786307335, -0.006368421483784914, 0.001947486074641347, -0.004918468650430441, 0.020128760486841202, 0.011770207434892654, 0.009950658306479454, 0.01614849828183651, 0.007733083330094814, -0.0018124413909390569, -0.00210385350510478, 0.00010927955736406147, 0.0009453125530853868, 0.028316732496023178, 0.020811092108488083, -0.012338817119598389, 0.03184210881590843, 0.016262220218777657, 0.014783835969865322, -0.008529135957360268, -0.0070791831240057945, -0.02240319736301899, -0.008984023705124855, -0.00841541402041912, 0.005373355932533741, -0.023995302617549896, 0.0023455123882740736, -0.02274436317384243, 0.0052312035113573074, -0.058225568383932114, 0.000469102495117113, 0.009154605679214, -0.01944643072783947, -0.013248591683804989, 0.013589756563305855, 0.015125000849366188, 0.002317081904038787, 0.023654136806726456, -0.015011279843747616, 0.018991542980074883, 0.012964286841452122, -0.0017484729178249836, -0.008870301768183708, -0.008187970146536827, -0.006624295841902494, 0.0017982261488214135, 0.013532895594835281, 0.007789944298565388, 0.02604229561984539, -0.02570112980902195, -0.003923402633517981, -0.014670114032924175, -0.05003759637475014, 0.020128760486841202, -0.005288064479827881, 0.022289475426077843, -0.04503383859992027, -0.013248591683804989, -0.025473685935139656, 0.004179276525974274, -0.007391917984932661, -0.007335057016462088, 0.009268327616155148, -0.03366165608167648, 0.002089638262987137, -0.003297932678833604, -0.0013717693509534001, 0.002658247482031584, -0.04321428760886192, -0.015693610534071922, -0.03639097884297371, -0.026952069252729416, -0.0020754230208694935, -0.013362312689423561, -0.009097744710743427, 0.005259633995592594, 0.0029709823429584503, 0.018309211358428, 0.008017388172447681, -0.0001341562019661069, -0.018650377169251442, 0.009382049553096294, 0.014897557906806469, -0.00036248829565010965, -0.004776316229254007, 0.011883929371833801, 0.04230451583862305, 0.0044920118525624275, -0.013760339468717575, 0.009836937300860882, -0.024677634239196777, 0.000916882127057761, -0.0015068140346556902, 0.007136043626815081, 0.028771618381142616, -0.005657660309225321, -0.011713346466422081, 0.015011279843747616, -0.011997651308774948, 0.02865789644420147, -0.013248591683804989, -0.01762688159942627, -0.023654136806726456, 0.0020043470431119204, -0.003980263601988554, 0.013021147809922695, 0.024450190365314484, -0.013305452652275562, -0.0008458059746772051, -0.02172086574137211, 0.036163538694381714, 0.0015068140346556902, -0.015921054407954216, -0.029567671939730644, -0.006539004389196634, -0.02058364823460579, -0.008017388172447681, -0.019332708790898323, 0.03002255968749523, 0.025587407872080803, 0.008131110109388828, 0.02535996399819851, 0.016262220218777657, -0.013248591683804989, -0.03639097884297371, -0.028771618381142616, 0.004719455260783434, 0.013987783342599869, -0.013305452652275562, 0.007733083330094814, 0.018422933295369148, -0.017171993851661682, -0.003667528508231044, 0.021379701793193817, -0.003042058553546667, -0.010234963148832321, 0.007278196047991514, -0.006169408559799194, 0.0006503466283902526, -0.0028714758809655905, 0.030250001698732376, 0.012623121030628681, 0.0035111610777676105, 0.013305452652275562, 0.014897557906806469, -0.04253195971250534, -0.004691024776548147, 0.010689850896596909, -0.03821052983403206, -0.03889286145567894, -0.0019332708325237036, 0.0018621947383508086, -0.0009808506583794951, 0.011940790340304375, 0.007391917984932661, 0.011827068403363228, -0.0082448311150074, -0.008870301768183708, 0.011315320618450642, -0.03252444043755531, -0.0009879582794383168, -0.005458646919578314, 0.035708650946617126, 0.007505639921873808, -0.045716170221567154, 0.0020469925366342068, 0.02570112980902195, 0.0054870774038136005, 0.0048616076819598675, 0.009893798269331455, 0.0054870774038136005, 0.035708650946617126, -0.0025587407872080803, -0.0018195490119978786, -0.010462407022714615, -0.002914121374487877, -0.006311560515314341, -0.0020754230208694935, 0.027065791189670563, -0.0015494597610086203, -0.03229699656367302, -0.005657660309225321, 0.00021767066209577024, 0.020015038549900055, 0.020128760486841202, 0.005913534201681614, -0.016717106103897095, -0.03639097884297371, 0.010860432870686054, 0.012225095182657242, -0.009836937300860882, 0.02274436317384243, -0.00841541402041912, 0.0025587407872080803, -0.009780076332390308, 0.011429042555391788, 0.018309211358428, 0.021379701793193817, -0.0006787770544178784, 0.02456391230225563, -0.012623121030628681, 0.009040884673595428, -0.02240319736301899, -0.0050321901217103004, -0.04116729646921158, 0.015125000849366188, 0.016717106103897095, 0.02934022806584835, -0.0008386983536183834, 0.020469926297664642, -0.02490507811307907, -0.010632989928126335, -0.0009950659004971385, 0.013191730715334415, 0.021493423730134964, -0.03593609482049942, -0.0006077009602449834, 0.005913534201681614, 0.007960527203977108, -0.016262220218777657, 0.001876409980468452, 0.005003759637475014, 0.008358553051948547, 0.005572368856519461, -0.0015707825077697635, 0.02206203155219555, -0.009723215363919735, 0.007846805267035961, -0.012679981999099255, 0.0050321901217103004, -0.0164896622300148, 0.010689850896596909, -0.004406720399856567, 0.002473449567332864, 0.03934774920344353, 0.009552632458508015, -0.012736842967569828, -0.012964286841452122, 0.011258459649980068, 0.011656485497951508, 0.01762688159942627, 0.006254699546843767, -0.003525376319885254, -0.023199250921607018, 0.03047744557261467, 0.0037243894767016172, -0.016603384166955948, -0.02535996399819851, 0.027406957000494003, 0.009325188584625721, 0.018195489421486855, 0.005344925448298454, -0.0006325775757431984, 0.0046625942923128605, 0.005885103717446327, 0.0060556866228580475, 0.03934774920344353, -0.014556392095983028, -0.002629816997796297, -0.012679981999099255, 0.00841541402041912, -0.005430216435343027, -0.017854325473308563, 0.011883929371833801, -0.012111373245716095, -0.004520442336797714, -0.003411654382944107, 0.020469926297664642, 0.022175753489136696, -0.019901316612958908, -0.014897557906806469, -0.002672462724149227, -0.0014641683083027601, 0.010348685085773468, 0.020015038549900055, -0.016603384166955948, 0.004378289915621281, 0.022858085110783577, 0.0329793244600296, 0.040257520973682404, -0.02683834731578827, -0.010291824117302895, -0.013305452652275562, -0.018536655232310295, 0.07232707738876343, -0.0034400848671793938, -0.009268327616155148, 0.005714521277695894, -0.03707331046462059, 0.004833177197724581, -0.016717106103897095, -0.01728571578860283, -0.033206768333911896, 0.0082448311150074, -0.0017911185277625918, 0.012168234214186668, 0.055268801748752594, 0.0054870774038136005, -0.02820301055908203, 0.02456391230225563, -0.007505639921873808, -0.008927162736654282, -0.025587407872080803, -0.0013220161199569702, 0.0004495565372053534, -0.0002487664751242846, 0.020356204360723495, 0.02274436317384243, -0.026724625378847122, -0.006908600218594074, 0.010007519274950027, -0.01080357190221548, 0.04003007709980011, 0.01614849828183651, -0.010632989928126335, -0.0003642651718109846, -0.009950658306479454, 0.007846805267035961, 0.025132520124316216, -0.007733083330094814, 0.003070489037781954, -0.02024248242378235, 0.03889286145567894, -0.005344925448298454, 0.03252444043755531, 0.003894972149282694, 0.028089288622140884, 0.018877821043133736, 0.019332708790898323, 0.010576128959655762, -0.012566260062158108, 0.016717106103897095, -0.013817200437188148, -0.006851739250123501, -0.0050321901217103004, -0.030250001698732376, 0.005600799340754747, -0.0018906251061707735, -0.0021891449578106403, -0.009893798269331455, 0.048218049108982086, 0.019901316612958908, -0.006709586828947067, 0.025473685935139656, -0.03843797370791435, 0.008984023705124855, 0.013362312689423561, 0.006965461187064648, 0.022289475426077843, 0.013134869746863842, -0.009325188584625721, -0.011542764492332935, 0.004520442336797714, -0.009609493426978588, 0.005316494964063168, 0.005714521277695894, -0.002445019083097577, -0.014442670159041882, 0.0011158953420817852, 0.009495771490037441, 0.015579888597130775, -0.04253195971250534, 0.036163538694381714, 0.045716170221567154, -0.021493423730134964, -0.014670114032924175, 0.044578950852155685, -0.04503383859992027, 0.010462407022714615, 0.013874061405658722, 0.028771618381142616, -0.019673874601721764, -0.031387221068143845, -0.008642857894301414, 0.02126597985625267, 0.004634163808077574, 0.0012793703936040401, -0.013874061405658722, -0.016034776344895363, 0.016034776344895363, 0.019332708790898323, 0.014499531127512455, -0.03161466494202614, 0.011940790340304375, -0.039802633225917816, -0.029795115813612938, -0.009097744710743427, -0.018650377169251442, -0.03639097884297371, 0.020015038549900055, -0.010632989928126335, 0.02865789644420147, -0.019218986853957176, 0.0009524201741442084, 0.014101505279541016, 0.004378289915621281, -0.019901316612958908, 0.025132520124316216, 5.286287341732532e-05, 0.0024308038409799337, 0.008642857894301414, -0.012395678088068962, -0.026610905304551125, 0.008529135957360268, 0.0514022596180439, 0.014044644311070442, -0.030704889446496964, -0.020811092108488083, -0.004150846041738987, 0.0012722627725452185, -0.012566260062158108, 0.005288064479827881, -0.014783835969865322, 0.0005508400499820709, -0.030932333320379257, -0.005600799340754747, 0.0041224155575037, 0.013987783342599869, -0.03388909995555878, -0.02501879818737507, 0.003923402633517981, 0.04003007709980011, 0.04184962809085846, 0.040257520973682404, -0.013874061405658722, 0.021493423730134964, -0.027975566685199738, -0.0007000999175943434, -0.036618422716856, 0.007164474111050367, 0.018195489421486855, 0.023995302617549896, -0.021948309615254402, 0.03752819821238518, 0.018422933295369148, -0.010746711865067482, -0.012225095182657242, -0.007107613608241081, 0.004378289915621281, -0.009382049553096294, 0.012964286841452122, -0.006709586828947067, -0.026156017556786537, -0.02865789644420147, 0.0066811563447117805, -0.0029425518587231636, -0.02456391230225563, -0.028430454432964325, 0.005458646919578314, 0.0034400848671793938, -0.03161466494202614, -0.02308552898466587, -0.0008813440799713135, 0.018991542980074883, -0.010632989928126335, 0.021152257919311523, 0.012452539056539536, 0.02240319736301899, 0.02172086574137211, 0.007960527203977108, -0.012679981999099255, 0.012395678088068962, 0.019901316612958908, -0.0019332708325237036, 0.003113134764134884, 0.01910526491701603, -0.022630641236901283, 0.015352444723248482, 0.008017388172447681, 0.011372181586921215, -0.015921054407954216, 0.024677634239196777, 0.02206203155219555, -0.009211466647684574, 0.003113134764134884, 0.034343987703323364, 0.025928573682904243, 0.022971807047724724, -0.006993891671299934, 0.004037124570459127, -0.018195489421486855, 0.013646617531776428, 0.01762688159942627, 0.014215227216482162, -0.008074249140918255, 0.001947486074641347, 0.004577302839607, -0.00028252764604985714, 0.013646617531776428, -0.002402373356744647, 0.002857260638847947, 0.014385809190571308, 0.07005263864994049, -0.020128760486841202, 0.035708650946617126, 0.004065555054694414, -0.028544174507260323, 0.020811092108488083, -0.00021589375683106482, 0.015011279843747616, -0.021493423730134964, 0.009382049553096294, -0.028771618381142616, 0.009268327616155148, -0.019560152664780617, 0.002658247482031584, 0.0010163887636736035, 0.01762688159942627, 0.022516919299960136, 0.010121241211891174, 0.04958271235227585, -0.008301692083477974, -0.003113134764134884, 0.022971807047724724, -0.01683082804083824, -0.04230451583862305, -0.03457143157720566, 0.018195489421486855, 0.02490507811307907, -0.007505639921873808, -0.0014286303194239736, -0.0038381111808121204, 0.041622184216976166, 0.004776316229254007, 0.007391917984932661, 0.02240319736301899, 0.004406720399856567, -0.0007000999175943434, -0.007221335079520941, -0.017399437725543976, -0.005572368856519461, -0.023426692932844162, -0.014670114032924175, -0.022175753489136696, 0.005202773027122021, -0.008529135957360268, -0.05003759637475014, -0.0032126412261277437, -0.009666354395449162, 0.005913534201681614, -0.009552632458508015, -0.02820301055908203, -0.017399437725543976, 0.0007889450644142926, -0.028771618381142616, -0.0017484729178249836, -0.021493423730134964, 0.006937030702829361, 0.003951833117753267, -0.010632989928126335, 0.009382049553096294, -0.017854325473308563, 0.02422274649143219, 0.03047744557261467, -0.006453712936490774, 0.026497183367609978, -0.008927162736654282, 0.005458646919578314, -0.009836937300860882, -0.0008138217381201684, 0.011372181586921215, 0.025132520124316216, -0.012338817119598389, -0.036845866590738297, 0.03275188058614731, -0.02934022806584835, 0.022858085110783577, -0.005202773027122021, 0.011599625460803509, 0.007505639921873808, -0.037300754338502884, -0.015579888597130775, 0.011429042555391788, -0.03002255968749523, 0.014783835969865322, -0.006084117107093334, -0.038665417581796646, 0.019673874601721764, -0.012111373245716095, -0.03411654382944107, -0.004378289915621281, -0.0036106675397604704, -0.013817200437188148, -0.02172086574137211, -0.036618422716856, 0.008756579831242561, -0.032069552689790726, 2.8208340154378675e-05, 0.004634163808077574, -0.018536655232310295, 0.040257520973682404, -0.002032777527347207, -0.04730827361345291, -0.0007960526854731143, 0.02752067893743515, 0.003667528508231044, -0.04321428760886192, 0.010689850896596909, -0.013419173657894135, 0.0012082942994311452, -0.005970395170152187, -0.017740603536367416, -0.0072497655637562275, -0.020128760486841202, 0.014783835969865322, -0.002445019083097577, 0.038665417581796646, 0.039802633225917816, -0.05367669463157654, -0.02024248242378235, 0.018650377169251442, 0.004236137494444847, 0.029112784191966057, 0.018650377169251442, -0.027293235063552856, 0.009495771490037441, -0.005913534201681614, -0.027975566685199738, 0.036845866590738297, 0.026724625378847122, -0.028544174507260323, -0.009495771490037441, 0.023199250921607018, -0.02354041486978531, -0.05572368949651718, 0.018309211358428, 0.0036959589924663305, -0.02308552898466587, -0.04207707196474075, -0.014101505279541016, -0.0037243894767016172, -0.011258459649980068, 0.04799060523509979, 0.011883929371833801, 0.00206120777875185, 0.033206768333911896, -0.009495771490037441, 0.028544174507260323, 0.0016560739604756236, 0.012395678088068962, 0.010234963148832321, -0.012509399093687534, 0.007789944298565388, 0.025587407872080803, -0.007107613608241081, -0.0036106675397604704, 0.007676222361624241, 0.012111373245716095, -0.013078008778393269, -0.002857260638847947, 0.012452539056539536, -0.007278196047991514, -0.015125000849366188, 0.007164474111050367, 0.01910526491701603, -0.0050321901217103004, -0.006709586828947067, 0.04344173148274422, 0.011031015776097775, -0.04253195971250534, -0.00042467989260330796, 0.014670114032924175, 0.0014997064135968685, -0.006624295841902494, -0.02535996399819851, -0.012338817119598389, 0.024791356176137924, 0.02388158068060875, 0.00042467989260330796, 0.03184210881590843, -0.0013006932567805052, 0.007335057016462088, 0.030932333320379257, -0.019673874601721764, 0.03002255968749523, 0.03252444043755531, 0.003894972149282694, -0.013589756563305855, 0.02058364823460579, -0.021152257919311523, 0.009097744710743427, -0.016262220218777657, 0.008358553051948547, -0.0054870774038136005, -0.03184210881590843, -0.0010803572367876768, 0.010917293839156628, -0.0007711760699748993, 0.018195489421486855, 0.001990131800994277, 0.035026319324970245, 0.004150846041738987, 0.008870301768183708, 0.009040884673595428, -0.014272087253630161, 0.006169408559799194, -0.002814614912495017, -0.012964286841452122, -0.004236137494444847, 0.007676222361624241, -0.0010092811426147819, 0.02501879818737507, 0.022175753489136696, -0.014499531127512455, -0.004605733323842287, 0.0038096806965768337, 0.007733083330094814, 0.03366165608167648, -0.011258459649980068, 0.032069552689790726, -0.035708650946617126, -0.000469102495117113, -0.006965461187064648, -0.02058364823460579, -0.0064252824522554874, -0.03252444043755531, 0.009211466647684574, -0.024677634239196777, 0.003752819960936904, -0.028885340318083763, 0.011315320618450642, 0.04139474034309387, -0.018422933295369148, -0.02024248242378235, 0.008813440799713135, -0.014215227216482162, -0.035708650946617126, -0.027406957000494003, 0.003042058553546667, 0.018195489421486855, 0.005913534201681614, -0.03479887545108795, 0.02456391230225563, -0.009154605679214, -0.015921054407954216, -0.0007924988749437034, 0.02058364823460579, 0.019332708790898323, -0.005913534201681614, -0.0006574542494490743, -0.022289475426077843, -0.011713346466422081, 0.0014357379404827952, 0.006993891671299934, 0.01910526491701603, -0.008642857894301414, 0.004691024776548147, 0.012395678088068962, 0.013191730715334415, 0.011315320618450642, -0.0020185622852295637, 0.010974154807627201, 0.008472274988889694, -0.004577302839607, 0.012168234214186668, 0.009097744710743427, 0.003269502194598317, -0.003667528508231044, 0.009552632458508015, -0.008472274988889694, 0.0015992129920050502, -0.015352444723248482, -0.026952069252729416, 0.014670114032924175, -0.051174815744161606, -0.019218986853957176, 0.0010945724789053202, -0.02683834731578827, -0.0015068140346556902, -0.004349859431385994, 0.03229699656367302, 0.0033974391408264637, 0.029795115813612938, -0.0018906251061707735, 0.011144737713038921, 0.03752819821238518, 0.007903666235506535, 0.015466166660189629, -0.029795115813612938, 0.004946899134665728, -0.013589756563305855, 0.004179276525974274, 0.013532895594835281, -0.005742951761931181, -0.024336468428373337, -0.03115977719426155, -0.029112784191966057, 0.019560152664780617, -0.01728571578860283, -0.01683082804083824, 0.0003358347457833588, 0.008472274988889694, -0.02274436317384243, 0.048672936856746674, 0.023995302617549896, -0.0023312971461564302, -0.003752819960936904, 0.02934022806584835, 0.01876409910619259, 0.01580733247101307, -0.018877821043133736, 0.03252444043755531, -0.017399437725543976, -0.0010590343736112118, 0.01978759653866291, 0.008472274988889694, 0.0011016800999641418, 0.015125000849366188, -0.013476034626364708, 0.01728571578860283, -0.01762688159942627, -0.019901316612958908, -0.037300754338502884, 0.018650377169251442, -0.022971807047724724, -0.006709586828947067, -0.015352444723248482, -0.005344925448298454, 0.03002255968749523, -5.264076025923714e-05, 0.005913534201681614, -0.04890038073062897, 0.050492484122514725, -0.011940790340304375, -0.0008529135957360268, 0.03479887545108795, -0.017399437725543976, -0.0076193613931536674, 0.012111373245716095, -0.019560152664780617, -0.020128760486841202, -0.028089288622140884, 0.024109024554491043, 0.011372181586921215, 0.02820301055908203, 0.042759403586387634, 0.005742951761931181, -0.02308552898466587, 0.0005792704760096967, 0.035708650946617126, 0.012452539056539536, -0.008074249140918255, 0.025587407872080803, 0.013419173657894135, -0.009552632458508015, 0.003255286952480674, -0.005600799340754747, 0.010462407022714615, -0.016262220218777657, 0.0020185622852295637, -0.009495771490037441, 0.011542764492332935, 0.015921054407954216, -0.011997651308774948, 0.0329793244600296, 0.002814614912495017, -0.0006112547707743943, -0.004037124570459127, 0.012509399093687534, -0.025928573682904243, -0.011940790340304375, -0.01728571578860283, 0.01683082804083824, 0.03548120707273483, -0.021152257919311523, -0.02456391230225563, -0.0036106675397604704, 0.011940790340304375, 0.030704889446496964, 0.0066811563447117805, -0.004150846041738987, -0.015011279843747616, 0.00540178595110774, -0.003667528508231044, 0.010121241211891174, -0.031387221068143845, -0.0052312035113573074, -0.03457143157720566, -0.012623121030628681, -0.01694454997777939, 0.004008694086223841, -0.019673874601721764, -0.03525376319885254, -0.03047744557261467, 0.04071240872144699, 0.0076193613931536674, -0.04184962809085846, -0.0016134282341226935, 0.002089638262987137, -0.04503383859992027, 0.016375940293073654, -0.013021147809922695, -0.018309211358428, 0.005344925448298454, 0.005970395170152187, -0.03457143157720566, -0.0070791831240057945, -0.03275188058614731, -0.013476034626364708, 0.011315320618450642, -0.013987783342599869, 0.02354041486978531, 0.023312970995903015, -0.013930922374129295, -0.018422933295369148, 0.020015038549900055, 0.009893798269331455, -0.02024248242378235, 0.006396851968020201, -0.01762688159942627, 0.02717951312661171, -0.005572368856519461, 0.0064252824522554874, -0.01683082804083824, 0.0014286303194239736, -0.02024248242378235, -0.0028714758809655905, 0.002274436177685857, -0.017740603536367416, -0.016717106103897095, 0.012623121030628681, -0.019560152664780617, 0.020128760486841202, 0.0011301105841994286, -0.009268327616155148, 0.022175753489136696, -0.03366165608167648, 0.014272087253630161, -0.016375940293073654, -0.025473685935139656, -0.0009950659004971385, -0.0009595277952030301, -0.019673874601721764, 0.014556392095983028, -0.015352444723248482, 0.007505639921873808, 0.033206768333911896, 0.02638346143066883, -0.013362312689423561, -0.0006005933391861618, 0.034343987703323364, 0.023995302617549896, 0.009723215363919735, 0.008017388172447681, -0.00015992129920050502, -0.00841541402041912, 0.022858085110783577, 0.04480639472603798, 0.018309211358428, -0.020697370171546936, -0.029112784191966057, -0.0082448311150074, -0.016262220218777657, 0.022175753489136696, 0.029112784191966057, -0.0040939850732684135, 0.02354041486978531, -0.00035182686406187713, -0.019332708790898323, -0.010007519274950027, -0.01910526491701603, -0.014783835969865322, -0.010917293839156628, 0.026952069252729416, 0.018195489421486855, 0.03229699656367302, -0.015466166660189629, 0.024109024554491043, 0.017740603536367416, -0.00841541402041912, 0.0020185622852295637, 0.0074487789534032345, -0.013362312689423561, -0.026497183367609978, -0.0021891449578106403, 0.010007519274950027, 0.014783835969865322, 0.030250001698732376, 0.015238722786307335, 0.024450190365314484, -0.04253195971250534, 0.00841541402041912, -0.005913534201681614, -0.003141565015539527, -0.023995302617549896, 0.02160714380443096, -0.035708650946617126, -0.02172086574137211, 0.005430216435343027, 0.007846805267035961, 0.0016773967072367668, 0.012168234214186668, 0.025473685935139656, 0.0060556866228580475, -0.02490507811307907, -0.010291824117302895, -0.006140978075563908, -0.0024165885988622904, -0.0020043470431119204, 0.007676222361624241, 0.005515507888048887, -0.045716170221567154, -0.011599625460803509, 0.06095489114522934, 0.017854325473308563, -0.038665417581796646, 0.016262220218777657, -0.008699718862771988, -0.02160714380443096, 0.006794878281652927, 0.036618422716856, -0.009552632458508015, 0.02490507811307907, -0.028771618381142616, -0.024677634239196777, -0.013134869746863842, -0.005998825654387474, -0.03775564208626747, 0.013078008778393269, 0.010632989928126335, -0.014897557906806469, 0.007391917984932661, -0.01876409910619259, 0.0074487789534032345, -0.004804746713489294, 0.018991542980074883, 0.009609493426978588, -0.012509399093687534, -0.014215227216482162, -0.005941964685916901, 0.0082448311150074, 0.051174815744161606, 0.01683082804083824, -0.010746711865067482, 0.017399437725543976, 0.0032410717103630304, 0.003923402633517981, 0.013078008778393269, -0.02058364823460579, -0.024336468428373337, -0.0017484729178249836, -0.022971807047724724, 0.005941964685916901, -0.011656485497951508, 0.015238722786307335, 0.011087876744568348, 0.0010092811426147819, 0.006396851968020201, 0.020015038549900055, 0.02308552898466587, 0.011713346466422081, 0.004634163808077574, -0.015011279843747616, 0.0005757166654802859, 0.006567434873431921, -0.02274436317384243, 0.007164474111050367, -0.04253195971250534, -0.011372181586921215, -0.024336468428373337, 0.023312970995903015, 0.012111373245716095, 6.635623321926687e-06, 0.015352444723248482, -0.009666354395449162, -0.019218986853957176, -0.012509399093687534, -0.010405546054244041, 0.010348685085773468, -0.008585996925830841, -0.03889286145567894, -0.0031273497734218836, 0.028430454432964325, -0.03161466494202614, 0.0074487789534032345, 0.003894972149282694, -0.022516919299960136, 0.006908600218594074, -0.0031557802576571703, 0.02274436317384243, -0.006965461187064648, -0.021493423730134964, 0.007136043626815081, 0.014044644311070442, -0.020128760486841202, -0.026952069252729416, 0.0164896622300148, -0.021493423730134964, 0.0018906251061707735, -0.005970395170152187, 0.03775564208626747, 0.0009950659004971385, 0.0005153019446879625, -0.020697370171546936, 0.0070791831240057945, -0.0035680218134075403, -0.0033263631630688906, 0.017513159662485123, 0.008301692083477974, -0.0076193613931536674, 0.009609493426978588, -0.030704889446496964, 0.025132520124316216, -0.004008694086223841, -0.0025303103029727936, -0.014556392095983028, -0.025928573682904243, 0.005344925448298454, -0.013305452652275562, 0.011940790340304375, -0.014670114032924175, -0.0006361313862726092, 0.022971807047724724, -0.007391917984932661, -0.0014997064135968685, -0.008870301768183708, 0.009666354395449162, 0.02058364823460579, 0.040939852595329285, 0.012736842967569828, -0.028771618381142616, -0.013078008778393269, 0.03457143157720566, 0.004435150884091854, 0.0029851975850760937, -0.02501879818737507, 0.005941964685916901, -0.005970395170152187, -0.0004762100870721042, 0.025246242061257362, -0.013191730715334415, -0.03229699656367302, -0.006993891671299934, 0.027406957000494003, -0.02501879818737507, -0.011713346466422081, -0.02206203155219555, 0.012168234214186668, 0.015238722786307335, 0.023312970995903015, -0.008756579831242561, 0.0002949659537989646, 0.016262220218777657, 0.0028430453967303038, -0.012395678088068962, -0.015921054407954216, -0.0005970395286567509, -0.005600799340754747, 0.008301692083477974, 0.0024592343252152205, 0.023426692932844162, -0.004776316229254007, 0.030932333320379257, 0.005288064479827881, -0.008074249140918255, -0.029795115813612938, -0.02786184474825859, -0.026952069252729416, 0.010178102180361748, 0.03184210881590843, 0.002771969186142087, 0.0329793244600296, 0.015352444723248482, -0.004634163808077574, -0.022971807047724724, 0.0012154019204899669, 0.015011279843747616, -0.01796804741024971, 0.004378289915621281, -0.029795115813612938, 0.00026475859340280294, 0.0038381111808121204, 0.007676222361624241, -0.007789944298565388, 0.0012722627725452185, -0.006510573904961348, 0.005259633995592594, -0.017399437725543976, -0.0017484729178249836, 0.005458646919578314, 0.007050752639770508, 0.020128760486841202, 0.022858085110783577, -0.0021607144735753536, 0.006112547591328621, 0.029795115813612938, 0.010348685085773468, 0.035708650946617126, 0.0035538068041205406, 0.0031984259840101004, 0.021379701793193817, -7.90721969678998e-05, 0.008984023705124855, 0.018991542980074883, 0.013134869746863842, 0.028544174507260323, -0.019332708790898323, -0.02274436317384243, 0.005543938372284174, 0.028771618381142616, 0.052312035113573074, -0.018877821043133736, -0.002217575442045927, -0.014556392095983028, 0.009325188584625721, 0.0068801697343587875, 0.011656485497951508, 0.014215227216482162, -0.011144737713038921, 0.02206203155219555, 0.003923402633517981, -0.041622184216976166, 0.0040939850732684135, -0.014442670159041882, 0.0, -0.018422933295369148, 0.02058364823460579, 0.010917293839156628, 0.028316732496023178, 0.0164896622300148, 0.0012651551514863968, 0.005430216435343027, -0.006226269528269768, -0.0018053337698802352, -0.014897557906806469, -0.0009950659004971385, 0.033206768333911896, 0.046398501843214035, -0.03184210881590843, 0.0019617013167589903, 0.010689850896596909, 0.009836937300860882, -0.00540178595110774, 0.03343421220779419, 0.037300754338502884, 0.011372181586921215, 0.005373355932533741, -0.008187970146536827, 0.012907425872981548, -6.496803052868927e-06, 0.002317081904038787, 0.009609493426978588, -0.0006325775757431984, -0.0008422521641477942, -0.028430454432964325, -0.016603384166955948, -0.03184210881590843, -0.00206120777875185, 0.0010163887636736035, -0.003496945835649967, 0.005202773027122021, 0.017058271914720535, 0.040939852595329285, 0.026724625378847122, 0.0007000999175943434, 0.029112784191966057, -0.009382049553096294, 0.0017129348125308752, -0.018991542980074883, -0.029795115813612938, 0.03343421220779419, 0.0003162887878715992, -0.008642857894301414, 0.00016258665709756315, 0.0022033601999282837, -0.026724625378847122, -0.02092481404542923, -0.006738017313182354, 0.020469926297664642, -0.0007853912538848817, -0.0082448311150074, 0.006112547591328621, -0.012793703936040401, -0.014328948222100735, 0.02240319736301899, 0.008756579831242561, -0.04480639472603798, 0.016262220218777657, 0.019332708790898323, 0.008301692083477974, 0.026724625378847122, 0.01910526491701603, -0.02308552898466587, -0.001442845561541617, 0.04617105796933174, 0.006311560515314341, -0.03479887545108795, -0.0006894384860061109, 0.0033263631630688906, -0.014044644311070442, -0.01876409910619259, -0.008472274988889694, -0.0008458059746772051, -0.0329793244600296, -0.019218986853957176, -0.029795115813612938, 0.016375940293073654, 0.027065791189670563, 0.027065791189670563, 0.036163538694381714, -0.02160714380443096, -0.012168234214186668, -0.018422933295369148, 0.004520442336797714, 0.0082448311150074, 0.0031984259840101004, -0.03366165608167648, 0.004890038166195154, -0.03047744557261467, -0.013305452652275562, 0.004918468650430441, 0.01580733247101307, -0.0036106675397604704, 0.007562500424683094, -0.016375940293073654, -0.010746711865067482, 0.010917293839156628, 0.007676222361624241, 0.02535996399819851, -0.02240319736301899, -0.0022317906841635704, -0.010064380243420601, 0.018195489421486855, 0.01694454997777939, -0.023312970995903015, -0.017399437725543976, 0.015579888597130775, -0.0329793244600296, 0.028771618381142616, -0.015921054407954216, 0.007022322155535221, 0.004037124570459127, -0.015011279843747616, -0.02899906225502491, -0.013930922374129295, -0.023767858743667603, -5.352921289158985e-05, 0.008131110109388828, -0.002658247482031584, -0.00841541402041912, 0.0030562737956643105, 0.009666354395449162, -0.024677634239196777, 0.021152257919311523, -0.03934774920344353, 0.006510573904961348, 0.003482730593532324, -0.06504888087511063, 0.00012971393880434334, -0.012566260062158108, -0.006510573904961348, 0.030704889446496964, 0.02934022806584835, 0.008585996925830841, 0.013703478500247002, -0.010462407022714615, 0.016603384166955948, 0.03366165608167648, -0.024109024554491043, 0.017399437725543976, -0.013930922374129295, 0.00841541402041912, 0.007505639921873808, -0.006965461187064648, 0.003980263601988554, 0.0021891449578106403, -0.012225095182657242, -0.019673874601721764, 0.016034776344895363, 0.015238722786307335, -0.02354041486978531, 0.02058364823460579, -0.00036604207707569003, 0.02501879818737507, 0.009552632458508015, -0.008074249140918255, 0.0040939850732684135, 0.014158366248011589, 0.017171993851661682, -0.0064252824522554874, 0.009154605679214, -0.02638346143066883, 0.018422933295369148, 0.0072497655637562275, 0.012793703936040401, -0.014272087253630161, 0.007335057016462088, 0.007562500424683094, 0.006112547591328621, 0.005600799340754747, 0.004008694086223841, -0.03275188058614731, -0.03047744557261467, -0.03115977719426155, -0.012225095182657242, 0.024677634239196777, 0.02786184474825859, 0.034343987703323364, -0.006112547591328621, -0.03388909995555878, 0.01876409910619259, 0.012168234214186668, 0.028771618381142616, -0.0018053337698802352, 0.0014925987925380468, -0.025814851745963097, 0.013532895594835281, 0.022175753489136696, 0.007278196047991514, -0.003411654382944107, -0.01876409910619259, -0.014556392095983028, 0.0014641683083027601, 0.018195489421486855, 0.02240319736301899, -0.008756579831242561, -0.02274436317384243, 0.00045488725299946964, -0.03252444043755531, 0.037300754338502884, 0.005145912058651447, -0.0072497655637562275, 0.02058364823460579, -0.01728571578860283, -0.0015139216557145119, 0.007789944298565388, -0.008358553051948547, -0.012054512277245522, -0.03047744557261467, -0.015011279843747616, -0.021834587678313255, -0.019560152664780617, 0.02160714380443096, -0.025928573682904243, -0.009438910521566868, 0.014897557906806469, 0.030932333320379257, 0.0032410717103630304, 0.02456391230225563, -0.018309211358428, 0.01910526491701603, 0.0028714758809655905, -0.029112784191966057, -0.021038535982370377, 0.0068801697343587875, 0.02388158068060875, 0.04116729646921158, 0.001442845561541617, -0.024109024554491043, -0.012736842967569828, -0.03388909995555878, -0.020469926297664642, 0.055268801748752594, 0.003255286952480674, 0.018877821043133736, -0.0164896622300148, 0.011827068403363228, -0.008984023705124855, 0.010064380243420601, -0.04708082973957062, 0.031387221068143845, 0.0012580475304275751, -0.002089638262987137, 0.03411654382944107, 0.0042929984629154205, -0.04958271235227585, 0.01683082804083824, 0.005288064479827881, 0.012168234214186668, 0.00010394884884590283, -0.013476034626364708, 0.006339990999549627, -0.02058364823460579, -0.018422933295369148, 0.004179276525974274, 0.021493423730134964, 0.016375940293073654, 0.009950658306479454, 0.02354041486978531, -0.021379701793193817, -0.014044644311070442, -0.019332708790898323, 0.03593609482049942, -0.012793703936040401, -0.010178102180361748, -0.014783835969865322, 0.006169408559799194, -0.006823308765888214, 0.0029851975850760937, 0.006140978075563908, -0.01978759653866291, -0.035026319324970245, 0.021152257919311523, 0.018422933295369148, -0.027293235063552856, 0.018536655232310295, -0.0046625942923128605, 0.0030989195220172405, 0.021493423730134964, 0.029567671939730644, -0.014670114032924175, -0.02865789644420147, 0.037983085960149765, -0.018650377169251442, -0.055951133370399475, 0.002629816997796297, -0.007164474111050367, -0.005430216435343027, -0.02172086574137211, 0.02308552898466587, 0.026497183367609978, -0.032069552689790726, 0.010576128959655762, 0.022175753489136696, 0.004747885745018721, 0.0013078008778393269, 0.007335057016462088, 0.0036106675397604704, 0.033206768333911896, -1.6214242350542918e-05, 0.007278196047991514, 7.90721969678998e-05, 0.025132520124316216, -0.01683082804083824, 0.003369008656591177, -0.020469926297664642, 0.017854325473308563, 0.007278196047991514, -0.013760339468717575, -0.05094737187027931, 0.03184210881590843, -0.036163538694381714, 0.01614849828183651, -0.013589756563305855, -0.008017388172447681, 0.04321428760886192, -0.011997651308774948, 0.005657660309225321, -0.0007356379646807909, 0.004321428947150707, -0.013930922374129295, -0.026952069252729416, 0.02240319736301899, -0.013703478500247002, 0.02354041486978531, 0.04207707196474075, -0.005060620605945587, 0.00043178751366212964, -0.031387221068143845, 0.0058566732332110405, -0.02456391230225563, -0.009040884673595428, -0.030932333320379257, -0.0048616076819598675, -0.02274436317384243, 0.018422933295369148, -0.02604229561984539, 0.012679981999099255, -0.02058364823460579, -0.009268327616155148, 0.009780076332390308, -0.019901316612958908, 0.017740603536367416, 0.014044644311070442, -0.021834587678313255, -0.019901316612958908, 0.013021147809922695, -0.013930922374129295, -0.007789944298565388, -0.003923402633517981, 0.0022886514198035, 0.012281956151127815, -0.0012225095415487885, 0.038665417581796646, -0.0028288301546126604, -0.002729323459789157, -0.028544174507260323, -0.017058271914720535, -0.006368421483784914, -0.043896619230508804, -0.012225095182657242, -0.012395678088068962, 0.020469926297664642, -0.024336468428373337, 0.0007036537281237543, -0.00023099743702914566, 0.018536655232310295, 0.0054870774038136005, 0.018650377169251442, -0.00841541402041912, 0.02240319736301899, 0.007562500424683094, -0.0028288301546126604, 0.01944643072783947, -0.008642857894301414, -0.0026013865135610104, -0.010405546054244041, 0.020697370171546936, -0.03752819821238518, 0.014670114032924175, -0.008472274988889694, -0.024791356176137924, 0.013134869746863842, -0.037983085960149765, 0.019901316612958908, 0.011144737713038921, -0.030932333320379257, 0.011485903523862362, -0.0048616076819598675, 0.007335057016462088, 0.03593609482049942, 0.026952069252729416, -0.0017555805388838053, 0.042759403586387634, -0.006595865357667208, 0.03479887545108795, 0.0019048403482884169, 0.009836937300860882, 0.022630641236901283, 0.011997651308774948, -0.005344925448298454, -0.017740603536367416, -0.02717951312661171, 0.011770207434892654, -0.011656485497951508, -0.021038535982370377, 0.0009026668849401176, 0.028544174507260323, 0.024336468428373337, 0.009495771490037441, 0.03707331046462059, -0.011883929371833801, 0.013248591683804989, -0.006396851968020201, -0.004349859431385994, 0.000938204990234226, 0.008529135957360268, 0.009723215363919735, 0.011485903523862362, -0.010462407022714615, -0.012736842967569828, -0.030250001698732376, 0.0477631613612175, -0.014897557906806469, 0.012338817119598389, 0.018195489421486855, -0.007022322155535221, -0.007391917984932661, -0.010348685085773468, 0.002885691123083234, -0.0074487789534032345, 0.018877821043133736, -0.019218986853957176, -0.049355268478393555, -0.0008280369802378118, 0.011770207434892654, -0.017854325473308563, 0.043896619230508804, -0.0056860907934606075, 0.012281956151127815, -0.03525376319885254, 0.008074249140918255, -0.018081769347190857, -0.0066811563447117805, 0.0034258696250617504, 0.015693610534071922, 0.007846805267035961, -0.006624295841902494, -0.016603384166955948, -0.006624295841902494, -0.019560152664780617, -0.010121241211891174, -0.028771618381142616, 0.018877821043133736, -0.013874061405658722, 0.005316494964063168, -0.020811092108488083, -0.010234963148832321, 0.007335057016462088, 0.0006823308649472892, -0.013305452652275562, -0.014499531127512455, 0.0014641683083027601, -0.006937030702829361, -0.028089288622140884, -0.035026319324970245, -0.008813440799713135, -0.0025729560293257236, 0.007789944298565388, -0.00841541402041912, -0.01080357190221548, 0.002174929715692997, 0.009211466647684574, 0.02206203155219555, 0.042759403586387634, 0.029567671939730644, -0.026952069252729416, 0.015011279843747616, -0.03047744557261467, 0.025473685935139656, 0.02092481404542923, 0.021493423730134964, 0.03184210881590843, 0.005572368856519461, -0.016034776344895363, -0.004918468650430441, 0.005288064479827881, 0.02456391230225563, 0.03593609482049942, 0.006624295841902494, -0.011599625460803509, 0.012452539056539536, 0.013874061405658722, 0.0164896622300148, 0.00020789769769180566, -0.02058364823460579, -0.009382049553096294, 0.021379701793193817, -0.006311560515314341, -0.0015068140346556902, -0.018081769347190857, 0.023199250921607018, -0.009325188584625721, 0.017399437725543976, 0.011713346466422081, -0.024109024554491043, -0.0013149084988981485, 0.0052312035113573074, -0.0066811563447117805, -0.013760339468717575, -0.0031984259840101004, -0.014670114032924175, 0.018650377169251442, -0.02172086574137211, -0.0024876645766198635, -0.02422274649143219, 0.04253195971250534, -0.0018195490119978786, 0.005373355932533741, -0.0013575541088357568, 0.009495771490037441, 0.03252444043755531, -0.010746711865067482, -0.011087876744568348, -0.01910526491701603, -0.023767858743667603, 0.021038535982370377, -0.02717951312661171, 0.023312970995903015, 0.020015038549900055, 0.01910526491701603, 0.0004371182294562459, -0.015125000849366188, -0.007903666235506535, 0.02160714380443096, -0.008472274988889694, 0.018536655232310295, 0.02024248242378235, 0.006794878281652927, -0.01580733247101307, 0.01728571578860283, -0.002999412827193737, 0.0441240631043911, -0.02308552898466587, 0.029795115813612938, 0.0044920118525624275, 0.007221335079520941, -0.013874061405658722, 0.019332708790898323, -0.03002255968749523, -0.006368421483784914, 0.018536655232310295, -0.0007498532067984343, 0.017399437725543976, -0.025587407872080803, -0.00019368247012607753, 0.006766447797417641, 0.015238722786307335, 0.0056860907934606075, -0.04184962809085846, -0.006794878281652927, -0.026497183367609978, 0.02899906225502491, 0.004577302839607, -0.022630641236901283, -0.012509399093687534, 0.01944643072783947, 0.01614849828183651, 0.0076193613931536674, -0.03525376319885254, 0.02092481404542923, 0.02172086574137211, 0.007903666235506535, -0.019332708790898323, -0.016603384166955948, -0.0031273497734218836, 0.006140978075563908, -0.0010021735215559602, -0.03957519307732582, -2.110072637151461e-05, -0.0028003996703773737, -0.010974154807627201, 0.030932333320379257, -0.02934022806584835, -0.006197839044034481, -0.00010528152051847428, -0.010689850896596909, 0.00420770701020956, 0.020811092108488083, -0.020128760486841202, -0.03411654382944107, -0.006851739250123501, 0.026952069252729416, 0.025587407872080803, 0.03707331046462059, 0.017513159662485123, -0.013134869746863842, -0.015011279843747616, 0.007335057016462088, 0.01080357190221548, -0.03479887545108795, 0.025814851745963097, -0.008870301768183708, 0.05913534387946129, -0.027406957000494003, -0.01694454997777939, -0.013248591683804989, -0.04003007709980011, 0.02934022806584835, 0.0008493597852066159, -0.015125000849366188, -0.024109024554491043, -0.0441240631043911, 0.013817200437188148, -0.018650377169251442, 0.001030603889375925, 0.050492484122514725, 0.007846805267035961, 0.01944643072783947, -0.026610905304551125, 0.029112784191966057, 0.01614849828183651, 0.014158366248011589, 0.036845866590738297, 0.036845866590738297, -0.016717106103897095, 0.0056860907934606075, -0.02058364823460579, -0.0021464992314577103, -0.006766447797417641, 0.02240319736301899, -0.007733083330094814, -0.0038096806965768337, 0.021038535982370377, 0.011883929371833801, -0.016603384166955948, -0.021152257919311523, 0.030250001698732376, -0.0076193613931536674, 0.016603384166955948, 0.011656485497951508, 0.01614849828183651, -0.05640602111816406, -0.007107613608241081, 0.02638346143066883, -5.352921289158985e-05, -0.0009595277952030301, 0.028885340318083763, -0.028430454432964325, 0.027975566685199738, 0.004833177197724581, 0.02604229561984539, -0.008756579831242561, -0.011770207434892654, 0.03047744557261467, 0.005316494964063168, 0.03343421220779419, 0.02422274649143219, 0.013646617531776428, -0.03252444043755531, 0.04958271235227585, -0.01944643072783947, 0.00037848041392862797, 0.012964286841452122, 0.034343987703323364, 0.03229699656367302, -0.011258459649980068, -0.026952069252729416, -0.031387221068143845, -0.024677634239196777, -0.007562500424683094, -0.0002718662144616246, -0.013760339468717575, 0.020469926297664642, -0.031387221068143845, 0.013589756563305855, 0.036618422716856, 0.008585996925830841, 0.026269739493727684, 0.007136043626815081, -0.012281956151127815, -0.004037124570459127, -0.019560152664780617, -0.013987783342599869, -0.013419173657894135, -0.05208459123969078, -0.026497183367609978, 0.010519267991185188, 0.010121241211891174, 0.010178102180361748, 0.03775564208626747, -0.01694454997777939, 0.008301692083477974, -0.005060620605945587, 0.02126597985625267, -0.009666354395449162, -0.00022122447262518108, 0.0028714758809655905, -2.632038012961857e-05, 0.007903666235506535, -0.017854325473308563, -0.008813440799713135, 0.016717106103897095, -0.013419173657894135, 0.007391917984932661, 0.013930922374129295, -0.016034776344895363, -0.017399437725543976, 0.008074249140918255, 0.040257520973682404, 0.014499531127512455, -0.003496945835649967, -0.0030278433114290237, -0.012736842967569828, 0.028430454432964325, -0.028885340318083763, 0.0015707825077697635, 0.0441240631043911, 0.03775564208626747, -0.0016845043282955885, -0.004719455260783434, -0.03229699656367302, 0.012679981999099255, 0.003781250212341547, 0.015011279843747616, -0.0020043470431119204, 0.031387221068143845, 0.04003007709980011, -0.0034400848671793938, 0.006140978075563908, 0.0586804561316967, -0.04730827361345291, 0.007164474111050367, 0.02456391230225563, 0.028885340318083763, -0.05640602111816406, -0.028885340318083763, -0.014670114032924175, -0.008813440799713135, 0.012452539056539536, -0.015011279843747616, -0.008131110109388828, 0.006453712936490774, 0.015466166660189629, 0.020015038549900055, 0.014897557906806469, -0.010576128959655762, -0.010746711865067482, -0.031387221068143845, 0.011997651308774948, -0.026269739493727684, 0.012054512277245522, -0.009495771490037441, 0.0019617013167589903, -0.01580733247101307, -0.00038736494025215507, 0.02058364823460579, -0.039120305329561234, 0.017854325473308563, 0.011940790340304375, -0.0014997064135968685, -0.06140977889299393, 0.005430216435343027, -0.0017697957810014486, 0.037300754338502884, -0.00010750265209935606, 0.008813440799713135, -0.00021233994630165398, 0.015579888597130775, 0.022175753489136696, -0.02683834731578827, -0.014385809190571308, -0.02274436317384243, -0.018991542980074883, 0.019332708790898323, 0.006595865357667208, 0.028089288622140884, 0.036163538694381714, 0.007562500424683094, 0.0514022596180439, -0.0012935856357216835, -0.04298684746026993, -0.025814851745963097, 0.010632989928126335, 0.034343987703323364, 0.013930922374129295, 0.015125000849366188, -0.017740603536367416, -0.009893798269331455, -0.004918468650430441, -0.03752819821238518, 0.030704889446496964, -0.002587171271443367, 0.025587407872080803, -0.0011230029631406069, -0.027634400874376297, 0.028089288622140884, 0.022971807047724724, 0.014215227216482162, -0.025587407872080803, 0.013930922374129295, 0.023312970995903015, 0.036845866590738297, -0.019673874601721764, -0.013476034626364708, 0.028316732496023178, -0.011940790340304375, -0.022971807047724724, 0.009325188584625721, 0.014158366248011589, 0.0007960526854731143, -0.0009879582794383168, -0.016262220218777657, 0.006937030702829361, -0.04548872634768486, 0.004605733323842287, 0.014556392095983028, -0.002473449567332864, 0.02172086574137211, -0.02717951312661171, 0.03752819821238518, 0.005288064479827881, 0.012054512277245522, 0.0027435387019068003, 0.013305452652275562, -0.018081769347190857, 0.013532895594835281, -0.005742951761931181, -0.0015992129920050502, 0.014556392095983028, 0.016375940293073654, 0.02160714380443096, -0.04708082973957062, 0.0014570606872439384, -0.021379701793193817, 0.018877821043133736, -0.0028430453967303038, 0.027975566685199738, -0.007192904595285654, -0.008017388172447681, -0.013987783342599869, -0.012793703936040401, -0.007789944298565388, 0.023767858743667603, -0.0064252824522554874, -0.02456391230225563, -0.013930922374129295, 0.02934022806584835, -0.012623121030628681, 0.005316494964063168, 0.008074249140918255, -0.01876409910619259, 0.03366165608167648, 0.03184210881590843, 0.03229699656367302, -0.017854325473308563, -0.009723215363919735, -0.01910526491701603, 0.0005686090444214642, 0.03229699656367302, -0.023312970995903015, 0.017399437725543976, 0.017854325473308563, 0.004065555054694414, -0.03184210881590843, -0.009154605679214, 0.02160714380443096, 0.009552632458508015, -0.030704889446496964, -0.008756579831242561, 0.02388158068060875, 0.02308552898466587, -0.012054512277245522, -0.013817200437188148, -0.027293235063552856, 0.030932333320379257, 0.007960527203977108, -0.028544174507260323, 0.003113134764134884, -0.027065791189670563, 0.014783835969865322, -0.006709586828947067, -0.013305452652275562, 0.003639098023995757, 0.001741365296766162, -0.026724625378847122, 0.011485903523862362, 0.014442670159041882, 0.009268327616155148, 0.005998825654387474, 0.04003007709980011, 0.008984023705124855, 0.007505639921873808, 0.00021056304103694856, -0.007903666235506535, 0.0050321901217103004, 0.04503383859992027, 0.010632989928126335, -0.02092481404542923, 0.007846805267035961, -0.010746711865067482, 0.02865789644420147, 0.010974154807627201, 0.024336468428373337, 0.0015210292767733335, -0.009154605679214, 0.02172086574137211, -0.022630641236901283, -0.002672462724149227, 0.011713346466422081, -0.05026504024863243, 0.02422274649143219, -0.006396851968020201, 0.017171993851661682, 0.017740603536367416, -0.013532895594835281, -0.024677634239196777, 0.022516919299960136, -0.015693610534071922, -0.009438910521566868, 0.02570112980902195, 0.006766447797417641, 0.018991542980074883, -0.027293235063552856, 0.011542764492332935, -0.001990131800994277, 0.032069552689790726, -0.025928573682904243, 0.007505639921873808, 0.032069552689790726, -0.021948309615254402, -0.013078008778393269, -0.018081769347190857, -0.011713346466422081, -0.03343421220779419, -0.01944643072783947, 0.023426692932844162, 0.005145912058651447, 0.004918468650430441, -0.032069552689790726, 0.02786184474825859, -0.011031015776097775, -0.006510573904961348, 0.014272087253630161, 0.018422933295369148, 0.015125000849366188, 0.029112784191966057, -0.010405546054244041, 0.040939852595329285, -0.008358553051948547, -0.005771382246166468, -0.014215227216482162, -0.00270089297555387, -0.015921054407954216, -0.019560152664780617, -0.020697370171546936, 0.015693610534071922, -0.012054512277245522, -0.005202773027122021, 0.005600799340754747, -0.012623121030628681, -0.01683082804083824, -0.02058364823460579, 0.014158366248011589, -9.462010348215699e-05, -0.0010021735215559602, 0.006738017313182354, 0.009268327616155148, -0.003042058553546667, -0.007391917984932661, -0.015921054407954216, -0.006396851968020201, 0.018877821043133736, -0.009325188584625721, 0.017171993851661682, 0.009040884673595428, 0.004918468650430441, 0.040257520973682404, -0.018536655232310295, 0.05003759637475014, -0.017740603536367416, -0.011997651308774948, -0.009154605679214, 0.006823308765888214, -0.012850564904510975, -0.0034258696250617504, 0.0029709823429584503, 0.0037243894767016172, -0.007107613608241081, 0.0001670289202593267, -0.012054512277245522, -0.009097744710743427, -0.01944643072783947, 0.0040939850732684135, -0.003184210741892457, -0.011713346466422081, 0.009154605679214, 0.007676222361624241, 0.03047744557261467, 0.0041224155575037, -0.019673874601721764, 0.024677634239196777, -0.033206768333911896, 0.028430454432964325, 0.011201598681509495, -0.007903666235506535, 0.013817200437188148, 0.03366165608167648, 0.016262220218777657, 0.014215227216482162, 0.0064252824522554874, 0.024677634239196777, -0.008642857894301414, 0.009552632458508015, 0.007733083330094814, 0.004349859431385994, -0.015125000849366188, -0.002672462724149227, -0.007733083330094814, 0.010348685085773468, -0.005060620605945587, 0.015579888597130775, 0.029112784191966057, 0.017854325473308563, -0.02058364823460579, -0.023654136806726456, 0.014101505279541016, -0.0014570606872439384, 0.015921054407954216, 0.017740603536367416, -0.06459399312734604, 0.013419173657894135, -0.011429042555391788, 0.011087876744568348, -0.010860432870686054, -0.012623121030628681, -0.0005330709973350167, 0.018650377169251442, -0.0012296171626076102, 0.0037243894767016172, 0.0031699954997748137, 0.0017271500546485186, 0.0012722627725452185, 0.02206203155219555, 0.011315320618450642, 0.025246242061257362, 0.009438910521566868, 0.0028714758809655905, 0.037300754338502884, -0.0082448311150074, 0.023312970995903015, -0.006396851968020201, 0.035026319324970245, 0.03752819821238518, 0.014670114032924175, -0.0027861844282597303, 0.005060620605945587, -0.009040884673595428, 0.004008694086223841, 0.0022886514198035, -0.0017484729178249836, 0.044578950852155685, -0.004691024776548147, -0.013703478500247002, -0.016603384166955948, -0.006254699546843767, 0.01683082804083824, -0.017854325473308563, 0.0017058271914720535, -0.015011279843747616, -0.007164474111050367, 0.005060620605945587, 0.02604229561984539, -0.03843797370791435, -0.009382049553096294, 0.02126597985625267, 0.03479887545108795, -0.007789944298565388, 0.03161466494202614, 0.013021147809922695, -0.05026504024863243, -0.03525376319885254, 0.050492484122514725, -0.003226856468245387, -0.0026866779662668705, 0.007960527203977108, -0.011940790340304375, 0.0031699954997748137, -0.003596452297642827, 0.0036959589924663305, 0.013305452652275562, -0.003297932678833604, 0.0037243894767016172, 0.016603384166955948, 0.03366165608167648, 0.018536655232310295, 0.002260221168398857, -0.00026653549866750836, 0.012054512277245522, 0.010746711865067482, 0.0026866779662668705, -0.03115977719426155, 0.005288064479827881, 0.03161466494202614, -0.04321428760886192, 0.006254699546843767, -0.019560152664780617, -0.0021464992314577103, 0.009097744710743427, 0.008301692083477974, -1.976804924197495e-05, 0.010121241211891174, 0.010007519274950027, -0.013589756563305855, 0.015921054407954216, 0.0033832238987088203, -0.02354041486978531, -0.008017388172447681, -0.013305452652275562, -0.016603384166955948, -0.0006574542494490743, -0.024677634239196777, -0.0044920118525624275, 0.019218986853957176, 0.007022322155535221, -0.000572162854950875, -0.005714521277695894, 0.020697370171546936, -0.0068801697343587875, -0.02683834731578827, 0.003752819960936904, 0.01728571578860283, -0.0005615014815703034, -0.013646617531776428, -0.002672462724149227, -0.028430454432964325, -0.006823308765888214, -0.021152257919311523, 0.0016063206130638719, 0.011372181586921215, -0.008301692083477974, -0.014897557906806469, -0.012907425872981548, 0.03593609482049942, 0.0040939850732684135, 0.012509399093687534, 0.009382049553096294, 0.050492484122514725, -0.02490507811307907, 0.020469926297664642, 0.003312147920951247, -0.009097744710743427, -0.017399437725543976, 0.012111373245716095, -0.018422933295369148, 0.020697370171546936]}}
{"UUID": "5e11ccda-5379-43d4-8fe4-1cfd4362fd04", "BM25": {"terms": ["impact", "of", "motor", "symptom", "asymmetry", "on", "non-motor", "outcomes", "in", "parkinson", "s", "disease", "a", "systematic", "review", "abstract", "pd", "presents", "with", "diverse", "symptoms", "partly", "influenced", "by", "which", "reflects", "hemispheric", "brain", "specialization", "this", "80", "studies", "explored", "how", "lateralized", "affect", "including", "cognition", "emotion", "and", "psychiatric", "health", "patients", "right-sided", "left-hemisphere", "pathology", "show", "more", "global", "cognitive", "decline", "higher", "dementia", "risk", "while", "those", "left-sided", "right-hemisphere", "often", "experience", "issues", "like", "depression", "anxiety", "impaired", "emotional", "recognition", "visuospatial", "deficits", "were", "consistently", "linked", "to", "aligning", "dysfunction", "although", "findings", "vary", "across", "pattern", "suggests", "the", "relevance", "lateralization", "assessment", "may", "also", "treatment", "responses", "such", "as", "deep", "stimulation", "however", "inconsistencies", "study", "methods-definitions", "subtypes", "comorbidities-limit", "meta-analytic", "conclusions", "overall", "incorporating", "into", "diagnosis", "could", "enhance", "personalized", "care", "warranting", "standardized", "future", "research"], "weights": [2.4293220576214045, 0.11261651262059869, 6.614742866646724, 6.696400019169158, 8.759670738442221, 0.6913353017003101, 7.3399803080703725, 3.9605483124811083, 0.19972780890613434, 3.9380397309981103, 0.8408971256246058, 1.251141639545799, 0.14892211065812244, 2.8666767497246766, 1.7828459123276899, 2.2162163468224194, 6.052633085175387, 4.918585606921912, 0.6405753303563663, 4.107371899021688, 4.635424778182461, 7.194836876304419, 4.995940437398486, 0.9839288094326091, 1.7023528923282798, 4.7945958774454365, 6.951785012511759, 2.3825385684684517, 7.69554825945236, 1.4471350865471861, 3.7939286874758578, 2.395678375892111, 4.6378613405540765, 3.078655308456462, 7.066902969410483, 5.446965690249872, 2.1810655713182174, 2.7895885241946354, 5.100577960856217, 0.13159172237620245, 5.60108945811487, 1.5123136160598407, 1.4733032566981545, 8.215430413247969, 7.926363628986142, 4.280429472385073, 3.642538796431418, 3.1936884719462575, 3.04515139766807, 0.5530445797491279, 2.1203805739186428, 2.871782026041301, 1.0577751709299084, 1.8251273527204268, 2.35247376254688, 2.7073950223479692, 10.857379104375228, 10.541212689680313, 3.3452780711072245, 3.5478657758581793, 3.9202084943366846, 3.759280898774097, 3.101546006459558, 3.4551438745318124, 3.2581680428080144, 3.9683083087062805, 4.319856687581607, 5.12269825051685, 3.30779305565121, 1.6155233821475254, 4.995940437398486, 3.97652419801145, 0.3750471176824751, 6.580524726403266, 2.4466351914493027, 3.1937732653551865, 2.495635498037886, 5.316879325667056, 2.5879866516122756, 4.667546074831997, 4.098170093046806, 0.13481061317632984, 4.5947230493504305, 7.066902969410483, 2.334532364972458, 1.788867427577644, 2.021325088466347, 3.638908580529195, 3.8665218345466554, 2.0168144175393916, 0.8732734827211976, 4.116647913910436, 4.761493747998385, 2.4910936575371307, 6.662718228249932, 1.013653500690722, 9.190009029722352, 4.3087967984042805, 9.190009029722352, 6.751240327147478, 4.342300709192673, 3.3693421206090517, 5.191732142395, 2.52094135021072, 2.2342029465259645, 2.859228344949737, 3.606117190586225, 4.4870215400310665, 2.241477086894951, 7.338801978066811, 3.859052849780639, 2.6028764338104446, 1.2191678442497247], "k1": 1.5, "b": 0.75, "avgdl": 233.87661016949153, "N": 4425}, "SpladeV3": {"model_id": "naver/splade-v3", "tokens": ["motor", "parkinson", "lateral", "pd", "non", "##ym", "hemisphere", "##metry", "outcomes", "systematic", "left", "as", "specialization", "##uo", "symptoms", "pathology", "vis", "##metric", "motors", "sub", "affect", "right", "abstract", "brain", "##iste", "como", "disease", "standardized", "impact", "dementia", "##pher", "##ized", "meta", "brains", "##sp", "##ati", "sy", "review", "stimulation", "##type", "outcome", "influenced", "##idi", "conclusions", "global", "anxiety", "cognition", "analytic", "diverse", "assessment", "dysfunction", "decline", "##ization", "side", "limit", "##om", "syndrome", "recognition", "deficit", "effect", "specialized", "presented", "depression", "assess", "symmetrical", "psychiatric", "nerve", "##rb", "diagnosis", "muscle", "path", "cognitive", "roland", "affected", "overall", "assessments", "sides", "diseases", "linked", "symmetry", "patients", "warning", "partly", "quadrant", "depressed", "respond", "##ties", "limits", "studies", "methods", "##ons", "influence", "anxious", "study", "alzheimer", "hem", "deep", "emotional", "inc", "als", "emotions", "treatment", "consequences", "##mpt", "response", "##uro", "curve", "##d", "relevance", "research", "disorder", "emotion", "diagnosed", "##pd", "concluded", "disabled", "associated", "paradox", "patterns", "minimal", "impairment", "cortex", "stroke", "lobe", "variation", "warrant", "mainly", "incorporating", "psychiatrist", "mimic", "risk", "psychiatry", "responses", "limitations", "explored", "##mer", "assessed", "treatments", "present", "walking", "ne", "type", "d", "no", "declining", "sided", "##balance", "patient", "peripheral", "reviews", "s", "emotionally", "literature", "pattern", "effects", "conclusion", "therapy", "reflect", "dizzy", "relevant", "transverse", "geometry", "movement", "psychology", "flex", "recognized", "distorted", "modified", "##liner", "treat", "prevalence", "magnetic", "definition", "analyze", "spinal", "suggest", "multiple", "paint", "differentiation", "##path", "ps", "not", "method", "mentally", "care", "impacted", "impaired", "##psy", "intelligence", "##iom", "compassion", "ata", "psychological", "inhibitor", "automatic", "risks", "magnet", "clinic", "functional", "p", "pressure", "demonstrated", "mental", "determined", "arthritis", "treated", "studied", "ax", "tremor", "link", "##ncy", "specialists", "pain", "diversity", "twitching", "##ural", "supposed", "dual", "##ming", "##com", "indicated", "phenomenon", "findings", "responded", "presenting", "recognize", "show", "typing", "parallel", "researcher", "remember", "script", "huntington", "included", "suggests", "responsive", "functioning", "22", "spine", "paralysis", "perception", "psycho", "significant", "signs"], "weights": [2.7194037437438965, 2.5547871589660645, 2.359747886657715, 2.3288419246673584, 2.1968441009521484, 2.1854708194732666, 2.1418392658233643, 2.062087059020996, 1.9240366220474243, 1.9068102836608887, 1.8995569944381714, 1.8533482551574707, 1.825924038887024, 1.8159918785095215, 1.753556728363037, 1.743295431137085, 1.7328133583068848, 1.7138690948486328, 1.6916080713272095, 1.686913013458252, 1.6737682819366455, 1.6714816093444824, 1.6565742492675781, 1.6514263153076172, 1.6276085376739502, 1.5918630361557007, 1.5678247213363647, 1.5477458238601685, 1.5360589027404785, 1.5228558778762817, 1.5213152170181274, 1.4410960674285889, 1.4408234357833862, 1.4350931644439697, 1.4156441688537598, 1.4043102264404297, 1.396402359008789, 1.3794502019882202, 1.3604145050048828, 1.351617455482483, 1.3450088500976562, 1.3262752294540405, 1.3225998878479004, 1.299748420715332, 1.2884410619735718, 1.2625434398651123, 1.2433892488479614, 1.239445447921753, 1.2365742921829224, 1.2188663482666016, 1.2140535116195679, 1.2020649909973145, 1.1947190761566162, 1.1914981603622437, 1.178423285484314, 1.1711982488632202, 1.1685713529586792, 1.1573890447616577, 1.1502888202667236, 1.126696228981018, 1.125170350074768, 1.1189152002334595, 1.0915651321411133, 1.0762968063354492, 1.0663251876831055, 1.0649598836898804, 1.0180995464324951, 1.003055214881897, 0.9985580444335938, 0.9984989762306213, 0.9834357500076294, 0.9515103101730347, 0.9463391304016113, 0.9459484815597534, 0.9387538433074951, 0.9366477131843567, 0.9341826438903809, 0.9321839213371277, 0.9299701452255249, 0.9229581356048584, 0.9131525158882141, 0.908048689365387, 0.9078263640403748, 0.906834602355957, 0.8957041501998901, 0.8919759392738342, 0.8881409764289856, 0.8515953421592712, 0.8451899290084839, 0.8362159729003906, 0.8319676518440247, 0.8290997743606567, 0.8278994560241699, 0.811893105506897, 0.7965222597122192, 0.7904653549194336, 0.7753182649612427, 0.7624479532241821, 0.7594821453094482, 0.7522981762886047, 0.7398510575294495, 0.6948315501213074, 0.6942017078399658, 0.6825186014175415, 0.6765233874320984, 0.6753637194633484, 0.673577070236206, 0.6533495187759399, 0.650932788848877, 0.6472616195678711, 0.6447694301605225, 0.6381704807281494, 0.6358407735824585, 0.6338424682617188, 0.6330498456954956, 0.6283605694770813, 0.6263847351074219, 0.625659167766571, 0.6249143481254578, 0.6215274333953857, 0.6135643720626831, 0.5977069139480591, 0.5927797555923462, 0.5838277339935303, 0.5748826861381531, 0.5697095394134521, 0.5687804222106934, 0.5621801614761353, 0.5564165115356445, 0.5555697679519653, 0.5473779439926147, 0.5453730225563049, 0.5436158180236816, 0.5418283939361572, 0.5387755036354065, 0.5336173176765442, 0.5331984162330627, 0.529691219329834, 0.5244829058647156, 0.5237358212471008, 0.5171090960502625, 0.5069317817687988, 0.4983019530773163, 0.49077945947647095, 0.48482057452201843, 0.4831894040107727, 0.4803941547870636, 0.47966432571411133, 0.4796077609062195, 0.4774162769317627, 0.47707897424697876, 0.4680578112602234, 0.4639834463596344, 0.4627910256385803, 0.4588455557823181, 0.440841406583786, 0.4374291002750397, 0.4365839660167694, 0.43420153856277466, 0.43372809886932373, 0.4295280873775482, 0.4193824827671051, 0.415775328874588, 0.40456894040107727, 0.4043777287006378, 0.3833334743976593, 0.3783520758152008, 0.3760077655315399, 0.36685097217559814, 0.3635980784893036, 0.3440341055393219, 0.3412007689476013, 0.3397062420845032, 0.33666878938674927, 0.3362097442150116, 0.33181387186050415, 0.3303195834159851, 0.3302004039287567, 0.3086392879486084, 0.3042599558830261, 0.30144473910331726, 0.29567253589630127, 0.2867831289768219, 0.269775390625, 0.26568153500556946, 0.25977882742881775, 0.24039366841316223, 0.2397015392780304, 0.2335466891527176, 0.23087090253829956, 0.22360803186893463, 0.2231472283601761, 0.21305400133132935, 0.2124016135931015, 0.2113426774740219, 0.21054360270500183, 0.2030789703130722, 0.19873568415641785, 0.19518567621707916, 0.19096124172210693, 0.1891433447599411, 0.1880858838558197, 0.184793621301651, 0.17758052051067352, 0.17520084977149963, 0.1735934019088745, 0.16760946810245514, 0.1654687225818634, 0.1591760218143463, 0.14592240750789642, 0.1431213915348053, 0.14153698086738586, 0.1405896246433258, 0.13717226684093475, 0.13714133203029633, 0.13700173795223236, 0.1367061883211136, 0.13291782140731812, 0.1311880201101303, 0.12726767361164093, 0.12022209912538528, 0.11945907771587372, 0.11649072915315628, 0.11234142631292343, 0.09780365973711014, 0.09696245938539505, 0.08825252205133438, 0.07615573704242706, 0.07122121751308441, 0.0700121596455574, 0.06962735205888748, 0.043893761932849884, 0.04378950968384743, 0.04005831852555275, 0.030024342238903046, 0.027336250990629196, 0.02425197698175907, 0.022625772282481194, 0.022451620548963547, 0.017260264605283737, 0.005494329612702131, 0.004322797991335392, 0.0034959677141159773, 0.0029469700530171394]}, "Qwen3-4B": {"model_id": "Qwen/Qwen3-Embedding-4B", "vector": [-0.00020041623793076724, 0.04028014838695526, -0.03780483081936836, -0.013557982631027699, -0.0008297935710288584, 0.033304255455732346, -0.015639498829841614, -0.013783011585474014, -0.0029253738466650248, 0.06930885463953018, 0.03802986070513725, 0.06525833904743195, 0.0016314585227519274, -0.003094145329669118, -0.015301955863833427, -0.015639498829841614, 0.004275546409189701, 0.020365102216601372, -0.012039038352668285, -0.0016103620873764157, -0.004838118329644203, -0.018002301454544067, -0.010407580062747002, 0.024528134614229202, 0.020815160125494003, 0.018114814534783363, -0.009563722647726536, -0.012601610273122787, 0.0036848459858447313, 0.0027144094929099083, 0.03712974488735199, 0.009113664738833904, -0.04298049211502075, -0.026103336364030838, 0.001540040597319603, -0.017552243545651436, 0.005428818985819817, 0.001258754637092352, 0.033529285341501236, 0.023515505716204643, -0.025878306478261948, 0.03735477477312088, 0.01620206981897354, 0.0038536174688488245, 0.046580951660871506, -0.02385304868221283, -0.0024893805384635925, 0.0023206090554594994, 0.0051475330255925655, -0.016089556738734245, -0.006694605574011803, 0.009732494130730629, -0.04613089561462402, -0.01119518093764782, 0.010576351545751095, 0.004359932150691748, 0.030378881841897964, 0.010632609017193317, -0.02554076351225376, 0.03757980093359947, 0.009563722647726536, 0.0027284736279398203, -0.005794490687549114, -0.009563722647726536, -0.007482205983251333, -0.019014930352568626, 0.03983008861541748, -0.059407591819763184, 0.004697475116699934, 0.012601610273122787, -0.02902870997786522, -0.030153853818774223, -0.0319540835916996, -0.018339844420552254, 0.029928823933005333, -0.015189440920948982, -0.006300805136561394, 0.0009634043672122061, 0.005935133434832096, -0.010407580062747002, 0.0048943753354251385, -0.0010688866022974253, 0.018002301454544067, 0.004500575363636017, 0.0015330084133893251, -0.017327213659882545, -0.020590132102370262, 0.0068352483212947845, -0.040730204433202744, -0.020815160125494003, 0.006469576619565487, -0.046580951660871506, 0.013557982631027699, -0.02902870997786522, 0.009394950233399868, -0.02160276100039482, -0.0002118434786098078, -0.015864526852965355, -0.01265786774456501, -0.002222158946096897, -0.0058507476933300495, -0.013895525597035885, -0.001772101502865553, 0.004809989593923092, 0.04343055188655853, -0.009057407267391682, -0.008213549852371216, -0.00018635194282978773, 0.011588981375098228, -0.00945120770484209, 0.02779105119407177, -0.02385304868221283, -0.011476466432213783, 0.0098450081422925, 0.008213549852371216, 0.013839269056916237, 0.05558210238814354, 0.043880607932806015, -0.002630023518577218, -0.03712974488735199, -0.017777271568775177, 0.024528134614229202, -0.020477617159485817, 0.0034176241606473923, -0.016764642670750618, 0.0012728188885375857, -0.015639498829841614, -0.007650977931916714, 0.011532723903656006, 0.0024753164034336805, -0.008719864301383495, -0.010126293636858463, 0.021715275943279266, -0.014739383943378925, 0.033529285341501236, -0.0022080945782363415, 0.0005027986480854452, -0.020252587273716927, -0.003881745971739292, -0.013332953676581383, -0.0028269237373024225, -0.006610219832509756, -0.00466934684664011, 0.04275546222925186, 0.00399426044896245, -0.0033191742841154337, -0.0034176241606473923, 0.011532723903656006, 0.018564872443675995, 0.007032148540019989, 0.008044778369367123, -0.011870266869664192, 0.028578652068972588, 0.008719864301383495, 0.002503444906324148, 0.0014486226718872786, -0.006610219832509756, 0.008888635784387589, -0.008382321335375309, 0.0014486226718872786, 0.011645237915217876, -0.004528703633695841, -0.000342817249475047, 0.002855052473023534, -0.006694605574011803, 0.0062445481307804585, 0.030153853818774223, 0.019352473318576813, -0.0023768662940710783, 0.001540040597319603, 0.012995410710573196, -0.006722734309732914, -0.01698967069387436, 0.002461252035573125, 0.02115270309150219, -0.008326063863933086, 0.004950632806867361, -0.013614240102469921, -0.009732494130730629, 0.03397934138774872, 0.005035018548369408, -0.014739383943378925, 0.015526983886957169, -0.005006889812648296, -0.021715275943279266, -0.015301955863833427, -0.0070602772757411, -0.007116534281522036, 0.02801608107984066, 0.011026409454643726, 0.025990821421146393, 0.008832378312945366, 0.005288175772875547, 0.0022080945782363415, 0.003966131713241339, 0.012095295824110508, 0.001940872985869646, 0.006891505792737007, -0.00787600688636303, -0.02362801879644394, 0.020590132102370262, 0.017889786511659622, 0.020477617159485817, -0.0032910455483943224, -0.011082665994763374, -0.01912744529545307, -0.01181400939822197, -0.01743972860276699, 0.00015998138405848294, -0.013107924722135067, 0.00995752215385437, 0.004050517454743385, 0.0007102470262907445, -0.044105637818574905, 0.004641218110918999, 0.00731343450024724, -0.02160276100039482, 0.005794490687549114, 0.001139208092354238, 0.015414469875395298, -0.005400690250098705, 0.02362801879644394, -0.011420209892094135, 0.01130769494920969, 0.014739383943378925, -0.005907004699110985, 0.005625718738883734, -0.007707234937697649, 0.0012446902692317963, 0.0058507476933300495, 0.02385304868221283, 0.01890241540968418, 0.03757980093359947, -0.012601610273122787, -0.001884615863673389, -0.012095295824110508, -0.05130655691027641, 0.014064297080039978, 0.001997130224481225, 0.026890937238931656, -0.03983008861541748, -0.010970151983201504, -0.02486567758023739, 0.011251437477767467, -0.016652127727866173, -0.005372561514377594, 0.003487945767119527, -0.03802986070513725, 0.008663606829941273, -0.0025878306478261948, 0.0012798510724678636, 0.005963262170553207, -0.04275546222925186, -0.009507465176284313, -0.03780483081936836, -0.02632836438715458, 1.758037251420319e-05, -0.013445468619465828, -0.022277846932411194, -0.001540040597319603, 0.011026409454643726, 0.031053967773914337, -0.001082950853742659, 0.0031082096975296736, -0.028466137126088142, 0.0024190591648221016, 0.020477617159485817, -0.012264067307114601, -0.017102185636758804, -0.006610219832509756, 0.04748106747865677, -0.009226178750395775, -0.02509070560336113, 0.0159770417958498, -0.02362801879644394, -0.015414469875395298, -0.0013361081946641207, 0.013051668182015419, 0.02531573548913002, -0.007538463454693556, -0.004106774926185608, 0.029703795909881592, -0.023740533739328384, 0.013389211148023605, -0.017889786511659622, -0.03645465895533562, -0.02014007419347763, 0.005344432778656483, -0.0079885208979249, 0.01215155329555273, 0.018002301454544067, -0.005288175772875547, -0.0048943753354251385, -0.016764642670750618, 0.033079225569963455, -0.005203790031373501, -0.010407580062747002, -0.02160276100039482, 0.006638348568230867, -0.02306544780731201, -0.0048943753354251385, -0.01743972860276699, 0.030828939750790596, 0.031053967773914337, 0.012095295824110508, 0.03780483081936836, 0.016764642670750618, -0.011701495386660099, -0.033754315227270126, -0.004781861323863268, -0.0018705514958128333, 0.010913894511759281, -0.016314584761857986, 0.007088406011462212, 0.03172905370593071, -0.015301955863833427, -0.008832378312945366, 0.02430310659110546, 0.0020815159659832716, -0.008213549852371216, -0.0007876006420701742, -0.004725603852421045, 0.02284041978418827, -0.01119518093764782, 0.015526983886957169, 0.007200920023024082, -0.004275546409189701, 0.007088406011462212, 0.011645237915217876, -0.038479916751384735, 0.011363952420651913, 0.0015611370326951146, -0.03802986070513725, -0.030378881841897964, 0.005653847474604845, -0.009282436221837997, -0.001884615863673389, 0.01119518093764782, -0.00032347883097827435, -0.0008262774790637195, -0.003586395876482129, -0.014289326034486294, -0.00033402704866603017, -0.027903566136956215, 0.005400690250098705, -0.009282436221837997, 0.013051668182015419, 0.00047115396591834724, -0.03645465895533562, -0.011870266869664192, 0.025428250432014465, 0.004725603852421045, 0.012826639227569103, 0.02092767506837845, 0.008719864301383495, 0.04500574991106987, -0.02137773111462593, -0.0030660168267786503, -0.008776121772825718, 0.006694605574011803, -0.008382321335375309, -0.006441448349505663, 0.011138923466205597, -0.024753162637352943, -0.020702645182609558, -0.017664756625890732, 0.0019549373537302017, 0.013501725159585476, 0.038929976522922516, 0.004106774926185608, -0.020590132102370262, -0.0319540835916996, -0.001765069318935275, 0.004978761076927185, -0.029928823933005333, 0.015076926909387112, 0.008607350289821625, 0.01642709970474243, -0.0022502876818180084, 0.012432838790118694, 0.0005977326654829085, 0.018002301454544067, 0.009507465176284313, 0.015076926909387112, -0.009563722647726536, -0.00024085109180305153, 0.0006715701892971992, -0.017664756625890732, -0.04230540618300438, 0.003150402568280697, -0.0022643518168479204, 0.013051668182015419, -0.008044778369367123, 0.008944893255829811, -0.03757980093359947, -0.0159770417958498, -0.006047647912055254, 0.014176812022924423, 0.02115270309150219, -0.03217911347746849, -0.010632609017193317, -0.0068352483212947845, 0.009113664738833904, -0.027903566136956215, 0.010970151983201504, 0.007369691971689463, 0.006160162389278412, 0.0070602772757411, 0.006778991315513849, 0.006863377057015896, 0.003881745971739292, -0.009507465176284313, -0.008719864301383495, 0.003966131713241339, -0.018002301454544067, -0.0011321759084239602, 0.00035160742118023336, 0.038479916751384735, 0.07290931791067123, 0.014289326034486294, -0.02486567758023739, -0.019014930352568626, 0.006722734309732914, 0.01867738738656044, 0.011420209892094135, 0.016652127727866173, 0.0012165617663413286, -0.011026409454643726, 0.04275546222925186, 0.00849483534693718, -0.021040188148617744, -0.021940303966403008, 0.021490246057510376, 0.017889786511659622, 0.0011603045277297497, 0.0016103620873764157, -0.0068071200512349606, 0.006497705355286598, -0.0016173941548913717, 0.016539612784981728, 0.028128594160079956, -0.025990821421146393, -0.009282436221837997, -0.016764642670750618, 0.0039098747074604034, -0.01743972860276699, -0.008326063863933086, 0.0020111945923417807, 0.01130769494920969, 0.007425948977470398, -0.006722734309732914, 0.03622962906956673, 0.025428250432014465, -0.008776121772825718, -0.012376581318676472, -0.003825488965958357, -0.019239958375692368, 0.018564872443675995, 0.02407807670533657, -0.027003450319170952, -0.000314688659273088, 0.016877157613635063, 0.05085650086402893, 0.030828939750790596, -0.00365671725012362, -0.0098450081422925, -0.01400804053992033, -0.009507465176284313, 0.04613089561462402, -0.01451435498893261, -0.0065539623610675335, 0.00424741767346859, -0.0282411091029644, -0.014176812022924423, -0.0041911606676876545, -0.03420437127351761, -0.02779105119407177, -0.00559759046882391, 0.002151837572455406, 0.0002742538054008037, 0.06075776368379593, 0.02115270309150219, -0.04500574991106987, 0.028353624045848846, 0.003094145329669118, -0.015639498829841614, -0.033304255455732346, 0.01642709970474243, -0.024190591648221016, 0.011026409454643726, 0.019802531227469444, 0.03217911347746849, -0.009169922210276127, -0.010745123028755188, 0.0030660168267786503, -0.006863377057015896, 0.05108152702450752, 0.025203220546245575, -0.013726754114031792, -0.0023065446875989437, -0.015639498829841614, 0.01130769494920969, 0.006497705355286598, -0.00810103490948677, -0.009394950233399868, -0.017889786511659622, 0.04208037629723549, -0.011701495386660099, 0.028466137126088142, 0.009563722647726536, 0.04568083956837654, 0.014964411966502666, 0.01620206981897354, 0.02407807670533657, -0.029703795909881592, -0.004050517454743385, -0.008551092818379402, -0.008719864301383495, -0.023290475830435753, -0.024640649557113647, -0.012039038352668285, 0.02362801879644394, 0.0027847308665513992, -0.004697475116699934, 0.030153853818774223, 0.0013572047464549541, -0.009226178750395775, 0.02014007419347763, 0.0003480913583189249, 0.006328933872282505, 0.013670496642589569, -0.0005942165735177696, 0.023290475830435753, 0.00466934684664011, 0.0048662470653653145, -0.012320324778556824, -0.0008649543160572648, -0.02902870997786522, -0.00810103490948677, -0.009001150727272034, -0.01130769494920969, -0.007482205983251333, 0.022502874955534935, -0.009619979187846184, 0.013445468619465828, -0.041405290365219116, 0.033304255455732346, 0.04298049211502075, -0.003586395876482129, -0.03397934138774872, 0.024190591648221016, -0.020027559250593185, 0.010632609017193317, 0.018002301454544067, 0.012264067307114601, -0.003966131713241339, -0.03285419940948486, -0.004359932150691748, 0.001258754637092352, 0.0044724466279149055, 0.0011743687791749835, -0.014851897954940796, -0.02261538989841938, 0.02362801879644394, 0.00810103490948677, 0.020027559250593185, -0.013895525597035885, 0.016877157613635063, -0.04838118329644203, -0.029703795909881592, -0.001772101502865553, -0.027678538113832474, -0.0443306639790535, 0.03285419940948486, -0.020027559250593185, 0.025878306478261948, 0.001603329903446138, 0.006469576619565487, 0.01620206981897354, -0.007594720460474491, -0.001940872985869646, 2.6150803023483604e-05, -0.013332953676581383, 0.005456947255879641, 0.007425948977470398, -0.005541332997381687, -0.01912744529545307, 0.014233068563044071, 0.04973135516047478, 0.03262916952371597, -0.030828939750790596, -0.022277846932411194, -0.0041911606676876545, 0.01721470057964325, -0.019802531227469444, 0.02385304868221283, -0.026215849444270134, 0.016877157613635063, -0.01721470057964325, 0.0048943753354251385, -0.0005555397365242243, 0.0028831809759140015, -0.01721470057964325, -0.030153853818774223, -0.009113664738833904, 0.009394950233399868, 0.0007348595536313951, 0.033304255455732346, -0.013614240102469921, 0.01890241540968418, -0.02486567758023739, 0.012995410710573196, -0.009282436221837997, -0.01400804053992033, 0.03285419940948486, 0.021040188148617744, -0.007650977931916714, 0.02239036187529564, 0.026103336364030838, -0.008382321335375309, -0.02216533198952675, 0.007707234937697649, 0.013726754114031792, 0.01912744529545307, -0.007088406011462212, -0.009788750670850277, -0.01991504430770874, -0.03127899765968323, -0.0014767511747777462, -0.02092767506837845, -0.03487945720553398, -0.030153853818774223, -6.372884672600776e-05, -0.006582091096788645, -0.028578652068972588, -0.01451435498893261, 0.00787600688636303, 0.0032347883097827435, -0.006638348568230867, 0.03645465895533562, 0.02092767506837845, 0.010520094074308872, 0.020590132102370262, 0.0008086970774456859, -0.012376581318676472, 0.02137773111462593, 0.016764642670750618, 0.005878876429051161, -0.016764642670750618, 0.002179966075345874, -0.015526983886957169, 0.008776121772825718, 0.006103904917836189, 0.019802531227469444, -0.02137773111462593, 0.01451435498893261, 0.020815160125494003, -0.0048662470653653145, -0.020252587273716927, 0.04568083956837654, 0.04230540618300438, 0.03757980093359947, -0.0159770417958498, 0.01845235750079155, -0.015301955863833427, 0.02925373800098896, 0.009732494130730629, 0.022952932864427567, -0.005513204727321863, 0.011476466432213783, -0.014851897954940796, 0.004613089375197887, 0.02362801879644394, 0.0003603976219892502, -0.00559759046882391, 0.001940872985869646, 0.06480827927589417, -0.02925373800098896, 0.03127899765968323, 0.0005977326654829085, -0.03127899765968323, 0.014289326034486294, 0.003881745971739292, 0.006947762798517942, -0.008382321335375309, 0.0098450081422925, -0.036004602909088135, 0.0, -0.023515505716204643, 0.009676236659288406, 0.0141205545514822, 0.021715275943279266, 0.023515505716204643, -0.002855052473023534, 0.03397934138774872, -0.004641218110918999, -0.006638348568230867, 0.018339844420552254, -0.02284041978418827, -0.033529285341501236, -0.01991504430770874, 0.0062445481307804585, 0.01620206981897354, -0.008607350289821625, -0.0029253738466650248, -0.007819749414920807, 0.03645465895533562, -0.001026693731546402, 0.01642709970474243, 0.01575201377272606, -0.0005660879542119801, 0.0009985651122406125, 0.008888635784387589, -0.010126293636858463, 0.011251437477767467, -0.02902870997786522, 0.0032910455483943224, -0.020027559250593185, -0.011982780881226063, -0.012939153239130974, -0.04230540618300438, -0.015526983886957169, -0.00731343450024724, -0.0026440878864377737, 0.002334673423320055, -0.02655339427292347, -0.0344294011592865, -0.00492250407114625, -0.049281299114227295, -0.04005511850118637, -0.015526983886957169, 0.013220439665019512, 0.02137773111462593, 0.00020481132378336042, 0.02284041978418827, -0.02576579339802265, 0.03960506245493889, 0.0344294011592865, 0.003431688528507948, 0.009676236659288406, -0.009676236659288406, -3.8237307308008894e-05, -0.020252587273716927, -0.012714125216007233, 0.0025878306478261948, 0.005344432778656483, -0.023515505716204643, -0.026440879330039024, 0.005428818985819817, -0.026890937238931656, 0.012995410710573196, 0.019690016284585, 0.013501725159585476, -0.0031644669361412525, -0.04208037629723549, -0.019577501341700554, 0.0037973602302372456, -0.023515505716204643, 0.01080138050019741, -0.012264067307114601, -0.02902870997786522, 0.009169922210276127, -0.013276697136461735, -0.01890241540968418, 0.0012446902692317963, -0.010463837534189224, -0.02362801879644394, -0.021715275943279266, -0.014064297080039978, -0.0027144094929099083, -0.020477617159485817, -0.002053387463092804, 0.0023768662940710783, 0.0023768662940710783, 0.04455569386482239, -0.01642709970474243, -0.0369047150015831, 0.0013501725625246763, 0.030153853818774223, 0.008326063863933086, -0.03240413963794708, 0.023740533739328384, 0.0020815159659832716, -0.0005414754268713295, -0.0017017800128087401, -0.02216533198952675, 0.0019690017215907574, -0.011926524341106415, 0.02554076351225376, -0.023177962750196457, 0.021490246057510376, 0.03712974488735199, -0.033304255455732346, -0.02216533198952675, 0.01316418219357729, 0.004753732588142157, 0.03262916952371597, 0.025653278455138206, -0.03217911347746849, 0.030153853818774223, 0.006947762798517942, -0.019014930352568626, 0.03802986070513725, 0.02554076351225376, -0.016764642670750618, -0.015639498829841614, 0.008719864301383495, -0.019464988261461258, -0.062107935547828674, 0.012882896699011326, 0.001202497398480773, -0.004106774926185608, -0.046355925500392914, -0.0051756612956523895, -0.002053387463092804, -0.019014930352568626, 0.04500574991106987, -0.002404994796961546, 0.003881745971739292, 0.02407807670533657, -0.012376581318676472, 0.026665907353162766, 0.006638348568230867, 0.01912744529545307, 0.011645237915217876, 0.008888635784387589, 0.011532723903656006, 0.013445468619465828, 0.002531573409214616, 0.008944893255829811, 0.006778991315513849, 0.0098450081422925, -0.03622962906956673, -0.002559702144935727, -0.010576351545751095, 0.002686280757188797, -0.023402990773320198, 0.013389211148023605, 0.021265218034386635, -0.024753162637352943, -0.005541332997381687, 0.035554543137550354, -0.005231918767094612, -0.03150402754545212, -0.0020252587273716927, 0.0039098747074604034, -0.010688865557312965, -0.024528134614229202, -0.010688865557312965, -0.03150402754545212, 0.021265218034386635, 0.02576579339802265, 0.004950632806867361, 0.038929976522922516, -0.001258754637092352, -0.013726754114031792, 0.019690016284585, -0.012601610273122787, 0.010913894511759281, 0.020477617159485817, 0.004725603852421045, -0.0005414754268713295, 0.020815160125494003, -0.007004020269960165, 0.004303675144910812, -0.011645237915217876, 0.0041911606676876545, -0.03420437127351761, -0.03622962906956673, -0.00849483534693718, 0.009901265613734722, -0.016539612784981728, 0.02385304868221283, -0.0015752012841403484, 0.03780483081936836, -0.00034105920349247754, -0.010576351545751095, -0.014739383943378925, -0.014851897954940796, 0.013614240102469921, -0.014964411966502666, -0.011532723903656006, -0.010351322591304779, 0.020590132102370262, 0.00731343450024724, 0.033754315227270126, 0.0008649543160572648, -0.014401840046048164, 0.004219289403408766, -0.0009774686768651009, 0.008944893255829811, 0.030153853818774223, -0.029928823933005333, 0.0443306639790535, -0.03487945720553398, -0.010126293636858463, 0.008269806392490864, -0.0159770417958498, 0.005035018548369408, -0.030153853818774223, 0.026215849444270134, -0.027228480204939842, -0.00492250407114625, -0.03465442731976509, 0.02137773111462593, 0.051756612956523895, 0.005794490687549114, -0.024640649557113647, 0.009619979187846184, -0.007369691971689463, -0.02576579339802265, -0.030603911727666855, -0.0068071200512349606, 0.012714125216007233, 0.005344432778656483, -0.05265672877430916, 0.014345583505928516, -0.012714125216007233, -0.02216533198952675, -0.01316418219357729, 0.00945120770484209, 0.01991504430770874, -0.012545352801680565, 0.0008262774790637195, -0.031053967773914337, -0.026103336364030838, 0.004163031931966543, -0.0098450081422925, 0.03780483081936836, -0.017889786511659622, -0.013220439665019512, -0.003094145329669118, 0.015301955863833427, 0.016764642670750618, -7.735363760730252e-05, 0.020477617159485817, -0.002967566717416048, -0.00933869369328022, 0.01721470057964325, 0.020252587273716927, 0.01215155329555273, 0.002067451598122716, 0.011082665994763374, -0.017327213659882545, 0.009057407267391682, 0.006019519176334143, -0.019352473318576813, 0.007369691971689463, -0.035329513251781464, -0.024190591648221016, -0.009226178750395775, -0.021940303966403008, 0.011420209892094135, 0.004331803414970636, 0.007369691971689463, -0.019577501341700554, 0.023965561762452126, 